image,0,1,2,3,4,5,6,7,8,9,10,11,12,13,14,15,16,17,18,19,20,21,22,23,24,25,26,27,28,29,30,31,32,33,34,35,36,37,38,39,40,41,42,43,44,45,46,47,48,49,50,51,52,53,54,55,56,57,58,59,60,61,62,63,64,65
abstract_10027.jpg,18.366117,9.602873,6.661193,11.116091,-1.5650846,1.4678333,17.161863,20.931786,17.620382,-2.251909,20.443573,10.763719,6.958898,24.321999,13.058749,9.247768,0.57140416,5.0775266,8.045384,7.090498,3.5348587,-1.7654665,3.904248,-0.65507275,6.5085382,7.798551,10.399392,-1.2635505,5.2127423,5.961198,18.964867,6.675482,7.7513537,12.692062,-0.6041023,7.429148,8.131604,2.4814472,10.133919,0.59060097,9.28689,-0.81572086,-5.7412567,-1.0717943,16.714005,7.3478856,8.434389,3.139827,0.74460024,-4.447566,6.081233,1.9945506,5.283489,-0.59808445,-1.6410079,17.250977,-0.52250576,2.6574926,5.0687404,0.081946395,4.599326,-2.88708,10.019411,-2.2884989,-2.9166286,5.175886
abstract_102677.jpg,30.879063,9.992983,5.6135178,-3.803648,9.545554,-0.30163625,17.696264,15.516183,1.7217894,8.718647,2.3696604,21.110968,26.542776,11.185593,0.7131107,-3.979601,5.0839114,4.516978,21.467525,0.7055056,13.806717,5.347719,-2.4489112,7.7039757,7.965236,9.59155,5.7965813,-0.794888,5.5326433,-1.028205,12.195515,-1.2516581,-6.5481606,-3.9794292,-2.0440683,3.959594,2.3021297,-1.1257582,16.59347,-2.42289,10.475695,4.7774215,8.56259,10.063573,6.9582486,5.2809887,7.7423735,0.7504865,0.4344128,-2.1527176,1.0571665,18.176512,5.11106,0.1373216,7.8182817,5.0444984,1.7482857,-3.5324433,3.4086318,-3.7285972,0.67233455,7.555356,5.2062483,-0.9389704,2.752291,-1.1773635
abstract_103108.jpg,37.31171,13.403925,18.855272,0.6966882,11.408114,0.7740678,12.095237,4.84445,5.0054646,-4.711943,3.6170104,12.461972,12.896996,4.09307,-5.4813566,6.34986,5.021546,38.84126,34.655838,4.73115,3.4395163,7.9395785,0.7263417,7.103589,5.769233,-0.065606646,0.9870562,11.293522,7.8910165,3.1340518,8.093558,3.278635,-2.1312797,-0.0681079,2.5502694,1.8969806,8.31265,1.9072305,3.5754845,5.770522,28.752914,0.6436856,6.3422546,20.282913,4.0612707,3.1072373,3.511268,1.0336154,-3.925433,1.6920561,6.8712635,7.72017,1.7554226,6.9143496,4.120742,6.660018,5.4413786,3.520192,3.4523108,1.6302578,-1.3424965,10.359237,-1.4243714,-3.1753812,-0.5335149,2.4894252
abstract_103678.jpg,24.932667,3.852062,7.0240064,7.6913366,0.7235201,2.4942935,16.701881,-3.133577,7.796114,9.186175,-3.4997303,19.73521,2.1786625,5.3555994,0.6458216,9.38265,18.951485,13.131671,3.5268676,15.7574,8.966211,12.318036,3.9281487,6.1939864,27.786203,10.67661,18.179869,0.18296856,5.4287305,7.186625,31.468222,6.1039524,6.440894,8.947705,-2.1698,8.532556,16.13195,0.5485204,4.549038,5.7195177,15.236322,0.23516548,9.879506,2.958437,1.6785702,6.980647,6.5149503,4.441918,-7.046726,7.743768,3.2746532,12.078283,9.848929,4.48061,-4.550083,1.6573763,3.2314944,3.7347124,5.760026,7.877396,7.1247234,3.1067543,0.7359155,-0.6337075,6.403115,3.6994855
abstract_103828.jpg,44.892357,3.1446972,16.219967,-3.5129302,1.0850384,0.9221617,7.6428456,8.898938,33.024414,-4.088736,19.732294,13.199303,-4.7574153,29.708502,4.9390435,3.5527864,5.640063,8.360849,8.767114,6.3978553,2.578585,-0.7296998,14.460024,2.9219072,2.3078394,2.5214953,1.6274432,2.8201933,3.4600317,16.184484,2.593007,7.3091598,9.443207,5.900648,3.1277447,9.858118,4.549592,-3.7469492,0.38754457,3.741665,16.948627,-1.4444102,-2.6598606,9.042816,-3.1765602,0.9054713,4.344546,3.3127472,-0.87365824,5.522419,11.806911,5.423807,0.93017304,5.7350473,-3.814431,23.06456,2.1704447,-1.1528759,0.13122317,0.7892322,2.4768593,0.9916168,8.120743,-4.0681424,1.8887844,4.223405
abstract_103985.jpg,12.401284,5.5554266,14.614959,6.291041,6.7215204,3.2538884,9.868827,-0.37639093,27.267166,3.8118641,17.445978,11.623348,-2.6505527,5.8269386,7.6533318,10.607062,11.30172,6.108,4.985236,8.161015,1.5210922,-2.794994,3.6343374,29.468107,3.6564813,0.9437328,5.749436,3.8265088,3.810778,36.553738,10.237162,7.638627,5.305304,3.5596366,-0.19953859,5.221101,7.186088,0.670311,0.4267958,4.98577,10.583207,-1.0207765,1.417007,1.6801202,0.9824796,19.639597,0.6412224,8.731915,-0.23344052,3.5711727,4.5358562,5.4613814,1.4767368,2.1997812,-1.1552604,10.000937,5.8129287,-1.6548773,7.290354,2.8402631,0.72201353,4.2059937,2.066405,0.5036442,3.5879958,3.0047174
abstract_104253.jpg,11.1126375,5.4449096,3.4658637,8.30491,-1.715219,1.7949926,4.804176,0.52675444,6.7707644,2.5524836,9.413281,5.6640344,4.369256,4.009451,6.5132065,2.629541,2.5812273,18.355154,1.8535216,10.2158985,13.501928,9.163508,-2.4949198,12.832854,9.143621,12.407083,12.207472,9.80566,7.8605704,7.9284534,16.32342,6.6557393,4.80068,7.311911,5.2263,-1.7986014,4.013071,2.8525312,9.431238,5.5162444,11.817311,-0.9278245,-2.203672,4.887849,1.281967,41.709988,0.50576293,3.1888552,0.83893025,14.416414,9.622427,1.0796785,6.6451893,0.3759211,2.542502,5.3611956,7.9315214,7.886447,3.8829782,10.997333,1.2000816,5.3044415,2.8733504,2.8558462,21.982443,6.0027742
abstract_10526.jpg,-0.19157222,40.7283,2.4757118,4.0909624,21.042055,-0.3290968,-1.550816,3.28278,3.0414493,-6.126894,5.154047,33.407368,-1.0347811,-0.61438656,8.3065605,7.254672,-2.3975546,7.5480328,0.1899024,16.241564,-2.8491077,1.6031471,26.391708,20.075241,1.7920014,0.7086452,6.339521,1.6525619,5.1432858,3.0654309,5.977586,0.8564608,3.2488909,2.5129578,-1.5292287,11.8593,5.950177,0.012297789,-0.9862952,5.1060348,12.316572,-4.563801,27.13276,3.8447075,1.3996923,0.18311147,3.2810583,3.8384914,3.8958554,9.447782,1.716779,3.2407317,-2.9390936,2.745604,-2.2016366,1.0270431,8.476729,14.804641,2.0754902,5.788488,4.7143526,4.541159,4.424431,-4.748284,4.873694,3.0774698
abstract_105796.jpg,22.04452,-5.604697,4.810443,3.9119596,0.36904365,11.044921,5.053971,3.6496632,18.859417,1.6322643,17.01346,3.606838,6.0313168,25.315125,23.333675,-2.2857883,2.3604534,2.7627275,8.651558,0.5268872,18.07504,5.025299,7.293402,-2.17543,-3.5830252,6.288739,2.6454566,4.746794,2.7297437,29.183405,-0.9336262,2.8116248,12.491926,12.112149,2.6993344,5.604568,5.8778634,1.3746423,-0.20938917,9.257142,17.497705,6.9717226,4.447981,3.923142,1.7042253,0.2946823,0.26347935,4.9346557,-4.5600533,1.5403334,5.381197,4.8197927,6.319716,-3.4707878,0.7149743,7.050958,5.5964546,1.5616734,1.9937152,2.2304244,3.045052,4.637291,10.658028,5.9166164,3.648314,11.478246
abstract_10604.jpg,6.440495,7.1711845,18.130259,11.0462,-4.899216,11.870627,15.899987,11.12479,19.639763,-3.7032533,14.580477,31.146038,-0.7461669,8.112335,15.658969,2.2049713,-2.615438,13.12568,2.9689977,0.39844173,6.3900933,8.922368,-0.5295756,5.948535,-0.22670813,-1.7590895,4.2604227,6.2934756,3.8957224,10.78894,0.3119785,9.086648,5.8822703,6.291098,-2.7776463,2.195827,-3.5074563,1.6334497,4.545541,1.039323,19.151018,-0.053081196,1.7685075,3.667119,4.5523825,3.382272,3.526973,3.4709003,5.7087593,7.435669,13.524381,3.20227,1.6257663,4.126847,-0.8560009,12.890598,3.5599065,1.3164526,-0.048862327,7.160574,2.694751,10.313823,1.6230665,-1.3180357,2.8178954,5.8632636
abstract_106095.jpg,29.32164,9.481211,5.769833,7.1212807,12.744115,19.852966,10.447562,7.3393397,-1.1313796,16.370583,-1.3529702,3.7875216,28.630817,2.8559315,3.3267946,4.280833,5.0324254,28.928856,29.95445,7.9457164,23.89887,6.2833548,4.5356145,14.807737,1.7304137,-4.26753,2.3446403,10.158526,-0.9940699,4.029437,4.4548516,5.3549223,9.318506,6.591226,8.807713,-0.89055413,3.673782,1.033773,4.6939106,8.694725,9.946473,4.5590634,2.5181882,22.009583,-0.15814394,1.772518,8.754194,2.1676161,6.414967,-4.5288143,3.3728797,11.505266,2.1331742,0.12468458,7.733544,3.8140914,-0.27454078,-0.69250697,4.5433226,1.676796,3.657315,6.16261,5.1693234,-5.0366426,-0.2719652,7.480081
abstract_106769.jpg,60.48016,8.309067,6.4614244,4.8005276,10.300994,1.6376102,5.891099,2.4994068,8.702728,9.5583725,2.8167572,-2.235376,4.7969966,-3.3163388,8.704536,-3.8226948,43.145123,1.3905066,6.140513,-0.56766826,7.1789093,2.6377182,5.631904,1.6810935,8.134329,17.48465,9.10509,1.9209216,7.744841,11.536835,7.2356157,1.8667755,5.329189,2.6917439,3.859981,0.85691696,6.8632984,0.6121859,4.0679975,4.856965,6.184377,0.9623686,4.8155804,4.359761,2.9106624,2.483556,2.49553,2.0313923,0.37599838,9.816433,6.2396173,2.557612,11.253902,4.6233206,7.125652,3.9205632,2.7250438,-0.711621,4.091291,6.1918917,0.19963476,3.7036703,3.8323436,3.242763,5.953187,3.3896646
abstract_107382.jpg,23.504427,21.005354,1.7945077,10.075081,12.25083,4.9926047,30.026945,6.5448747,2.5761695,-1.215695,10.215778,12.975131,-0.034852326,16.023155,-7.961349,-1.7996321,3.0445137,12.967242,10.903548,6.692305,6.4248176,13.06423,3.1771607,6.8397565,5.645661,7.5898724,9.299148,5.669388,10.285856,-0.83450425,0.8570997,3.9886389,9.839701,22.775438,-1.0965378,12.049277,1.8895441,-1.6207383,12.987992,12.688295,33.391148,-2.464744,0.12963401,5.095184,5.9423146,10.180561,8.695939,-1.3777349,-2.6621966,3.0858543,8.855463,9.6080885,18.073214,4.3691397,0.9103757,10.373968,1.4669975,5.411038,5.0150585,0.853369,0.7564667,11.606168,-4.442938,1.8944867,0.91886276,1.7226447
abstract_107962.jpg,10.6374855,35.927437,3.9297805,4.3930845,38.100178,1.5992038,15.974426,3.873165,-0.7569644,2.5061185,6.7790866,11.055481,0.46470383,12.422802,3.8811789,1.2367208,-3.096242,3.8519003,6.994743,4.2833633,2.3484626,10.191242,12.090616,6.3102007,-2.5186143,4.601273,8.919126,3.1435306,2.0587509,-1.5903466,2.924722,-3.4447417,5.544425,10.940138,-4.035799,12.861152,-2.0917053,2.1045494,3.4973495,9.658497,15.804638,4.930151,29.978552,-1.4464585,14.292044,4.376594,1.7366879,-1.4294231,2.4764483,3.7777357,-0.8979026,5.2457614,6.748381,5.2951655,0.371815,7.691052,1.0562375,4.1781735,8.262385,3.5812085,-0.07158462,4.3847203,-0.664781,0.63237953,-5.8124723,4.000349
abstract_108027.jpg,-1.7084392,18.638689,14.201742,15.371678,48.956055,2.0415154,17.79378,1.2242285,2.4889255,6.880572,0.61377484,17.802896,9.171239,11.600247,2.2435236,-1.2689704,4.711241,5.705611,4.0806384,1.8835055,4.229366,6.8122754,5.487116,23.930016,4.1028576,-0.97205836,1.3636552,-1.9489698,19.134716,11.1895075,4.055338,4.0016456,7.240654,11.974266,-1.0109602,3.8872435,3.8045964,2.3009076,9.2097645,8.7809305,7.040631,4.7483797,3.007997,6.979293,8.329032,8.344847,1.2836348,2.927694,2.6768203,9.058467,5.162766,1.5660822,2.254931,-0.24048388,-1.4930936,4.677683,-0.14612237,5.4220123,13.870661,13.421236,4.519441,3.5118368,-1.5596014,2.949245,4.4790993,6.0042143
abstract_108573.jpg,-1.837184,71.7633,0.5248692,2.3047256,11.779159,5.628185,2.7370028,0.3538396,2.3676403,-1.714956,4.934179,14.59721,2.7646012,6.1718264,-0.84101146,1.1961148,4.7485595,3.6318638,-1.5631225,-2.3761556,7.5519533,5.5769415,3.163694,-3.3068016,2.5107293,-0.16756327,-3.1286862,7.76135,-0.37542832,0.1402881,-0.50457007,-1.1736068,1.5706052,7.075511,1.4531891,5.6062436,-0.8632301,0.5449582,-2.9079247,2.2223477,7.663724,6.5022917,21.191309,3.5407364,6.64637,-0.4662761,-2.5748653,1.639739,-1.0249102,2.2915995,-1.2415403,1.7414238,1.7457399,7.149425,0.37349796,-2.5379407,2.6718426,14.744457,-1.4650955,2.4118435,-1.0975683,7.161618,-0.037497237,6.4784303,-3.6107965,2.9327517
abstract_108872.jpg,24.330074,9.018594,6.7314467,7.5611033,10.055711,38.682266,9.03394,10.572646,4.435986,11.4607725,4.0668554,25.45352,19.843363,2.472709,7.5458636,2.2856424,0.7518752,4.6756577,11.542608,7.1599193,6.0469365,0.0563954,-2.6080246,13.10032,5.5491304,-1.7992204,0.9420311,10.62643,4.2864504,0.953204,2.979033,1.8209847,12.842777,4.0065312,2.6260219,4.9135923,0.93449,0.14448936,10.416527,6.1932755,6.07458,4.979141,-0.51470864,2.8163512,13.2739725,-0.9965913,11.32756,-3.7454433,7.6455855,2.982744,-2.2282808,16.436686,3.1025503,7.1162543,4.9239583,4.8435197,2.2334404,2.4844303,16.589523,1.16005,4.384738,0.6549108,2.2501574,-4.0581656,-3.430771,0.997045
abstract_108973.jpg,27.594345,8.822055,29.70066,3.0016487,4.7798576,4.240137,19.565851,1.1963873,-0.6532355,-3.0365956,1.4608953,18.71206,-5.539396,9.0274515,-1.0209656,0.097547986,1.0651685,15.902999,21.378546,3.0460007,3.9953425,2.5685983,7.319302,8.277608,-1.8944019,1.7238839,14.743227,7.644693,5.1694574,2.7476315,4.3404045,0.6129914,2.828468,2.2393725,-2.7703445,9.191537,3.486091,-0.43879017,6.169643,14.594199,31.9379,-1.7108821,11.033795,4.2859836,3.7176263,2.212606,3.8772986,-1.6919976,0.8858025,7.733974,1.5748044,3.0140626,3.7608848,8.55267,-0.11570966,7.3503003,3.9059532,3.8697095,3.3567696,5.9264727,0.8844796,6.157125,-0.994622,-0.60247993,0.6104214,4.4309177
abstract_109097.jpg,33.496605,6.960025,8.128458,35.30353,4.999179,-0.8220265,16.543583,6.075747,9.953506,20.399137,2.344764,9.961538,6.302647,8.21076,7.0781035,25.395632,5.680846,0.7781992,2.883963,6.6086516,8.202843,-1.2888134,9.7143755,3.3818197,3.8216205,11.697808,3.6158643,-2.4898145,3.0108001,14.588393,0.20998287,4.084321,8.744261,6.8848224,5.475665,6.4581976,24.299883,4.5807114,2.9529643,8.094463,3.885486,8.826093,-4.139,-1.3990468,7.7255473,3.372142,7.8275657,22.46641,2.7642734,2.0273914,13.613802,5.5289674,5.790624,3.7379463,13.009371,5.657568,6.1822886,5.1521497,7.734923,4.1636763,9.219887,7.1579857,4.3541474,4.6561594,0.27943385,1.4062703
abstract_109391.jpg,52.612583,12.931806,1.781605,13.55754,1.7458249,4.8766546,11.427208,10.327574,17.108673,-3.6095064,12.126927,-5.21778,2.953157,8.44035,7.651756,3.803068,9.750385,12.991489,5.653287,3.5255506,-1.3679459,3.0249665,-0.23423131,0.77081656,4.5891066,2.5789118,13.78919,2.9542553,14.150311,10.456458,2.2319765,4.9796624,3.2632356,4.28008,0.56901175,-2.34435,9.62231,1.1991311,4.9062395,3.328312,17.398243,1.0646298,4.495078,1.2414995,-2.0103195,-0.92499954,2.5251417,10.453482,-0.68695736,2.319116,22.483053,-2.5558937,7.627332,-0.4204148,5.038131,31.6384,10.624519,1.1355801,1.4960964,4.821746,0.4736185,3.0747504,0.20051706,-1.3737932,6.2492905,3.09597
abstract_109910.jpg,32.895134,5.2320423,2.9167664,6.586769,0.96636117,0.5650538,15.45182,-8.413007,3.1644323,15.322657,28.617785,23.170115,1.8260885,26.227558,40.186348,14.988004,16.024218,3.5672994,-1.0084661,14.970136,1.1522171,4.258432,-2.3477242,6.9159813,12.092047,-3.4748287,9.82365,3.33545,12.9757185,-0.85026026,13.599827,17.414536,4.079242,3.2742083,1.7333906,8.207373,3.080594,-4.2509027,0.9696747,-5.634094,12.538606,7.9603457,5.218024,-5.122827,6.839989,9.226537,-0.71820366,-1.8501412,1.7303077,13.811612,4.630093,-3.8284287,9.57816,4.785082,2.7590413,8.68866,2.756443,0.0858549,7.6207056,6.9092736,1.251395,-2.1333797,2.3044639,8.522371,7.432405,0.5094001
abstract_110131.jpg,19.07721,15.382989,6.1953025,7.7760367,31.107632,34.256256,18.378788,3.4879699,2.2083848,4.0486197,6.8057456,18.91762,23.353863,8.500979,10.4025545,-2.0294645,1.6841587,13.387116,9.451111,6.185034,11.529176,3.5874984,-1.0597236,3.2475526,1.1639297,-0.18952666,-3.4986634,10.828949,10.847687,-3.3938124,-0.85012466,6.1103163,18.385702,10.676321,4.469483,-2.5459728,-3.796015,1.698576,6.060661,7.142639,24.442175,0.5443091,7.404611,8.493957,2.1825209,1.973382,9.65761,0.008670427,1.6149476,3.0108137,0.04277029,4.9943037,0.08963663,-0.04737064,2.4571702,11.35968,1.88451,3.0590935,0.7016091,10.236304,-0.07961346,6.3979363,1.5259819,3.3077269,-0.70420974,8.501859
abstract_110241.jpg,-2.3105862,22.962217,17.594164,12.980136,56.51682,6.910202,16.567286,-3.923574,5.3433886,4.2969904,-2.5262892,15.529975,12.535999,5.0462317,3.709669,-1.4253627,6.861374,7.7587748,11.986067,-0.29409322,1.271452,7.860743,-2.9279463,8.554651,5.9235797,-2.2261183,2.7557142,2.4846692,24.501944,10.27479,7.645701,4.94295,4.242418,9.971611,-6.4268003,0.9073629,4.777224,4.3305755,8.994896,6.535779,4.1252775,-0.081570074,11.008213,1.1133081,-2.0740938,-2.81094,1.3012373,0.7656843,-2.9163036,6.3488946,8.766563,-0.3076027,4.3365955,-1.3529546,-0.59970665,2.905313,1.685402,2.5868897,1.2681777,7.566884,5.093509,-2.7669396,-1.4588097,-0.2102498,5.6856446,2.4927392
abstract_110349.jpg,60.494907,19.999573,-1.6488013,0.47680402,7.4173913,1.0724819,3.6322198,3.801956,-1.0167058,-0.32795435,15.291655,1.5815476,1.1855855,25.32722,0.5524472,-1.4882377,6.9018083,19.860312,0.34197727,6.2861004,10.172662,3.950543,9.309245,2.0611532,6.237069,5.901003,5.4944267,14.433113,1.3946254,3.4046502,13.952934,8.006684,17.497932,8.42596,5.579529,5.070825,0.08010557,-2.326414,4.660841,3.1445763,-1.15983,2.0898323,-0.11934859,8.907529,-0.8947622,11.736083,4.2940617,-1.0654473,0.06983634,4.786396,3.7544885,3.2964892,6.0174985,-0.850848,3.2495885,2.6491833,3.0510938,0.91848403,2.5259435,5.5813923,4.5505958,0.57519853,1.5418576,1.331386,6.5852113,1.7768009
abstract_110386.jpg,53.217636,3.5486102,8.656602,4.3623953,-0.8595187,7.8999257,9.131982,-0.16797176,16.806717,-1.9877656,29.27199,6.64545,-4.231773,1.4212894,15.214583,-1.6945918,10.796385,1.1988145,0.21486524,1.7830518,6.616141,5.809744,2.1781294,4.6455326,1.1507504,-0.4386405,7.6564507,2.3034813,8.764531,8.712432,8.059608,2.0242698,8.246001,5.0409102,-4.448044,-0.37241393,2.070005,-7.45572,0.4240508,3.90454,15.03649,3.3582993,2.5905893,1.2739873,3.8316205,11.0604,-2.4862962,0.05522119,6.0619993,6.1268544,11.312296,5.8822956,4.8897552,8.6496725,-1.9535985,8.574171,3.2694836,1.9055761,2.9672563,4.0846205,-4.4931784,2.6705313,1.5820875,2.7175329,9.156191,1.4885564
abstract_110439.jpg,45.727356,2.210993,-2.8796878,8.558555,1.8812928,1.5364287,22.461304,8.832716,7.945817,9.439775,28.571976,7.89887,5.6217036,37.649174,12.937762,8.003656,4.6765947,6.0317674,4.6773067,6.9588637,1.1005212,-4.1610436,3.8454587,-1.251418,0.46695882,8.819572,14.528307,4.762122,5.5995793,5.7926893,6.2202077,14.532256,11.166575,2.0234518,-0.5625973,5.986508,4.4480453,3.3437989,4.0982623,4.8001065,8.320976,2.8866584,1.0975641,0.5157787,2.6769106,4.5796876,5.663417,8.484117,0.47245464,6.7424083,6.9571934,3.0544705,-0.031578027,0.70579284,4.954595,22.6045,3.4425404,-0.6710338,1.1103293,-0.7151581,7.2441854,1.2549198,18.571135,-0.90922266,1.9099607,4.5667095
abstract_110553.jpg,51.756023,2.2710998,-2.1353981,-1.568438,-0.83914995,0.2072846,28.798794,10.734348,0.84781575,4.6423635,19.048653,8.33222,-3.705946,8.424843,0.25989786,13.487363,7.2543383,6.5074997,1.2705767,12.970214,-1.1570885,6.8699455,10.660564,3.036541,11.843921,1.1630182,8.885937,-2.7576559,6.144646,3.1308293,16.684536,45.154144,4.8323975,1.471375,-1.1049247,-2.0190833,4.0781097,-1.2088195,3.427283,-0.9567894,6.664785,0.49022037,0.35400108,5.61499,2.1793716,1.0931373,7.37679,1.2499696,-0.92035496,0.0730481,5.416706,-0.6149259,2.4234028,2.7693915,-2.7153683,6.9383035,-1.7248504,1.3686174,4.739049,-0.9387524,0.7412159,1.5069118,1.848292,-1.3464311,1.417637,0.8914437
abstract_111685.jpg,13.750172,11.992744,8.139269,5.1770253,-1.3410721,17.79776,-2.8683093,-1.8786348,16.031055,-2.2610984,14.464693,9.153564,-0.1114334,4.1669836,18.301046,-0.46973932,2.746224,8.120514,8.170385,6.8824105,9.660188,-2.055061,-0.97275245,20.347311,-2.3019555,-2.266221,4.31561,3.1260457,1.0771201,15.240629,5.087562,3.991009,9.8034315,0.94429624,6.0339236,5.066196,10.053272,5.6811066,-2.22499,3.9183166,5.312018,-1.1327443,-2.2460597,11.731984,1.064449,11.73792,2.0298772,0.25899202,5.1089354,4.930922,9.732268,10.087083,-4.6829844,7.7806487,-2.8643377,6.7202144,11.193731,-0.29542735,4.9311123,4.3790603,4.473302,7.3599973,10.212281,-1.1378313,-3.7671402,0.67711556
abstract_112007.jpg,28.438574,5.785941,4.0816655,9.493687,1.1047523,8.078466,1.7749485,13.922932,12.123444,5.928562,5.9143825,6.6738935,28.35973,5.838097,4.0073175,2.8226845,-3.0284824,6.839575,5.1823025,5.2293897,3.9834359,5.716769,-4.445233,1.1557002,15.159495,-0.92260504,7.094129,3.0678966,-1.4190555,5.845305,6.5914607,1.4087594,12.060301,4.9227533,2.668468,3.3541946,21.990902,0.33293116,23.161308,-2.3582582,2.7307372,-0.5691452,-1.0832297,-3.623704,1.0615988,3.2533913,23.744886,3.8917258,0.19903472,-1.4980378,1.9764658,9.137622,6.506844,-1.1114707,-1.7371333,5.8215237,-2.80765,-0.084420934,1.6125808,6.175659,0.25354707,8.865903,6.189893,2.9495418,0.121248424,1.1097915
abstract_11365.jpg,33.971447,14.1070795,7.2415614,-3.317033,8.334162,14.978673,15.986196,18.88508,-3.43167,26.711792,6.045717,7.0321517,20.880936,23.768423,3.0021753,-2.8812294,-1.5494088,-3.2607133,10.441748,9.693274,12.727408,0.40506703,5.285882,1.4651488,6.910871,3.832702,0.14389539,-0.7805436,0.21201433,3.5741463,7.747353,5.512929,25.461521,14.867815,2.2565842,7.9828935,17.05006,8.189379,21.715685,1.729406,11.937934,8.0569935,-3.4081295,-0.65656036,4.4668093,4.12133,28.597084,-1.7889247,2.3854878,-4.178768,0.63058704,11.3734665,9.147883,-0.9947625,4.83147,5.2163672,-3.4878526,0.103250355,9.833454,4.297673,6.5180273,-4.7475758,3.457115,-0.94915414,-2.987877,3.0487585
abstract_11367.jpg,35.07551,2.854186,1.623146,4.09707,7.711546,27.141275,7.001239,16.760359,8.148365,2.921709,15.412952,0.5943667,10.40455,1.8351727,7.1809387,-7.1138353,2.3816605,5.6796446,6.391717,9.759183,6.666749,0.45874324,0.71553206,-0.61963636,5.860006,0.35748482,15.334442,3.424944,-0.5002989,-1.9943068,3.0607634,2.667844,16.223097,4.2835855,-0.0004127156,-4.1031337,-1.4996139,-1.2840549,3.4909256,-0.59358793,17.528612,-6.273996,0.88042223,-1.3177904,-4.3667264,-4.700951,17.835192,3.0232124,1.7827477,-1.1046755,1.3032837,11.80397,0.65652514,0.14729407,-0.54279584,11.007259,-1.3104597,-4.651796,-1.8106471,7.9617577,-0.00093220733,1.876331,3.8425863,-8.387373,-2.6555495,6.773652
abstract_114021.jpg,44.626938,3.2749197,3.1973362,0.6010817,2.5406606,17.006088,4.0886617,15.259311,10.027472,14.115468,1.5343369,9.625102,24.03325,37.32568,5.206934,9.669051,-1.0494945,2.259179,0.9881278,5.157529,17.761522,1.6638677,8.975387,3.7443764,5.696986,-2.3230567,1.5813901,3.6392114,0.24652295,8.377149,4.237468,2.589406,23.919035,5.3254867,7.004669,5.028874,5.4970884,14.512264,7.913856,4.9319954,6.838743,2.9047968,-0.26268843,4.420063,0.062840894,2.0187125,21.801142,8.273194,0.6876433,-0.37789318,-1.5127426,7.0218453,2.8124168,-3.554504,5.868818,3.4565833,-3.3652291,-1.6990204,0.6594636,5.1371036,6.582924,-2.4738438,6.1531487,0.50085783,-1.9339823,7.715788
abstract_11407.jpg,31.678247,7.7247915,4.853936,39.90414,4.2135396,4.896273,15.048287,10.186472,17.331896,13.64775,7.0739956,-0.09931042,3.7933152,4.5604353,4.1411595,17.138792,3.1773136,2.7808125,7.9660563,13.232133,17.4143,7.1611643,8.717474,5.484433,1.5481384,11.631399,13.027824,6.2454896,10.904785,6.5643616,-2.435575,5.7039914,6.095612,4.149824,5.0402718,3.3109326,9.668719,9.355959,4.707136,4.3042994,5.5382304,2.9652662,4.56705,-0.22024158,3.0157263,3.1953256,1.0203714,44.567005,7.4607387,-0.11189626,6.750096,3.5131085,0.0056836754,6.2728844,12.23774,6.493664,4.862995,-0.6230434,2.4351354,-1.592363,2.9097064,6.114093,2.7891152,3.4619358,1.8319502,5.721828
abstract_11424.jpg,24.592062,2.6052556,-5.8419547,-5.9867554,0.14408405,1.1647934,8.421203,1.8876761,-3.060786,2.8859496,11.950939,6.967174,3.577496,16.106813,8.962525,-0.72729385,3.2924757,8.948013,13.44494,2.719525,17.035755,8.002323,19.517286,3.391087,4.7796836,-3.6454744,11.770151,-1.2256761,5.63758,0.47824326,3.6423857,-0.13834047,10.444605,6.275046,2.4952996,13.397798,2.9333775,-7.5158334,2.2323575,8.093827,37.103027,8.689953,1.6160362,4.5932875,3.5885825,10.982041,6.3025317,0.061435368,-0.76348287,10.646244,-1.4405134,4.0484643,9.053586,0.5227018,-3.4062743,11.287541,6.572029,4.214029,9.239672,7.1192665,6.6980066,17.998404,6.952031,2.5386662,5.2436996,11.514757
abstract_11491.jpg,37.45438,-0.5187953,4.2575903,8.125103,0.89778155,40.38197,8.232213,7.203766,4.748511,8.454815,15.116064,19.801363,14.564107,11.328604,14.058603,-2.1519551,3.4241736,-2.66756,0.9856863,17.501038,5.94356,3.5292976,2.328162,3.9083629,0.63366926,1.6756068,0.57587063,6.227526,2.3691404,-0.0688659,5.478795,2.8923392,22.70586,7.563743,4.3101363,-1.8069932,4.7131977,-0.6314304,3.5164974,3.833833,12.900835,1.1783825,6.969182,2.83145,4.811205,-3.9121668,12.694629,0.76161313,5.8769045,-0.9552337,-0.8736782,12.361032,0.030608475,0.8158727,2.9359646,14.923809,3.5686362,1.3237052,3.775179,4.223356,4.174868,2.9315093,6.7498455,-4.6013365,-1.0807235,6.0354323
abstract_115154.jpg,31.736023,2.2721567,1.7322177,14.439485,3.4504561,14.858317,-1.5807394,1.4669394,8.010815,7.688845,13.445772,18.25266,6.766218,23.511992,12.3442135,3.8432891,1.1545882,1.5330896,3.731092,19.90863,13.457409,2.5956795,26.099941,12.307631,0.13213587,2.9933074,-2.0778098,0.72161144,6.7596054,10.855485,8.522822,4.594114,33.78936,14.955682,0.38822508,16.0604,1.9759105,-0.611917,3.1167972,2.7849646,10.541977,7.4945474,3.6901317,1.5846795,8.594545,2.9867568,15.169006,-1.0685645,2.3574476,-4.6661606,2.5735033,6.431716,8.632953,-2.5017796,-2.579863,3.9026365,3.1380386,1.5495675,17.580557,5.4817805,5.0873804,-2.611728,7.5056324,4.8169875,3.7405927,18.00998
abstract_11541.jpg,5.3428597,23.654028,18.797815,1.1332515,70.165665,5.324199,2.7564256,7.4898243,-2.0079334,10.0974,9.382375,8.040709,22.8291,9.674999,5.2272534,-1.3116839,2.8107789,-0.71528244,7.9834914,7.863344,4.9044533,4.383762,4.7087693,3.8695123,0.034986064,-0.12808041,1.5272151,2.307205,3.4760208,0.9517315,2.8147335,3.6198945,8.634075,10.242605,1.5902739,-1.4649539,-3.4644456,2.6929605,3.6416485,5.9224567,6.6669235,2.1576695,32.965534,3.5317357,4.391718,-1.5381019,0.4117949,-0.2867895,3.3683333,-0.5212523,0.35247645,-4.2794986,1.7927414,-0.991509,0.27079844,3.9334316,-1.4422606,0.30357334,4.412577,1.6385545,-0.76829803,2.830791,0.32678172,0.123426504,-3.3452795,4.5794535
abstract_115419.jpg,26.572159,16.1043,13.88519,1.7875923,-2.5220208,-3.035662,7.2085314,4.773473,11.477399,-4.7884626,7.1751776,4.48038,-4.4321575,2.233758,1.11568,8.444409,18.61947,14.379661,4.1853094,1.0459114,8.941509,2.9654305,7.3616714,1.3316689,4.833914,48.630264,12.52598,5.3557777,0.6591909,6.270782,13.9989,8.417793,-6.0181656,-1.5093731,2.4533677,2.1831646,3.871035,0.18140218,3.7062109,2.196445,1.3482505,-2.8336167,-2.9772396,4.583304,1.298553,8.906608,0.8024661,2.2998931,-2.9651155,3.2928147,2.347103,-0.6856378,4.9979815,2.664714,-0.5289909,5.178934,6.165019,1.798279,1.2162035,-3.4776218,0.78565925,-1.1918675,0.88789797,-1.4870882,17.411636,-1.2795323
abstract_11667.jpg,19.508154,0.9211788,13.718843,6.0241365,5.581642,10.565952,15.719784,-1.7407689,-0.27688032,2.5658076,1.5285809,33.097137,5.3823075,14.06862,18.883905,5.7172947,4.260523,11.406169,24.168327,13.836625,21.39841,9.415915,27.02863,3.3134575,3.5881028,5.1293173,8.694602,10.866679,8.659313,-1.4114902,4.9915085,0.44478783,10.9204855,6.1885386,0.88915426,13.059479,2.0775578,-1.3638735,2.3696795,7.763727,36.706955,5.204369,11.787887,5.2317214,2.5046844,-3.1937487,3.6055803,0.20359853,6.848429,10.448618,-0.20443368,4.7720933,5.9181066,4.3979983,0.6088709,9.968429,4.227724,0.7491635,-0.078794405,8.54721,3.785512,8.428604,1.9763191,-2.8166373,1.2694838,7.865095
abstract_117916.jpg,13.52295,17.452375,15.903796,10.215053,37.922813,5.6389394,0.66871446,4.733538,6.9150076,21.75127,8.60353,7.152836,19.648802,4.8203516,7.5696783,-1.3886982,2.2837844,-2.2353616,7.796017,8.01465,15.273312,0.4138916,6.964546,1.0461032,9.654724,1.8680729,-3.7673764,-5.3345175,-2.109986,10.028452,4.3644333,-0.4045466,12.370482,19.881262,-1.006256,3.4486468,18.398247,-2.1133788,1.0829365,3.6659036,1.4819453,3.2660604,5.192381,1.1064563,-3.8002844,-3.1670372,15.494598,5.138414,2.3523498,1.2095104,3.1537209,9.058797,4.52919,-2.6804943,-0.84443635,-1.3221954,0.9627409,2.0436761,2.2866502,7.846438,-1.1265901,3.0862336,1.7766598,2.7348623,-2.398566,10.557489
abstract_118988.jpg,0.8081161,10.929198,28.94896,8.846504,14.995803,-0.8844223,2.9324698,0.5840542,7.044799,26.270422,-0.91055167,16.53942,0.054696433,7.7626295,11.172642,4.750908,15.1299,1.8664494,1.1406476,24.264225,11.9398,5.572807,11.490684,5.749019,19.768862,2.768173,1.6420175,4.52597,5.965692,15.606737,17.700369,3.9684103,17.88126,32.94436,2.782359,9.359137,9.999313,3.152144,3.7177265,14.56549,2.3976429,9.427999,0.29093334,0.88948476,9.561517,6.7070208,3.802477,3.1481771,-0.7914424,13.54233,10.484579,3.834525,25.23034,4.3808722,1.1302783,-0.7601632,6.7874403,4.802648,8.997163,3.9900098,5.1543756,-0.33141112,0.13435586,8.026897,7.2705164,5.548707
abstract_119737.jpg,10.403059,13.373196,16.553003,7.3405848,55.631657,8.395698,7.50358,5.109623,3.3537488,10.557589,9.322937,-2.2224686,11.088832,9.320073,7.932897,-2.7922192,0.6292211,-1.0940984,2.0293105,5.211276,12.008513,2.835307,2.546264,-3.9479618,2.727215,0.8818798,20.094276,-2.997207,5.369972,12.971243,8.156468,4.921289,9.864786,9.594779,-6.556475,2.9416256,3.6705062,5.2745547,2.436889,11.695863,4.4513664,-0.25006932,15.879885,-0.22459407,-3.1443577,1.4216566,5.243285,1.7181172,2.3781815,1.5813191,0.94195145,-0.9973266,2.743311,-2.9426243,-4.1144857,4.4592123,-4.6331186,1.0204679,1.1880753,6.2529206,1.2372332,1.0886024,-0.86812043,-1.3516841,1.6370866,7.177708
abstract_119812.jpg,43.896763,-2.6643188,5.231009,26.935772,1.8852487,-0.41443956,9.943569,6.862537,5.5401587,12.254645,1.2794871,1.3767008,7.9088,5.4321074,-0.21954718,26.47518,5.3588977,-0.40651634,3.7843235,8.080569,7.408836,5.370623,6.4957576,-1.1609544,1.6656802,11.579387,15.308961,-3.2413547,5.2592397,7.3169975,1.8691804,5.1867747,10.3815155,8.506862,4.6951995,-0.17785624,24.070198,0.71631145,4.0144005,7.741694,1.4233791,2.7339828,2.63249,-3.3303444,2.8297448,-0.64233214,9.273924,33.30546,4.8209867,0.7491895,6.1032968,1.2999446,7.9931073,2.7092736,11.051748,-1.3488654,-0.43122572,5.340375,2.2260532,3.674774,6.4139185,7.926202,1.6123692,2.7231493,-1.3727633,3.7814147
abstract_119844.jpg,15.16562,27.123114,3.8619552,7.2032824,10.765623,9.176178,10.173908,8.674029,5.8818297,5.5995827,11.107974,10.609504,3.240157,19.363752,8.742712,0.058531284,2.2918112,7.217321,5.050427,5.0375504,14.600401,4.897357,11.432156,15.557414,6.3950224,4.6671205,0.62484163,4.910845,3.8741264,8.826305,5.0219593,3.0441198,10.876389,13.435311,-4.413189,14.028846,5.39138,3.7908926,9.0311575,6.9139557,17.022121,5.782701,-3.7632473,2.9031255,9.166261,16.394445,14.187622,1.2750013,5.073555,5.8109703,0.33977878,8.050491,5.5682387,3.710807,1.7159178,12.440454,5.0576744,4.0976977,19.23241,8.8209305,7.1386666,6.768212,0.99655867,2.4282923,-2.2996404,13.974764
abstract_119852.jpg,34.055145,16.788996,4.3798995,2.3538232,0.9277705,5.819752,33.00013,-1.3601489,5.5717363,13.338269,6.7191854,4.9108524,3.82304,14.716077,14.054212,9.70325,5.219254,13.299222,6.462708,5.8681293,8.420178,-6.9262,11.412904,12.045807,1.1870058,7.267034,-0.72767556,-0.7654487,7.336849,5.161786,0.94794154,6.30303,7.03063,3.8016186,1.9701909,2.9490426,-2.265038,1.1272192,0.39804393,0.55100816,18.847578,10.971947,-2.0956156,2.9628446,7.727868,12.135834,0.2736048,5.2060184,3.2658734,7.759516,5.7503915,4.34786,1.9280145,1.8780152,3.502883,3.425622,6.6503115,5.6739707,19.159399,9.115909,5.6335993,6.0883718,9.055848,2.2992644,2.664331,5.5579596
abstract_119931.jpg,11.718442,3.9042022,20.49375,7.8521647,33.95655,4.633994,8.882256,2.5307183,13.505864,-2.5547407,2.3658674,21.069557,8.177706,24.400892,1.6565863,1.502059,0.56195843,13.790758,11.4701805,6.126202,4.2932262,-1.4664472,5.604736,8.20561,7.85394,-1.1178973,0.91713333,9.4162,13.899371,12.782301,16.680202,5.9418535,14.468045,10.388007,1.362957,9.781212,4.1088796,1.6716875,5.238356,8.135958,13.329166,-3.7373734,7.6346374,6.013561,4.4048157,3.1421337,9.6051,2.0422606,0.22026691,3.212747,5.602381,1.6493198,2.6801157,-1.4654336,-4.3216662,14.5699215,7.204566,3.278249,3.3609185,7.170122,7.3958797,-1.4286946,1.7054217,-5.7667513,0.41585645,7.5735726
abstract_120014.jpg,45.726864,17.82308,11.767716,-3.1520114,7.807724,-5.045594,13.227871,3.369657,6.878866,-5.893036,-0.9842098,-3.331456,7.8371367,19.495913,-2.8541288,-2.5369844,8.003551,20.099283,14.271731,-0.11996524,17.295752,6.902851,12.813683,4.8981385,-1.5013697,6.0238147,7.491269,4.414146,8.171605,3.1333122,10.814137,-3.1701818,-4.740973,1.5038681,-6.2775283,12.366107,2.6193202,-3.7118502,7.360813,9.424223,31.081635,-1.3223231,2.43617,4.654823,1.1173105,11.743032,-3.4423585,3.2154038,-2.356569,3.435862,6.352003,1.0493451,3.6850564,-2.8012476,5.2989435,5.395667,4.154347,3.6338031,4.6208076,1.3275132,2.2805948,5.7173996,-1.122686,0.70170146,5.0036287,6.612429
abstract_122005.jpg,42.79122,-1.9718964,1.1937978,2.4037938,-2.2024968,16.833204,3.79267,4.2497897,-2.3473394,6.123303,22.159008,4.164407,0.20503643,11.728601,14.840503,-6.6680856,7.0817075,6.955398,10.071831,4.6685324,9.262003,4.2622337,8.66399,1.541161,1.2814424,-1.5517497,3.7754207,-3.400674,1.3064734,3.1532855,4.061163,3.4875445,21.67867,10.297951,-2.6028223,0.56659794,3.0013766,-9.745507,2.1045089,3.4178882,24.867697,3.2639184,3.2456207,5.6773024,1.0527,-0.02285447,9.381068,0.015487988,-2.7611873,-0.33561605,5.465408,2.6561532,8.233469,-6.2785177,-4.766405,7.356984,-1.4118997,1.5243175,5.108288,11.221035,3.9413311,5.9293866,4.077969,1.3858082,3.3034592,10.1550865
abstract_12281.jpg,13.939035,23.310982,7.7404847,7.5786843,43.287224,8.260027,32.773174,3.190101,6.020923,6.286772,6.7686825,26.74126,10.551162,14.776453,1.070664,-2.4390104,-2.9700477,14.28868,0.4251249,4.1233125,-1.032284,1.3511319,3.4423568,9.386973,3.8294613,1.2934856,2.1030924,10.097863,18.558676,-0.82900375,-2.555836,3.1178522,5.8945675,12.494984,4.5753474,6.0256443,-2.5640752,6.815741,4.9123354,0.8307586,6.5088854,1.1085584,-1.3319299,1.997494,10.979774,7.535377,2.4157224,5.2869115,2.674197,5.31752,5.8477635,5.908981,2.2342212,3.6385088,1.59526,6.1938963,0.51938015,3.6968236,6.7498846,-2.5455117,0.90896404,2.3522143,3.4936361,3.6202192,5.1543245,-2.2179306
abstract_122816.jpg,30.01748,0.9442811,9.644117,14.665164,1.1226039,13.262597,18.645634,16.161346,32.414177,-0.9106643,26.361895,8.218404,0.37867194,18.076061,7.221341,9.235567,5.430726,7.1698956,5.9135046,3.6295545,-1.5749372,1.6065286,5.3168983,5.8079906,7.888955,2.8264306,8.233633,8.488241,12.921577,11.713394,-0.8575456,0.32707033,9.860292,2.9120321,6.408167,-0.015204214,-0.45509803,6.1024485,4.4815736,1.4160709,14.234187,-3.99136,3.022564,5.7910595,1.308457,0.5274292,7.846125,32.08263,0.9876233,3.2316222,0.44722763,11.563619,0.8888202,-2.14624,4.0061946,7.385637,1.3620373,-0.6422568,-1.6181877,3.7090774,-0.28389347,5.9743958,13.577875,-5.7160487,1.8952947,4.308522
abstract_122976.jpg,19.35689,1.3428699,13.449521,14.837461,-3.2111027,3.1854098,19.207066,1.2291816,27.447266,2.379383,4.4417324,17.864542,3.80161,-0.61084646,3.3489406,5.566547,10.488695,9.711194,5.760107,3.0983193,4.6255875,15.276829,0.8599639,6.4325547,13.611564,5.1976204,8.87043,11.758955,11.886905,7.71853,7.5323105,1.1432005,3.6097667,0.0020974549,2.668451,1.8521432,6.83619,1.9487612,4.1420517,3.4174516,14.500978,3.0003123,5.464696,6.1615534,6.7334623,5.8350573,6.195717,4.546063,4.355385,9.673503,8.20221,15.393593,0.92013085,26.926935,-0.33779642,6.373612,-1.0306388,2.5684795,2.6960368,5.680636,1.423805,6.7085323,-3.1689894,0.8081915,-2.8255165,2.0958683
abstract_123656.jpg,46.44561,7.4503994,8.931625,4.808084,6.639397,-1.0379928,6.472503,32.973145,11.625117,9.603496,3.3744068,6.2859936,3.9650526,13.320811,-9.14784,14.989987,8.808677,2.4700294,1.7324451,0.05600299,6.8004055,0.43873093,6.2472525,5.3137836,13.090841,6.9649706,23.004547,5.751767,0.5243499,6.0308776,7.4935517,7.377961,2.5858603,3.5996032,7.6351566,17.697681,11.320636,20.883099,-2.1628747,-2.4448948,3.142298,0.8621484,4.151842,6.8042574,4.4944344,2.3370283,8.692807,15.369922,4.9546647,4.1585665,1.7945406,8.972575,1.723258,8.802154,12.274075,3.59309,6.1547894,-1.2100185,3.3520327,2.926503,6.9304996,1.3199438,1.6296211,-0.5929199,1.376474,-0.6605248
abstract_12439.jpg,42.268112,3.5379257,-0.29685813,5.429478,5.782619,9.414492,5.6012707,52.589863,11.391791,-0.5431876,11.681798,5.705133,3.5978842,14.398113,6.429101,11.068145,4.1199155,10.527507,7.0094714,3.015266,-0.47338152,0.03851126,-1.2009968,2.7070029,4.06635,2.267768,4.1870556,2.2301867,3.3178494,7.15724,3.8930573,3.6959186,7.035469,1.5399662,2.0804434,7.34672,3.8800266,4.152276,0.47719124,-0.11882046,9.78945,4.4698515,15.950544,7.455382,24.336569,-4.3793535,5.576568,5.806084,0.6793883,5.7485347,4.529748,4.5743594,1.876159,1.5016353,-0.57378393,6.0893817,-0.85403806,0.08431636,4.3337283,4.6009226,4.4055133,2.3308086,3.7284226,-0.66852987,-4.860454,7.828928
abstract_12446.jpg,17.733377,10.1353855,8.979576,0.7660942,4.995255,5.2853055,20.339497,1.5655283,7.641881,7.7802234,8.664468,11.529771,4.95419,11.444796,26.201874,3.4569662,14.081152,3.920316,4.735418,1.7274085,9.076963,7.1338563,-2.419848,4.1495123,11.140184,2.7537737,10.125186,4.018657,11.0568695,10.457792,8.078631,10.507878,5.1141644,2.0916305,3.0364614,6.1541505,11.237125,2.319912,1.329986,3.0024595,4.117458,2.207862,-0.7407566,-2.3800135,6.0304575,7.662728,6.877581,-0.123320356,3.7136116,7.2466655,6.487982,1.8331815,4.829208,8.055144,-0.6822558,6.3717113,4.1854224,2.5829785,0.31700152,4.3737493,1.4541265,-0.055338256,1.2358645,5.621206,4.887601,5.689718
abstract_12570.jpg,43.03342,2.3199105,0.33253357,-1.2569498,10.491013,1.8255823,-2.2615306,7.3899364,2.7175448,-4.776182,17.044262,14.712092,1.0797851,8.903095,7.2413025,5.1100645,27.385324,3.5978272,3.234623,10.645262,-6.299304,-7.3231072,5.7318797,1.3510283,12.98656,5.981647,12.659468,3.7612953,2.722101,10.28881,19.277422,4.068751,-0.7031872,1.0852026,1.6688267,9.394123,12.859527,3.3630002,2.994152,7.5983405,2.3516665,0.9825803,19.003155,5.9658313,20.66042,5.2611556,0.12213192,15.348837,-2.0796626,14.729829,1.1172241,5.9743986,10.254003,4.6588635,-1.8046263,8.901877,4.444215,2.119956,3.7854645,-1.1572089,9.11647,4.514364,3.5277963,0.58301455,-2.3918633,3.576549
abstract_12600.jpg,34.478455,8.589055,4.073866,3.650309,11.582486,-2.1389437,8.115507,22.79228,8.13624,2.1557038,13.468796,24.201298,18.715218,17.643135,-1.9226819,8.768946,2.753796,5.8426433,24.007793,7.6267743,3.320323,4.694808,-4.801955,6.859363,7.4142985,6.034162,-1.8134851,0.14889306,2.5807955,4.480017,16.168615,10.481237,-0.7566841,0.5540004,12.280269,7.255855,6.709201,-2.3242602,15.740434,8.781323,4.9435325,1.5552596,5.73306,8.3427105,36.190224,4.4524736,5.1803813,-2.4562569,-0.21477528,0.42522684,-0.7594523,12.17906,2.7687716,6.3048654,7.5389357,4.6501203,5.169624,2.0401578,4.2809033,2.6607182,3.9287355,0.7217425,3.971005,-0.3564105,-2.2457426,-4.3872185
abstract_126024.jpg,18.9083,20.652658,9.207498,4.101123,26.318937,-0.44170347,3.1279159,7.9057875,7.414365,-0.5751034,15.659178,3.7632189,6.713083,11.81002,2.752254,-2.1531978,5.8185344,7.606502,5.587558,4.171502,-0.9448308,-6.6115656,0.40596333,-5.248193,14.704073,-1.8006586,16.618881,8.868181,1.3959814,12.057999,4.294328,-0.69103414,13.692446,16.272085,0.40068144,7.7633986,24.051853,4.3301334,6.051085,4.158869,8.7718315,2.3726468,4.6836553,2.598976,19.788235,8.638636,12.661235,7.0706778,1.6899251,6.456869,10.09503,4.540662,13.7303505,1.2468555,0.57004243,5.233006,-0.55087006,4.7478037,4.731815,5.8076954,2.8411741,0.94654095,1.6631448,2.2943041,-0.33183333,8.775783
abstract_126231.jpg,17.802248,35.1189,4.2585316,-2.1785827,2.1946025,4.990068,-4.2501583,20.461699,0.49160588,1.4795825,6.3527527,10.142342,17.397028,16.053679,2.7547388,9.086485,5.356498,5.3366985,12.241944,8.132708,1.9009278,1.9331398,3.3079696,6.0276785,10.781446,4.9249625,3.6363938,5.456092,0.4867272,1.5718281,11.675957,-0.18873425,4.51188,4.1977363,5.944147,8.079288,17.940273,2.5983338,17.138178,-0.36107972,4.2623606,3.0378704,3.9037325,4.4897356,17.488394,1.143324,15.930936,8.173997,0.5539706,2.3655066,4.4548965,10.244532,3.0702863,3.6142447,5.147375,1.9509838,6.984177,1.3981938,0.9461545,3.4565964,7.9677024,3.145835,2.4345293,0.19139619,4.311978,5.224637
abstract_12629.jpg,39.39462,4.873842,6.129746,13.202962,1.4359672,24.861311,6.187433,7.2171264,0.65854007,6.3742614,6.8856015,3.673913,15.536092,13.303213,12.778158,0.19686902,1.1716545,7.9982347,5.8712087,9.347223,20.278852,20.064402,15.476868,4.5987988,1.1372477,1.8147279,5.893502,5.578972,2.9944825,-1.6015625,-1.2548908,-1.5211656,33.051243,9.722683,4.0905747,3.664055,9.138436,0.6207877,2.6482093,-0.3615682,7.5902143,0.30041802,-3.7089374,5.5206203,0.8538586,2.5751822,21.40128,-0.62768793,5.715812,-1.825998,-0.72349405,9.051095,2.2974782,-0.19586441,7.4858336,1.6836064,4.179937,1.5957922,0.24368158,9.964281,0.22956352,22.370394,2.8976536,7.288186,-1.1414382,13.412356
abstract_126696.jpg,22.41497,6.2341666,-3.7068624,8.264866,0.71193206,5.953412,11.251743,14.392279,8.141841,13.392976,11.026228,14.537234,12.814326,29.223358,11.176671,7.4227347,0.06567594,5.820107,10.704408,11.000018,4.078243,5.464886,7.265874,7.038592,11.427198,1.1247185,0.8118027,1.81789,4.540238,9.443253,16.45284,3.0337446,18.728703,12.20653,-2.024986,17.018185,14.003004,-0.11742655,20.668663,-0.032449327,14.655888,10.034039,-0.36161786,2.5573614,14.779751,15.444687,20.266329,0.05060781,0.48542666,0.661172,3.9511685,5.2301044,8.006069,2.691691,1.4910665,10.572135,0.93472266,3.2775805,12.553859,13.328407,11.888841,-1.6633126,5.286492,-1.2783481,3.1972408,6.609653
abstract_126725.jpg,25.436766,3.358723,-3.626646,5.7208133,9.249546,18.192083,-1.618126,3.1868808,4.6834836,14.3545685,10.910546,5.4209857,8.959796,9.358254,12.061942,1.8229222,9.952573,-2.407584,-1.6928915,7.8846426,3.1415389,-1.5777638,1.7449067,6.358859,10.562842,-3.7178674,-3.0744438,-3.0508344,0.582757,7.6538744,12.067532,-0.5601027,15.6642275,7.2716885,0.5517495,8.750406,15.702955,-5.248503,-4.033579,-0.27330872,9.555308,10.331432,3.927446,1.2640452,26.047546,0.4198048,6.693972,-2.4832227,-1.4499884,1.2930572,-0.4919174,4.4477477,3.911496,0.36616072,-5.422315,0.9509401,-0.25112918,0.17380002,15.954545,12.559549,5.8977065,-1.3968682,1.3279021,4.465877,1.3910209,11.331025
abstract_127361.jpg,-1.3333662,7.337717,36.62156,3.2340283,38.91931,6.673649,5.435424,4.29051,3.1192122,24.896162,0.22535655,0.7170829,30.577648,-2.0713708,4.313253,2.7936242,2.640077,2.0974863,4.4796987,7.730696,8.346205,-3.6044471,5.789183,2.7918196,14.524588,5.321126,-3.62546,-1.9965941,3.4058883,5.6400847,0.40344,3.3844962,12.711811,22.793816,3.1169624,-3.2581635,4.651796,6.5996842,7.5485907,1.8163443,6.3673735,18.711575,3.8303103,0.95234245,10.198691,7.1979613,3.166837,2.1116524,1.0678271,-0.9743928,7.787417,0.43447566,9.664332,1.1642104,8.171698,5.6396813,1.194826,4.880017,9.495557,8.658446,-0.8807247,2.6009524,0.7741708,4.7630563,4.701666,12.713368
abstract_127564.jpg,16.995018,50.1419,6.328698,3.2673466,11.151963,5.5567584,29.680243,4.3964014,11.531192,2.9710312,4.148313,7.0377536,-1.6986592,1.3624182,3.0550017,2.2258134,7.5427904,46.067554,10.226684,7.023904,9.132554,6.620574,8.009879,11.339593,7.1520834,3.6188018,8.75436,9.932046,13.040677,9.633071,3.9602444,6.556443,0.68421996,1.8971053,6.441641,4.7516465,2.2020717,8.207211,6.608661,3.8647816,11.237969,0.37895393,0.8806917,1.1984872,-1.9304805,2.0338376,4.3478703,7.807036,-0.87779367,4.718933,2.1393502,8.798386,4.9947314,-1.4542849,-2.6152105,6.6345463,3.6074452,7.2982326,0.32465225,3.5628445,3.8425884,4.618889,1.7646348,-5.3518095,9.9852085,0.916705
abstract_127986.jpg,11.0597,13.335175,16.22184,10.813366,48.599457,6.071403,12.123348,9.400482,7.9535723,14.670031,7.614001,12.7837715,11.422215,3.2284162,9.511768,3.641632,0.99752396,2.007554,5.382848,0.5039873,6.761413,-0.4831617,0.49834225,4.813806,5.3214645,-1.1303695,5.349658,2.6827443,5.1298075,4.0000124,-1.0194974,12.163626,7.9539003,13.523917,-0.59344816,4.367238,-0.033266284,6.005655,8.177486,7.484597,8.579896,-0.9480635,6.9959188,-1.7362286,4.896914,13.143875,3.568612,5.5726194,2.6974647,-1.0945107,2.9828212,-0.20850827,2.5491292,-2.8011332,-1.7544608,5.183275,-1.1958817,0.5627943,5.112583,5.726112,-1.8770959,6.51245,0.43860027,-0.089411154,1.7857466,4.3299923
abstract_12841.jpg,63.32672,3.6190662,3.1090505,3.2809052,1.5482817,4.367899,18.194271,1.1442765,6.3246503,18.432955,-1.3243245,-1.7543437,8.412336,9.50103,9.594128,4.866167,26.472124,0.1529826,7.940027,2.5386956,8.945675,-2.517149,6.7129006,-3.8863533,14.003939,20.99975,-1.913685,1.0411835,3.7507148,5.3394246,2.7273204,-2.5897446,7.5654926,7.655991,-0.88431823,2.2578993,11.0246105,1.4322249,5.1362877,6.727346,7.925622,8.057005,-2.4243815,2.5350592,4.5989323,1.952909,8.107082,4.3859367,1.9316342,5.382617,4.721082,11.195324,19.05294,1.5431471,9.339304,3.6955523,3.5250106,-0.65064114,1.9231219,2.4988234,1.1526645,2.5888438,7.9692154,2.6636875,-0.9513575,2.0706966
abstract_129479.jpg,10.1076355,13.2208605,15.084465,7.398201,22.767992,-0.32111603,29.516554,2.588459,6.0716133,9.648111,5.669313,8.810191,20.366713,14.997707,2.5014482,9.559608,0.19186586,12.10243,10.834032,-2.8087952,1.5559042,2.870154,-0.03264807,3.366008,7.017254,-2.5388591,0.21596476,11.126949,6.785251,-2.1352108,-4.2344575,4.7979207,1.0441284,10.5237875,0.5243843,13.928522,5.951275,3.1843245,3.1548512,3.0327346,23.964794,1.6774721,7.8273764,3.6780972,-0.09152908,8.047095,5.8735175,1.5160555,0.2877714,-0.5970703,4.1286716,-1.5030031,4.580943,15.155794,5.6031213,15.858468,0.25520325,7.9988794,0.11442751,6.498181,2.7663615,20.520842,0.88289046,2.2287529,-2.9741874,3.6462538
abstract_130262.jpg,53.23963,4.6328144,3.2402277,-2.3441908,4.799677,1.5139685,21.747229,5.876618,3.206116,16.044666,18.475735,0.53297085,-1.6663495,3.4573236,-2.1973968,11.807554,14.3591,5.2333856,2.6977003,6.082144,3.9069827,4.506959,5.5027914,4.595677,9.9759245,3.7761867,8.137465,0.19939765,6.493861,6.757789,7.5978584,39.141327,6.858936,3.1226935,-0.1368471,2.2015238,5.543119,0.44256625,2.2989213,-0.56011707,5.107819,4.2143164,2.5771132,-0.20079716,4.0857697,-2.4829674,6.1599126,6.9728723,-2.537715,5.9228477,6.8792367,2.9533126,4.995067,2.4409697,2.8822694,2.5031466,0.2001822,-1.3071642,5.4601297,-1.3186121,-2.3476264,2.8936217,2.6277559,-3.4887235,1.6182561,1.84602
abstract_130501.jpg,51.37616,5.4564095,-0.5660873,2.4813082,5.9842925,4.876746,21.907312,9.852125,4.2326155,8.9572115,31.76953,12.301917,-1.6894923,23.651236,2.419395,2.1439543,0.30740052,-1.4785267,0.15833023,3.3202872,4.311736,0.35825837,9.814854,0.96400094,4.500451,5.689246,5.213576,1.4244249,-0.9037317,0.29717302,-4.7834167,13.725937,11.266739,8.725205,6.910657,1.9945443,8.750944,3.732565,3.3962202,0.3796066,2.9301891,-0.0127494335,-0.6238834,2.6933572,2.1217449,-1.3421953,10.771579,-1.2939167,5.269147,-3.6627545,-1.7067009,6.167677,0.71016145,3.3924048,7.44908,7.5109468,-0.8314479,-0.7425293,1.1450508,1.1560367,-0.047618195,0.7590291,12.158951,-5.383178,-3.4530718,1.1172013
abstract_13222.jpg,21.732458,35.1119,18.219006,3.065617,17.490948,4.506342,5.5155835,1.938657,0.92772806,3.6470137,4.7093205,12.073066,5.210013,12.329386,0.8404793,6.2897024,12.455269,12.311349,6.9892735,16.558159,6.285569,15.888622,16.98367,7.0300236,2.4630654,2.3722746,9.479774,16.044775,7.5839186,5.3292522,10.357235,3.9599013,0.15533222,3.9432452,-2.0925393,24.545237,-3.0649815,0.7317406,11.715995,2.73789,7.2148776,-1.4445857,1.7289735,4.67395,5.547068,-0.75624704,7.7796736,5.382682,2.3286684,7.0285263,0.49536508,7.6847053,4.204119,5.874027,1.3266063,2.5782275,2.9144175,-0.12971777,2.325625,3.336814,7.880204,4.7987556,3.6097236,-1.90151,-1.5562193,3.1934657
abstract_13266.jpg,-3.6820226,64.86287,11.962439,4.739546,8.80328,3.223853,-4.743071,2.2858684,8.596019,-6.9314294,5.3302298,7.104951,5.23934,20.252687,5.5796638,11.055315,4.693786,13.027976,12.9666195,0.38515723,-1.4681393,15.263608,8.066788,2.5063646,4.1844716,-0.9299973,2.5188103,10.709931,5.2762413,8.289453,5.216739,-0.9025857,1.2261757,3.276552,-1.1712363,18.204876,2.8100026,0.005016662,20.113651,-0.8686761,16.400562,4.6261725,2.8232484,6.6383057,9.460183,4.9012814,4.2074013,5.8015814,-2.2487504,3.2847888,7.126254,0.6163683,2.266229,3.27879,-0.5145604,9.041568,5.914815,8.974142,2.964228,8.03506,4.9174623,5.131016,-0.054034475,2.6140864,4.0331798,3.352239
abstract_13290.jpg,20.002197,18.618467,20.783554,-1.2761859,9.111619,6.5779977,7.7700033,4.632854,14.309889,3.637166,10.878496,6.4247355,4.740332,20.871738,3.5169125,16.160376,10.658453,12.905616,10.524622,5.497151,4.020653,19.127218,8.252885,0.42064098,10.678583,0.74845153,5.9309883,17.663565,7.763724,9.403069,10.715947,4.6472216,2.2030883,0.51282805,-5.1279726,25.587559,3.013707,3.1944175,16.35229,-1.756776,14.965293,0.6088663,-2.374658,4.2381706,2.9015436,-0.08824058,11.123476,6.871891,1.6470609,1.9440038,4.2882304,11.431942,3.9998434,6.6367702,2.585066,7.4426146,3.983774,1.7148058,0.3581999,5.2350335,8.979202,4.5619707,2.2652984,-1.3884919,0.8382393,4.740651
abstract_133122.jpg,24.605543,6.091323,14.847201,6.152422,8.760917,15.230873,15.393498,14.437233,17.57625,6.5017076,9.856816,15.40335,11.626757,41.325207,6.64464,10.216959,-4.712603,6.5983453,7.1350427,2.7990575,3.4875493,-4.645135,1.6538295,2.190957,2.0289512,-1.3299158,3.631439,4.0766296,4.693872,11.252535,11.958641,8.581961,23.41527,14.822594,-0.082937814,5.136896,14.657569,12.607948,10.398648,5.2370076,8.68817,-1.6750124,-0.13385688,5.742182,7.77217,2.7685506,14.579108,4.0118623,2.0275729,-1.748609,2.5921793,2.8138444,-0.41526976,4.103808,2.79792,13.441253,2.8938367,1.2269843,2.9047506,1.2873282,9.667476,-2.0635686,7.06409,-1.5277032,0.14096135,8.856397
abstract_13457.jpg,7.418505,69.49811,14.580204,0.71293443,17.699238,2.047884,3.2890134,1.5278064,6.107379,1.9795779,3.0518954,4.2103624,0.41382256,20.479815,-0.293157,8.550818,4.1112514,10.76571,5.1663055,6.53639,-0.5052966,5.0679445,11.568088,6.428361,1.2266105,-1.258743,3.60775,17.741463,2.6621797,7.530978,-0.59709495,2.674326,2.7797482,1.1867074,0.20054318,24.236744,-2.1536787,2.466858,5.776607,-1.0999635,4.858025,6.1045094,1.5481901,4.264245,3.5708342,-0.40550748,3.2400455,6.4090676,2.038033,2.9340484,6.727019,3.824926,-0.8575373,2.710689,4.313966,6.41179,3.3930469,5.7037063,3.6743715,3.7125516,7.118187,4.410784,3.370724,1.8747962,0.23528682,2.1374655
abstract_135280.jpg,5.036539,59.049545,13.4917,-4.7092266,33.223846,-0.044874474,1.3873007,5.1043205,-1.0707787,5.0918045,11.4793005,14.00117,-1.5227576,21.235577,-0.315705,4.852364,2.4413157,5.108379,0.12809542,4.649897,-0.96227026,-2.6709,10.013695,11.925657,1.1792554,0.82250124,1.8395478,6.8002267,1.7606305,3.5639138,0.7901597,0.72979116,3.0006888,2.6711297,2.880835,20.592733,-1.1555505,4.4779463,3.6980522,1.2823316,-0.5400648,-1.6427763,1.9274757,1.5398605,6.543423,1.0839853,5.864632,0.102704205,4.9159827,1.9786067,0.47273916,5.8787093,-3.596439,0.83290356,4.4134984,3.3237617,3.1881683,6.6164627,18.225918,1.2052878,0.68895584,0.99856704,10.029607,-3.6316388,-0.1732193,-1.3615835
abstract_135329.jpg,23.471846,3.857271,7.2559714,24.79752,-0.40907228,7.3445277,12.44296,2.394021,17.597948,-1.789253,7.757375,11.199452,-1.7400215,8.424941,1.9496137,14.052706,2.7681873,8.325694,11.719386,1.4352955,10.6800585,6.7398043,0.3294397,10.566582,-0.4996865,14.217715,19.527323,5.061645,5.0714517,6.4880133,4.1891923,7.4181175,7.575072,6.0109777,-5.5778227,5.0027375,3.2981608,3.6955667,9.303841,8.77141,8.723227,0.47924402,4.4534197,2.270819,6.5113554,7.598035,7.440895,6.020613,4.216909,2.6183188,17.763948,8.71859,4.8879614,6.4110265,3.403049,14.85353,5.868677,3.966119,7.326947,4.068805,5.21964,8.41058,-4.4203887,-0.7598745,2.6123323,2.8072371
abstract_13610.jpg,17.973341,12.960456,23.444464,7.1281986,21.354797,3.4544263,24.421171,5.228456,-4.2842226,9.11252,-0.6845558,6.5925317,8.54457,30.494965,4.8157554,-1.7906334,0.66515005,3.4874384,34.14529,-4.362964,26.729437,22.025002,13.43237,-0.71517414,-0.85186136,8.41755,-2.3746557,6.105316,10.122561,4.1384573,6.7419753,7.3974557,5.477397,8.508959,-1.661852,18.784395,3.1476684,-1.6238865,6.623562,23.453321,15.894402,11.024465,-1.9654393,4.542396,1.7439134,4.561195,2.000765,3.0950096,0.506159,-0.6059316,2.244284,4.2011676,4.454794,1.4540861,3.363397,5.209649,3.0017858,4.847084,2.4928396,1.1227548,7.7943087,3.5917163,3.107958,4.672641,-1.7708904,-0.46257088
abstract_13672.jpg,9.59862,8.399834,6.4234247,11.143294,6.690195,8.9756775,7.6290593,10.915257,10.466063,8.012343,8.22907,13.845963,14.216129,8.604801,6.1909018,5.1814156,5.6766763,8.108859,14.696695,4.673167,14.040862,2.260626,2.3435946,9.469419,8.683929,5.2418385,1.5196381,2.6686707,8.73847,11.183508,11.3612795,6.4908924,6.480889,9.360028,-0.60181665,9.486307,4.535239,3.3931208,23.337252,0.77586716,18.960098,7.563171,1.483965,4.67469,4.7633653,12.641285,7.745825,6.7939067,3.0966923,5.428348,9.244253,5.962332,5.896165,3.4111001,4.780107,12.679258,4.586291,5.262934,11.394918,4.434719,6.0344534,7.713364,2.9979005,3.2608166,6.9533296,10.807703
abstract_136765.jpg,29.235897,5.1223893,-0.33324435,3.4943926,4.916935,13.120943,-0.41904357,12.564865,-5.6954145,-4.309027,30.477488,9.446125,-0.2898388,29.73671,6.559781,4.22758,-1.0277158,9.872658,7.604195,3.8154054,-2.3175535,1.5237195,-4.8214426,9.241865,-4.165359,-0.9047987,8.8662195,12.921503,5.090496,2.928266,5.957152,6.2633753,6.8013935,4.3570895,-2.582419,11.078406,3.2376654,-0.54200935,8.724115,4.1162844,15.522489,-2.742929,6.405176,4.7791934,2.855876,7.505549,-1.2147995,-2.544803,4.1324487,3.9687376,3.7894926,1.9327272,2.0016334,-0.7625957,-0.9411754,14.385202,6.725016,-3.590248,4.4960227,6.912774,4.8228703,0.6731291,-0.7094867,2.4843693,4.060454,1.9182589
abstract_136873.jpg,10.0153675,58.584904,9.778766,1.0207855,6.161176,1.5221126,1.4155791,6.2561274,4.956696,-2.9597962,6.923885,4.497704,-1.3025908,18.5547,-2.2974617,6.0501194,4.2967544,24.841307,18.644957,0.37670028,5.3694553,25.194931,8.596527,4.3581567,1.3776351,-2.55329,6.978655,23.515818,2.915918,6.059414,5.4438906,-1.2391789,-2.0354276,3.4598365,1.5852411,21.93262,-1.4124479,-0.49137995,4.789505,-1.2225124,12.277468,3.1994252,1.4454478,20.186087,4.1700544,4.0476665,-0.73135144,-1.8507771,-0.74804413,2.9830446,6.161785,4.4143453,2.1134808,4.471306,-1.5235318,2.7933156,1.8985802,5.471197,0.72027814,6.51001,1.7896544,6.1836557,0.87817246,0.4938138,4.5504613,0.8650415
abstract_137150.jpg,39.942184,-2.6108408,3.651239,9.882105,-2.2713807,30.742281,2.2866247,8.837503,5.5500665,9.650127,22.286894,13.056058,3.8591363,2.685543,11.293289,0.90934265,3.9143286,-4.508181,-1.3097188,20.72319,9.387239,0.48358756,8.793585,8.582832,4.5265236,0.6246459,-0.22454588,-0.99216866,1.8752701,5.4985423,11.6226015,14.198912,37.374092,7.488822,2.9162474,-4.0640182,3.1169555,3.4917138,2.348559,-1.6196929,3.2428913,0.13975501,0.3920584,2.2380998,0.7756745,5.514495,14.080562,7.3373117,3.2236497,-6.696357,-1.7742552,1.8035371,1.6276989,-1.1875913,-0.5283217,1.2115709,1.36424,-0.5667004,6.460739,1.2467866,-0.77911085,3.5558398,2.436025,-1.829963,0.046694186,6.53807
abstract_137477.jpg,12.109321,5.765667,12.535466,7.269764,-0.7207536,6.7327514,11.406326,14.607861,9.61687,19.304089,5.800952,-2.8543043,13.822429,4.347629,8.851438,0.77307844,2.6946251,11.266271,37.13966,0.4458516,25.150003,7.126236,4.7544703,1.96382,0.1995177,7.360825,8.679438,1.2161418,2.402117,6.8742356,3.6947937,0.96224976,8.468844,10.269734,-4.327228,3.6688707,0.009849761,-1.0232433,14.42355,1.5554093,11.08759,14.530413,-1.5429627,5.9775424,8.863304,9.000228,0.4620023,5.327573,-0.055231713,-1.5306245,7.7641277,4.5098505,4.2185364,0.30749893,3.3200064,7.809189,1.9728005,1.564553,13.783089,1.9129729,-0.48773223,9.436067,-1.0800573,-0.71687835,3.073442,7.856454
abstract_137803.jpg,24.296013,0.88115895,18.740309,2.0391204,4.6463013,1.7378893,19.854433,0.91596955,16.779976,5.25272,7.166632,23.62786,-0.5318766,3.8603823,5.5346847,9.050075,10.590911,0.5528033,5.0653777,5.746329,9.715659,-6.8584294,0.5348581,6.7968965,4.1911616,18.573624,11.99833,6.042744,0.392145,10.320509,1.3536611,13.079645,9.12327,7.563255,-0.2622768,4.7206078,1.6818119,1.5837122,4.397471,8.186727,1.5647056,-3.1158025,3.5784895,-0.31838655,7.2910233,7.253228,2.955406,5.4474277,5.808865,3.0087583,23.059122,16.172737,2.3060415,8.562844,1.6654375,8.048419,5.392023,2.860618,2.1497533,-0.5740851,1.4981537,6.0231504,-1.4328806,-2.4056492,3.8175583,-3.871097
abstract_140344.jpg,9.066924,18.597635,-1.0762348,3.3351927,-4.9100804,5.332334,8.969838,-2.686551,5.479647,5.206342,6.8735495,9.231436,-0.71248066,-9.148946,15.190382,6.5914116,9.891835,11.854934,-4.5348516,14.77174,4.9130154,-0.03945278,5.8125706,6.1142006,22.703989,7.5854406,6.4538984,-2.9352949,7.618307,8.992275,27.283918,8.242095,5.3326507,-0.37712744,3.6055233,-0.717762,2.0270007,4.539919,-1.4963584,-1.210903,-1.7944759,1.7082939,0.27176243,2.0170286,1.8506018,24.786934,2.938167,6.833723,7.25696,12.078321,7.3844514,6.0258474,4.2249217,3.29867,0.90745175,2.8876157,14.19993,3.5491326,8.058796,6.6733284,4.4687314,-3.2414615,7.0541024,0.3436857,28.360266,0.76161754
abstract_140405.jpg,42.886913,40.336018,-1.6110837,3.494694,-3.3057637,10.0529995,12.449051,4.90824,0.26662877,0.58629715,0.95743835,3.6665945,8.130339,8.553403,6.343807,4.0294027,21.214617,8.683695,14.689854,9.233612,5.32744,5.3295026,-2.5156398,1.9334512,18.879278,5.1708403,13.174234,13.065195,1.611652,1.0763826,7.196291,7.3534923,10.422317,5.8974833,0.07888414,1.1300061,12.162575,10.038974,0.86780375,2.8687704,8.580427,-1.3027115,1.9895461,-1.5130252,-1.2718705,1.0686126,12.106112,-4.0320897,0.91153896,0.47400743,6.097246,1.9126868,10.738975,1.2816114,1.5230099,5.1823215,-2.5553083,6.2221622,1.8462065,4.470338,0.66628987,2.3822217,0.61989146,-4.6751165,-1.5511225,3.4015462
abstract_140547.jpg,30.592588,61.6589,4.1888275,3.651723,0.33676103,4.1309357,3.7803373,-0.04578661,3.8840017,-2.6120088,-0.06490942,4.960083,4.5668583,6.03728,2.5809803,2.017373,26.470263,8.423082,6.0652046,1.3018844,-1.9634681,4.3802724,-6.334551,3.6649613,16.61879,7.075418,10.680364,8.9804735,2.3054981,8.456866,9.936896,5.603164,6.086614,2.9988837,-0.9534894,1.894392,4.1951346,3.8193784,8.293974,4.264982,1.1010513,0.19354019,4.613849,-1.5521249,3.3012326,3.1383128,8.654524,0.49999702,-0.46597618,3.5474901,3.7589505,3.8316417,12.305026,-1.9815981,3.3734925,0.17252304,2.7943676,6.6979556,2.4104352,3.6787872,3.113864,3.507446,0.628962,-1.7051014,0.6330902,0.015910901
abstract_140898.jpg,40.37577,8.848712,4.193566,11.603406,14.942968,12.76562,21.93186,10.134308,14.15738,-1.1436982,13.200694,15.312581,10.08349,2.7753398,14.255516,3.6789923,4.6381364,14.390312,4.283579,6.8056726,2.9559436,6.0305443,0.83796287,20.198801,5.358896,0.8689059,7.5151367,4.6603127,9.923438,6.3867464,2.169078,5.8251524,9.358629,9.592013,-1.6308651,0.3886789,3.548593,-0.5390927,8.986935,-2.1620467,22.674011,-2.9950597,0.54394233,1.9721704,2.219867,1.2734,9.337931,1.9712076,4.4447584,0.48937407,8.4031315,5.1434116,9.08205,3.2220588,2.9301167,11.480816,3.4533188,2.5111115,4.104859,10.821032,2.8068213,6.5652847,2.1890056,-3.3572767,-2.1217833,4.886818
abstract_141366.jpg,33.679478,2.9637375,-4.5259438,5.3695908,9.9479475,9.630057,20.097395,7.177262,-3.395525,4.758071,12.91577,36.625725,6.539775,18.581278,5.9439783,1.5563263,1.8954837,8.744619,7.0977793,11.25915,1.7439253,0.59955686,11.249107,5.0051,5.106632,1.3072655,3.0031412,4.0415635,7.751768,-2.334917,1.8014731,4.0989304,18.644653,18.055449,-2.1647458,6.7810388,0.915625,0.16402173,10.831337,4.5474515,35.43886,2.2208447,2.734485,2.6361265,5.276541,11.084835,13.200114,1.5593569,2.709747,5.7815337,2.1428256,6.686347,14.710244,2.5018325,1.8431375,15.408725,2.4436712,-0.04702881,3.736876,6.2900505,2.4079149,10.156669,5.374101,0.5600239,3.2255664,7.749216
abstract_141631.jpg,24.77899,-0.016912725,11.022529,-6.2699475,11.376962,6.2905016,-2.8692794,37.15143,8.501842,-2.9409933,10.124569,-0.27301964,20.726192,15.646303,8.770142,8.342869,-2.7884505,3.9462805,6.281738,1.667774,4.8874397,-1.5771922,-5.753315,6.074905,2.2459097,6.852167,5.076001,4.0839324,-0.07493328,4.016591,1.6884022,-1.103842,1.1456996,0.35894346,6.5179825,11.583781,-2.2093985,12.789455,10.134942,0.17114589,3.9855409,1.1511371,0.8362558,7.4711533,8.2529335,-0.2640587,5.9490647,7.068023,-3.0677505,-1.6523359,4.076572,4.2271996,-2.0334742,1.0249028,-0.3598377,1.9899623,3.6466746,3.495298,5.099202,-0.25931555,-1.6806672,9.28117,6.179527,1.0649319,1.477571,1.7084595
abstract_141760.jpg,22.41071,5.2240925,1.4530743,12.376134,7.6588316,4.7777786,7.3707657,6.299831,9.839046,0.47175586,27.532196,43.788757,2.785227,7.255529,17.783087,9.303584,5.412845,11.845974,8.772143,16.1796,-0.7236951,0.0030098483,10.172801,6.5843053,10.884826,-0.23086798,5.204732,6.5017114,7.1622634,1.5918331,14.021264,8.239879,10.044989,8.0329685,2.4019132,0.3375767,12.531209,-4.049767,6.320034,2.524109,17.642056,-0.09314399,8.846584,-1.0532206,6.3436055,11.244447,11.39879,1.6953084,0.13820334,2.9666817,-1.215489,-0.21056347,3.8811576,3.3454874,-3.8786232,14.623364,-2.1022964,1.362051,1.88771,12.217438,-1.0670601,4.0890346,0.57157904,-3.405404,3.1694639,8.848536
abstract_141793.jpg,14.8118,12.819256,12.868315,13.02807,13.968608,15.766251,37.04807,11.745273,-0.25467905,7.659928,3.915298,41.332348,4.762562,8.726248,7.3034687,2.1394258,-1.7191764,13.831226,8.955661,8.1991625,7.74305,-1.665155,4.8543835,12.845116,1.6947327,4.1522818,3.441415,6.8262033,5.722351,1.6191803,1.2954473,9.811051,12.224133,5.095008,4.024486,-1.8350743,4.262652,4.4059896,12.360353,15.580106,17.147646,-2.0344381,2.4317424,2.0036092,10.459359,10.896458,7.07099,4.016322,6.150673,1.375765,3.247665,8.304467,-0.3124511,7.7722573,4.625964,9.93379,2.1661263,7.9622254,3.1268086,2.8635838,1.7096764,2.4696045,0.63822633,-1.4589782,-1.0347131,4.393321
abstract_143863.jpg,25.441555,14.998486,11.702539,23.581526,2.0774705,-0.14361362,20.196367,8.41316,20.419544,5.006464,2.3375614,23.153772,2.5557444,0.52412874,5.829961,15.807754,7.752824,6.020181,4.6644793,15.1072,11.116157,1.2779648,9.508955,17.553902,4.866897,10.41939,3.9747317,4.847742,22.679388,16.203604,1.4844067,3.2104533,5.8795447,3.6376429,2.3375077,0.5037152,8.73073,6.1208925,-0.92397106,7.552029,3.1283867,-3.078284,1.9801149,0.5121238,-1.5445858,-0.9023266,6.8106027,39.56617,5.058426,0.5077408,9.004031,8.558633,4.13843,3.1349502,8.899313,3.5301316,4.496486,4.0718756,-0.26920405,2.0023272,3.88552,2.9930043,4.1084075,-2.0962396,0.23279506,-1.1194404
abstract_144286.jpg,12.261163,5.891315,14.034007,5.1144333,10.780616,19.053043,16.949446,13.219202,17.46468,7.398538,24.101833,6.6021824,2.141055,-5.317156,16.440552,18.701601,4.820185,3.9035995,7.6980004,3.4043446,2.371132,21.966787,4.2383223,3.5640626,6.9139905,-5.922096,10.265863,1.0960318,10.804649,17.967705,4.923975,45.10488,9.743096,3.7105467,-0.534237,5.0856533,2.0733798,13.571872,5.9863935,2.6778405,8.480051,2.7290595,0.71639585,4.6121845,4.6459365,5.244562,8.495963,6.825868,0.24893302,1.4835062,4.793317,1.9543201,-0.49991134,5.1791773,4.2932215,8.322759,4.339214,3.7178912,5.501525,5.318924,0.081080385,7.0532074,2.1453924,-3.4910076,1.1655662,1.33762
abstract_145743.jpg,5.233417,-2.9330447,14.812821,6.406616,1.6687738,5.5676093,7.393281,10.497614,30.784018,3.0122783,3.2062788,32.443375,4.229067,5.025567,9.254871,9.939139,7.674421,4.590689,1.7902648,8.445122,19.297026,6.6317363,1.1557072,10.101508,0.13745248,7.0277467,6.9009705,3.6394184,-1.0053188,18.055763,5.2546425,5.058021,5.7327104,5.623599,6.931769,1.7395899,4.186879,1.4537519,2.7080894,9.017326,5.489854,4.965575,20.109594,8.44932,7.9502397,5.022634,2.4697444,8.333249,5.2925124,14.489169,15.851963,5.601893,2.5165484,3.875694,3.0899625,1.5601778,2.8172028,6.805637,2.234748,5.4409485,2.7353513,8.7435875,-0.86474746,0.13852082,2.8059733,5.301618
abstract_146834.jpg,30.875217,8.2198105,6.10166,4.4472055,1.0609726,14.6259365,2.2951741,24.464125,2.282995,13.346052,5.3616576,-0.0444049,20.80678,16.124395,3.3120348,6.9082985,0.07546016,7.557301,12.120986,7.2265663,3.2178082,14.318887,-1.5818491,19.521103,9.242507,3.754612,0.16818362,-2.2084575,-1.8933703,-3.7699227,7.6549215,3.8698316,11.596113,2.6114616,2.6156402,2.837893,10.633004,-2.6525638,16.3927,-1.6618915,1.3040824,7.039588,1.8089148,0.058154576,4.190362,-8.20925,21.158417,-4.120933,4.2110243,0.06546569,0.037256442,14.538625,4.763327,-1.2422765,-2.4599638,3.0911033,1.7911404,2.3345277,5.945932,1.4588807,6.156927,0.25986624,8.736148,-1.2247201,-5.288823,0.6496017
abstract_147277.jpg,27.835089,23.399023,19.946651,-1.321932,8.485429,0.057877555,18.822935,1.6193192,6.0807986,3.4268603,14.2192335,20.093122,0.6134156,16.70288,2.5100827,17.52098,8.956318,17.003792,7.3603263,-0.37571326,13.518363,4.204348,-0.24153674,2.3230166,5.1291103,5.1918073,3.362083,12.514379,4.043641,0.23144642,7.7473207,31.926874,7.864009,2.9740415,4.725073,11.752601,4.057068,4.0042887,0.18007858,4.5046115,8.782914,2.7410786,0.5902428,4.0720983,22.707829,14.376938,6.8331084,2.4260361,-1.1527587,-0.29727378,0.20897198,-0.16856222,3.2337584,17.819826,-0.18010083,0.03936237,3.096621,3.7105343,13.920829,-4.511275,-0.28985116,3.6186934,0.48128805,6.0501122,-0.15118732,0.11531226
abstract_14761.jpg,16.588467,5.9231257,-1.66482,8.654915,-0.45935866,8.744431,17.956877,6.0581803,3.0537558,9.209263,2.784221,47.670555,-0.17512089,12.596248,33.717327,8.833277,18.318907,9.714754,0.10760412,8.054384,1.3346623,5.2177625,5.474253,12.500374,9.216042,3.1026511,6.645274,4.4803853,5.458051,3.8345714,4.172381,11.894758,5.042,0.22833012,8.555586,9.168048,4.337933,2.9221807,5.2715197,-1.9252386,-0.02838187,6.0309453,11.73456,4.229027,13.303582,-0.55605507,6.5257654,1.4749143,7.383492,29.608116,0.84042335,3.948521,8.591704,7.726861,0.10517873,3.844022,-2.2073784,3.213087,5.172645,6.958698,5.853386,-0.55888325,2.5826027,1.66944,1.7328106,2.8776982
abstract_148069.jpg,30.176598,6.9619336,2.8491206,2.4543827,7.802252,6.1330667,11.770025,2.120069,5.2135334,1.3483766,13.23505,17.379337,1.3172224,18.916767,5.746387,-3.0412006,-1.1848025,18.716124,13.00709,6.9632382,0.9240884,6.74586,19.531042,2.7859871,2.6679118,-4.664127,5.645553,0.49032867,7.376288,4.096427,5.803168,5.200205,8.562608,8.481674,-3.7534013,15.697108,7.9930663,-0.4715407,2.412255,3.9417725,28.330118,-0.43061358,-2.5657747,6.337078,-1.814221,5.5845127,12.556582,-0.5376579,-3.743292,2.8449683,-0.5385778,3.2066584,4.877562,2.4062753,-6.3913913,13.467315,-1.8215368,0.17757407,3.980946,3.9453022,4.451695,3.981452,5.4075437,-2.802743,0.69459957,11.515568
abstract_14888.jpg,33.92769,36.416824,0.4079841,1.9113892,6.731955,9.524078,26.394999,5.2414374,4.635898,0.6102601,10.72259,10.344408,-5.7466197,29.214182,-0.9458905,-1.1688856,4.512968,35.822273,6.689906,6.39745,-3.9857976,13.667466,7.1894093,4.7019634,5.6412144,-6.2937155,5.3245835,11.468327,11.753151,4.3119974,4.8915772,5.7121887,11.575789,8.230477,2.5140345,8.14548,5.066729,3.756949,6.949847,2.509651,21.484283,4.7808127,3.3553264,4.6769605,4.5933127,4.814313,7.2241926,1.2435384,-6.7174206,6.0010386,5.643469,3.9095502,6.7603393,-0.2659494,-4.726119,16.213833,-1.4674239,6.8245707,3.7561269,2.5722446,5.5070796,0.68009526,-1.1023728,-0.97847086,1.1124889,4.6186934
abstract_149245.jpg,31.506699,5.2030315,-7.453924,-0.22332747,3.0190096,18.420849,25.003164,6.27057,-1.0687662,6.1043997,20.446482,25.543228,2.4542544,20.72353,4.9050345,5.8267236,0.08149417,14.740194,7.423552,3.8870885,1.8262414,-2.2406988,6.195286,12.138737,3.5598664,-0.14328063,6.053388,7.5314684,5.1544805,0.46118385,-2.9429545,8.38535,17.022392,7.6921487,-2.6833196,13.026796,-2.9951394,-0.28459373,2.6914167,-0.15284848,32.765736,-0.6711235,1.4256424,-0.8130093,3.4786716,14.629726,9.062474,0.34709844,3.577099,2.1438413,3.8400993,6.1250753,5.451198,3.7160568,-3.6466591,12.61593,1.8302385,3.9942198,11.608191,5.721915,4.4104185,5.6613054,0.22934061,-2.0256987,0.7026242,5.8094645
abstract_14933.jpg,11.73985,43.391994,5.283521,1.4845514,5.662064,4.317849,26.668835,5.685073,13.584328,-5.4526625,2.242223,16.005886,0.04028352,0.6016645,-0.7807538,1.6963336,3.3156152,53.543262,10.067699,3.3255122,-1.6298314,1.2377865,2.0254107,3.9847445,4.399783,-0.30358258,6.679528,7.2048416,11.818275,8.047559,1.9098566,4.6787605,1.1312475,3.646271,-1.3621265,0.84362924,2.4124227,5.176904,3.7371895,4.1184807,16.392864,-1.2959646,16.05748,2.9602983,-1.9464947,4.015952,4.0456324,4.810377,-3.568064,8.4370775,2.3944612,4.4321084,4.781327,0.14474429,-4.3486485,10.657085,4.425961,8.080623,-1.073005,-1.2536119,0.5243611,5.404841,2.1925313,-2.4211164,8.667111,0.4752256
abstract_149611.jpg,3.0251436,19.067701,23.111664,24.63491,2.628712,-1.6466227,12.712714,7.8798027,56.021942,1.7393844,7.118016,21.638529,3.4717937,-0.35543424,1.5318518,13.333193,5.61148,1.3623435,-0.062230136,6.0637245,3.7879646,11.034752,1.9248353,12.779772,2.4644608,9.009311,0.15720241,-0.2193017,1.8049054,17.023659,9.0544815,15.772941,9.635065,7.510518,5.262428,1.2745451,4.295991,2.4118733,13.049997,1.9864345,-1.7195742,2.320176,2.7014713,1.5606748,8.599083,8.330011,6.869392,2.411732,0.82833135,-4.728178,8.1621895,3.0671482,5.975997,4.650181,0.4755483,-3.9620147,-1.2220827,2.3715806,8.106969,1.5153748,1.2004063,0.85893077,2.6498623,-1.6296622,3.5180204,-0.59591794
abstract_151275.jpg,33.749996,3.0003355,11.49692,0.985385,-1.2959862,3.7993007,3.5374799,5.060585,12.625782,-2.0147548,16.151922,2.1154606,3.970158,31.660595,19.561161,1.7567254,4.3870487,6.2240305,-2.6819053,6.203773,10.114981,5.2891836,1.2097093,-4.3623867,8.798523,0.84333336,8.337139,2.3721077,4.796857,12.09646,25.700098,6.1550283,9.274588,6.7055397,2.0426798,1.3051602,13.313052,-5.7419233,3.8753011,-2.3327205,13.168663,-1.0639923,-1.7130256,3.690505,0.061866175,4.7624683,6.4849668,2.0621467,-2.1230602,1.9076215,10.945329,3.3013186,-1.0266484,-3.1621947,-3.0954661,16.645365,2.8202827,0.08107134,0.40834796,9.447962,5.8968506,-3.5352185,5.9804115,-3.1659343,2.9614155,3.673315
abstract_151312.jpg,35.261925,11.143188,-1.5801191,11.320632,6.0109334,1.5490167,5.9433784,14.480528,10.122564,7.2144427,1.7800761,6.3217535,7.0446215,28.116402,2.9955785,41.498,7.004714,9.132091,8.399955,4.731264,9.37474,9.929156,18.40044,4.587284,5.5683002,4.9956765,10.434379,5.4157724,6.405756,10.291235,2.8120618,4.154746,13.087763,1.8015842,0.56572294,33.189034,0.6040005,-3.2690563,6.930913,4.665897,11.248281,6.9944763,5.4394407,2.8168054,7.7060924,-1.134767,8.546271,6.275054,0.07311993,2.2343602,5.682221,3.9188292,2.109828,3.9066463,0.26500905,4.6715035,-1.3036394,2.6627278,6.1979628,7.30083,9.626766,4.5246644,1.6544759,3.1630495,2.2249095,5.28272
abstract_151629.jpg,15.771031,-1.6428007,5.149939,53.55606,-0.52837014,7.926565,-1.7753186,2.8213573,22.423662,-0.28496858,1.3197297,3.2531612,5.766303,6.1381264,4.805382,16.298317,3.7288368,5.3816156,-1.9109184,4.474135,12.861006,34.043713,1.7400712,0.07272158,9.037003,4.420314,4.869152,12.016257,9.851202,17.915833,8.979443,3.2906408,4.1697717,2.4022605,5.4823246,6.6403255,5.4399705,1.2144282,6.940411,2.7382042,3.755904,3.6196737,0.9900396,13.86542,3.3025603,7.8853087,3.5510995,29.618553,0.09387154,2.4097826,8.07155,1.2778912,1.50395,0.032485276,0.25561652,-1.4389219,4.599806,1.9477308,0.7455805,7.8825603,4.2284603,9.892733,1.4896767,9.948312,4.921102,1.4307147
abstract_152122.jpg,43.010414,3.9445481,11.932649,1.2244693,13.863439,5.2844267,22.539032,33.385784,5.840646,22.619366,7.2151966,14.768455,10.496329,13.211322,4.8904634,10.814713,6.104828,1.5578197,3.0033324,5.232265,5.3326225,3.2607284,6.947731,3.6962953,15.721561,5.7403035,15.476392,10.618807,2.7014377,-0.19302951,0.6758239,8.5021925,7.4860325,7.9391522,10.552066,9.776572,11.669428,19.434452,2.6433728,2.474082,2.870699,-2.9198296,1.3084524,5.882199,3.7595139,4.364422,11.753801,5.5080795,6.4265637,-0.2456939,1.7295933,4.6175714,5.0819664,16.920523,11.309606,6.902076,-0.8808735,3.0847065,-2.0927243,2.1535037,-0.22820067,2.6710396,2.5907834,2.9794865,1.8966175,-0.1370103
abstract_152325.jpg,13.513407,27.121317,12.558852,4.3413777,50.519604,-0.3402446,13.137765,5.924626,3.6272368,8.201451,7.5778275,23.582693,19.530918,10.8529825,3.709295,2.378236,8.392977,7.1324415,15.253246,0.97041875,8.16978,1.6324805,14.090761,14.163463,4.74139,3.860604,5.869446,5.2463303,12.371233,5.073364,3.31414,3.2614098,1.3690155,8.6177435,-0.56538606,15.091891,-0.49968037,4.315397,9.649665,7.74525,12.747531,0.60913664,9.927467,7.1024537,12.969105,2.6655214,0.5470582,4.0414176,0.5078391,3.7375941,1.9091623,1.541464,3.1440258,-1.7325491,-1.382549,4.3140965,1.3261515,1.3808591,9.615941,0.5199885,-1.2877061,5.6591635,2.2068217,-1.1136168,4.400867,5.3214474
abstract_153176.jpg,26.483675,-1.2325406,14.65791,13.029428,0.25028437,15.40834,5.1499424,8.774701,30.152945,7.829558,21.048826,7.916537,9.281641,-0.23085558,11.436362,6.3709655,9.043205,3.7505705,3.878565,3.4450908,9.43729,-0.8247083,-2.9341106,3.1047935,8.854741,9.214566,16.547867,3.534884,1.6878436,11.7167,2.7789805,6.92102,10.435372,1.1005219,5.7181892,3.5433202,8.475531,3.9438896,6.391745,4.536961,13.958138,6.319803,-0.0038695696,4.116461,10.864067,11.765931,11.926754,8.428724,2.9509773,2.6524465,8.272962,8.463705,0.1986105,1.1773354,-1.1169883,23.609838,1.2111886,2.7910948,8.997809,7.7148094,0.24254099,5.2527094,9.100998,-2.4710472,4.6457386,3.5471253
abstract_153861.jpg,39.381805,8.602152,0.7593969,5.8001766,7.083677,1.9855378,21.475756,7.565718,2.9173446,21.29423,20.72049,3.6851401,4.23101,25.599876,1.8451233,22.943138,15.078588,7.377717,5.1024394,3.3026478,0.98758864,1.6704702,-1.6165097,6.7501187,12.121161,2.663809,8.125505,1.643962,6.898622,3.9158807,2.2276213,42.981216,17.024534,7.278239,-0.9793738,8.864989,15.257769,7.0987344,0.42793128,-2.687041,5.370735,7.0044594,3.4343765,-1.2585838,9.265135,6.5501122,11.634414,2.9038613,-2.0110397,4.602372,7.5548663,1.6133925,5.3049393,0.6279371,6.413146,6.015814,3.111814,-0.61682284,11.758455,-1.0344216,-0.004441105,2.3578212,5.428565,-0.032443833,1.5982013,3.3395755
abstract_154105.jpg,26.724312,3.428475,45.817963,0.28432846,1.0372999,4.038033,20.010105,18.58736,3.4807687,11.6366005,7.9948387,6.3161864,3.3060637,0.44793645,2.9634926,5.7377195,1.4605201,1.9924438,7.376384,2.4224901,7.8878164,-4.6327066,-1.3683691,8.5839205,0.6656352,10.577275,9.338884,1.75949,3.8237274,6.5043135,4.384214,7.5431695,-2.7186532,4.374783,0.60857826,0.8554232,3.3219702,2.4980233,5.508732,4.3981733,10.514509,6.54266,8.213597,2.5424254,9.21571,3.84373,5.2638516,3.8242817,4.913338,-1.270657,10.048261,10.860527,4.050656,3.7772558,19.69669,8.015801,3.3370051,4.098161,7.980935,-0.19628154,6.708414,7.0916204,2.4115689,-3.4233935,4.5162935,4.937677
abstract_155649.jpg,40.445557,35.770363,-2.8756862,12.409334,1.2218219,8.892639,6.787303,1.8246863,6.974016,1.5215868,11.60349,9.358322,-1.5134367,30.797735,6.94892,23.720366,19.042114,8.5717,3.0904841,0.7796527,-0.46082985,-5.486039,0.4844157,6.547472,10.701575,5.6469307,6.4337826,15.042266,-4.4080215,0.59357274,-1.9353154,13.839557,20.049528,3.3854437,4.1480813,13.285458,1.3469418,3.9500415,0.81411934,2.5669026,2.2449348,2.252408,-0.19936255,1.383246,8.8187685,14.278666,6.3463597,8.976057,-3.025463,1.1129861,6.7653613,5.4153466,2.5796266,1.3793869,1.7679155,7.013648,-0.0070323236,3.1127443,9.515018,4.578755,7.170586,0.58975095,5.3809443,0.79750645,-4.586658,3.129663
abstract_15809.jpg,24.340382,3.867715,2.5263512,12.692456,2.3795743,2.06946,-1.194001,8.8633175,11.252565,1.6799539,15.9485655,16.05108,5.423323,17.37525,7.3640213,7.57837,1.9737598,17.024302,14.621271,-1.0556849,0.69939125,0.73954034,0.84129924,20.719364,2.0897179,-2.3765244,11.37278,3.640328,4.7876544,5.3424625,4.5608277,4.0702953,1.7698361,2.9378648,-0.35968125,6.0762005,-2.599497,1.2661583,0.6344213,2.8895211,14.506446,-6.092432,0.34871787,13.14119,-1.4932204,6.5586805,1.8637247,2.0562315,2.4427195,2.2560039,6.367996,2.896163,-1.1795316,-3.0463688,1.59913,9.889261,3.346824,-2.4807584,3.8593814,4.7234073,-1.6840298,6.8262467,14.172443,-2.8452833,-0.6542339,5.2454066
abstract_159220.jpg,29.636118,7.6960526,3.8185763,16.835571,3.514303,12.762708,14.715261,9.2572155,11.781957,1.0483159,10.343459,17.73698,4.118515,6.6672826,11.171742,4.69758,2.9786122,15.509304,13.47384,4.909313,10.939205,1.1051334,5.907942,-0.8021924,3.7685122,5.038861,19.614786,3.6781266,3.1852393,6.3316336,10.151975,9.9993925,9.600682,6.530715,-3.0699666,3.6717687,4.113991,-0.5684508,7.0507946,3.2198548,16.990654,-1.9860759,4.5643015,3.3464506,-0.06703445,1.0929893,8.065549,2.1895323,1.8378865,0.25443503,7.407661,5.526258,2.303268,2.3212252,3.7269466,9.656629,0.40417928,0.9880617,2.82527,6.029235,1.7359471,5.086857,0.43686926,-2.6177223,3.2052617,10.230069
abstract_161035.jpg,36.024178,7.594119,6.1976366,10.846169,12.212201,17.124363,13.1119175,9.194771,5.4851723,9.64492,6.644918,14.17958,10.229351,17.802593,11.693784,-0.049125776,1.6958461,6.478124,1.5601231,15.772341,8.444701,6.973852,12.739852,-2.6626139,7.7613516,-1.0253181,15.535094,-0.7349552,3.3644404,5.190743,4.501619,6.7553887,25.720558,15.819064,-2.183803,2.623179,19.03533,5.364831,3.9058156,-2.9795659,7.2662845,-3.7298448,-3.4629605,2.8263352,-1.4492366,0.8984196,18.203953,1.4824526,2.8078578,1.9050864,2.4513786,4.0741353,3.3995583,2.0048192,2.959286,7.772284,-0.045680255,1.3187042,-1.9170653,7.971136,1.5276085,2.09336,0.8635011,1.9273242,-4.221876,13.9300375
abstract_161461.jpg,54.608376,3.6721725,3.6302373,3.1853766,7.587536,6.6377864,4.1313877,11.842682,0.45845386,19.425076,1.5959772,9.627737,17.2522,14.051,-0.72612375,6.8942227,6.1744885,2.4115655,8.630058,8.726728,17.106577,-1.6717702,7.850791,25.966368,5.0014215,3.0572903,-1.9575768,0.7973575,3.1129668,7.1795897,2.3667862,-0.15341914,4.7534337,4.293471,5.8826556,9.589902,21.809027,4.2366695,0.25995356,2.0482855,2.8426821,3.6202497,-0.9715776,1.9007461,-1.6151584,2.8577392,6.6559963,-0.15519224,8.238016,1.425267,2.3817692,12.908613,3.8263307,3.3306057,13.1007805,1.7679617,4.859296,2.8745246,6.938006,-1.2487397,-0.4417547,0.660313,6.156431,2.1696882,-0.26098537,4.149569
abstract_16304.jpg,26.82564,4.2360587,10.214808,4.7713275,0.25245324,26.117355,21.958755,18.777784,17.457455,14.2279415,2.2293813,-0.94476527,20.364756,-3.8353696,1.6437322,3.0066416,0.4609401,4.0637875,8.087857,11.702782,14.824245,5.6049824,-1.3074418,2.7515688,11.182858,4.9624553,5.851455,2.5807028,-0.39647865,-0.7323841,2.825544,4.0730333,7.204367,1.8423402,0.255857,-3.4368012,1.0932803,2.679581,8.202474,1.8309076,4.277525,5.893202,4.3448153,2.5024202,8.865929,0.9223229,22.91131,4.7973,5.0379267,-4.829232,-0.2854612,20.107666,2.569416,2.899278,2.7272344,5.186984,-1.8499967,-0.5709539,4.285693,1.0137937,2.8995297,2.5164878,-2.434054,-0.47363648,-4.26347,3.043782
abstract_16310.jpg,5.1587367,37.164932,4.071425,1.9366853,2.485537,6.7492046,12.829402,-0.52782214,4.259562,7.6514273,7.0489206,1.5304052,5.8379617,9.503615,-2.2689621,3.8861454,-6.688349,19.683033,12.925357,4.301784,15.362817,7.47658,9.241804,11.679726,-1.0450115,-1.7038759,4.980189,1.086206,3.8518338,9.912999,-0.04189629,-1.7550839,9.294403,5.31056,-1.6438849,12.458162,-1.5938429,-0.24697031,-1.4143971,6.5952597,35.20204,6.437541,-1.7300076,3.5349667,3.177908,26.234453,2.7741215,3.4413536,2.0162108,4.3649,5.203473,4.7648506,0.022152532,4.4644785,-4.6068134,8.570749,3.5778027,10.461703,12.432764,6.5614643,6.8800764,20.444887,1.1834884,1.1711679,0.048763677,5.1478214
abstract_163688.jpg,42.48906,3.3148923,-3.2179952,9.733123,5.623159,27.875635,12.766366,14.072025,6.142406,5.977405,13.124161,6.2854195,15.27316,-0.5252949,9.611567,-0.9425575,3.9618418,7.262195,11.077728,15.807979,6.3604517,2.0552971,11.153995,0.1550628,2.6273856,2.8283217,-0.7078658,3.511636,0.14404413,-2.8722572,2.4157186,-0.26623553,23.809135,8.782892,2.3671362,-6.221106,-1.1608412,-2.5811565,11.107059,-2.1497908,22.941074,-3.026938,1.6354002,-0.23394981,-5.546379,-3.0988803,24.45548,1.2175856,7.145737,-0.7304706,-1.0070586,4.6917725,3.7417943,-1.3871078,-2.2646937,8.418408,-1.6634206,0.87106544,-0.0883406,6.8293495,-2.5397348,1.5389934,3.3607423,-5.5789986,-5.2623076,7.9434047
abstract_16401.jpg,29.265478,0.1127515,5.1477036,6.909384,-1.4019314,8.020828,4.5669594,1.3396538,7.8572454,-2.081543,34.65114,4.614935,1.1174079,21.39809,4.142738,11.373428,-0.79862225,4.3485856,-1.033674,6.8278103,4.4948773,3.5020783,9.673323,14.701668,5.5014076,7.842615,8.881846,6.258692,5.2742147,6.449874,7.8445206,6.0947514,8.749857,5.344223,-0.64903766,4.579734,-0.0030235853,-1.8275595,4.90562,3.8781538,-0.22059846,-0.53978443,2.290427,2.2690575,2.174208,9.267686,-1.0545748,3.4052823,4.6916566,-0.7041504,4.2922397,7.2155805,3.445724,1.3175678,-0.8621322,11.463536,4.0824256,2.808855,3.6314175,-0.6565856,-0.9140031,6.7924447,28.498972,-3.1239042,5.421811,1.8329213
abstract_16440.jpg,-2.0665314,48.15237,9.51293,3.0320551,44.166027,-0.1670837,-2.1631866,-2.388804,1.5619272,3.743352,3.7072506,12.595508,6.7439275,-2.028731,2.12501,5.872193,4.5369444,2.861953,3.3324094,25.44081,2.9689822,0.5538359,18.906895,1.6265316,5.1897426,2.8455322,0.18715188,1.8143829,3.4273844,3.8398318,17.922424,6.792651,3.3773508,12.245285,1.0213294,1.5067838,-0.8091185,-0.59884423,2.5398545,2.7950506,5.7528872,1.6001493,32.88534,5.375973,5.41996,-0.8583151,-2.8800952,4.0543795,-0.24921633,5.174539,1.2059052,-0.92921585,3.33447,3.9923112,0.07747803,-0.27085125,1.4272057,4.192087,0.5461807,2.105528,2.9675593,7.988248,3.2617364,2.1784139,0.7838423,3.7414138
abstract_164622.jpg,36.422832,2.8688307,4.82587,0.094464794,0.31158048,34.18164,4.088224,12.119169,5.533906,6.9281363,14.934058,-0.1972042,13.261804,-2.9838626,5.628113,-3.9849837,5.987142,-0.24377713,0.45995462,3.1494358,24.108746,5.37901,0.18568245,0.95275193,2.2065632,12.292342,6.472272,6.5484943,-0.18089451,1.3402783,3.2600358,3.187025,6.9155273,1.5931973,11.525414,1.8584569,0.89964044,-2.1881688,3.383284,2.4133298,15.297667,-0.07062892,-1.587025,5.331269,4.576859,10.05397,11.399167,-0.24885948,-0.31870803,0.1346332,0.1509984,8.6550865,0.8809194,3.7098002,2.9682028,12.192513,2.2547581,0.03192732,1.5233355,10.815485,1.8884698,3.826817,1.1644872,-2.7247894,1.2584624,1.5173445
abstract_16654.jpg,29.464329,-0.49653465,2.8446984,2.1865017,5.924724,0.77120256,17.91353,7.206422,-6.3904705,1.1218269,18.455387,26.262585,1.8207569,36.628525,4.3063297,3.276338,5.406016,5.860721,21.685303,2.5934625,5.0531816,0.8593155,12.958791,12.866874,5.900385,-1.0866051,1.4771634,5.474175,5.8485312,-0.76079166,3.2176132,6.2758894,12.853104,8.645483,1.3120058,11.961643,0.96952665,-3.1270192,11.858795,19.639233,25.864632,0.3526466,2.4918876,-0.903547,5.0622206,3.6705687,6.8518996,2.079603,-0.8779632,3.4617753,0.62102854,4.579568,6.6243625,0.87882036,-3.6770835,21.069252,0.56654525,-0.52483714,3.7313993,5.8524446,1.0780165,2.7115698,4.340271,-4.438539,1.2554556,8.495949
abstract_166972.jpg,21.773996,7.7711544,-8.352553,6.9658957,6.892851,-2.095724,4.562942,16.29522,13.816218,5.150527,5.898992,37.374107,11.670396,11.993373,18.291435,11.361418,7.7237473,-1.4782171,8.095296,15.286101,-1.7825849,2.3883991,20.584406,14.525109,16.937187,-3.068887,-4.982278,0.8642114,12.268405,5.239413,8.383933,-0.092503615,4.158079,7.160662,-2.5368972,24.480434,7.0609875,-2.1937673,6.8215055,-1.6586565,10.961821,6.076945,-1.8671811,0.2963322,12.428825,1.9078836,9.166681,5.563403,-2.4535816,7.7058434,-0.080538355,6.9705086,18.486317,11.383203,2.3513155,4.647617,3.3183653,4.9951925,5.1701517,0.2955146,3.7069187,1.2424557,7.5727186,3.846684,-1.0366138,4.3969555
abstract_16701.jpg,18.411919,4.3860073,5.6184387,13.730982,7.910416,6.087404,16.706575,12.954068,17.579851,0.53332955,12.77479,19.00787,3.1886458,21.335163,12.306844,14.12971,1.2462405,-1.226062,7.4577003,7.4969435,-5.215301,7.195138,2.7100954,34.67715,4.8337135,4.3477955,2.9270167,1.4695251,5.678814,9.153345,5.35213,8.75078,6.5166154,1.2525687,4.462706,4.2617097,6.1747766,2.2671092,6.7945137,-0.19975914,3.7971265,-3.616821,-2.829427,1.4092641,-2.2563205,3.1326685,3.7782245,2.5355864,1.2042992,3.777818,8.059945,9.992957,-1.2038621,-4.94249,2.4627197,5.4808807,4.609369,-0.3784081,-1.6347054,1.3831451,0.81414354,-1.2250614,5.825572,-3.697918,0.20114928,1.577974
abstract_167065.jpg,20.814287,8.234528,4.7224054,28.301577,9.101204,5.0522547,10.055123,0.5277978,17.147484,3.7455473,2.7289054,44.460003,-1.9506544,-0.60518223,15.84976,3.1280718,16.080448,-0.47486657,2.5187898,15.194379,0.56637377,5.9528055,24.188446,5.824886,11.412911,4.1327767,7.910881,-5.6129727,14.759083,9.45197,12.361221,0.7381017,10.271069,13.649394,-1.3704427,4.7973137,15.986978,-0.86599004,4.8939066,3.7888684,10.949472,1.3676083,6.2924805,3.980279,11.2354355,1.7504355,5.047491,5.5247474,-4.67715,11.720138,3.968546,1.3190873,16.425888,8.981894,-1.5101765,5.156443,0.26795772,3.44271,4.6202745,1.8653419,0.41986927,4.0662203,5.985877,-0.14197433,4.7367587,8.682953
abstract_167195.jpg,53.665977,6.193542,6.141231,9.413698,13.065775,2.8069901,9.52419,1.6070479,15.097199,3.5376728,-0.5042729,8.894137,11.934269,-2.4406297,12.18303,2.0953376,35.440872,1.8547587,7.115993,-1.0397806,1.666864,-0.06499989,2.242183,5.589207,12.473681,14.108833,2.5555513,8.358562,8.377375,11.009192,2.534739,3.628379,2.2336233,1.8022332,8.100547,3.05106,13.557625,1.2654083,3.3956397,4.2351055,3.499033,0.08534603,2.33853,0.044192515,8.568959,-0.43031174,4.5153213,4.018335,1.7289305,6.22886,3.1173687,2.3523211,7.9686537,9.294734,2.1014602,4.1771183,0.6631488,0.7212793,12.664856,9.498357,-1.8429348,4.9634957,0.8736235,3.3642764,-0.6203663,1.0104539
abstract_16754.jpg,56.906708,2.465971,2.9719942,2.0780475,-0.3718906,3.897503,26.669853,15.977095,4.961112,2.3679936,17.26278,8.888456,0.03282647,13.10924,1.3981198,20.229797,7.8149104,8.865153,5.382067,0.48669827,4.697773,6.4914813,2.785919,0.28791362,1.553565,7.03101,4.047351,3.5766222,7.082998,5.6496015,-0.09382593,35.61297,12.379498,4.029683,-1.5124936,0.5304211,9.865971,3.558126,5.950285,-1.6528924,10.836409,4.829745,10.640839,-0.5231293,3.484769,-3.8208466,7.591521,5.4163685,2.1546106,1.0092202,4.577506,0.87424284,5.7198315,1.4710163,2.9472663,1.8632905,3.1865635,0.32654983,1.4301015,0.017510913,0.68365765,3.9351459,2.3723454,-1.2732474,-3.430441,2.20046
abstract_168087.jpg,60.22448,8.90324,0.101688415,18.982195,7.153846,0.9216915,12.898761,-1.3415326,0.9577985,2.6910617,-0.84790075,3.695374,6.025587,2.0904925,15.140137,-3.6527152,32.74034,1.5691988,7.206463,-0.3593987,11.752588,10.504836,7.26469,0.6561191,13.229433,16.298054,8.149889,6.3386397,6.5658674,6.052621,2.5140214,1.2961206,2.988741,7.454402,4.112678,2.6320543,9.6818495,0.6351812,5.8047185,6.041979,8.555479,0.12552775,1.6375039,2.224857,1.1860234,0.43173546,3.6348205,-1.017807,1.3427545,7.0986896,3.8522575,-1.376752,14.670422,4.0087223,1.7700585,7.060811,6.499648,-0.5644472,0.52010995,13.032469,-0.45341867,4.9553165,0.71923363,6.8735905,1.5111849,1.9499123
abstract_169612.jpg,33.4738,2.9781349,6.4324036,5.5559106,0.84437037,16.14909,1.4871999,10.411389,14.131856,-2.2466486,17.301796,4.732614,4.8203716,16.433075,14.010307,7.773802,4.9467454,15.262212,13.544864,-3.118833,2.2068236,14.018175,-9.745948,3.107928,3.639675,-0.28286102,4.8526416,11.17757,2.9372466,10.24994,9.327128,-3.3524375,1.8367536,-1.2472074,-1.7164382,10.703406,8.073856,-1.9525377,4.947881,0.95668304,18.608622,-0.7868222,1.768931,9.485364,0.27311778,3.2364123,-1.434102,4.4414206,0.25988752,3.9460413,4.967283,1.3179734,2.8983204,-2.307314,-5.350786,15.326445,2.7747653,-1.893263,2.042589,5.4829745,3.9878116,4.104322,6.857444,-4.1627398,1.3963954,-0.72028154
abstract_170541.jpg,19.487919,27.364231,-3.8177152,10.881925,1.2835121,7.12247,12.596354,6.4297967,9.024264,7.112082,4.8047824,13.732568,-3.1233459,6.227363,3.5082564,5.1922483,3.5117872,38.44984,2.020804,5.8344874,7.7446184,0.40625668,4.8380775,21.675259,1.7251767,4.266635,20.702497,5.32809,4.904254,5.7088466,6.171829,3.3323798,4.648102,3.8527517,0.40061754,8.150933,3.7058024,-4.840908,3.293544,2.6391356,17.801767,1.3082229,3.1545043,0.5552169,5.8072524,8.835852,1.0901922,2.7388046,2.0232897,12.160293,9.9418955,6.522353,0.54347515,5.4821415,-2.671846,9.483017,5.41649,7.767525,9.599402,4.3325944,3.346277,3.6664796,1.1541936,-1.9546609,7.0123053,6.118852
abstract_170546.jpg,25.759808,0.2744888,3.1234348,9.12433,-1.5352758,14.530569,-1.324348,7.2118015,14.592542,-1.4219576,17.755512,6.8243184,19.999033,5.75187,13.654336,-1.1621972,5.045401,6.0625553,8.77556,-1.7259449,1.5406475,3.5279222,-4.9563575,-1.1536267,14.523056,3.1339598,5.5607333,9.071431,5.5042453,7.6675744,2.3755789,7.942447,11.656003,5.454473,-1.6046964,5.065703,2.6972055,1.3126708,31.461647,-3.724157,4.612878,-4.3660336,-7.3357162,4.345554,-3.3539512,3.8286283,15.936823,2.3015187,5.1383934,1.850354,5.6709137,6.574641,9.492345,0.9991385,-2.62108,10.726568,3.3367455,0.55521894,0.6596522,10.079907,-1.4695565,5.872591,1.206497,3.073028,3.979791,4.2044187
abstract_170781.jpg,21.579992,11.192865,3.4301915,-0.9866852,7.9258204,6.800845,4.658403,8.028415,7.2024198,8.771321,0.9164132,0.2889067,4.6897516,14.632836,7.9439454,10.106356,8.645961,12.852361,14.310871,2.8665087,22.820854,1.0318174,14.545849,-0.6771172,3.8957038,5.5736856,22.351349,-0.86972845,2.359509,15.3117285,6.712511,2.4293165,2.5601141,8.0844345,-3.8788247,10.685108,11.936636,4.822324,3.598641,13.750145,11.230206,-1.0501633,-2.8172388,8.097201,-2.0588164,-0.8288595,7.677023,6.0726748,-1.6200678,11.318928,4.1076517,5.278493,8.655435,-1.5845146,2.618981,2.8283584,1.5727447,6.8642893,0.19514845,5.8414984,3.9924166,3.1006303,3.8006592,-4.618837,1.0651271,8.829816
abstract_17193.jpg,16.976908,3.426657,6.104143,10.359107,4.8576126,4.338258,5.2276816,0.317182,8.833793,-5.233018,9.630628,46.957607,0.15629289,-1.4396741,27.0271,4.217957,17.184132,8.5502825,0.49696025,22.846016,-2.804589,6.716621,18.89439,6.169537,9.833167,-1.3035556,1.1271445,6.1101317,8.824082,3.646589,13.426317,5.028085,7.435779,1.492865,2.7344947,-0.45906758,-2.9441624,-1.8949349,7.314068,0.1175697,6.232502,1.836627,8.06399,5.7647204,7.093004,4.2162805,5.830144,8.230393,6.1181917,26.686937,5.0561547,1.4582893,7.2531214,14.646935,-1.8999298,4.477836,6.8894105,1.406501,4.397382,5.910634,5.868543,5.7452397,1.6257296,-1.2767079,3.6284275,6.6801376
abstract_172574.jpg,24.786232,8.481971,5.2031045,12.544684,9.605544,19.496601,32.153805,6.3958654,2.5662596,4.972367,6.205665,31.3742,5.767083,9.864838,17.537052,4.567834,2.591557,4.6223936,13.722823,12.343867,11.077737,-3.7718058,7.9597645,5.9723935,2.6735926,5.8468447,-1.1141101,3.950952,7.3479176,0.6308147,-0.9555375,7.9526305,22.716734,12.570074,0.5261454,-0.7420279,-6.462819,1.9765079,6.753156,6.1718173,26.879103,3.3267975,14.181484,3.872861,11.825737,4.4961762,12.269351,2.8426342,4.321654,-1.010833,1.1872594,5.894791,3.5540357,-1.2925184,2.474332,8.021667,4.2395687,2.5323691,3.6793735,13.863518,1.5709982,3.2355168,-1.2999282,-1.9009389,-2.1790082,9.29188
abstract_173028.jpg,18.494616,2.617964,-3.7473693,8.250581,1.3996533,4.0734096,11.986777,13.28041,1.764407,4.5945005,15.379301,35.25749,7.608297,9.665379,9.196104,13.413392,2.3622715,7.258667,4.1783395,8.838066,1.5512911,-0.16813707,2.297493,11.436576,6.883849,1.9193504,2.7918973,-0.8203631,2.8877728,4.613802,14.120025,8.829996,8.82793,9.681511,1.0743045,4.442735,2.8755465,-6.3613997,15.543824,2.878773,17.632038,2.6076732,9.210619,-0.9579251,7.8977385,13.572377,9.120115,-0.016788673,-3.2638743,1.4109919,-1.6392149,-1.7563834,9.25426,0.29999855,-3.455206,9.515062,-1.4181288,3.2945976,5.9180512,1.6699113,-1.1418145,2.1594386,1.3836058,0.2883256,0.45896137,4.7057986
abstract_17303.jpg,29.630035,8.208855,-2.6349862,0.4070567,-1.8840319,8.658862,30.237892,1.0531223,4.816776,1.4222548,7.1903496,43.445354,-4.039255,17.355215,9.678644,9.899712,13.2454815,15.528132,10.694448,22.377983,1.6568197,0.21317825,18.855759,10.246517,10.319901,-0.8778233,1.8737627,3.1994967,9.759834,1.340502,17.599371,10.249368,4.678192,6.1768026,1.3489395,11.078811,7.4597845,-0.5174934,-2.704178,1.3369249,30.151527,6.2243075,8.248408,3.2025604,9.364656,8.628,5.94463,2.6317902,-0.53763205,14.422548,3.6663911,4.9042025,8.536345,12.744731,-2.8132944,12.832098,2.4140348,3.5587137,5.648682,4.1458755,4.0351944,6.8190756,3.8295753,0.731006,3.2808497,4.669417
abstract_173499.jpg,12.519648,12.465527,8.961572,17.372007,38.774128,18.129856,11.549749,4.3191543,17.04764,14.815864,8.1108885,6.4291215,17.280186,-1.8393781,9.58804,2.131017,5.5363774,3.850009,6.940256,12.500472,9.965229,5.1483436,1.7966764,3.9946465,10.899312,7.138774,5.6454096,2.7112234,9.196167,5.137173,4.170745,11.493304,11.613135,11.594957,6.4725027,1.8278908,6.4648333,3.348834,5.9332023,5.9922824,6.853329,7.268748,16.94814,7.824587,6.915327,2.8165345,10.118118,-0.17587158,9.5247965,3.6301832,11.035076,4.332556,4.9608593,3.4504375,3.7633686,8.466709,2.4104362,5.863204,6.029274,9.500357,3.229193,4.894922,3.9360194,2.7010078,4.7744055,7.533776
abstract_174317.jpg,54.640205,-0.8660325,4.928935,-0.39274544,7.7366295,16.117147,-4.697149,7.6612935,-0.41244477,3.726787,3.5569832,-0.8267484,23.269619,17.433989,0.7453425,-0.4617206,8.298685,7.204615,16.919024,4.1770616,32.07533,0.667751,10.278274,-0.069593355,3.6835845,1.8831961,4.6660357,2.9246545,1.1304649,3.4240046,4.4910035,0.881687,24.994368,4.7522626,9.494067,2.0870364,1.5711118,0.5259878,-0.88995844,9.534797,0.1875617,2.1832716,4.961251,16.758793,5.836385,4.9138503,5.6557617,9.062132,4.616683,-5.9935713,0.33859602,5.831028,0.78749263,1.9009792,0.89447445,-0.58572876,0.70681804,-3.1169786,0.72108626,-3.8055365,-0.65616333,-4.112127,2.6583445,-2.571687,2.943156,5.4931984
abstract_174379.jpg,33.032322,12.419727,4.1984277,-7.7787027,-2.052109,-0.32039908,2.4293506,5.0746956,-0.008220412,12.058047,3.4004443,10.7225685,9.767827,5.843492,8.960399,6.819956,15.028488,37.606686,6.7717524,20.329132,8.074491,10.227456,3.4834118,3.0544128,24.640205,5.784354,2.8516665,8.247845,3.3738992,4.9239335,18.101591,6.9884853,6.1790476,11.245821,8.014933,-2.1721916,13.654121,4.3574605,2.08775,2.9841197,9.809514,1.5738811,-0.8437087,11.326982,1.3602678,7.729967,7.826806,-3.1710613,1.856184,13.89042,4.0243263,8.050322,13.28907,0.9275928,2.950799,4.9372196,8.506442,3.80453,-0.29296204,7.9153905,-0.88884795,2.4262793,6.732817,-3.7359133,13.450617,4.9653687
abstract_175551.jpg,65.23758,7.039853,6.4745245,3.639118,0.8318806,-0.83946586,-4.5723324,8.518993,7.1368346,6.5980806,-1.3070776,0.06953217,11.910811,2.774193,-0.22036675,16.316319,15.7115135,-0.49098074,2.6517723,10.357628,7.2963,0.7204099,4.6213465,1.301388,17.371973,13.19192,10.749417,-1.532839,2.1907723,3.3982768,10.5386505,2.6437414,2.203723,1.3743399,5.072289,3.8064036,21.291048,7.462678,2.4398065,3.591992,1.7416918,1.5285609,-1.3032943,3.0863743,1.3504661,4.6359763,11.636517,1.601284,1.8671323,2.084205,0.498322,2.5657723,8.322419,4.22628,4.363984,3.2374701,3.6731277,0.28770342,1.235971,4.195126,-0.033369474,0.52819735,-0.10172622,0.7510296,4.7887197,1.014812
abstract_17562.jpg,46.382435,3.6951706,22.649406,6.092699,11.796425,-8.698901,0.18294714,38.98084,10.606572,6.1044483,9.610404,3.8225677,10.017837,13.599363,-4.625188,19.068811,-0.43036324,4.8885846,7.3538013,9.731388,13.267004,0.121959485,8.810772,1.8510067,4.31847,15.139575,8.540233,1.6986887,2.2010806,5.2904353,7.631996,3.242363,11.319002,8.199636,10.6287565,1.472556,7.0222855,11.671874,0.5466763,6.094399,2.3871808,0.057332985,2.7679417,4.9598856,1.8458655,-1.0773209,5.602665,15.960404,0.9620218,-0.86074436,2.929602,-2.1064136,-0.6386861,0.17873886,12.869637,3.1654756,3.1284823,3.0929482,-0.95304334,1.7238444,-1.4558886,3.4931142,1.7208599,-2.152851,1.5525701,3.0130596
abstract_175748.jpg,22.340614,2.9266305,27.557919,6.4149365,5.9244356,5.611812,10.310062,11.745664,2.2448025,3.2894983,4.8454566,14.211943,12.874244,2.58845,12.727154,-0.31094205,2.0159175,8.727689,15.051499,11.584888,11.942205,6.977716,11.776629,-1.6094869,9.623831,8.449655,20.095531,1.0239846,1.7546711,0.1741252,1.5221133,6.317831,9.381184,9.9119625,-6.4301753,1.5455227,4.0881333,-0.33263633,37.409306,15.313597,7.513199,-2.4790013,-2.4325128,-0.16873041,-0.74002564,-0.84193313,11.706392,4.571739,1.1885267,3.0609455,1.703272,3.9088662,7.919062,-3.8884566,2.4225597,9.295761,-2.7441964,0.3119348,1.2297351,9.15533,-1.8581907,3.163357,-0.5447197,-3.41629,0.079234086,9.22333
abstract_176547.jpg,10.223159,8.595313,20.767397,1.3271588,42.724968,4.1785545,5.7128863,2.5669677,2.2765255,6.4106174,2.6671047,-2.7219405,26.195627,2.5819721,-2.2931263,7.2794013,4.316748,18.859734,28.373564,5.468979,2.8863323,-0.24880627,5.9652658,-1.3576663,9.422848,-6.094078,5.349441,5.355591,2.748695,0.9669767,4.1716704,0.15733121,1.3138679,9.166101,-2.0752006,4.202166,7.413736,3.023805,3.2325406,11.490803,25.293537,-2.212404,20.25505,15.380994,-3.714668,-3.4786842,7.093771,4.298804,1.4009095,0.24542911,4.735614,-0.48636115,4.9076242,0.71761227,-1.2081298,9.7564945,-1.3711857,0.8154952,-0.43440592,6.8707027,1.2084163,9.25737,4.835222,-6.0196376,-1.979604,9.055789
abstract_177715.jpg,43.450035,-0.5117777,-2.6518562,13.051452,1.7634034,10.830731,18.029469,10.5552845,4.4781423,11.411927,32.78,17.191408,6.8677664,17.272003,5.1341014,10.742365,4.231323,2.0542567,5.0691614,0.2949465,-0.7581065,-0.6609626,3.5599756,18.454409,6.759367,6.924119,11.216194,6.313366,6.360665,2.5317066,1.8202726,16.83515,6.0474777,4.273184,0.55926555,6.648142,6.19043,8.191875,3.9440372,2.6400936,4.762948,6.154494,3.8852236,3.953553,9.990174,10.087989,6.618452,2.9796026,12.3345175,3.4036722,0.41398668,7.1513934,4.4994416,12.183909,5.533158,19.582485,-0.31696317,6.035186,11.298076,4.940144,2.7940626,4.0676804,3.5090656,3.91206,2.0262651,1.8837327
abstract_177770.jpg,22.643162,5.1951065,11.192984,6.3181696,4.59211,2.3436422,4.280655,6.448723,8.00654,10.497589,10.773572,5.3922725,15.796967,8.03809,5.440234,4.3037543,5.797726,3.9407275,8.2235,2.7955253,-0.037892513,-4.2200165,-0.7589655,4.7423472,12.008896,5.7314544,-2.222263,3.8119588,0.32169676,9.838313,-0.5072,1.3773124,13.60202,8.304175,2.1859846,6.0603023,19.699884,3.2630217,15.424069,-2.461653,9.327546,3.7347388,-7.893892,3.468668,6.616445,21.884491,19.40155,6.6701427,0.716216,2.2440648,7.4828997,7.5588956,6.619047,3.628388,6.788108,11.100717,2.5419316,3.4157503,10.066535,6.4937816,-4.971363,5.0934796,0.41896975,-3.3735256,-0.38702613,3.6824417
abstract_177986.jpg,28.161114,25.418333,8.450322,-1.0284413,15.875345,-2.6902056,15.464504,8.160562,3.8929791,15.302732,5.9419665,9.6420555,-0.40845704,19.797512,-1.6063552,7.211061,10.004843,2.0830266,3.116995,5.088129,11.317282,0.16584563,6.9129424,11.410756,14.581779,17.402359,3.198923,6.078218,-1.0452871,6.029825,3.8112,3.425465,14.880027,21.152662,4.48406,24.451849,5.5656223,5.5548677,1.7434928,9.700784,3.7301183,3.7302012,-0.81725365,-0.48317116,3.9979115,6.419962,12.083025,3.0500464,1.5832179,3.1225686,6.325445,9.09096,22.605396,3.0634432,4.828758,3.5689533,7.203269,4.4928575,3.0363631,1.4035499,2.139606,3.9400988,2.5993497,3.9441488,-0.4174994,1.9385688
abstract_178382.jpg,27.116882,1.152474,-5.3379292,10.07427,6.7354016,22.47148,18.777443,1.7886121,1.0271002,16.846489,3.9608836,15.154934,4.9771495,0.6726652,17.21972,14.14277,3.163302,2.027912,4.860414,11.713666,10.699326,6.888009,8.272282,2.2245505,11.663594,7.846611,6.0111175,1.4956629,3.933492,3.9366853,5.0096097,3.205077,9.9594345,5.8222895,-3.968607,2.5386193,3.4833102,2.615079,5.794839,1.5978249,6.7367554,5.461742,0.71196485,2.9817474,4.4173613,3.7506804,8.352882,4.8171377,4.891727,-0.42982566,2.8156786,11.580239,5.563871,4.3447223,1.423811,0.01607025,1.0055811,4.654678,3.6767945,6.7121863,3.7978787,4.2297015,-0.32950813,-0.2893027,2.2977803,4.0996556
abstract_17861.jpg,27.707714,1.2162458,4.357073,9.874716,7.3860803,43.86021,-0.14022551,6.096398,5.626567,5.964081,5.345121,3.785252,23.303305,4.8229423,5.7857556,-0.3139643,1.7123888,4.5969763,7.084205,6.271048,12.60705,5.464379,-0.23798458,1.6671506,0.87063015,2.2415888,3.8605661,4.8135366,2.1361806,-1.5963668,-0.038941205,0.98948133,17.948584,5.18921,2.647116,-2.9180665,-1.1977994,4.932569,20.699661,0.7828153,18.441889,0.29520598,0.253594,5.5846715,-0.16202462,6.606756,15.184125,-1.0395198,2.7316277,0.59823775,1.3652438,4.3743505,-2.4816613,2.7802653,-0.030767731,13.965929,4.0201035,1.8238184,2.1724696,8.743223,3.4475877,3.4659069,2.3559387,0.5934899,-0.85745174,7.3036313
abstract_17990.jpg,9.814826,5.932742,19.64641,0.8024254,7.2568707,5.8731,9.7314,6.6492753,6.4628763,11.082097,5.1351285,3.6407988,18.481472,21.62992,6.1842637,4.1722255,5.1830373,6.508968,5.6336975,-2.0922976,10.979126,-0.36773625,-3.2535098,12.188,4.831686,6.8748894,-2.8642905,2.026027,8.39349,8.192392,3.6911397,4.268453,6.310624,5.5643263,-5.265757,14.613173,-5.784735,2.504897,21.210693,-2.9051447,10.317244,5.9643464,-5.105713,1.2127796,1.5070189,18.335257,5.600721,0.36377203,-1.2408748,0.31632185,3.567054,3.1856985,2.218999,-3.414908,7.195654,10.60464,-0.5170623,-1.698605,12.518292,2.8967578,-0.45697302,7.5581765,2.077109,0.27983496,5.0520353,5.9717474
