image,0,1,2,3,4,5,6,7,8,9,10,11,12,13,14,15,16,17,18,19,20,21,22,23,24,25,26,27,28,29,30,31,32,33,34,35,36,37,38,39,40,41,42,43,44,45,46,47,48,49,50,51,52,53,54,55,56,57,58,59,60,61,62,63,64,65
advertisement_100003.jpg,4.4774594,8.966086,6.618024,9.519634,7.9265237,5.113728,6.6946282,13.726872,16.671684,5.053041,9.532471,11.028278,13.643369,9.60761,16.438713,8.103745,5.859951,3.0339875,10.117226,5.12959,7.209587,1.0007765,9.761422,-2.87433,3.9869509,-0.8421913,5.1498213,1.6750008,-4.051799,6.3776097,2.9517257,4.427751,-0.063695386,3.0578527,5.998356,3.7112184,4.944153,4.83187,1.1640415,10.349534,2.4865067,0.048382953,2.830181,1.510379,1.6833311,-1.9914829,10.511672,1.8101046,3.1301553,3.3836305,2.7637,5.467287,4.024166,5.6113577,-5.79637,6.2726364,2.218645,-0.38030308,-1.4959106,-2.4066513,4.624318,6.1688285,15.306714,1.015337,-4.6896057,8.306574
advertisement_100017.jpg,13.505368,-0.99799913,5.374151,9.018628,-0.8914964,0.23336451,16.146591,6.984578,12.175069,0.19525443,6.775663,18.655338,0.53792244,7.4342175,37.71986,21.32726,10.240032,-2.7265604,-0.5780353,10.205618,5.112487,0.77787954,8.936506,2.7690651,0.36740416,13.104298,5.030702,0.44800407,-2.5956721,5.7995467,1.2662494,4.1402016,4.8151073,1.4165976,2.0798259,-0.74790365,1.4330696,2.460836,-1.4417846,3.858532,1.779161,0.5298771,-1.1513993,2.9946904,0.56995654,0.8228635,5.3163743,1.9898055,9.048785,12.927139,14.37404,9.922017,-1.7635964,13.125807,1.0160925,4.449566,5.658827,1.1478989,-0.39615124,8.580511,2.9442635,4.880036,6.012396,3.1663373,-0.7765465,-0.82293135
advertisement_100028.jpg,23.97004,2.0339663,2.0929754,14.318264,3.0646,7.903251,25.776854,9.636022,12.945247,7.966778,6.6290627,19.53789,8.30331,1.3630192,16.128878,12.482432,15.433177,2.9794526,6.521432,13.270012,4.6145163,6.0418277,7.1174903,6.6481547,13.127243,13.590537,4.4181657,6.1657577,1.3044602,3.19352,5.659198,2.2527924,3.4766533,4.845775,-3.0520527,-1.3163248,-2.1399791,8.517114,-0.06921194,6.958053,1.2081993,0.8172679,5.776653,-1.3451378,6.120813,-0.8632254,4.552829,3.6390357,6.075715,3.6570315,1.1451453,14.019887,6.3714156,17.990782,-0.009917188,1.1026155,1.4949697,6.952066,4.5172596,0.18660781,-1.2230436,3.0514197,2.382093,5.3030796,-2.5401452,-2.8016033
advertisement_100046.jpg,17.40469,3.8138027,17.235514,6.2477393,-2.322724,4.359343,25.57878,8.169166,12.316283,-1.090855,10.049324,20.764837,1.2085333,5.2325544,19.031473,7.4447765,0.78953606,4.822686,8.028864,11.657976,11.563984,5.4026856,4.241986,10.33121,-0.7095534,14.041378,-1.5642538,-5.6376767,-1.8951359,8.615464,-4.109384,3.8874154,4.1115227,4.6452904,2.8574445,3.3364959,0.13001966,-0.33165678,-2.238353,11.349084,-1.9000765,0.49182978,1.2220973,-3.1827197,4.628153,-2.268433,4.303197,0.96716183,-0.67325646,0.9139575,9.291598,8.5448475,9.045445,6.710569,2.328572,6.8062754,3.976617,1.603913,0.7666886,-1.5786297,3.2787182,3.2867267,6.879918,4.733795,-4.640168,0.7678517
advertisement_100073.jpg,11.512836,-2.4092317,-2.870095,5.9177585,3.8029737,11.799578,21.75517,13.255607,9.533138,1.878043,8.16727,13.743599,4.9303985,0.6740307,24.980904,23.056149,-1.4675449,-4.1508327,3.268569,6.839569,1.7074493,4.3125477,10.995117,4.784164,5.3907824,3.1185594,5.859885,-2.9282439,5.112493,-1.840945,-0.42603678,-1.1540953,5.6985636,9.312592,-3.3892374,-1.6635584,0.1378038,2.905002,-1.0220159,8.60275,0.83378106,-0.05640313,7.2233534,-1.1993911,2.9202304,-5.363895,7.963844,-2.3260782,10.601423,5.4473276,3.6539223,14.384538,7.021071,6.9877906,-1.8428383,3.2218103,-2.2477756,2.2430365,2.000575,5.3530297,-1.2453958,3.6925168,1.8386195,2.1182566,-2.173312,3.962718
advertisement_100207.jpg,8.658074,-2.5895247,14.691603,6.7166,0.31158313,1.2656546,15.457516,9.631066,16.674166,-3.4455743,9.956852,18.93398,0.23082316,9.310335,28.250006,12.441616,-1.0699805,-1.9969311,1.6697023,7.18358,-3.6255474,-0.25726268,11.135133,11.190646,2.8462405,4.9134536,1.557527,3.0957713,-1.9272977,2.4226065,-1.4242126,-0.84915704,4.461693,0.8994109,3.6670713,5.7516975,-3.7631993,1.0553198,-4.836995,1.4688797,3.6107707,0.38498634,2.9592912,6.0901346,1.7768525,-3.2402694,4.2898297,3.0862474,6.9639072,10.735793,14.684823,17.501858,-1.8741784,10.003872,-3.404043,4.9048743,1.0418977,-1.093774,2.6359005,9.115752,2.331135,0.12451252,0.45886073,2.3678734,0.81616175,2.4176803
advertisement_100397.jpg,16.458094,4.069983,15.052618,-3.9478903,2.3000124,9.85104,7.0166693,7.8034787,20.874176,6.112512,14.796798,21.425505,5.1154795,0.014740322,10.331458,29.998135,4.264107,3.2910914,8.55861,14.523029,-3.2006912,-5.4208407,10.093136,6.222282,14.938643,2.7772682,-2.3194726,7.7671266,1.925448,8.667251,8.080575,16.287214,9.929217,-2.7835238,3.327012,11.7471485,3.51126,1.6182463,4.563232,4.0138335,1.0096011,-5.582013,-1.0747094,-3.7106092,-1.0844898,-1.8021036,9.373074,15.318882,3.4669716,4.2451797,1.775711,2.1271586,1.4608115,14.604625,-4.171364,-0.51228935,1.7538116,2.6396892,9.374297,-4.7904944,-0.2595638,6.146964,1.9516535,-7.668094,-0.6320795,0.41669112
advertisement_100713.jpg,19.616802,-0.83900094,14.59859,14.398289,4.3645086,-4.136042,4.328638,12.782903,29.155058,-2.8837848,9.229082,12.616409,1.175348,8.114968,9.34874,10.856379,6.167779,6.4945846,2.6839204,1.4773407,-2.6038833,5.220634,0.11448399,2.5477936,6.6218863,0.51814246,14.396087,11.110171,4.7890096,6.4603524,0.8218954,11.791015,-0.4742293,9.38582,3.3239305,1.9965969,2.572104,-1.1460527,6.2853217,-3.307304,4.0172777,-2.7060435,4.011476,2.2708151,4.984577,-1.502116,-3.5044496,8.231721,-4.501904,-3.839805,31.686365,4.487161,7.697016,-0.3400633,-1.7616775,4.1115227,3.7199042,-1.0975672,1.0598339,5.448906,-0.8581271,-0.6964733,-4.0213337,-0.7297961,0.44245562,5.598916
advertisement_100851.jpg,15.209462,10.833366,5.410837,5.1455283,4.9901185,12.075859,0.46089152,16.476952,25.646595,2.2444544,12.957154,11.341314,15.123547,-0.10781754,20.03959,40.771408,-1.1598756,-0.6650066,3.4272544,2.155444,3.631325,3.1763308,5.6795726,4.7421713,-0.89400446,2.638051,7.5150332,-0.2699866,1.6086862,8.336781,5.2984424,5.3484344,1.2977434,-0.71682143,2.2977262,3.417835,1.5806334,7.6692877,9.556301,1.8941786,-2.8036096,0.49249926,7.9474883,0.3954904,5.831329,-3.122242,7.687103,9.301717,8.421873,2.2278628,3.57448,4.0015883,1.7046822,7.959558,2.4274523,-1.5960265,1.2958056,3.82465,4.6830792,4.8312774,3.65408,4.2846365,-2.2234724,-1.6756065,0.55938375,-0.7799784
advertisement_100918.jpg,23.041763,0.69687164,21.101736,-2.462732,8.7197695,-7.7951403,5.1666293,28.755423,11.130877,-2.3394713,14.363079,10.675288,18.461222,3.7990294,7.3980107,30.683416,3.9828234,6.881861,6.172578,0.770575,7.7775292,0.40304586,6.734714,3.2999132,5.2089734,23.008135,2.2507153,2.450388,-3.4686558,-0.8571335,1.2818251,7.2671576,-0.27708095,4.7583637,7.6795974,2.1967757,-1.6100285,6.7904816,14.543943,8.929959,-2.1692727,-4.4232903,13.0910425,2.6100807,-0.7612519,-3.2695339,6.7684693,4.6078296,2.8999248,3.5085998,-0.20263559,-0.4516917,1.8853223,4.6817307,9.548466,7.1006536,4.7003517,6.0845227,-1.5385723,5.0270987,-5.6347184,3.6808896,-0.7816123,0.16042583,-0.60116297,-0.060488634
advertisement_101774.jpg,9.718556,69.2201,5.109865,5.811059,2.751027,2.9617898,3.8769975,10.334038,4.1810555,-0.117829256,3.5966263,7.964106,2.2231352,10.168065,9.497755,9.429815,1.1781652,13.711053,1.9768721,6.295873,-4.9108133,1.6552749,0.43690893,16.82805,-2.3187983,-2.0491335,4.190815,5.524195,0.4251157,3.5501971,1.6782304,-1.1984147,-4.4573293,-1.7083079,1.3763784,5.074316,5.569583,1.3960565,-3.4452877,2.3567288,2.8849092,2.5432682,8.559525,1.9184077,5.029713,2.1383646,2.487607,0.937381,3.8690078,7.6798906,4.3447933,7.3190374,-3.9261878,3.2687023,7.9679265,1.1921716,4.122154,0.9709701,3.1628034,3.1373847,4.68064,2.9190753,3.8122191,0.11877632,-1.0019705,-0.17631978
advertisement_101802.jpg,20.439034,2.671532,-2.7817817,43.654312,-4.3429637,9.010313,12.318758,5.186644,17.205315,0.9600451,6.659492,33.951103,-0.80804986,-0.34849367,13.671747,3.213966,12.852883,12.184356,4.0168996,4.7282867,5.6207657,14.613899,-1.689731,6.4606295,9.3369465,9.081879,3.9176252,2.0758984,4.256033,6.871868,11.884889,5.478971,7.1172104,6.0288386,2.787959,2.954846,11.320433,0.07767537,5.00507,2.3298848,3.3739495,-2.9997573,0.08469783,14.093245,0.2958348,0.40029985,8.705152,-5.818486,3.5206091,14.987569,1.8911147,3.9804108,5.2658935,5.344959,1.7940574,1.0797328,2.8652234,4.15463,-1.2582932,12.159841,1.1975452,1.4920232,0.6300403,6.592545,-1.9388387,4.7730827
advertisement_101921.jpg,6.433674,68.12496,2.9014282,9.735702,6.0850163,6.676077,12.92515,5.186186,7.0459085,0.44664872,7.294295,12.436023,-2.1429133,10.485457,14.488186,3.5171762,-0.2840262,1.849319,3.1381927,4.224526,0.7535318,4.173129,4.7760158,13.722183,1.8803306,1.5562491,-0.22111456,11.877721,0.7767117,-0.4187212,-2.9820495,0.5114104,3.8899992,9.295134,5.4560905,-3.088641,3.094266,2.3416393,-3.847409,-1.3178371,2.627539,6.144842,5.2969584,-1.3805996,2.815705,3.5848076,0.292827,-4.172732,7.6044707,0.32398438,2.0152647,2.8507154,4.85125,4.5958195,4.808903,1.2939862,1.2138906,3.3450813,2.8956122,6.8582387,-0.1914354,-0.17234477,5.8743773,1.3568226,-0.62375325,2.6662338
advertisement_102149.jpg,3.639463,15.391475,1.9653386,16.288141,1.4138225,6.878029,9.229293,7.6584496,25.103033,-0.61332333,6.5530567,15.009689,4.570294,7.8091493,12.51116,1.2841761,-0.82472,9.730485,5.611908,0.87861,12.952465,7.8433537,1.9320345,2.9078267,-0.42500746,3.8768868,2.363125,6.436299,7.7603283,10.590175,-8.299671,-3.1200783,-2.9826906,0.9083204,5.155705,3.0626636,2.049741,6.0336866,-0.5413214,-2.1821527,10.534664,6.805034,-1.634115,6.75454,-0.3482769,1.7567135,5.147076,-4.5264697,7.9006715,12.613216,7.8705573,5.6670003,-2.5849566,21.858765,3.3407185,6.9226832,14.113265,3.736653,-2.1752849,10.843293,5.3819666,0.98623765,5.609348,7.8191214,2.1578171,0.7201184
advertisement_102183.jpg,2.1918395,69.8087,7.3051,3.1165564,2.7416883,4.6059384,11.118264,1.1927105,7.5509605,2.0686302,9.064111,13.744065,-4.5588007,7.3436418,15.042062,0.56622756,1.1268759,7.680925,-0.055384263,6.854897,-1.2313015,2.4176464,12.141238,0.46768513,0.6535859,-1.6604617,0.65377176,9.177291,5.9567547,7.0001445,0.9047169,-0.41531506,4.876771,1.8354516,5.0968213,-2.4683714,-3.081335,2.877023,-2.0898602,4.7346025,0.9756947,6.408037,-1.8243386,-0.03410289,3.9945443,3.0727415,1.6381088,1.6690776,1.7555307,5.952765,2.551226,-1.5442126,2.2361479,5.393587,2.373553,2.4399736,0.53275156,9.55901,2.5991015,0.75614953,1.2434934,1.479184,6.111088,0.6536363,7.0537314,2.4548194
advertisement_102190.jpg,21.33692,37.549084,6.322016,6.578019,-3.380876,9.551331,9.674571,1.1408124,7.914338,7.1418495,15.660149,9.043396,-2.925164,5.606622,24.868492,11.163775,6.5490923,3.8957305,1.701041,7.9860425,2.9381635,1.8986802,7.1555433,7.633273,1.7750852,0.81929696,3.429765,9.82513,0.49203354,1.6590185,3.0547864,7.004881,1.0088927,-3.971076,7.338778,-2.1430433,1.0739385,5.816474,2.0531247,-0.60449094,4.613016,5.677661,-0.86001176,-0.6349184,4.2543426,-1.3474278,0.1530353,2.2810493,4.319604,5.988206,3.286171,2.0267754,-7.583347,9.430174,1.1775168,4.1665654,8.364501,12.73019,3.9833374,12.008356,3.6247358,4.681898,6.05804,-0.2907766,2.267217,0.9945994
advertisement_10223.jpg,19.53668,26.581892,16.265697,11.731,2.9516478,5.699657,20.385838,5.0663424,32.25115,4.26672,14.159073,7.4099483,1.0362781,0.41831267,13.737294,7.385699,1.5189054,28.924376,6.375841,11.0510235,5.3228073,4.502861,4.276333,5.5181465,2.658061,7.6435604,4.1832914,3.5311122,-0.34971237,5.7895575,2.1936343,3.8977146,0.845573,-2.7770617,10.211493,-1.1612693,0.11653763,4.7118306,3.537127,-0.86319745,-1.0682244,1.7677512,3.8408365,3.601196,0.5710192,2.3065639,1.4545393,8.138148,1.8663563,2.6399198,7.564334,11.300655,-5.1899724,6.25206,-1.1056867,5.8786945,5.5968547,0.3237309,1.2138512,2.5356476,0.8951597,7.1856947,6.0569773,-7.685155,11.052389,1.3215561
advertisement_102306.jpg,12.079084,25.796854,0.31454408,7.377696,-1.2670447,12.616466,10.986442,6.9125085,22.69403,0.58517754,21.0634,16.585411,-7.1136823,2.7580347,24.658295,1.7834872,1.164987,7.148339,-5.5707545,3.4915254,1.7448415,3.477921,1.1053689,2.115097,-5.5036263,3.311344,2.0320318,7.179953,1.6603135,8.556559,3.1521785,6.658867,-1.521739,-1.0438256,4.3088784,0.067987755,-2.6717823,8.671326,0.5513156,-8.667719,1.6618181,0.7378535,1.0131748,2.5149486,1.4569746,1.3461496,1.3037959,3.5252624,5.472852,10.744789,10.722839,5.7362976,-3.7704449,19.063978,3.9207199,8.5004015,7.447705,6.4107604,-1.096607,5.398875,0.2515349,-0.31236783,6.664835,1.7294165,-1.7920527,-2.4517064
advertisement_10232.jpg,22.939861,35.364895,2.850149,8.828885,-1.9218221,8.207422,14.258519,11.317826,16.098812,6.3482046,2.410395,10.093861,4.610961,2.791491,12.5737,8.48779,1.2646431,25.465775,10.747454,7.904818,2.6589148,0.32016262,3.4938886,-2.9247358,-1.7579391,5.9974856,-2.2375512,15.805604,2.2976139,4.3415093,-2.216253,6.108961,5.2653255,-2.3035426,6.9456906,-6.955915,-3.1402447,2.8082526,5.3710246,3.0022252,-2.1167943,4.4746137,-3.4103553,1.039105,4.561711,0.58432555,4.3392763,0.84977674,6.3178883,4.134215,6.7742124,-1.6038378,-2.2002196,7.34756,2.6895297,4.055952,4.5444727,6.3112974,-0.5824212,3.2662115,1.7501645,1.2562698,2.6185825,0.21954966,2.5138373,0.7549549
advertisement_102374.jpg,-5.5603466,60.36451,9.555886,6.285319,8.319633,4.3374724,-2.6024594,10.968527,5.564259,-3.1236858,12.761325,8.386247,1.7592607,4.361046,14.076461,3.2571666,0.14515975,-2.579469,0.8958906,7.5529747,0.9895224,4.8285017,10.744178,6.9964,-4.1025276,4.959112,0.31897295,5.6702247,4.343239,4.198782,3.0238156,-4.870163,0.26618773,1.0775487,4.813464,0.1376111,2.0211282,-0.2597274,1.1688598,-1.8033534,-0.8582627,-0.9325069,1.1288294,-0.83395475,0.2483694,1.4517592,1.4974877,5.156964,3.6435013,0.11307602,4.357709,-6.8959794,-3.0331352,2.9768379,2.2726269,6.3159733,2.707461,6.437059,-1.7185656,5.3803196,-1.3041757,1.5722387,7.7115,-0.47777408,3.115779,-1.030969
advertisement_102417.jpg,4.5218325,15.753214,13.315147,14.589919,2.4890783,4.542198,17.036448,8.481444,10.50324,9.264294,6.306411,20.591208,-5.783559,0.3087717,25.605518,11.041707,5.665477,0.49946877,2.2983878,7.6516004,-7.939957,1.828656,11.623803,6.092713,8.966056,3.070979,6.3160605,1.2327724,3.637401,3.831331,5.438703,2.2943673,7.4569335,2.696269,3.6867983,-2.7715492,1.9395664,6.130997,4.4141397,-2.36696,-4.908551,5.6740785,0.26070872,1.510886,6.9484158,-6.20505,6.0683026,3.6403344,6.488534,7.6304593,6.4039946,5.6218967,2.074486,4.2395277,-0.8516755,4.5202136,0.34450823,4.9265833,7.5639234,9.311054,2.5639052,1.15122,2.3175101,0.9558087,-0.5885151,-0.6922517
advertisement_102481.jpg,9.728109,16.121828,12.483324,9.8400955,-1.6245252,12.687052,4.456816,18.580921,22.353632,-2.7287939,24.932245,14.050415,1.3057468,3.732521,20.72202,15.142645,8.691016,0.103073105,1.3989781,5.156011,-1.8150078,1.9667737,-0.63038933,9.271964,2.264484,-1.0056366,3.2214184,6.7748666,-0.5947708,14.180385,6.1490088,8.801564,1.4592656,0.9447836,6.9465256,5.5176935,-1.7932299,8.635076,-0.5888742,-1.9647822,2.489354,-0.53860277,3.1838596,3.293667,4.979072,0.26662853,-0.47470984,4.154623,6.0949545,7.2310233,9.394827,1.0195018,-3.2434,21.191763,3.2198184,7.1872463,8.903233,1.1690384,4.0300035,5.8624024,6.4095216,2.7537925,11.745459,0.6503971,-4.2741027,1.9871943
advertisement_102660.jpg,23.699055,2.4418676,14.817074,24.265932,-3.4666526,4.8730536,9.44854,10.1402235,40.447216,-2.8655713,16.45609,10.900683,7.538377,-5.0307307,15.64988,8.955891,6.935738,2.5131469,3.8945491,3.2094233,-1.2250406,0.012609642,-4.626956,2.6354904,1.5053177,8.601759,7.5496902,14.267717,6.0616198,8.204573,5.6296787,7.23462,3.6640365,-5.1006,5.372387,-1.7663486,-1.9474294,4.490705,2.811683,0.973551,-2.838251,-2.5060196,-1.4738643,2.602799,0.59920955,-1.0522605,1.9494308,9.802746,7.4787445,2.8473456,4.097403,7.860295,-5.0361114,13.227594,1.046848,-0.33421665,7.0612283,3.999255,0.09894599,2.358067,0.3164853,7.7257543,4.632186,1.745744,2.5707865,1.1807357
advertisement_102685.jpg,22.539118,11.665209,4.4647684,5.1910458,8.568543,5.9919553,8.683572,16.200724,24.005411,9.687334,2.837687,12.025845,10.809929,4.7180314,17.369555,9.96777,2.554854,6.005999,5.0576153,5.2731266,13.417034,-1.2148881,-2.3425443,3.3376355,4.592782,4.357364,3.7065785,10.815643,2.6276925,10.642089,9.232509,5.019955,-1.9118747,-0.77592164,7.6524696,6.8488812,-0.69620895,6.026968,4.3308554,8.727007,-1.438226,-0.2367042,0.8857298,1.1736078,2.9389322,-2.9435587,0.6137888,5.0373993,1.1636554,0.9207272,8.518681,5.10077,4.297418,7.261948,1.7523952,0.915377,8.092566,0.80810153,5.587677,1.8653148,-1.1124026,3.0459054,2.0796576,-3.2590277,-0.8925296,-0.65769875
advertisement_102731.jpg,22.25728,6.460444,7.080531,11.413575,-8.630274,8.081396,17.62599,12.236844,20.870945,1.4073285,15.474989,1.609886,13.505001,3.334678,24.45295,9.746594,-2.530924,-1.1998614,-0.47537592,4.8239717,8.178886,4.0322704,-4.185412,7.063352,10.030925,13.122053,9.965105,1.9781519,-0.27622467,7.5866647,2.8268666,6.606489,-0.38029486,0.8296273,10.184212,-3.3914149,2.9909708,12.35075,0.64386857,-3.899663,1.8389275,-0.889718,1.3546373,5.560846,-1.7858031,11.088426,3.7304916,15.071472,2.9618785,-3.048644,5.743158,6.2371664,0.88155866,0.28681737,3.942015,8.410627,4.5789285,-1.5061495,2.045934,5.4122863,-1.5344956,2.616045,6.952425,-3.1802177,3.5247948,0.56521726
advertisement_102739.jpg,27.380203,0.7873088,2.6913285,12.496155,1.9846033,7.505083,1.5354285,8.855161,22.769691,3.9656124,13.850633,3.0780056,5.341375,2.843664,18.762909,13.557532,10.3189745,3.7453792,7.704707,5.7616725,-1.2248824,0.8822254,0.5645488,0.7765762,11.767035,18.997023,8.05498,7.772009,1.6798937,4.679139,8.55083,6.1859365,0.35557783,-1.5279286,2.9308918,-2.9812865,1.8420361,8.515302,1.1859891,1.8126614,4.0077047,1.9939909,2.1275735,9.7589855,2.6421363,4.226593,1.765536,7.089109,3.728619,2.039834,3.031301,-0.5322564,4.4137535,0.03176485,2.961361,7.980785,5.147086,-0.8535864,1.6162783,0.693536,-0.64704597,8.444286,5.015001,-2.6650457,9.923027,3.4841754
advertisement_102937.jpg,5.4298177,15.393268,20.779009,8.420381,16.79103,4.5097823,3.2992742,9.989853,11.941449,-0.6211141,7.9911695,12.234621,9.166672,-0.05542338,14.0585575,0.52020407,11.082665,18.204798,7.7030077,1.2954127,7.007678,-0.29799724,1.9647757,0.49129838,0.72007346,-3.636973,-4.6822786,9.25796,0.76170194,6.0838327,3.9308271,-5.217185,0.78388935,-0.60938495,11.611749,0.40540043,-3.0616992,1.6813467,8.672747,19.587067,0.9873705,3.5099208,4.1734943,13.12395,13.398764,-2.2052908,4.4343324,3.0484622,4.5470076,13.54118,3.5655253,4.871109,-2.1388736,10.605786,-0.5795005,4.0557795,1.756623,4.7901535,2.3875833,3.4047432,1.4245057,2.0194423,2.8852892,5.2050376,-6.4300785,0.54262453
advertisement_102986.jpg,26.920492,5.1354227,5.7121673,7.26175,34.163063,7.929793,2.679044,11.334079,2.5397048,2.9039474,13.721888,4.4934993,21.158491,3.6408675,14.410597,6.9747353,-0.5424318,2.5771916,5.145318,10.140907,12.750242,4.5384126,3.4169831,5.0888543,15.846128,5.488682,5.1189904,-0.13575181,-2.0878456,-4.0666833,3.5405397,0.7412944,2.889761,6.973101,6.9165506,-0.49545002,3.4331598,2.801888,4.3665533,1.9973454,1.4951274,-1.9115498,19.778704,2.2243876,-0.841381,-0.41158777,4.339382,3.2501612,3.8502586,-1.125991,-5.5782766,5.184476,2.4908872,-1.2315667,-4.994114,6.3324957,-3.4949958,3.7488916,1.3449928,9.186829,-0.5411557,5.0881467,4.150809,-6.919849,-5.8835645,5.947216
advertisement_102992.jpg,4.2625384,8.339323,53.598404,1.1217022,8.441075,10.924031,-1.0772394,7.5818753,15.67767,3.6787896,23.133404,3.7920058,2.3655202,4.1866283,11.818279,12.036197,-3.6774828,-0.27718657,5.8882065,2.7517488,5.97759,-3.2455578,-2.4520855,1.6907979,-5.7575474,1.4926527,0.8272577,6.5040746,1.1386265,8.40251,-1.8601253,4.6739383,2.997524,3.7458797,0.30288872,4.63114,-6.261143,1.4157921,0.98625284,1.431795,-2.2839506,0.82634825,0.6461826,2.2688913,0.83928424,-3.8122647,2.8620749,-0.256425,5.6525135,-0.27042395,8.321414,-1.567911,-3.5140157,11.086227,1.6934938,8.5422735,3.1078365,5.740154,0.2981545,3.413811,-1.7350876,2.357026,2.3880355,2.459352,0.53549355,3.089649
advertisement_103088.jpg,27.351622,2.3413782,23.693033,10.667576,1.770295,4.9128747,7.524767,20.5974,6.3917475,6.4655566,7.3784866,-0.0675011,9.54832,13.639559,5.783727,9.33971,-0.3945225,7.5179076,21.007336,0.3708939,12.288521,-5.1381116,3.7213721,-1.7339941,3.7803814,9.628526,11.764226,-0.023688003,-1.924023,1.7927121,4.35091,5.9549294,5.165516,1.7156163,1.716836,2.6884058,5.8614707,13.952656,2.0353553,12.952976,2.5098858,2.180472,4.4745812,8.725676,8.572505,0.44196808,1.3648283,7.472964,2.418682,4.460385,2.3684626,0.6506397,2.4708228,3.9360921,1.9959519,15.672824,-5.510461,-1.9809717,1.3150218,2.9243238,5.5147214,8.452302,1.2236468,1.2964911,-0.025340728,6.2887697
advertisement_103121.jpg,6.7755327,5.669787,15.0201235,8.269385,10.566412,2.2264333,10.117439,2.2059042,22.296667,6.6886163,5.3920317,2.5294533,12.0173025,0.068370834,8.074699,5.184769,10.807669,13.826808,0.8988819,9.217431,1.9919899,-2.0786326,-1.3038262,-0.19093248,17.157341,8.366355,1.7812595,2.9262955,19.706938,4.7796245,17.36222,11.08271,-0.1245955,1.3816009,3.4920964,-5.5107226,0.11531585,5.4386706,-0.12218356,-0.81443435,0.3869053,-2.5282812,8.0681095,2.131395,-1.7036418,11.039063,-1.5130974,6.1914315,7.9064326,15.51382,5.163423,3.3877187,2.1152375,-0.8114735,2.2154038,4.661282,4.791627,1.1133599,1.0813928,4.9946814,2.7742891,-0.54635715,2.2203796,-1.2388791,23.807352,-0.0073042815
advertisement_103315.jpg,8.401691,10.955389,6.4587684,15.704952,22.084036,16.99198,1.3312353,10.106758,20.635527,5.5018854,12.763341,10.273588,14.404456,-2.6050315,13.229293,2.1857193,4.745641,7.074255,4.109059,2.872556,-3.4618926,5.529578,-2.5838928,-1.809349,4.5545244,-6.6272693,-4.206262,10.532691,4.533568,8.548244,3.402271,4.1209846,5.707905,-2.4765122,8.37348,1.602217,-6.0417547,0.94109243,4.3016715,-7.61889,-0.39319447,2.8500671,-0.47062454,9.690795,4.0337114,-2.2284594,-0.9530114,2.1435232,6.2988443,6.993155,4.4742546,2.2939208,-2.081891,4.177803,0.5331378,4.8562446,1.3369038,1.8535779,5.6015677,5.045585,0.29351133,0.427263,-0.33898008,0.3608467,-2.4182742,-3.8103826
advertisement_10348.jpg,26.57888,10.023089,5.8879128,9.812317,1.9673662,4.6973815,10.522489,27.323305,16.801483,4.1061277,4.6512294,6.9793687,3.5441093,-5.8671474,12.251146,13.820429,6.157497,20.81178,0.65932757,13.486418,4.2887173,-0.17778306,4.288436,-4.6672177,5.9698777,5.042862,2.9515302,3.6941924,0.13205335,2.9182255,4.009445,6.015576,-1.5547742,-2.4997723,12.210164,-3.2817655,-1.3003846,1.9722264,7.010723,5.27127,0.63782734,-4.4641314,0.780703,-0.027663913,0.55386406,-1.5784267,3.0753472,4.4152603,9.914208,-1.7609428,1.4109991,2.7009819,-0.97903514,2.0611386,5.5121765,1.5760679,4.6337647,-0.62926286,-4.164205,4.7986307,3.534245,2.886866,2.075252,-3.3693705,4.3458776,0.8008819
advertisement_103499.jpg,7.9960437,46.442326,5.654163,10.075549,1.0097474,10.830847,12.619241,5.2622643,7.4898324,8.276772,-1.8668661,14.578721,5.6583405,-0.6472852,20.843618,-0.93432796,9.438884,4.5676928,-4.876931,3.3166196,5.3954206,5.229412,5.953731,5.4362936,2.7035267,3.3024688,2.276073,14.02151,-0.7966947,0.80817115,6.6685057,0.4640138,2.6980693,-3.4540403,4.672523,-2.5979402,-3.5499663,-0.6490332,0.19166851,-3.1435542,3.8979797,5.17051,2.744897,2.3415434,4.9577312,0.37181526,1.8187933,-0.52534926,9.29394,9.25093,2.575281,7.452011,-1.145667,13.625963,6.283708,1.0136313,7.9428525,4.547633,6.4396114,6.9508257,4.5415406,3.115102,3.3657749,1.059064,-0.0980414,-0.95693785
advertisement_103605.jpg,9.241638,32.424652,38.260155,5.5782704,6.852856,2.5687928,4.6357675,3.8210053,11.514982,0.63539517,7.616618,13.56882,-2.9785492,1.0340159,11.639207,-0.037376583,-0.23135953,-1.1997706,1.5261923,-3.609152,-3.7413452,6.163438,11.447036,2.4447877,-2.248111,1.1158675,0.0505697,15.052453,-2.2764585,1.6497774,-5.1779213,3.4749575,7.208632,9.96256,5.590237,-2.4476085,2.8200011,1.0177957,0.4589012,-0.37357873,0.7619529,8.183018,2.2146077,1.1196861,5.7059517,-5.128822,3.5200198,-0.9347146,4.89741,-0.27608806,6.845327,6.0933056,4.6593256,4.60455,2.787427,0.20934777,2.521297,10.941569,5.81481,7.4435697,1.1079172,2.808326,3.2055364,1.6030276,-1.2301733,8.595673
advertisement_10361.jpg,15.715562,8.8610735,6.2860937,12.978588,-0.24280566,6.0985484,19.9109,13.8074875,31.448698,1.5803926,6.696832,13.144401,4.925891,-0.6729344,17.78942,12.955722,0.94294024,17.417631,0.22867802,11.76791,-5.8543706,-0.43181124,-0.30890977,-0.14483276,6.919563,1.1475232,6.004346,1.8988969,5.876574,2.430704,-0.5338732,8.923307,-4.7044063,-5.410374,4.539172,-3.7987008,2.110281,3.7144291,3.492556,2.950171,1.2012422,0.64016145,4.6740427,-1.8710998,3.5837016,-1.7000489,3.943564,5.52857,4.1850677,5.830456,3.3452132,13.164078,-4.0857515,3.769715,1.961362,5.7071905,-0.75071955,-3.179865,-1.2545596,5.3735056,3.2930236,2.5714996,2.1673243,-3.8858743,4.8389964,-0.87916964
advertisement_103641.jpg,12.475293,54.41321,2.3012269,8.197639,6.713175,9.571699,9.310933,2.6386766,9.203047,0.9016696,12.163159,6.1385326,2.0039477,10.187249,8.990224,3.1351924,-1.1740589,15.426311,0.32860982,-1.575738,-4.640322,9.603006,7.5620914,3.1617186,0.5738755,1.8824518,0.7295618,20.08824,2.3617718,3.936746,-1.0724474,4.2074747,3.011193,5.7441907,4.9492016,-0.8730065,2.904561,-0.43213964,-0.47746187,-3.0874124,0.56252724,2.3903284,0.97928214,4.3457856,0.01806859,-1.2444502,4.4543805,-0.85761064,1.6271111,-1.465454,2.619886,2.9772499,0.6892188,-1.1494576,2.157081,1.8826857,5.725061,6.8635674,2.3772876,6.7752004,0.9794265,0.7432555,4.878764,0.796675,7.1498103,4.1533213
advertisement_103952.jpg,8.208357,55.46517,8.735952,3.5839446,5.457583,3.5894892,2.7757828,16.096878,3.8118463,-2.9631584,11.350954,7.547265,8.939452,6.432695,13.303108,10.119304,4.859603,1.9048564,2.5411365,5.8033085,1.5878128,2.2192876,4.3679967,1.0544783,-0.26224715,6.162481,-1.8921256,7.194192,2.4345975,3.3408053,-1.7932352,0.3259238,7.6426826,0.045733757,6.3320785,-1.800138,-1.299817,3.8568788,1.3672127,-3.145112,-5.5668483,-0.26305056,-1.3166249,-2.9063663,0.98232675,4.4149337,5.328967,4.9870605,4.0129175,-0.43449566,-0.6406803,-3.927195,-0.3772024,4.20147,4.934489,4.9215674,3.5226393,1.9195086,-2.9222655,0.2946824,-2.385628,2.7919059,11.656909,-0.14910036,-0.8565931,0.28909752
advertisement_104051.jpg,12.053707,10.8481,8.395372,16.62282,-0.71340275,12.581076,14.067146,-1.8361642,23.410807,4.1942725,17.00913,10.38313,4.1798944,13.501543,38.353012,5.7153625,1.1124909,4.6170125,2.688604,7.1953983,5.944016,8.210276,-2.7399247,0.7177088,3.3021607,3.5078266,4.513458,12.519136,1.2008572,1.7931374,-1.5635911,4.498893,2.6672304,6.224618,9.171723,-1.9256876,1.5238148,8.556695,-5.4311485,-1.6455911,-0.9897734,-0.22524008,1.7695297,5.19118,4.139542,1.7703514,-1.87691,-2.1966002,4.9298277,2.9309688,11.002733,4.8702106,-2.3923752,4.473618,7.215435,4.6166477,9.320714,0.5567549,-1.0546204,12.50665,-1.4380054,0.77605504,5.4424815,2.1945064,1.2565242,1.0075946
advertisement_104195.jpg,-10.122885,12.807221,58.346973,3.3755052,8.9333515,0.7997794,10.504374,14.697186,9.40539,8.641694,-1.3163481,6.2244506,13.24604,-3.7776217,9.080438,13.7324705,-5.794953,-0.08634273,5.269508,15.521728,7.6495886,-1.9017788,13.1182165,-2.954166,3.4520984,8.923291,2.184863,1.9867308,-2.3638957,1.7763551,-4.146822,4.640358,3.6989744,8.102301,2.4512756,1.7218096,-2.4793613,2.7301888,12.147527,3.8656733,-0.13684481,4.503784,-1.3707533,2.0040865,3.3140771,7.8974895,5.8502746,7.5594864,2.8852077,0.927007,0.4888072,-4.6342177,3.0796487,2.9734685,13.82788,2.594322,2.0932024,0.89202833,-1.7256368,0.4628078,0.010454468,6.4044104,2.0454555,-0.4283622,0.66631633,7.472463
advertisement_104337.jpg,-1.8972769,38.963207,8.841499,12.08829,0.45046592,4.896741,16.476992,4.891,16.944519,3.5592332,11.651335,12.691146,8.187085,14.965281,16.411373,9.166926,-7.1647515,24.64726,4.040543,4.883679,2.2113953,6.496165,11.616405,5.1460485,-1.4602306,2.0791955,-0.50127757,9.37843,5.7057395,9.371124,-1.0361732,2.5325658,-1.5473002,0.7451404,7.542425,0.27011967,4.678681,-1.8460569,0.1825436,-4.3404646,1.0720474,6.3784695,-5.9324102,8.340798,2.5665443,2.7900696,1.7748681,2.439147,-1.0096629,0.9177635,7.4617968,3.7962885,-5.8257303,7.92821,1.632058,10.012247,2.1288571,10.973183,5.32404,6.661818,2.609936,8.781069,8.273483,1.9162582,5.236843,4.4009027
advertisement_104498.jpg,12.016481,13.1356535,9.938158,9.292089,5.8693843,2.2674766,4.9471173,2.919969,20.87564,-1.7805113,14.459353,8.638952,2.934517,6.9651985,27.728008,21.26854,7.919003,4.507866,0.87152505,2.218187,-2.7025018,3.1103954,8.250875,5.3187103,6.306198,3.970713,3.200882,7.287672,2.6166854,7.7906795,6.719856,1.201405,5.8928432,-2.0978093,7.897129,7.6832457,4.2680287,4.4834995,-0.7580518,-4.738692,2.5813465,1.6785457,1.0867666,6.568886,3.7438407,1.0525254,3.5307097,1.4750978,3.427181,4.1660814,5.0366197,2.7472322,0.7389589,4.677322,-0.1408424,1.6278174,5.842646,5.1560187,1.1603323,6.6433706,6.6000605,3.4434657,6.9345927,1.707804,8.002162,2.9282053
advertisement_104573.jpg,0.037789345,26.11146,5.2985044,15.931489,2.9007218,11.5552845,7.7203035,9.390332,16.210403,2.7885025,12.530145,20.982138,-2.5378425,0.8572137,24.693193,11.504575,-1.4213885,-1.7265495,-1.0710862,10.55729,-0.05369536,2.7117085,7.9612694,1.7406162,-1.995912,1.3624467,0.12754156,7.810958,7.635656,5.344404,6.7579737,-2.2655263,-0.22907647,-2.4262996,-0.20887148,-1.0399299,-0.2852969,3.3888206,3.3680956,4.7231174,2.1145024,5.2455,6.5358214,-0.28547877,9.376373,0.23913333,-1.1617267,3.4396045,3.3077235,7.3586884,7.946041,0.30461234,-4.419108,12.153964,-1.710003,1.0748612,4.667994,13.371807,0.14326824,5.0036335,1.0722146,1.2652931,4.306571,-1.3230426,0.2706271,2.754957
advertisement_104916.jpg,5.384082,20.55525,27.396225,11.397879,6.228271,-0.39772186,-4.1394844,17.173578,27.594181,-1.4650321,5.8665395,6.2953568,5.6961083,7.9438233,1.7288178,29.13062,3.0084503,20.61883,16.307417,-5.4274096,-3.4927313,9.2164,-1.7469184,3.7092357,4.343173,7.64784,7.3956504,9.057463,-1.4885134,8.139732,5.1979494,4.2087445,-1.0141544,7.9683557,1.7422963,-0.70981586,3.457452,5.595237,10.459419,0.6400637,9.276419,-2.0922444,0.27578467,7.524403,2.5059714,5.044458,1.1527823,21.530682,0.38353667,5.329993,2.8882306,1.0298841,2.5340936,3.519584,1.4393054,2.5839097,7.405101,5.057557,-0.20656967,5.128074,1.101457,9.557004,4.5016413,-7.889644,1.663818,2.090154
advertisement_105107.jpg,11.30317,7.5578103,2.6915545,12.492065,6.8735614,-3.194815,8.85828,0.39624134,15.946234,-3.460812,8.456737,1.0067779,4.325542,3.3359404,14.149592,1.3362713,1.4241142,23.333553,17.01986,1.9674934,6.725286,-0.30679125,-4.0030813,3.9226825,5.5818415,10.583236,1.334599,8.017329,-1.7329425,2.8110528,9.548613,-2.4736946,1.8670045,6.2843637,3.521294,-2.6529956,-1.6663047,0.57434815,-2.6534503,7.8474274,1.9609964,-3.693185,-0.70592934,17.427904,-1.0439281,1.7969707,-3.2181497,4.769648,0.5899603,6.968166,13.025525,6.2469573,2.9887698,4.991792,-1.0598702,-2.3327417,3.4545128,2.651767,-0.9520539,2.1647873,2.584089,0.074009225,-1.9505566,-3.1230211,7.961861,-0.221935
advertisement_105219.jpg,21.914139,14.729239,8.089569,8.921588,2.1635458,9.089144,5.7718687,8.988796,6.3804684,0.58899206,9.286087,1.1675593,12.511436,-0.74606144,13.897993,15.585671,-0.34814253,48.339108,24.833874,9.551847,10.229948,7.8163557,-2.2368762,2.3524032,5.418903,2.3455553,1.9917276,14.18412,0.4728768,2.181922,7.4964004,7.4363923,-3.242529,-0.33436453,12.1130295,0.56877714,-1.7346772,0.921198,1.3746616,0.5104677,10.054682,1.1469533,-1.2898643,16.827614,-1.2847068,5.9422054,0.6854181,-1.9395941,5.3502183,6.3941226,6.96278,2.7173975,-4.780307,9.679016,-3.8704515,3.2554204,10.415556,-0.039368495,-2.6525521,7.380715,-0.14205994,8.947111,3.1560652,-2.912455,4.4536195,3.6164868
advertisement_105242.jpg,17.801592,17.430399,0.35176492,12.46839,6.0241165,5.7565928,1.5704099,20.711727,19.741632,-8.989737,10.853175,20.021326,2.4093406,4.5877085,16.493511,9.074217,6.1697664,20.540424,11.461555,3.676851,-5.147654,0.014496408,3.7466202,10.146099,4.707911,-2.8574352,2.153666,3.4680274,13.292533,2.0472674,3.5503774,1.6697599,1.7460063,0.07802141,3.9973638,5.2810445,-0.5661111,4.7752132,-1.6898592,5.500287,9.350403,-6.21066,1.4286431,4.8323503,0.4506439,-2.5095263,6.8993897,3.252463,5.8575735,12.839706,6.5993414,5.8660583,1.1549666,3.351514,1.2466463,8.038955,19.24244,5.1299233,-1.1834669,8.608274,0.95013624,3.5089002,4.400615,0.7588832,5.292206,3.6868002
advertisement_105347.jpg,9.6285925,-0.9398546,11.0224,15.354131,6.8242774,6.965632,4.8994827,5.777664,38.330544,-1.5250787,3.0216339,15.17518,2.6864123,2.9569178,9.997835,18.205814,12.010394,3.4587219,4.4476824,-0.24960674,-5.85343,8.129672,4.1605973,9.246837,7.324873,-1.7623378,-1.8991606,8.885739,15.308693,11.738695,1.7294463,8.606614,4.7385435,10.683409,2.2387311,-3.3687143,0.4284242,3.9810448,3.916788,2.7560759,8.018516,-1.3438215,5.924769,9.611927,6.27236,1.1627344,3.591776,3.6293004,2.661373,3.2499888,6.9102125,2.571088,8.237265,5.3725286,-0.63996667,1.8233501,1.2756026,4.200666,0.9804629,8.912701,2.1358933,12.654909,0.9150027,0.2059063,-1.405771,4.658158
advertisement_105357.jpg,7.193459,11.752686,6.8171663,29.319149,4.405201,9.976518,4.1900353,9.417418,37.33692,2.9350865,8.838325,5.721188,1.5644265,9.638706,12.753251,-0.36059892,6.9787197,12.252877,11.911179,1.5498105,-2.2903342,7.7485456,0.6220472,2.4149976,1.160099,0.28318578,1.4827511,5.542074,9.892639,23.28977,0.5687204,-2.644329,3.169351,0.9485173,3.8071613,1.2246683,1.6471227,3.9216497,-1.6365899,0.8345455,8.662413,5.775427,0.7968437,27.719784,3.0489469,5.4129267,3.8507283,13.14821,6.424076,20.373531,13.631664,7.509563,-3.4758437,2.6020675,-3.2817683,5.974416,9.008068,2.4179335,-0.18936005,9.756312,5.9381466,4.1001716,8.107586,2.6566494,-1.0650167,2.6433294
advertisement_105514.jpg,22.397205,12.0961,-3.1687279,16.169552,5.1621103,2.2565114,4.047644,8.346919,10.941584,2.0186293,3.7992756,8.483889,2.1359234,11.2827015,4.0847363,-2.7595508,12.70974,15.588674,4.3894596,2.6956751,1.550141,4.665771,4.6463447,10.6061125,-0.9590846,-1.4933771,-0.03007655,5.805154,13.311834,16.366022,1.1731442,-3.893188,-1.808495,1.5963418,1.8994212,7.6040998,3.7531025,-0.078379594,-5.6279874,-3.5383315,9.994814,4.638601,4.769518,23.109303,-0.452717,1.193535,8.826492,3.3661232,10.306254,24.719498,11.899653,5.2780943,2.3772635,1.9088702,4.5193624,3.142618,12.460907,4.5241356,1.4134951,9.92622,7.868962,2.3420885,7.40456,4.735103,1.6324239,7.8202257
advertisement_105574.jpg,19.35408,0.9376143,2.6838818,19.252916,4.488914,9.039808,18.005417,9.081717,20.206638,3.1363592,12.270637,12.033335,0.5319124,0.92910177,28.886753,1.9201908,10.604391,6.9740677,7.820384,6.6925898,1.218754,4.9290953,2.2343624,1.5206892,4.414263,5.659914,2.9327257,3.5639088,11.720549,12.074688,2.8093288,0.95165616,8.353319,4.1840377,6.1377077,1.1631333,3.9607055,3.0292466,0.921046,10.510998,8.551979,-1.1981709,0.7827017,8.631021,4.388224,2.4400938,2.7555985,3.6823041,4.5456777,10.458461,7.919109,9.548004,7.824409,0.83948636,3.6634989,7.8851643,7.4780726,3.9058435,0.98850095,11.262961,2.9952798,0.7880188,5.5798965,0.061380863,3.0310128,7.2150903
advertisement_105703.jpg,16.920454,4.222475,2.8444269,5.973208,4.6931896,10.132485,10.513376,12.913081,3.1003733,6.3832564,34.08926,5.2885256,7.096418,8.389362,19.504591,7.0944967,0.7328463,0.7582334,7.421972,12.863302,3.3075013,2.0203998,0.3913329,7.3246465,4.230238,1.9464437,-0.3402361,3.4714506,5.218257,-1.1238582,4.1084833,9.656511,2.0133486,-2.7747047,-0.7570523,-0.9106431,2.7302346,-0.31159094,-0.45374417,1.0253695,1.7535707,-3.3729002,-0.9099495,-1.7613653,-2.5259428,-4.8733926,6.020407,-0.059810095,3.514513,-5.907951,-0.23771915,0.93759567,-4.1846504,3.2844582,-3.5945158,4.41763,0.7502911,1.3396223,-4.0855365,6.2947555,-2.096388,-0.85617656,5.373256,-1.5066241,-0.9612317,-0.9118488
advertisement_10608.jpg,10.043308,3.400667,18.696556,17.464903,-3.617435,11.46468,14.613046,0.3832588,36.515556,0.5491063,5.116276,5.083985,3.3039696,-0.27996674,9.675132,2.771292,7.3595943,6.379953,2.0574706,3.951931,1.9664983,4.5033636,-4.8332186,-4.7797413,6.01523,13.193785,7.389657,8.469331,15.336865,13.302252,1.7858392,1.387707,2.719455,-1.6081419,1.6858362,-1.824251,-2.0307865,4.0538616,1.0762831,1.0439318,-3.8107917,-1.7147138,0.24123147,3.9115884,-0.6781899,-0.8666999,4.6856036,12.676472,-2.7182703,3.139817,6.3208075,7.301128,-0.8026926,5.8298326,-0.4927425,-1.8281497,-3.0995278,0.40010604,-0.39884186,2.916141,1.491523,-0.28141573,-4.094474,-1.1379751,8.269949,-0.4957867
advertisement_106118.jpg,18.036158,8.344279,3.8460467,9.01531,4.837901,15.910191,20.78033,12.516064,21.517906,1.4502745,14.440213,7.9578176,3.0852835,0.7798193,22.814854,5.935998,1.8919371,-0.33955634,7.6360016,9.623072,7.9488106,-2.3104162,-2.9642403,-0.63426954,8.556115,3.39839,1.1598135,-0.032150373,5.137201,10.510543,4.242774,5.222719,0.64309174,-5.4076676,1.81152,-3.8461637,0.5783998,1.8843372,12.926904,7.0540915,5.1986866,3.1259842,-1.214386,3.6003976,2.786919,5.1289625,7.4329996,4.91923,5.4744034,1.6542573,3.5930905,10.047156,-3.0701187,0.080813654,0.8647947,7.238856,6.1396513,0.6179906,0.834597,6.6997857,1.3716581,1.7964704,2.9218364,-0.6631878,1.0644127,-0.17620912
advertisement_106354.jpg,20.70872,0.82796097,7.2429643,2.3867416,2.7070067,9.344185,6.824426,8.477513,20.125536,-3.0684245,28.49974,15.939295,6.7813263,5.0564055,27.99077,10.455346,2.0379446,-1.6707907,5.7063565,7.2927356,2.685939,3.0517836,5.4595137,1.0491033,3.2765973,3.5678272,3.5558932,5.3565183,2.016889,7.6468067,2.7140582,4.9212017,-1.3615355,1.6977303,6.817173,2.89244,0.24392372,2.2361455,0.8043246,-0.17668009,5.2629843,1.097056,4.8208804,5.2334127,0.725179,1.8049382,9.863388,2.7695615,3.5151546,1.8230432,8.861874,5.815772,3.6783829,0.677604,2.0035963,5.1641097,5.369431,5.282362,0.581132,2.8828516,3.6411543,6.627927,16.172482,-1.3661475,2.876372,1.850997
advertisement_106384.jpg,14.583792,3.5420477,56.412064,0.052607153,3.985631,2.9324033,3.0655944,7.196718,14.039405,-1.6708755,11.801954,2.3657436,8.016636,-0.06190352,11.766454,9.756223,-0.92127013,2.8338683,0.19355181,-3.201614,1.970448,-1.0192941,-0.547001,-1.6048778,8.759604,6.656161,4.9507422,6.592413,-0.6633479,2.7420976,0.736047,1.7250164,0.029975548,-7.225153,2.8290203,3.9931316,-3.0650167,0.1965276,-0.44606262,7.4014754,-0.32016766,-2.9470172,-1.4516873,0.69791573,-1.4892155,-1.6771969,5.524045,2.84512,0.6471541,0.72261816,0.23922671,3.2890348,-1.0640985,5.294799,8.546274,0.8316598,3.262439,-2.2291508,-2.1647124,2.6679077,0.116421424,5.8367,3.9504738,1.7941924,2.286024,-0.2594255
advertisement_106687.jpg,15.011104,4.423789,7.913616,33.140285,10.339242,3.209943,4.3263803,11.376191,12.433568,2.961755,1.5286993,16.350039,6.5688105,8.050938,10.823255,41.10706,12.674511,3.0339081,2.0889058,8.531159,-3.0229201,-0.083969206,1.3109965,2.4014359,9.434691,8.079041,4.4318986,4.902079,8.453994,5.12278,11.046537,-0.57591105,1.4771053,3.7117527,0.93877894,9.579999,1.7747134,4.52821,7.299528,5.2764425,3.636151,-0.21426731,5.4099226,-0.40019363,15.780706,-1.5860015,0.30110693,32.688774,6.244181,4.829076,6.1180644,4.8451276,7.4576573,0.16754252,6.1013145,-4.466461,4.66222,2.6612446,3.256312,3.5796,11.398164,5.500293,3.2171314,2.3633852,1.5676074,1.9750397
advertisement_106717.jpg,14.772767,2.8287177,14.544895,27.839718,5.414438,2.5254302,2.36263,9.462597,36.585884,0.8519661,7.7285447,19.947931,12.931665,1.5508296,3.0422208,38.999165,6.2379727,3.7473214,-1.9494582,5.2766137,1.5257552,0.928312,-1.3444047,2.028854,16.50112,5.360319,6.205869,3.03805,4.144533,11.19956,8.937684,10.011864,4.139901,1.1414582,4.592472,5.456118,6.029485,2.6922116,14.62481,6.902828,-0.0322856,-0.27083546,7.0151157,1.3818191,12.694207,0.59429544,4.935165,24.963547,2.0845797,-3.825844,3.8591087,5.646899,3.0175726,4.6906137,2.2961903,0.056917757,2.0789795,3.1748414,0.50601447,1.0723734,5.4771624,6.089215,1.8993397,-1.4129046,1.2843304,1.5586376
advertisement_107114.jpg,12.290728,24.6099,-0.37710425,14.851663,-1.0622414,18.010994,2.1881573,10.320529,7.7467837,0.06258181,4.6031265,11.887756,6.029259,-1.8926964,21.393663,15.267697,4.777933,12.165651,-1.7760543,2.1264322,-0.8002059,2.7566895,2.6346788,13.539102,2.6473377,-2.479612,3.3812325,1.3812417,-2.5603802,4.9702153,0.7607788,1.9712763,3.715469,-0.0005727634,4.5603404,1.4895941,7.969704,2.074437,-2.0694675,-4.4930344,4.2618456,4.697642,0.64262396,2.609828,5.8236456,-0.32600033,6.0340333,2.3247716,12.191624,7.337954,4.499223,6.62195,-3.6701946,2.8401117,4.053068,-4.135877,3.744742,8.781179,4.0536413,4.86991,9.391919,9.318764,5.931113,-3.002246,-3.423734,-0.07466628
advertisement_10721.jpg,25.30379,6.734294,6.288927,9.65919,6.0320125,27.981958,10.163904,18.13038,15.7003355,10.731152,8.61725,3.8582125,3.3351026,-3.41304,16.969185,0.028608087,2.7508345,9.595395,-1.4810277,7.0171027,2.4225857,5.6523046,-0.10828143,-1.1346459,8.607635,6.517006,-0.28100204,3.00923,2.0668845,19.837322,9.802853,5.4574156,3.5333552,5.828704,8.793928,-2.5067604,0.85318553,26.591978,-4.9195347,-6.9412656,-0.34684604,3.9435987,-3.982975,3.1857498,4.786618,4.6694055,2.7414348,6.3664784,11.133717,4.125005,4.007109,1.8396924,3.1176686,-0.5432702,3.8491242,0.3335751,33.987865,2.5899644,1.5347985,6.8409777,4.0936136,3.0643048,4.6718693,-0.01200866,12.241272,2.801099
advertisement_107248.jpg,6.288895,51.661003,13.032253,5.0455465,1.6798135,7.130946,1.4301512,11.733108,1.0737833,-2.801228,12.607842,7.141982,0.16988358,4.2807283,20.774654,3.487265,8.557233,2.4619303,2.380684,9.176484,0.42135334,3.5451944,9.724694,-1.9758515,-5.0498962,9.488905,-2.524259,10.067791,3.912515,3.447551,1.2868593,-4.8320208,3.140433,2.7003903,8.0582075,-3.4141383,-1.2697693,1.2947019,2.1282482,-1.4546328,2.4993103,-2.149294,-2.3488238,0.93684375,1.922023,3.462036,3.287464,5.7276187,4.538418,5.4430017,1.7294073,-9.1689,1.4557109,3.1955473,2.9587104,5.7743235,4.7216883,2.7968414,-4.348572,6.74708,-1.3648921,5.2111583,6.7878523,-0.31644213,2.200826,1.4561224
advertisement_107334.jpg,4.4429884,9.789179,12.211635,6.093475,3.596613,12.110405,14.919259,0.50895894,20.14288,5.706277,15.285963,16.292921,5.735673,0.459259,36.748165,9.897246,4.770976,8.455582,3.2744236,8.82175,-2.4136412,-1.2034397,-4.82673,2.9884953,6.1573706,-5.212835,0.033131942,-2.0351667,8.22097,8.997269,6.7672877,10.692371,-0.57804507,2.046889,1.7747644,2.2343965,-4.2221656,14.465252,2.4824326,4.018772,2.3388882,2.7249691,4.3718925,3.0162487,2.6758037,5.348129,2.2315927,-3.4142165,2.4380355,1.6533663,9.384484,1.4745681,3.1193495,14.917671,-0.5964622,8.648407,7.6900063,2.4380114,2.4546366,-1.1016665,4.7668395,5.983858,13.536127,8.60755,3.8060174,-2.4347417
advertisement_107440.jpg,25.180325,28.02783,6.6443563,-1.4239324,13.25656,4.6026287,8.209049,49.65776,4.636101,16.981264,9.275244,3.2705169,5.647587,10.678404,10.13022,-0.17862618,1.1225488,5.7903466,4.9935474,1.4276278,7.0419908,4.650699,13.305473,3.782522,4.0315347,1.1202209,8.101206,10.993036,-2.2126913,2.858913,4.4259663,5.5300703,1.2311693,3.1928017,6.321792,9.321051,-0.81083244,5.6776743,-0.91646993,-0.8355308,2.4094892,8.510997,2.6848063,0.58141637,7.3004036,1.1024332,5.216026,4.9350233,6.894905,6.20588,-1.9768249,0.5646036,0.19582506,4.08216,5.6413555,7.7105975,-1.5515816,5.1642547,4.246107,4.5310698,3.6004786,1.0571547,5.277544,-3.6393638,0.4997616,6.638612
advertisement_107928.jpg,18.063778,6.2478576,1.3422947,19.68776,7.8395886,6.9324017,28.372087,11.608096,19.725395,2.7590206,9.685157,12.616905,5.9049788,11.678766,9.595184,8.707152,8.559405,10.191236,6.660673,2.2241373,2.7073317,0.4412097,6.413604,13.531445,0.84889925,-0.7281108,3.4465597,4.3898487,19.22357,14.125887,5.919748,4.7266665,3.4454775,3.8173735,3.431626,7.9047146,-0.6955127,0.5985267,1.6138911,-0.3480103,5.2158437,3.028616,0.5547229,9.125231,7.4733777,3.0638793,4.3681927,5.3342214,2.896446,8.225827,8.110352,-0.23869272,0.6588025,-0.39057028,0.70936984,0.9111606,6.2077274,5.791922,1.8737411,9.038763,8.442483,5.722796,5.9106126,4.0646925,3.3395557,7.156454
advertisement_10845.jpg,5.368997,10.004379,12.605479,8.070982,-4.3549805,11.033408,9.186962,2.2111003,37.87989,3.249857,2.7975295,4.5716186,1.0750833,-10.107328,15.364191,1.1826841,7.18807,6.674772,-0.22877352,9.378162,4.767373,1.7743412,-1.1617105,-2.1388466,14.3451805,7.3785768,1.5240531,5.1912403,16.243912,17.924612,14.951557,9.407627,2.8143566,-3.3611112,5.65118,-3.7208054,-0.3152389,5.0329275,-1.0690018,-1.9738959,0.143704,-0.08325905,-0.9308957,5.3005447,-0.6010493,13.675558,3.1108563,2.4193556,8.460997,11.340751,16.039894,2.2761393,0.07444378,4.5231233,-0.57006806,4.6068645,19.565695,2.1339319,1.0149385,7.0177703,2.2815518,0.084542766,1.8384447,0.32662004,21.691849,0.1658183
advertisement_1085.jpg,49.930233,8.087193,4.1090145,2.1899745,-3.6170847,18.584425,7.657691,18.14475,10.242575,4.999291,15.786098,1.0035336,4.9368744,19.293781,5.301552,10.715888,8.870279,14.971796,7.575941,4.104583,-1.7768536,5.343706,-1.9506826,4.865458,5.815222,-1.8252546,12.749779,12.912231,4.715944,2.6718173,2.1219995,6.60009,6.280867,-1.0660533,10.213282,8.216007,0.7772806,6.394177,4.9627566,1.2700379,11.51749,0.4806367,-0.13582197,9.198384,2.783548,5.2856216,11.977174,2.104981,2.6385636,2.4003954,4.942534,8.171145,0.7241264,-1.1471491,0.9027895,11.844834,-0.15665591,1.4946839,2.3287132,7.409473,7.9657116,-0.81840193,2.2209125,2.0932863,0.2664786,1.8197238
advertisement_108659.jpg,12.149986,6.404687,4.0083623,7.075609,34.361053,9.254101,18.120382,11.228811,11.095133,-1.2139425,2.651612,17.2858,16.649288,4.1469164,22.849123,-1.1830401,5.3304157,8.485567,2.064658,1.0301288,5.787231,3.2418826,-2.6003397,3.1071656,2.2846916,0.31768605,2.9120646,10.2515,9.928613,10.667665,3.5043745,4.433946,3.774672,1.1097407,8.064361,-1.1949636,-1.144945,-0.03277906,5.9042463,3.2679021,3.1748753,-1.1022091,14.789401,-0.42049092,4.2534795,-6.4484196,3.01192,4.793214,5.7348022,10.176794,2.323559,7.9235086,1.4947902,0.2522453,5.939776,-1.6871687,3.1777394,1.281775,-1.3803827,4.585584,1.9037256,1.3353204,5.5205297,-1.3470666,-0.9772374,4.4233027
advertisement_108947.jpg,24.422312,7.4605064,1.2220134,6.8053255,2.040402,11.8020315,8.649579,10.99725,8.64063,4.791783,26.984644,9.385941,2.403493,4.6733756,25.315252,7.7225647,3.1641233,-1.1388862,8.242974,8.802049,1.656478,-3.6500142,2.0549088,-2.2428267,3.3941925,1.4233961,1.3792789,0.05455613,-3.6188154,-1.4007932,10.07194,5.628909,3.83185,-3.0547853,7.8716717,5.3139153,-0.34090737,-2.6308231,2.1779704,5.5467834,2.281013,-0.6411642,-2.2265863,1.7853357,2.432033,2.1860213,7.439933,3.4730353,7.0387974,5.7281756,2.950542,3.4169662,0.14935392,0.77469826,4.631592,5.333743,0.69529825,0.58386636,0.18414688,-1.5407492,4.3585067,3.4100928,6.196225,-2.2685568,-0.2918033,2.277275
advertisement_109170.jpg,17.774265,1.5272675,17.073826,12.129307,11.618285,6.8897247,8.423357,20.10014,24.88747,4.4962807,10.070342,5.771626,34.966496,-2.1344998,5.044533,22.182247,4.64649,-1.4958531,11.5899,-5.867953,9.535291,4.6244726,2.5894895,7.339701,1.7233253,2.5380259,-1.7508341,1.5894208,-0.44580632,5.6994557,0.8817666,5.499272,-2.3826714,1.1974866,2.9030752,4.333851,-0.8009462,4.337402,6.992425,2.0055015,3.6141179,1.6515977,1.518922,4.7715373,2.1187015,0.8719325,7.6025105,10.850632,5.3098073,2.6663916,3.9439135,3.2335155,-0.5274633,10.053594,3.1811821,4.0372806,0.4967235,4.786848,3.1393733,1.8153548,5.0040236,21.253126,6.0633087,-1.4048073,-1.7905282,4.1679273
advertisement_109441.jpg,14.502663,3.330811,22.121523,22.0329,14.875464,-2.624772,9.485179,21.162493,20.301222,7.7592463,3.677588,2.5539856,30.370197,5.33853,5.8627276,21.572006,13.219939,3.4138029,11.057331,-0.83134425,7.7666826,5.1702566,2.9997044,9.373786,7.816054,4.2058845,3.4519055,-3.4404502,1.9376671,3.0985625,6.1452093,4.1281404,3.3052125,2.8334289,0.65114915,2.8768973,-1.2344542,-0.16631913,5.325849,8.2044935,2.3314927,1.5085998,3.9339359,1.3989687,3.1113255,0.70976,6.742989,19.104322,5.119151,2.0584476,2.9165854,-0.04870044,0.8162641,-1.519811,3.8062956,6.622709,0.008041132,1.807403,2.5512207,2.5283961,4.007501,10.240134,8.010166,-2.001587,3.8868804,3.43739
advertisement_10966.jpg,13.020161,4.1410728,9.874544,10.784029,-2.8386354,-0.0068639405,10.652441,13.953936,19.466549,-3.485433,6.22417,0.72921705,-1.7618097,7.780102,4.70765,2.1370943,-0.6359014,8.620153,4.05315,-0.0033502467,1.7465935,3.1034396,-8.067024,-1.7337646,-0.04310999,12.470677,11.797652,3.3779726,-1.346654,4.4555397,-2.1897702,7.827572,-4.3279824,-2.7741084,-3.2013795,2.866806,-1.9666371,7.9188747,-1.7860092,4.709321,-0.077549085,-3.1212296,-3.383512,2.3106313,0.74984205,12.072878,0.07900716,2.775544,0.59906787,3.6876082,5.455038,2.267796,2.1562192,-0.26734796,0.21884292,0.97192264,-0.90271354,-4.4538884,-2.597564,-1.6889893,2.9913332,-5.4131317,0.3583224,-6.2757053,3.0835927,-7.49123
advertisement_109761.jpg,11.135454,10.206541,10.385736,16.08875,-0.7468508,12.088433,19.564825,6.22059,27.009613,5.427778,36.96467,20.81139,0.98890615,1.8586632,32.348034,8.574559,3.6045291,2.520322,4.302847,12.535128,-1.0867205,6.5108957,8.4793825,0.33751586,-0.43001175,2.4591565,3.2863069,3.3239152,-2.1780946,6.5933995,3.534917,8.542345,2.0935054,2.898484,2.93649,0.95073354,2.8685908,9.683294,5.0622945,-4.7614436,3.416856,0.19093436,4.1509504,5.6135645,1.8100991,4.7297163,1.748438,4.6206636,5.8866897,3.9386299,4.1757097,5.482843,-1.7851508,2.9369078,1.3526073,8.863074,3.7519553,2.7337275,-2.2475924,5.230979,2.388545,1.5416552,7.573484,3.6825686,-0.09315349,3.4229856
advertisement_109798.jpg,9.376075,-2.3342676,27.928751,14.388069,15.588207,2.348296,9.133453,11.976205,13.511169,2.5011778,2.763958,20.17574,16.989777,10.734391,18.755745,5.900767,3.6720507,7.040383,9.422283,6.4228067,2.723681,7.958309,7.1063323,9.415724,7.292048,4.4413996,2.9771028,9.536674,2.041812,1.4573691,0.62836206,0.46822867,9.872632,6.2154474,8.397385,-2.8215353,1.5397565,5.919742,6.319733,29.244572,0.63002557,7.2784157,12.413625,5.1499257,9.388165,1.2410668,7.476367,2.3938706,9.219761,10.70692,0.5873818,6.3885508,3.2410455,2.7320974,4.562849,2.1483195,6.424053,6.64987,0.8541157,14.120309,4.5272923,-1.4206522,5.4642873,5.7739487,-2.0864837,7.68612
advertisement_109975.jpg,25.267311,-1.2817496,-2.107629,19.3329,2.2125773,7.902383,23.08333,47.072025,12.391923,8.195783,9.572632,5.981381,7.7442536,13.816896,21.68343,6.743466,1.5071461,1.064177,3.3451452,-0.1735787,-0.06025862,7.90385,-2.3478184,1.2680733,4.261179,6.113402,9.529316,0.4891825,2.084287,-1.6608605,0.6412685,6.9999514,6.4443717,1.4616857,2.8294127,0.66539544,-0.24717934,9.524235,2.8522081,-1.0518454,1.6660471,6.262545,5.9824734,3.0174065,3.8483634,0.04282631,1.796581,1.093718,4.866136,4.022447,4.118568,8.114213,-2.3449974,2.1410623,11.368833,2.798796,3.1289675,1.4634594,1.7246597,8.763121,1.5083343,3.8041604,8.185761,1.8031667,0.9573854,0.5034806
advertisement_110379.jpg,6.208774,6.127578,3.7756517,47.643524,5.1119857,6.2849865,6.7790465,10.642764,31.96293,-0.50473523,13.631739,25.665033,10.427576,4.5641212,17.633034,10.045451,3.223124,-1.8419617,7.290281,11.022889,-0.7430918,5.5555367,7.967603,1.6958247,-4.770943,2.0258565,2.5286942,7.4943976,8.016179,6.859218,4.2169356,-0.64121276,3.73158,0.46710986,7.6558037,-0.23152384,-2.2076974,-2.980501,2.205066,0.73321414,-6.3421116,-0.7091395,-0.03917825,2.3559039,7.297348,-0.7648452,-0.45368913,6.764517,5.005271,1.4746732,6.4035177,-3.6032538,-0.19620797,14.054759,0.58956903,4.638462,-1.0531325,2.7113461,-2.4786975,3.1262233,2.9113233,8.650598,5.704497,0.49553698,1.5098171,0.37785903
advertisement_110903.jpg,15.896805,49.159508,7.680165,1.23566,-5.7160387,4.6148186,11.190748,1.3090895,13.281062,6.400074,8.933594,17.167253,-5.291418,7.5567446,12.533085,7.9554515,1.7609074,4.4900866,1.9564005,6.696525,3.2398336,2.2509754,6.5774097,5.8149633,3.1649358,1.0561976,2.049081,12.534674,4.3083854,2.4584234,1.4343541,2.393763,-1.3943927,-4.0612216,6.0880723,-0.49082422,-4.466022,7.455753,-0.29233024,-1.3597405,1.6714327,1.4880694,-1.7333097,1.1429172,2.9756424,1.6258564,2.5102835,-3.8917973,3.5391548,5.779621,3.8115184,1.195352,-6.327127,16.234922,2.5725744,1.2392145,9.298479,16.56261,-0.57067776,8.647648,-0.0157475,0.040914305,4.0932736,3.8767364,3.5628047,-3.0098689
advertisement_111043.jpg,20.6075,38.031433,6.1695404,17.264328,5.7738543,2.1206646,14.422335,3.0256038,10.679747,-2.8501124,10.334422,13.797199,-2.1979132,24.53634,23.165182,11.545612,7.311119,4.8141403,7.4362507,3.9063306,-3.511443,5.5539618,9.497841,3.354844,5.409943,-1.0901021,18.502352,-0.5383385,3.5782623,-1.2134483,6.978736,5.1095667,3.0844204,-0.41865674,-2.8320596,5.4326844,2.3465846,4.1156316,7.590033,-7.52022,-0.5034993,-0.9770372,0.40548322,2.9137795,1.8112056,-3.421361,0.14336994,6.013478,3.9534302,6.6430964,6.6918135,3.2818584,-6.3744755,-0.4604172,2.1233282,3.6170814,3.3579295,15.382041,3.12904,9.661428,5.580728,4.0482364,6.4119124,1.3155444,-0.29788148,0.920359
advertisement_111074.jpg,6.2734923,28.376156,5.3044405,10.25965,-4.086122,3.8841772,22.26198,1.3706847,30.609507,2.033229,3.7305455,18.598625,0.14847317,2.7927864,14.066612,6.8475456,-1.037495,19.806946,3.78712,16.141848,2.2180254,10.225023,6.657591,-1.6882949,4.6392474,-2.470786,-5.933747,12.275221,1.8538352,9.823839,2.6691644,3.6090498,0.88055414,4.413172,1.7420192,0.43896893,1.7513497,4.3083916,3.5059984,-1.0511262,7.7974267,2.5684607,-2.4166596,5.02538,3.252391,5.5666213,1.165079,1.5358808,0.06912276,3.1302147,10.931936,13.389876,-1.5888324,17.527945,6.883105,6.8569036,8.250463,7.317481,1.4483914,7.2553287,2.4457314,9.498796,-1.923172,1.9252695,1.1426483,3.7210822
advertisement_111082.jpg,9.931489,-0.7123818,4.980837,1.1896352,1.952539,6.9132843,9.292287,7.306728,19.058863,7.3179893,10.97761,11.990821,2.9247706,-4.5939217,20.252626,3.3320467,7.9744763,7.9978933,5.6164603,10.404115,1.4931834,-1.7866265,3.6821558,0.5178446,8.43568,6.5221267,0.66981053,6.297843,17.05263,13.909856,15.129582,6.830304,3.2358353,1.7960622,8.288819,-3.254366,-4.072232,3.2331042,0.6180179,3.2505188,2.2762313,-3.437408,-0.8692771,8.672273,0.032395914,15.963128,-0.6068972,0.6496322,4.723014,9.669278,11.353503,3.09246,1.7635468,2.0778072,-3.3962271,1.4490832,9.736039,3.4007483,0.043643452,8.247339,3.113958,-1.1567359,0.48010406,-0.6043322,22.609407,-0.6570858
advertisement_11118.jpg,20.30757,6.670699,3.5062802,12.601564,-2.8593776,15.875888,16.50301,18.879341,15.940149,-0.7543862,5.0589457,16.220348,17.563074,5.0091634,17.702547,6.2401857,1.6398937,3.6470323,6.6105423,3.9213805,8.805853,3.944999,-4.99287,-1.6838534,-1.5346551,0.30340794,-2.0995815,5.096943,5.527931,5.5175424,2.4365826,7.96324,-1.9695543,-4.2616634,1.3463393,4.403884,0.8988222,-1.7412052,4.758427,4.699697,4.060828,3.505507,-3.6446161,5.378071,1.7751105,-0.17020823,4.114241,7.0874186,9.54897,6.692623,2.7544346,9.6238575,-3.9988823,5.3885093,5.1773934,3.1158562,1.1944945,10.305338,-3.7768967,-0.1599905,5.214756,12.446642,1.5592382,1.5171355,-1.0345627,2.689557
advertisement_111725.jpg,24.930044,4.9464016,2.1916318,8.875577,-1.52542,7.5034285,13.553156,9.736696,16.902842,3.133405,16.596464,13.6661005,3.8079865,15.378293,34.52787,4.954218,3.7672725,1.1842858,2.6672184,8.730881,-2.2534592,6.6799006,3.4468915,3.3376362,2.2601795,6.1667986,6.3196645,4.0206933,3.1667016,2.5052013,4.842019,4.796447,2.4443805,0.3877419,2.229741,0.0030362979,-1.3108935,8.02627,13.419739,-3.710577,4.9268136,1.0263338,3.0329704,2.14415,4.210803,4.345194,3.367015,-1.9065361,5.4754457,2.6643336,6.249603,3.9346998,0.8152496,3.2883744,4.778802,6.158003,6.1980925,-0.4141475,2.8605528,6.9011345,1.6376985,0.5670471,7.7984667,-1.9184653,-0.6226384,2.2614524
advertisement_112499.jpg,25.305813,1.919407,-1.3716589,12.117552,-6.002551,8.901911,5.593308,19.006594,12.0740185,2.6587088,24.208643,12.106786,0.16579926,6.6296124,25.070509,32.05661,6.9039354,0.3189442,1.22268,8.393122,-5.3118157,7.0070596,8.04662,6.68964,6.056929,-2.1073055,11.314845,-0.7555248,1.5305611,1.5618584,0.9716479,4.437484,3.2316096,2.9633083,4.246573,4.5068936,3.418171,-0.17209248,-2.809885,-7.154682,2.6693523,0.42068395,3.3555222,5.085101,3.7125566,2.4321384,2.122318,-1.5291808,7.4606285,3.2064152,4.412786,0.04929928,3.1980917,6.5104594,0.5621091,2.3431563,4.3122,3.047492,2.039946,9.287298,-1.5320914,8.44904,1.0074767,4.1838927,-2.9357734,4.130411
advertisement_112756.jpg,27.632519,-4.9304004,7.6129756,12.665258,-1.9338747,0.44447148,11.688538,15.981831,26.760021,-4.2263055,35.64748,9.65462,0.77761406,4.427139,16.235723,13.613314,0.9368549,4.726997,-1.7975094,4.406873,-1.7346789,4.140955,3.8538656,9.709139,0.77270406,5.184946,12.042886,2.1692913,7.96024,5.5819535,5.5541315,11.201714,4.398892,-0.28375617,3.5343065,2.701499,3.195253,-2.0548265,2.5087163,6.311002,6.166641,-0.13408764,-0.050894264,0.6331917,1.322907,1.8235382,4.570856,3.8684487,1.587363,3.2489784,7.4333916,2.1826053,-0.3388597,-0.26881006,3.1923492,16.618578,1.6570796,3.8804722,1.2803483,2.8007069,-0.5770965,3.812186,6.3853173,-0.69488096,9.948421,4.635403
advertisement_112813.jpg,34.126698,-9.096864,1.9283643,4.058557,2.2012434,7.173734,0.98446274,18.5947,13.789757,2.2679095,25.025358,8.35517,9.991513,8.15495,11.934293,13.492985,7.0632806,3.8119473,3.637632,1.6961737,5.375002,-0.16672859,2.9577823,1.8236984,6.661324,2.7977333,2.849657,11.151495,4.488345,4.409264,-0.506354,24.54814,-0.48236358,-0.81366616,10.035368,-1.3550917,1.9628962,3.8916972,-0.4732271,0.27412647,-0.18998393,-0.3315952,8.906213,-0.017131679,5.4510922,-1.8401403,3.7504413,6.4556627,1.1518936,0.21128137,15.425065,-1.5947096,-0.84772325,-7.3486657,4.1475115,1.9158399,4.9356365,2.0936258,1.6840783,2.9317994,-0.42588142,1.9164834,-4.2777753,-4.162874,1.5231254,5.8013153
advertisement_113147.jpg,21.398117,3.2584023,5.0242486,13.704986,0.34154734,11.9495945,7.582984,12.513076,10.489843,-3.8251863,26.624691,17.077198,7.2617044,5.6448755,32.8159,10.966348,7.9741015,1.4763477,4.172021,9.261531,1.2611434,4.1502476,3.3027205,9.468535,6.6975107,4.4461846,4.860745,0.82552516,0.10726587,1.7219021,5.8340635,2.2203043,0.8819798,-1.5986369,0.58083487,-0.33301395,1.5130382,0.20339303,2.6969612,-1.3262581,4.452893,0.26037538,-0.60510886,3.6800954,1.9246228,-2.8939464,9.298677,0.2595839,6.6440024,5.999036,4.1222334,5.074404,1.9174297,3.5251513,0.25166756,7.1743474,6.9815784,5.9961333,4.135328,6.256295,4.5422745,6.9826493,12.18551,8.707252,-0.018234644,8.069623
advertisement_113308.jpg,3.7927053,17.515425,1.0051359,8.673625,4.541766,3.1787884,3.9934828,11.965588,1.2983705,-4.635133,12.666371,22.93599,3.8462598,7.364548,21.701475,6.630847,-7.3275723,1.4948859,4.725103,0.7437088,1.4110738,8.28973,0.16281195,6.241098,1.0159949,-5.6637435,3.6202326,3.5668857,5.535824,1.1641288,-2.4515197,-1.1178225,5.2333245,2.3477356,4.4510036,5.672305,4.5012884,2.913899,2.8877432,-0.2795567,3.2039537,-1.3957396,3.582628,4.5360265,5.082095,3.1558843,6.2751875,-0.28406972,5.747489,6.8043203,7.5317087,4.837563,-2.3448467,13.438299,-0.9882049,3.291652,4.023512,4.823525,-0.42803836,10.233168,0.85062486,-2.0087578,5.39726,3.9485726,-1.9567266,-2.0923789
advertisement_113352.jpg,25.562864,2.6046717,12.368693,2.8103902,-0.3302003,6.7170606,7.893745,36.05429,9.409635,4.9299774,16.206303,8.696581,-0.33469748,-0.5027759,15.445131,2.6334655,2.4582953,1.6541911,14.821535,14.754497,13.182238,0.062349997,9.450302,4.1397767,3.1102016,11.248001,1.100037,1.5718848,0.8464681,6.7491226,0.5250913,1.2296839,6.595628,-3.83961,10.939695,-1.274546,1.7595103,3.426451,6.628166,6.204711,3.2743125,0.649489,4.107799,-0.9115635,-0.38901252,4.1052938,9.25804,7.168433,14.740199,1.3293886,2.3030548,5.589509,-3.13659,0.31018773,4.3688054,4.5259085,6.5248766,1.8836932,0.3003305,4.874025,7.0647144,5.9123483,9.690438,-0.50122285,0.8459282,-0.4172827
advertisement_113477.jpg,9.492273,41.78856,5.3211646,15.407631,2.2275631,-0.0988008,7.1862025,13.606286,17.349586,7.810337,5.099841,1.5110661,-2.901738,6.326898,10.9792385,2.298959,6.5791807,-3.5056655,2.5288672,5.6175556,-0.3622175,2.7393599,4.1847177,5.90401,4.438929,2.990277,3.2572296,5.283822,-0.2671401,4.3754396,3.304763,-2.7489178,-0.5661774,-0.6201962,8.107535,-0.37757578,3.4185715,2.7631302,-1.5086519,-2.4365947,0.88497895,4.9168215,3.2301717,0.028170273,2.2008796,-6.407842,1.2837058,5.1410546,4.3075404,3.3603451,3.0429182,5.811088,-2.7700317,-2.0511289,3.2610185,-3.0850842,-4.2329326,2.1233664,2.2441084,1.6305082,2.7557735,2.011939,3.7885435,-1.8749533,1.7809052,0.5740063
advertisement_11395.jpg,16.701408,13.736396,-4.573668,5.562764,3.5693936,1.8552396,-2.166102,8.648786,7.7057385,-3.4130614,7.225173,22.775974,1.447508,-2.0481005,11.288914,5.0346413,2.6342745,11.454647,0.5612721,2.3771346,6.3494325,3.113534,19.84655,10.456571,1.172496,12.828943,2.8932474,6.277479,0.07840246,8.854534,12.396224,4.916853,-1.901057,4.363074,7.054083,5.9542584,3.1812165,9.262806,1.7516241,-1.8883712,5.25053,3.8181796,-4.550926,4.5854096,5.7350063,8.165637,-0.8971226,2.6593673,7.011418,18.114698,12.899831,3.3523123,4.828995,12.819597,1.9162711,1.9845433,36.505856,3.7630928,3.711309,7.3058896,6.568478,2.5087678,3.5572882,3.4723918,7.8842893,5.581254
advertisement_114871.jpg,36.73877,-1.2843931,5.713296,5.687147,5.328988,3.33436,7.556677,20.333025,12.562126,7.40903,12.004105,3.669541,11.095001,9.592943,6.3717747,15.33489,15.902225,3.3034906,3.8565345,9.484961,4.023176,-2.1257594,3.6704473,1.454324,12.213859,34.2903,1.7981277,2.840641,3.2770383,-0.31461865,11.980212,10.393987,1.6323645,4.2513585,7.4468083,-0.17179838,4.7503276,7.535684,3.450483,8.220579,1.3938771,1.3724219,4.1944733,2.733334,-2.1888967,-3.432941,5.0246754,4.4684725,1.4414221,5.476259,0.055157486,4.1188045,7.5459733,5.0998335,5.5442557,8.408738,4.0530586,-0.4765167,-2.8098423,-1.9076623,3.922516,4.458076,5.5882277,-3.776354,6.805571,3.7353706
advertisement_114904.jpg,24.464321,0.06718174,0.06794292,13.801853,-1.6544878,11.289379,12.821592,9.25089,12.06511,2.333408,19.254265,13.266805,-1.1061918,-6.059123,40.26714,12.999558,4.202359,6.8977127,0.374485,19.204794,2.0108678,0.52035415,9.366031,3.655098,5.3754673,2.3980346,3.9808652,7.198409,5.168716,4.9227896,-1.2191577,0.59925383,6.0176964,-0.84069127,7.1482935,-2.8220046,-0.17178567,3.428455,6.4885497,-1.5685883,2.4714901,1.7965509,2.4096181,-2.3423839,-1.5769799,0.6322985,-1.0964035,5.173892,8.3530855,5.7802806,3.6263578,2.6291587,4.409145,-0.48182037,4.4409685,1.465138,5.2640343,3.6687114,-1.2309722,6.2100163,1.092444,5.0661664,5.3382883,-0.45796955,2.6110363,5.2672772
advertisement_114935.jpg,12.669007,10.644111,-2.2300768,15.435399,4.510887,7.5472026,5.300893,17.936295,11.287725,7.5044813,18.38713,14.047594,3.6558092,6.433165,22.905014,17.040375,-3.1722903,-0.6491721,9.554994,14.726405,2.6474671,2.1912034,12.116753,3.7544603,0.4438566,6.3649387,7.649632,0.4558511,-1.1152384,4.040695,5.029439,-3.9024673,1.8617412,1.8099036,6.955071,5.7823896,10.3987875,-2.0675633,1.8822033,0.45094955,2.2894354,8.033138,2.2308328,0.5028764,11.638919,-2.001006,11.393863,6.0485196,5.3029184,4.334301,5.263547,11.467229,2.099547,7.123889,4.285859,-1.5633551,2.0155382,0.16443497,5.968334,3.8827426,2.8986654,-0.5404244,9.912456,-4.0040298,2.4956357,-0.3887506
advertisement_115386.jpg,10.017859,5.2163644,9.801477,11.358413,-3.994672,11.064748,16.863676,20.657173,30.552555,-2.5133882,16.804255,10.549604,1.3696759,-3.2369149,31.104855,16.485182,2.2724276,13.116294,12.431463,8.13366,-4.6308904,-1.2895175,-2.7709777,5.6433277,6.1677446,-1.5535553,2.2905297,3.7621312,2.3564742,7.079637,4.527672,13.48886,0.31905034,1.8184532,4.992061,-2.1776602,3.6490972,-0.21180725,1.1872897,-4.956142,3.6648142,-1.9419912,-4.7409625,-0.084440224,-1.7404993,-1.2617079,6.414551,5.2140036,11.2215805,8.204839,7.517776,6.946655,4.6270328,5.7315965,1.7494354,10.050416,3.793399,-0.6544246,0.8775373,6.5314426,0.6737355,3.2495997,2.5021052,-5.8694577,-0.740451,2.5038605
advertisement_11542.jpg,16.498543,17.75897,8.698956,13.221012,1.1803465,11.209122,10.2718115,15.239202,35.43408,2.094919,5.194826,2.946857,4.6861353,1.1828609,8.821009,10.728967,8.088413,12.634163,1.3320854,0.71064174,-3.7910342,-0.94152427,-0.84294176,0.1313481,2.6114995,5.552204,7.6670356,3.4219294,2.4606616,16.418678,4.3348093,5.7272215,-5.425756,-2.3617427,-1.353908,-0.41083744,-0.42559728,9.328016,-0.078235656,-0.08875579,-3.085706,-1.0803093,-0.23726043,6.4944253,4.2891164,-0.37765837,3.3944807,6.922441,3.3974607,4.429695,13.256984,5.073487,-1.5195271,4.746126,-5.6738086,8.259864,1.6372429,-1.4357203,-1.2413839,-2.722631,2.7830994,2.9825094,0.8291844,-3.1468387,7.17881,1.0715412
advertisement_115523.jpg,19.156166,13.138845,9.616113,8.104404,-6.5535045,5.2603593,21.928736,7.234338,19.72192,3.6218145,10.127828,21.407755,0.08667465,5.338876,23.772608,4.5748158,5.875858,24.230215,0.85705614,5.232694,-6.4256616,5.786272,0.9067878,5.7297173,5.7632866,-2.143773,11.117679,12.532451,11.2996855,5.299083,2.451194,5.620119,-0.62905616,-2.1007023,8.166577,-0.53536415,5.6768236,4.7848253,2.208924,1.243403,5.4014535,2.577547,0.36106986,2.7058425,6.091809,8.779381,8.862915,4.4803543,5.6077714,13.961725,2.0299792,14.734255,4.143781,3.2194428,6.4709067,2.047218,1.4427865,1.9694613,1.2381842,7.7855163,0.4191488,4.473117,4.8590393,-1.0203049,3.350889,-2.6003003
advertisement_115576.jpg,7.869634,6.1316786,7.6018324,7.9049625,-2.6341133,-1.4620079,8.372593,12.1004095,27.122831,-0.05253549,8.424624,24.619467,6.6375575,13.132879,9.396589,25.802717,2.463235,14.4366045,9.347865,8.679177,-6.0981154,5.393171,2.9602897,8.104247,6.2813,-0.994906,9.74982,4.0086703,-2.430191,9.378867,5.181687,14.323261,0.9501422,3.472356,6.2574735,7.5717554,5.1516714,4.5707912,3.4896584,3.5968668,-0.067171596,-4.140335,4.7553506,2.7723958,2.552738,-1.43511,8.251457,11.02072,2.8866885,6.2833295,7.96544,6.424169,2.6254241,1.281286,1.9687057,-0.26110187,3.6548927,-0.29775542,-0.99565566,1.1966678,2.183851,4.1402745,-0.43460009,-7.8476048,0.38431305,-2.126618
advertisement_115723.jpg,14.766081,-1.95744,1.6185678,14.874524,-2.1244211,-0.35775724,16.138525,11.724617,27.43705,4.081342,7.8612194,21.380926,8.556259,5.9295154,7.087256,24.297316,6.6265545,14.0553055,7.4603543,6.3954234,-3.11748,9.130486,3.0117884,8.127954,12.900397,3.1261377,2.1552854,4.7861114,7.789085,0.9653661,2.890188,8.121969,3.177507,7.993117,2.42149,-0.6482013,2.2860029,8.02963,5.4691954,-1.6122977,5.171842,-1.7478406,4.2705727,1.6174717,1.0981603,-1.1374382,5.6408443,7.372863,2.621747,8.100736,4.365363,9.507669,5.4863153,7.953915,3.4863465,4.216328,6.0268717,3.4629173,0.37990138,9.534711,0.99075454,18.236385,-1.2296402,2.4795246,2.5128603,0.40212673
advertisement_116235.jpg,8.278693,7.1869054,40.047287,8.705242,-3.3291798,-2.2124808,10.548624,6.2771626,24.63623,7.9740562,1.9280567,10.652716,3.602483,16.730726,5.949219,10.656362,-8.805375,2.2807868,3.473099,2.2227316,10.065224,-4.2182913,-3.6074882,0.6783456,2.567994,10.807443,2.5566943,4.9776154,8.202919,9.728484,-2.4732616,8.082536,10.046722,1.7997772,3.38201,0.5114408,5.3198175,8.924247,-3.479527,9.005187,-5.731895,-0.19520614,-3.4537644,0.084534146,-0.60742676,1.0858772,5.337115,2.8766596,4.4179306,-3.4520938,2.4578857,1.7470337,-0.8609194,7.8463426,5.034952,-1.4710823,-1.6280211,0.10896097,1.7613732,1.5794661,0.6180658,-4.025402,-1.969482,1.4481382,2.8430004,1.1710868
advertisement_116241.jpg,-11.218853,31.340126,19.099018,18.983572,22.945446,2.8218644,15.81995,12.117248,40.29969,5.0366936,7.526288,8.435164,0.23407154,1.1607603,3.7460306,8.4729,-5.7650676,1.9970691,6.41106,2.734102,3.628435,-1.2844867,-4.495193,6.944341,-0.89487714,6.6788144,2.059794,4.343222,13.60404,15.220636,3.2952971,10.192197,4.0958643,2.7751606,3.7434373,4.759791,6.617709,6.699006,-1.271719,1.975731,-0.8576406,2.6042783,5.4240575,6.2606835,1.9806514,6.0296874,1.5791794,6.281828,1.8669069,-0.16526133,6.9640107,3.3421538,-3.133885,6.058174,3.5074737,4.0672584,1.2048593,6.7822604,3.7688115,-1.1509817,2.1761205,1.9533273,0.43916857,0.22853567,3.9193063,-2.1874042
advertisement_116255.jpg,-1.8764423,34.053646,49.874382,5.7739844,14.071387,4.186648,6.775377,11.508934,28.856928,2.5569103,9.136001,6.837124,0.8247611,0.40697977,9.239775,5.4843807,2.8564532,0.8165635,3.5989974,5.0865207,-0.8785301,-3.6280398,0.4106817,1.2284647,3.4776754,1.9277945,2.38644,4.712133,9.12552,13.055336,4.7355356,5.3406034,-0.43343008,4.449523,6.5368624,0.11640237,0.957184,5.0499253,-0.06242732,0.45806193,-2.176867,-1.4861219,3.9320226,3.2864816,2.0567276,1.3083515,5.8316517,4.1418777,1.9661033,1.1326989,3.596735,-0.12041088,1.8276217,7.971438,11.496543,4.0490446,3.531436,2.7186978,-1.1979053,2.2988706,-0.2791267,-0.12469655,1.9605014,1.2183281,3.0292861,1.1748093
advertisement_116257.jpg,-1.6431977,9.571995,46.063606,10.634395,-0.6800723,6.671203,14.054903,6.900493,25.444365,2.7178862,4.9700856,10.592986,2.9380698,-5.1771684,16.293982,3.1515331,1.0546658,0.6754997,7.011665,6.7448525,4.0120926,2.9687443,3.0945773,1.0291163,4.053407,3.4965596,0.3129583,14.57267,7.8643227,12.221881,-1.6445974,4.1316824,1.7573082,3.1848185,9.535182,-1.9808009,0.6135673,7.132732,0.14504607,6.8599997,2.7304752,1.6522378,-0.45825037,2.3579812,3.9660826,1.6794517,1.8899622,2.7289515,8.213601,4.6489305,4.3368196,-2.03173,3.130642,8.086345,3.9088979,2.7945378,8.203683,5.2998276,1.6492267,8.6037855,-0.8028169,2.5840795,1.156965,2.32798,3.0734334,2.2831173
advertisement_116258.jpg,4.2363925,5.0350018,44.096767,16.22813,-3.6481507,5.1669664,23.497911,10.273952,35.098484,4.1598635,3.634711,7.4167714,0.1662448,2.599059,9.479897,14.469724,-1.1376679,1.2651407,5.8056164,6.1487393,6.6649055,2.4969819,2.0589366,-0.1685938,5.652262,8.554107,1.6712792,6.737253,9.392358,12.03149,-0.84036237,3.5515018,0.11481866,4.076286,2.4454327,-2.532528,-0.8939637,6.488321,7.2381167,5.4893622,2.7018166,2.1107411,-4.6921225,5.1240335,1.4307773,3.37132,4.00702,4.2966337,2.3162117,2.0404596,0.04403498,7.0764422,0.46867672,10.62794,7.2673507,1.1569259,0.9775165,1.6814973,-1.0280756,6.037006,-0.18779384,5.613487,1.8413553,2.5879555,-2.5534062,0.7946547
advertisement_116281.jpg,0.06762501,36.23228,26.77502,11.846879,1.9584742,7.3702455,11.795745,7.524982,29.752604,-3.1608944,2.1425326,15.431017,-0.1742783,2.1045227,12.559864,6.1075125,-3.9489262,4.4250317,29.942238,8.5809355,4.2195506,1.4295492,-0.3279855,0.9919254,4.1229153,-0.72639084,-2.046626,11.321838,10.152921,11.5498085,-0.41237944,5.2870884,7.680257,3.8640342,3.96287,-7.5334764,4.9617233,6.431132,4.2979283,9.150171,1.936536,2.0051107,1.718441,0.5946501,0.83783793,-1.2245858,2.8269782,4.85842,0.9314021,-1.5979052,5.5866904,0.8511244,3.3513412,9.801438,2.5061104,2.867882,1.9623989,4.8889356,-0.6674742,2.0256834,1.1352487,3.141465,-2.2786014,-3.0640829,-4.041555,1.2115415
advertisement_116301.jpg,-0.2792744,4.6643414,33.814823,19.36883,-3.6329195,2.453362,11.902298,9.187945,40.16018,9.870572,5.7901564,6.9763503,2.1472182,4.9573956,4.471711,10.226449,-7.9387875,-1.113451,7.7579684,10.603342,3.6938012,-0.19392437,0.91186875,-3.323261,0.6458467,4.340165,2.4009998,-2.9343734,7.763407,17.329681,1.8284085,5.317909,1.7697784,0.08084588,4.9335065,0.13776855,6.1258464,2.5243104,-4.3837576,11.2339,-1.2786343,2.0556207,-2.1584187,6.8932257,-0.91910195,11.43407,-0.21152696,4.626897,0.6902383,-1.9992328,1.4601636,1.8134981,1.3979825,5.6136174,2.8705592,1.9936237,1.3802929,0.6267657,-2.135697,1.7439164,1.677322,9.482004,0.40277922,7.0689282,5.771213,-0.15716422
advertisement_116349.jpg,-1.152477,6.8138437,30.660503,15.68383,-5.7149434,5.776461,14.867433,11.019182,41.535305,3.0996013,4.9931397,7.306315,-0.96159804,4.0200806,7.473866,7.2593637,-3.069332,5.2493153,10.839103,5.276297,7.484349,-2.5382147,1.2264585,-3.5939116,-0.5909814,3.1201367,1.530705,2.753939,18.650925,26.381552,-2.020749,4.6421356,3.0667562,-0.3035399,2.7752657,0.20710483,0.9180488,6.8440557,-2.042104,4.49141,7.998933,5.058043,-4.0963674,7.469132,-0.9274392,8.0317135,4.26982,8.7799635,1.78302,8.931104,3.3221326,0.7499111,-2.285325,5.4689674,5.6608186,7.1788454,8.521852,1.8425105,-1.0192368,7.0326405,1.6357793,4.721009,3.4606743,2.1187713,3.8602333,4.092932
advertisement_116454.jpg,3.0812285,27.139017,33.958523,11.001701,12.715742,2.2494419,6.295666,9.50839,31.986485,1.2046276,5.9365654,1.2464297,-1.3096461,-2.7105281,7.830101,7.5759215,-0.39780614,0.045282114,5.359661,7.907214,4.6334767,-4.570983,0.97695047,-1.8674284,-2.1357133,10.439755,7.101251,-0.53199196,-6.971558,8.652835,7.4217043,6.3665285,1.8852824,0.16090684,5.8749666,2.0317037,1.9320335,3.2017431,-0.972135,3.9945025,-1.982412,-0.30681184,0.29787105,-4.4434643,1.5292146,2.5395348,0.09366079,3.5280035,4.617034,-4.3434834,0.8286763,2.8460224,1.4750686,1.0284728,2.5110538,2.1580696,-1.1802936,3.6778033,-0.10042153,-4.6843686,4.337533,-2.8875356,-1.5225013,-3.104803,6.079359,-0.44664598
advertisement_116551.jpg,1.5495374,4.2481513,52.27713,7.603783,-0.57573056,3.7889323,6.138404,6.154122,27.195496,3.593792,7.092782,3.478375,9.901941,-0.77334416,9.337749,2.2859657,-0.37392956,1.0016986,9.340128,4.563501,7.3618846,-2.6975856,0.514183,1.0795622,2.8429775,1.3926946,-0.7859074,6.560086,10.948924,11.85368,1.6375039,0.5806153,3.9309137,2.659082,3.1888218,2.7135394,-0.8821176,8.941984,1.0652028,0.35373595,-2.0080433,-0.9883478,-4.660252,3.1594958,-2.1566741,4.035207,4.495323,-0.28397265,4.7915177,-0.6352181,7.9835935,0.88500696,0.5555965,13.467543,5.24205,5.196459,5.8852563,4.372058,3.1879194,3.5617204,1.4361885,3.1450446,1.860413,4.8349247,0.45486036,2.4442158
advertisement_116567.jpg,-6.662113,28.839647,32.97554,12.770226,13.544421,-2.988499,2.9701781,5.0582294,34.881306,5.6345983,7.224238,5.7745733,3.703134,4.8684845,11.435862,2.9311235,-3.7922583,0.1426084,17.398365,4.6316676,8.560776,-2.3258266,3.0597692,-2.6831443,3.455751,3.1744432,4.3753138,-0.967012,6.050446,12.418237,3.357943,2.595414,-1.1859623,-0.13236049,2.0412068,-1.1554255,6.9315224,0.19496241,2.7474742,5.7592826,1.506411,0.9395684,5.074852,3.7437215,-1.686981,4.813575,-3.3158011,4.3375473,2.518934,1.1511419,-2.186454,-1.5772378,-1.8967261,4.1051292,-0.9146817,3.657661,-1.2970865,2.0908787,-0.21412978,2.6496108,-2.3844895,3.555947,0.5299652,-6.7998977,2.9014702,-0.71044475
advertisement_116600.jpg,-7.790654,63.49019,11.804609,1.9766808,3.4991946,9.569697,7.5875654,6.4254513,7.202412,2.3299196,8.434126,10.408825,4.4802384,1.9871927,10.514034,6.794606,0.65182036,-0.7140215,-5.4025426,6.0976033,10.569301,4.664029,4.6521945,9.455962,0.38930213,7.7791715,1.357587,-1.3637362,-1.0248332,5.304589,3.5532355,5.0169983,1.1431506,4.0163293,0.55560285,-4.1230054,-1.1870041,-0.42672092,0.13187984,7.280278,2.7955732,-3.2362304,2.289757,3.0024464,-1.2656467,5.702869,2.9258232,1.5286257,5.475948,3.1222646,0.18668407,1.5637819,-0.1535101,2.8134096,3.0277305,0.1283284,3.1266975,2.9117243,-0.80843,3.678659,1.4528102,5.734916,-0.23306426,-3.28271,1.6089523,0.8735658
advertisement_11696.jpg,27.569489,30.225971,3.3724532,6.520787,-0.5911056,4.8654933,14.008856,9.850751,10.044962,5.4486723,13.294784,11.037758,7.0919886,9.418782,12.065154,9.873164,6.7135124,31.57701,4.2620134,9.815941,0.18514192,6.3953876,0.020271586,9.25591,5.145946,8.1087265,6.8013334,17.461166,-2.6415217,-1.8621581,6.291956,4.825275,-4.5532746,-2.3854158,13.69328,0.78059506,-4.8360357,1.5594794,0.5013448,-1.1827466,4.189313,6.4561605,5.2038126,-2.1433632,10.45956,1.6343173,1.0346781,1.9785628,6.457865,4.803081,4.7534924,9.46431,2.143835,4.8073916,0.3701007,6.365359,5.3272495,5.20512,6.0146375,4.6056943,1.339028,2.9247289,0.92461324,-2.428659,5.7667384,0.09355648
advertisement_116998.jpg,34.02537,11.735717,0.27320856,7.4655533,28.69045,7.080118,6.1121044,21.818136,7.247028,6.134871,10.77845,3.4833078,16.621054,-5.121499,13.689761,5.487826,12.37642,1.7098589,4.4492483,13.72094,1.0692668,0.13008519,1.3578962,1.0182391,7.872662,-0.3942421,-1.2286985,2.6634734,2.8117526,0.8215514,-0.266675,2.3101735,2.3079417,2.5281727,14.154795,-9.1279745,-5.9471836,4.783899,5.663641,-2.4657342,-2.2056723,0.68240833,7.079364,5.1134677,3.6838622,-0.9043333,-2.2693965,-0.29616892,2.7590475,-6.8967967,5.5942492,-2.2976427,1.0283709,3.2726693,14.239253,1.1457797,4.0034842,0.42498466,-2.470028,3.5814352,0.5053534,0.1646148,3.0576737,-0.18850052,-2.4376295,3.4252734
advertisement_117006.jpg,11.923634,48.21593,0.6923902,17.48888,8.519845,8.755879,12.389272,9.158549,13.935852,9.002261,2.6990204,15.116013,-0.91488606,-1.6237788,15.959191,11.055925,-2.4609306,0.6133456,2.5483918,11.163521,4.874622,3.216301,17.054008,0.9053625,2.687816,2.4113703,2.561691,5.3865023,-2.1256087,4.0201,2.33461,3.8254478,10.917295,4.266022,1.5041072,-3.1000562,1.6412944,3.776668,-2.499259,4.129825,-4.191228,8.152517,1.8213317,-2.313744,9.314787,-0.3068799,4.3617826,3.504459,8.118042,-1.2022344,3.1263824,5.181648,1.2640998,5.9571147,3.7102144,-1.7931659,2.7715914,6.968317,1.8892593,4.137096,2.5127773,-1.1224327,2.325987,1.3103547,-2.4929886,5.747905
advertisement_117063.jpg,26.530716,7.76441,9.448533,-3.0212328,41.95456,10.48023,13.369173,5.224924,-1.8706839,15.998219,6.551405,12.095419,16.699623,2.8328989,4.726564,-2.5558114,1.4634752,9.3403635,9.065357,14.053677,3.085191,-0.82512426,6.39616,3.100054,12.0548115,1.3215896,-5.563387,3.7841468,3.9482374,1.5714536,10.421877,1.7761157,10.777072,8.683116,11.927371,-2.1263165,9.490325,0.5613379,1.3578378,-0.24221195,2.7196007,-0.062097795,11.915637,11.341021,-2.951751,1.2957234,9.05583,-3.5658424,5.359686,1.3201662,-0.7615588,1.7089013,3.147224,4.598438,0.54144955,-0.2678694,-1.7681758,-0.03680475,4.2526984,3.7649415,-1.277655,-2.6078594,4.1433187,-0.673633,-0.018020812,4.3676205
advertisement_117420.jpg,16.507479,4.463094,6.927127,-2.1514754,32.38798,6.733398,14.91056,6.1931977,0.6873819,4.422438,15.492824,17.024609,6.5278096,5.4997745,16.672138,4.811528,-2.9212453,10.772417,4.8186617,9.699808,1.9973365,9.152216,6.568849,8.322412,3.6258898,-0.044739246,5.8145247,5.5363784,1.420295,1.2035725,1.4600942,1.3117272,1.2526764,-0.10801158,9.157155,4.1855907,1.4518214,-1.4694278,1.9473785,1.7774976,2.3437035,-3.05063,11.719055,2.7338092,8.114148,-2.455813,0.97088164,0.090718925,3.191765,1.9883745,0.7091502,8.855904,-3.1761243,-1.3379667,-0.35335514,-4.0993943,-3.151682,-0.10338891,4.3441415,3.5964477,3.1280148,4.651651,3.616501,-6.1043253,-2.2500734,0.7813059
advertisement_117430.jpg,29.976645,8.384096,5.2210727,5.6558013,42.84472,12.363402,5.3907986,0.68862617,1.7055943,-4.0363884,3.9643657,18.77037,19.8086,0.8525416,15.258021,1.1062908,-1.2581261,11.823704,2.6718562,14.835726,9.61734,2.2653499,4.318624,4.4113345,8.980467,-3.7493973,-0.99781203,14.960226,7.9252243,2.1193514,1.9642168,0.98315907,2.556707,8.548678,4.6562657,2.5289109,4.5468616,0.35828832,1.755727,3.0876167,3.7091382,2.0169222,7.189711,-0.049337745,6.4198055,1.6402358,-3.09725,6.152328,4.1829734,4.4530945,4.8990974,6.5419235,4.5983057,3.7665818,-1.8642726,-7.225482,3.6076438,1.6790807,2.618598,9.921537,3.2505398,3.060803,-1.7613659,-0.4100998,-2.225819,0.63681155
advertisement_117452.jpg,25.782589,8.928978,6.15474,6.9601746,28.342775,15.465422,13.503173,7.9478936,-0.71245617,12.7121,7.570438,12.737054,14.146108,13.174805,8.438984,-1.0024456,3.0147343,5.815657,8.464234,15.305972,11.914602,8.185547,7.50951,4.425458,2.3413236,0.61677176,4.340377,24.967207,1.0463604,4.363198,-1.7902057,3.4998412,5.5107613,7.5133643,15.401374,4.3841143,3.2188647,3.9764657,6.8879766,3.7910156,0.2810889,2.4099147,5.459427,5.213284,3.532647,6.6082535,-0.64040583,-0.30514282,7.672438,-2.2771075,3.4054132,6.516875,5.381395,0.09191922,6.100038,-1.0774035,2.2719462,0.5210612,11.367065,3.5074565,4.0566187,-2.4745438,2.5402434,-1.7154064,-4.303553,2.3924563
advertisement_117520.jpg,14.308198,7.1243296,17.114647,7.814347,5.8085585,9.367275,10.559784,10.107287,33.093323,4.3545885,13.320567,8.856043,14.732257,-2.4226418,25.686005,8.372829,2.4715784,2.3290117,4.422983,11.149653,0.46504837,-0.65258634,4.7057514,-1.6205646,2.9443033,10.281681,4.8493495,5.0640607,1.9266639,11.081806,4.3061304,1.999118,-1.4223523,-1.0934863,5.9053073,4.3199553,-1.4060167,0.28723916,2.9047658,-0.97331303,0.9432452,2.4140286,2.416246,-2.0544224,-2.0420325,1.0727739,2.5854414,6.046871,5.268229,3.3087735,4.354081,4.2807007,0.9103439,0.90248746,10.331438,3.92041,2.7257113,-0.81152654,-1.2478375,1.2382461,-0.69943106,5.5646734,8.505635,-3.750196,3.8013835,0.91079706
advertisement_11758.jpg,4.8415275,3.97899,10.541656,16.460266,6.7915783,2.4423902,17.850952,13.862102,14.046578,-1.309573,0.48510516,24.248007,1.862716,11.138009,22.74977,5.4362507,3.500531,25.36887,22.265018,4.940686,-1.773981,5.5866647,3.0510626,4.0167084,8.281416,10.627745,10.402363,-0.23407018,2.547484,12.615,13.236845,12.832862,-0.40359235,5.89352,5.5576572,8.12762,6.2692842,2.615596,5.69452,10.020133,11.012389,2.2293758,-0.16727275,5.4299397,8.774514,1.7095495,5.2750864,4.1909533,6.9115853,18.389177,3.963768,9.11927,7.770569,2.3197374,3.3157601,2.8867364,4.543702,3.2706108,5.636946,7.090207,6.1939607,4.1671896,1.00706,1.5252805,2.7672706,3.4325264
advertisement_117928.jpg,26.52677,5.9672318,7.413811,5.497927,-2.3363788,7.0116,16.692078,17.306084,18.292976,4.278359,16.10677,-0.5961245,-1.3388441,3.5764277,15.978725,16.151356,3.146818,4.77504,7.9096355,13.236451,-1.7397423,0.5134331,-3.2519684,-3.0893097,8.406968,-0.5519799,9.827333,4.28441,-2.9143498,4.524443,4.242386,36.538345,1.1483978,-2.1523595,4.496752,1.794826,0.59045655,5.127858,6.180492,0.64242595,-0.9196058,-0.810245,-5.0336475,-2.9519534,-1.1695651,-1.1702318,3.420905,4.6133137,5.482123,-1.6308073,7.233593,1.9790083,3.3477612,-0.7216045,1.7913762,8.077051,3.9437604,-0.6420948,-1.066323,-5.5578723,0.9979901,3.9632592,0.6195498,-9.58461,-5.060025,-1.002899
advertisement_11808.jpg,14.189337,67.69176,9.159509,8.794338,11.101829,4.429201,7.031563,8.346606,17.48883,0.5419286,5.802576,6.90265,-1.3790706,2.6899993,13.645031,0.62054133,7.772866,4.3189993,3.1796377,6.778247,2.006963,2.909648,1.3191015,1.4706544,1.884037,6.5229006,-0.5563257,6.6399403,-1.8858805,3.9671469,-0.04419638,4.731256,1.8802564,0.55568147,10.605556,-0.07898435,0.11909348,6.2163467,0.94602984,-0.6711714,-0.6090904,2.7283432,0.70045024,1.3401548,0.006536115,3.912606,2.0339437,6.0336313,3.947911,4.3523026,4.327026,2.858554,0.4595558,-4.6172395,2.6079407,0.11289339,6.2394447,1.8450366,-0.2917802,2.6165657,2.9018996,5.592499,7.589645,-3.4506965,0.14423104,-2.9799085
advertisement_118102.jpg,19.307304,-0.33347017,7.4841566,52.409344,-4.475014,9.882803,8.964762,4.6043906,40.289047,-0.6939604,16.671415,2.3211484,2.1774046,-1.2908021,11.728885,14.838508,2.9457114,5.3498564,5.178311,-2.1778579,3.3547072,14.765617,0.020599667,-1.4971632,1.0866898,8.403383,2.7577856,8.353715,4.6725607,4.163631,3.5147705,5.8460197,2.9690883,0.9886591,4.9899793,2.5029473,2.5536408,-5.472181,-0.8183321,-8.764048,6.9238186,1.4911082,0.15107045,4.716443,1.0153909,2.813144,1.4675072,3.31427,4.709631,0.8961201,3.683684,2.417566,0.11774306,4.9577575,0.0023330096,3.4063764,3.165076,1.1658666,0.6541762,5.239753,0.21564984,6.952283,-1.3140442,0.4399646,-0.6513336,3.1796527
advertisement_118182.jpg,10.476284,6.5726533,16.674366,4.1767163,9.546377,10.359936,4.8931046,35.58136,10.511543,2.0399733,10.086818,13.233359,9.028876,9.917221,18.54858,15.906483,-3.9591603,4.8777084,17.101606,7.450571,4.133822,-1.6916422,-2.0274293,15.954362,-0.9652275,-1.335796,0.8299505,3.5760689,2.7271497,3.076231,-1.746146,7.870289,0.7659928,-0.23796475,5.3912888,7.8408227,-5.161683,7.1255627,-3.1075637,1.2869298,-0.45686913,-1.3041431,1.5325024,0.88366383,1.2884995,-1.3039066,1.1093922,4.5936985,9.829906,2.137114,0.39296168,3.0122876,-4.001148,11.470265,1.3425088,2.7703834,-0.6265038,0.54729563,1.3706323,2.1101658,1.7094234,5.060769,2.2244565,-3.5926838,0.9707869,-2.0188065
advertisement_118353.jpg,13.913091,3.8346143,0.8303937,9.356782,1.3952746,6.543587,12.176158,14.769528,11.606427,8.538894,7.9694366,8.342727,4.9592733,-3.8406878,23.433378,17.445906,5.4737306,3.2606938,-0.77713543,11.243536,5.7499285,1.7258102,6.311349,-0.010416843,12.77407,15.510312,6.454359,1.0841335,1.7487651,-4.43802,14.647865,6.0328975,3.1432264,0.8235382,4.3755746,0.39863643,-4.031952,8.175113,3.4256332,0.109238364,-0.7286054,-0.6555422,1.3727872,-1.4548035,2.162975,14.172345,1.3403919,6.3783793,10.735967,10.009236,2.6734962,7.250236,3.0213792,1.976053,13.818685,2.503748,11.073329,0.9305825,-0.68624824,11.0361395,4.5658636,-2.1915634,1.5951325,-1.8370893,17.78185,-1.7347198
advertisement_11850.jpg,14.855944,29.46828,-2.8540795,1.2407205,2.450946,8.98001,12.297276,13.52111,16.134996,1.6285509,12.769456,1.057696,-1.317499,10.314472,13.340847,2.7683191,4.802655,11.168004,0.504805,11.746517,-1.8723409,-3.8694804,5.519648,-1.7669122,3.084204,5.710446,-0.39259362,4.1869564,-4.5935774,3.0007298,0.47014448,0.11580205,1.7491959,2.6109555,9.6026945,1.6692414,-0.10164781,10.237495,4.5180535,-0.8457922,4.5543613,0.5130193,-0.08075717,0.75419277,-1.7427927,2.9025953,4.2441497,3.7064836,2.9737055,6.0536547,2.3580651,6.176895,4.169663,-0.9003207,0.87949204,-1.2470113,-0.6857984,3.631546,-0.9260405,0.30438536,4.9866686,4.667115,11.274208,-2.0867152,-3.2246537,-0.13489425
advertisement_118525.jpg,-5.509382,53.31487,3.8657136,8.075213,-0.7672907,9.977241,13.25562,1.8378861,9.090364,-0.80485064,4.93818,23.216671,1.7938757,8.256284,31.373743,10.511673,2.9502354,-1.6881658,-3.68813,7.419207,-2.4183145,6.571477,10.78975,3.4942977,1.1153126,-1.2589542,1.6814575,6.021102,0.43396837,2.6241422,9.520113,-0.039682724,-0.20529367,4.4565997,-2.2418272,-1.7626603,-1.1062618,4.0850987,-1.3060005,3.9309826,-1.125347,0.9865013,1.9641593,2.2366934,4.3595304,3.4050226,1.0426366,-0.50024205,6.4137235,3.1630769,4.135369,6.9854274,1.426504,11.236166,1.1503043,-0.044853892,-1.1656836,6.027088,-0.3498199,3.4017694,3.7027662,-0.06352835,8.070245,-0.045665726,4.283686,-0.82561505
advertisement_118902.jpg,35.04785,-0.17675711,9.44753,5.673786,0.4089917,-0.77983534,11.673936,48.406788,8.006928,4.453926,21.040768,3.2843142,-0.06607231,13.418451,10.432154,3.9307523,1.865474,9.961545,9.596976,3.6458042,1.1105552,4.2048836,-4.499458,2.78894,5.682135,3.4733791,8.985902,5.109828,4.386157,-1.6781658,1.9690361,6.0888534,-2.604847,-2.6512048,5.244886,5.423688,0.6563491,3.892567,4.162915,2.531157,0.48161367,2.1665316,1.1661259,2.2168088,2.1461737,1.314381,2.7675292,-0.50369954,2.3739529,2.8465693,2.289415,4.039643,-1.2794094,-4.259124,4.5561,3.3801458,3.761685,0.9683134,-1.1644125,2.5020525,1.615579,4.0801787,7.0033774,1.8286258,5.3349233,1.441295
advertisement_11897.jpg,13.598196,24.016083,4.2529764,0.8804447,10.810884,5.905629,18.401173,10.640023,4.8041115,1.5905313,6.185529,10.225305,10.480757,1.2138472,13.031416,17.590044,0.37158933,31.573486,4.580073,17.321964,-2.5600486,-1.2344247,5.6399264,3.350716,6.9556584,5.365719,7.7004013,-4.0491095,1.7397772,-4.032386,8.89575,11.922984,-2.958541,2.5673623,4.360041,-0.59163976,-2.1115587,2.5734758,0.10977108,1.7336497,3.9159088,-5.880899,25.564844,-1.0713619,-2.2870328,-0.13636024,6.036916,5.8960395,3.6118057,8.403756,2.7970812,5.269377,-1.0816091,0.8419268,-0.8133508,7.6668015,1.0814033,-3.666272,-0.5022582,1.865879,2.755685,3.033088,2.5067103,-7.707624,7.320093,-0.6194454
advertisement_11920.jpg,20.64142,39.70944,-5.979833,5.590459,5.909049,0.91293967,12.783297,11.486759,0.714137,1.0684134,6.6555395,19.011812,5.176678,4.480591,4.522023,13.247325,3.2628694,32.040794,1.2866569,8.826106,-2.2040713,-1.4404517,9.457029,10.818497,4.166098,8.7149315,4.2072067,8.065164,0.5518168,-1.9088871,6.9708796,-1.1426288,-5.036101,-0.93390316,4.11757,4.4160895,6.4246035,2.460814,2.2623906,0.88746995,4.291264,1.8326998,13.064599,2.4242342,12.378225,-1.8182136,1.3388517,-0.7416371,6.2669306,3.8848531,3.1380513,11.120198,-0.341775,2.9680057,4.7929616,-0.5002825,-3.3580408,7.8938284,7.5565495,0.29499754,3.3948383,-3.8617811,0.41760173,-0.4818277,3.8998585,-0.5390686
advertisement_119988.jpg,27.872953,13.0937605,0.724061,7.478775,4.381766,15.038584,1.7828876,7.7895107,8.2160635,6.112386,11.707616,14.590636,5.208689,20.11037,10.662697,42.952484,11.559887,15.565364,13.795307,1.5716197,-8.302219,-0.32868603,6.7313066,9.491946,8.863173,1.11956,2.0183241,11.329651,2.426545,9.011456,5.5668197,18.079485,7.406125,-0.5170023,2.2311714,20.902685,2.2483695,6.856497,7.605055,-4.3530984,1.3300817,-1.8110179,0.18642601,4.6742506,3.0956035,-3.9220848,6.5298676,9.412533,-3.3603928,1.815982,6.95903,2.902934,3.199818,3.0662837,3.1959202,1.8857118,6.0022783,4.0355673,1.8403463,3.9269633,9.34538,2.808143,3.8858266,-1.8227975,0.52472323,0.7635389
advertisement_120263.jpg,17.823383,22.559109,12.765696,9.416552,-4.1142344,6.312251,15.657513,10.627726,21.396654,1.8912004,13.999547,8.682918,-3.012914,1.375463,18.116941,14.101913,0.6433215,5.054718,2.0657706,3.6874619,1.1431918,14.671297,2.0497842,1.0968441,0.7866701,-3.0249822,3.571026,11.127833,2.9926383,3.5669322,4.8976293,9.082694,-5.0031395,-0.89501196,1.658977,-6.196699,-4.237753,4.266375,1.5876628,8.314289,1.3342812,1.363964,0.8785574,5.948963,0.2322997,4.3535075,-0.73636144,1.1689136,11.229132,3.35741,7.1178055,3.4766262,2.2540343,9.4950485,-1.6770432,4.0393496,1.4084694,6.493832,1.565901,6.6527886,1.2855656,0.5532012,-1.6020206,-0.25189364,4.6358542,-1.4998248
advertisement_12027.jpg,13.842432,6.7503424,5.1778846,3.3437417,4.6752887,10.170473,2.8492723,21.332836,18.489698,2.6672928,23.706324,10.292652,9.934907,6.674393,24.718155,11.969218,3.4927142,-0.45409316,2.7066815,9.287138,-2.5961955,3.5000167,6.496831,2.7475872,3.7741416,-5.400715,1.7897152,3.50716,-2.081002,5.1899953,-0.6827793,6.3870573,2.7325888,0.9324603,-2.2110357,3.243157,-3.8533027,6.624984,7.1540303,1.7581239,-1.4147785,-2.4527433,1.8550005,4.3340783,1.2890214,-2.018212,4.10981,3.2005527,6.919346,2.7309585,5.393305,6.290454,-3.7321954,3.2954721,-6.7121706,9.105356,-1.1749954,1.3154497,-1.3117797,-0.81514287,-1.9810224,-0.21944511,12.28278,-2.0465686,-1.1040455,-0.19303565
advertisement_120391.jpg,22.827778,11.568285,3.3721197,3.1677272,-3.202495,8.104146,11.037344,15.870989,14.744627,2.7742074,31.943787,8.989842,3.283406,13.199774,24.834068,6.5941515,3.3330982,5.023731,9.234686,11.658296,0.59453017,7.7941394,5.2682714,1.8993261,7.6789,8.481371,8.4087,7.8473754,0.40211883,5.601741,8.410677,2.4430492,-5.008354,-1.6633372,8.22652,2.0446494,9.309677,5.9591584,7.4509196,1.5488781,6.8353643,3.1919096,-0.665817,8.939711,3.0554209,7.9480453,8.613315,2.1866217,6.663256,2.8531106,10.35356,7.1114483,0.7859768,-1.6831086,1.2836283,5.2409873,3.6384635,1.908094,1.046508,6.157612,4.107944,5.2606606,15.299959,0.24363515,3.1275346,3.2066588
advertisement_120868.jpg,0.039266236,23.658594,43.22318,1.4065604,2.167844,3.5483246,10.133419,11.40455,2.690693,3.9193933,5.515556,4.2710996,3.5994,-2.03243,19.578194,3.562869,1.6326034,17.448706,0.532069,3.680792,5.5116014,2.1366303,-3.1350226,-0.09637131,2.089127,6.3137813,4.987528,4.469843,-3.4498472,3.3254132,1.8537829,1.244847,-3.7548394,-5.455479,0.9067474,-2.269913,-1.5908461,1.3743371,-0.30705324,-0.087225765,-0.5688835,3.8044538,2.1746469,1.3329455,6.001876,-1.75361,4.0632887,-2.1057818,4.607457,9.715267,1.3086419,5.1724815,-4.7632356,-1.639084,21.011553,-0.778025,7.2533274,-0.042787403,-0.55547225,2.1400337,-0.09470181,4.6553154,9.046648,-0.7040206,0.25021526,1.628643
advertisement_120911.jpg,8.276705,3.8382883,16.060488,15.672032,3.0327373,6.8715186,22.351418,10.685483,32.53316,0.7188453,12.888956,6.7943516,1.9233137,8.976336,14.776534,6.173053,-0.84946936,6.6224294,6.6562495,3.379578,-1.1184318,5.880388,0.3506992,-1.3594009,-1.5992165,0.18678698,8.204653,9.094887,8.458133,8.410885,4.435952,7.9600325,-0.67440784,-0.31951237,-0.37624416,3.8234625,-3.5285263,4.0550833,3.079144,-4.4308634,2.5719092,2.1512203,1.0616201,2.3736541,2.1117904,2.6075988,-2.3351727,-0.5813714,1.0310057,0.7571257,8.377362,3.0819871,2.1590672,4.3872805,1.8086691,3.8202076,2.6227844,2.6196008,0.0781951,-3.198027,0.8131944,1.7908878,1.1881465,5.3186593,1.9305091,1.4973248
advertisement_120949.jpg,14.267705,54.87313,1.5154157,7.7566915,1.2154099,10.230914,4.7239604,11.152268,6.2473016,3.6378775,7.691341,16.636116,3.9994676,0.7685178,11.985821,9.116068,6.969589,4.444197,-3.0445879,5.714179,1.8006984,3.0075216,9.59433,5.692363,7.5815477,1.1591567,4.669933,6.1508493,4.9063272,2.9458578,-1.1209378,5.223839,1.1942753,3.123188,3.9884605,-2.4033566,5.6030264,7.1401954,-1.6422491,-0.36517978,2.3553374,2.5368497,3.2233357,0.24717283,4.16736,2.3406827,6.786141,6.457824,11.896427,7.8424916,4.1532745,0.67711204,-0.45620593,3.5286646,4.8978224,4.2045,7.215978,9.5626335,0.7965859,7.264208,6.3725905,2.237601,5.6632586,-0.9492986,3.019066,3.9822168
advertisement_120957.jpg,16.364056,12.983897,15.24112,5.9512587,3.4418936,17.81884,13.690845,16.750418,26.962313,1.0809103,28.959534,11.789848,1.1657372,-1.1830341,21.924341,10.166061,1.9949231,5.8624773,7.007678,7.42689,-0.5983924,4.72736,3.1112258,7.5400157,-3.496553,5.0735927,10.351431,11.295647,-1.1806768,11.27159,4.548583,4.894547,2.1267798,2.604279,7.0607,3.1862135,4.1723537,7.887169,10.223983,0.16109306,5.213037,3.4639916,3.9412837,0.49186555,5.08942,5.715018,0.680535,7.153519,7.4608846,2.0757413,13.028036,2.795012,5.04539,18.124014,7.1078806,6.412575,6.0783052,5.543991,5.7219224,4.7984676,5.9725633,1.8521286,9.174962,3.5301442,1.3189157,4.1334686
advertisement_121000.jpg,4.6610174,7.570881,8.761057,12.314326,6.945219,4.629966,8.680019,29.855793,21.593603,11.127563,7.692922,8.156577,1.9165277,4.598029,17.73858,6.9626184,-0.73258525,-2.706365,5.831088,10.883342,5.4033813,2.9066198,0.5972619,3.9202132,0.87771714,11.350532,8.549713,3.657626,-2.5584486,14.963593,4.7693253,3.537354,0.15959844,0.85096544,8.119168,1.4353056,1.6115881,10.900946,1.3566101,5.9059763,-4.0878468,6.952645,3.9801884,2.3261273,6.1171937,-0.3726205,-0.58298904,0.9057201,4.0407753,3.3218186,13.851322,10.990421,-1.5479071,0.025117677,8.850549,4.8306303,7.552658,0.41261876,3.7712052,0.0867432,3.1042295,3.8751245,8.17484,-2.4119756,-0.8999407,3.8978286
advertisement_121048.jpg,6.6866426,16.322466,13.891822,11.092103,5.5915494,6.2561474,23.141432,5.828981,32.235786,6.0676513,7.4155054,9.234271,2.6103454,1.9307554,14.184938,0.87129104,0.26553833,1.8654652,2.586681,5.4571147,3.9231339,8.005152,-0.19065067,4.8993945,-3.5679412,4.059473,6.6239386,9.385066,3.1089168,13.017528,2.088426,4.432934,0.4811108,1.5884608,4.807388,1.6990719,-5.154153,3.318294,7.8803287,-2.146521,-2.0141783,5.7369175,1.1454647,-2.2039955,3.5599477,3.9375763,1.8864049,4.3294134,4.6259403,1.9397606,13.037221,6.973151,-2.192371,18.01407,4.1481333,4.349291,7.4224963,1.8815805,1.1677179,3.7371013,4.166267,-0.64094436,6.188748,4.3352566,4.1845603,2.699113
advertisement_121090.jpg,3.1494617,6.8417974,36.69094,4.6711454,22.04775,9.835956,2.727818,5.7236586,7.5485272,10.575305,1.8466158,7.0881853,15.251202,-0.56015617,9.371317,11.779839,3.896006,3.9119143,8.295439,-4.549907,6.866958,-2.64761,-0.7633348,-2.4597964,3.1345856,-0.9903822,-3.4919977,8.643833,0.88334894,8.263209,6.0023017,3.7224798,-0.8037269,-1.2944582,3.3884094,4.021157,-3.5638838,2.010835,4.009863,12.906766,-3.2265701,1.1471884,13.422487,-0.4414887,4.7012134,-5.400361,5.0945625,13.463646,6.6536045,-4.36012,3.8188808,-0.42593828,-3.4048374,3.0979335,-1.3694679,-1.765833,-1.8757558,3.0975575,2.2724295,3.494648,3.8324296,-2.6252542,3.028318,-5.281931,-3.404684,-0.098959915
advertisement_12135.jpg,20.921621,2.8438866,1.4736437,15.4119,1.4749682,13.434815,19.044868,16.207909,14.843774,3.645367,34.76833,5.8182883,3.6734447,5.4802237,21.96125,10.465808,6.370523,2.7020144,5.865612,4.6064816,-4.555403,1.8668327,8.584647,2.8923938,5.8408933,6.164291,17.26118,8.437876,6.3474393,1.8928658,9.935575,0.7806339,-4.1195154,5.5884767,0.25737882,2.668806,4.680289,2.598691,6.5466685,1.5404032,6.767024,-1.3246493,2.1482098,1.8856723,1.0974865,-0.4840662,2.678474,3.070293,1.1037995,0.9920074,1.6348928,8.773351,7.4818826,1.1720719,-1.1982827,4.668254,-1.6479142,7.3668466,-3.6615717,9.387597,3.0424113,2.611653,5.2486134,-3.6810763,1.920218,3.5789132
advertisement_121568.jpg,16.80639,9.124672,-3.5618522,7.600554,0.4017246,5.115038,10.4338665,17.257645,11.356566,3.1190798,12.828763,28.51699,6.272727,-0.17647664,10.976544,20.070059,-5.24913,-5.173627,5.1795506,9.723495,5.3980665,1.6712583,11.980826,4.959695,2.5140572,1.9104073,1.0596434,-0.45137125,-1.0981984,6.33862,0.3298265,4.1554766,1.9409742,-1.2768325,12.709397,0.03946228,4.7267785,3.982145,-0.89985496,1.9868602,0.88765717,-0.85368955,1.6125679,3.368098,4.886193,0.0008496456,5.5434127,7.3311,4.165692,0.028368458,3.7455826,1.3357587,-3.6943748,21.858543,-1.437651,2.8662694,-2.294976,1.7841972,-2.174317,-5.391229,-2.6015227,2.7669954,2.264684,-1.2676513,-3.3956509,-6.1204762
advertisement_121687.jpg,11.605646,9.01724,8.562044,12.068606,-2.6201863,0.26294255,14.732388,10.467562,17.334078,8.559707,6.7750454,12.478745,1.9711455,-0.34674677,16.085274,12.945305,-1.9053462,0.043555815,0.9505719,6.580116,-0.081263855,5.7579255,6.768786,2.293574,10.066793,5.810817,3.5091379,3.2484133,4.1055465,10.277991,1.2127571,3.4391649,-3.5540144,-2.096236,5.432884,2.2418222,-1.8227899,4.8847322,0.15243725,2.283781,1.7254181,4.1781483,-0.48587155,1.2993746,5.5559077,12.351232,0.72674024,2.422557,3.8878944,-0.2068595,7.7070155,1.0909411,-0.74674493,4.343424,4.27578,10.882642,10.368611,0.38895887,1.552143,4.5014486,-5.3217144,1.9258682,3.1863563,0.4856273,1.9309975,-6.607448
advertisement_121704.jpg,19.161892,5.773194,-2.8405974,7.1161704,0.5667297,6.0347843,10.8132515,5.281061,10.129732,2.9114285,18.583164,17.185154,2.8178453,13.21271,33.332806,4.279107,-4.2323747,6.0234723,3.1410835,6.787158,3.9627426,10.2632,9.591087,5.1042113,2.1478171,8.430829,4.9879346,1.4503942,4.1205454,3.3391185,0.41189277,-1.6252363,5.559055,1.0508169,-1.695377,4.8375473,6.181148,-5.887697,1.264124,-3.1853101,13.711341,-2.09249,-1.3455696,2.5751526,0.45485944,2.340635,5.7121806,1.0727259,4.4748755,7.510001,21.424976,10.367381,-1.3640575,5.0088153,-0.8504518,11.065808,10.524827,0.042189516,-1.5297095,12.8629,3.412541,1.1216328,6.5245495,-2.3624313,1.2519612,5.8465166
advertisement_122460.jpg,25.605461,-1.0290062,0.23162895,16.569456,8.173284,18.955578,13.614315,33.658703,8.86091,17.750336,5.9027753,15.518096,15.884537,-3.8524017,7.116515,14.048818,7.434865,5.2732205,37.87029,1.674282,-0.90507734,9.815929,0.08220458,22.303993,10.345825,-0.14439593,0.8699937,10.775125,7.7965336,1.8673999,2.328415,3.6456823,-2.4007716,1.9453707,9.235466,4.521464,1.5220103,3.4499068,11.187403,3.3881354,5.252528,2.2738743,3.0002077,2.0788565,1.2621329,3.2939482,2.1060522,4.628207,8.406384,-1.2462277,1.6548244,7.751335,4.479029,6.525012,6.662688,2.0586305,2.1741774,4.027216,0.059302058,4.1912546,2.068319,1.9129623,2.815791,-0.8358967,3.532705,1.6947001
advertisement_122666.jpg,33.99999,8.955638,-0.12306273,19.037611,-1.326378,20.267586,10.060052,10.9605255,5.119047,1.4935589,28.102823,15.083168,-0.15932061,12.1795225,12.938168,2.532271,-4.8574185,6.22027,10.1629305,3.8009062,6.515585,4.548753,4.042843,6.9580264,-0.47436357,-0.25317994,-3.0368466,21.290592,11.796215,4.37272,-4.252794,1.2025055,6.6786366,-1.6153283,10.984623,2.7833936,-4.9847646,7.440796,-0.7339236,-0.789724,0.93458134,2.9378538,1.7133834,18.596498,-0.88558346,-0.12121788,1.8371023,-0.9629127,8.195239,-0.34401453,-1.4678812,5.140564,-4.217687,7.384417,2.2410035,2.1017685,5.955827,2.1052825,-0.7028058,3.4888492,2.6765366,-2.219809,9.665495,4.6509004,-0.7795239,-1.1770365
advertisement_122685.jpg,26.787706,-2.9927037,6.0177674,18.646719,0.90418494,0.26676917,11.223735,19.47955,35.825157,6.744843,9.721976,12.88304,3.3933625,4.331369,11.462603,18.011206,0.20901617,2.7061555,24.443016,9.147867,-0.1324359,5.245627,10.167078,6.3080735,3.9490619,25.81966,6.17627,4.9367814,-2.545172,6.0780873,5.572674,7.989078,3.6072836,-0.26610288,7.875939,4.461041,3.595436,-1.1279185,12.708662,5.451782,-1.0577242,6.370882,8.146536,-0.33624512,6.8073325,1.2841965,4.0053315,2.4996498,6.7199545,2.8615572,8.949278,8.504109,-0.08773913,7.222625,1.9826986,6.032063,5.6579347,0.72076267,2.2879095,5.4342813,4.495687,3.8919196,-0.76398724,0.6076392,1.5013839,4.40032
