image,0,1,2,3,4,5,6,7,8,9,10,11,12,13,14,15,16,17,18,19,20,21,22,23,24,25,26,27,28,29,30,31,32,33,34,35,36,37,38,39,40,41,42,43,44,45,46,47,48,49,50,51,52,53,54,55,56,57,58,59,60,61,62,63,64,65
architecture_101558.jpg,36.33425,-0.2607776,11.918184,0.13013166,22.759441,38.950096,3.8156657,12.263642,4.7442274,7.096076,12.908556,-0.16851164,28.590446,3.7880101,1.824329,-5.8415766,-1.6316463,1.6532332,3.2271903,2.6962044,18.791363,5.006257,-2.715807,0.97032714,2.4351187,1.4120197,0.9631288,4.8919888,2.1971364,-4.085592,-1.1608356,2.3407063,9.392508,4.0339565,5.997583,-2.7968931,-0.5396748,1.5267458,4.2930493,4.3287663,9.120555,-1.5330203,5.034312,5.9710197,-0.83778447,0.6391573,9.982018,-4.752456,4.9938974,-3.6243644,-2.7007253,12.339392,-4.102511,4.4007525,3.1722016,7.551258,1.4106878,0.15321243,-1.3069397,6.270381,1.4764695,2.3454382,5.6619883,-3.31327,-2.5190127,0.9777803
architecture_101746.jpg,11.052468,10.868033,20.889421,-0.455601,8.459246,11.255386,10.384024,18.383242,11.118671,10.767723,6.9024167,3.2858286,20.510073,16.198446,11.824219,0.53307396,-3.053138,4.9755583,49.03712,2.486469,11.412341,6.2306933,1.3434281,1.1589671,4.686704,3.7436526,6.756763,2.325517,3.595402,3.9055972,-0.96991456,3.577897,8.073281,1.7967055,3.947821,3.528659,0.095446266,0.80248106,13.402222,5.3063755,10.322153,8.817211,-1.5511315,6.7267575,4.2341657,0.043377303,9.0755825,3.614539,8.911079,-0.27000558,4.8187675,8.367283,0.03142869,2.6236897,4.743176,18.938889,4.1168175,-0.2436325,2.782322,5.2884665,2.8170216,6.8362036,2.0092428,-3.0907779,-0.83277524,6.3135037
architecture_102300.jpg,40.678963,6.356465,5.0917006,0.85349196,2.7178326,13.46475,14.77858,9.115707,3.7498739,4.577945,20.900688,2.2313542,25.736666,29.570807,-1.5306982,-4.1157103,2.3253243,4.7163267,4.23777,4.102377,4.747873,12.079238,-0.3284869,3.158597,11.437647,-6.4645553,4.64224,3.7224083,0.0641536,5.7726088,11.42186,0.40826195,16.991152,2.3931725,1.0051843,11.286356,2.9167438,-0.9139143,20.18322,3.3347135,17.591875,3.4574893,-0.7426071,6.834026,6.7737923,22.278301,19.644897,1.174699,0.26194835,0.036941282,2.7575226,17.469114,3.0870376,-1.0542142,-0.32645333,11.848604,-3.0063503,0.32523322,6.1360884,5.790614,8.262377,5.433006,5.159726,5.1014295,-1.6645905,-0.50638795
architecture_102427.jpg,26.803667,6.5023603,3.1267393,-1.3231273,5.080098,19.83196,14.334662,14.044245,4.099369,11.6961,13.8282385,6.4833894,21.774864,4.331292,5.9401593,1.3841685,0.49196604,7.503731,10.79007,5.71522,3.1250138,5.5139294,-2.2932186,4.169422,9.561963,7.914811,13.1955805,2.7788942,2.16134,0.50916684,6.476094,6.034525,6.3542404,2.7105515,1.2919993,-6.085919,2.4864476,0.38510376,16.30242,1.9139543,5.174744,-0.45700735,-0.381166,3.326708,4.216549,11.286752,15.490799,6.029513,2.0545971,1.3751246,-0.14735162,20.618124,5.87947,1.2595326,0.8041736,7.372051,-2.0364866,-1.4367553,2.7800992,0.0029351562,2.1740456,5.948834,3.2080576,-4.9471064,1.2154356,3.6684885
architecture_102642.jpg,14.3663645,-0.13857749,20.24699,-3.3949263,36.556667,12.776677,26.844803,19.315865,8.383793,-0.48082817,0.6719043,13.665334,39.52425,1.3199524,-2.543502,5.8416634,-1.3727088,1.9297417,11.917521,4.592384,7.198556,4.242573,2.5465271,2.9139202,5.1045628,1.4608848,2.0470102,2.6584713,10.485608,1.7014751,0.78029054,7.2347856,2.3728197,3.7426848,5.97041,-1.2485424,-3.383361,1.7282069,9.161266,4.24565,0.21408725,-4.982266,7.4177055,3.4169858,-1.4830096,-2.895265,11.478563,3.4632332,3.6413536,-4.3456683,-1.1429235,10.127292,0.6331515,2.342211,7.870738,0.9429034,-2.0127957,0.58138,-1.3292124,-2.122248,-0.017952546,2.580297,0.49799588,-3.6008775,0.28814787,0.09016311
architecture_10504.jpg,25.049088,6.128499,20.665407,6.3525453,3.477893,9.247573,12.144046,10.928167,30.40795,4.1604857,4.2535715,5.4818106,14.239064,3.3393292,10.237798,4.4386973,-0.03523864,0.28966525,13.834685,2.3527727,10.069176,6.664116,-1.9294784,2.9187589,4.168494,7.9243526,7.8842893,3.2329946,11.015188,8.41447,-0.030512922,4.199029,0.08614585,-3.740722,2.6601543,3.317897,3.6613061,11.366808,5.401588,-6.8283997,-1.7885029,2.4867342,0.8491059,5.282424,4.7786226,-1.3496617,6.5381923,5.6733856,1.7394886,-2.3539095,6.987239,15.849728,-0.73031294,11.256585,6.171345,2.2623558,8.140638,0.012299418,0.8402854,1.2410939,-1.1405845,6.4057417,0.92248535,0.46377695,-3.4959295,-1.9277443
architecture_105647.jpg,14.02186,-2.1863973,17.252796,3.840597,9.217834,14.794699,16.955254,17.44299,11.231587,8.549957,14.545504,3.4309492,28.41362,2.2278612,14.562622,5.2140517,2.7262106,2.9829369,7.0527887,0.5430163,-0.117338754,3.674101,-0.7656856,3.0869093,11.172787,1.1086047,16.084093,3.2714353,-1.4237471,2.16116,1.6537256,3.4111426,3.7405424,4.0240355,-1.2400482,0.19345665,-1.118852,-3.2670639,11.006234,2.8998182,6.316457,0.21534613,2.1725404,0.9376703,3.7569475,5.643382,12.223016,4.8971357,5.5750394,-3.290728,0.26209813,15.178861,5.089265,2.8337486,0.72604436,10.675746,-0.058052316,0.4969687,1.1875397,5.983762,0.42844152,8.224105,2.8399434,-2.3950555,-1.7955426,4.782458
architecture_10675.jpg,32.688313,3.0445817,-1.0772763,2.434679,10.659291,17.405668,24.579842,24.07847,10.569557,1.335573,4.2198377,5.8734727,25.715607,1.9090332,5.095205,3.45398,1.8892063,2.9370456,10.3608885,5.7464757,9.711359,4.905032,1.4266105,5.1912403,8.950695,6.207562,3.027982,3.1688585,0.88543993,-3.1509333,2.233522,3.0196981,6.3353324,1.5933275,-0.31546485,-2.5823247,0.9936639,-1.5422252,12.484899,4.4478097,9.572961,-0.86202973,5.339082,2.0697155,0.22547422,0.04289716,18.499811,6.885787,4.5137568,-2.062826,-0.8047635,19.914478,4.514628,2.0021927,2.5529134,3.843601,0.22385053,-2.8573751,0.6533234,3.6710956,1.731345,7.477306,0.56373954,-4.7128296,-6.1112146,0.5029078
architecture_107471.jpg,36.40664,1.8157207,9.957235,9.027147,-4.0774164,14.66797,5.872484,35.357105,2.8311896,12.916554,5.75197,6.8274975,17.010107,5.317107,7.5826435,10.333167,-3.1230729,3.6766603,23.268261,6.0696797,9.41358,7.698132,4.2006855,1.1679852,2.969572,6.642089,-3.476797,1.8768003,-0.6279115,-1.3504118,2.181839,3.6411207,15.616218,3.2703753,8.987259,-4.7475963,15.631302,2.5376136,13.981472,-0.7265646,7.190198,-0.26424924,-1.4960674,3.845428,-1.0247579,-2.7262285,27.45817,6.2958317,1.9104431,-7.6652875,0.69922376,3.3536167,-0.82790226,1.3875138,3.5857656,6.380096,0.3409716,-0.16663596,-1.2448076,2.462115,-1.4735794,3.5425088,2.255625,-4.4109583,-3.4652069,4.5190945
architecture_10753.jpg,30.551285,9.734032,14.868487,2.7642117,0.3140639,9.246845,18.383038,31.300186,1.7208915,15.26346,5.0558915,2.686271,18.10926,8.359172,7.439495,-1.0451708,-1.553888,6.384443,34.689392,6.326457,8.898621,5.0741444,1.4317727,4.47109,5.1845493,5.604768,4.438505,1.6697013,1.4922702,-2.5086,2.5669956,1.5762144,9.343034,2.315516,5.224951,0.48955995,9.441215,-1.1973945,13.102765,5.621682,1.1575874,3.71487,-4.504144,0.4576509,3.0599833,0.5119376,24.627228,3.585144,3.4405649,-3.4871821,3.6729238,8.417398,2.0450802,0.089206636,5.5068755,7.863308,-1.4984514,-3.1335003,4.6798677,-4.1047645,2.0528529,1.8750142,3.0056272,-3.0560207,0.59168684,-0.6766948
architecture_108100.jpg,30.36919,7.888521,4.6083703,6.7996383,4.4113016,28.16732,14.504475,18.134228,8.623594,6.8026075,13.479368,5.305592,16.603397,4.8603306,7.7342997,-7.7018247,4.178635,0.499727,5.516517,10.785226,4.0085006,4.307105,5.954341,3.2560706,4.3744464,1.9125171,0.94831514,1.0922588,-0.75594896,0.50150955,6.4909897,2.0476687,17.552284,4.6133704,3.3093975,-3.9672823,4.3807616,-6.489048,11.620442,-4.900422,15.24565,3.8333476,1.2161139,2.0418406,4.225126,-2.3335297,21.327291,2.4543042,1.4229807,-0.45499563,-2.1859539,13.685266,2.3348985,-2.6057985,-2.832132,4.597455,-4.120077,-0.6868763,3.3051558,8.68011,4.137403,2.6192107,4.0016174,-4.786054,-6.802611,5.4865313
architecture_110353.jpg,17.047785,9.8524275,20.384111,3.5319707,17.204573,12.888244,9.776397,17.929928,12.854217,14.92641,0.010744063,-3.042681,32.53626,11.771126,1.7057617,4.650855,-1.3201892,5.3830776,12.805613,3.1434073,23.927542,8.454695,6.2039604,0.7026717,0.08701049,7.3742723,9.344433,2.3775632,3.8688436,5.314274,5.5588675,2.6926951,3.0156226,5.117512,1.3326772,0.47788554,9.423548,0.7490665,8.406195,-0.6318592,9.834485,3.8244956,2.2580392,1.8726891,0.11859846,-2.1815748,15.985743,2.6120906,1.0287225,-5.9612603,4.0515876,3.8955622,0.010929839,3.050127,9.10081,11.83095,-1.3135899,1.1779915,2.9268894,0.13991442,-0.22027604,3.1731915,-0.3609795,-4.3001556,2.5821638,6.5214486
architecture_110402.jpg,29.573286,8.858199,7.030459,10.177601,10.334912,29.109118,6.9340997,21.21987,13.4288,-3.1487188,12.434273,2.6474125,25.777527,-0.7205761,5.6091666,-3.5895438,3.84393,9.070694,7.9350076,4.321625,8.250009,2.0558336,-4.988971,11.425189,5.917175,-1.2508054,7.803665,3.0527651,2.6516712,-2.529321,4.728881,2.9480155,9.694877,3.9934185,-0.7928701,-0.13337852,-0.03267245,0.15831934,15.534746,-5.9586377,20.710472,-3.6842592,1.3887612,0.052649062,-1.7928492,-0.6367877,19.235615,-0.8726013,4.1120815,2.7169335,1.6301394,7.507331,-0.33144102,1.794224,3.4243367,17.089691,2.7748437,0.15226462,3.8653023,7.0071063,3.2632418,9.298818,7.816667,-0.8054309,-0.28338283,8.594777
architecture_111640.jpg,35.300766,3.4500315,10.201077,-0.45880932,5.7594614,17.322222,-0.09823609,23.117342,10.974934,-0.9741697,10.569227,8.241277,37.47094,10.889512,6.6983967,9.729856,-0.63437814,5.0380836,9.394576,10.659467,1.6487768,6.7359796,8.720173,2.8218606,5.3763733,-4.0443506,0.42517465,7.8240795,-4.9902663,-1.1756845,1.2189196,9.217039,18.685774,2.0654533,4.4483685,1.4121121,1.6449813,2.7744222,17.803488,2.2497296,9.488264,-1.5284624,5.0438395,1.412076,-1.2214271,1.7297738,28.878393,1.9364821,6.4185314,-6.5323644,4.129347,4.337367,1.8659807,-1.8120855,4.304168,4.7878575,-0.13704962,-0.6338664,2.79041,3.7937987,1.203344,5.1260653,2.759134,-3.5905414,-5.4658356,2.8137841
architecture_112433.jpg,29.588995,7.715253,7.5401106,4.8902454,7.90592,10.040281,13.512702,22.90395,9.490458,3.6399238,20.487776,3.7953205,20.805655,8.640617,2.145544,3.435641,3.2948315,11.36034,25.79963,8.454538,-4.398795,4.4574633,-0.09853763,6.1815844,10.4423065,-2.5012896,10.137478,2.8297262,4.2197475,-1.206727,6.0395308,3.132575,6.552858,3.638557,-1.2355946,-0.8396357,-1.9290619,-2.1190844,9.935806,-2.0720437,17.157711,2.2100306,5.0880346,1.8230643,5.141023,11.494982,14.525088,4.5360827,1.1480854,3.106623,6.3026114,7.235752,4.49726,-3.3162613,1.9293096,18.347143,0.41589448,0.15056692,5.6178803,2.688112,0.49129063,6.3011928,5.821919,-4.1562414,0.3479365,7.357037
architecture_112845.jpg,21.505297,3.8586946,4.6950417,1.7808692,13.022023,14.867982,4.36526,16.096832,15.281307,4.394588,8.494739,6.8306537,25.168818,-1.3096113,15.050551,8.381454,11.172338,2.6322513,16.784527,10.976928,4.6802144,4.5955,8.013346,0.5123112,7.4402647,0.02816664,3.1863883,-0.3146633,1.1080197,6.3619137,8.008187,6.153629,-2.9803545,2.0156794,-0.14710408,3.9484036,9.841233,3.171593,7.441461,5.0768266,4.2525845,-4.316124,3.5390246,9.250557,1.0171891,3.3305786,8.302916,4.004158,8.48253,3.5576832,5.5919213,7.955314,6.1081758,0.8520045,6.658211,0.5531602,1.8075403,-0.5909325,0.47436672,0.6790992,8.1245365,6.2958927,3.775794,-0.55860716,-5.6789603,-1.4255881
architecture_113330.jpg,26.358551,4.2979913,-4.5201616,6.3123584,3.4228928,2.8334084,23.285175,28.790977,1.1377172,1.3975077,13.419333,30.960268,8.437012,20.728008,8.87808,28.805403,-0.14029881,2.6816254,11.972991,9.177501,-4.8632426,1.9525293,9.806609,11.254557,7.222604,2.4195147,1.8209733,7.786985,4.115526,0.7997306,-0.5041832,13.100323,14.2175455,8.332135,1.5488768,5.5234656,2.4208586,11.177559,11.598608,4.942522,1.0533059,-2.3777554,2.5752487,2.7020442,5.1944313,2.7690747,23.585855,3.980975,8.847462,2.8724577,4.0764785,8.558115,7.6268263,7.205937,7.324118,3.7375212,-0.7676191,4.4777803,1.0434216,-0.66130924,1.5757315,10.245769,6.0764346,-0.082394294,-0.14465465,0.6746406
architecture_113462.jpg,29.366446,10.129038,4.306287,7.5871134,5.2743664,24.769476,21.687326,13.673117,6.372285,10.342263,2.802274,6.509426,28.044956,1.0134125,18.39706,2.2749004,5.730339,2.7261262,5.1556826,4.006147,24.27025,10.936423,10.964372,-0.95183915,0.55242425,17.21441,11.662842,0.51422095,4.270588,-0.29811272,9.0106535,2.2373943,1.6633862,0.4670909,5.502898,3.8569193,4.417884,16.505714,3.575699,-2.7970166,10.98227,5.4369316,-0.2930388,1.4705757,1.6684655,5.654997,6.707876,3.6985736,7.648453,0.81231326,4.940795,17.30856,3.5649824,3.0205848,4.553726,1.8961612,4.7232347,-0.7121945,1.2495588,-0.5348549,6.883142,4.8721924,5.00932,2.8943968,1.2856857,1.7903175
architecture_113518.jpg,39.4336,5.933008,11.656061,3.3374753,-3.6418586,19.135956,20.466688,23.90105,16.669506,13.93696,1.9772302,-2.7598445,19.724216,4.8002605,3.172474,4.654397,6.6343255,7.191792,6.4471827,8.523532,10.781627,0.83427393,-5.7787614,3.3252504,7.5844107,6.3311634,10.03371,1.6839669,2.6335182,4.132608,7.1081862,3.7274647,5.7008157,3.7689984,1.0649115,0.5019484,8.992042,2.1643984,3.29716,-0.99839187,3.2905352,4.0617814,-4.3022213,2.7789013,0.060979463,5.154914,19.39669,11.1624365,4.4496446,-2.0111258,6.643389,17.02803,3.666803,-0.028059678,8.647154,10.289574,-1.7621659,-1.2055598,1.1922407,0.30280012,1.6085337,4.519322,-0.9382658,-3.325804,-0.7766189,3.7010386
architecture_113588.jpg,19.50694,0.38516754,3.2685895,2.5460744,14.914992,10.520062,23.322083,18.557487,3.223917,11.627503,9.280457,4.7095237,26.305014,4.44877,10.987614,-3.4070957,-2.8148317,-1.638253,2.4987855,-1.8946025,6.9621296,3.0400264,4.6668143,5.9292827,12.935056,3.0842073,-0.6828865,-0.6540992,0.42343166,-1.8332534,3.5934012,0.5639186,4.5725074,3.0128396,-0.8404753,-0.8597124,-0.90411294,-3.6937907,14.61828,-1.3871075,1.9720306,3.6265464,-0.8379764,5.477732,-0.9255457,-1.292374,16.050392,4.1758633,1.9589719,3.3161185,1.6186095,19.153683,6.160638,0.3726273,1.9165453,4.2904553,-3.0965934,-4.223998,-2.0520928,5.08331,4.866536,3.1913486,3.1822543,-1.6766353,-4.0387726,0.8012179
architecture_113640.jpg,9.077493,56.148666,1.7130471,5.4040136,4.1433997,21.899752,8.192984,11.630771,1.3673816,8.006351,2.0709534,9.989589,12.210953,-3.3903475,6.6310654,3.7825928,8.72774,3.5696502,1.9978778,8.348177,-3.1897101,4.6275997,2.7160945,4.7171087,1.6458037,2.2342157,0.17227444,7.297096,0.81900376,-0.8548174,3.2218666,1.2137995,5.9751863,0.9266322,3.650968,-1.8168492,-0.10369406,0.8468505,6.0656595,4.216187,6.069436,3.650811,3.2084174,5.549435,5.9694734,4.9001203,14.011106,2.7447383,4.3203406,2.5545304,2.276984,9.621434,0.67731845,2.383139,5.4371176,0.7253837,-1.8951423,8.964852,0.9054307,4.6897926,4.9071326,10.173843,0.2582522,1.4735874,-1.4292972,1.3346549
architecture_113653.jpg,26.653957,10.90664,10.263404,3.5795488,-0.20064595,39.76026,15.566732,11.12359,0.53825295,33.090107,3.9672966,4.256255,16.65953,-11.0313225,20.557604,-0.39280564,3.545437,0.8672358,0.491596,14.218122,7.6482797,5.0092077,1.2505517,6.260728,-0.12603682,11.508816,4.662911,12.12029,-3.4486961,-3.9328768,2.4700458,5.4043837,-0.192211,0.036955625,0.107533626,-2.2740202,-2.9821944,19.081593,3.3663268,3.1682215,-1.2194633,3.749185,1.677742,5.62319,3.2454453,6.1133556,15.522887,-1.0746356,7.1072206,0.7532191,-1.5951365,13.707532,3.0600407,3.9095082,17.450487,-2.3088613,1.9943576,2.1472578,3.0011666,-3.389071,4.0876627,6.982679,-2.020847,1.7379042,-2.6660845,-1.2337601
architecture_11461.jpg,28.647915,13.131809,3.7544296,1.8854756,3.931209,32.484097,18.043755,15.406908,8.323077,17.730808,0.32151964,3.9822369,14.136559,0.6321329,-1.2628304,6.140096,-1.4872055,4.1772833,5.9218307,9.221088,7.3194003,-2.3350973,3.973439,6.873686,7.882955,1.6404539,5.1727185,1.2406888,-0.33219504,4.14634,2.3079653,3.2760456,12.562567,5.4418945,2.902398,-0.6884065,6.914185,12.669535,5.2748995,-0.004319055,0.5616921,4.435942,0.37874478,6.3037,6.929082,-1.1269606,20.064365,10.387865,7.537675,-0.6109148,0.10890102,20.877684,0.007814448,1.9025333,3.0427258,1.2914767,0.14247066,-0.6927899,4.2178154,0.5786831,6.820378,1.2956188,3.8121157,-6.2507095,0.4636662,2.26916
architecture_114675.jpg,2.7842925,2.208292,6.2452564,10.177586,11.7616625,20.182379,4.8958874,1.7694952,5.7107744,24.55145,3.9618556,24.090864,6.705217,1.4337139,10.73705,5.2804933,5.023328,5.110482,0.45004478,14.744991,2.015925,-7.783641,2.0230186,26.030413,15.736662,-2.9926841,-0.44879055,1.1844728,1.2777438,7.8045115,10.816924,7.8052135,14.558858,10.700664,-0.50502765,2.6145318,4.796935,6.3978868,1.9918408,-0.6886525,8.323204,0.52729976,0.98277724,-1.2613016,6.9367714,12.815712,10.907196,2.0900326,1.220439,4.05503,0.8778435,11.282942,1.9825587,-0.064305544,-3.4404535,5.6414237,0.8500351,3.2036827,19.975523,9.692793,4.2649126,1.0057462,-1.8643938,-4.955897,-0.7400192,10.318137
architecture_114775.jpg,9.688938,6.008214,19.980278,19.738022,7.792446,20.817202,24.10933,9.393474,36.786385,9.15512,2.2842066,6.3857837,13.016301,2.745492,4.0137534,-4.6889553,1.6463773,-1.8073432,13.582664,1.6812135,8.782647,8.150381,2.3042624,5.1626186,5.397497,9.939769,-1.5557534,1.5473046,11.156274,11.901739,3.817809,-0.38077915,9.296725,1.3135426,3.4147258,3.2051337,4.538376,-0.65672815,9.047735,3.8359218,3.097532,9.36474,-0.2726762,13.402128,3.6568851,-4.179722,11.778651,-3.0894856,1.5186175,-1.2431207,6.4808264,26.70467,-1.7946968,4.7902617,1.106612,3.2681043,1.0860511,-1.0132055,1.2090828,3.7205667,0.3527561,6.724608,1.4114527,-1.3152629,-2.16845,-0.7606422
architecture_115262.jpg,34.947144,2.2353106,4.4463134,4.358971,9.727097,23.579868,11.366872,18.272705,9.991905,8.712433,5.7913074,8.08054,29.115149,7.23047,2.440035,0.056471232,5.3130393,0.01379468,4.4108205,17.782898,15.286491,4.384664,7.9363256,-2.2269964,11.985583,5.35001,5.1768637,1.2633446,0.17244741,-0.37412873,14.548637,8.383081,16.27887,5.758713,0.9419337,0.18554497,3.986647,3.0240502,7.2591686,3.8108222,4.1504517,-1.8770341,0.0730983,6.9715858,-2.6698174,1.1354204,26.52261,9.192139,5.344283,-2.4099352,-1.3790323,14.633703,1.8710858,-0.6119352,0.5570123,6.2501445,-0.6312563,-2.5618646,-1.9093014,1.7933987,4.5526495,2.6232097,4.294534,-4.1292534,-3.5308182,8.900419
architecture_115495.jpg,30.571657,0.13719192,10.333901,5.9612164,20.764963,32.39475,13.503556,23.413744,8.137402,8.017262,12.462601,3.9503806,35.67759,1.8533949,7.0858316,3.3788908,0.56766385,6.06938,7.2585692,1.9492586,7.937747,3.5724442,6.939359,-0.6550776,4.3481874,2.7112088,0.7846618,14.004464,1.4531765,-2.613276,6.0161977,3.3098156,-2.881033,5.5317364,9.048435,0.48506445,2.3186262,5.838823,-0.16576262,4.9928055,3.9697309,-1.2114483,5.723897,3.5295572,1.6922511,5.4934845,8.975128,0.6682395,10.558903,-1.9339601,0.81321,10.133309,2.5285835,3.005906,10.428759,-2.2808921,0.31403652,-0.23155878,2.589612,-0.528631,3.9095066,10.065984,1.3904526,1.182548,0.8828595,2.0403574
architecture_115723.jpg,32.65484,0.30030036,20.718935,7.2612233,9.993418,29.522354,5.6687946,12.435164,13.132268,1.210512,9.753519,3.2490053,17.45314,-4.7040534,5.7338133,-4.5555916,5.838662,4.1415477,9.127683,4.573796,16.023384,12.453687,-3.7397118,2.9859147,7.302389,6.8952956,13.915088,9.769158,4.3832936,3.535815,3.2416608,4.6262035,8.357717,3.1911283,3.481891,-0.78691345,0.10002274,1.5250126,15.425571,5.9655533,11.457584,-4.5992136,0.16671298,5.0749197,3.1209662,-4.3085837,14.82273,2.6238594,1.2240207,-3.1463776,2.5482986,13.860987,1.828658,6.3711143,1.7170115,11.638767,1.9229786,-1.4013596,0.54103863,6.961902,-1.8694829,6.5033035,2.3657453,-4.993555,0.21612951,2.0042593
architecture_11618.jpg,40.158817,1.0560421,1.9810613,4.3401937,-1.2131588,34.268463,8.264323,15.88535,2.7200212,7.400338,6.9721847,11.102558,19.576971,-0.1004979,6.519739,1.5099492,-3.522433,3.7236054,-0.5712643,4.985453,15.826452,7.71036,0.078452006,16.051249,2.2887557,6.302199,4.855037,5.9186907,-0.26310498,0.13770294,-1.3102871,-0.40684953,6.154336,4.7759995,0.85489285,3.8190768,4.4704523,2.5226202,3.8845458,2.9385488,-2.0195558,-4.0935407,-4.2594323,10.96134,-0.13860282,0.94406456,17.161985,5.8847923,12.886908,1.5754017,4.2635803,22.759884,4.322937,4.0215664,9.221392,0.16115597,2.8277984,0.105389394,0.25333405,2.6220293,3.8341641,15.755519,7.2310762,1.4628451,-2.306344,0.28109592
architecture_116282.jpg,24.463991,9.938654,6.6100135,-2.8683388,7.123364,11.855128,13.052562,21.385899,2.3748424,4.3658605,14.609434,-0.5576511,25.660824,3.2978647,7.583359,-0.04728278,5.59496,5.1481295,6.924805,8.49111,4.3370748,2.139026,1.343847,2.3467896,8.446188,1.3926592,4.4412594,3.3014293,1.418316,4.1301775,9.475616,1.3493428,5.5897527,1.8567353,3.5973012,2.0653024,-1.1937135,-3.5883346,16.574587,1.5414504,7.9989834,1.3611737,-2.4859314,0.43673235,6.18555,13.413405,18.720541,5.989578,0.738031,1.2376558,0.9143574,10.340301,4.6534452,-0.89322877,7.465091,9.333606,-4.3899903,-1.8324766,7.470429,1.2992141,0.25275666,6.0694733,4.03254,-5.0484886,3.0362773,4.411423
architecture_11642.jpg,16.385935,2.053645,0.85383385,4.6411095,1.1560001,16.385399,16.600145,24.989037,11.761793,10.112712,7.5946107,9.005637,13.8573885,6.2665477,4.399894,7.955395,2.0370505,-3.2558062,5.902792,4.9381285,6.214267,2.3561664,-0.9859986,9.3369875,4.338133,3.0421712,-3.1735034,3.9784794,-3.9240997,1.8637449,5.0413632,7.10015,9.029251,3.159582,3.8131993,1.3834393,-3.5813642,0.3234751,9.559709,-5.7223754,1.7210498,9.569709,-2.2993326,2.7463741,2.374532,2.1819172,11.66679,3.5726845,2.6397488,0.5083587,3.054329,15.285629,4.324565,1.13206,7.633932,0.37297612,4.0685472,0.37487513,5.4819174,0.6007319,3.330381,2.8166182,1.0276757,-1.8448777,0.21051458,-0.27626795
architecture_11644.jpg,35.22751,5.8755336,8.369047,2.1798086,9.072783,14.150904,6.1496425,26.02858,9.804789,12.46558,8.607066,-3.4120307,23.665268,3.2996073,3.711974,1.8967668,0.7712286,2.1381538,10.111162,16.055876,14.005926,4.3231616,3.4636073,0.38240376,8.560515,9.366082,6.479499,-0.9070016,0.5493916,-0.055971462,7.3966956,5.071631,4.647509,2.1737695,10.278371,2.1677039,2.0444806,2.9688516,5.92881,-0.56012625,4.0532193,0.7588606,-3.2183766,0.5247933,0.4465158,3.9262812,22.395287,3.4496348,2.3342147,-3.5626523,4.624822,12.552579,-2.5993075,0.13423575,7.9177337,10.172801,1.5604979,-1.7112123,1.2174592,1.281971,1.9444251,4.3010325,5.5523567,-6.875867,-0.37343717,3.3647027
architecture_116844.jpg,38.744797,5.821417,4.73558,0.30544847,7.62905,15.327832,3.9225764,19.885365,5.759305,6.0044475,17.13621,0.91046077,19.690083,2.9589467,3.7581303,2.9335155,1.6729537,8.771473,6.233019,9.73702,3.571333,0.48718584,-1.1818012,8.888279,10.88069,0.9655,6.0111675,-0.011884421,5.34811,6.8534875,9.45889,0.8756209,7.8704395,3.5910885,1.5169002,6.789907,5.474604,-1.153164,16.257198,-0.72410774,8.762787,2.1649013,0.12797639,2.272781,-1.5558829,5.873085,20.423857,5.8066707,-1.2573855,3.4981549,2.9765236,11.687516,3.9613192,-0.17039907,-0.7263042,12.142806,1.5155935,-0.89118946,5.401076,2.556261,3.8369946,12.723075,9.391364,-3.2312353,2.097423,4.1447544
architecture_117083.jpg,21.841,-0.97110623,2.129602,6.762851,5.205663,13.702109,8.523898,19.435163,20.24398,6.9136677,17.121178,11.194296,11.454264,13.778891,5.7532983,5.0901146,2.981952,4.120882,7.2764397,10.306932,3.431873,-0.9996362,-4.144026,1.6984417,12.524865,2.6315536,4.6570597,0.078171864,2.9919453,9.215091,16.36386,8.355515,17.683857,10.22848,0.35778847,1.4040146,7.5153155,-0.8982534,7.3897114,-6.3465714,15.578548,-1.5026542,16.081585,7.0084295,-0.02463404,0.36428022,17.857885,7.2194495,3.5044465,3.5581808,10.744879,6.4154773,1.6670041,-4.1682467,-0.21864417,17.22652,5.0511208,0.50692976,2.174855,7.888451,3.0514355,1.4484067,1.9264181,-5.438434,0.9212199,7.921905
architecture_117161.jpg,28.060282,4.806491,11.922337,-1.8504761,7.1645923,22.910395,19.86766,22.288147,11.901361,13.845386,6.2227497,-2.6897743,24.636715,2.8967981,4.802717,-1.1788563,2.0533476,4.5325356,9.435029,10.122876,15.730649,4.605942,2.909929,3.6322885,7.749591,6.93397,6.01897,2.0126295,-0.3976133,0.49545485,5.917591,7.6056376,9.159511,4.999878,4.505151,3.7275307,0.15590155,6.895884,3.2462234,-2.0375402,-0.748896,3.1273644,2.243357,6.117002,2.0689757,-1.4499785,16.376476,6.033578,3.6417642,-6.536212,0.6691853,19.211056,3.811566,3.0865078,5.8613324,2.8066926,1.9243827,-3.0957115,2.0374694,-3.618651,4.545877,4.521838,4.888929,-2.794116,-0.9113183,2.0316691
architecture_118605.jpg,20.140747,0.057912573,5.197627,17.420734,-1.7709274,11.866364,21.338139,16.834276,20.91531,4.618953,10.022357,9.419535,18.594696,8.106575,5.5215344,4.80398,-3.1610131,-0.74560994,2.1669223,5.886455,-3.9951031,1.085151,8.987214,3.4835339,4.8642144,-1.022136,4.3635225,1.300973,2.4782152,-0.7665386,1.650994,1.449071,15.98062,9.05632,0.066850424,-0.21036583,6.7710595,-2.9652,13.942417,-2.6587574,7.614394,0.8411242,0.19337974,2.843397,3.664561,0.2381891,20.183203,6.7508535,4.522913,-1.896745,3.0890002,9.013457,8.948472,3.252098,0.92097336,10.512605,-3.7488081,0.89912415,1.519107,5.9899187,1.8934277,12.834075,3.9059787,-0.15082578,-1.8023672,5.2739077
architecture_11894.jpg,34.18291,11.027042,9.651605,5.685666,8.805462,13.756347,5.2701344,31.438082,8.605383,6.5873675,10.753328,0.3363188,27.057642,9.239688,2.6914456,8.671807,-1.6019765,4.288475,16.022587,10.463231,4.5179,4.281733,2.1377943,-1.262782,9.734593,0.41802227,1.2088947,3.6658351,1.3930814,-0.06993008,3.4322183,2.589378,11.598052,4.3449864,4.9949555,-3.385726,12.221732,1.0287857,15.179067,2.1747432,8.272697,-2.348157,2.321534,4.0436616,-0.62761885,-6.3629684,29.026926,7.8514323,2.8915877,-1.8401165,2.1427228,7.688307,4.064682,-1.2808588,5.4252944,7.337007,-3.993322,-2.8583727,-0.20564961,1.98633,0.5582193,6.106271,2.660871,-4.144659,-5.3069396,3.60502
architecture_120487.jpg,23.737526,4.6968803,15.155411,4.211663,14.822382,32.414097,6.6236787,11.967115,6.6391563,14.494719,5.089473,1.3811361,19.786398,0.91654724,4.7460546,-5.0832505,-0.56738406,1.5311465,4.9132075,9.265657,24.830252,11.729079,2.9906657,4.725763,5.906791,3.5077267,7.723555,8.497119,1.1755908,2.7416685,0.6784336,3.219951,13.5526705,11.140956,2.932449,1.5296655,-5.2019105,2.0042126,9.066069,6.3713155,8.182797,2.16351,3.9412537,4.8564816,2.5882297,-5.8899255,13.277785,-2.8249521,4.159371,-1.2754314,2.2672105,14.015454,3.486685,4.4453073,8.273221,7.627846,0.5805185,-3.6321857,3.7458088,7.224945,-2.3667758,1.9915637,0.8238109,-1.8313888,-0.08145264,4.292527
architecture_121303.jpg,32.363037,4.40005,14.71474,0.5122965,13.9937725,12.513426,24.896484,20.801085,11.317724,9.532707,-0.8591125,3.7114122,26.041302,3.102497,6.4712873,-0.46116915,1.1240003,6.385325,6.590283,12.772593,17.447622,6.4382143,12.076299,1.771601,6.323169,18.445908,10.289445,4.3206506,-0.91327894,-0.8126383,0.9050664,2.3322449,4.982336,3.838265,3.4731488,0.22244705,3.7731264,4.771609,9.859684,3.0276237,7.7640815,-1.5371804,2.8455985,1.7105182,-1.099881,3.559365,15.3442335,3.0233493,2.7722864,-2.5748198,1.848138,22.368162,5.161364,3.4960337,9.523102,5.825054,4.903446,-2.6035295,4.591295,-2.1957421,0.027332477,5.776442,3.0834997,-2.66125,-2.8134112,5.5858536
architecture_121341.jpg,24.328215,1.1863616,18.428642,3.2365594,15.168651,2.584602,10.256475,8.784403,12.178161,9.681867,4.0185704,7.908588,31.20294,3.013445,5.9434085,3.1075075,1.8074255,1.6782738,5.3849826,0.88473207,10.146618,1.1778928,4.8829103,1.1248958,8.000282,6.817238,1.8311217,3.6042988,0.28082842,5.656716,0.4295147,1.7425798,4.6104894,7.149731,-2.1945527,2.3716402,4.6860514,-0.4083516,11.263344,-0.39049038,10.881518,-1.7481016,-0.13347296,3.2467003,0.4229906,4.699335,11.5548935,4.9167385,1.393359,-4.1414704,1.1974103,11.673301,6.0822115,3.649228,6.23433,8.288978,2.0697942,-4.5206695,0.67609686,4.5336866,-1.6496477,15.942984,1.583905,-4.0308795,-2.3448203,2.6603951
architecture_121542.jpg,35.38435,5.361478,10.430496,-1.5682241,7.505927,21.16421,24.365211,16.038906,11.126779,15.823664,-0.84628004,-2.1507328,24.493181,7.730192,-3.1858318,-6.9485917,5.1435513,5.5493655,6.7466445,12.972501,15.158072,8.926977,12.751217,6.026049,5.5886874,4.7777634,10.778409,-0.77111053,4.0463104,1.3803995,11.567918,4.108718,3.6616087,0.8844198,0.06445849,3.8313231,4.8255024,-0.584148,8.806441,-1.5436536,2.3975646,1.82137,0.6674526,6.581369,-0.6923732,-5.391991,20.76325,2.817082,2.0378761,-3.2474267,2.0406191,22.231174,-1.1079669,3.2442763,5.150306,3.4048498,-5.6791673,-4.035591,2.5683267,0.03400757,3.0326836,3.160071,2.785275,-5.80167,0.5201386,5.121175
architecture_121545.jpg,36.101677,-1.4858695,5.4224296,-1.7453767,3.947296,9.457805,-1.6245291,15.266991,-0.24775611,7.0407243,21.786604,-0.026743487,21.454113,3.748912,1.4102405,-7.1481695,4.8038273,2.6311035,1.2664542,10.1055155,14.724798,4.678312,6.0650563,2.148975,9.992496,5.424821,5.960713,-1.871566,-1.8542737,2.196981,10.633352,-1.5858935,24.80871,4.756945,8.683879,-3.6012974,12.893035,-3.7109098,17.536453,1.8734753,9.0909195,-2.8251038,-0.8519832,2.3455825,1.3845357,10.674993,30.160078,-0.15767549,1.2427677,-1.2623386,-1.2410492,9.732067,5.9903607,-0.4657548,0.6476171,5.338971,-5.7713313,1.0283318,4.0368457,2.760505,0.37237507,-1.5179832,6.7692122,-0.6597534,2.5760186,7.2885046
architecture_121879.jpg,17.748962,20.71849,18.01363,2.6372728,16.255596,23.236032,17.168608,10.822016,9.243383,13.525516,1.5406947,0.45213178,23.39439,2.3874753,5.756263,-5.3269877,-0.3431365,-1.7012999,20.189384,5.089078,23.765144,32.48571,8.625469,2.3630717,2.7300467,6.767878,3.0792837,5.707665,0.2772928,2.2440214,0.8555307,2.7119582,6.5380344,4.6488657,6.907132,1.3476909,2.6048045,6.346035,11.15501,3.438794,7.9901776,14.623679,6.13202,11.348261,3.085125,0.30250168,17.741367,0.58434093,6.7203603,-3.5446897,-1.1771331,17.819426,0.591521,1.6197972,12.868301,1.8646224,3.1550078,-0.57885,2.3289037,3.2931538,6.6070414,6.9967175,4.5309634,-1.7736167,-2.6547573,2.623668
architecture_121950.jpg,13.37603,-0.06505456,11.246434,3.8901494,-4.241229,17.335974,15.886037,11.356137,23.91776,4.9941034,12.038758,4.4195523,8.474524,1.2260222,18.613234,-3.56327,1.7471571,-2.3619826,8.073129,2.0235648,7.5574145,6.5545397,1.5206727,-1.2482548,-0.26403803,9.207106,6.1483254,0.23241983,2.783659,7.8418016,3.0167608,4.8109775,5.6738486,-1.3913395,2.8067348,-1.1246654,1.0466262,0.7678032,10.539887,-3.0137432,8.119634,0.33047682,-3.047384,2.827121,-0.22842504,4.5521064,8.443638,1.322448,2.9077246,2.2937684,9.883265,13.442164,-1.5024785,6.7786107,3.4591317,3.8942688,0.77316964,-3.3921533,1.3787595,0.74349177,-2.4826536,2.8280087,0.04822924,-3.4836557,1.1745272,0.34081835
architecture_121999.jpg,18.43607,5.540753,23.67641,8.895714,4.177346,14.864916,17.567892,7.5720587,28.109705,6.988647,1.9018719,4.4773664,11.441792,3.6700513,7.491219,-3.6063817,1.6565309,2.4635708,14.64218,5.033492,19.242691,8.52995,-2.6233811,3.2090278,2.2328515,9.090556,8.227434,5.7211504,5.2008076,6.8119707,0.44699925,2.4512806,6.9051,-0.4333564,7.736854,1.5959648,-2.5859306,-1.3329264,7.4800296,12.541153,4.257782,7.6874247,0.058485474,11.571136,3.779767,-2.7879982,5.2155776,1.8982764,2.2767026,-2.9071004,14.76837,25.414536,-1.3705392,7.800437,1.4990538,8.95418,3.3665445,3.4004889,-0.71395636,1.5147377,2.8756182,7.1217113,2.1643794,-2.81882,2.0510561,-1.29988
architecture_12227.jpg,15.593002,7.096905,19.242027,9.572457,5.6130548,17.731976,6.8246484,32.603283,28.654226,2.6675024,15.142712,0.8475665,7.4441814,-1.043367,11.110887,11.727695,-0.9116931,4.7481604,9.439861,11.806539,8.696775,3.9409974,0.659353,4.9300723,1.9898176,6.521304,5.3666625,2.6449907,1.8264158,6.296529,12.230715,12.2214985,14.089246,-0.9437481,5.1453667,-0.74651766,-3.7425213,5.2951703,13.657233,0.8892185,3.0142682,-0.94712675,-1.5025367,9.448023,0.45366436,3.6253738,20.671175,9.773896,10.894281,0.15005735,6.796694,5.3272033,-3.0320222,2.858711,4.2520566,6.2707944,0.852903,-5.3422427,2.888677,-0.5311098,4.3171263,4.797647,1.6987326,-3.7879202,3.1227825,1.5279124
architecture_12231.jpg,32.7824,10.059303,1.7919441,0.13149175,9.257318,11.200675,4.1514387,10.36195,-0.6137683,12.292468,4.4737267,11.687521,29.455742,-0.8493139,11.717014,5.812636,13.870997,0.5641694,6.05514,10.092324,12.934542,2.9056768,-1.1064066,24.832893,17.90308,5.4850287,4.590186,-4.665522,-0.8713359,3.195311,16.417429,1.6980991,8.363371,0.948493,-0.52018327,-3.8351846,5.9851847,-1.8795155,26.996569,1.0418109,7.036405,0.6349669,2.7908297,1.578935,4.847604,5.4579244,18.665127,3.8371701,0.24639615,3.2352355,-4.2130685,23.340126,6.848885,-1.504675,3.4368236,0.95344055,-2.864316,-1.6480899,18.683565,2.6392686,4.187794,0.9047346,4.543699,-7.038422,-3.853006,0.45947796
architecture_12238.jpg,31.893969,6.482435,5.9604793,9.326191,8.231148,27.57847,11.381168,12.842998,7.837343,15.070926,6.427972,4.968101,11.465673,25.042952,13.912171,5.0639873,0.6567054,6.2280207,5.0663233,4.0377507,6.7751513,7.4341283,3.2494779,0.4538842,4.5625405,-5.231688,6.275622,1.3926108,5.636211,5.0820546,6.5998173,7.206221,19.985804,8.817746,0.09993529,-0.8455018,12.634868,13.397008,2.3256595,-0.12001507,1.4126843,-1.0252208,-0.18058862,4.903318,-0.29292744,-4.7099495,16.104422,11.312698,-2.8485372,-6.7900443,-4.35016,6.3142276,0.79471505,-1.2793045,3.6376424,3.6961398,2.421544,-2.7231002,1.202082,1.0052094,7.460834,-2.4964802,4.1276536,-3.1960957,-4.5140553,7.546776
architecture_12282.jpg,33.585663,4.265132,10.270448,-8.124755,5.3036613,12.360183,7.6679587,8.988869,10.543698,22.755325,7.0735617,0.7104561,19.392506,11.865049,0.06889496,1.6406592,-3.777006,5.4734,1.5768538,15.494819,9.904607,-6.283221,7.078453,1.0782113,11.296921,8.218069,2.6357458,-1.4372286,1.3119764,8.393803,11.076691,-1.2511038,22.419575,9.095858,8.502792,0.596786,7.283592,9.137459,12.006591,0.39209312,7.0575094,5.6354585,-2.6484647,0.845724,17.466171,12.424273,23.21747,7.3654523,9.356599,1.1547881,2.512388,11.506538,2.1622021,-3.3145535,-3.1090765,12.865599,-0.029979413,-0.13109735,10.557822,1.9566653,1.6162058,-6.3973417,4.3194466,-5.5587745,3.9903257,4.890659
architecture_123051.jpg,16.521273,3.774643,5.031799,5.897913,1.4984154,18.020357,16.47681,13.409245,28.72571,5.6081834,8.905146,7.9163117,11.423969,3.7479565,4.5675745,7.023494,5.037879,7.022234,4.524176,6.388373,6.7912927,1.2436103,-1.7760586,5.0656934,13.796976,13.64771,12.619355,1.4143897,0.024130754,6.3764296,0.4031432,8.115,7.4760623,4.584603,-1.8985817,0.61622,3.632176,3.4766052,6.249234,3.9244401,15.569014,-3.0349805,-1.6838394,0.6928618,0.9313776,6.627848,11.405258,9.254151,2.4434333,1.5332224,4.52329,19.277868,3.0859194,2.0738137,-1.2369236,14.6847515,2.205607,-0.028995331,0.70872074,5.566358,0.15120813,9.849458,2.309671,-8.743797,1.3733625,1.9082036
architecture_123096.jpg,52.0927,9.239392,11.568321,-3.639833,19.884367,21.010458,9.753916,6.3041677,0.18288046,18.242949,7.06776,1.6819954,22.503939,1.3619798,-1.1168945,-10.990573,5.0773726,1.3801845,0.3682679,1.6632478,16.635427,4.0442076,5.3567996,6.929517,3.742216,4.2413974,1.2300664,2.952973,6.1424108,3.1510446,1.3982471,3.6224532,3.9442518,2.8674283,5.2987957,2.3189192,6.6011524,-2.6026945,3.1778443,5.537646,-1.8521312,6.8550944,3.0333772,6.992908,5.139078,-2.0765293,10.456969,-3.023523,7.5761633,-1.1211729,2.296227,16.436361,2.5183663,-0.0033900607,9.478278,4.664525,-1.4676714,-0.6787172,4.6407995,0.756352,-2.2817526,3.9272976,5.640541,1.6103288,3.8296177,1.0527264
architecture_123530.jpg,29.86452,2.8029866,-4.0680847,11.903259,1.9287968,14.478101,19.155724,29.495182,14.709069,-0.34534478,17.033148,7.369712,5.1723876,2.8179147,5.453824,-1.049099,-0.2581465,-2.2762227,11.109293,8.3396845,1.7746766,2.7444503,7.725902,0.7551754,1.2586267,3.8762815,2.5485988,-0.26713684,3.5176985,5.277773,7.5051417,6.0635905,9.186686,2.9775534,3.7623498,-3.2556493,6.3525386,4.712935,11.5015955,0.9001361,7.1788774,2.1188536,-0.020403787,4.2234287,0.40092057,0.92858744,15.8499,10.945707,3.228504,3.1481333,2.4461682,11.722612,4.975795,-1.4759156,1.9589677,6.2900157,7.1999846,-2.3268175,0.33816904,-1.1529121,3.2078013,5.60586,3.4247174,-3.004222,0.3361783,-0.027837232
architecture_124084.jpg,21.854221,7.4049897,11.204697,13.562654,7.180238,23.123526,20.19815,43.907387,-0.073695555,34.483482,-5.0882106,14.134409,15.029043,3.6819718,2.4837456,3.4627101,0.11220742,6.076753,4.103547,14.740004,12.692788,5.7580705,0.37709838,4.704016,-1.3821343,14.710884,0.3085289,11.241456,3.0158114,-0.30943212,-1.4984008,3.4700341,4.0257015,5.882226,5.688999,0.2774566,-0.45927736,19.283703,4.024682,2.4021497,3.0136821,4.97298,3.7531924,1.2023365,-0.36847275,0.4364565,13.103245,1.3984802,13.842459,4.8096137,-3.1485808,6.8912563,1.5597007,4.177994,27.358627,-1.147151,6.821333,1.2745025,-2.691763,-0.044293143,0.9747019,1.7385641,-7.1043925,2.2510805,1.6671396,-0.018844754
architecture_124656.jpg,10.713252,4.9486933,52.91502,7.728504,13.943061,5.252134,20.532736,14.831513,6.726179,1.1976017,6.0665073,7.0541844,13.318534,4.457768,0.4936411,5.6683607,-3.1957202,-6.164573,6.1371384,-0.7945723,7.5796885,4.8877563,-3.9880884,17.346941,-0.8827766,14.467485,4.7339973,2.490836,4.935824,0.7224679,0.47283584,5.7933483,-0.13525309,8.312937,2.4963605,3.6733806,5.8008356,-2.262925,11.713275,0.35064435,2.1747425,-0.7373603,5.969488,3.0278687,-0.3720955,-1.302866,5.3186088,-0.5844836,6.796981,0.2869496,10.566081,10.441038,2.434979,8.405306,7.5045214,2.7958255,2.975731,2.0265658,1.6293648,6.4003453,-0.7013674,10.121049,1.4877079,4.0479627,1.5046394,-1.525209
architecture_12475.jpg,49.193077,1.2633384,1.4083675,3.759939,8.98371,25.60533,9.380326,18.847406,4.331389,15.93051,6.86232,2.980036,16.016277,20.620014,-1.8252717,-4.292985,-1.0810556,2.6021695,5.961229,11.118226,9.090196,6.1964207,7.932739,1.1909848,5.857736,-1.4753877,9.205675,-0.06700614,3.802518,1.2397279,12.193117,7.3443055,21.920378,9.768313,2.3294084,0.20340616,7.5205474,10.693516,8.066169,2.4350464,0.47914395,-0.21761739,0.34062624,4.406221,-1.5943687,0.7408197,21.133083,4.0621867,2.906676,-3.2438478,-0.6284272,9.829192,2.0713894,-1.2313787,-0.94635856,2.5395947,-2.3254957,-1.6615756,0.35323238,1.2973506,5.0504894,-5.1550555,4.27321,0.43807718,1.2359797,6.046021
architecture_124924.jpg,35.845276,4.9759374,11.119731,-2.5319912,7.771732,20.113686,-0.8647684,19.454979,6.9981866,20.827057,2.4853027,-3.8708124,29.144403,-4.324914,6.546925,0.25316393,4.52462,7.5015674,41.034245,15.430527,18.028322,-0.30423534,7.302414,0.8429489,8.621666,2.4478927,3.0016606,-1.1621174,-3.1607494,-1.0445503,8.808238,-1.17503,12.128444,3.7072618,4.7763844,-1.0373914,4.503022,1.0974599,5.8999887,4.1852136,2.722208,2.1006496,4.431142,5.735134,-1.9729744,-1.3539312,21.048296,13.631776,3.404899,-1.1743987,5.5381336,9.863223,2.099397,-2.187496,1.3647588,4.1743264,0.70453596,-1.8598043,1.4326779,0.23344135,2.3156648,1.1054558,4.0570183,-5.888654,-2.988312,4.0962415
architecture_125693.jpg,12.442457,7.702285,12.418954,0.30880705,11.165792,16.654148,24.401396,20.940905,10.120032,6.783472,7.5176096,6.9151073,20.62139,9.700443,5.958177,4.1528687,0.15613288,1.4914945,10.93446,2.897894,2.8431826,2.207797,1.584848,2.0861459,5.137307,3.495129,5.435892,10.092052,10.477948,2.107675,2.9788046,6.665644,4.10176,5.116574,-1.8101606,-1.9975827,-2.5123353,2.427245,7.4397826,3.5753067,10.409371,6.8456464,1.9340488,1.5396365,2.7914987,1.7087247,12.238368,2.9185014,4.3932357,3.3742142,7.889349,7.2985163,5.570021,0.5620769,8.185931,10.204211,3.7580934,3.2184656,6.317523,1.4919231,3.5339892,6.355507,4.2880692,-1.9344743,-1.091361,7.5992985
architecture_125969.jpg,21.509111,11.781383,16.377192,17.699963,9.512914,18.263826,7.22252,15.786566,-0.591291,5.389998,1.118256,7.2565327,18.659063,14.078074,13.601144,1.3782587,6.320712,4.4475555,23.77069,7.8342953,9.432438,21.097673,10.616005,10.857509,-2.995345,-0.44708103,3.745649,6.846866,6.462252,-3.3062916,7.09216,2.7127776,18.609465,3.0694962,-3.56885,8.900358,5.2351074,-2.6696892,20.738531,5.3033323,8.577008,7.3904767,-0.06151609,1.659191,7.55438,-3.043216,17.446207,1.0883784,0.36196876,-2.0622618,-3.0313976,4.935556,3.4964342,-5.542309,1.7584985,3.03174,0.35515448,-2.3000557,8.708836,5.3488827,9.988336,3.49184,5.055449,-2.136929,-1.2504512,7.254807
architecture_126018.jpg,24.185122,9.964092,9.21436,2.6046941,1.4551897,7.957505,10.066679,24.623545,10.117995,-3.6580086,11.740314,1.8820815,20.031336,11.533793,8.719054,2.827959,1.7186403,6.7034736,15.064104,4.0110455,4.426913,6.107313,-3.6180406,1.966881,12.046975,4.8560023,6.210962,0.6986781,2.329321,-5.658885,10.212877,1.1495758,0.9460166,-0.7861722,-1.7665908,3.9503784,3.7024126,-3.8711033,23.99761,-2.6580882,6.997273,-2.9473016,-5.4357724,2.3210638,1.2169136,3.0176313,20.530611,0.945335,3.3230379,0.8457114,1.8413606,13.069375,4.880333,1.1021355,0.8297421,9.100092,0.34079385,1.285827,1.7052717,1.0490354,2.932142,9.504532,4.7184796,-3.391532,2.4203532,1.0767381
architecture_126188.jpg,13.222897,5.7339497,17.842207,6.9494658,12.078779,14.730798,24.114727,12.860009,17.040794,10.795351,5.261754,5.242746,16.69019,4.4049277,-1.516313,-1.524189,1.0504044,4.508488,5.7427835,9.364255,-0.6106955,7.392033,4.6053705,10.558685,7.3538213,0.93425083,5.0654454,1.7472546,4.7975645,4.2343187,2.3376954,0.9901173,13.448222,10.490227,-0.7653193,2.5422952,1.9867269,1.9512285,8.118113,-2.1687994,5.779732,3.6105237,1.3227235,5.1080747,8.008398,4.1791925,16.151367,3.090135,5.455018,0.14733411,2.9994953,12.811184,7.2344856,2.8107648,1.7901253,6.262064,-0.5162927,-0.010283693,6.498966,5.1623516,-1.6024774,16.663729,2.3840542,1.4195478,1.7458735,3.489716
architecture_126202.jpg,27.454397,16.160154,23.539635,-6.3814626,6.821987,4.1413627,3.2319899,17.012358,-4.8484235,2.8355625,9.545038,17.539543,24.859486,11.792907,1.4248179,6.408672,2.374109,2.8652673,4.8498588,5.516386,7.472371,4.6222696,3.4197197,16.816591,2.1445475,4.939112,0.7216922,3.9302542,-2.3698106,5.427818,7.5107484,3.5284183,5.2014036,5.1706285,3.0143874,0.69517475,2.2117167,-2.332905,32.666924,9.259992,3.354125,-0.43048412,0.45089772,-0.55106765,6.8988853,0.62773377,14.375171,4.2736874,6.5938845,-0.09800438,1.5524709,15.280935,7.242623,6.816402,5.4022303,9.483223,-5.699046,-1.1683207,0.5829867,-4.639757,1.2920983,5.5271325,3.9855893,-1.8301759,-2.2321126,1.9554805
architecture_126283.jpg,28.593735,18.979021,6.56252,-3.532958,7.275185,8.8309145,17.024782,25.58562,9.173209,5.80893,14.551349,10.481234,20.350098,17.171343,1.520398,-2.6145785,-2.348296,6.184368,11.274063,4.9026427,4.0765176,6.618832,0.5760839,11.327741,6.315039,-3.5555987,10.155396,0.14587697,6.5260706,6.02247,7.715139,3.0182827,6.508614,2.2843056,-1.9005123,11.975747,1.6747149,-2.3618355,10.381056,1.4564278,11.830098,5.354894,0.5618917,4.6940618,9.815119,8.274578,16.44031,3.7335112,-1.470357,-3.6579397,7.564224,15.711014,1.3733734,0.67665035,3.731031,12.2125225,-0.33166572,-0.4072624,10.608442,2.863447,1.6550945,5.4560757,0.5499875,-1.1222744,1.1586685,0.09358283
architecture_12632.jpg,13.968881,8.620662,9.930225,5.4540734,43.96084,18.536417,5.004757,18.558174,1.8031143,8.368576,6.5118604,18.239195,26.989403,4.048352,1.2438947,3.3035495,-2.9871144,3.9925199,7.169481,9.105909,9.535372,-3.4352705,-3.7525024,4.8140087,3.5596437,0.6123256,-0.9368949,6.2050962,4.9482846,0.947646,2.5030558,1.1868756,7.7380924,10.621551,7.866441,6.5684094,0.5520319,2.6544266,7.273348,5.3351526,5.1318464,11.557652,13.863164,2.069272,31.589497,0.46071568,6.096992,4.097243,4.759027,1.0611103,2.839243,10.432736,4.3869233,0.2718346,1.5184898,3.543549,0.6162811,6.580423,9.970659,0.8196049,3.1097271,-1.5014275,4.575913,-0.04270286,-0.7011298,2.929137
architecture_12757.jpg,38.79908,-1.9561781,-2.568812,6.351976,2.726812,32.781635,5.4556546,12.591817,3.589944,0.4873488,18.126259,6.5171943,13.673748,16.204512,11.513059,2.7621121,2.5541742,11.399139,14.766784,14.954476,2.719184,2.636537,5.114923,2.0295522,4.6705856,-1.7063029,8.227237,8.231035,2.7733028,1.8386166,6.19266,1.5811667,17.443583,5.520634,1.495251,0.7719175,5.442125,-0.7418895,13.94573,-0.6544936,19.34423,-4.4060307,3.0662444,4.4852257,-3.837058,-3.1973646,18.914059,3.20949,3.1260426,3.4268975,-1.1391613,10.500646,4.0054092,-2.0627136,0.3180124,8.352274,2.8452,-0.44590542,-0.5540659,10.311047,8.520265,6.0009813,6.144221,-2.9362712,-1.813133,6.6599207
architecture_127982.jpg,32.03635,6.621847,3.9332037,0.4376648,-1.7970492,26.480984,10.166471,18.933102,0.26115313,10.182726,8.427343,4.683579,11.968867,-1.7672638,3.619402,-8.387383,2.4551566,2.325973,-1.7505378,6.2695346,18.906113,11.718009,-2.1750836,7.1475058,5.28576,8.460576,4.610795,3.324579,-0.755623,-3.0622709,4.632717,2.9038544,4.2275715,2.8756738,10.010321,-2.3935206,2.5070667,-1.7873675,7.3450594,1.6941013,3.2375827,0.5751075,0.3802605,3.8380206,2.0880895,5.8647857,16.082823,-4.89501,1.862886,-3.0244014,2.850145,17.17892,4.48948,1.1423979,3.2614975,3.5874193,3.6819787,-0.35082725,1.0732945,5.3941207,-1.5142292,8.085513,1.771,-3.4599922,0.11685956,-1.271449
architecture_129253.jpg,18.558563,8.803499,4.018675,5.84892,5.9033003,6.4742436,26.738441,26.7616,6.05977,5.2928524,11.120842,11.548542,20.53208,1.5197849,2.3368297,6.47249,-8.306591,5.6591296,8.882089,9.038117,1.6487185,4.5033298,1.6054677,4.8945255,8.833926,-1.3735621,7.276636,0.44631743,1.2260048,-2.9410076,3.155186,2.705748,9.894781,13.988697,0.73401403,0.023250561,5.1944976,-1.4357667,8.882741,3.738508,11.933355,1.8567404,-1.0316997,-0.8950364,4.814237,15.072913,13.777511,8.1128435,-0.3760188,-6.9922285,0.9742229,7.6562457,10.693624,6.682873,0.85504633,15.687505,-1.9475622,7.8697047,1.9424688,0.5162484,0.3264521,16.088612,1.6021552,2.9182239,-2.994027,2.5791876
architecture_131154.jpg,26.36333,8.611905,16.716839,3.6980696,20.623098,3.4547324,10.431275,10.735931,6.033377,15.0203705,7.0530167,2.8984876,37.35851,43.27765,0.4032177,3.2454042,-2.7755196,-3.9773707,4.5787997,-4.477723,26.313612,4.3423014,9.676113,2.8794372,-2.8370016,7.3669567,3.8719409,5.183563,2.5424442,2.7192154,2.6403162,5.494685,9.844337,7.233781,5.046794,9.925026,0.46512997,6.50021,1.8347714,-4.335854,2.028325,4.734672,5.868628,9.482681,1.9234575,-2.1268632,7.0528255,0.9330176,2.3572695,-2.3098943,2.5583432,10.431612,-1.9342018,1.8560774,15.5195,0.21982491,2.2776532,-0.30316687,3.1610072,0.7607361,7.7777567,2.1884794,10.052178,4.85517,4.748615,5.8562794
architecture_131279.jpg,48.004684,12.216854,3.5394783,16.3165,3.838594,-7.1147614,7.9023585,3.792178,5.0919538,16.084057,-8.176986,8.529736,5.2192006,6.0404344,-2.7383971,6.0372257,1.7079558,-0.1751516,14.191677,5.5779004,13.2779045,1.2101989,16.858006,3.6430657,4.9932404,11.569069,12.648532,-0.5585386,-0.15905964,6.257378,0.3087352,3.4740062,0.15541278,1.5568767,7.916151,8.5791,27.904135,3.5487838,3.9516785,4.97924,2.905953,8.519138,0.496557,5.7839894,6.844187,2.0017073,9.374099,4.9917054,4.35737,1.5742173,5.405103,8.686897,2.7528758,3.3835013,11.593708,1.5319462,7.61215,11.037786,5.9761057,1.7534703,5.01633,2.0423675,2.1993682,1.9618922,-2.175012,2.902072
architecture_132258.jpg,35.434826,3.5095348,9.894449,1.330689,20.47546,17.794138,7.8779073,17.062834,3.1033616,10.635455,6.5588317,-6.5474315,36.384003,5.461183,3.7212465,-4.4183416,1.6739378,3.0029113,2.1855953,2.1416256,10.557319,12.267503,1.7378035,1.9040736,11.686636,7.6853623,13.564899,11.992153,0.4294389,-0.54164016,4.146993,3.8234339,-1.5998904,4.4530373,2.0258625,1.6075959,4.175267,1.7684181,8.879404,2.4099667,1.9045945,-2.3725278,1.8340774,5.6114225,2.3414226,6.501472,15.14003,2.065625,3.2637038,-4.652334,-0.5301713,14.055512,4.002842,0.7620855,17.08706,3.4120173,-2.0338876,-0.8393296,3.4878778,5.515115,0.5060958,13.28968,2.1985037,-0.24766028,2.496974,3.2632098
architecture_132921.jpg,21.044228,5.904917,19.21075,9.496479,9.200117,12.995747,13.303561,27.095076,11.907131,6.085123,-3.994296,3.4706864,20.767078,5.354573,4.1885457,-2.377064,-0.23482162,4.7962165,14.115681,7.5426564,2.5601838,8.3893585,5.993452,5.6070313,6.650466,1.1987795,6.286722,5.4288116,-2.6831334,-6.5408907,-0.9576724,-2.448865,5.1470275,4.8098907,1.3739145,-1.6452488,5.1568604,-0.33481258,10.970244,0.227451,2.5926237,2.0575523,2.281246,7.0989423,4.1481214,-1.0868436,16.221151,8.581937,4.3839087,-1.1545273,2.8857987,16.762466,5.0560813,2.8960705,6.1771097,4.353972,-1.5399075,-3.1830099,3.6566832,3.3442118,1.3269597,8.680188,-1.332756,-4.0662503,-5.7471423,3.7978246
architecture_1330.jpg,38.974247,20.034973,2.349155,-2.0152936,2.777315,9.902492,3.8792346,18.868565,-2.9452431,7.2790027,13.385272,3.6067326,21.498083,20.860424,1.1869729,-1.3908626,-7.2716966,18.180994,11.91618,12.219271,17.119291,7.315054,-1.9783405,7.1697183,9.219403,2.9777336,-1.4432257,8.454231,-0.9101091,4.9218535,17.303429,1.2750075,7.66415,2.823325,5.977888,-0.7619638,-0.1866688,-5.0140886,22.01185,2.2414067,8.061297,1.2792917,-0.96143997,7.1573725,2.6130424,11.671354,14.360001,-4.6580067,2.2795963,1.259978,2.8266292,15.709318,1.6449455,-2.4116046,7.672013,2.3879714,2.5867152,1.7932076,3.2776687,3.0296657,5.463979,1.2316964,6.643895,2.2004395,2.7231846,-0.48824075
architecture_133120.jpg,41.918045,3.144045,11.141745,-2.3535335,10.730398,20.374887,21.090431,15.092701,3.8722239,18.832836,-6.0452733,2.4430175,32.72988,-0.4685559,1.7685546,-9.044356,9.193717,4.622358,1.921626,2.6427386,10.658765,4.390474,-0.33855674,6.106406,9.028485,5.508778,13.333699,-0.1808534,2.497315,-2.4849744,4.0941887,0.8630835,6.344467,5.4195232,1.0769295,2.1696308,5.0605893,3.1337407,3.5106778,0.72121346,1.8565499,-3.333597,0.9489902,3.031382,1.5742354,0.29430556,17.706844,-4.4740057,-0.21113814,0.6392708,0.17341441,15.32174,2.9195364,5.1399255,13.443571,2.8047855,-2.2803144,2.356942,1.6337461,-1.7797947,-1.6148003,3.7772913,-2.7408445,3.1344001,-1.1823311,2.1070848
architecture_133716.jpg,24.396845,2.6509213,12.773818,-1.4969462,15.227435,14.919874,13.138136,23.459621,2.8774486,20.844675,4.4102197,6.8502607,40.206104,4.092659,6.5920553,7.9331427,2.0684667,1.0874171,1.7000519,6.890422,8.382999,-1.27919,0.4297411,4.039368,6.9550953,5.914425,-0.6503024,5.4441977,-3.5904326,2.579774,1.3825086,6.3176365,8.022491,7.5276413,6.741804,-1.7809019,-0.04660338,11.6644745,9.279132,0.9475397,-0.82284987,2.8107224,4.2882757,7.039249,1.8805025,4.732102,17.718592,2.0496237,8.036831,-3.26337,0.9351844,9.170616,2.6833057,9.643372,30.13792,-2.3693652,4.496389,7.6791577,2.378412,-1.4544268,4.3737187,4.240953,5.787741,0.5066679,0.58533776,-0.25536186
architecture_1341.jpg,31.641174,2.514894,1.9025482,-3.2256842,4.127897,24.6245,15.847327,31.906553,9.953603,7.497218,14.514862,-1.7362015,10.021041,-4.9222193,8.312032,5.1451416,1.8403146,-0.5102815,5.2903166,10.796043,11.787194,2.7627308,6.8298655,2.8922095,8.730652,6.741741,9.105642,-2.982883,2.5308826,-0.8868251,9.956291,5.5760713,13.600983,5.3312435,0.0861486,-0.5548903,-0.016477775,9.075732,7.576979,-0.26838276,7.6543994,-4.897457,1.2966791,1.2750763,-2.4832075,-1.1858382,23.769693,12.778333,4.403473,-1.2201562,-4.2138724,13.225672,2.1617105,-0.7960245,-1.8018765,8.063777,-0.82914644,-3.947736,0.053446926,-0.7950468,2.9304314,0.26752454,2.050476,-6.504517,0.33916152,5.256444
architecture_134153.jpg,16.815529,24.052624,7.8628106,1.7347747,3.6124632,15.413664,18.557272,15.378783,6.8191433,10.982857,9.227657,4.478474,15.93655,9.653105,7.338552,1.8725716,-0.61784345,21.379692,3.0131397,9.930272,4.9637566,5.6973915,3.5007448,4.4474363,8.575348,1.3310522,16.046268,4.4613085,5.0951114,5.4065614,6.740845,8.440674,6.676019,1.8658321,-2.905584,5.5259137,3.3011105,9.771479,5.3687453,-0.91187406,3.3543804,3.419678,-1.3671548,6.3341565,4.2550197,10.993357,15.3040085,7.0394783,5.3846426,2.8126976,4.3527713,12.358136,2.3220255,5.6124134,-0.10031946,12.367417,-1.1077334,6.706925,4.190323,0.51849365,6.8004003,8.002796,5.7103896,0.84385985,8.590449,2.966516
architecture_134258.jpg,19.194565,24.560652,16.904732,0.18511581,7.9138308,3.8563073,23.20988,15.756698,4.00367,12.214226,9.867727,6.154407,15.5299425,11.233888,-2.6056752,-0.45911935,-4.095474,6.8498807,14.707123,5.2194285,0.15443987,5.9456625,-4.082609,2.0886154,8.51717,-1.1043574,5.504276,-1.3107822,9.222397,3.5882273,3.9467773,2.8232005,8.647406,3.7384913,1.6502261,5.7992573,0.034113694,-2.5015574,14.654127,7.722105,6.6612377,10.898278,-0.72205997,0.53275174,19.32906,7.81928,16.48243,0.9211416,-0.4182852,-4.9594884,0.4771404,13.521836,3.1422086,-0.26804414,-0.66239226,8.011577,-6.707824,4.873459,9.740198,1.8730481,2.702387,4.790552,0.4880097,-3.9208994,-2.2983406,0.91395414
architecture_134973.jpg,25.095268,8.770106,5.5934505,7.8765206,6.6974244,14.997292,4.7526946,19.281214,5.419387,2.1922536,11.569986,5.3443527,25.597271,6.7302675,2.5416336,-1.177693,1.4500837,6.8893166,37.00178,5.283699,10.012179,7.39296,5.6188416,5.536465,4.6223087,-2.4591722,3.657574,4.3113523,4.2810736,-0.71701294,3.337203,6.034599,5.932287,1.2032622,7.0202603,-2.2152212,0.3806201,-1.5442538,11.824651,0.18215878,2.4324238,3.4345877,2.79103,7.9319825,2.8136988,-0.6553285,11.658549,3.5888422,4.862862,-2.409533,4.0821953,7.4980683,1.59648,-1.0931121,6.957571,3.1889238,2.3774188,-0.10641138,2.9180489,0.304021,3.9740398,7.8566275,5.144489,0.64287204,-0.23908532,6.668043
architecture_13500.jpg,33.96324,3.7410758,7.7191696,-1.6306386,6.851016,15.406227,14.871227,30.481443,8.410724,10.084166,11.22065,-0.050477404,35.16219,8.320368,4.2071514,3.601842,2.4851556,3.314105,6.311716,6.395653,7.804078,5.1970954,2.5714452,3.236588,18.419434,0.75428945,9.568264,4.2422,-2.8712533,0.5373507,9.069506,4.3656015,8.741146,3.3251107,2.9562778,6.469772,2.3383253,4.2201843,7.610704,-1.7243754,5.512969,0.5732904,0.36847907,5.4012113,3.3161542,11.7372265,21.066776,17.696419,5.069677,0.8931857,1.8681145,13.122815,1.9325562,-0.7232341,2.7117946,9.538409,1.1276188,2.9782102,1.4300253,3.446898,4.3944645,8.90294,6.671863,1.0428886,1.9513843,5.3843875
architecture_135428.jpg,35.333473,2.8861737,-2.4213104,-5.2867336,4.233742,26.315004,22.411522,15.954674,-4.0439053,14.844133,3.8177896,-1.9011475,24.698507,14.76695,7.735027,-2.788787,-1.2776113,8.040233,9.144913,7.89728,6.657832,12.0415,-1.3334957,5.199092,7.478212,5.0145836,10.763242,7.896491,2.7361743,0.8354864,5.2888985,3.3048975,3.1853483,4.002417,-1.531009,3.4940553,8.324019,2.046981,17.52004,9.120925,3.1339784,2.8685431,0.06489241,7.6462,3.7439208,-0.889243,18.990595,2.5217857,6.9597034,-1.2778184,4.387902,23.011505,7.0241146,3.0361836,8.619654,1.4705912,-2.126495,-0.14573397,5.3270245,3.042816,6.4425135,5.5086045,0.22176625,-0.46162298,-0.9287675,3.4086995
architecture_13551.jpg,40.992836,2.0211704,2.7849238,-0.7083053,0.88545364,14.495653,9.185081,14.1648245,7.953,20.370745,4.0516596,-0.8067474,19.00075,14.575245,4.6072497,2.5174196,-0.25167364,3.750264,16.741478,19.009407,19.61063,-4.2407513,9.438823,1.1367275,8.964619,6.173676,2.1550524,-0.2444081,1.0756842,6.4450116,13.614228,6.40944,15.9912195,-0.9917877,5.743935,5.2265167,9.201921,-2.6560671,1.8014077,0.95179266,3.3671722,6.5990953,-3.6828213,7.8341312,1.5208001,5.668648,23.92488,7.319759,4.078316,-4.6270366,1.0661331,16.013319,-6.2251725,-2.7734866,4.737826,9.771962,2.6427813,-1.4766417,2.8195827,-0.28001618,5.3204203,-0.8420547,8.098089,-5.996365,1.9500206,7.350577
architecture_135758.jpg,42.31697,-0.18303385,-0.5164193,5.2502394,3.2004132,30.370798,11.735905,13.393608,1.6411583,-1.7109532,11.990583,8.102304,12.57849,1.6973927,11.136007,-5.032195,1.2010168,8.825822,11.8690605,14.845058,5.8275404,11.873287,6.526968,3.9667108,3.6081307,-2.851903,0.9351096,4.773739,3.7094958,-2.721619,4.626519,0.7528742,22.839993,6.672887,0.8975824,-7.371533,0.9823594,-1.2794756,12.635324,3.5053563,27.183622,-1.7028246,4.685966,1.7135754,-3.3164794,-2.7324913,21.925438,-0.18652222,6.0651264,0.47703004,-3.175139,5.311622,2.72087,-3.8667195,-2.9231246,10.542575,-1.1843982,1.5941232,1.6845527,10.115992,-2.3263245,-0.6006405,2.5611486,-5.7518883,-3.3991072,9.047374
architecture_13591.jpg,22.550106,-0.19743443,17.046543,-0.5949823,11.703718,5.8099804,13.369508,21.408836,9.029448,28.926865,3.150385,-2.7694616,34.741844,7.08988,8.552134,0.7892282,0.39153653,5.2532477,30.24509,5.910283,10.31546,8.028216,6.1231027,2.397851,8.383834,2.940122,7.823129,1.493031,-1.239321,2.2893608,5.350844,3.834829,4.0431924,1.9711586,4.7557483,-1.3788025,2.3989928,2.8947573,8.496354,3.4520879,0.6399079,7.2431765,2.216417,4.8335557,2.3216362,1.2898852,14.307735,9.287094,3.6175497,-2.281797,3.490315,8.130302,-0.38619006,0.826552,12.672038,6.5925293,2.5012565,-2.5333037,3.7084029,-1.7658316,-3.6510527,5.2127643,1.9430257,-3.6680293,1.7157506,2.1459596
architecture_135949.jpg,41.179848,4.629449,-1.6103662,6.7748094,4.2114573,19.920061,14.468813,18.42155,4.241195,5.566395,12.620513,8.885522,14.102804,2.0688071,12.45573,-3.2681062,3.172404,10.532082,14.047784,9.392472,8.033411,-0.73113686,4.9178224,4.9688625,6.3484697,-0.86156356,2.6759908,5.3196473,-0.026896782,-3.3287487,3.478141,0.07652878,14.747477,4.901383,2.5416021,-5.5485907,-1.2685646,-6.0082636,4.972481,2.2518773,24.52207,0.6222603,1.7588407,0.96848106,0.44543588,-3.7846885,16.86525,4.5665264,5.4481883,1.3747665,2.4235048,10.793108,-1.2132771,-0.78048015,-1.19308,15.665284,-2.3537657,-2.6099234,2.1686873,7.60755,-0.8191891,3.190024,3.8132448,-7.0485396,-1.4248726,8.85551
architecture_13595.jpg,32.41899,0.36093163,2.4042664,-1.3490285,1.2750957,15.191457,7.1727896,50.693005,6.2903957,8.105478,3.2954314,3.08626,21.958683,2.191916,8.999719,4.4762697,-2.4432545,3.8449514,8.460847,2.9429548,14.1533,1.5412245,3.1092806,5.2369137,6.870732,6.6237664,1.7125907,0.6796095,-3.501394,-1.3400922,-2.7055647,-1.9893799,7.744475,7.1500196,6.776897,-1.342425,8.571769,2.9416106,6.9316797,-0.23226263,0.30549407,-2.4356778,-2.3057323,-1.800169,0.37878612,1.3861353,18.342283,12.403968,7.4967356,-0.5841548,3.1889222,10.3730545,1.4474145,2.4929545,3.0404706,5.200871,1.1479905,1.6985303,0.24058065,3.2230568,-3.4182847,2.729041,4.475617,-2.379536,-3.5771482,-0.5994992
architecture_136223.jpg,32.436638,-1.3078725,-0.58168584,8.106236,2.1436799,22.012983,7.814149,15.072009,1.490275,3.0112348,16.169012,16.204082,8.642042,7.2168894,9.248657,3.4172144,6.57168,5.2366853,19.782522,13.219608,0.30999863,1.1431453,6.2952213,6.4902124,6.4279065,0.7120677,3.1938515,2.7577915,0.95274645,-1.2094123,9.508833,4.514308,18.328741,5.341973,0.3839488,-0.86509305,5.6248126,0.009963475,12.4932575,1.5101348,25.895584,-2.7750213,7.8252673,1.038781,4.8901105,0.19266494,19.333427,-0.5685254,6.7418137,2.3059227,-1.6124166,7.4393735,6.084735,-1.0573887,1.7714851,10.996532,5.540602,-2.438156,5.2667813,10.130111,3.4240584,5.553473,2.6782281,-4.1336427,-3.1788177,6.04641
architecture_136247.jpg,34.746124,1.3178649,2.4136922,-3.7078667,6.2403073,11.54603,16.021702,19.675978,5.788807,9.683477,8.135567,7.054709,17.231503,7.345163,9.595873,-3.4222894,-1.3375055,4.0711,4.1895776,5.5847874,-2.6130557,-1.4769993,3.8783596,4.154073,5.9317393,-1.7260959,0.70171887,3.544942,-1.9175764,0.79738516,4.3906207,-0.5264001,9.999191,1.6624581,5.0425797,1.63643,3.3264108,-5.065496,9.872044,-3.759098,7.8928976,3.5106924,5.9484305,3.4085095,0.6802858,-0.61319584,16.936169,5.024253,1.64732,-0.38576162,-3.560631,16.044117,5.167943,0.07237969,-1.4396396,5.4626126,-5.45269,-4.597772,3.0861237,3.0069597,7.137659,4.644782,-0.23715971,-3.9505448,-2.9644306,0.29038987
architecture_136316.jpg,29.310667,4.311142,1.6228415,12.337685,0.5847144,20.110153,7.71721,14.098517,15.154646,1.7510586,8.893864,5.6634502,17.54004,11.835017,13.056116,4.355704,5.7912755,9.565102,14.342507,7.5886264,1.7668519,0.37898365,3.8928368,-3.0681815,9.3086605,0.38006705,9.513547,8.296386,2.01634,5.071252,9.845252,0.8832041,15.622372,5.0213785,-3.1031008,1.6394526,6.822025,-2.8730893,21.06286,-6.227214,11.929615,-0.6603344,-1.1111317,0.33022296,-2.9490185,-3.6238525,21.196926,4.9189076,2.819971,5.0368524,6.9974265,13.16224,6.196799,-0.911733,1.1539716,8.356711,0.80781925,-0.6786614,0.6081338,10.791639,8.302084,7.385621,1.9423153,-4.706072,-2.6270542,6.709748
architecture_136324.jpg,36.696293,7.963557,0.23124963,-3.7288694,-1.6221933,18.17529,12.956606,22.09675,14.178777,1.0510902,15.847063,6.1396236,20.757517,4.3146825,7.6063485,1.1662642,1.0258933,5.9718018,4.774221,1.953266,5.2865734,-1.4465524,-4.4986687,1.807224,10.052734,0.54234916,4.1582747,6.314638,2.6672225,8.5768175,5.4342637,1.4785757,12.560645,4.3109546,3.4995437,-2.2111766,1.5714192,3.2633088,18.28325,-3.4025002,8.596708,-0.908522,-2.804908,3.2943661,-0.24598064,3.864912,19.633057,4.5696883,2.4779663,-2.7105038,6.2027583,11.665448,5.800621,1.0228541,0.69699323,9.414531,-0.90576375,-2.713293,-0.26872763,2.1553957,-0.962656,5.0114074,7.9469934,-3.7320182,-0.08250019,0.8125234
architecture_136464.jpg,39.790226,5.2602777,8.04804,-4.1627226,1.6548984,19.276493,18.333426,30.01159,-4.2110877,7.611768,10.604428,8.069411,15.68648,5.1735,5.7757354,1.7936388,0.9629341,3.9915278,7.646325,6.7284546,4.151682,2.1510653,0.75745666,6.6441455,4.0966315,2.8210363,3.9165914,5.0453444,1.8322885,-7.395755,4.8127747,12.1635895,9.137236,3.3642082,2.9888406,-1.7850336,5.5320077,0.09040874,11.0131855,6.2774973,9.289967,2.690067,-1.710507,5.559242,11.9347725,3.8781383,21.146784,1.8321011,4.7823653,-2.541277,-3.6024857,12.975001,3.002307,-1.6210957,4.052607,5.307803,0.6724613,-1.7424394,5.999748,3.6496222,4.57321,4.2970824,0.89764136,-6.5411253,-3.1196182,4.4190373
architecture_136472.jpg,2.5803952,12.613018,21.047205,7.785355,52.19242,24.813715,4.956649,7.5931654,6.7012863,11.459775,4.102569,10.809101,36.26338,-1.2575202,6.93162,-2.4439726,-1.5732957,-1.4457316,1.1857145,3.9150052,8.2750845,1.290107,-2.887861,11.555522,0.19641536,0.5261898,-1.9936409,7.9435377,5.7169676,0.8608495,0.35353518,-1.7809516,5.799145,7.7603807,8.142342,-1.4432667,1.1109097,3.28864,4.5554934,5.016731,-2.9569805,2.4131696,9.762706,9.148468,1.0264697,0.40025496,10.757275,-0.9383284,8.343363,2.45743,3.8908966,6.8046527,-0.9122471,3.108005,13.937822,-1.0713171,-0.7167286,1.1628501,3.757118,1.7168154,2.0585825,1.0541532,2.3534515,0.442639,-2.1295254,-0.33927244
architecture_136524.jpg,38.802303,5.7238245,1.2955103,-1.1578094,4.5663905,23.102634,16.254282,18.286783,9.016447,6.5372014,14.034147,6.307402,16.15945,0.15800986,8.367227,-1.6749378,2.5733948,11.659496,9.658205,7.9619913,5.912188,-1.7972786,1.3058794,6.5032935,3.9668415,1.421137,2.8533046,4.298364,0.89904165,4.808681,2.9100015,4.0401025,12.761751,4.8415184,0.33263415,-2.554782,-0.37645566,-0.23340942,8.090988,-2.0933342,23.48,1.6249361,1.3249239,2.0340774,2.1196606,-1.9499665,18.673616,3.4257526,4.933878,2.482644,4.7222304,10.581414,0.8882071,-1.0331761,-2.0044518,14.317995,1.171925,-0.78399915,4.029421,6.815969,0.012365729,5.0764136,8.641577,-6.900371,-2.0097103,4.722032
architecture_136595.jpg,12.153552,16.050459,6.762211,7.763701,9.49694,6.725878,32.731277,9.567454,17.345806,10.985563,3.4607503,21.380661,11.193304,4.3047924,-0.2256712,-4.133663,2.644536,2.852459,9.929438,8.677009,6.927021,-1.8103478,4.764229,5.481435,11.747284,4.9398355,-0.27345446,1.8081416,0.74082756,5.8500047,6.2659445,4.317343,7.9156876,5.153575,7.992902,5.075834,0.17465253,-1.2903486,22.172676,3.766122,6.0684886,3.110375,-2.916402,4.0090714,5.801549,-0.6233423,16.549301,1.986964,2.22762,-0.19121766,6.737285,28.735626,3.0265832,7.2127876,-0.76426893,3.8038998,-1.4622138,2.1304736,2.3348632,-1.4859349,7.35,1.6420953,2.908413,-3.6840115,-4.107343,0.8066252
architecture_13662.jpg,22.627056,8.232324,14.117476,-0.800753,5.885815,15.791977,16.754427,16.248058,5.8687234,18.469341,8.2884,-3.2075741,22.788807,2.686253,4.446086,4.754338,0.23979527,8.298631,28.88928,8.047834,9.512375,1.470088,-2.9441202,2.5069408,8.922124,2.4645698,9.4263735,-1.7876588,-0.37178573,1.3617483,5.635924,1.9288868,7.4980392,5.788337,0.100927845,-1.1039324,9.664927,1.1688783,1.8471707,2.8635497,6.898484,11.292097,4.297088,4.4114604,14.473663,8.728858,20.526844,9.341722,2.478418,0.076819606,5.103877,11.759186,3.2160282,0.68110555,5.1741114,9.338485,-2.2523744,2.7075963,8.713235,6.6340694,6.5173755,6.6263804,2.0875957,-3.0673661,-0.9386338,4.670344
architecture_136699.jpg,25.803608,4.807783,2.1214564,4.2868257,8.543032,21.455025,10.816496,13.261321,5.4653482,4.471925,9.091389,6.077227,24.329254,1.204914,3.488099,3.5596404,-5.462252,6.129279,7.733613,9.568814,17.838364,6.840824,-0.022870256,2.4143417,8.55157,5.955043,11.301127,3.908493,-2.7111807,-0.34251443,4.2623143,3.5441551,10.517569,4.2536726,-0.31192032,0.0030756928,-1.5856773,-0.2680458,15.798686,1.4538492,4.549737,-3.205579,3.8720229,4.2660594,-1.9423507,-3.9442923,16.222486,4.8115144,4.4332323,-5.381922,-2.655482,20.914503,4.9776635,-1.3845567,3.9667256,4.719794,-0.68334436,-0.116979845,-0.7991132,0.16528405,3.9688327,8.634692,3.0949068,-4.4251537,-3.9785724,1.8818984
architecture_136754.jpg,14.236832,5.2036624,1.5805818,10.622252,6.8323464,19.187515,16.217993,25.261032,16.0731,3.5634615,8.602074,7.989955,24.058563,5.923344,7.49895,1.2480168,-0.14247838,4.5117326,14.295271,3.7867591,17.245316,5.106789,0.7841716,-0.7540689,3.7423604,-0.2927241,-1.1255034,0.5282006,4.0747313,6.9876633,4.950145,4.133537,2.5364535,3.5785418,2.182194,3.293231,0.6851774,3.2452128,8.795712,-0.39186504,1.0431539,6.0813966,-1.7813526,4.6879306,-0.69767904,-2.0922964,13.974407,2.6622918,3.8173823,3.1123562,11.306057,13.778003,-0.013031927,2.9625416,3.4927182,4.4264865,0.2964114,3.5169206,0.21932581,2.1411717,0.98417073,1.3921162,1.5221839,-2.4183316,-1.356772,-0.38153955
architecture_13677.jpg,40.732662,4.6413016,9.5448,-0.34107828,2.2317567,10.740837,18.993652,22.765493,7.3855505,13.388713,4.5746536,-1.0680944,24.72521,17.587952,-3.489963,0.7797978,-3.754205,10.160274,18.58977,4.9145637,15.510282,3.439133,3.314791,1.6276469,4.5999923,8.730202,5.369211,7.802811,-1.4991553,2.4861639,6.1876917,-1.0409719,9.161105,4.218115,2.3176756,2.3819246,6.4301887,-0.6331826,10.269319,6.484677,5.109475,0.11776497,-0.99842834,8.215581,-1.3707386,-0.073413946,22.929447,3.3593132,7.262151,-3.7656002,2.7305787,19.5581,3.7244818,0.40183434,5.181949,5.5449767,-3.19414,-2.4443076,-0.2736965,-4.2247653,0.88209313,0.69413024,1.764411,-4.2893896,-1.1617529,0.6979382
architecture_136778.jpg,37.5082,5.392585,16.785978,-1.5365607,21.206848,11.203861,11.010795,20.263592,5.08692,16.811844,22.058666,-4.420667,40.186058,3.219643,2.5050755,-5.6651497,-8.884219,5.0826845,-2.9543173,-1.6839746,13.441554,5.434078,1.4605615,1.2712258,4.593904,8.219679,4.2803125,8.904674,-1.4081442,-0.99194765,5.8385687,3.4557555,0.053762738,1.5555147,4.8690224,-0.45775557,-1.7855417,1.906655,11.099926,-6.0296288,0.62397885,2.6717272,6.8066983,6.4378924,-1.4576863,12.210497,8.309293,1.2275982,5.357084,-7.887051,-0.97281617,14.678849,0.6688696,-4.429791,15.874078,2.9933562,-2.8214314,-0.51774514,0.67106867,-0.9943699,-0.07631611,7.2094517,4.8975835,-1.4073102,2.9932544,3.166241
architecture_136944.jpg,38.013153,6.5984144,-0.004897546,6.3840113,4.2668166,26.416122,4.3655505,21.820044,-1.1677941,7.9488754,7.2597914,9.397154,24.46574,11.009881,4.3274336,-0.12995505,-0.5332963,4.0132575,13.058681,8.074786,11.69442,11.383934,3.7716053,1.4905596,1.9410326,-3.1521664,-3.6703851,3.187842,1.2800739,1.5975505,14.326507,4.3942146,16.943268,7.0895605,1.6914405,-1.5715222,10.864182,0.598226,18.766346,1.0519406,10.442168,3.2418675,-0.23966506,4.7967196,2.339253,-1.2578447,20.562334,-0.54090095,0.94770247,-5.605803,-2.291818,8.471544,3.0392206,-1.563499,2.1179166,4.146348,0.18077953,1.5801396,3.6519382,3.6828167,7.619621,-2.3550591,2.1548045,-2.2000737,-3.9148107,7.589036
architecture_136949.jpg,25.814432,2.7870052,1.2625867,-4.3665156,9.036144,19.622023,25.499752,12.974366,2.734734,12.256808,-1.3089722,-0.60147715,27.603018,-5.09181,4.152076,1.6054167,7.383451,4.4179225,7.620843,4.757765,7.161396,7.9864955,-3.0550895,5.247609,9.139564,2.2294953,5.902153,5.2737217,-1.0664333,0.46443054,4.863037,4.0513053,0.9783005,1.2935216,-1.6668648,0.43797988,-2.1469364,-2.3716953,13.974738,7.634792,0.31126028,0.30680332,3.424198,3.525542,2.9351315,3.0782225,13.512635,10.292334,3.1723216,-2.0212834,3.6366813,22.025085,5.450524,3.907945,11.002926,-0.78274477,-1.1617228,2.0810816,4.6799912,-2.3782637,4.1980724,9.2197895,-2.8462243,0.25283742,-4.3311424,-0.57311094
architecture_136968.jpg,28.519457,0.649225,-2.642641,-6.9733806,0.51764363,24.54322,25.366943,18.060965,-1.8942665,12.60865,5.2729607,-3.2182164,17.49962,9.921666,4.3594265,1.9689199,-3.9649825,3.9663625,2.7743273,7.8118057,7.1288457,11.852176,0.62368846,6.641879,4.885481,3.2418835,12.877415,2.583007,-2.5404763,-4.436785,4.2273602,6.26257,-0.575,-1.0546615,0.5448185,6.001923,4.2806525,2.0016513,6.3058376,4.2777863,3.8055487,2.0834143,0.3597527,3.1137147,0.06546481,-2.9071736,17.135632,4.616062,4.309374,0.17623594,-1.4569703,27.228611,2.011944,5.5307164,6.942746,2.5732691,2.7235684,-1.1252753,4.019435,-0.31902036,9.906747,5.9075556,3.6393747,-2.6781697,-4.747118,1.2516382
architecture_136969.jpg,35.86444,3.3492723,3.2582388,2.9295423,-0.09217626,28.62437,17.543463,24.564106,11.527917,13.638835,8.616892,0.02713874,19.565603,-1.3185529,5.9664745,6.4088106,3.9821439,7.2338767,8.095222,13.512204,7.6171846,2.071034,-0.03304691,0.16609807,10.154348,3.0360641,3.3110921,3.101883,4.262787,-0.4553603,4.303767,7.005494,4.034436,6.0403347,-0.009885384,-2.6699212,3.9029891,2.5997589,4.9882197,2.9187555,5.9069386,-1.6013931,0.3588485,4.2419634,-1.0689245,-2.3295338,19.554686,10.257776,4.858091,-4.5202284,3.7026384,13.155039,3.2114213,1.9700948,2.7401953,8.004032,1.5033562,-2.5916715,-2.2517087,1.4731277,-0.59428674,1.0330807,0.8937942,-6.0702295,-1.9335784,2.861332
architecture_136986.jpg,24.793734,6.758081,5.1397123,3.0915167,2.9756851,13.143231,26.859056,24.04232,8.029486,11.668364,3.6342442,9.519411,20.759249,15.455466,7.175427,7.202906,-0.24031195,0.56433856,8.09384,7.696121,-2.5695856,-1.6591467,-1.7887272,5.9607644,4.0013976,2.5133326,9.138104,0.16455957,0.5713471,-0.21959785,0.28454262,7.2143025,3.589034,1.7713815,-2.0797045,3.9439633,2.4210024,2.9469392,9.79362,-3.6996405,-0.60596526,-1.1091558,-2.0891547,-1.4331503,2.5857427,-2.2645135,15.843205,6.349443,8.82491,2.184124,3.263537,15.969663,-0.3569979,8.945937,6.6383166,5.017928,-2.293449,-2.0924683,4.02168,-0.94057137,4.0528545,0.9352441,-0.6837901,-5.684513,-2.7865365,0.83245265
architecture_137033.jpg,33.090275,8.205067,0.7555156,3.5386157,2.9171612,23.582851,7.3225303,11.178761,6.826739,20.985334,0.42419243,4.7714615,26.094986,11.823309,10.486029,0.4951194,3.75909,4.325742,10.005242,10.357736,14.951064,1.152979,2.9096549,4.090705,7.2012253,-1.4425747,-1.7136703,3.7765138,-2.4713118,2.2980204,3.9971225,1.808944,17.074265,7.8877716,1.6260535,1.2683902,2.573741,-4.611129,19.360374,-3.4357846,12.144809,7.747971,-0.07706648,3.3160307,0.6564353,1.643714,21.81146,-0.09990204,4.4824815,-4.4400125,4.6602955,12.824776,5.9675913,-1.4631467,3.6109805,8.586998,-0.0013628975,-2.9694765,5.4649277,8.384696,5.826554,0.6783031,-2.0839572,0.85023904,-3.6709905,8.272958
architecture_137069.jpg,20.123854,20.904394,9.266576,2.2326438,8.886777,28.552013,15.435571,14.791668,14.857179,12.562172,8.887984,4.9916263,4.7377253,0.59915537,6.1710095,1.6277353,3.2353368,10.522698,20.859627,8.428823,-0.95217115,7.725052,10.901889,0.40458822,4.1874423,-4.831722,1.574653,5.0827923,1.5578973,4.800988,4.4743447,-0.8504487,9.234137,8.429419,5.3246284,0.8210078,1.0324246,8.459244,12.656896,-0.5592293,16.129026,2.6866252,2.24375,11.75386,5.5223722,1.345844,16.503618,3.5494664,-0.3445133,-4.9187164,-0.54213446,7.664552,4.0772905,-1.9757268,1.7876644,7.916914,4.871769,1.9837062,2.6829488,5.8407125,5.317688,1.8230644,4.311944,-2.752485,-0.24410254,3.8759902
architecture_137114.jpg,38.434177,6.6015363,8.2445345,6.836965,7.2143135,17.04163,2.4827647,23.987474,5.5418544,1.3923137,14.941168,4.301798,14.760149,1.296445,7.688465,-5.026115,3.725371,4.4246345,12.067945,10.57728,4.117747,1.5647806,4.94547,3.3642466,2.5638058,-1.1482996,5.4562187,1.3210526,0.95950866,3.7783303,14.470007,-0.31865016,14.640633,4.170425,4.342659,-0.8716663,8.112743,-2.5028872,17.422825,-1.7268294,15.48988,-0.5788919,3.3431954,1.3901025,1.1402496,-0.31754935,23.19926,2.018267,3.1318567,-0.71852124,-1.5154331,8.874003,5.520691,-1.8895462,-3.4499667,8.898645,-1.1170543,-3.5618412,1.6755939,3.5821943,6.5497136,-0.32062268,6.6822805,-3.7854786,-2.1563804,5.9859176
architecture_137124.jpg,29.256279,2.0646,6.117898,-2.835929,8.370229,21.685654,10.544225,16.48254,8.457993,16.95578,4.4544,-1.0837806,28.390905,-1.4251769,8.118678,6.03117,-1.6108229,0.914178,4.639214,6.572511,13.18171,4.910405,8.467704,3.2247152,8.93086,1.8823024,2.882533,1.494969,4.5815005,0.6714263,3.0625732,2.6940153,13.324881,7.4888244,0.34022814,2.919082,5.219986,14.241105,10.649336,-3.1739852,8.862801,-0.9781477,-1.3765829,4.1944833,-1.0418619,1.1221769,23.981878,15.710451,4.0620217,-6.302582,1.53692,12.808196,1.1815414,1.4615058,3.412023,5.653701,3.7288089,-1.7273264,4.347584,2.0175104,4.511509,10.342568,7.046272,-3.2277598,3.6133063,7.1787796
architecture_137132.jpg,36.46715,1.0750539,4.7388206,0.6048219,-0.41856244,17.429989,10.480053,12.368538,14.930637,7.19167,9.94758,1.3520958,22.247175,41.78399,8.700683,7.9539633,-0.90498894,4.7385087,5.3802023,9.56345,14.728558,10.193466,10.481815,0.49632266,3.6529481,9.751346,8.929983,6.2155223,3.2386467,2.4138675,3.960163,7.0723867,10.558209,3.8935933,3.433543,7.300937,6.2030487,9.534956,8.525407,-3.5562296,9.873988,4.5634284,-1.9291782,4.251399,-1.0258209,-0.41316932,16.09405,4.2980604,-0.051995367,-0.16461943,-0.56130534,12.075877,3.2950668,-0.8553654,4.1942277,9.076045,2.3714347,-0.8214296,1.6683526,3.134966,8.314763,1.1394235,4.8756504,-2.0150752,0.029592216,8.41781
architecture_137249.jpg,19.134724,11.918168,9.8805,4.123872,11.496812,11.87009,19.486053,26.48538,14.691742,7.3082128,10.441336,4.5073414,20.061502,5.139009,3.0381389,6.6788993,-2.8558996,3.7086506,7.662528,8.301001,-0.24115448,2.9282563,-0.47496584,4.4307156,8.657404,-1.1659917,4.203072,2.4629204,3.842516,1.7650392,4.0454226,1.339931,4.025402,5.9726458,2.3647773,3.6469405,-1.0747001,-1.8968083,6.100751,-1.6293019,4.884329,5.0120153,4.3143325,0.9021556,4.919223,6.7501454,10.149109,10.372981,5.709012,-2.4135458,5.340706,11.47943,6.3365126,0.09711099,-2.7622805,11.345449,-2.809154,-0.5902718,1.9245751,0.43785265,2.6606739,5.781857,5.3915825,-0.4772365,-1.2743579,3.6895978
architecture_137430.jpg,24.315357,15.937535,6.64154,10.493323,13.63579,12.068452,10.442496,9.715221,6.778949,21.186796,-0.8403847,5.1414704,2.993288,-1.5816787,9.413621,0.097712085,19.605785,1.5860611,6.8703747,18.945438,8.117878,-2.6223497,11.910886,1.2774776,19.768534,6.8983846,5.8593593,2.8625536,9.737354,8.130166,7.404937,2.5221944,17.074173,25.546556,-0.8458811,7.0673966,7.4446993,7.018791,6.8128443,7.3302565,4.0195727,7.7425547,1.4744418,0.27691582,8.487444,6.6789894,14.607477,4.9851103,1.5278816,6.002844,9.886311,10.390976,23.469397,-3.428424,4.0162153,5.2121935,3.8725219,2.448136,10.385413,8.445921,3.722689,2.6658313,9.300648,-0.017536618,2.8985128,11.586691
architecture_137706.jpg,41.427208,6.752569,-1.8086795,7.880155,1.6597606,26.31891,10.349897,16.917349,6.8877754,7.014873,16.045073,7.2177,8.9313545,5.599347,7.7925844,-4.1929955,2.886855,7.3458486,16.017773,11.585977,4.624314,-2.0975008,5.062186,7.157204,-0.3690655,-1.0758553,-4.4232183,2.2641459,2.275537,2.4470782,5.644118,1.0449594,19.750996,7.2062955,0.9705441,-2.832396,3.296166,-0.918587,5.370982,-0.7057352,18.750929,4.7870355,2.5816936,-1.1812625,0.64949465,-5.2128015,19.311256,1.6406089,6.043924,-0.71356773,3.0785232,9.144516,2.2363849,0.12559909,-4.858562,11.174236,-1.0335333,0.06769122,5.290227,6.1602464,3.7840366,0.31322637,4.3386774,-3.8627262,-3.4130394,6.452767
architecture_137872.jpg,33.701195,-0.55421364,9.085831,-5.0264688,9.152058,17.331331,21.618534,21.521492,5.0669556,15.323323,2.5399098,-2.0714993,29.621815,-6.3503413,6.3518286,6.3154726,8.644624,-2.4967973,8.767161,7.2186017,8.262062,-3.6442597,3.6954448,4.0294714,13.695556,7.3967414,4.938847,-3.0739865,-0.5188485,2.672833,7.555024,1.9652637,2.6181753,1.1488917,2.1015697,1.2932034,0.7097396,2.2407405,4.157801,4.5784607,3.095066,-0.021352712,4.165296,1.9582413,-1.5697055,0.028143952,17.417639,9.222632,9.312755,3.948058,1.6426561,21.187622,3.525132,-1.2920277,5.9688683,4.248239,-0.93449074,-4.2343893,3.5796564,-1.7932085,4.0035324,6.1042566,0.13647965,-6.3287473,-2.3526592,2.2837627
architecture_13809.jpg,15.81698,2.3574955,15.498537,7.1298094,9.196567,9.118901,2.610998,31.877731,7.423386,11.829277,5.626753,-2.9703317,28.567785,3.6900826,5.6357565,8.957622,-2.1400585,8.738255,44.401142,1.742914,13.272621,5.6219306,4.482796,2.1786704,3.404194,3.951251,2.568772,-4.3718247,-5.260666,-2.8155153,2.4292316,1.5097047,5.4670706,1.4100007,1.5824229,-1.939968,10.055862,-3.4487064,11.138061,5.175976,1.117992,3.4265585,3.1525402,6.8017936,-0.55103433,-6.6907434,17.528652,9.26648,4.179307,0.13108733,-0.75642914,5.0971527,-2.9941585,1.6057225,2.941415,5.627844,-2.853468,0.042455062,1.2103611,-2.3987803,2.0694978,6.5185704,3.485228,-3.2823975,-5.97023,2.7442324
architecture_13841.jpg,3.957914,20.609507,16.283945,5.437438,9.523184,11.0966,8.796968,19.604881,9.395717,4.8460517,-0.3174073,2.7328026,29.569063,4.246002,3.5950038,5.1852837,-3.9003842,11.236421,24.001472,5.410839,16.695236,23.467224,5.8957577,2.2573154,4.620317,0.06320814,2.358319,0.9437478,4.100814,0.71885073,-0.6862959,-3.4587448,-0.1019624,5.4699955,0.7837739,2.8620229,7.7848186,-0.16648751,5.9221315,0.62683576,0.82331944,2.833129,-1.7534671,8.644639,-0.9453172,1.7744254,14.181094,7.8221583,-2.6150599,-0.7274293,5.1553893,7.152243,-1.7724849,5.1688495,5.15584,2.7523599,3.995689,3.683954,-2.0939484,5.484659,1.5080827,28.15123,5.184492,3.9247658,-1.9595076,3.5755367
architecture_13903.jpg,29.521233,3.9902442,12.346194,9.25774,1.8552678,9.15164,7.6644363,26.815351,13.873875,10.018934,10.665154,-3.6255472,21.653528,7.5908446,9.25405,-0.2642647,-6.1783834,10.907175,25.618258,5.249474,9.128042,10.609491,0.0921852,2.58386,5.612299,2.237973,12.015105,2.084423,5.23992,1.4627466,7.0353627,2.064086,3.4912899,3.136888,4.7714443,1.7230053,10.0061,-2.693158,13.131385,-1.2542684,9.407217,3.0410383,-2.6665146,5.1811686,2.2826633,3.0306509,15.134738,7.2751746,2.5316637,-2.1550174,7.1013236,8.026036,1.1542767,-4.741106,3.0865946,13.229572,0.9988021,-1.8612269,3.3229961,4.321565,0.82945544,10.939378,5.461065,-2.317647,6.34434,4.702557
architecture_140123.jpg,41.83846,3.897985,12.900103,-1.1238012,9.119572,10.6686535,-5.8149505,13.211614,1.1429915,7.225723,10.408002,-2.2928474,22.867281,12.102194,15.310351,8.769581,5.3165965,1.7745793,6.165032,3.6327548,5.389076,3.2510123,-0.23748218,1.4847401,6.915066,6.5452456,5.5278573,3.0916612,-2.0362432,4.819628,-0.0347442,-0.757834,7.323198,0.45696712,2.620235,9.25097,5.954661,10.400516,8.852774,0.9523306,2.4109273,1.6331849,-0.47591496,8.152392,3.393041,3.5421968,15.643102,3.3848927,1.8486162,-3.6210005,5.78271,10.770005,5.170592,1.7726066,9.410474,8.969113,3.9046912,2.5702834,2.2557552,3.912755,6.663476,9.675656,15.723583,2.9745047,-2.0314867,4.5613127
architecture_140478.jpg,34.763706,9.367502,0.40523148,4.6064167,1.0176009,28.496605,5.220737,8.986867,6.7929707,9.634319,7.9684734,5.9804053,15.963793,20.245499,0.94652754,-2.097268,1.2552414,5.456267,9.796963,8.517308,11.147981,5.5721154,5.026018,2.1109104,7.7671885,1.4661374,1.3016466,4.39054,1.529589,2.5166972,9.841045,-1.2300303,9.336739,1.4517238,-0.86604226,6.868957,4.2899995,5.42069,16.328417,0.49738473,11.086807,2.6868846,2.2529776,13.699463,4.5190854,5.490238,20.807798,2.8114433,8.742097,1.6415219,1.7172337,15.004558,-0.20375103,-2.7521443,1.1549809,13.210374,-0.91456175,-0.5904612,3.9834485,3.511148,9.666788,-0.9164516,2.9750876,-1.035651,-1.2477996,6.0921397
architecture_140607.jpg,31.23188,-2.342669,6.121577,3.9259114,3.7733288,1.8228188,5.0143433,18.284998,0.51830167,-0.15625292,28.73338,12.240132,10.903835,7.9345517,7.5226545,-9.168128,-5.5784082,5.154541,8.523888,16.555504,17.220863,4.066442,6.5395975,4.4246955,8.976117,7.9745293,4.9162936,0.83257574,3.0854502,-0.034173857,7.997559,5.7646236,9.683427,4.211899,10.756934,-3.1144712,0.113044396,-3.3429065,13.003056,1.8036166,7.5923724,-3.202347,4.6813884,6.5654106,-2.2524621,21.061825,12.536052,3.3355734,-1.905052,3.7508376,2.936834,9.096458,-1.5198542,-1.8306112,3.4454868,8.459158,4.9772844,1.1074073,2.6352708,6.6913953,-2.5019968,7.56777,7.466557,0.36485624,8.430031,1.2968451
architecture_141759.jpg,7.3870687,14.572826,10.333086,11.735448,0.0055744313,27.714516,21.174068,10.249354,18.424828,11.904272,2.5875437,6.9254503,7.135222,22.226892,3.0725467,-1.6921891,-3.6927567,2.6164606,8.232618,8.3844595,6.442053,18.98994,-0.85903865,2.6144586,0.11098054,4.694555,0.59068745,3.9769754,6.036811,4.110397,2.6768742,5.2446017,9.338058,9.716998,4.2615867,4.614881,0.4750872,4.900989,12.102117,-4.2023854,6.125347,7.6994047,-0.22550234,5.098814,2.5475109,0.8369509,12.482975,-1.1342113,1.370372,-5.0006957,1.6837116,9.671651,3.9620504,-1.890703,3.2167242,6.5574265,3.28188,1.0443481,3.8440015,-0.2575361,7.295652,0.8742735,-0.4101479,-0.6610172,-0.1927223,4.6699476
architecture_145921.jpg,21.466251,7.702137,14.191635,8.3896265,1.584314,8.600951,13.678848,28.166353,15.159176,4.831441,10.831044,6.352613,25.842508,1.8626627,-5.0045652,9.593055,-3.7495692,12.853103,26.71909,6.2791166,3.753364,4.3320684,0.006124843,7.3189964,7.53536,1.6891264,6.8070707,1.2023572,8.428263,4.9117827,6.361392,2.8195884,5.590737,1.9131124,1.5693247,1.4903648,13.170488,-0.0081605045,11.901843,-0.3454945,10.480285,-0.17442568,0.47213742,7.007031,4.228544,8.98523,20.870926,10.02957,3.005457,-1.6124629,3.5395594,3.1429336,1.2084856,2.5788817,3.3558671,12.204046,2.859079,3.174749,6.1342163,-3.2768693,1.1009861,14.837158,6.804775,-1.4578301,-0.37337905,4.8552833
architecture_146043.jpg,34.1431,1.6190178,5.811861,0.42873687,4.46407,14.298021,8.690444,32.551426,6.714505,6.969954,7.447765,7.6802692,22.339907,4.0816245,2.540306,1.3593724,-2.5110147,8.333319,31.154303,5.553563,1.9040974,-3.4153023,-4.0059423,2.256224,6.9129047,2.834401,1.9983983,0.008191005,-2.809982,-0.04475694,1.8994275,3.4486332,11.618489,4.849944,7.0013046,-1.776747,8.277568,-0.7200221,8.382777,6.0751133,8.627153,-1.9899331,-0.9707974,2.3918183,4.0563874,5.732006,24.07083,5.3060646,6.1899533,0.09796408,-0.26866505,7.4803047,1.7162986,0.20507407,0.9128455,9.288574,-0.15741947,-2.8373888,3.4239047,1.545217,-2.568466,3.3326287,2.0161705,-5.3678117,-1.9458042,2.1307693
architecture_146222.jpg,21.778471,-2.0767384,7.3924117,-0.892492,11.359925,12.657096,1.9709677,32.672947,5.141877,9.744139,3.8637626,6.063549,30.084913,8.602578,7.9411497,9.710476,0.09212941,5.4273615,12.798526,5.3708277,12.858382,2.6169984,0.38679856,2.1097646,7.4636474,-1.9362699,-5.4127703,-2.4482994,-1.6944952,4.4461474,8.147079,-5.5601277,15.060544,5.5203614,2.0386121,-3.187748,11.5362425,1.0903897,9.869534,3.0949447,7.6241126,-3.094192,23.235237,3.2305295,-2.3755631,-3.1689734,27.025997,6.746483,4.408432,-3.8833876,3.56161,5.0346007,-0.9021327,-1.6223189,1.2203401,7.534915,-4.4957786,2.2116315,-0.46094805,1.1495358,-1.339231,-2.2431164,3.641871,-3.3999114,-1.843171,2.131099
architecture_146317.jpg,30.90548,1.2758138,13.794969,2.4951847,4.9627237,20.088766,2.5977142,37.077106,9.4677925,12.594555,7.591938,-0.1969358,21.89639,-0.52312106,1.6641723,1.9440628,1.110932,6.6987567,17.85026,8.0365,12.457934,1.9699074,1.4744395,-0.2009489,7.2333775,4.748892,0.39886028,-0.2678805,-2.0662515,-1.4001446,4.713559,1.440078,13.560897,6.3959613,9.527678,-3.5137057,9.998253,0.8956883,11.113466,-0.3633932,9.701385,-4.6865835,-2.3873477,1.1277138,-0.8554481,1.2102138,26.149162,8.971988,5.0768046,-6.1199956,2.9716492,3.881552,0.6254906,-3.1315322,2.3949823,7.452064,-1.8941766,2.0758374,0.929849,1.2787689,-1.2837586,9.440438,6.7194314,-5.65535,-2.8703191,3.6799524
architecture_146542.jpg,22.442078,4.7461996,12.317452,0.88311553,-3.2255232,13.030874,17.654995,31.321318,11.591099,12.810683,6.780644,3.6485488,15.680434,-0.61281073,-4.002756,6.561818,-0.19315559,7.3480787,19.22084,7.828253,-2.1304085,1.9127094,-2.6676364,8.561402,7.566011,4.74163,8.4952135,-1.4342386,2.4474404,0.13477351,5.8335595,2.4310184,4.3372617,0.033210076,1.1292409,-0.5370725,8.677225,-0.49383378,8.489549,1.0922343,3.1164315,-0.38905713,-1.5191948,0.78314525,1.6771339,5.3466077,23.035732,6.964732,1.4047194,-1.4058627,1.0800006,13.461247,0.409255,4.6408453,3.770968,9.5379095,-0.5950095,-4.9735665,4.066356,-6.3851857,2.375136,7.726238,1.9997265,-5.7861934,0.5865383,2.910398
architecture_146704.jpg,35.584877,0.8790277,2.1197977,2.128576,7.7896357,18.383759,5.27516,22.80566,10.656253,11.318314,9.047234,5.50208,24.332928,8.792998,9.495485,1.9508101,3.3757768,1.2419639,4.2387447,10.745943,10.452127,0.1043506,3.991057,-4.8178434,9.626554,3.316031,6.48682,-0.9010505,-0.36732638,3.2193623,8.89815,3.717715,20.68052,7.804206,3.141914,-1.1887144,13.994382,5.0002103,9.441568,3.3914435,11.259565,-6.830407,-1.9037973,-1.6199412,-3.9301023,3.4398584,29.971283,11.879826,4.36754,-2.3862817,0.026491355,5.5025043,4.2501583,-2.3611164,0.028188713,9.123371,1.1223724,-3.031898,-0.8748441,2.305689,1.4151465,-1.5072782,4.8740406,-4.201101,0.43144292,7.915574
architecture_147125.jpg,18.331417,4.7368608,14.843792,-1.1235145,17.78524,7.9303637,11.061886,27.86482,8.806779,17.796078,3.6070163,-3.0168624,28.407406,-0.15662289,-0.6946141,4.3587866,0.23197755,9.224966,22.191658,5.9909983,16.323044,4.0874743,5.0566044,0.25561127,4.1148906,8.657037,7.9684553,0.5809706,1.1777744,1.662707,4.940295,1.4764594,0.7078792,4.6723866,4.371418,-0.5364163,3.63126,6.1997876,7.310152,2.084147,1.7462082,-2.2955608,2.870976,6.9513917,0.123774216,2.1754727,10.135865,4.845059,2.4016297,-5.4957294,6.3679805,2.4764445,0.15999977,4.6589756,8.81212,7.328529,-1.2758021,1.5044963,2.6625357,-1.1788256,-3.7821836,3.4974687,1.009657,-4.7622576,2.1947563,4.1182017
architecture_147176.jpg,32.756737,6.050159,8.831666,7.708409,7.4732313,18.790874,6.611188,35.37835,9.48559,9.65121,2.7455032,2.5865974,26.1112,0.5785015,4.6303787,4.383829,-3.8347952,6.4453115,18.439367,6.252441,12.574331,3.819063,3.497298,4.209775,6.6201982,6.0110035,2.3487735,1.4568276,-0.7414813,0.9309044,-0.49608573,0.45405924,10.099583,5.887333,3.8762603,0.6813664,8.90933,0.9038294,11.057115,2.0355046,-0.68588096,-1.297754,-1.8811855,2.6749165,2.110148,-1.8488452,24.980371,10.2463255,6.652848,-1.8040408,4.6423416,10.99373,-0.11349879,0.6423202,4.1621475,5.0789447,1.8730482,-0.025026593,2.0911317,1.3157291,-2.0776353,10.431589,4.6208563,-2.4399176,-6.136348,0.8811883
architecture_147259.jpg,23.010056,7.0286183,15.43649,1.6293452,8.034769,11.164963,6.3248305,34.140404,6.063337,10.579966,8.51298,5.134028,24.630009,10.210115,5.8320155,-1.0398673,0.8339137,8.018774,28.14062,9.935844,8.1145,9.180346,2.4984298,2.1892283,10.660223,1.5605737,10.044822,-1.9857013,-1.6106949,2.08403,10.183949,0.40572643,10.415356,3.2392397,4.0510545,1.162441,16.345505,3.0011322,9.561836,3.311979,9.816142,-0.4677995,5.0867324,4.9404135,3.3143244,7.4765043,22.98794,9.590988,-0.79313886,-1.6725495,0.009569898,5.850581,0.30091128,-1.6994463,-1.0255164,11.620309,-1.0202776,-0.7201259,3.009454,3.7595556,4.5192337,2.246017,7.2433867,-4.7622385,-1.0113051,6.1236777
architecture_147454.jpg,24.902357,2.2887814,14.194223,-0.635372,1.4405223,11.792199,21.123587,33.312252,9.130676,14.489349,4.5596867,0.61949885,14.534686,2.8218348,6.3508177,1.3099734,-7.2547154,5.5533624,10.947006,11.089673,-1.8524464,5.46939,-6.7261806,4.289549,9.614064,6.559182,12.90081,-2.176195,4.957957,-0.27736253,2.8600256,1.5692483,8.653454,2.3380957,-1.9216962,2.4558263,3.6242533,-2.6170063,8.849836,0.64087903,5.8551273,3.2726736,2.990359,-4.4137025,10.637671,4.0924945,18.101315,7.1269503,0.16013198,-2.3653104,2.9512677,15.413094,3.1152382,-0.68073046,-0.33197087,9.752027,-1.3748573,-3.1775377,5.537039,-0.67317134,1.1972629,4.8924103,0.21437095,-3.2035754,1.7566402,3.5871348
architecture_147507.jpg,19.958347,4.568635,19.0915,5.1298885,5.604963,1.9715352,6.6439137,21.639605,17.0124,9.244004,4.4350357,1.6491559,20.983538,3.147632,7.796693,3.6730132,-2.6826675,9.898594,46.976307,2.3204026,6.686889,5.461331,2.505619,6.1007924,5.9681497,3.7402709,2.8665683,1.6140223,-1.6408765,1.1505673,1.1780999,-3.483104,6.2805405,2.018097,4.7747,-0.3690116,5.8728566,-5.0150146,13.541458,4.323979,6.004263,3.9145443,2.4940362,5.190631,0.74233764,4.4834986,9.932195,3.915973,1.8315275,-6.6173053,1.6836321,3.4039783,3.4766138,-3.7350335,-2.4399345,6.2951074,0.7241882,-2.4581275,5.76954,-1.349709,-0.819801,8.006789,0.08470462,-6.23206,-2.0902832,1.2072834
architecture_15329.jpg,29.566223,-3.701935,15.232919,-3.0126262,5.5031905,12.562098,30.27089,17.975632,10.159047,10.393311,0.40729764,0.87382334,31.44933,11.03581,3.4386017,1.3872796,0.3115328,4.3965673,8.8712845,1.2193891,15.264471,3.4630167,-0.80717057,2.0444467,10.180159,13.5979805,4.4906044,5.44325,-3.6557388,-0.32044303,-1.9381331,0.7136895,3.8001451,0.2531345,1.3689164,-1.3934834,3.866871,0.36222813,12.395457,2.3347056,6.1538324,1.9116464,3.5718184,5.3810673,0.48568967,-1.8652713,21.043495,8.124964,8.157156,-0.28329277,4.094736,23.923903,4.337138,4.6600285,5.443842,5.7436223,-0.5720334,-2.3326678,0.36521703,3.4390945,3.2254856,10.048538,-0.20025773,-3.3755264,-4.6694307,1.7581003
architecture_153443.jpg,35.607132,-2.0144782,4.6023426,-1.3486784,0.62129813,22.2549,19.946945,17.446945,0.66886044,12.276052,0.10993141,-2.2862275,22.868427,1.483007,4.3075914,1.5740316,1.1824726,1.4276186,4.8789797,5.1263223,18.835794,7.292855,4.1143785,7.2626085,6.161122,11.334595,15.760462,-2.2144067,0.16100833,-5.0942326,1.3416668,0.76395905,2.827063,-1.0425804,-1.8772684,2.9460404,4.934287,0.3580739,5.235464,0.2208991,0.66902566,1.4265071,2.210184,4.677663,2.9567237,-2.0048964,18.428772,-2.427151,6.2776356,-2.878261,-1.6043137,23.186062,1.8187414,4.46371,10.759773,1.2314876,-4.070761,-3.1419077,4.684201,2.0446737,1.1591966,4.7218924,-0.6951019,-2.6959136,-0.053473096,1.1122578
architecture_155414.jpg,23.515636,19.379198,9.3968725,-2.3018649,5.7455616,29.18104,-0.025290623,12.971944,10.286527,20.270624,8.707806,-3.8019433,11.161388,-0.39548644,3.6069312,4.5922723,-1.2178271,-1.5551661,-2.6444705,8.905787,16.44359,3.0563793,3.9470744,2.5914946,8.080725,11.567392,7.294557,1.991703,-2.3864582,9.212058,6.4257526,-0.15598255,15.163753,10.324048,4.788158,0.4246326,1.6778697,10.046105,6.5309005,2.3496425,2.4278326,-0.0046527013,-2.2239256,3.7712228,2.2254174,6.4237595,19.151978,13.6998415,3.5183086,-3.541315,3.0455093,11.577508,-1.083025,-2.5820153,3.0074687,7.8728123,2.2376914,-0.009195833,4.5211387,0.17174347,1.532042,0.27460322,2.8346045,-6.3625402,-0.21333918,2.7855146
architecture_155546.jpg,44.8324,-1.3365675,-0.8600005,-1.9689188,6.3573847,17.615185,10.019321,25.89399,-3.1063273,-2.0898786,24.487354,1.3056318,27.616793,13.821046,5.7980347,-0.074156836,4.21885,6.041994,10.5894375,4.505468,1.6163651,5.6148477,-3.4846497,2.776701,18.048222,-1.6835805,11.928717,2.4885192,-0.5106327,-3.7271693,10.217274,3.3752627,11.8780985,1.8845478,7.2256126,2.1054125,6.8954325,-0.20518987,15.691869,2.045254,14.325842,-1.1196492,4.4646387,3.0443106,3.415437,9.4028015,26.042631,1.5807929,3.543121,3.545098,-2.0897682,11.502896,6.1208544,-2.5311933,-1.4774606,10.937879,-2.624557,1.8235449,2.939774,7.956155,5.988853,0.92195606,5.558471,-2.1624546,-4.54345,2.4715626
architecture_15725.jpg,31.479528,3.5313652,5.507926,-5.0404506,-0.98702383,10.375952,29.575426,18.099983,3.1029727,3.997559,24.039919,12.609948,17.392082,38.961662,4.707608,4.9823904,-4.238921,3.3000615,6.6716313,1.3491211,7.7464566,-0.47553033,3.23252,1.9200746,4.6642065,6.849613,6.234302,4.0643854,1.278424,2.9769819,1.7472943,8.314568,3.8357952,1.0139372,3.7477388,5.452955,-0.887911,-0.4283333,16.959263,5.5933022,4.573197,0.32679346,-3.972644,5.253612,3.7949026,4.1779065,11.856632,2.0634115,3.4937892,0.8646506,2.4397936,24.600428,-2.094495,4.0020223,8.612042,12.949472,0.70132285,-0.076775625,-1.1223845,-2.0861955,5.2002177,4.210304,18.130192,-3.514355,1.1408718,1.0902245
architecture_158047.jpg,36.97206,7.9656286,-4.576372,3.233511,7.4308186,16.610092,7.778959,23.627403,2.8138666,3.5539036,14.598831,-0.27296486,23.734375,4.0539036,12.372179,2.5661252,4.6469965,2.4987252,10.422151,10.08329,3.5330877,0.7212913,2.57477,3.1429503,8.670055,2.083501,0.42885178,-1.2054672,-1.0910339,-5.624199,7.976781,-2.836473,9.361552,2.2751403,3.3343096,-0.3905697,1.3925143,-3.8575058,19.369963,-5.122134,13.747266,1.128459,0.986783,1.318864,3.5603495,3.1192753,22.154743,7.4674234,4.163962,3.6917877,-0.82761925,11.187807,4.438354,0.0009790063,-0.58612454,7.477004,-4.274919,-0.5286597,3.0897837,4.5328856,3.16773,5.4354186,4.460249,-2.2806113,-5.5275836,3.4721792
architecture_158062.jpg,15.387394,12.453203,18.414637,4.700826,4.454227,15.255229,23.564642,20.58227,10.030927,2.202138,10.716874,5.0392103,17.991205,-3.4706488,1.4389932,14.386599,2.5786433,8.227669,27.209288,10.320884,-2.8070898,1.5751793,1.2146661,5.4583845,10.083183,0.10360647,1.1122617,-3.239861,0.035463043,1.1581177,3.943571,11.429621,9.348977,0.010425365,-1.1788936,-5.34724,-3.2444253,6.3863792,12.487273,-0.70675355,3.9404585,1.9791836,-1.3630433,4.96639,-1.2690402,0.50621,15.8929405,4.527056,5.691756,-2.0551968,1.8326614,7.445615,-0.34262118,-0.69121236,-0.25997666,6.962787,0.3886052,-0.32762364,4.3263855,0.48447973,1.8211209,7.1150107,7.842036,-8.432634,0.4080533,-0.2899794
architecture_158867.jpg,24.134216,1.008255,3.2585714,3.881079,-2.8503423,14.635674,12.07131,6.2361965,18.57873,10.643845,9.501698,26.187805,4.921832,0.14212625,30.594168,22.445772,-2.142991,7.163543,7.2868557,16.506996,6.5249844,6.3735857,15.300487,5.7532907,2.5141895,6.551593,-0.54104346,5.8533764,0.44316295,6.684636,-0.016633468,3.703412,8.732301,-0.5934401,9.655329,0.33740848,5.0007634,3.222831,6.8328967,1.8545786,2.6554003,-1.186391,-3.5725138,1.8836032,-4.516788,0.23802006,10.818,-2.0999994,7.064565,-0.7835534,0.96667176,5.665057,-0.0012896024,9.302447,-2.1435604,5.801551,6.1166563,1.94553,3.088853,4.7346983,1.8150561,1.287955,3.6638231,-4.1616697,1.7380357,-0.14228188
architecture_159629.jpg,36.97943,-3.1109803,17.458548,4.073289,7.198776,8.736327,37.8869,12.916194,9.541561,11.733268,-0.11691815,0.9718841,27.96535,5.8316407,4.5586443,-1.8689238,5.168015,4.28301,-0.7477023,4.901573,18.83099,7.0152745,8.968926,-1.6229656,11.3204565,23.308008,8.845213,-3.8831286,-1.2550972,-3.2317624,2.4117296,2.291102,0.17393884,-1.2347308,2.8008356,1.3720099,11.496154,3.055609,5.914168,3.6621695,5.855813,0.09494931,3.952913,-1.2927297,-2.8714194,3.3973613,14.605282,0.32715815,3.565916,-1.8153505,-1.3115344,27.73639,3.3543184,5.467603,6.6330204,-2.5661356,1.4808546,-1.0868503,1.559756,0.2910092,0.97961223,1.738346,-0.16895355,5.00682,-0.3492698,4.376354
architecture_160534.jpg,27.711264,6.6632776,5.14373,3.8845356,2.1562982,4.914531,39.845875,3.7884302,10.847415,20.858887,2.6219397,-1.7010338,26.497,2.1181664,3.9129653,-0.9801451,4.0882583,2.7044263,2.331708,-0.49359912,15.429579,7.749152,1.254397,5.844672,14.959984,20.894346,7.9388747,-0.44175202,3.026771,0.47579372,3.409252,2.9182932,-3.0436704,-4.34133,-0.86918676,5.7275324,4.5739665,-0.738726,11.131527,1.7020457,6.94006,5.799469,0.3760051,0.43210453,2.6364524,3.8650935,14.258747,1.4225134,2.209485,-4.1146946,-0.2961817,26.662523,3.208742,3.2713494,8.1433735,1.9906659,0.27705553,-1.4195982,6.6885867,0.886409,-2.0436335,4.728513,2.8207097,3.7417536,4.8083076,-0.7806427
architecture_160746.jpg,19.784662,9.329353,16.06962,-0.6947104,24.4521,7.032264,12.723976,22.427004,9.076643,-6.194338,9.191389,6.3552647,24.670649,2.3143985,2.835767,1.1084733,-3.0139594,7.5065174,11.862639,-0.35308534,7.9790144,5.304779,-2.2309613,3.5508494,3.6827288,2.600107,7.4848084,1.7158978,0.46661693,3.7058256,3.441704,1.8426988,9.249576,5.508396,4.7936177,-1.3965843,0.69963455,0.1278802,20.363043,6.740357,17.980062,-5.1984763,3.3484771,4.683281,-3.0757058,8.438197,19.15455,0.5629445,6.3835564,1.3627826,2.2644167,9.659704,1.0449122,-1.1836776,7.657952,11.526958,2.9050434,3.2505722,1.2038229,5.3778677,0.03714431,13.676897,5.292597,-2.045854,0.25328675,2.8670068
architecture_161125.jpg,26.453062,-1.0249033,17.845516,3.0580213,13.021845,23.555115,9.009242,10.787701,6.9224744,13.828869,11.646565,-7.5348587,34.979485,8.258668,-2.5336714,-0.4755064,-0.13360947,-3.2665048,7.620144,-0.6734253,26.297918,0.59313506,3.4473672,1.7478946,2.0231814,16.160294,4.5995736,8.365493,-1.9344561,-2.857728,0.7017162,1.6564741,3.2653642,11.773077,5.096237,0.15398207,2.0617063,3.0026414,2.4370406,-2.5347583,0.7951144,5.6654086,4.469416,10.068309,-1.1819041,1.9330716,12.308433,0.3379221,10.573968,-4.611499,6.779721,13.417446,4.938809,3.6398942,14.7076845,0.4245609,4.8590183,1.1945729,1.9998839,1.5701841,0.4279783,12.331356,1.6846148,3.3004608,2.883514,2.2217314
architecture_163505.jpg,34.710884,2.681817,10.943551,-0.49939042,14.72098,20.213148,-2.9712806,36.10895,3.8356104,10.34852,1.0058306,3.0842717,30.942223,3.9439003,4.600935,4.605327,-3.0424123,4.960712,17.596413,9.963354,14.532479,4.9758916,4.5350304,3.2222488,3.9300003,5.1153336,0.025418354,-2.2258265,-2.5811992,1.7981579,7.1896076,1.7932584,14.29725,5.445173,6.199453,-1.0750135,9.112821,1.1558205,11.385416,4.1407347,4.1926703,-4.7053614,0.64947,1.0779976,-1.5620824,1.0902956,24.407875,9.037706,2.0554087,-4.6311088,0.8665992,5.3667197,-0.28002927,-0.44026887,4.416197,2.6155007,-0.9121597,0.31098312,0.94591826,-0.7911404,0.1318764,4.397538,2.7501826,-2.0680068,-2.6621208,2.5907252
architecture_163801.jpg,27.77256,2.3365571,6.773226,1.7241987,10.897191,28.017014,4.3656073,23.389812,4.5841985,18.650566,5.521719,5.8579736,33.033867,0.21984391,5.151313,10.824023,2.3141677,-2.1628323,7.5942917,6.3885407,10.320838,-0.46025103,2.3969202,24.879822,3.6704924,3.538471,-0.6893842,7.3746653,-0.6906568,-1.274087,1.8201377,3.5436325,3.6246054,2.8306174,9.462157,2.445234,3.204019,2.521603,4.6355286,-0.52740884,1.0532777,1.4210044,1.7300076,5.8573446,1.5532709,0.71424174,19.806416,-1.318455,12.019513,-1.1578825,3.6806145,10.303897,0.79326445,4.124662,23.141464,-1.123013,7.5190887,1.646702,6.397306,1.1181928,3.9703653,6.596646,-3.3395958,-3.261786,-1.3274384,0.06541356
architecture_163945.jpg,34.236786,10.079741,14.236641,1.972165,7.6808705,7.327412,15.271738,27.534145,4.2677097,11.072885,8.232364,0.93677473,19.372501,4.914586,0.029812101,-5.3945518,1.2113327,6.0273433,18.67113,5.217924,11.946046,5.077918,2.7645292,5.1006174,3.9180377,8.971752,6.5875626,2.0214345,3.4574163,-1.1809596,-0.80981785,0.8124494,6.814891,7.086012,5.9772263,-5.9452243,0.8136998,-3.9313025,8.047705,4.742967,6.450948,3.3750992,1.0039918,3.7844143,4.5404763,-0.03574686,16.990263,2.4360456,7.548702,-0.62662095,0.26073903,12.285147,2.8794858,-0.39951545,12.081314,8.782397,0.35608745,1.0379287,3.3736482,-0.13870281,-2.122624,5.622227,2.7272303,-2.2669992,0.2318427,4.667049
architecture_16397.jpg,29.726341,16.60241,1.3421385,3.0835526,8.438262,21.52104,-0.54160005,15.782064,9.517917,12.446782,2.9914513,-0.8098983,26.056692,8.740426,8.401707,-6.3013973,6.58447,4.134263,4.6050525,6.245963,20.255037,7.59779,1.725377,5.006157,5.6422486,0.72434604,0.54291546,1.3293604,0.27761412,2.7477975,10.609833,-0.70017296,15.050475,5.078388,3.7542636,1.0722764,6.4959435,3.1624835,10.689397,-4.2187276,8.97222,5.4941998,-0.5972255,5.1102457,2.5989597,5.500832,20.822145,5.152925,2.8338478,-1.4671333,3.0365517,13.014749,0.4459006,-4.832906,0.24201125,1.2841806,0.12980837,-3.4149354,5.9401145,3.6658242,6.3415127,-0.10604772,2.8072834,-3.90133,-3.680256,6.394951
architecture_164236.jpg,28.929039,11.253808,5.547618,4.6814213,4.460647,31.111414,10.490045,13.77796,2.9022744,16.928587,5.243377,0.46111512,25.682917,-5.4983363,2.650483,-7.221916,1.4089487,9.35293,3.859047,10.91189,23.690863,5.0128484,4.6121936,4.8168774,4.757316,2.8351116,7.1784043,8.167936,0.56962556,0.95153284,2.9721045,-0.4851425,4.17735,4.276802,4.395474,-0.75422597,0.06165849,4.702155,2.3550804,1.632801,4.1357117,5.4822297,3.1382072,3.8574748,4.699747,1.5153557,16.690046,4.1930532,0.47040683,-3.2178264,3.4629147,20.168732,0.6759465,1.6439555,7.559289,0.15016948,-1.8097845,0.024619652,3.1523466,0.49113786,-0.103743,5.42722,4.6259074,-2.4770405,3.3371274,2.2357316
