image,0,1,2,3,4,5,6,7,8,9,10,11,12,13,14,15,16,17,18,19,20,21,22,23,24,25,26,27,28,29,30,31,32,33,34,35,36,37,38,39,40,41,42,43,44,45,46,47,48,49,50,51,52,53,54,55,56,57,58,59,60,61,62,63,64,65
scenes_airfield_00000312.jpg,20.713367,6.7382903,24.213318,1.1383352,7.526332,5.0754,3.33246,47.046463,4.3021173,1.5569931,10.011953,-0.99316156,13.741154,2.629306,6.0599036,13.226898,5.1734967,5.963423,3.639621,-3.4681454,-2.613308,0.5832383,-8.550762,2.631163,3.7967482,3.7272058,7.836134,-0.24535568,1.8912673,1.212323,6.020762,3.1231,-3.3444366,-6.1698327,3.6458418,-0.30816075,1.2223333,9.525798,30.778526,0.45381933,0.4009853,-0.89662176,17.14717,0.38145667,2.1114283,2.4341197,5.039675,2.0119417,6.246081,8.405241,4.6694098,5.7522035,-0.6077806,-0.6163019,2.1130342,-0.70554817,0.4640394,-2.3584063,3.3373973,0.6197764,5.7331505,0.07078585,4.153331,-2.878511,0.3288606,0.24762426
scenes_airfield_00001560.jpg,34.47362,0.656544,3.4701533,-1.0460013,2.4484394,4.6022058,3.8562596,57.334686,-2.499711,6.876185,17.901064,1.6388048,11.201629,-0.66474706,6.144123,16.370466,1.8323863,2.5807426,10.622524,5.268901,0.20399678,5.058849,1.4161768,5.7534056,2.3155575,10.192403,4.12018,-1.05011,1.6621981,-1.4946048,6.29972,8.245602,1.4715673,-6.6997194,4.0181103,-2.0505235,-0.8043759,10.790637,38.88269,10.713344,0.093958944,-1.3278103,3.7081177,0.9614966,1.8102329,3.75095,5.404652,5.860426,1.0179901,-0.45624626,2.6488261,2.2344751,-1.0847077,-0.42251015,6.7909837,4.3534765,5.0956154,0.7272454,1.1937367,-2.9886887,-0.08704439,4.341019,6.7974596,-4.1486588,3.639552,1.0789707
scenes_airfield_00001566.jpg,39.974586,2.1183655,16.307507,-1.1714702,-1.5984644,1.1111431,1.5374975,49.457115,-2.6940162,0.7076743,17.873913,4.702218,13.234901,8.488551,3.6667817,21.30486,-1.2701727,8.343048,10.249025,9.541735,-4.1050186,4.2047944,0.44000438,6.4263725,1.5664,6.594245,5.401102,-1.0175444,-3.3182442,-0.074325785,2.2930071,9.583933,4.5315413,-6.4388976,3.4104114,-2.50972,-0.7453043,7.460149,36.437237,6.1342025,-3.3446767,-1.8199692,1.1412544,5.4199386,5.755553,2.4802506,11.924805,6.8854795,1.3834811,1.799136,0.80159736,6.480693,-0.18356723,-0.77856827,4.4578943,2.3570821,-0.48929676,-0.61674005,1.9448158,-0.37099826,-2.3466547,5.792426,6.8884244,-2.3516643,0.8785109,0.0022713328
scenes_airfield_00001633.jpg,34.51393,-2.7097955,13.832897,-1.6489394,3.104817,3.9024997,2.408865,48.655216,1.0388411,0.10544262,21.408806,0.88921523,10.426565,8.104056,4.6224585,8.02472,-0.5093114,0.8306752,15.261197,-1.3864832,6.2862625,2.297411,2.041372,0.6798696,2.6822002,25.229258,6.887733,5.816345,-1.2616913,-3.0754344,-2.4772806,0.5755529,3.8604114,7.52537,2.8711226,2.1428723,4.8661923,8.039272,38.013042,14.244919,2.9709258,-1.9916568,1.2210376,2.7039633,1.4295058,8.511777,11.757138,0.62640953,5.5520983,-1.7403073,0.7153965,6.193127,5.6763496,2.3477528,3.7086382,6.45588,1.6778195,2.5400264,-3.7668798,5.3071604,-1.9093977,3.4595773,-1.0837141,1.1564486,2.3780563,3.6565707
scenes_airfield_00001912.jpg,40.072014,-4.338362,9.024761,3.2755964,2.8024304,-1.2450757,6.634635,47.956528,5.209426,0.8402802,23.621069,19.307453,5.3068852,11.872177,0.18849461,19.135986,0.4110517,5.5267587,9.574578,7.986184,-2.4701977,1.5511595,3.2822192,6.1823993,1.4539263,19.710726,4.967459,1.7792298,5.8002796,-1.3140272,7.632511,7.5125375,5.3700356,3.0075324,2.5797403,0.76740587,6.0840044,5.501179,36.250202,9.413986,2.825297,-3.230585,2.6521068,1.8920969,12.135877,7.1214094,4.4487557,2.7006936,0.03990438,2.17303,3.6559124,4.381217,5.344899,3.9070628,4.0640726,5.294811,4.104297,3.3522203,-0.43538642,1.9917054,-3.9737747,2.9189675,0.64577544,-0.41559097,3.932933,3.4122565
scenes_airfield_00002070.jpg,30.771065,-0.29840553,9.300141,5.488175,-0.6860393,4.29252,7.896696,54.000748,4.5887585,8.328324,15.998307,6.6633143,13.785946,4.813561,3.1184938,21.838055,4.8264766,2.3398213,11.722468,2.355145,-2.760436,7.6288657,2.5488055,9.393885,7.53341,6.0268736,5.1745915,-2.8148885,3.371682,-0.5463699,10.548646,8.892901,2.4231973,-0.14820202,3.2317445,-1.1812613,1.514405,11.548966,40.72986,3.4157705,0.16790074,2.6892014,1.744264,3.6614537,4.266475,2.6443381,9.939905,5.444301,1.8826772,0.45500305,0.99202096,5.3399525,2.6508582,3.352283,4.919758,2.8805764,-0.18280539,0.78633016,2.8729634,2.0458329,-0.7947496,1.8071654,0.17136107,0.022661313,4.0727563,2.974325
scenes_airfield_00004129.jpg,36.533047,-2.8531618,16.466507,1.2210567,10.17706,2.9494362,5.930523,48.903244,2.1495423,6.064429,18.814192,12.931082,11.408762,5.2924886,3.298258,11.607211,-0.11285646,2.7825212,8.880057,3.8460045,-4.578794,6.687625,5.130446,8.683968,0.26520547,19.084013,-0.6553017,1.5851134,4.6798267,1.1292286,6.5934224,8.286129,4.7056785,-2.7139938,3.1267471,2.0054362,3.8569655,9.655125,37.91059,6.2973113,0.5126122,2.4789963,3.092877,1.0155966,1.7094295,5.866247,10.856604,2.5846987,6.051803,4.0011687,1.4568932,4.7335796,-0.21478964,-0.7372944,10.623327,4.1964855,5.496389,-1.2206525,2.1070938,0.4700707,-1.2292892,0.96261835,1.4918127,-1.0495481,5.68057,4.0339904
scenes_airplane_cabin_00004853.jpg,15.459582,-2.1779795,15.506828,16.028421,-1.1077431,-0.33020186,7.684791,27.818378,37.29224,-7.942715,11.297779,11.009631,7.541354,3.3323631,3.0850382,24.394331,0.6119352,8.445398,13.538822,6.251571,-1.4972472,6.626251,2.3757956,3.227589,3.7278652,12.758395,4.9842787,4.4223237,3.0742476,8.387223,4.394006,1.3036975,-5.327808,-0.24468274,3.7591138,1.9036528,10.588185,10.622781,28.118107,7.4236197,4.9190903,-0.6699876,1.9900873,3.6022923,1.2431422,6.5174327,5.55452,8.311267,5.050282,3.698422,11.2395525,3.7362714,3.0549939,4.5274706,3.5560622,5.101139,8.634856,9.1340685,-0.6008332,2.5138826,3.6800697,5.377284,4.0296135,-0.94846666,-0.13529123,-0.9285091
scenes_airport_terminal_00000869.jpg,27.482632,5.749513,4.4618425,0.1137868,0.40898886,22.728043,18.60154,32.479645,17.666117,4.0732465,20.6508,5.948666,9.260589,1.7507089,10.553145,7.7992516,3.02911,8.42099,3.0299718,14.53159,1.2782967,1.2906734,6.061525,5.5387244,7.628812,2.1080043,7.0308924,-2.0960293,-2.5419436,-0.7243277,1.5826907,4.46442,6.1689496,-1.9217923,2.9180043,1.7018589,-0.40709287,5.6391296,13.250401,-0.116677724,0.51625174,2.0223207,1.7144713,1.6368071,3.958245,2.2110019,19.370665,6.9386373,10.498992,5.511014,0.9114731,8.238733,1.3638059,0.13043392,-2.362511,10.237927,1.0447148,-1.8542876,3.850498,-0.7933784,4.558736,3.2249734,5.903115,-3.5535297,-1.2816905,0.057294127
scenes_airport_terminal_00000942.jpg,30.78655,-1.3177147,5.3344884,-2.7025924,0.676403,17.66308,9.226645,34.0902,12.522539,2.3430016,18.915129,-0.9085796,18.909157,11.375059,8.094736,5.848068,1.2800821,4.9352894,-2.2575116,7.4944787,4.8373237,5.863392,-4.140021,3.8798034,10.7400055,2.7558415,4.453,-4.0346484,0.16171895,-0.2331799,10.5609255,3.6069791,6.6776366,-0.42514,1.7785602,3.04713,1.1157699,6.2396774,19.02968,0.08208528,6.5455065,1.4423394,2.5970333,5.414705,5.153956,5.3708053,16.926176,11.141964,3.8427987,3.1726167,5.029869,11.747093,-1.0212384,-7.320388,0.3996091,7.027027,4.018284,-0.043137092,3.4520426,3.7239075,2.032577,1.0974815,8.63421,1.4381362,3.2398636,-0.17548344
scenes_airport_terminal_00003159.jpg,21.412485,17.003887,0.21332446,6.582341,-1.6466634,29.612267,16.786358,15.195529,11.019503,7.109454,16.549585,3.4597068,1.9174801,3.9447029,19.192871,4.5880394,1.2938807,9.459818,13.083595,10.541089,2.0709655,8.877068,3.9169998,7.283488,8.679531,2.7912,4.479944,-0.27543122,-0.90739775,-3.2932754,1.184258,4.377059,9.446319,2.3588448,1.7562761,1.3409357,-3.3309054,7.571567,16.014538,2.057357,2.3318052,3.4446611,1.0152644,3.4961686,-0.90430367,1.20468,22.538,1.0439506,6.5783663,-0.100964144,0.7806741,15.789051,5.842466,0.14695963,0.6468647,1.176616,0.9658443,-3.1172807,-0.639709,2.160449,6.498457,4.8177676,4.863217,0.07461971,-2.1172206,-1.9083205
scenes_airport_terminal_00004269.jpg,26.047531,9.536868,18.158278,3.800479,-1.8467271,8.954793,3.0118794,33.965897,39.97911,2.0861237,8.508955,1.5983222,1.248768,-1.5547278,3.8016963,6.0747824,3.1466913,4.8116126,4.5368967,3.5995562,-5.4466715,1.3379955,-5.1592016,9.929864,1.7198291,3.353335,7.7015333,6.5164924,1.3407203,21.72253,3.3510962,6.0173035,0.7034203,-0.4999798,14.468251,-4.105971,1.9197483,30.590862,6.710499,-0.5917372,-4.7125416,-3.9436758,-1.6253197,7.865368,-1.4114814,1.0131255,3.5909555,17.505383,3.900445,-1.941073,3.7408795,2.663437,-2.8817415,3.8539858,2.204005,4.131302,18.138065,1.8191824,-0.8497861,-1.5789615,3.6763272,0.43800566,0.6593792,-3.7463493,2.8458037,0.19866908
scenes_alcove_00000742.jpg,30.268494,3.9466605,1.2790346,4.928043,3.8845077,44.196453,36.496613,11.032635,-0.18966095,23.762768,14.172232,5.5185595,5.964104,10.483524,11.973247,-1.8189898,0.71008736,9.371153,2.5344813,2.4495292,2.2241468,5.8576293,-5.7515917,3.2064822,4.5934143,-0.7397052,1.3216238,15.526882,5.304913,-4.0744734,0.24833438,5.7517724,-1.800221,-0.7199321,2.0402274,4.217542,-0.7674928,12.379297,-1.3129121,2.5563943,2.983353,4.0037746,2.650912,3.9125395,2.6382182,1.2311031,6.3757105,-2.1335962,11.497947,1.2811998,-3.3478444,11.030314,0.48731452,2.7072837,8.4406185,5.2192836,-0.58256274,0.93039984,2.9007423,-5.995366,4.1521764,2.322108,0.073994905,4.2746305,3.3294797,-4.1245112
scenes_alcove_00001548.jpg,12.022328,0.5562921,22.418427,-0.4091097,-1.9161571,13.300689,17.327377,1.4622235,28.168053,15.999121,3.7321973,-0.74642396,20.766644,6.2040367,1.6716049,7.9664087,-1.6955535,8.785148,8.924871,12.702185,12.842807,5.798477,3.054471,-0.5978512,5.280111,10.949594,7.6286902,1.0897195,-1.1467186,3.7530315,5.3696704,7.4296155,3.4136243,-0.4101427,2.0622783,4.6516848,-2.318231,0.640558,7.992425,2.6016448,1.4198079,6.401453,1.9810189,7.3569956,2.9479704,9.210918,11.313893,3.1216812,6.5073066,0.9006068,2.4004626,16.867691,-0.8624257,2.319655,4.216512,1.2414508,-3.3881915,-2.402932,0.75909495,-5.96272,4.122863,1.8024683,-2.0768373,-8.449578,5.900141,0.7233044
scenes_alcove_00003444.jpg,40.451023,10.949428,-0.59710944,22.120838,-1.5790728,42.21164,8.141701,4.112774,7.095699,15.645602,20.023796,7.39209,1.776429,-2.5466735,8.106109,-2.1372328,7.0328646,6.735583,3.5163696,7.9336348,9.710165,7.394161,4.2310286,4.001362,4.0206914,2.5200975,-0.028063776,20.8793,0.51924103,1.3672506,1.979403,0.88625234,0.26489958,-4.02325,12.505096,4.268612,-4.0289774,1.8111488,-0.24379902,0.54849505,-1.8325061,3.762916,-0.39930874,20.142677,4.2927246,6.140427,7.226315,-0.15671295,16.837818,2.7009833,0.81389844,7.6827674,-1.6886138,4.1831913,2.2220411,3.0535872,3.2162852,-0.17616194,2.01435,-1.9975655,2.89468,3.2146952,0.92758375,0.07338282,-0.7768308,-3.0591474
scenes_alley_00001377.jpg,24.705385,6.52893,14.026596,2.8003738,11.800681,9.210096,8.766367,28.344244,19.398659,6.1278815,8.644962,3.5685253,32.924488,3.681955,14.843808,16.29169,3.2966204,6.0393643,9.818797,10.396602,10.068588,5.68987,5.0911007,3.0629478,15.48517,2.5830162,7.195094,5.9399257,0.5257328,1.3090487,4.386098,6.36405,5.064962,3.791735,5.381803,6.1577153,3.210774,4.2910247,5.1441965,-3.258025,0.14261776,4.1614323,5.267829,0.6754119,5.19128,3.182139,12.257555,15.51831,6.0525084,0.94552934,7.9793587,11.959853,2.6083217,4.583295,2.997365,7.7979527,4.463288,4.1421003,2.1428175,-0.6153077,0.884715,5.9665446,3.2878048,-1.778085,1.0101976,5.4488277
scenes_alley_00001493.jpg,36.63395,0.25021023,2.904122,1.8227998,4.4312673,22.602125,4.233458,17.864017,5.389359,14.515242,6.0325675,-0.9412997,30.383713,1.4768958,5.906721,2.5824218,-0.3937589,4.059268,5.125041,9.072736,21.43311,4.706113,2.6361392,4.6760926,10.550741,10.244861,6.767948,-0.9446257,-0.6808011,0.68318915,7.205742,4.4235864,10.197806,4.3878484,5.7402396,2.8335264,7.5249405,2.3735847,5.0693827,-0.13482226,0.22870637,6.3499846,3.9348853,8.74543,7.807558,1.9912734,18.53479,11.301684,6.8571353,-2.3288312,0.7505955,15.987968,3.0820127,-0.81568444,3.724057,2.1806276,-0.6829906,-0.16840321,6.469046,1.2913893,4.0517287,3.6668975,1.4673985,-2.0481656,2.136642,6.339726
scenes_alley_00002244.jpg,26.971495,1.6455714,11.418778,3.0032575,-8.127477,8.4927,11.057112,27.004593,32.584515,3.730415,4.4993854,1.1877667,16.006683,3.9320893,3.5583827,11.33445,2.646456,4.08562,4.936961,5.73963,10.047288,-2.7335756,3.0808735,3.3231225,6.424998,10.80255,10.849035,-4.3994966,-3.282413,6.2686963,0.2594225,7.979651,2.8482878,4.3914,0.48626298,6.0635076,3.679734,1.9169675,-0.28305036,-5.982543,-2.5095937,-4.3412795,-4.464755,1.157308,0.45889056,2.324444,10.036524,15.843849,5.579583,-0.90299845,3.7949934,8.981016,2.974999,1.846303,-1.7361071,9.304249,0.9098018,-2.2230732,-0.3690164,-5.337353,-2.0141304,5.185999,2.2953448,-7.0080466,1.5949469,-0.12976882
scenes_alley_00002607.jpg,32.44217,7.9745383,-2.5877328,1.1957202,-6.242422,8.062643,16.126625,32.257004,13.675536,2.8765035,7.663495,17.52513,18.671698,6.9509225,16.616913,11.599789,2.8979092,-2.0500042,3.9500825,15.477264,4.750458,-4.439304,10.36959,7.541389,6.342456,3.1367936,1.9775534,-1.9419398,1.7035574,2.812432,0.05329121,8.142636,10.606668,3.9024909,2.0794973,3.6251597,1.3041749,4.9793878,2.0240386,-4.1704197,-5.205454,4.707172,-0.6347085,-0.76959413,4.183999,-2.7672088,14.851999,10.880234,7.382056,2.5864477,8.154336,6.9900484,4.031435,5.8478312,3.292701,4.2003264,0.6208975,1.3104296,1.5275061,-5.944619,-1.0448827,3.5930195,2.7596753,0.30196217,-3.000482,3.4132528
scenes_alley_00004311.jpg,38.860893,-0.48150542,14.461106,-9.664286,-6.8795815,9.315284,7.6294107,33.3896,16.489897,6.5432744,4.971217,-0.37120265,20.049347,12.315605,13.28809,17.684273,7.724624,2.3248873,13.197555,7.8091645,7.6906095,-0.11966955,-0.3814885,-1.3677471,4.632403,4.954484,8.060535,3.046611,-1.4437749,5.6650467,2.2590513,7.777206,2.1375089,3.208626,1.5417448,4.330328,2.1645691,1.369182,2.5589936,-6.3447804,0.28717765,-0.7504682,-3.784903,2.042942,1.6372254,-3.0897186,12.198719,9.498281,7.6708465,-3.3968203,6.0244536,10.1197405,1.8108222,4.2284055,5.0644693,7.5024514,2.2069976,-1.8538475,-1.1010587,0.5377177,-3.2991557,1.1345237,1.9865274,-4.3213725,-4.0797086,2.2315023
scenes_amphitheater_00000731.jpg,17.317162,21.902105,11.989144,13.967344,5.4000087,0.5121624,20.05218,5.4153757,24.31596,8.867539,0.2718422,5.1232977,17.109848,11.929873,1.2542272,29.409037,8.856587,0.16422924,-2.6786013,8.781509,6.5745974,5.976894,-0.0868001,10.467197,10.447691,22.342262,8.0608835,2.5915883,-3.8777664,1.012389,8.236914,10.446719,-0.5354536,3.4434862,-3.258092,6.65793,1.9151843,5.5017786,5.4710684,3.9997551,-1.7918078,4.595865,6.0059657,-4.1576514,6.718979,7.2275662,5.214372,5.2040267,6.1452227,2.023079,2.6071093,14.83141,3.33909,4.567275,9.19101,1.7621651,3.9690335,2.0454597,4.4335775,1.3535467,5.197732,1.9584984,0.52550805,-1.5776739,2.729816,1.357384
scenes_amphitheater_00002569.jpg,30.215948,-5.082472,15.103884,-0.055610247,5.994397,3.0428534,16.093632,16.788883,7.244775,8.445343,5.7545233,2.5475352,21.715092,6.058128,5.2561626,3.3856277,-1.0180146,-1.3457801,5.7417846,4.92665,20.936197,2.824253,9.202175,2.6428454,2.3515954,8.540314,5.0984635,-3.743399,-3.2972794,-5.4722114,-1.2180765,2.4269412,7.664915,3.359876,5.313661,2.7564228,4.0020833,1.6980518,2.279637,1.446502,5.3728085,4.682007,6.5279574,3.7891738,2.7355957,2.304587,13.475439,2.5902438,0.14246348,-1.256003,-2.8503792,14.587538,2.0402946,0.5538719,9.741687,1.0523237,2.5414832,-2.0066376,3.831462,-3.403826,2.378909,3.3940427,2.1352525,-4.8698554,-3.251204,2.2714074
scenes_amphitheater_00003853.jpg,24.498215,-3.6433518,11.946343,1.7250988,5.130263,23.63396,3.8602962,8.991145,21.910095,11.026064,-0.34145242,-1.2461238,24.184803,-7.7451,6.6537886,7.5305095,1.0181583,-0.8821857,3.951986,8.907356,14.465399,6.263806,10.687218,2.241738,5.106273,14.09012,5.3978944,-0.79318696,0.5110891,-0.28632116,7.177316,8.324876,11.890515,6.038435,2.700579,4.445487,5.781061,12.440161,7.6208196,1.0157613,2.0710452,0.90377975,6.1943545,3.5732694,0.88605034,1.3032295,14.685577,6.036776,0.82211757,-7.525117,-0.94520503,13.57877,3.048512,3.0293827,-1.6568127,1.9415901,2.2587593,0.1385565,1.7302163,-2.2287056,7.383015,7.484898,0.99846756,-7.9515843,-3.1888962,6.821643
scenes_amusement_arcade_00001494.jpg,18.312494,4.4898963,4.194587,5.7863503,-6.813399,10.842887,18.091389,23.015572,22.378454,3.8874733,23.438133,20.120209,-0.9565661,6.812012,11.044762,36.885746,-3.5407014,2.6472783,2.9143584,9.510754,-2.1481996,-3.9606113,6.990205,8.389257,2.4773035,-2.0182843,3.4629784,-2.19765,-0.91460925,8.445084,-4.0597196,9.24617,1.6348846,3.7268918,2.3460183,5.289682,0.88491106,4.4249187,3.2282486,-4.2214994,-1.4920467,-1.7874874,1.3613609,1.059552,0.30730683,-2.7753868,7.3472576,3.6970384,7.2019963,3.1653101,6.791704,7.3631315,3.1073344,9.331224,0.96360856,3.482981,-1.8340707,2.5380967,-1.8898702,-3.2170658,0.772868,0.8554172,4.4371343,-3.677579,-4.015952,-2.3824244
scenes_amusement_arcade_00002073.jpg,25.019804,21.766874,4.4240465,-1.4731642,-10.005224,22.5184,17.27951,15.406193,16.099352,11.816595,25.296577,15.061572,-3.0170853,7.11433,16.352085,39.368267,2.4237587,4.0203114,-1.2735313,6.684187,-3.63115,-0.22953576,5.600653,5.581645,0.7617803,-2.5735936,1.0488214,0.03440501,-5.213455,9.764079,3.2136116,18.10288,3.604043,1.3396555,11.079977,5.1410675,-1.51258,5.4277005,-2.3985267,-0.7040659,-6.5362678,1.8182138,-3.8205423,3.3735793,8.6670265,-1.8700017,5.364617,-2.7431304,10.064639,-1.0400678,7.784307,4.535969,2.6038806,7.2705903,0.7928934,0.62678593,-1.715252,1.365442,2.5600471,-3.6031663,-0.37066987,2.5339782,2.0970144,-2.771989,2.5523882,-4.7429504
scenes_amusement_park_00001398.jpg,22.9559,0.39572987,3.3249168,6.6196957,-0.012498535,9.033014,6.2931576,40.558075,23.961042,-4.998689,8.139673,2.5281203,17.442694,5.6799703,3.0586333,22.390232,8.408668,4.5165353,15.288162,-0.67844933,0.26204768,0.24611726,3.2762036,10.010023,8.116462,-2.2758794,5.7089624,-4.3434715,4.9715624,5.8241434,5.0118265,1.1837857,4.8194656,6.3866444,-4.1121297,2.2334166,3.7603304,10.486775,14.979497,2.537971,-1.9539038,-7.311209,-1.876442,6.619635,-2.0163946,0.72807103,18.078285,6.8247848,5.9002275,3.4677033,9.439946,3.6963105,3.600365,4.944133,3.8904781,10.008918,-3.2040284,-0.5066617,-1.5440004,-3.962426,3.4569442,3.4343858,8.586831,-4.250234,-3.28795,5.821431
scenes_amusement_park_00001748.jpg,27.159632,7.0054903,5.4733152,15.51639,5.421497,9.576656,3.0327911,17.560717,14.813474,4.9817996,12.706431,4.216123,18.084005,7.035408,7.848324,9.563079,7.870981,4.720423,9.151127,7.128052,16.191938,10.126555,2.1345298,8.424381,13.542891,4.8038406,14.064654,-1.9553192,4.5075293,8.04201,6.4040275,4.2439094,12.341692,15.481022,-1.1559024,1.7885149,9.330116,0.7593714,16.148624,3.0626533,12.009833,-4.0871205,0.97867215,3.7512715,2.521305,4.8040657,19.919443,3.2065353,2.1880023,-1.0000443,9.116537,7.881327,8.649817,2.2622983,2.2477386,11.531814,-2.5032623,1.9920757,2.36043,7.846558,2.1054835,5.839584,3.6834915,-1.7555224,-4.457395,8.430119
scenes_amusement_park_00002569.jpg,12.030674,2.6879828,5.8065934,7.555531,-7.0321603,11.188137,18.910973,14.720122,22.473377,0.23195446,14.744766,23.094166,7.3506536,6.864423,18.505058,26.295033,1.2980322,-0.6810417,4.330179,7.9950624,2.3480554,-1.047909,4.7624607,7.6676855,4.7749825,9.323584,8.619244,-2.8215263,1.8740005,7.5648403,7.6310134,8.42054,-1.0877109,2.0722811,4.2194276,4.5484743,2.323965,-0.5230709,1.7097923,4.869647,-1.5853148,2.3210793,1.9169954,5.1325293,10.74848,2.6705127,10.453967,1.2309319,9.055784,8.209857,9.669553,12.89578,3.0171723,13.744778,1.7115093,8.229825,1.1373339,4.7902775,1.665869,-2.7100856,3.4232683,1.7746018,4.5792446,-4.1660504,2.4801676,-0.08174935
scenes_amusement_park_00003176.jpg,16.411655,-1.9752553,1.9585794,22.378294,0.029684883,7.900674,12.711514,28.291485,34.30085,2.598503,4.201829,15.0125265,10.152436,4.04629,5.2534547,32.291267,0.6798803,3.8041656,17.733456,2.9745407,-8.04491,2.881946,-0.2903975,3.6193259,10.182222,6.8125353,1.8118184,-1.4574807,3.019501,8.288273,0.861968,6.573179,5.1557055,2.9426277,-0.8782238,2.768112,10.890366,19.73588,15.409703,10.613581,-2.5921974,-3.328396,3.9947093,5.7544694,0.32040355,-0.9326932,18.448235,9.128388,5.7810197,1.977134,6.806989,10.618234,5.063903,9.079738,6.7249665,3.5258315,0.16325833,3.738839,-2.2401848,-0.6711756,4.6347475,4.2389264,1.3818134,-1.6605612,-1.9005905,-0.7403247
scenes_amusement_park_00003253.jpg,10.388412,17.498512,19.767933,9.83222,-2.0758197,21.737103,21.251307,9.134713,40.78773,4.962904,-1.3306137,3.6878057,14.506022,-2.0207188,-0.007623178,3.5053003,3.5613499,5.468101,4.3463345,0.23969002,11.94904,9.116889,-0.7263643,9.355289,2.8507369,11.113322,7.739335,-0.23068479,11.690287,17.871235,3.3693557,6.411068,4.3034453,-1.7489368,-2.6706166,2.9784536,3.4503236,1.7218158,9.577333,0.68372154,3.2602766,5.8129826,-0.05027894,5.2243204,4.607719,2.439803,14.025956,2.752599,1.9292455,1.154664,5.467171,18.42728,1.4629579,7.5285635,4.7750344,5.706492,-1.2641199,3.1305,4.6136923,-2.341335,4.6273637,1.2921379,0.23253569,-1.3730652,-0.25829467,-3.4512148
scenes_amusement_park_00004580.jpg,30.227316,6.3170476,-3.0814514,1.0322886,8.296707,9.525435,-0.5613843,34.013252,-0.56519437,4.517865,4.8035307,6.675932,29.985485,6.9432354,14.921874,23.460514,3.6230702,-1.7710721,8.761656,9.078,7.3686934,3.9374862,9.746594,3.4864645,10.808876,1.5124518,4.0940194,0.56614506,-2.0378573,-4.1378827,4.7932687,5.1073833,2.2177112,3.2193284,3.450428,6.274619,5.470284,6.606607,8.951997,-1.3109643,-3.2599146,-3.6095932,1.8792702,2.6933682,1.7857025,1.1072118,19.018312,4.092467,6.576799,-3.1218593,0.31881744,5.638855,4.124859,4.481427,5.740812,1.5860025,-3.3580773,0.11228062,0.0015458558,1.8478665,1.5858114,6.6849694,1.5347203,-4.343205,-3.4093008,4.5414276
scenes_apartment_building-outdoor_00000549.jpg,35.242325,9.258013,2.5185738,0.39536217,8.100472,37.237156,4.349597,21.590328,1.1987319,2.9836826,15.884399,4.9444666,17.185299,3.1978476,6.006075,2.7868335,-1.4140447,3.1319306,9.0218525,10.207549,-3.7575707,10.781487,5.2711997,4.6017647,5.55812,-5.7227283,0.12145163,8.565816,-3.0661895,-0.42538393,6.768693,4.913661,12.869495,0.82444483,7.5997515,3.1845028,-0.23320685,9.903355,9.607868,0.13574901,0.49246782,3.9882433,4.7540226,5.621469,2.5592349,-3.2342832,20.847706,5.7161465,9.224634,0.8524527,1.3043005,10.231704,1.629724,0.18283501,-2.8893912,5.571541,5.2467093,-0.043848716,3.7540019,2.7117863,4.0518136,4.2291145,5.6568546,-2.9846632,-1.8045118,1.6137617
scenes_aquarium_00001979.jpg,13.740611,10.99615,12.442635,3.3187706,34.566463,21.621584,3.382253,3.1052642,-8.163185,6.2589192,11.865015,4.9589524,12.611625,1.3041255,8.927973,8.892331,6.034165,11.828072,38.714108,12.096909,5.1060863,-3.492458,-1.7149851,5.7473,10.878875,0.35719475,7.2049165,3.1480558,-0.018743053,-5.147041,3.0467982,7.151822,0.68634546,9.7387495,-0.5099872,-1.3027549,2.0626743,6.572133,-2.6613486,13.593048,5.5696692,-2.795184,18.636892,4.842272,0.8454647,1.7987022,1.2754589,-0.24091536,8.572112,1.670552,0.62500274,2.1565561,5.754424,4.575209,-2.1820447,2.3344588,1.1840848,-2.3326216,2.8238583,-1.27695,1.4953386,1.6639609,-2.195128,-2.2378027,1.3899864,-0.6116132
scenes_aquarium_00002126.jpg,7.0615573,1.0677638,65.10988,-0.16379035,7.200848,2.3431506,-3.0955584,5.9556193,7.4694805,-4.9456477,5.5395026,5.2996354,8.060773,4.734261,-2.3545632,9.290296,-0.20074,11.111249,37.732666,4.627026,8.4218645,10.135642,1.9021378,0.94372666,2.0326653,0.27202526,11.080501,6.8843193,-0.79545957,-2.8020282,2.5308757,0.517171,2.0408933,-1.292269,-0.49033156,4.972776,-0.73586965,1.8494701,8.439905,9.047823,3.414366,-2.5092192,4.4166813,8.544532,0.44895214,1.7015114,7.318803,6.397745,3.5831373,2.2923286,-3.2005496,-0.840324,-1.2652221,1.7148207,4.488707,-0.18229745,2.9932263,-0.38567948,2.4067533,-3.5749688,1.3457335,13.356027,0.12197252,-2.287785,-1.1684709,1.7311156
scenes_aquarium_00004070.jpg,7.5420303,-1.385223,58.822327,2.6946287,5.7411876,8.094591,-1.1811548,0.6966261,2.3876808,8.378942,0.7448051,2.2054243,9.02375,4.599003,2.1972601,3.115832,8.743696,1.0929079,38.00502,4.06408,13.149069,4.8230314,-3.1862578,0.039576367,12.565125,4.3023605,4.873046,-4.4163547,0.8802847,0.751594,8.597996,1.4154603,2.0540318,4.3716364,-4.5054755,1.7844024,4.251805,4.0504208,10.089853,10.646619,8.174948,7.5016932,5.2213125,5.9715695,2.7044795,2.1526563,5.880185,0.6396204,1.5210146,2.3368385,3.5800028,3.0561767,2.522268,2.0097523,-2.1923475,5.8112807,1.520262,0.22677,0.9138601,1.5455474,3.6343765,6.4311886,-2.5121837,0.32110247,-2.5640202,1.8891441
scenes_aquarium_00004784.jpg,11.875626,-1.6986973,38.070168,4.859666,7.308863,10.598236,7.9213185,15.0210085,19.064299,-1.7441841,9.59355,15.531757,4.467322,14.210394,2.4596279,8.881137,1.1407138,6.904802,41.474277,5.8889985,3.3723824,5.509277,3.8854508,4.587569,5.411455,3.7105463,4.908404,4.6653824,2.2029014,2.3767953,6.984352,4.4789667,6.452156,4.4809213,-0.97662526,6.5015607,4.8029995,4.6705627,7.262173,14.63847,14.072493,0.71313435,5.425223,6.463961,-0.4864489,2.84412,14.259028,4.8326535,3.7018642,0.29601026,0.6524912,0.64200574,1.3359821,1.2152084,3.8723772,11.087291,4.475951,-3.3405643,2.9581945,0.6218925,5.4701715,6.1440563,0.057636946,-8.493002,-3.2521904,0.5296633
scenes_aqueduct_00003971.jpg,16.99894,13.699131,16.030693,-0.83678347,9.113367,6.4503045,17.14253,12.97373,11.681289,20.592546,-4.3525195,-3.4370632,25.193623,3.65154,0.9052664,7.833323,2.2410405,4.9197493,21.020609,6.622363,13.814089,4.0472713,12.636405,4.3717017,5.6531863,11.642206,2.5046868,-3.5594575,1.7774107,6.2375875,3.0919034,4.2949905,1.1774445,2.7601902,2.1771622,4.9554334,8.487187,2.1870651,4.8124,-1.4041506,3.8015225,20.049126,4.917654,11.916053,5.5068054,1.8811815,18.270788,9.878896,2.8489974,7.8776984,6.4895487,15.940586,-1.280025,3.6800556,12.8678665,5.616209,-0.1415783,0.47467154,4.396941,0.14816126,6.2873273,4.6311407,2.0585632,-5.458005,-1.390588,4.7318993
scenes_aqueduct_00004864.jpg,19.110346,-1.0064913,9.702599,2.6863315,4.3437114,15.039222,0.3637882,19.888288,12.307393,7.7331014,-0.36175123,-2.2770677,31.904415,-2.722254,7.1840563,15.197566,4.3319416,6.8647513,46.736546,2.7328856,5.576431,1.267246,1.0411047,1.4679154,9.275453,3.0124717,0.19683558,0.89786834,-2.4778903,-1.2314055,2.628431,-0.014506653,1.7839372,-0.3478663,3.543269,1.7649468,8.249257,-1.2864265,7.650435,8.07094,-1.596431,-1.3852993,0.17291358,6.626457,-0.7028664,-0.63244486,15.477016,9.860041,4.1502857,-1.7012818,5.053631,8.938373,-0.32920277,2.3413382,4.493262,2.0825152,2.2107909,-1.5911456,-1.3717585,3.3847635,3.2669284,5.844553,-0.7958796,-4.90634,-3.092698,1.6202588
scenes_arcade_00000165.jpg,31.004772,6.1782727,2.0763755,6.04021,-1.5156454,12.70788,12.93001,21.078743,10.78006,8.639862,12.6618805,14.661616,23.893475,10.653508,3.2861989,7.025712,3.7459667,1.6331127,6.9993415,10.984677,12.375803,2.5029366,3.8626726,3.091289,7.528938,3.927868,4.8919754,2.1899557,-1.5442387,-1.8519076,2.0373273,5.788912,15.743163,7.9194465,-1.4818562,1.544174,7.200823,2.0410793,9.931785,3.3003974,5.319813,4.3813806,0.5964159,-2.8307383,3.3816152,8.251339,20.83745,10.196055,5.1992426,-0.26363373,5.3781667,9.109884,5.211285,2.5996668,-0.23465662,8.213861,0.38405097,3.825881,1.0275967,3.5419762,1.9799874,8.214987,2.1118834,-2.7480886,-4.304284,3.5215523
scenes_arcade_00003253.jpg,27.914158,11.339421,8.258103,-0.9071572,3.5148077,19.852472,14.3823595,18.496393,9.548192,7.6157055,5.2311997,1.6732736,21.476702,3.3947866,2.4458354,6.8721704,4.4165845,2.3635752,11.414634,13.360657,8.136558,0.7236125,-0.21978626,2.829786,12.100814,-2.050843,3.1906307,-2.0067751,1.5352463,1.1517555,2.729642,4.5575876,14.300746,4.499145,-2.4594254,3.2371423,3.5835643,-3.1396742,10.415702,-0.65027845,8.005879,1.2711834,0.26184055,-1.288611,1.4893104,-3.4970357,26.09191,6.3627124,7.6091824,-1.049144,1.726522,11.405131,2.1479867,2.9750955,1.2087156,8.148772,0.70751905,1.3344424,-0.17903344,7.312657,3.1356766,1.9379439,0.41774654,-5.423622,-4.619778,1.9019058
scenes_arch_00000607.jpg,19.061579,5.934608,12.379715,-4.444775,35.763042,11.444245,9.29225,15.5650215,5.286893,15.722508,7.2746267,4.078152,26.197231,8.543922,-1.5546558,6.2505746,-2.1193137,3.4528096,12.232283,9.1122875,20.995995,2.1188872,6.2050047,4.5221863,7.245306,7.794703,-0.024593249,2.9121583,2.6035695,2.1265714,4.831301,2.237767,3.2229085,9.893671,4.2968464,5.671749,2.7777643,5.4189243,9.777593,7.1618786,1.9551275,2.7565484,15.248071,5.853293,2.6859658,5.2963934,16.757107,1.1934497,6.4280844,-0.9027474,0.824291,11.640094,2.5560253,1.1251298,7.837069,3.4586067,4.02054,0.04465962,3.0279589,-2.5431938,-1.2870678,0.23797676,1.7971764,-2.7769682,-1.2426549,2.0145059
scenes_arch_00000697.jpg,18.944773,10.539635,15.7532425,-1.9654982,2.851022,23.799824,29.861134,11.872443,17.28704,14.826364,4.115587,4.0838366,19.707401,2.5153966,-2.42439,5.0730944,2.152983,10.590148,7.8012676,19.000404,8.448308,3.63539,4.199188,1.2351578,14.66746,3.7504168,5.5004244,-1.938691,-2.6506343,0.9539131,10.806599,10.689403,5.2186913,2.586791,-1.6900439,-0.27596185,1.8458889,7.537793,11.961626,3.9189982,9.222727,2.6214771,2.7930162,10.895908,-1.7980059,-0.40138894,20.592688,5.7288923,7.4322543,5.0499353,2.3217232,20.72383,-0.70075065,4.8584304,5.983653,12.099617,1.1774403,-3.0722978,-0.5989889,1.7191019,5.667102,6.041492,1.0309646,-5.7980957,-1.0785605,3.8493767
scenes_arch_00002371.jpg,15.347388,10.74173,19.460024,-1.4141324,9.930733,10.659738,6.505871,24.514952,8.205408,16.55909,-1.8686075,1.8376662,34.479313,10.677704,2.0240517,15.153949,0.50365263,5.4298463,13.188066,-0.31900397,21.109625,4.9008274,2.2526643,8.344847,4.5023932,6.2922673,-0.056810025,3.4950423,0.83003503,2.5835502,1.0014342,-0.49323553,-2.1872363,4.551017,-1.2363737,9.114638,6.680718,5.386888,11.401594,-2.4921093,12.580071,10.892941,0.42732972,1.1888804,3.2133803,6.7392955,15.424103,4.162577,6.732662,1.3313744,1.8607521,8.0470915,2.729475,1.1235548,9.291158,9.668371,5.903232,2.8559964,6.738665,0.2948009,2.0222301,7.225296,-2.0433974,-5.0003724,-2.1007285,5.505628
scenes_arch_00002372.jpg,38.999817,5.3225555,3.5933323,-1.939795,-2.382564,26.430395,25.578753,14.627765,9.403757,19.085707,-1.1891147,-5.5435643,22.084852,4.002439,-0.4166882,5.3499947,2.5540843,5.895284,6.4409547,8.331225,16.62406,3.6817393,1.6058545,4.6651483,6.2909536,6.7425914,8.395982,-4.242338,-0.7605273,0.58938825,4.6717615,3.8705328,-1.744567,1.2179687,-0.7935324,2.7021382,6.9776697,2.3662648,2.8270118,5.5017104,-0.32105333,7.115613,1.0005623,3.542459,5.6281953,-1.9465927,15.335216,9.417413,5.4343867,-0.7565746,0.031196885,25.488346,2.9768226,4.0991335,7.990133,2.140108,-0.7316084,-1.0253155,4.857877,-2.3737323,4.9594464,3.4817684,0.47304264,-0.5341594,-3.732454,2.026452
scenes_archaelogical_excavation_00001602.jpg,5.501206,1.9622865,35.119614,1.8846303,8.496181,5.13841,10.76192,12.098212,9.618887,14.070063,-1.9157058,2.705354,22.42167,-3.667444,5.199217,12.397796,1.014719,-0.16806258,12.962861,6.461403,33.892303,3.9395783,13.074321,5.0448313,15.308653,17.87052,-1.645019,-5.4906583,-3.3060894,4.9354115,2.2325337,0.97542983,0.023841439,11.273181,3.8659587,3.7403877,5.732687,7.5764723,3.8538005,9.397158,6.985059,15.236918,1.8081568,-2.155691,3.746052,7.0456667,9.392826,4.3664026,4.4068627,0.7865336,-1.7878493,8.850073,5.5274177,6.5453343,11.349483,4.245393,8.02315,6.170373,6.732543,5.2127457,-0.6730906,4.5268254,3.260751,-2.5105014,-0.08878987,6.4493327
scenes_archaelogical_excavation_00003561.jpg,22.034298,7.1158395,9.605688,0.7383022,-3.3776362,9.742392,28.596882,5.246504,3.7941594,25.053587,4.0020976,0.8961953,16.046177,11.439859,9.438952,6.689109,6.440315,0.0154605135,4.145798,2.1807024,31.418571,5.238316,1.869853,2.7273746,11.926703,16.615553,7.52359,-3.2392495,-1.9448522,-3.017707,10.620278,3.8769505,2.2365909,4.8066807,-0.56228095,4.295449,-2.1256332,0.09404673,2.2343152,-1.5597554,6.176553,9.473736,-0.6930259,5.9982266,2.3422306,0.1927461,5.733039,0.31071436,6.9886265,5.156022,10.645624,30.756744,1.4619848,12.8145,11.127022,1.5768694,4.520876,2.1704326,3.8763616,2.9357042,3.9703646,-0.7284729,2.4243002,3.3338218,2.8354106,-0.89604723
scenes_archaelogical_excavation_00003910.jpg,12.819782,-2.023671,34.28901,8.126514,8.156224,3.6824703,5.225155,18.791075,29.558876,-2.594027,3.2213867,-2.166386,22.549229,-3.8817785,5.822416,10.019716,2.250142,1.8147796,11.166504,6.6155567,2.1742537,1.8865407,0.45487267,2.5133452,9.549021,23.166557,10.688882,-3.4337204,-0.26169986,-1.8780122,1.6481019,1.8522289,-1.5447026,2.0195985,4.492496,1.6223017,5.998691,2.6334565,2.747452,-6.3017735,0.69474936,-7.9319015,2.0368254,-1.9902213,0.033003278,1.9001387,10.634481,6.9596453,-0.020617992,0.33162585,-1.6568776,7.4571447,4.0723906,3.9616733,-1.325832,0.18369605,1.7517624,1.4936146,-1.7237235,1.4346626,2.5452604,-0.3677951,2.1392334,-2.1686718,2.326691,1.8737289
scenes_archive_00000034.jpg,26.551914,8.23192,8.746764,9.41475,4.758243,7.5734468,4.992133,14.901241,13.366188,12.926456,18.235262,8.52084,-3.7733092,8.153293,30.375952,-3.6762338,1.5281075,0.7398499,6.910406,23.300714,9.703927,2.3529272,9.833613,6.181441,0.023041293,7.2189956,8.051596,4.8804383,-4.581662,2.0074587,-0.4296844,1.029156,1.1693848,2.2845178,12.373199,-1.0737861,-0.34230763,11.785271,0.68265,-1.9130055,-1.592892,4.826719,6.7753806,-2.061043,8.515341,3.1641073,3.8926814,1.8061247,19.097025,4.802279,3.9463408,4.1014233,1.0441989,1.7049305,10.525049,2.3608236,7.2679462,-1.5053594,3.6184814,8.705208,2.7850397,-0.60422945,7.612847,-2.5112796,-0.280762,1.5900645
scenes_archive_00001797.jpg,45.42354,6.320263,6.6435294,4.1076217,1.468548,25.80598,8.040389,11.60191,6.6403584,10.579365,6.9419847,4.3815536,19.319473,-2.7512622,12.312296,2.3134394,2.9641283,4.1302514,8.094284,18.491364,5.9844933,6.3167562,9.946428,0.9075589,7.887879,-1.958596,9.111338,7.6842217,-5.5304604,-0.1113855,2.8260298,5.6758566,11.109037,5.4434247,3.8298771,2.2715151,1.8545635,4.1109886,5.670638,0.12015137,-0.29379752,4.5867257,1.7640222,2.4079225,7.41563,-2.4602885,21.056887,3.966035,10.592643,-3.3988118,1.8300738,13.267485,6.245108,2.5851388,4.746186,4.0946403,-0.2393771,0.55739963,5.826416,4.3775854,4.468715,3.0530655,4.3634634,-4.1942697,-5.184442,4.2712502
scenes_archive_00004471.jpg,48.020065,-1.5718676,6.0606694,1.5170892,-0.087619014,35.59434,0.2279792,13.08954,1.54227,15.010876,28.165596,7.030076,-0.2804555,-5.653149,15.454303,-3.1511478,7.5440288,0.9383317,3.9268486,20.212744,-0.16382127,5.8142977,5.548626,5.0429797,7.139942,0.54067737,1.2484782,4.8742805,-0.33428973,0.62860966,3.7464957,-0.8820194,2.543332,-4.263686,10.815275,-1.8753982,3.234921,2.7917724,1.0536648,-2.1449988,0.16978197,1.1284248,4.072449,3.844687,2.597261,-1.974247,14.45668,-0.24809581,16.398727,3.319325,0.1296429,5.626262,2.4347174,-1.0284697,3.1505067,-1.1052313,6.8192425,0.50986177,3.1869724,4.220733,2.9787254,1.9153107,5.11884,-4.782314,-2.1074064,-2.3906689
scenes_arena-hockey_00000180.jpg,21.92388,2.587837,14.070257,0.36977118,7.839502,4.645077,25.145432,7.0668592,9.072785,0.100923985,10.533938,1.7564423,4.2953,6.11869,8.217684,19.89965,3.6514618,7.800538,6.950853,-4.7172937,4.7902913,13.779506,2.945266,2.0853813,6.830329,0.38418436,12.176006,3.6586578,-0.09976644,-1.9855974,3.1665373,8.297635,-0.77470416,-3.835225,-1.8099362,4.8071103,0.14773515,-2.883147,1.5311323,6.1506023,8.055006,-0.88619775,1.9954197,3.1572728,-0.65007764,-2.1445014,8.092896,0.43991777,6.301608,2.690116,2.8389325,8.094371,-2.3699517,2.3684063,2.3451128,2.8251793,-0.12916178,1.1180888,-1.1262729,2.431281,1.7232968,10.872236,6.145223,-1.6796293,-1.0326753,-0.05617235
scenes_arena-hockey_00001792.jpg,20.221245,0.4517671,13.801718,9.387145,0.9717401,0.43285802,6.1834893,16.776237,25.392563,7.02206,11.858125,10.59146,9.387448,0.26056665,5.6826773,38.92635,8.9541235,3.531247,3.8913255,1.9956518,1.3291038,5.7150345,-3.5218854,3.9481645,15.174301,8.767441,1.0670135,3.6353416,-1.1537021,-0.58821785,4.631863,6.0546627,-1.3926555,-0.38147724,4.8327227,5.774756,-1.5796762,2.2031462,7.603251,7.389257,4.7786975,-0.28082564,3.2944963,1.0102057,16.649944,3.338474,-0.6233,4.7952075,2.4641526,0.64145994,-1.3691225,3.2057405,4.3994536,5.2463603,-0.11308086,-0.032765746,3.707679,5.1186604,4.2909036,1.2161615,0.8893692,12.940429,3.9726987,-0.16288562,1.9571476,-0.04765182
scenes_arena-hockey_00004871.jpg,28.664606,3.7338023,15.146759,9.044161,0.6422731,0.7449807,2.4016395,21.86246,23.614054,-2.1531787,13.753737,10.541904,5.7157917,5.117278,8.450613,41.224483,1.2113842,3.0131238,4.598988,4.628642,-2.6909883,0.69705003,-4.9471836,0.48982072,6.94408,10.898676,5.8845096,0.49813902,-4.7646513,2.5716217,5.7727547,8.285288,-6.6170535,-5.679388,2.8808088,4.965671,1.6917607,-0.46543366,6.372844,9.980666,0.6681642,-2.7890801,-0.08501899,-0.60871667,10.656845,-0.604815,6.234149,3.4206886,4.8331923,-1.7332213,0.8027024,7.77694,1.0264429,-1.2969083,-0.4874031,1.6253384,1.043088,1.8610895,1.0736442,1.229228,3.5862858,13.45381,-0.48881713,-1.9277096,-1.3380457,-2.4011958
scenes_arena-hockey_00004875.jpg,19.753641,-3.650525,18.595407,15.976334,1.3248131,3.0158522,6.795809,19.94556,24.943901,0.9152947,7.2395353,9.101287,8.917249,4.936796,7.1781664,35.77309,1.7974119,1.8286612,8.731469,1.6815915,4.438409,9.630017,-5.7585673,6.0522394,8.775501,6.8516784,16.313812,3.2560024,-3.5793192,1.1644248,4.3510375,8.769511,-2.632884,-1.9653734,2.0758185,5.748951,1.2555325,-4.7417865,6.3495092,9.090273,2.2473547,-5.454309,-1.4153061,1.213617,-2.8692381,-0.005019922,3.2415965,6.3283453,2.3328428,-1.0813472,-0.23887703,4.645934,1.4221097,-0.8139911,-0.9450742,-0.470996,-0.30403334,3.8145125,-3.391789,2.5621963,4.8934946,13.809204,0.81356835,-3.460035,-3.0764825,-2.8763418
scenes_arena-performance_00001032.jpg,28.997576,-1.5858891,11.027779,1.6482042,-4.0525413,-1.8872404,19.26902,8.179903,26.6269,8.80131,17.5136,9.347015,-2.734763,18.887173,0.41711238,18.104105,7.493432,7.0769615,-0.42923278,4.558959,2.700434,1.4914677,2.7406387,1.6076107,8.614494,2.5699415,4.8959312,3.144837,2.7968447,6.5054474,5.4543343,36.757454,5.1107435,5.028098,-0.2088185,1.2358651,-6.8937116,3.3815968,1.7850738,-1.9444995,0.6693201,7.193728,2.5001812,3.5098176,3.9375172,4.1479506,-0.7084118,2.4433424,-2.201774,4.8411875,7.9928594,-0.03161747,4.7765465,3.0709605,-3.8788579,1.5836253,-1.6493622,1.7190214,3.8581684,-1.6875559,0.22862554,1.5039543,-2.75596,0.39868942,2.3083487,4.6522107
scenes_arena-performance_00004387.jpg,18.71796,9.916133,15.539126,6.159947,0.99710685,-2.024134,6.567632,26.479763,34.7707,-1.0692564,4.7681737,11.625999,2.1650724,10.198868,5.970748,34.64428,-0.56496507,6.5219936,3.5503585,3.1087701,2.3267448,3.7359302,-0.6674618,6.924635,1.6454929,5.7392936,6.672237,-1.924322,5.0350943,12.612307,4.0955853,7.226165,-0.3556989,0.57352847,0.68427026,4.487581,-2.5318797,2.703395,1.3109863,1.1084037,-0.60214615,-4.015896,6.864709,2.086997,6.9755445,0.29220018,6.7441144,13.487702,4.5591655,0.08763075,3.144251,1.5499879,-2.3760703,4.409509,-0.88442236,-2.69133,0.83921987,0.31765115,-0.3375157,-0.7160996,-3.1639972,2.2681272,-0.8437128,-2.4486833,-3.2891788,-1.7753747
scenes_arena-rodeo_00000756.jpg,10.968622,0.6727201,38.123665,-0.4650717,-3.9844942,-1.7173585,10.662675,30.625416,14.483502,1.9627352,5.223884,7.468054,2.4977508,9.3486395,7.474262,37.096794,3.0748343,2.1068096,2.5556815,0.83361065,3.8279989,8.245207,-2.5482621,2.6637166,7.00972,7.20555,5.218246,1.6801164,-3.2887557,-3.9173386,2.2013087,6.9748836,-0.62926143,3.0697768,-2.8740573,4.515664,0.69071287,9.538059,9.573538,1.5581976,2.442389,2.24169,3.1410205,-1.5283682,4.825256,0.039696462,6.956114,1.7322388,3.9323099,-0.15844163,-1.3037673,2.1980815,3.6933403,3.9402704,20.067806,-4.5210967,1.4133763,0.8969497,-0.2971668,1.5215855,-1.4083259,4.068407,-0.7210071,0.8706769,5.714993,-0.31524366
scenes_arena-rodeo_00001862.jpg,6.349338,9.160975,45.038708,1.9487344,-1.7597451,-2.3245394,15.533826,21.459787,15.32687,5.2583876,4.318426,7.1962266,2.5236833,9.448557,10.060625,34.253647,4.0141397,0.13030486,-1.1300224,1.8451221,3.063847,5.521489,-0.41230917,1.8872995,2.805565,6.411493,5.5580444,1.382691,1.0313827,0.6507357,3.6418629,7.7218404,-2.2502565,1.7413129,-2.260424,7.596955,1.2694689,8.562796,7.0471735,1.1515381,0.9277781,6.1031594,2.6408062,-2.287378,5.131899,1.7176937,4.4207845,0.6324034,3.7184157,0.686419,3.2503579,1.7454375,2.6934764,3.6641254,24.287878,-3.4889274,3.336094,2.2075238,1.9954389,1.7032994,4.437056,2.0399227,2.834618,-0.19689174,7.103727,-1.0342864
scenes_arena-rodeo_00002835.jpg,9.098321,5.8213563,41.41438,0.9354774,-0.03720671,3.9506934,16.51317,27.572218,30.123848,7.9130716,7.305403,4.993429,6.726721,1.9324597,3.8369412,24.898916,4.144232,-0.65431774,2.8179142,5.709539,-1.8673784,0.8294653,3.994048,1.3799521,6.737003,5.0260286,9.952979,1.6292824,4.6677513,5.6300282,5.155383,9.41023,-7.1533375,-1.172043,-0.1620071,4.5101905,1.3374782,10.650531,4.706849,-5.3212433,1.8138964,2.3139563,2.8545494,-0.652719,3.4006982,1.3035365,3.667119,14.09431,5.2906995,1.045283,7.1197653,5.0763364,0.3811919,8.589154,19.243122,3.8005934,5.856344,3.4275084,0.6590211,2.534716,0.9582566,2.5550578,3.7897356,0.33624694,2.741988,0.18013053
scenes_arena-rodeo_00004898.jpg,13.9889555,2.1699204,34.543556,10.550055,-2.803357,-3.8835402,17.149107,26.63905,23.8435,10.056731,5.353371,14.229014,1.8293772,8.52439,10.878892,35.144543,5.92217,0.78599167,0.25409552,8.078009,-0.28664395,3.8400807,-0.29923353,5.4388185,8.919427,9.698671,7.484141,0.9547839,-0.41628698,2.520981,7.3028884,11.257893,0.50212616,2.6493404,0.46475148,8.295925,0.53119266,7.6374316,9.965387,-0.35363802,-0.9588628,4.979618,1.1193243,-2.6596344,4.7602253,1.6484867,2.9363062,0.89296454,1.9450661,1.9234277,-0.08695941,5.5978646,5.0321355,6.6292734,21.381842,-3.8284853,1.2829682,0.9096803,1.5833285,2.2824059,2.3182187,2.8318112,-3.981208,1.4325527,5.277393,-0.03721798
scenes_army_base_00000306.jpg,23.645815,0.42543596,17.233843,16.45661,6.03816,-3.5498798,12.047996,7.6830945,22.61112,4.143959,0.17349856,3.3775084,8.445347,-4.0447426,2.9393475,8.731725,12.849426,3.1207979,5.806537,2.3445952,4.9603405,7.1026297,-3.6725469,7.9688864,14.647408,23.597609,5.493114,-0.73679423,-0.12926152,-2.4702563,8.359663,1.1404163,-1.9362464,1.9386358,6.828352,1.8512789,2.1215756,-3.833007,11.079881,4.136781,4.1265206,3.4164042,7.068647,-2.9133358,4.086047,-0.3044892,1.4425093,3.133811,-1.5927881,0.81683433,-0.55596644,5.0701675,1.197223,0.092288524,-2.2114973,-2.9960399,6.281206,-0.026250072,3.3829272,1.3967954,-1.5291382,6.482662,-0.81780714,-1.0615761,5.645119,-0.086058766
scenes_army_base_00001711.jpg,25.870213,-1.1593368,21.758188,10.269265,-2.3745787,1.6902782,3.770356,13.423692,29.204008,-0.7235812,1.7707095,4.415442,9.702846,-6.2377954,8.199185,16.218843,6.035147,1.0452669,11.242735,2.6008298,8.415109,2.0415106,-2.708276,4.04531,5.77244,26.543669,2.6053057,4.755961,-4.7041187,3.4796302,8.171553,9.124597,2.3444123,-4.192014,5.5342493,-1.696178,2.6536121,3.0565484,11.831475,8.113568,-2.7356198,1.3910279,0.60737485,-1.4110293,-1.9661185,5.485622,6.151714,5.980624,6.0818853,0.935309,4.0660405,0.017436221,3.2380414,16.457806,-0.10271752,2.9404652,10.253131,2.6529171,2.0910604,-2.8044934,-0.35712197,4.887123,3.9385095,1.6598914,2.9978564,-1.4475808
scenes_army_base_00004915.jpg,30.37955,-3.7997522,12.984845,15.938243,8.162187,0.7107463,12.953051,15.411249,30.565968,1.4775084,1.7970281,0.29206434,11.851909,-3.742056,8.175885,7.7895694,7.0176253,-2.2891524,0.75588816,3.3912518,4.0405955,4.199868,11.753377,5.4058204,5.3935695,28.008657,3.7658124,-6.0073724,1.3433934,2.1386642,4.752215,-3.5694544,-0.3127017,3.049537,4.535383,-1.5391482,6.0200667,-4.2935905,5.6981964,0.64474785,2.7928126,5.106645,6.4518647,1.6511606,2.2906888,0.63536584,3.386865,3.677839,3.7201946,4.0995173,2.3801558,2.8925486,4.698216,-0.5894084,2.310143,-1.5409074,4.379431,2.4296436,4.488947,1.6516374,-1.4051547,3.284167,2.210547,-1.1518872,6.714283,2.4924793
scenes_art_gallery_00000748.jpg,18.475937,6.357426,10.993656,10.138336,0.50149506,19.8437,28.35902,15.934661,8.06401,14.353749,11.643216,23.466831,6.9743276,-0.5058513,35.25897,5.2343516,3.772071,9.226372,7.538999,18.83396,0.7989876,7.3835545,-2.5296721,2.9211295,8.844052,5.4966116,7.7407966,2.1972847,2.046656,-2.9986982,3.627907,7.4424086,2.1952093,-1.750762,-0.4541468,-4.663733,1.6672353,6.046997,7.0000873,-0.124363415,1.340249,1.9681643,2.952713,0.58241045,5.432938,-0.80309707,11.261744,5.5357037,11.137791,6.400152,1.8706864,5.229207,4.5363135,-2.0033884,7.7194,8.198259,-2.7960668,3.7725308,3.0785682,-0.62252533,-0.31073797,7.389499,-0.9634761,-0.21653916,-0.38788542,-3.3242903
scenes_art_gallery_00000944.jpg,15.110419,14.195249,17.064644,6.1115623,3.8222888,6.9490805,29.519579,4.381138,37.938927,10.494179,9.044128,18.587627,1.151311,4.4794106,10.357671,8.886495,6.076924,13.503474,8.755846,8.299318,8.2247715,-0.60314816,-5.5434346,2.2855732,4.038469,6.3545065,3.8363404,4.4150844,6.408003,8.810374,5.984187,12.777337,1.2565485,2.490744,2.2237399,3.3503075,3.5108263,-0.40181008,2.2243972,-0.3712346,8.133699,6.5409107,4.8823657,1.8557167,4.8596807,2.0407205,2.2915187,4.905258,4.4409146,7.363824,5.73034,11.386866,3.6728616,10.846448,2.3864844,6.9430256,4.274358,4.9997807,4.989118,-4.741157,5.101117,2.640546,3.2944121,-3.3314135,-3.7676253,-3.0417175
scenes_art_gallery_00001244.jpg,6.8306184,8.430391,13.314409,12.494622,0.46591127,11.501637,23.070906,14.540463,25.717747,2.3090389,14.640765,23.302752,1.1140826,6.255322,32.27994,11.020396,5.2555346,5.3620653,3.5283878,9.140282,-1.4285319,7.168224,0.41873696,4.024883,5.9835706,6.025119,12.023737,-4.7809305,3.1282094,2.9606218,5.558866,11.544846,-0.31393185,-1.722342,-1.0360001,2.45976,2.7995179,6.0678663,3.968089,-2.2768543,-0.3504674,-3.455427,1.2580066,1.8570672,5.463883,-2.2906477,8.120738,3.28017,10.184586,6.71259,4.7666736,4.901565,-1.030361,5.0062785,3.2022402,10.009387,2.0692441,1.9879334,1.2393982,0.0898723,-0.48271242,5.1050835,2.7068074,-0.79889596,-1.3665076,-2.8068933
scenes_art_gallery_00001350.jpg,13.725307,15.357897,4.2491827,8.903286,3.8926985,27.152946,23.704914,7.3431396,12.125941,19.62122,9.289445,19.440989,6.846277,8.56668,14.677654,7.506901,0.2526315,4.7980027,4.4111404,13.679767,2.3670483,4.607022,-3.2431517,16.608854,11.016101,2.2180996,8.442238,-2.2144113,7.2915354,2.5747101,1.5073203,7.451244,7.8811393,3.262522,0.33077803,2.094726,1.918701,4.303269,3.3517182,-4.446993,-1.4629729,7.9905243,4.304608,2.0884674,6.056493,1.1460319,13.418186,5.8367,7.6659517,9.315677,5.903425,11.084661,1.2464607,-0.0015011989,5.069455,4.830339,0.5139124,4.732358,5.7428894,3.547366,4.7453218,-0.9356944,0.4929496,-3.2440326,0.952396,-0.672196
scenes_art_gallery_00003033.jpg,7.9237857,-0.48170033,12.833074,7.9864526,7.929285,12.003575,19.757133,8.261738,24.042091,10.172854,10.9166155,12.52291,2.5077493,2.7314823,14.418693,10.484632,10.446566,2.497333,0.743839,6.828715,4.1029887,5.0738,-0.9889699,4.6977115,8.710894,12.258139,15.180096,-4.6786785,2.8165114,7.741466,7.0295954,20.49705,0.834416,4.8572674,2.6333716,-0.7270482,6.9698787,0.0867289,3.4065936,0.8507151,-1.9845433,0.86594915,-0.23950273,0.38783723,4.5513163,-0.8447556,8.404277,0.15039334,9.930295,8.746409,9.77421,7.4244337,6.0808063,2.754085,1.9352038,6.9787197,-4.2339497,1.9597296,2.2982984,0.7184319,0.7653096,1.7838061,-2.8118553,-5.0230513,4.8714943,1.9231446
scenes_art_gallery_00003397.jpg,16.470266,-1.8433113,10.076232,1.9310935,-2.7835116,21.64221,25.136597,12.67667,9.991951,15.370006,6.2425485,16.307344,4.181023,4.3199887,25.642168,6.9103184,1.6539611,3.8895652,1.3997673,10.220591,-3.7720547,-3.1893914,-0.3364521,9.990778,6.237202,6.40058,0.99467283,-1.1808504,-1.1633496,1.0961947,1.8227773,10.589697,7.008037,1.7919018,-0.5017805,-1.6090122,4.522301,5.9057226,12.482601,5.317054,0.88729167,6.280736,2.2854555,2.999342,1.5439622,6.976985,14.553012,3.8815312,10.632674,9.902292,2.5007727,10.551372,5.7158775,0.83219016,11.287978,7.972919,4.5920734,-0.25478128,3.3633046,2.138908,2.2582,7.1445136,2.800946,2.0906334,1.6222198,1.5471443
scenes_art_gallery_00004184.jpg,8.795206,6.447315,17.19284,16.054571,1.3440517,9.573142,27.295967,3.796645,31.286488,16.216902,0.9047545,19.779083,3.4406319,6.1372285,5.549392,7.941984,0.48282608,1.4332348,4.0337076,13.927438,5.6573625,-2.350369,7.7370763,2.4475334,8.698475,8.143913,-2.9458816,2.7098641,2.5773282,8.56546,4.750535,9.010211,8.124558,7.173846,2.0917711,5.2261944,0.016580522,5.986795,-1.9588907,0.7105159,-0.023891602,4.335545,0.043990836,6.486381,3.9327285,-4.6891384,8.359293,8.655305,1.8984056,1.5498836,10.399199,16.21211,-1.0409017,15.475551,3.6656682,5.147985,2.9031868,0.8491185,-0.40938938,0.951584,0.92180634,3.1192696,-1.333045,-2.706415,-2.2729127,3.37921
scenes_art_gallery_00004566.jpg,17.924112,7.756461,7.7303147,9.118761,-4.2794623,15.961507,22.379265,19.229893,30.331287,6.908457,16.296587,8.918144,0.352419,5.5709147,10.775254,14.668974,2.6626778,9.027145,3.8614373,7.864718,4.1557627,3.4692187,4.6259785,6.2873282,4.875777,6.2492657,17.272684,-0.73389894,2.6592817,8.04029,5.580714,22.632942,1.3950627,1.7433854,-0.6795925,-0.17333671,4.6467657,5.175876,3.5682325,-1.9799564,-2.1421857,-0.19170511,1.4918209,-1.702492,5.207684,3.3063629,13.808845,6.0192084,8.33288,5.326447,11.358726,8.675734,1.6941404,-0.5290684,4.6047053,7.405156,2.786471,4.4791193,4.1794915,-0.8186875,2.8614254,5.755717,0.20293435,-7.3166833,2.3418326,2.001481
scenes_art_school_00001650.jpg,16.667822,7.838015,22.105104,10.007981,0.20902836,0.13265857,9.385271,5.1031747,30.2295,5.217217,17.964859,26.85835,-0.85087216,5.2514505,13.891521,8.273176,10.377903,-1.9424968,0.66129786,9.198473,-3.560181,7.0184073,1.3206095,6.0933456,9.712238,-0.022147223,8.827197,6.3686385,6.301856,5.483757,4.736986,9.651566,0.4624298,1.6504519,9.465849,3.728208,12.862092,5.124568,1.7178638,-4.111534,6.7537203,0.49864185,3.1818345,2.3900623,5.440983,9.673827,6.9980407,-5.700864,0.24045333,7.178946,6.751392,-1.999804,7.380531,16.147285,3.7978258,5.070971,5.761088,3.2820702,3.9260306,2.4510522,1.7649101,2.6293612,9.100884,1.5060118,-0.9766612,-2.7153344
scenes_art_school_00002709.jpg,4.6005287,11.896971,16.428051,15.556473,0.14989433,1.4711119,17.807585,5.7033324,44.15882,2.4787307,12.08971,18.529797,-1.5233312,1.4462348,7.928352,6.147447,4.724745,7.77843,6.5620623,2.322761,-2.189317,7.169851,-3.4652677,18.218367,6.37227,1.1279527,2.9704158,1.8677522,18.002085,15.078153,9.382922,9.87347,0.8188298,1.443287,-4.1892724,-1.3542112,3.0501652,8.6360855,7.5188613,3.078186,3.0672274,-4.3030357,1.3087591,-0.15823333,1.8649619,-0.17288905,5.642526,6.9624057,2.136621,2.8170676,6.274122,4.082049,3.031275,11.425567,-3.0115578,5.662545,-1.5072286,4.3691216,2.9416625,-2.0342329,-1.1723751,2.6121495,0.8506826,-1.0863025,4.627404,-1.5147442
scenes_art_studio_00000088.jpg,22.140636,2.5383346,1.889813,16.054934,4.3616085,25.051222,36.609646,6.7211823,16.028788,19.534996,6.699994,20.173723,2.2660131,-0.7206284,21.268759,-6.485045,9.110742,1.1832099,0.73103243,16.175232,5.557611,9.354134,10.415224,1.5605638,8.935629,2.7660155,5.881496,2.805351,6.145811,-0.40258253,-0.16389377,6.314055,4.109526,5.8823185,2.7842076,3.82313,2.158327,2.1918802,0.03415642,-1.4908675,5.21799,4.0838194,2.4006987,-1.5154133,3.8680472,-4.5610523,12.531774,-1.5973084,9.434589,8.849053,5.2354074,10.20296,8.18685,4.110373,4.6496654,3.5093002,-2.3801627,-1.8776308,2.3111587,2.5476596,1.3917644,-1.1942444,0.3384904,1.8491046,-3.7831697,-0.61257577
scenes_art_studio_00001670.jpg,13.0487385,7.2918253,8.840886,7.19165,4.1216702,13.41073,9.986926,18.43664,19.920372,0.8923431,18.649292,11.158536,7.39121,4.4591346,21.323595,2.4630423,2.147194,7.7985945,9.985672,5.411833,3.9826407,6.8543987,-4.093443,2.7242503,5.4406347,3.2711596,4.078981,-2.9383707,2.5462847,4.6769896,7.9424934,1.6353242,0.06839186,-0.9229854,-5.281858,5.2030764,1.55795,1.6915202,8.9115095,-2.9837294,-0.21976037,2.1413264,1.5270028,2.98566,1.9880626,5.634712,4.485174,2.4310083,3.8659897,5.0291734,3.4763746,4.5699325,3.7882845,2.7310011,-1.7197989,6.004887,1.8380575,1.0874236,-0.12829733,-1.2516084,4.586019,1.378172,6.4856553,-1.5901333,-0.2878083,0.69996685
scenes_art_studio_00004726.jpg,-1.3960358,14.318482,18.281738,10.5709915,2.1048179,14.561616,8.345623,3.8145885,40.569992,10.552688,6.361719,13.105281,-1.5521938,0.31739607,7.6546917,6.2120395,6.517564,5.447489,4.7654924,3.8858256,5.311023,2.9204614,-9.198386,-0.5104638,10.629519,2.3881178,3.1839516,1.0317101,9.948797,21.97849,8.342058,9.270237,3.304981,1.1224082,-0.377593,2.5261302,8.450295,11.1824,0.01745685,2.1626298,1.1146698,3.6452656,-2.9724674,10.037165,-0.5828158,1.8267404,4.894285,1.8099701,3.1842194,3.773972,7.0918837,3.7113383,0.0561025,4.7162137,0.25815126,4.206345,1.9204825,3.5400822,0.704566,-1.0905575,4.1506805,0.9061678,-0.9414247,-4.949919,0.5004119,-4.13657
scenes_artists_loft_00000001.jpg,31.509983,5.7914996,-0.5105962,1.8316705,1.8643862,50.468487,6.387888,12.99396,-2.3268666,9.228517,11.104272,2.7443655,7.164396,-2.9184628,12.157144,1.4561499,2.8163428,5.6249,-0.6511841,12.60671,5.8596907,17.508097,-1.1779251,1.174331,7.3232675,-5.0451813,6.0198016,7.028446,2.2527783,-4.9717073,-1.5919309,1.9760609,0.58778596,0.18006898,7.7870727,1.241413,-4.850859,9.348584,3.1775157,1.8036892,8.297151,2.2283492,1.6537758,1.8909563,0.86731666,3.0279174,14.743183,0.13948008,7.9969077,1.2109494,-5.9180775,7.4093475,3.0813851,-0.60828644,-4.6140046,1.5007701,0.6939358,0.46793398,0.114097655,4.971051,4.663607,-0.33683553,-0.48943824,-1.6596295,-2.8283913,0.064438865
scenes_artists_loft_00000692.jpg,14.811953,11.798804,7.1913967,10.110499,4.2789116,48.37781,22.545607,9.783212,16.532064,11.413681,9.294559,8.238107,3.2359939,1.5559932,7.9446883,3.664579,2.6376703,6.7935295,3.5285604,8.956106,-1.3732789,5.15324,3.4299865,1.5693856,5.4377556,-0.30632,-1.9417893,10.926211,6.9715633,1.8479085,-1.3289329,5.182887,3.7538667,7.285804,8.270706,2.8361847,-2.3711157,17.79357,1.9306723,-4.4774423,1.4113048,9.454585,4.0930724,0.48447093,3.2619603,-1.1034979,13.27903,6.6747484,6.053334,5.3334355,-0.46606404,6.1612077,2.2590737,6.5449557,6.3868985,5.751459,0.2356911,4.918192,3.2142513,2.012561,10.358097,-1.0691557,0.25179136,5.036462,1.8613145,0.8538411
scenes_artists_loft_00003759.jpg,17.549395,17.40261,11.529414,8.650206,10.227662,44.52647,13.375839,11.787464,12.183186,19.152996,15.407352,9.53412,9.813971,-3.5836287,13.789802,6.8196564,4.2813396,3.6623764,18.226377,9.007045,2.101232,10.27151,6.850998,1.79869,4.607399,0.13175383,0.82991093,13.563511,2.1589577,0.14128284,2.0473654,4.3324637,4.301296,3.7216053,8.276282,3.6988945,-2.9053063,11.998478,9.74783,1.9000549,4.7428894,9.899136,5.850771,4.61535,4.371507,0.8376413,17.454967,8.468505,10.342864,3.3959317,0.6844678,8.731027,1.3763597,1.8420651,3.6278372,6.1499076,0.5517928,0.32952145,5.4598136,-0.38371676,7.405004,3.976249,5.5257893,-2.3172965,1.7012738,2.036847
scenes_assembly_line_00002316.jpg,39.82654,11.271318,2.3587732,0.71410424,5.5061936,0.081682436,0.6832487,52.946503,19.350798,-1.2947137,33.293575,1.7574083,0.4174715,10.346795,-0.47089165,-1.2925075,3.671611,2.590308,9.507838,2.8482592,9.580045,3.5052552,3.3942363,2.3850508,-1.0061102,8.347134,2.7756062,3.7576442,3.6739116,5.8605394,0.74645674,1.8253611,3.4079897,-0.42494518,18.165388,2.3866231,2.6996818,3.9317033,-1.6594741,-1.2302883,4.5266027,0.6881707,4.26293,0.8418229,2.0841107,3.4240837,7.0223885,2.9320698,6.787806,2.712659,3.270275,0.4243522,-1.280681,4.1311016,4.464164,4.485614,1.8325378,1.2158962,0.63742834,2.5579855,1.962021,-0.08198875,6.3351607,-4.38337,-0.25686976,1.8143259
scenes_assembly_line_00002938.jpg,20.21811,10.773479,16.877764,-2.8048851,4.993567,5.945277,6.538696,10.598692,27.325354,-5.131232,35.858017,5.128765,-2.0844846,7.5376124,2.2827003,2.3097513,4.084298,0.4822441,1.9521531,-0.9914039,-0.9336524,5.568009,-0.6258672,3.3020627,0.035599433,2.7997563,11.335324,3.5161278,6.7676334,3.9726377,-1.332505,17.757341,5.319474,1.7016044,8.471627,-0.66490275,-1.8595842,3.7971177,5.1800127,-5.641048,-1.7723825,-4.097129,5.8741055,2.2954178,3.9381795,0.38786656,2.5516038,-1.0366263,4.9073515,-1.4559627,10.559056,2.1189823,0.66028374,2.1621888,-1.3842342,2.5210233,-0.091921024,2.5853002,1.4698678,1.0346972,-4.040062,-3.9102223,0.80334747,1.0093265,1.0164394,-0.4402332
scenes_assembly_line_00003046.jpg,28.06549,0.77810454,8.799118,-1.874378,3.2336206,0.95795804,3.3253403,54.68967,8.4695425,3.925954,18.154121,4.6005597,3.9474006,5.7916255,9.200398,-3.681749,0.02540974,1.7270099,9.786955,18.400978,7.984397,8.17904,15.357428,-0.63181007,4.196111,4.9263663,8.210235,-0.10235142,-1.8437315,1.8341339,5.220069,-0.06282954,5.940848,4.328385,12.821155,0.55863744,0.09691036,4.256355,1.964682,0.8321264,2.9107635,-2.880881,2.9744236,1.5721364,0.049024962,3.6395714,9.947001,4.348989,2.5531144,-0.76489186,-0.2081315,0.3321635,-2.015832,-0.502698,2.790373,6.6553516,0.40586293,-1.6042312,1.0678217,2.092183,-3.376937,2.7249544,6.2755594,-5.8138313,1.5565739,5.7851696
scenes_athletic_field-outdoor_00002002.jpg,7.172158,1.2561625,25.6928,10.2007065,6.7555246,-0.24446028,2.912094,25.725927,40.610428,-3.5967906,10.8989105,4.766126,10.694392,1.2967619,-0.16459869,28.251806,-1.1505024,-0.5880063,-3.870897,0.17989361,3.560231,5.323917,-1.882191,6.746164,2.609171,4.736452,4.3863482,2.4166021,-0.457469,10.591602,11.251626,9.476625,-4.038493,0.7619725,5.5761533,3.0310717,-1.8872952,0.0039801,9.160474,2.4096231,0.18819194,-3.319919,2.085843,1.3426915,1.3157576,6.215819,-2.7002282,14.064889,-2.3731704,-3.5841987,1.7742925,-0.30020607,0.17045112,-2.0736718,-0.9020468,-1.5350608,1.6679685,2.9685905,-0.77983063,-3.7041247,1.3455542,2.3626392,5.5330367,-5.6189017,2.2618115,-0.17779303
scenes_atrium-public_00002970.jpg,31.751537,9.618768,2.0738688,-0.36397243,6.5679483,16.955744,13.742532,15.366655,10.127996,9.389155,15.940406,1.4899235,9.978302,7.400311,8.781275,4.233747,6.31887,8.280724,7.220353,10.40398,2.4310057,1.0034403,4.319867,6.461591,7.896734,0.9386106,2.5643413,3.8261228,-1.6289096,4.7588677,9.629392,4.7722764,10.310293,6.8439746,2.3937862,1.3968765,2.7768018,4.7316747,10.032714,-1.8289357,13.741854,2.2466922,4.676085,0.8292649,3.4787905,2.2445133,22.493595,7.790356,8.794705,3.9771464,3.0484138,10.694177,6.0985146,-2.030925,0.8563361,9.227495,5.0135555,-0.11657751,7.927342,5.3262157,6.66235,5.174898,7.0287013,-1.4881269,1.7381098,4.5228915
scenes_attic_00000489.jpg,16.09861,3.6858606,9.666898,10.30246,10.786394,13.386761,13.773319,26.267906,24.509262,13.079762,1.712096,-1.5413555,15.937048,10.21146,1.8227715,4.782778,0.5222801,0.69473106,16.993664,3.4893255,20.247612,5.1107626,-1.5550432,9.687329,9.083522,9.530214,6.3673525,-4.976763,0.6690302,7.26079,12.398597,0.83344793,7.872368,5.6026945,5.100583,-0.6788644,7.684419,1.3928343,3.638669,-0.6790933,2.9525807,4.303557,10.549088,10.297929,3.481641,2.3528817,22.842327,8.045486,10.929118,2.7822342,5.649854,11.549537,-0.45754173,-1.6239352,4.556127,8.329178,1.9195793,0.10066041,2.490784,3.3318157,2.9363422,-1.0310313,2.1782758,-1.7996864,-0.90978575,-1.1242241
scenes_attic_00001348.jpg,33.606316,3.4670553,11.108997,2.3454273,7.21681,24.536303,25.875183,18.181694,13.349234,17.147484,5.272249,1.9799855,10.687115,5.2820554,3.7809029,-2.03146,0.5630114,4.141596,11.222405,1.951269,6.459159,8.082771,1.7367631,3.060143,6.7988286,5.568923,4.659076,3.384544,2.7684104,6.2404175,2.251726,1.4857286,13.453792,6.1442766,3.4029121,-1.3138257,4.483032,9.501564,10.291084,2.0492063,4.2661567,3.5955229,1.9895282,7.565041,3.184843,3.1160622,23.313446,8.8177395,2.8055086,-1.2055075,0.5833062,18.997114,2.790223,-1.163665,4.922889,3.616403,1.8214792,1.3251796,0.9506974,6.1878943,2.7170281,1.1651926,2.0612245,-1.2190218,1.4940923,2.5939844
scenes_auditorium_00003928.jpg,25.890478,14.642069,14.028923,-3.250881,4.313484,14.322578,12.081737,14.054545,24.724705,8.146493,24.491701,0.9419623,8.886436,2.336204,7.3557744,8.085491,4.419089,4.476623,8.44573,4.9258866,4.44859,1.8691993,-0.16916399,4.9773617,6.6538677,5.523389,9.429612,-0.14815572,-1.5868976,6.0092816,3.5745661,20.210012,0.47368556,-2.3580036,3.8741574,1.4861258,1.92649,6.063326,5.5114174,0.08586403,1.7340571,0.99368,2.4089165,2.8187954,3.1950274,4.1946077,7.0741215,6.2326083,4.4908047,-0.58337384,7.018006,7.595974,-0.11585096,-0.45414874,1.9133102,13.496369,5.9380383,3.3341284,5.4517508,-0.8535265,-1.1121424,2.6044035,1.7953923,-7.1517525,1.3181329,-1.4100013
scenes_auditorium_00004272.jpg,4.2943196,15.060639,20.7547,18.009125,1.5110871,2.6769068,17.094913,0.688635,36.384544,4.033561,0.9784212,23.624006,5.691836,-1.1073494,8.251866,14.002848,5.1219172,1.5097574,1.4796824,0.4120214,3.4445763,4.327851,-1.7084589,8.318291,7.442163,0.5547244,0.8590912,0.31901845,6.6520376,5.336172,-0.11802083,4.3931856,-2.2170181,-4.1533766,1.7234342,3.070907,-0.9169875,4.8931503,3.075365,-2.1294262,1.1156613,2.5978475,1.5640576,0.17848127,4.4767303,1.6062824,3.262528,3.4682653,2.6047685,4.7603903,5.2154055,4.3968396,-1.9874299,18.811354,1.3481312,2.151928,4.3259645,0.8514419,4.1019654,-2.5184467,-1.1844095,-0.33180863,8.671163,0.97413135,-4.715329,-4.9986305
scenes_auditorium_00004392.jpg,13.501573,13.696066,10.99659,7.339558,9.55568,6.721589,11.589768,11.187241,31.631166,-0.62267464,12.45555,1.6844782,11.700804,-3.0768661,5.675932,2.6382966,6.647809,2.3982434,14.772123,12.7177925,5.345857,7.4594283,7.1453547,2.1714358,6.3833594,19.076221,5.966196,-4.2570014,2.4809232,9.547372,6.774661,9.634333,3.0010602,4.603319,2.5551753,-2.611123,-1.039936,7.4086413,11.6661215,2.658183,0.9510154,2.541766,5.52913,5.4384394,6.262528,4.0694833,5.5326643,9.273231,1.2648139,5.4931684,7.596933,4.6704993,1.78709,2.665438,-1.3287206,7.1511664,12.466467,1.3222921,6.73981,-5.358167,4.3194575,3.6393776,4.5475545,-5.6753473,2.0754766,2.8978157
scenes_auditorium_00004730.jpg,16.133583,13.603057,21.569262,11.337822,8.00699,7.1835966,8.127974,10.587816,34.460217,3.4802704,10.276986,-2.1129518,3.9965868,-1.7274495,7.036813,3.1027431,9.787651,5.160819,7.9604545,5.314022,1.4365364,5.1615143,1.1227033,5.160848,5.6776805,20.290731,7.467206,1.5954186,-0.36245418,6.729035,7.835979,5.738884,1.631298,1.6476443,6.801213,-3.181035,1.3923913,9.670882,7.8341117,0.93786484,-1.3064137,3.4076326,5.5665913,0.874642,3.7854843,2.8799102,3.0013828,9.555545,4.286188,2.8326359,5.2339187,4.7041254,2.2207994,-0.92506635,-4.108562,4.5534806,8.093541,0.15340796,4.220071,-2.7162664,0.79259455,4.44328,3.379858,-6.7644672,3.4114652,0.5445403
scenes_auto_factory_00000544.jpg,40.89202,0.95071614,13.119369,-5.0685244,5.922971,1.1081052,16.615429,50.966774,-1.0002893,9.935312,19.088793,8.690686,7.499627,4.78868,-2.1817155,10.169489,-0.49919957,5.008719,12.890937,13.902357,3.1030104,2.1375961,6.437464,19.275837,1.3724158,25.354464,1.6550143,1.1843208,3.1671345,1.2767658,0.8391289,8.138362,3.7908738,5.500579,6.306896,-0.94262177,3.5496678,9.127322,27.444517,9.428846,-3.3785596,-2.3888655,0.54703236,4.8851843,-1.4692638,8.504353,10.406717,7.980232,2.0410662,0.5640053,1.0879185,7.3379517,4.6779656,0.8806113,11.130269,2.5609891,4.4308662,2.4440348,-0.80179507,-1.0336559,-5.2450366,4.230497,2.7168822,-0.32673973,2.649472,0.67057145
scenes_badlands_00000354.jpg,0.89467466,5.4328194,27.219578,3.3735354,11.414274,8.936423,4.8135867,12.543731,28.067673,11.921355,-2.9650688,1.6609546,23.81846,-4.9549923,8.122126,6.7185893,3.7800941,3.8559225,8.057742,1.2471311,11.241245,6.7920737,3.961481,5.4544144,5.9401927,5.497382,2.893093,1.5869977,6.101253,10.674266,5.97037,2.2435095,3.0634456,2.5467067,1.4831861,0.88400894,1.4774269,5.720092,11.442554,-0.2189279,5.753172,8.844632,4.4202647,5.76934,5.1144304,2.4488106,8.849841,5.554539,1.699198,2.2795208,4.0378323,4.967676,0.8318267,4.170023,11.151879,7.071388,2.490051,2.7201276,5.255708,0.1956089,-0.592949,3.8663273,-2.5962274,-2.9422474,0.26804394,3.4429204
scenes_badlands_00003674.jpg,1.3366271,1.001101,25.892735,-6.1079555,16.93169,9.398953,-6.778248,18.775944,1.9555699,9.794203,-0.77128893,-5.3248854,32.007675,0.49696326,7.302399,8.692757,3.8064044,6.641707,19.82157,3.2805085,19.970095,8.566318,9.110557,7.554028,5.722541,3.1186082,5.365546,-1.6988221,-4.4060206,0.57586294,6.633904,-0.22551017,2.8524473,4.618186,1.2451891,5.510406,2.509876,3.5360713,15.626745,2.8009202,7.145862,4.0388765,9.223137,5.914986,1.6583983,4.2020025,9.061129,1.6306562,4.6666665,-5.5213585,-2.9741461,2.017879,-0.147695,-0.6295867,0.8484196,6.3315525,0.4867192,0.7362454,5.293967,0.7370758,-1.2166708,5.9786296,1.0367191,-9.370515,2.2499108,8.900729
scenes_badlands_00004794.jpg,11.402724,2.9053402,20.064844,2.4950814,12.630339,5.7720404,1.2139692,22.654238,4.1627073,12.679547,-0.18176201,3.9774604,29.152924,1.2321966,8.2310915,7.181054,0.37614357,3.4719255,14.682202,4.4974957,33.608116,21.288378,14.909899,5.627333,4.866097,6.6030293,1.491568,4.6927166,-0.7268166,1.3977247,2.697728,1.7890937,2.8792171,6.5499887,3.777231,1.7166314,-4.6201653,0.39061153,15.414195,0.53204286,7.1892815,10.498174,3.8249812,5.172104,0.2657722,1.6029438,8.024582,6.335062,2.1109228,-3.2999425,-3.6033578,4.3169065,0.9258635,-2.4245536,1.2142991,4.324162,3.1967328,5.062063,2.1042356,2.11206,-2.7572865,10.596355,3.8342721,-9.651224,-1.0518438,7.1525826
scenes_bakery-shop_00000656.jpg,-0.47207886,70.936165,9.653519,4.7852526,7.0763416,3.5720394,12.140912,0.19320902,3.2813675,5.834757,6.5464845,9.848642,-3.5871885,9.392117,7.1349277,-3.4316144,-0.21557865,2.149966,0.6556039,3.0509744,5.4914136,4.718277,13.119375,2.0428789,0.9920932,0.95009005,6.812194,5.1830316,8.476592,1.7487988,-0.28720498,-1.4032347,-1.0302337,5.191015,-0.0163696,10.958452,-0.29735398,-0.7110894,3.1460729,0.5205256,0.63472724,8.1924305,2.331482,3.0989177,3.8206718,3.8066409,-3.715117,2.8465343,8.93888,5.3357067,4.8946695,2.116118,2.3498957,5.250194,0.72656524,1.0428687,4.6710362,19.526121,1.6860949,5.128524,4.1515493,2.472974,5.2808595,3.5325806,2.4927063,0.81988907
scenes_balcony-exterior_00000139.jpg,33.050285,2.642234,-2.529453,6.1807685,2.7172952,36.28681,15.567528,30.675829,1.4222856,13.298045,7.0610614,6.822299,24.829977,-3.1646926,8.296876,3.7676454,-1.6808255,6.0484285,7.0742197,17.042044,9.293939,11.88371,1.3014061,6.1386404,6.7744093,0.27816898,3.976202,5.359277,-1.9346913,-0.8524621,6.3211226,3.9883163,7.648879,0.8993965,8.862841,-1.6982818,0.31781182,2.9608796,4.055784,1.6511375,-0.952421,2.7364948,1.6529955,4.1230426,2.6218674,4.001044,16.323671,2.9727583,7.807075,-2.4067123,-1.5345769,13.809451,0.20181124,1.0520514,6.276202,0.5010441,4.3322268,2.9687083,1.5750309,-1.334046,1.6966095,5.08693,3.7384696,-0.61213493,-2.4700441,0.46652946
scenes_balcony-exterior_00001780.jpg,23.86253,13.676129,7.9226866,9.458518,1.355646,26.490572,13.358974,8.210215,14.148572,10.024097,0.953825,5.3670177,20.560816,3.8993802,-1.5092028,9.113565,8.641829,10.639482,21.140608,2.6128912,-0.8576626,3.7468355,-0.60309565,0.061025005,9.194474,-0.65489775,5.132065,5.6174994,-0.190219,2.6980004,-0.0022936845,7.2400646,2.5675368,-2.8622215,2.7466004,3.2636173,-0.27998117,8.934399,10.695384,-0.86983216,6.4496107,5.595207,1.3242301,7.6881623,0.6887092,5.2799115,13.460962,5.9074697,3.3301206,5.826317,-2.370264,3.6694639,2.0422897,3.5822902,4.721073,1.4201714,1.7844476,3.328249,2.2784595,0.003954675,6.1268854,3.7898972,0.8213187,-1.976683,-3.0807567,1.6233544
scenes_balcony-exterior_00002766.jpg,33.804836,4.5138664,0.33929664,11.7369795,7.308021,32.147964,10.66417,19.690048,7.481327,6.011937,15.548574,8.169718,20.788237,4.5355263,3.964007,-2.1857362,-3.167371,5.1157746,8.297692,10.315416,-3.9156816,6.577444,1.8286228,7.7347813,7.9322724,-4.3747716,3.7503383,9.411456,-2.0583088,-0.20224023,6.2262,4.739081,12.220742,1.439842,6.9965267,1.9179854,3.3018842,5.801949,6.2283792,-1.4795918,-1.1986969,5.416017,2.6430852,4.217381,1.9357599,-0.15782751,22.10046,3.4572914,8.667469,1.0756664,1.6308761,16.040077,0.6084199,1.2820916,-1.5494578,1.3024975,3.0383513,0.289289,5.8192883,2.7681854,4.5662236,3.8135092,3.7982247,-1.7604809,-3.1177382,1.9365242
scenes_balcony-interior_00003761.jpg,5.9276047,0.6967308,20.782513,19.982546,9.756877,9.588448,19.390312,2.5446079,25.762793,10.619969,1.415502,9.97223,17.264486,3.2480497,4.054169,5.9284153,5.240327,7.831303,18.565222,0.50758624,2.4462748,8.0334015,-4.3597007,3.8367927,8.973483,1.4419894,8.249422,12.521556,15.191111,6.1588564,0.16075413,14.005213,3.743947,5.17129,4.5668197,3.974158,0.4560984,7.1486235,10.24281,3.003182,4.8054633,2.3250933,1.6144273,6.0442367,0.80395776,7.7130036,6.913932,2.9462333,5.3539233,1.8155359,3.8112469,4.414886,2.1966789,12.2797985,1.4361414,6.41421,3.1712632,4.2384777,-1.5933712,1.99017,-1.004169,4.2882714,3.8278506,0.18987557,-0.7276393,1.3189522
scenes_balcony-interior_00004023.jpg,9.427658,8.272049,17.195923,2.9766626,11.214511,23.247429,19.032347,22.507286,13.270786,3.6679466,3.9662328,6.454704,30.596806,-8.3989,5.747949,1.7715712,-0.96060085,3.3624318,32.855167,9.249775,8.412445,6.040685,9.893886,0.6499676,4.3670864,-0.87998796,2.3796234,3.3882086,-2.8834329,4.63322,6.6826186,6.5213547,6.1091857,0.88163596,6.9864197,2.2724662,-2.9343448,2.4185433,12.399359,5.226066,2.4424124,6.640701,2.8997335,5.316492,5.644915,-0.22148325,15.557421,9.22725,3.6302,-6.1169276,1.7118696,10.249835,0.28925252,-3.8598294,-0.18853107,5.248009,0.070640355,0.93781483,3.1763737,-1.6687369,4.415244,4.9633145,3.7960238,-6.19987,-0.30111814,1.9939827
scenes_ball_pit_00001437.jpg,-4.1955514,38.349052,28.794968,1.2203132,3.383381,7.4399753,8.775461,3.543385,31.385735,-1.0882571,10.968196,20.310455,-3.550439,13.92401,0.34843558,9.764409,3.7180088,6.092912,-0.079869196,-3.0885649,1.5796102,7.938275,6.6280136,8.389909,-5.49161,0.4706267,0.77681506,17.975323,4.4139867,17.337381,3.5993204,8.926027,-0.3757606,-1.4549202,3.467479,24.303156,-4.210026,6.1532936,-1.8908805,-2.2015047,1.8828815,2.8700101,1.2263534,3.9883893,6.2397914,2.3972592,0.5592618,-1.1442437,0.40208903,5.426338,12.240963,1.907533,-1.5927994,33.632668,1.3576826,6.3909435,7.4148364,5.2624283,3.2211742,-3.1704404,6.041868,1.4511404,2.5688653,5.0095687,-2.0101926,-2.4089608
scenes_ball_pit_00002969.jpg,5.7788577,9.324063,15.168339,0.031955026,4.3491497,3.171739,4.2474937,8.937209,34.9591,9.083311,2.9355223,21.400555,16.415995,8.094854,5.06221,36.49212,3.028691,1.2190871,4.9845705,7.8854904,3.8720152,1.1130704,9.596788,4.1738997,4.9915223,2.3673863,0.57113916,-0.52399564,-6.121253,12.433987,0.06565377,6.7187657,6.848653,8.318544,3.160637,15.363661,5.6661725,3.5115647,9.778252,0.14623743,0.78502965,2.96566,2.418687,-2.0005255,4.0003514,1.1174041,11.355228,3.629444,0.97676927,-7.0727654,1.1239952,2.9013913,5.761368,10.538714,-2.6736603,2.5495052,-2.6309462,1.7751724,1.4029622,0.1662802,1.889706,-0.23626201,0.7095979,-4.44341,-7.344986,0.13805674
scenes_ball_pit_00003245.jpg,8.08454,22.18306,5.5087337,3.0134492,6.465558,2.555478,6.7417526,2.841768,1.5918695,4.2224555,5.6872478,48.35133,-2.0870156,9.324113,8.388413,22.385317,4.4551992,0.77003044,4.87201,21.842873,3.9063704,1.5375358,39.297382,19.622608,1.4491986,-1.0312763,0.5749348,3.1932256,2.3310125,0.7385808,4.636258,6.074576,4.8478584,4.363526,3.7957926,23.446844,1.7712271,0.7247391,0.80778563,-0.354366,2.9389102,1.8221173,3.618719,6.057894,12.87721,0.6200951,6.927473,3.0437405,5.710663,4.3224807,-3.2436907,4.239516,1.5864499,11.905777,1.5123343,-2.322589,3.2267134,9.95802,10.144563,-1.4003047,2.7538002,2.8129327,3.2663722,2.7300808,1.1246642,1.9279383
scenes_ballroom_00000051.jpg,-0.30533338,13.325456,21.664125,21.111671,2.2365544,4.994551,17.337305,8.880649,49.07053,-0.051600486,7.2293096,8.043737,1.946979,3.2675834,2.7641497,15.022737,6.0285044,3.5320957,4.306799,-0.21552211,-2.4978523,7.604227,1.493816,6.158739,5.0662546,-2.169655,15.910421,-0.1435536,17.975922,11.39039,2.265944,13.5075655,-3.115646,-0.12598136,-2.096561,6.938687,-1.2943348,1.4992054,4.1509705,-2.7976074,-1.2288816,2.8380208,6.267448,1.7371379,5.5838685,3.3121195,1.8704792,6.1402764,-0.3925644,3.8814046,7.743091,1.9817464,3.7436671,2.455585,-0.07147791,-1.7267737,-4.5652356,1.8928204,4.5270877,0.4845148,0.8372617,-0.33467633,-2.075257,-3.3977826,6.6865673,-1.367776
scenes_ballroom_00000149.jpg,3.6713176,14.324997,18.069458,16.09499,8.596386,-5.12185,28.7944,17.024277,38.51992,3.9686606,10.7605505,17.012749,-1.3686094,14.178285,-0.5259135,21.44166,-0.3377605,4.0684133,3.819192,2.8152943,-9.082012,3.7130785,0.31767055,5.876646,4.4683275,-0.043071993,14.196001,2.5932708,9.346891,10.972273,6.022885,17.413979,5.370577,6.6646466,0.26618698,3.2451873,-1.3905339,5.0821333,9.274396,6.517989,2.6137655,5.05494,8.098502,-0.06936658,21.025757,4.5822406,0.11860877,14.267984,-1.6914438,2.4458497,3.6825373,6.6294184,3.5293095,0.29712525,5.144997,1.2804084,-0.46537966,2.251743,6.9064817,1.8340756,-0.7589612,-3.2023146,2.0786672,-0.39142528,3.6756973,0.41438565
scenes_ballroom_00000854.jpg,16.776993,10.962378,11.11067,15.420172,7.531729,-2.304035,24.38558,14.068206,38.078762,-1.8576413,12.880415,22.825823,-0.14027676,16.975155,2.9237595,23.729414,-2.169899,8.20849,3.914677,5.842613,-9.565933,2.3652802,4.0576553,7.559935,1.7289463,-3.1771872,16.60707,1.666384,5.536233,7.85318,4.6994677,18.552198,0.43548653,1.8562536,-1.8986464,8.772115,3.4498067,2.940956,3.220207,1.9535803,2.4493716,-2.840221,17.179266,1.2564801,9.188487,1.6091548,0.49585867,13.124138,-1.2921479,3.2670352,3.2572274,9.827965,0.8605447,1.8334001,1.9311694,0.95548797,-3.9419427,-0.5983898,5.278387,-0.8750806,1.7570745,-0.6051802,-0.37306166,-1.8988129,1.55833,-1.96402
scenes_ballroom_00002556.jpg,9.679075,3.3067062,14.587964,35.64075,2.568768,-0.053337403,21.340048,10.337362,43.5263,-2.9446464,8.600274,22.120895,3.0155544,11.82242,5.1822805,8.116425,6.3061132,-0.56778306,7.5282903,1.5616982,3.3149917,5.4994125,8.408774,5.1899285,1.3451577,6.9131794,14.342133,5.727594,21.809114,4.974724,1.7544475,7.452441,5.1783686,5.3462043,4.299512,5.065115,3.839948,2.6647007,3.7669017,-0.39779428,4.837243,3.1182926,3.321859,-1.6710287,8.078074,5.62794,3.180901,8.193582,2.806546,4.258227,10.022402,4.812489,3.091877,3.5510051,4.535912,1.8756702,-0.18718885,1.4257736,2.0851982,2.854309,2.2169344,1.3228666,1.0708145,-4.520753,3.08583,2.9360323
scenes_ballroom_00002750.jpg,11.293638,6.2115874,17.36584,21.124636,7.783584,17.79402,23.80009,5.5540524,36.9466,18.345598,-1.3091054,2.7416916,7.93925,-5.477189,-7.7616224,4.1227317,2.9237056,5.044233,2.394848,4.3475842,0.6950933,19.09588,-0.3878077,6.2341204,8.944445,3.6896765,10.421067,3.1173866,16.8523,9.369249,0.47986987,2.2650561,1.1680447,1.3137596,-1.2329066,-1.2217288,6.538012,7.398077,3.752678,3.8261793,1.2281207,0.7574539,3.931635,6.0956774,1.4623568,-2.1197557,15.083495,11.978649,7.6047616,5.9019,2.8044775,11.1785145,-0.13505279,4.560809,9.560318,0.3550216,-0.59216076,1.6514077,2.644239,1.2641406,-2.3377986,1.1039293,2.9484224,-4.1051106,3.0834906,-0.29102993
scenes_ballroom_00003363.jpg,7.534586,16.408657,14.141401,17.221645,9.253051,-3.865418,22.56733,15.315037,36.54143,-5.2477055,9.133985,20.01667,-2.8878074,18.94114,-3.8007817,25.86582,-2.1929288,7.608471,10.76373,1.9217263,-9.88757,2.8988125,-0.9054412,13.903816,5.938221,-3.7219937,11.371327,5.184318,16.285471,10.8939905,-2.0597603,15.725057,3.240072,5.2985926,-2.8026638,8.151015,-0.16182889,4.6040096,6.7459235,4.6531324,2.3420525,-2.5969636,6.6320233,2.4998133,3.989932,0.980533,2.3850625,13.62884,-2.0395517,3.4265466,2.0165942,4.852494,2.104654,3.0561452,2.890339,0.058692787,0.4780354,2.6369538,3.1094496,3.4904785,-0.014873315,-2.6227694,-1.469539,-0.17928192,1.4584985,-1.3470243
scenes_ballroom_00004092.jpg,24.06919,-1.5787162,6.3098216,-0.41113198,0.014780019,31.604975,39.807953,14.516844,8.85807,15.748037,3.9126606,2.1455805,7.0152483,2.5227125,1.4169862,4.711973,4.291582,-0.4679459,8.268791,9.045753,1.901377,3.1805117,5.81613,6.377404,10.182064,4.147028,5.757397,1.0489749,7.2513843,-0.5304046,0.90075564,10.035907,2.6729245,8.234159,-2.7834105,1.1673487,2.6619208,5.540879,4.9389477,2.056533,4.922729,4.6250095,1.879617,2.51734,8.571544,-1.2340139,15.174638,4.454156,4.2079663,1.3604835,3.6775455,15.670815,4.504069,1.200194,3.7019715,-0.21538585,-1.4718149,3.6020625,5.9069977,5.253093,0.97929704,3.6152215,-2.2869983,-2.1401508,-0.043327034,3.0531647
scenes_bamboo_forest_00003515.jpg,-0.26789272,3.9034798,23.376156,4.3154545,44.320644,10.101016,8.293336,9.193673,0.32914793,26.225399,4.683504,14.457575,32.59214,1.2512294,10.567697,6.5230145,7.5571284,1.1754924,2.84666,18.756968,9.250728,1.2798222,0.39531645,5.430784,23.841055,4.496008,8.242944,-3.3767085,1.7622061,-5.3526564,13.617121,7.454729,3.6135335,14.53072,3.033498,3.3649907,6.0542665,6.559787,4.8262334,-1.9920737,-3.5808234,-0.77709186,9.958349,2.0151186,6.602671,5.5562234,4.0810103,6.0029426,5.057058,1.8502066,-2.4615827,4.060402,3.6480546,0.012753066,1.6456399,3.6724687,1.2535152,4.766603,2.5024009,2.9280074,-1.3470563,2.253659,1.3885922,0.93701315,3.5585263,3.0809994
scenes_bamboo_forest_00003551.jpg,12.204083,2.5493178,9.789325,6.243341,46.583862,20.005661,6.882044,12.406506,4.1248655,19.825485,3.8745713,6.845734,37.01774,1.2461749,6.6719456,3.7456617,0.7542262,-0.22373138,4.8091784,14.745953,2.1888165,3.470399,-0.5954956,-0.0029852847,13.624809,-2.5843973,-1.8978553,-0.29963812,-1.2354925,-5.6091275,4.182164,2.6956244,8.45159,13.206306,3.5677574,-1.6941911,2.1279607,2.2682502,7.2513127,5.575306,5.0613976,1.231019,20.900211,5.259918,-1.2441995,1.007428,14.929188,6.105124,8.047601,0.2850714,-1.5846126,5.8284492,2.5023203,-2.0835786,-0.5076882,3.243814,-1.0086892,-0.5722938,-1.6082847,1.9920287,-1.8266233,2.820086,-0.43102777,-2.0560274,-1.8180045,4.0531564
scenes_bamboo_forest_00004675.jpg,-3.8404562,-3.2452087,32.0657,0.3225671,40.3008,11.05283,5.160291,12.425936,15.904686,27.44733,3.4279666,4.4418373,35.56523,5.201498,8.576528,7.8713827,6.502106,3.135466,11.3083515,16.186083,5.6426024,1.761809,1.0989046,3.516677,20.333136,3.594982,2.7204509,-1.4173194,3.0019574,2.2140617,10.7223,6.7821965,7.9430833,12.539819,1.2952607,2.1427438,2.2829263,3.8878396,8.578279,2.2683735,2.7124524,3.0794392,19.157692,5.2046885,-1.916442,1.0459602,10.078592,10.900593,3.8913012,2.6783962,3.5732071,5.294282,0.57021904,-1.2563179,2.8032925,6.8162656,2.0287018,4.18583,0.4117584,3.3468041,-0.4336661,5.2459297,3.1985276,-1.1704799,2.8240395,7.158364
scenes_bamboo_forest_00004985.jpg,-0.47207642,13.300817,21.687498,2.8233418,53.96235,7.624489,7.095748,3.7440028,1.9598987,23.798677,0.03168108,13.173401,26.64567,-0.18924214,6.963604,6.2942266,6.3358874,1.520091,9.659738,20.5851,4.878843,-1.195696,-3.6815026,0.42731267,20.63618,1.9123931,-0.6384825,-1.9154698,-2.1231315,0.3474948,14.764521,7.735342,5.7451324,14.168765,3.6536086,-0.532511,6.1243715,6.408687,4.8159165,10.364544,-1.4150957,7.226707,11.734886,1.7202388,13.323228,2.8090878,4.7181554,2.4604998,2.975648,2.746773,-1.0595641,3.720116,7.1832514,-0.5512721,-0.43015563,-1.0117986,2.9625967,4.089239,3.9274256,1.9875672,1.2168663,3.4449394,0.7836314,2.0283659,0.2764455,1.1069701
scenes_bank_vault_00001768.jpg,64.804596,14.468257,0.87838507,6.488917,10.713229,10.566526,11.415113,10.5074835,5.5782957,8.286483,17.384375,-1.8257306,0.7184474,28.947365,8.591906,2.1143796,10.796596,4.604671,11.788869,1.1108396,-0.5619669,4.8275976,0.20212159,5.1795287,2.7388475,6.2528415,5.4328294,2.0106792,-1.4437044,-0.12465198,3.4434617,7.7347426,7.6390476,3.7319984,2.653,7.3947134,0.7615301,-0.18298468,2.3575263,-0.13220179,5.3003106,7.21246,7.169394,7.5013466,5.2251177,2.9747696,4.9559608,-1.2672625,5.895428,4.6631594,-0.49527743,3.2329872,3.9863296,-1.7488629,8.318712,6.1549697,6.06211,-1.762005,3.2254722,3.7318766,3.8280315,0.57383096,8.39196,4.1122446,0.22508474,0.57392496
scenes_bank_vault_00003196.jpg,62.002636,3.1979744,10.546969,-6.01389,-1.0960343,7.716399,4.24002,18.326231,1.7742112,5.300264,33.32818,-1.8533942,1.3943691,13.181954,6.8545895,0.6102092,3.9155955,4.1971827,10.357031,2.06637,6.6697893,4.201562,0.9870615,2.989605,1.6075529,6.471449,-1.2663153,2.8648443,-2.867746,-0.0019886997,1.3286611,0.9257295,9.4108715,0.7697281,6.947022,-5.9953246,8.032503,2.0821261,2.7015352,7.165678,8.272732,4.7751245,1.4870077,0.47938848,2.0662484,0.8082304,6.8652897,-2.2273116,9.148164,-1.1170427,5.109683,10.815106,2.2187498,-2.211613,0.9996373,2.7350655,1.2267216,0.26006365,2.097321,3.2565005,1.32162,4.0082245,6.3130937,-1.6641831,-1.818,1.6112198
scenes_banquet_hall_00001971.jpg,10.03579,39.49243,8.482505,0.4226249,-5.142419,8.763775,13.51233,2.8762496,18.770908,6.6694984,-2.344983,12.7229805,3.5813146,8.224751,8.430385,13.3551445,7.1782036,12.082923,9.013326,7.3281364,-0.81047416,-2.1691825,-1.5788625,-1.0407143,8.503146,-2.3644845,1.6617762,6.5392723,-1.6690023,6.7706017,1.0295928,6.7507463,-0.1949612,3.66472,1.0514021,-0.31214023,1.3884636,6.9651423,2.7511716,1.4473057,-2.228692,5.5495896,1.7076612,-1.6551617,2.4879136,4.255694,10.017816,2.8358982,2.6059628,4.9297485,1.5637614,1.2932221,8.257813,5.5393243,6.0898805,1.8923573,-1.2483952,3.8724422,1.2667514,-4.8448944,4.7549725,-1.5123227,0.30012,-4.008429,-2.2086434,-2.5772374
scenes_banquet_hall_00002342.jpg,22.217157,7.3333797,5.0317125,33.81965,2.9440312,24.065453,21.094353,9.493426,18.768375,7.2000923,11.263612,14.049315,5.5221763,3.0589058,13.231887,4.1546087,1.7164174,2.9018497,6.344137,10.880904,-2.250024,15.165893,1.2532483,11.583603,5.5610304,1.6882416,4.5250983,-0.04535965,11.904313,2.8066833,5.0044594,4.4989347,1.9575669,7.008974,2.2836664,-1.2606282,7.740349,10.513309,2.7159193,1.3365597,5.076153,3.9889183,5.0533943,3.9944544,4.540638,-1.797422,12.205441,5.3262305,6.843445,4.02742,6.4403176,4.998453,7.0916085,4.466691,1.370488,2.4753277,3.8042147,6.496076,5.855311,4.7519555,7.938578,4.943294,2.7850513,0.7807262,1.9693745,-3.1127431
scenes_banquet_hall_00004683.jpg,23.887306,19.749151,5.910449,8.623994,2.1552482,15.883277,21.466862,19.081474,22.02351,6.760489,12.051441,5.3990088,10.981159,5.8803916,9.064407,6.0098696,6.725627,8.382614,13.197268,10.93302,3.4901593,9.224661,-1.3012016,7.6031013,7.8207,5.5638704,9.1270485,0.9090744,3.4403796,5.937673,11.012751,10.561116,-0.6438759,-0.71547824,8.720147,-2.0508678,4.668572,10.353076,3.6289637,3.9475951,2.3500686,0.35152832,6.221563,5.52118,6.881596,4.1779003,13.376681,3.8262203,7.8194394,1.9563881,4.9455934,5.1663623,2.4865928,2.3097444,3.7863703,6.503986,6.3001842,4.783148,7.3691525,-2.3485315,3.8683724,6.81386,2.69031,-4.7570486,3.1338558,-0.53774697
scenes_banquet_hall_00004987.jpg,23.525747,7.4395986,8.94739,21.571526,-1.0360962,30.926239,16.834774,2.619639,20.258251,10.058191,9.4250555,1.2023809,6.613493,-3.299012,7.4535,7.328994,8.95655,7.053566,3.772821,23.193373,-2.6635208,21.322742,14.587942,3.4052167,14.244026,3.7932808,12.081291,3.2312214,4.9936166,1.0709152,9.910838,12.466262,2.4669526,4.060473,-0.15328853,1.5615994,4.1111984,15.892723,4.571714,0.5560465,1.5807241,3.8940759,4.6391673,2.0243995,3.4444234,3.5642586,9.211348,3.647865,3.367522,2.2173836,3.2254603,7.079999,5.96219,-0.4500758,1.899272,4.573667,2.6067169,5.276252,4.317163,2.3707156,9.86392,6.1760006,1.4553514,-2.988304,-0.26054615,5.445219
scenes_banquet_hall_00004988.jpg,12.2344885,50.932564,6.929298,5.601666,5.4737864,27.197594,22.340918,7.2342896,7.1796417,6.4045296,4.8415785,12.639928,6.3073196,0.48879367,3.433035,-2.6644104,0.8615868,13.812165,2.5738294,6.5040975,-1.2588946,8.073551,-1.0821292,3.5665221,5.906461,-3.2677815,6.24018,10.583659,5.944439,-1.1413223,5.072255,2.1578763,-0.111734495,5.6972585,1.4871938,0.5246639,-0.06593491,9.426903,-0.22849147,2.6304393,3.0542004,4.9349575,3.9084413,1.8396417,14.706654,3.533564,4.841543,-1.7939011,0.37198877,-1.1474196,0.1475744,3.3919215,3.4513507,0.56511843,-1.1149125,0.9344046,0.09785704,9.984822,3.488791,-2.7480931,3.4031384,0.45437998,-1.339444,-2.2899191,1.9985974,-2.139061
scenes_bar_00000426.jpg,21.169538,39.832886,1.3357929,-0.4976752,-2.6596105,25.922161,29.586441,3.0779912,3.0790622,12.387803,7.941349,8.06061,-1.5352641,4.1115274,0.40374482,2.8268735,4.312982,35.622154,3.5269446,10.307802,4.3821454,4.310013,3.645673,2.9010575,8.947159,2.37968,5.188971,0.27318245,3.6373587,-0.2902571,-1.8313771,7.966567,3.3271358,4.447197,-0.051468797,1.3911148,-1.0587006,9.403779,-0.39923537,2.335669,6.734113,6.6341505,1.109658,4.4427605,1.14607,3.3034477,12.96764,-2.8912451,-0.32532564,5.6631393,1.1172984,12.642199,4.108247,-0.7384997,0.5264461,1.2821498,-0.17504478,6.4418144,3.3642201,-2.4731708,2.8480315,5.038312,3.7841341,-1.9053826,5.2852287,-0.53918743
scenes_bar_00001465.jpg,14.634456,26.031858,6.3902287,3.1056585,-7.7332377,25.834269,23.06253,10.727042,15.90623,11.428133,10.60734,5.231942,2.983902,2.8681822,3.2981217,6.24802,2.476386,27.765194,-1.0651399,6.045065,3.5751812,1.7803165,-5.540365,4.731239,5.611242,4.0748806,7.260923,-3.881868,-1.9709568,3.014955,1.2760756,9.42147,0.18803766,0.27751112,0.9743441,0.0324307,-1.2045974,5.343394,-0.32521504,-1.1796043,-5.8936434,0.90904367,0.10534283,3.8892963,0.012369547,3.785995,11.493501,1.8748876,6.456252,3.376054,2.8081357,14.150335,-0.059045944,2.0354576,-4.024773,-0.13349234,-0.92476475,2.1267862,2.7472658,-4.2960105,3.281486,3.5101094,3.2562447,-2.7735927,6.1722746,-4.3850517
scenes_bar_00004723.jpg,21.908846,18.565758,17.187048,1.9709537,0.8996008,12.861252,9.891424,8.27473,15.75983,8.100791,4.7358103,6.0388045,11.065991,-2.0068464,6.401907,16.912954,8.468548,17.205542,3.5861783,5.6134696,7.247174,-2.8746889,0.33523664,2.3006427,5.97147,7.437147,0.012072083,-0.69135994,-8.2340355,8.52083,2.7763543,9.430899,2.0124233,4.664127,6.183921,1.6931775,1.9180832,3.2937455,-0.09502475,2.5678957,-3.8170571,-1.3278222,3.7686677,2.0740402,-1.9437665,1.4160712,12.817271,3.0049057,6.0440497,1.400619,3.7257082,15.87418,5.1425133,6.0945363,1.679333,-0.72595,1.3104748,-0.83613956,1.2370576,-0.08774148,5.504228,1.6146538,2.835645,-1.3016158,-1.0703104,-1.4957062
scenes_bar_00004801.jpg,14.658371,8.341878,18.937326,7.3382564,0.8963404,17.233223,16.536224,3.71705,45.870926,9.518023,15.217428,6.1548285,-1.2231218,-5.987712,5.7968354,14.441437,5.027967,13.668503,-0.063443325,2.6647682,2.0830781,2.5770314,1.0450454,0.8872012,9.522604,7.4321985,7.9869323,-5.471661,-0.7862159,12.800792,5.0045805,16.962885,1.6512898,2.026874,2.9851227,-1.3550913,5.4379215,4.3770256,-0.86505497,1.7650098,-4.290281,3.2943301,3.0203838,4.891356,2.9267302,2.6791103,8.619663,8.128953,3.950709,5.126603,4.2581043,12.459664,2.294725,1.2898285,-1.905744,-0.35038477,-3.182581,-0.29989326,3.7765787,-0.7666696,1.0626882,1.8285348,1.1552334,-7.408595,5.450982,-2.4109674
scenes_barn_00001052.jpg,25.398457,7.129539,17.072472,-1.0319602,16.803366,25.32657,-1.9012939,18.34168,0.7832527,14.097425,20.952793,-0.8747564,34.90222,0.5399477,4.4646854,5.226216,6.6393867,-4.6436763,5.8871827,7.294162,10.331626,3.5022576,-0.7099445,12.756854,5.0725603,3.666997,-1.1597635,5.137979,-0.114970446,-2.4769444,1.426609,-1.2137794,8.26547,3.7145824,8.470771,-1.9562106,0.014462369,2.4245355,12.196672,-1.6797724,6.846758,2.8254843,7.473964,4.359955,2.314351,12.989187,17.597954,1.5524799,13.113991,-1.0403467,1.2401898,5.5207477,5.1821904,2.7908287,22.75466,0.13437214,6.729886,3.512407,8.301427,7.2899246,1.732754,8.047647,-1.1417408,-4.2597456,0.84425175,0.9398767
scenes_barn_00001256.jpg,24.373018,4.146992,12.135129,6.8525953,8.814259,28.423197,10.14158,20.019913,3.379868,24.397642,-2.4796674,-3.6522274,32.61725,3.1903367,2.3140118,7.324184,1.1272458,-1.8659523,5.8073215,7.2250156,15.428725,10.673295,3.7267044,6.3431187,6.5703535,1.548637,6.6614428,8.033071,-1.0325909,-0.31173265,-1.5638342,4.474012,4.4445677,10.516808,6.8193803,0.8993561,7.0475264,3.275746,6.188261,1.3162582,0.51534885,5.007903,1.4045573,2.0749583,3.453073,-3.388589,24.736912,-1.6837895,8.571959,-4.0680075,6.0067463,14.113663,5.156135,1.9578424,32.072872,-2.090659,4.333361,3.641506,5.2654843,7.672983,2.9905548,11.362551,-1.9374752,0.73837453,-1.3208569,4.519916
scenes_barn_00001540.jpg,37.733112,-0.63117415,4.710989,1.9827032,0.21494955,35.82919,6.357643,28.346622,3.7651832,14.653622,9.186277,4.3695126,29.820755,-4.393196,10.713019,10.438181,2.569005,-0.43191794,14.843626,15.281977,4.8997307,7.7634335,0.058058463,13.376034,1.4857339,-3.825922,0.558259,6.709827,1.3993648,1.3724473,4.895453,3.9877045,1.0374784,-1.4840955,7.355787,5.5510135,-1.0661404,7.323624,5.797268,5.446434,-2.1480045,6.4666166,-0.17240387,8.695924,5.839272,6.598916,12.129996,4.409746,23.165127,-0.5657825,7.191039,10.086699,1.9285679,3.9642203,8.681313,-2.6726642,4.8053536,4.650359,7.862846,-0.46047643,7.268234,6.7858124,5.278851,0.781649,0.024340162,-2.6690922
scenes_barn_00002790.jpg,16.138456,7.5756774,26.6729,1.6917989,26.937065,19.417816,6.9951353,14.404538,1.6574776,24.61962,-1.8175194,-6.607364,44.228947,0.22719656,9.115807,4.532667,-1.2331923,3.0566638,2.0082479,6.8411856,5.9981856,7.276748,-0.14255503,5.85548,6.047747,4.8086157,1.939803,5.5038395,-1.8121573,-3.3211522,-3.119883,0.09231516,5.8765645,7.02574,4.5738487,0.67213345,3.261527,1.401851,9.860339,-0.4254131,2.1758356,8.322904,3.2671142,3.9919481,5.433278,2.1628904,17.469805,-5.477722,4.449145,-6.9633083,2.3408558,8.686848,3.8559408,0.4809319,31.493387,-0.7448779,4.239787,3.8887932,5.561665,1.9909401,-1.5952096,2.293572,-2.1396701,2.054378,-1.2069645,4.748472
scenes_barn_00003067.jpg,20.507841,2.6874752,21.499224,2.2625515,13.959627,14.312562,8.796484,16.657661,13.58073,23.05215,3.5496407,2.2520697,33.558823,-2.6122987,7.2761493,2.678623,4.086,-0.20918784,6.153751,8.258803,21.973314,2.9690225,2.6376135,2.369228,8.379815,11.104155,3.5322986,7.7173076,-1.2601634,-0.040280633,3.04751,5.2343287,6.0673656,9.748391,9.155185,2.151011,5.5400653,3.790515,5.943579,2.6551473,7.9229527,6.396291,6.980958,2.5341678,3.295172,6.982103,17.301596,1.8051956,6.4505296,-2.1601627,0.5551214,9.516357,6.783831,7.127715,25.311512,1.9709561,5.5823045,4.0733027,2.8106775,0.53436416,-0.11396888,5.364555,0.08371179,-2.0334766,0.84834325,2.7093697
scenes_barndoor_00000523.jpg,37.656116,-0.718328,2.6223028,1.0679618,5.909471,27.602886,9.818228,15.914636,4.9720206,17.734587,7.8820305,0.14404953,23.611036,1.5829242,7.764359,-7.189016,-3.3088937,3.0252628,0.92075104,9.132452,24.449797,6.056545,-0.8864093,1.4909178,7.486876,8.951472,6.6061897,-2.624645,-1.4809226,-1.6936563,7.010889,2.540501,7.116575,3.9774694,8.938843,-3.2687206,1.7568758,2.1785455,4.688879,1.6201966,0.29737708,3.1296785,2.033371,4.2179585,1.9060496,0.24332404,16.41998,-0.83948725,4.964647,-4.653483,-0.380437,18.522835,2.4435608,1.1283193,10.13378,1.7943647,-0.36645326,-3.1328433,0.72532487,2.7421207,0.044382457,2.7447593,2.6606858,-1.0249721,1.4167415,0.6200368
scenes_barndoor_00001102.jpg,31.494114,7.4444385,9.460564,3.9902377,7.8943,35.59514,-0.033704564,14.691501,2.44826,34.183075,8.928004,-1.3045449,20.540918,0.04027607,8.379485,0.9538644,0.80319995,-3.9393284,3.7012625,3.2857285,18.470034,7.506396,-4.0378637,6.1093307,-1.0246283,4.616119,7.426523,9.59127,-2.0890586,5.093932,1.4266258,6.0511026,5.241321,4.5713587,9.100474,2.8377888,1.6095741,12.366652,0.7235728,-0.35363254,1.4893675,9.937165,4.6226697,8.4432955,5.8543353,-3.6197667,16.532223,-0.24329415,17.542454,4.2707644,9.455183,12.943038,1.6283674,3.4873815,20.93696,1.5578887,7.900367,0.81523377,6.006437,6.5812564,4.0019317,4.0189557,2.4050632,0.107736975,1.2728428,0.2623665
scenes_barndoor_00001853.jpg,43.353626,2.1430917,-0.62846553,-0.06904453,-3.3941402,36.728806,4.4740686,19.291487,6.80367,19.121487,8.9077215,-3.8830633,13.944692,2.9159048,3.2763655,1.2743515,0.5825652,6.994447,-1.5735493,4.1907396,12.325502,10.584845,-3.9512212,2.811785,5.294322,3.6008391,4.714361,9.626938,-2.208886,0.07658433,1.8758729,-0.3492354,1.3313906,3.3441532,5.4031467,-0.30036923,2.796495,5.6373324,1.2553267,1.161541,-0.4640965,6.215598,1.6044624,6.242768,7.559496,2.2608705,16.720053,1.256794,5.057593,2.1944075,5.472323,16.292933,1.7203997,0.8299399,12.245199,4.205109,3.3410642,-1.5698876,3.759685,4.9841747,-3.206452,4.2723465,0.47387448,-0.48238337,-1.8282413,-2.7254813
scenes_baseball_field_00000639.jpg,19.43829,4.539072,9.769217,9.293304,15.441929,7.4020967,-5.7812085,10.724916,16.724997,-1.6630169,11.210875,3.4516706,17.513977,6.29315,-2.5280836,22.457897,18.806662,13.659928,20.107824,8.784243,4.3466287,0.45190418,2.3122375,14.217641,10.4162445,1.9649175,0.0011821277,2.0220118,-6.889133,2.2984424,5.3441787,4.967233,5.2141724,1.6004719,19.867363,-0.88915956,3.1721401,6.9352136,1.1507394,6.2305408,6.5649877,3.1286273,12.054855,21.611443,1.1174023,8.545395,6.478258,5.707221,2.2198467,2.3703635,0.33999324,3.1893325,-1.8643982,3.443306,6.5572953,-2.5420628,1.0885179,-1.4016956,0.74560773,4.0084243,0.3552763,7.8777804,4.0134444,-2.3500123,-0.38695425,5.337936
scenes_baseball_field_00000790.jpg,13.046964,-2.9373944,16.251923,19.275106,10.287126,4.081611,5.2954435,22.504074,29.206577,0.25109777,7.2914734,7.9821014,13.844421,-2.1708424,6.019799,26.099422,4.9247146,7.9611754,4.299232,3.4487736,-2.1016781,3.6538656,2.5306432,3.0499825,10.251456,7.5821586,4.5646896,-5.989336,-1.8829485,0.19758686,3.7273293,2.3868377,1.4861925,-1.6454285,4.050204,4.708078,1.7818891,3.4395225,6.992902,-2.8575022,1.152513,-2.172623,2.9329755,3.7698493,2.0010245,5.5338287,8.065447,12.586877,4.916779,-0.27459887,1.2922915,1.2950666,-2.2511377,-1.0238307,1.8139896,1.1998243,6.683616,1.7952938,3.7929733,-0.21487896,0.6540914,4.6822915,7.53148,-0.66163594,2.7203853,-0.482817
scenes_baseball_field_00002586.jpg,18.15848,2.8191624,17.703115,5.9314017,0.9629139,19.243965,4.189542,7.7103744,15.565616,3.6010118,5.2782,2.9039693,13.011263,-3.9870024,19.105118,21.257229,6.0020432,-2.6119902,6.7335935,14.941735,3.3777773,5.285332,17.988337,0.6350392,9.867683,0.36314884,4.6844754,-0.86552995,-0.7326852,-0.4241994,4.1394434,9.169017,9.719894,2.6568341,-0.4573427,4.674715,0.8855327,10.773931,2.8762457,3.5082948,-0.18933155,1.9858818,4.5466337,3.5180383,2.6014516,1.2658241,15.266874,4.1429687,5.336046,-4.066038,-2.522932,0.92689,1.4655962,2.9155755,-1.9797047,0.70500344,-1.7928679,-3.6188629,2.065207,-0.9153363,4.1068516,3.681422,4.5854526,-10.149407,-6.3862667,6.0778885
scenes_baseball_field_00003959.jpg,10.318583,-0.6697737,13.131717,0.13101679,4.463299,8.265728,0.8135026,3.9192595,26.207226,6.7348266,2.0225422,12.897822,28.925833,2.326029,3.7985575,44.8818,18.01829,-2.1677518,0.9725412,0.42698142,-0.36301306,1.6683956,-1.2173783,4.0778637,18.839676,6.050687,2.184293,6.0011344,-1.9315944,6.5909014,14.8752575,10.710963,-1.5111091,-5.0549593,5.2103343,12.273242,-4.212264,5.019312,4.533274,0.018438464,5.6495852,0.27758145,4.8920503,0.93127435,6.121721,7.5948277,5.8425565,0.36276382,0.08527823,2.3765059,1.3171425,-2.6620092,0.7642475,18.602839,1.5303384,6.270503,3.502227,5.0684795,4.1219354,1.0282999,2.3031614,3.0694473,4.1964183,-0.37606034,0.76867175,1.236951
scenes_baseball_field_00004555.jpg,11.533432,-3.9305112,23.658384,8.357929,0.016615912,4.4334617,4.8067555,8.37331,38.413254,4.2052007,12.990906,0.86668205,12.402357,-4.0330796,5.77381,35.703182,-0.55607486,4.402631,3.4266484,7.726188,3.0887222,-0.4567598,5.693979,3.2583728,17.549559,1.3678821,14.250083,0.05954597,1.9474201,9.268765,5.564142,11.044716,-4.2351775,-9.1659975,5.8168044,4.6755395,-1.8008047,2.217661,6.9903507,6.843371,0.5050272,-0.63278824,-1.414194,-1.3532753,-2.4443588,-2.802446,5.5444183,7.1547875,2.3318536,-5.9647503,-1.4441956,8.517732,-5.386641,2.1594102,0.6808722,1.7655224,0.3700522,3.2321088,0.38900295,1.1296293,0.31712365,2.9226606,7.4524584,-4.357599,3.8000364,-0.7297102
scenes_basement_00003797.jpg,38.12044,0.46890676,0.70159936,3.62927,-3.0106134,49.400787,1.5161283,12.0164175,2.8764613,21.198608,14.345749,4.4627275,10.874382,-4.185704,17.131035,0.8786277,4.925911,3.4387975,5.6528945,12.348601,8.508144,8.411322,3.9208798,1.5705725,2.8455067,-0.104182646,2.3934824,12.743235,-0.8117057,-0.55378217,-2.0645792,-1.6188424,6.8739257,2.665662,18.415823,-0.6930725,-0.87834394,6.827198,0.71527064,-0.0017337035,7.439427,7.3669167,3.4237053,15.218815,4.166559,10.076872,18.757996,2.1674058,9.096571,1.184698,-4.217382,6.9334345,2.9059389,0.7399924,2.915913,2.1353574,-1.3980296,3.2946553,3.535541,7.779708,3.2232053,6.0132604,3.6508996,-0.20067096,-1.6633453,1.0756387
scenes_basement_00004249.jpg,11.649413,3.4527462,18.32483,14.038904,-2.338255,4.533263,31.107822,17.016314,40.761707,13.159359,3.372954,13.534964,1.173655,9.537176,0.7773671,7.32338,7.35434,3.3639307,5.762788,7.777373,7.0657783,8.783526,3.5970078,27.2097,3.644881,9.527421,5.3006606,-1.0918578,-1.41895,7.9659686,-1.626728,9.620348,4.756033,2.333059,1.1176715,5.203696,0.22646408,1.9831369,6.894499,1.8791348,1.2693988,6.0853252,4.567049,2.7717443,9.700943,-1.3587481,6.76533,3.7720501,8.017742,5.368111,4.362467,17.321697,1.3180848,13.038179,9.520871,4.48422,3.8995042,-1.0526353,4.776716,-0.98654854,1.4864584,0.6111378,-2.0516067,2.1867197,-4.784469,-2.3062148
scenes_basement_00004744.jpg,7.7443504,48.221336,15.320465,0.9004051,-4.0572786,6.710263,7.659191,1.3174047,32.361897,2.474926,1.3885756,-1.2077938,-3.398367,1.0178577,0.76526266,5.088447,3.1309173,39.582077,4.079106,-1.5834116,-0.59552735,1.8125702,-4.37307,1.526743,2.6107776,-1.7414192,0.23977426,0.6339591,6.1080832,14.862853,0.93037003,9.8675375,-1.962959,0.53345054,0.9079068,2.3518713,0.42710865,0.27493775,0.49651515,1.2275853,0.41931504,1.8298106,-2.010905,4.500894,2.203071,0.0064654276,1.6814016,0.6800177,-1.3942852,2.3637455,12.256341,4.2228765,-0.9777723,1.010941,-3.3304832,4.876505,2.9869761,6.539999,1.4573256,-5.442292,-1.643448,4.2948017,1.1197228,-5.788469,6.228597,-2.1766095
scenes_basketball_court-indoor_00000793.jpg,19.056496,18.972958,7.0959287,-1.356544,3.8613737,7.227437,0.51266986,13.012941,21.955233,10.015039,10.338604,10.546342,6.291862,6.2688055,1.0385388,36.506023,4.583133,0.49674833,-1.3720295,5.402714,-1.8898029,4.4903655,1.8877745,-1.6870674,9.4405365,7.2692895,4.759369,3.7818096,-0.6042914,7.7945375,6.6144543,6.6991806,6.7304425,0.9336545,-1.5245677,7.5575485,1.7602552,8.912524,14.507547,0.09796587,-1.8184844,2.4374573,14.3200245,3.7178717,3.1658232,0.3418693,13.293597,7.2973647,2.0950658,-2.706156,7.3898807,7.2759733,0.9746624,-1.5606925,-2.0757213,0.8738798,1.8967873,3.7377641,0.2916593,-1.9824501,0.72334325,0.842113,-4.9752984,-4.6723895,2.1370163,-1.5049319
scenes_basketball_court-indoor_00001595.jpg,17.388695,13.635318,12.562352,4.890679,-4.606231,9.111836,8.481084,22.471571,20.644169,7.9036264,17.546524,6.1962714,3.2004602,6.3412733,15.554178,36.433784,-1.8116236,1.3466882,1.8281274,3.0917757,0.14541811,5.5339417,-4.1639066,-0.066433474,4.05401,-1.3925765,13.774994,1.8037356,-4.987543,7.5747266,4.0414004,10.687129,2.31744,-1.8491147,-2.572332,8.353426,0.2908166,3.246206,4.215989,-1.629743,-0.3151925,2.2254071,-2.3643208,1.9627554,7.5566044,1.8106859,6.2540216,9.571297,4.8302217,-3.0858734,7.0486345,4.88945,-2.3166208,-1.3962862,-0.81953984,-0.036924705,1.1252985,2.0963073,-0.024221884,-2.9513655,3.1741307,5.102034,2.7474208,-4.0318894,-1.9641631,-5.1539106
scenes_basketball_court-indoor_00002396.jpg,18.512913,9.269712,19.441027,15.914348,0.1279232,0.13022912,7.146684,20.83668,34.53804,5.438656,19.212427,13.103464,-2.339515,1.5723629,6.4369,32.965237,-4.1141086,0.76528275,-0.8247407,6.684342,-1.6710888,4.4075274,-3.617978,11.707731,2.1452084,5.062539,1.6917903,3.9550617,-1.4756618,12.343371,4.697319,8.005691,1.6207833,0.46646464,-0.8835986,7.213094,0.672567,0.18901932,5.5309987,1.9804122,-2.450162,0.40368325,-4.7257257,0.49702153,-1.7158415,-1.2545176,3.311575,13.019636,4.9728956,-6.0945826,9.820261,5.8566523,-2.1753817,-0.9691461,-0.16358486,0.9640555,2.2511377,-0.21612462,-4.2076693,-1.8748231,-2.5942407,7.381614,1.1425835,-0.8898154,0.3274159,-7.3042893
