image,0,1,2,3,4,5,6,7,8,9,10,11,12,13,14,15,16,17,18,19,20,21,22,23,24,25,26,27,28,29,30,31,32,33,34,35,36,37,38,39,40,41,42,43,44,45,46,47,48,49,50,51,52,53,54,55,56,57,58,59,60,61,62,63,64,65
transport_001b428f-059bf013.jpg,22.361254,-2.0459456,6.665241,3.899171,-0.681522,6.748398,3.4367397,63.236343,10.834426,-2.2020278,10.026406,1.9293519,12.724718,5.1444793,5.1747932,5.0625477,-2.0283158,0.68083745,10.47641,3.1256351,5.9736266,6.6421547,1.6964605,1.0762004,6.7402153,0.06896839,5.1457167,0.58656466,-0.910156,1.2468313,3.2943997,1.0696837,3.3440194,3.0954752,3.6044393,1.013069,-0.3351093,2.2217739,12.02438,0.7167583,6.94405,0.9578621,3.1516783,-1.0141429,3.1388052,-0.46912256,9.43504,2.112853,4.2421904,0.50676006,2.0806174,-3.7958126,2.3417852,-3.1338713,1.7004209,9.841709,3.8365543,0.15875795,1.4463034,-0.3262841,-0.06786217,2.1441183,5.541475,1.6099558,-0.659763,3.7950726
transport_001c2a14-c713a72f.jpg,28.764381,1.5136337,1.6161002,1.8511612,3.811267,12.65271,1.1057426,38.993702,1.5011598,2.0541415,8.3242445,-2.383309,17.739983,6.9582214,14.63599,1.402514,2.8074481,-1.8248372,5.4517064,10.707526,4.071106,3.539332,-1.6864425,1.5598006,11.139476,3.3244205,4.584371,1.2068568,0.9253126,1.0364298,5.135869,2.1187496,6.3024163,-2.6943505,5.668993,1.8588368,3.318221,1.7011371,7.6130586,-3.853988,1.0587554,2.3831487,3.4197862,1.7967619,2.9056928,-0.8020537,17.596235,-1.9320068,4.8293343,2.7976654,5.0848603,3.3453956,2.9094377,-3.9060824,0.38005793,8.446077,-1.8873358,0.079319164,2.2182333,5.352528,1.1593535,1.0570291,6.005238,-2.9711142,2.9162998,2.8305748
transport_002a3213-ab7f5b59.jpg,24.01782,1.0739856,8.048158,1.553173,10.192648,10.344779,3.6892493,39.43335,3.286604,9.749299,7.274424,2.750065,27.19795,9.267597,11.811993,7.5766973,7.2088437,-2.6629732,6.4972425,5.2631407,7.1430326,0.64508224,2.003317,6.1620364,8.962221,-0.7731714,3.5130072,3.2025356,1.9964546,1.0959461,6.9504795,3.2634935,7.2772145,1.6393158,2.5743318,7.2692113,2.4358072,0.5110431,6.7286916,4.1571617,1.4949762,4.3768673,5.494404,0.7966469,5.269833,1.3826523,13.956998,2.262854,10.249958,6.0505924,3.6622994,2.233693,2.5242715,1.91036,2.233063,12.78388,-0.88100487,0.8565557,3.5357215,7.6210523,2.0580287,3.2597132,-0.08510025,-0.59405106,1.8936789,4.711265
transport_002d467e-00000000.jpg,30.720615,1.4413065,12.177937,-0.31477493,1.1835264,7.254847,8.338772,55.51536,11.042875,4.3998017,9.169659,2.2178717,14.471655,6.3222237,1.0879173,2.6981974,2.2048268,6.341697,7.8389263,-1.8309116,7.7081757,0.4353261,-5.2692533,2.9023836,6.9650664,1.5103945,6.289233,5.425781,1.4290813,5.298559,9.62131,3.2417257,0.36040413,-2.5249295,2.6131794,5.1996346,-1.7598016,-0.844794,3.9430022,1.1944313,1.9827054,1.0042436,-0.42847636,-0.36385795,0.8762477,4.0752897,10.781013,4.268257,5.944566,0.5044502,6.7855425,3.3480964,0.7815646,2.350977,3.3525639,7.452912,1.410325,-1.3894367,3.5128996,-3.026713,-1.0430921,0.5467138,1.4104922,-0.22057426,4.237719,-2.2602901
transport_003571f2-f2840028.jpg,22.10556,-1.2089558,0.97846574,0.3544829,-1.1647826,9.106201,-1.4416687,53.120136,8.00962,3.9366019,11.476785,2.1275218,12.527868,7.372979,10.094758,1.3481628,-0.13861926,-0.20974739,3.8078327,8.415452,7.537565,3.8890705,0.17573163,3.9687984,4.3454533,-5.0553527,4.981377,-0.76664644,-2.2617166,1.2447178,2.0601068,-0.39747065,3.6463537,4.1785097,0.9286213,-0.05862955,-3.1179364,1.4799483,-0.9788288,-3.0198197,-0.16650674,2.3954775,3.8046346,-2.226491,5.4297156,-3.3315015,4.271122,2.1095898,4.410784,0.6162566,6.023084,-0.68307215,-0.33057284,-1.411313,-2.839331,6.7333446,2.3732483,-2.9698017,3.7252183,-0.14477102,-3.7610273,5.592374,0.24229698,-1.2851287,-2.6493697,1.0861244
transport_004af474-00000000.jpg,26.166233,4.967824,2.9869125,3.9461658,5.35626,13.0718975,1.1284235,48.867924,13.481151,-0.7274772,5.2207985,0.25261185,21.977194,1.856526,7.6205745,0.89178,1.4113824,2.8621802,4.8394384,4.46764,7.875758,2.0218189,-2.021244,0.3365856,10.79403,-3.6116867,4.29324,3.9031818,0.26911888,5.2585454,8.640175,-0.21594754,3.8186457,1.0578647,1.6317964,4.7298117,0.20212945,0.7299776,7.4558573,-3.7140324,1.2702277,3.350734,3.4859934,2.1373231,3.9809115,-1.7202457,10.392936,6.355737,2.8171868,3.454477,6.2719383,2.4654102,2.6626072,-4.6906652,-3.1480722,9.459733,1.8827239,-2.913108,1.5809126,1.8368111,-0.03807582,2.7936301,1.1660577,-0.1974113,2.1864405,2.7174616
transport_00a7ef03-00000000.jpg,31.188908,0.7900197,2.9147816,-4.1772356,-2.1648114,8.494342,-2.8606844,44.471245,4.813153,3.2985854,8.424297,-5.2534637,17.021883,5.5368,11.145505,0.3782372,4.33703,4.444234,7.479739,2.3994782,20.716328,4.5674787,-2.712804,0.9154348,7.2920957,-3.1752653,4.136732,1.4409468,-1.9900823,-1.1464767,2.778768,-2.377245,1.322435,1.0176371,9.200473,-0.81817824,-1.0902487,-1.165386,-0.36094403,-2.6364439,2.3899374,5.122014,2.6189911,3.9731476,2.714341,-3.547804,6.507293,-1.8144507,1.1972662,-1.4887875,3.4463425,2.588259,-0.06930046,-6.4089246,-2.275153,9.064831,-2.331094,-3.565652,1.288302,3.7214432,-3.3695915,0.0015077181,0.076959,-5.7299876,-0.8142715,0.65992075
transport_00bc0319-94af8380.jpg,29.560364,2.5201154,2.3494182,1.0862868,2.1047604,11.567244,4.54636,47.06588,10.856926,1.9965258,14.018095,0.060963117,16.948341,3.9855447,11.539917,7.644416,3.5733886,4.8441114,6.6281357,3.240853,4.2752347,-0.62288415,0.7716533,1.8512335,5.6058154,-1.9761969,5.1352124,0.949705,-1.7193761,0.40936124,1.5867969,-0.6668212,4.8139334,2.1956809,0.78493786,4.221603,1.3493259,0.048702814,3.3996832,-8.276064,7.3330164,2.1699002,0.7065845,-2.1798759,4.615224,-0.86836016,9.691791,5.1949472,7.3794365,0.9016057,4.756366,3.6076043,1.1502212,-0.77537495,-2.708422,14.963031,1.25679,-2.6342134,0.9010631,1.0110223,0.59295595,2.640989,5.574561,-3.2479246,-0.30599743,3.7914715
transport_00e69ee0-9656e1b9.jpg,29.374834,4.989534,8.835846,-4.7764006,1.9296348,12.999125,1.8952456,54.023266,10.207004,3.9586775,11.208123,-2.236448,18.238562,7.623303,9.848804,4.6379848,4.4735665,6.9523053,8.635319,3.784005,6.7139454,-1.5967349,-0.3765361,-0.9094861,9.590178,-3.3257194,7.3341446,-2.1470883,-2.8806176,5.1479034,5.312808,1.6623652,8.677587,0.28419554,1.8448522,4.5234866,-0.23967801,1.8287916,4.756518,-2.0571074,5.4073267,0.7510991,2.7975955,2.5837379,1.9601226,-1.6209092,10.394946,5.0410085,1.3708363,-1.8322785,3.9997268,1.5584882,0.0089553185,-4.069319,-2.122136,11.444628,-0.83890355,-3.8557978,0.5408241,1.6143063,-2.3881645,3.4335108,6.136132,-1.2528491,-0.008624792,5.0459375
transport_00e9be89-00000100.jpg,22.682266,2.723536,13.552153,-9.668669,22.184055,8.561165,2.4860063,33.14141,3.4953768,13.854584,9.9980955,-2.4238815,36.88877,8.658515,4.5237284,3.057323,1.3505539,4.355296,1.1694753,1.6547885,7.3384733,-1.4588386,-3.1904192,1.9215574,10.589547,-4.0050583,2.161198,3.7725773,-0.51162595,1.5025735,3.357197,-0.35490608,-0.278053,0.26869577,1.3126178,4.97416,2.642921,-0.19372499,5.918859,-3.6093223,5.551454,0.34898967,5.1740775,-1.3073809,2.4050622,6.8102627,9.145738,3.0018682,6.5763035,2.5402617,0.008894224,3.1402013,-2.43135,-1.3189203,0.20524952,12.740162,-2.7624853,-1.9180775,0.032595452,3.0043795,-0.27353176,0.48719448,2.066887,-4.18598,0.64638436,2.113188
transport_00e9be89-00000110.jpg,27.552101,2.6521568,13.921081,-6.7673573,11.032858,7.507025,0.54261035,46.191566,4.291518,9.080923,16.598814,-2.1354918,24.511274,10.01689,5.5500746,2.1498482,3.4744143,4.054079,1.4776037,0.15397383,2.1708977,1.3841954,-2.4572747,2.99642,7.313741,-3.6641746,4.970604,4.635255,-0.49115345,1.6417842,6.097861,1.1009793,1.6648517,-2.1336346,0.3409829,4.25487,2.4753857,0.19271809,5.8458385,-4.023284,5.5163846,0.6506754,5.0737386,-3.1328619,3.9449553,6.194937,6.9091454,4.1147413,5.3352304,2.2632873,0.97252727,0.6640758,-1.46032,-0.59509194,1.0147904,12.573235,-1.0201766,-2.0871992,1.9835813,1.0357537,0.6231694,-0.11273366,2.3198864,-3.7425034,2.5837924,2.6254601
transport_00e9be89-00000125.jpg,24.32063,-1.3580244,9.761412,-6.5095835,10.944626,4.228664,1.6807086,48.224743,6.7540674,8.433312,12.913658,-0.24879886,24.271927,6.4059453,4.724776,0.8874799,0.48027635,3.1451643,1.478409,0.21612822,8.148999,2.4671268,-1.8821342,3.2463253,7.133212,0.2928843,4.6704335,1.3899769,0.32128915,1.2764436,3.4431543,1.0249976,1.878834,0.033574693,2.5860872,0.85717607,-0.42964405,-0.86728054,6.8635664,-4.554791,5.9658246,1.9891132,5.022307,-2.0391135,3.8280957,6.088609,7.526745,1.9422737,4.610819,2.7328427,1.917434,0.9953242,-0.9560876,-2.011212,-2.1287189,11.336041,-1.3524582,-1.6419842,0.845951,0.12182589,-1.1494341,0.8751374,2.5187397,-1.9762204,1.6623431,1.9811876
transport_00e9be89-00001095.jpg,16.679867,1.6702229,4.680644,4.9203544,4.9651365,6.5926223,1.2229578,51.950443,11.529192,-3.317751,11.636262,2.715469,19.045942,4.6547394,9.17678,2.7960792,1.0839629,-0.6703517,10.004194,2.2546363,9.30237,7.9921975,-0.45348048,0.61104995,8.7552805,1.3310993,3.59938,-3.242806,0.054330565,2.7117703,8.771639,1.6066753,5.527371,3.6748931,3.4932175,2.754141,6.448489,-2.222463,20.125263,-0.32586354,6.4195604,0.050234422,2.788155,-1.951306,0.72155774,0.91302323,12.022111,1.3582001,4.483939,2.515925,3.7315574,0.59315234,5.307166,-1.819409,1.7523106,10.922692,4.2661986,2.1172357,0.69402313,1.761618,-0.5654785,0.68904346,5.3230515,1.936596,-0.078834504,4.501625
transport_00e9be89-00001125.jpg,22.07476,-2.4977024,-0.11530686,7.5459495,-0.8130217,8.657426,6.0718946,60.780685,13.064465,-1.6066455,11.139225,1.0820422,13.678863,3.1332486,5.9718943,1.8587519,0.839955,0.57350856,12.170228,1.2297052,5.1422424,6.6420307,0.9078597,2.2650874,7.1308002,3.8727984,5.1947412,-0.84165025,1.2831386,2.433649,5.0838003,2.2743683,4.572379,4.162017,3.075908,1.6241148,3.4056299,0.33799183,13.259977,-2.961718,4.8674383,2.8493457,2.01166,-1.8209223,2.0119672,0.74945706,10.187952,4.574672,4.7545433,5.2335653,5.1175227,1.246992,4.6222157,-1.901212,1.6070113,9.08311,3.2772183,2.2830899,1.2635446,0.96248436,0.022454513,1.3289636,4.891207,-0.2785529,-1.2915473,2.6300495
transport_00e9be89-00001150.jpg,23.529827,2.7803574,9.064251,4.5939813,0.9371425,3.7046976,8.347955,60.67421,9.606478,-1.4697375,10.298042,0.9558376,14.22267,4.1262712,6.0150213,2.7329123,1.3464508,2.7299035,10.817939,0.78497565,5.256405,8.296843,3.1783175,1.8616563,8.124986,2.2892818,6.388007,-0.42216015,1.7270409,0.5326313,3.0944624,3.7998278,0.40568402,1.569091,1.834416,3.6648583,0.47730756,-0.78143615,15.481022,-1.9640175,5.2973795,1.8027511,1.857903,-2.2564714,4.188751,3.2589066,7.780569,1.5786973,2.8917208,1.6670791,2.953345,-0.8321155,4.113739,-3.5206478,2.4062448,9.509529,1.4902793,0.81618714,1.7935487,0.5119454,-2.3287854,2.0549664,4.979231,0.7542835,-0.46890378,3.9537861
transport_00e9be89-00001155.jpg,19.8737,2.3411956,8.437824,6.290873,-0.21714196,3.5981953,4.3067203,59.255493,10.302164,-1.9121746,8.324319,1.7393231,13.955881,5.576994,6.6305823,2.5885243,0.0053906813,4.296255,12.167635,0.6467852,6.756531,8.564446,-0.050894357,3.0660923,7.1733923,3.0029278,5.930412,-0.6922343,1.4336375,1.5774895,4.151028,3.4858134,0.035597242,2.266041,1.5087849,4.4203854,3.4800909,-0.30855265,14.561696,-2.643954,6.0384097,1.6694125,1.2706206,-0.46042302,3.7630944,4.565675,5.5732183,1.5625026,2.167571,2.1873088,4.522151,-0.041351374,3.9063208,-3.9396603,1.4454942,10.635991,4.001318,0.14495859,2.800551,-0.12771618,-1.410316,3.4772284,3.5930128,1.5968893,-0.4547487,3.2872205
transport_00e9be89-00001250.jpg,18.49319,1.3368877,10.640567,4.3947434,-1.3473411,6.381914,4.9900336,55.483078,14.939404,-0.06099874,11.2233,-0.8880001,15.62379,4.819159,10.1819315,4.355742,0.7334549,5.4230685,13.075939,2.6136703,5.7820244,6.7543426,-4.7220097,2.4704564,9.402816,3.5317154,1.1961004,0.048024766,-0.46220237,5.192435,2.8251522,1.8817457,5.0617685,2.295292,4.0957212,0.96427,3.2116835,5.131388,20.983677,-0.94095695,7.199385,3.662875,1.5388492,0.42093396,4.8601556,4.3836164,11.443909,3.5113049,6.2046757,3.1972177,7.1467714,3.3695385,4.379604,-3.464654,1.7823044,11.094272,5.398582,0.6971036,2.2762003,1.6148275,0.85924083,4.955705,5.728878,0.44084522,0.23934245,1.5981067
transport_00e9be89-00001315.jpg,35.39278,2.4993,0.44197607,-1.3841888,-6.0718346,12.65103,11.001067,52.678413,8.72152,-1.8266268,20.023575,1.7373227,6.9981136,13.582355,9.238319,7.97375,3.393766,0.10512192,5.7689586,8.07633,5.7824817,5.286084,1.3000274,1.7751036,9.3206215,2.443718,5.5282617,-2.1156025,1.357706,2.2787886,8.120593,5.1988087,6.961828,2.422367,0.07042666,6.386472,-1.0121348,-1.1008703,9.692862,-0.21856073,3.2700262,-0.15569645,-0.37709084,6.219801,2.2409687,5.1631355,17.543577,3.7924361,7.2390714,2.6868021,6.0667753,9.697962,3.0909681,-2.138855,-0.14386638,12.5394745,0.6760845,-2.7484674,0.6473411,3.608624,2.099232,3.1671412,4.843374,-3.8174949,-1.3526636,-1.8690264
transport_00e9be89-00001340.jpg,27.11404,-0.39306515,6.528915,-0.27129167,-2.421261,15.658958,7.2337813,48.39535,9.661676,-0.5752198,20.863634,-1.3006425,11.498457,5.6164675,13.257435,2.340929,-3.958502,2.8336382,5.882416,3.5603304,2.2254658,1.4102745,-4.725799,0.7934913,7.1914544,4.1968756,0.5702933,-2.2049017,-2.3970609,0.72391874,-2.7565475,-0.75713336,6.078772,-0.7756016,1.5019065,1.5273168,3.5789423,5.5134616,18.296106,-1.8433161,3.2158108,0.016873516,-2.2760525,1.6078866,0.7510463,5.2438827,17.86701,1.4695704,6.8628035,2.155555,6.539235,10.9023285,1.0809641,-3.500992,0.035177357,7.4079685,1.8050085,-0.34091625,0.80716527,1.1788021,2.1812954,2.9903724,7.990174,1.9228805,-1.3880825,-3.9836135
transport_00e9be89-00001355.jpg,13.375965,8.4933405,7.0952306,-0.042649474,-3.3006034,14.068864,6.863276,39.738194,10.903144,-1.076587,14.728701,0.5480796,12.793173,7.3463974,12.896782,7.9165845,-0.24281545,6.5437393,6.9284225,3.172958,2.5233989,0.20027095,-5.599423,0.55553085,2.7614112,4.45081,1.3370368,0.43933418,-0.9217636,5.7002034,1.1946944,1.3532926,5.1155114,-5.395602,-0.85838735,3.4225664,-0.06584115,4.0659947,24.428354,-3.720295,4.4673996,0.51156694,-3.7588224,0.58021444,1.2054253,7.3697076,15.30234,3.2045455,6.744981,5.0182557,5.548767,7.995085,-1.1713711,-3.8690314,1.9034601,9.94874,2.975825,-2.79885,0.32716012,0.8543746,3.4992356,2.4896176,4.5270853,-1.7723352,-1.5332013,-4.271065
transport_00e9be89-00001360.jpg,7.1957097,4.4630723,6.8697853,4.4120917,0.65374166,11.379049,5.450519,40.858715,11.409917,-1.5013382,9.784947,2.3789477,14.208996,7.437256,9.193708,9.658007,-6.2026763,8.909353,7.5789785,7.208195,5.6583605,3.9143517,-5.559366,4.0618567,-0.78629273,3.90936,1.9744493,-0.3693434,1.3890984,4.063909,1.7233686,-3.7516415,3.979044,-3.5136347,0.025976915,2.99988,-3.3003027,4.534228,28.10738,-1.2654285,5.2146754,2.0772645,-0.5925531,3.647935,1.2887625,8.193852,9.816565,4.4940543,6.133458,5.7809734,4.2185583,8.635939,-1.949624,-4.8124757,1.9501692,7.4046006,4.8503237,-1.8106945,-0.18719323,0.80891746,2.0676785,1.6988108,3.7021923,-0.51717365,1.3058698,-3.735013
transport_00e9be89-00001395.jpg,21.265509,4.2774634,3.0335076,3.2738562,-4.039406,10.3107395,7.457415,51.341717,14.315115,-0.49672267,10.23176,4.7513666,9.993545,6.9907837,10.516887,4.3185086,2.6992598,4.230886,9.328803,5.1709805,4.6135983,4.349123,-1.8968403,2.998252,6.32227,0.31491286,1.4995437,0.454937,-1.6424574,3.6042657,2.7160027,1.399232,4.968581,-0.98476493,1.4035475,2.7564201,0.4922329,2.853113,14.538227,1.9000394,3.0658505,1.4624132,0.2137078,0.4115655,2.7788532,0.81933635,13.725461,3.1470246,6.730294,3.4471056,3.3994794,5.093593,1.056486,-1.6598765,0.6791352,8.246755,1.4675977,-2.8275604,1.5881724,-2.2590585,2.3846614,2.7414548,4.1888185,-2.3915417,-3.9042647,-2.4161108
transport_00e9be89-00001405.jpg,18.567007,0.50590086,6.015712,2.1618686,-4.9229307,9.389046,6.552842,55.423565,12.204689,-1.7100524,9.453502,4.917796,7.8449564,3.3988078,13.245581,3.5214472,-0.76728797,4.499409,5.472496,5.858042,3.0352793,4.8414197,-1.4170123,2.871797,4.242266,1.2049518,2.1107168,-1.9221408,-2.6315608,1.8206046,1.6967539,0.036913343,2.1755297,-3.364051,-0.49900365,0.81960505,-2.8973823,2.5900795,15.964434,-0.4653943,1.5441164,0.36000097,-1.4035257,1.6877443,2.715028,2.64682,11.8404875,1.6546873,7.0480123,5.7602572,3.3895743,5.645049,-0.36394837,-2.0243275,0.61394185,5.5772567,2.2576132,-3.8939729,0.40921998,-2.250909,1.3482445,1.1884469,3.1402905,-0.9446956,-4.250079,-2.781057
transport_00e9be89-00001490.jpg,20.691763,-2.1224325,9.048864,4.2622933,-6.0928793,8.723244,5.987289,49.559826,13.666952,-0.7880348,12.853852,1.1271628,11.350497,3.076923,9.574912,0.74663955,3.1143243,4.817948,4.959346,0.24803719,5.0647564,3.0674963,-2.3279157,3.095192,7.0811644,5.407837,3.7680376,0.28894246,-1.5391821,2.9086235,4.8291664,2.0286283,6.0528045,-3.10836,1.4707346,2.7558372,-1.1136069,0.2987443,20.170048,-2.257326,2.4022963,-0.15454516,-1.6411502,1.5722562,3.2173834,7.9285717,14.020367,1.6526868,6.6116915,5.622602,3.7300315,5.3532705,1.9579226,-4.211489,2.3920584,7.3651114,2.5206406,-3.4644856,1.7834965,-0.46133745,0.77750397,2.3964746,3.6458519,-2.8453512,1.2770381,-1.2832476
transport_00e9be89-00001505.jpg,18.248295,-2.557262,6.0082855,2.2348945,-4.860938,10.242465,8.762375,48.636063,10.419173,-1.4760975,13.8746605,2.07419,12.475221,3.6832101,10.403607,-2.3007896,-1.3886933,3.2536108,3.2563217,3.0992975,5.423545,3.6034214,-0.6899466,2.2754786,7.5516267,5.2088356,3.5558186,-1.5032552,-3.525054,0.6427043,3.2268689,2.0805209,5.2819276,-1.8496135,0.12685639,1.8377393,-0.41927603,0.5713001,18.243803,-2.9792333,2.1293762,-0.8300727,-1.851354,0.05776547,2.1212037,6.4444394,15.255154,0.2789529,6.80982,4.781393,1.4149374,6.7461834,1.3390001,-3.8011138,0.80584884,6.526012,1.083886,-3.5584555,0.26314074,0.966221,1.601279,2.804253,2.6818469,-2.3353572,-0.3464226,-0.61503214
transport_00e9be89-00001510.jpg,21.211184,3.9893966,6.458101,0.4396087,-4.416979,12.641244,9.651178,42.617363,6.953761,-1.7802491,14.285877,0.51243323,11.685865,5.2305064,9.104231,-1.000442,0.8567333,7.66558,5.4061813,5.5840144,5.728542,4.353927,-1.4491637,2.4194956,3.29356,3.2570164,3.8833778,1.4231596,0.6263865,-0.023856526,6.4486237,-0.16802838,3.1260624,-6.8294063,-0.89260954,4.578367,-2.1787207,2.1812458,23.539486,-2.3644617,3.8677275,-0.31091553,-3.4450896,1.9758579,2.2283077,6.0179663,13.780162,1.9382019,5.0698543,3.8845673,3.1122453,8.180514,-1.3020133,-4.2869215,0.86307156,5.400482,2.3235962,-2.5031667,0.8618959,-0.91615635,2.919785,2.4921575,2.6090348,-1.6260558,1.9206922,-1.5541314
transport_00e9be89-00001525.jpg,21.259687,3.4176137,7.5712333,-0.0012845179,-1.4991791,13.526569,7.810832,40.76337,14.17156,1.6141548,14.782328,1.6355203,14.902607,5.544527,9.522623,2.169538,1.4122608,8.144969,4.986527,5.8413973,0.89291763,5.6171045,-3.411914,3.2218547,5.2418327,2.1242678,2.746892,1.6338524,0.12997687,5.1098003,6.478755,1.1035419,3.7231748,-7.1947618,1.745269,3.995163,-0.8721415,5.1578937,23.508947,-4.3577733,3.4496925,0.8298917,-0.6050406,3.0059566,2.2346826,3.890998,12.44438,2.060283,6.0303597,3.109855,4.291294,9.663862,-1.5348961,-5.0479,-3.2182243,7.5620837,3.1538038,-3.4633174,1.4139901,-1.0143903,2.3762963,4.1215754,1.7294006,-1.7564025,0.5168841,-3.4049332
transport_00e9be89-00001545.jpg,15.278971,4.9335804,11.443725,2.8460338,-1.0120972,9.06725,9.579859,43.531586,17.472538,2.090344,12.195006,1.8486204,7.885988,6.6503444,12.513414,0.3189648,-0.40463024,5.057216,3.2268238,7.580083,1.4380856,2.3019524,1.2907,3.1452608,7.252958,6.263563,4.115089,-3.1100345,-0.6145503,6.4462366,3.30007,-0.92302614,7.0935874,-3.246478,0.20588511,3.887942,-0.068555586,4.021819,21.653246,0.11034235,-0.9033079,1.6452564,0.44305232,2.6771097,5.131758,3.6501076,14.910328,5.739481,4.795443,4.6472716,6.6688395,9.437232,0.24753325,-6.0298476,-2.9959807,9.438601,1.715015,-4.2822204,1.9749396,0.42084578,1.3647643,1.051032,4.99191,-1.4033188,-0.1608519,-1.821814
transport_00e9be89-00001620.jpg,24.208797,-1.0345839,2.0532017,-0.05856953,-0.32210413,11.779415,2.8669455,45.181713,8.541334,0.91735685,12.843992,3.8942409,17.542856,8.6870985,9.058433,6.282077,2.2200823,4.682629,4.767689,5.8489223,2.9268496,2.31935,-0.853475,3.129806,7.9492025,1.3387427,1.2147526,-3.5690606,-2.4088683,1.5846484,8.569856,1.3338523,5.959327,-2.240758,0.040155835,4.561629,2.2193446,3.4074419,18.690882,-4.6693993,1.9381112,0.5502159,-0.89185035,1.9278053,-1.1305853,2.5502694,19.658339,4.8083954,5.000413,4.961662,2.8283331,8.998297,-0.519598,-2.250398,-3.608744,7.4714518,1.0203716,-3.87579,0.36833963,-2.2961717,2.3805423,0.52934086,4.811539,-2.8983567,-0.8208271,-1.678289
transport_00e9be89-00001625.jpg,20.54361,3.7892313,-1.4279107,4.029313,2.1579926,21.044561,8.523048,37.31203,7.21688,-0.8257657,15.3302965,3.4790165,16.361153,4.016911,13.4634285,3.7807238,1.4183404,4.6633644,5.2279058,7.0984917,2.9489834,3.7656434,-5.1523027,3.1630337,8.399714,0.6536798,1.1227081,-2.4743998,0.29413792,1.7899536,4.4372363,0.076382324,7.5046926,-2.0579143,-1.747582,2.6564984,-0.9648848,5.893287,24.124975,-2.8622253,4.31997,2.7914722,0.86850786,1.5654778,0.92830586,4.827563,16.190126,1.4073974,8.725975,5.7136636,4.0476904,12.608176,1.4783441,-2.0011423,1.3910761,7.473706,4.554305,-3.182323,2.4801044,0.5420478,4.707977,2.2685366,4.067834,-0.85079473,-0.6976522,-2.169354
transport_00e9be89-00001670.jpg,21.04754,-0.7442001,6.4248247,-2.397188,0.72562015,11.823288,8.076754,56.025932,11.274204,2.2037277,10.655163,0.6666859,18.414103,7.7433457,9.378466,6.9637246,-1.9531872,4.1389747,8.878039,3.5463545,4.6012497,2.493884,-2.4712627,1.0266844,7.288557,3.903607,0.9224302,-0.5706729,-2.8834488,0.43046373,1.7488937,0.45776254,5.92783,3.076141,2.028687,1.115149,3.899849,4.4658737,13.568826,-3.5403624,2.4785056,-1.1320716,1.1490942,-0.7135008,0.38410944,1.8675135,20.712894,3.2385185,5.670655,-0.15590283,4.8463583,4.405181,1.1412048,-2.5287583,-0.53512424,7.988571,0.11872016,-1.451653,0.1779884,0.27529806,0.66595626,0.6782495,5.4088373,-1.7670469,-1.8156935,-1.4184021
transport_00e9be89-00001685.jpg,26.81438,-0.5279938,3.4129784,-0.9305855,3.7569318,9.150737,11.269084,46.192284,9.734778,2.617341,14.037675,3.219656,21.11726,2.02923,16.01149,11.61412,2.915966,2.751823,8.19744,2.3951166,1.192576,-1.3560914,-0.8915519,2.7596467,10.121237,2.6455019,3.8816504,-1.7576983,-4.46287,-0.61726135,5.719734,2.6658244,2.0765257,-0.26369932,-0.8393567,2.7494698,2.643773,0.1341802,10.539526,-2.8410833,2.693576,-0.5784263,2.0529733,1.0346073,3.610012,3.6612651,13.351051,5.0791698,6.3229823,-1.214462,3.0332477,7.5172663,2.8391387,1.042708,1.182479,7.548768,1.6728122,4.977359,0.5795492,-3.787328,2.0222847,3.026645,6.5038934,-1.534807,-2.3654897,-1.1039007
transport_00e9be89-00001695.jpg,25.553474,-3.4779735,7.9292603,-0.34906784,0.029850494,9.307911,5.3466716,58.128887,10.139566,0.12982777,9.653341,-1.4201118,18.919392,2.9722254,5.0709333,4.773908,-0.33939704,3.226559,11.422333,0.5008533,6.8585024,3.2067444,-0.99634546,0.5542058,8.762157,1.2257451,2.9244964,0.23394576,-2.2375655,0.6495558,2.4724598,-0.6598078,2.3000278,1.941357,4.8550367,2.6788673,6.329354,1.4929602,9.086337,-0.63817966,4.424974,-0.257178,1.118889,-0.22583744,1.5948508,0.67309105,16.731363,2.3444996,5.4396577,-1.9027385,1.094629,2.444123,1.717375,-3.6683724,-1.1083069,6.3249626,-0.03863182,0.66730607,-0.45353776,-1.3323293,0.96049345,1.2132576,3.7455666,-2.4770017,-1.631042,0.7603829
transport_00e9be89-00001720.jpg,19.820316,0.73346776,6.764011,2.5108953,-2.1266901,9.299768,1.6979393,52.67061,15.686673,-0.3668839,7.102911,-0.1451558,14.725997,2.1102402,8.420139,5.931695,-0.27167463,1.859729,11.053829,0.7248532,7.14319,5.106772,-0.7332592,1.5502565,7.8880367,1.57792,3.3134282,-1.9510766,-3.785767,2.9437897,5.4921427,-2.371679,3.2001166,1.5684677,1.59568,3.0992446,4.3661156,0.3776687,9.7936735,-0.56946015,5.5304804,2.6834307,1.3982193,-0.16529131,5.148176,2.7507465,14.898575,2.1719403,5.3030906,-0.9760953,3.4743202,2.5890472,2.8140726,-4.115434,1.7256194,4.7004037,0.8581145,-0.85004616,2.8629694,-1.5670829,0.6343183,1.0877602,4.108227,-2.0715659,-2.3376675,-0.711652
transport_00e9be89-00001875.jpg,24.585756,-6.444404,4.731412,2.1773002,-3.2727673,10.755269,2.2047892,51.658768,5.0556083,-4.362037,5.7669826,2.870081,11.817194,0.99982274,13.062373,9.231972,0.64349437,-1.9654039,8.070451,5.5471873,5.9869604,4.958811,-5.543879,3.8510294,8.371507,-0.99016577,1.5619502,-4.050448,-2.3247316,1.0711836,0.30495468,-1.9226598,0.12749843,-1.3356884,-1.0320884,1.2826033,-0.58446753,-0.13644104,8.636609,1.940851,-2.0863392,-0.43167993,1.3033956,-0.72091675,0.9975491,-0.32195294,8.890134,-0.13612309,7.638183,3.150036,1.2607121,4.5220394,0.7100726,-1.086931,-2.6301832,4.635787,3.8407466,-1.7116894,0.94853806,-0.05818554,-3.656988,1.7432879,0.044806138,-0.37432197,-4.306744,-3.2840223
transport_00e9be89-00001915.jpg,24.616964,-0.77779096,6.4192905,0.28188226,-2.6888297,12.137561,4.95549,42.52243,7.489374,-3.7265658,16.556688,3.7056696,13.526739,3.4582644,12.976811,-0.034582615,-0.8132186,3.765567,5.338363,4.438397,5.8730264,5.9888105,-4.792019,3.541236,5.957817,4.0102634,2.073915,-1.1460137,-1.627073,2.1760292,3.587513,5.9022145,6.6719584,-3.2653,6.936909,0.95656794,1.3758701,-1.4741708,13.599626,2.010201,2.5840948,1.05842,0.84134114,0.85829186,4.792105,7.6846213,10.898135,1.6371984,7.737904,4.037691,3.0417848,8.728743,0.7108583,-1.3643109,0.5432986,10.090219,4.996603,0.5205539,2.468502,0.43944147,2.6680524,3.148055,4.476085,0.9834101,1.9172688,-2.1551986
transport_016e76c0-7dc8ca3a.jpg,22.664906,3.8753297,7.049335,3.2667234,8.257778,8.59118,-1.1484133,46.20396,12.157854,5.804898,8.439846,-4.0999823,23.262842,1.0024852,4.68665,8.035492,1.9081004,5.90754,12.226986,1.1900889,11.024252,4.3073206,3.7005992,2.3088245,7.3820457,3.7310355,4.6182537,-1.5873971,-1.1326287,0.6818663,6.7606726,2.6292996,-0.36324173,4.4078937,3.3945336,6.4561753,3.0660205,1.5575614,11.468659,0.16990742,10.929295,1.0723028,3.9360485,-0.00022663735,3.3081114,6.7859664,8.869288,4.719696,4.570745,-1.8091261,0.08279081,2.8085625,4.231418,0.20730221,2.7148638,8.694367,0.2363747,3.668223,2.8778627,-1.7199585,1.2864003,6.6122756,2.360452,-1.4751433,-1.2500961,5.605359
transport_019e7509-00000000.jpg,26.848932,-2.1956894,3.0275304,1.9808441,-1.7816212,6.7783175,1.0490501,51.75741,10.572646,0.11059536,20.487791,0.2899548,9.335826,7.9135246,8.255023,5.5874662,0.97694004,-0.18224777,5.988428,3.930613,3.9759488,2.4651384,2.9173698,1.960543,4.7800007,0.41318488,7.439452,2.2628038,-0.49992496,-1.159583,0.08341549,-2.2351437,1.8824124,2.2891247,-0.5373706,2.737953,-0.59391737,-1.3470137,2.168648,-2.329086,7.0448084,-0.21377979,3.7862294,0.33017612,1.4790611,-3.1904378,7.5329223,4.266551,7.796689,6.077484,7.337116,1.2168447,-1.1133945,-1.184144,-2.5215561,14.765516,-1.598841,-1.4399042,0.23898064,5.9493966,-1.9766678,4.0418634,3.8820274,-6.4303594,-0.58979934,2.9632175
transport_01b08b19-a9fc1423.jpg,29.70556,3.0328941,2.8222191,5.728772,5.3426104,9.580992,0.98099995,51.939487,8.974226,1.2512832,16.213152,-1.1178559,19.441874,6.404919,8.509116,3.9709792,-1.0588696,0.55048114,9.507684,1.6122639,6.5586596,2.0062218,0.8061109,0.7394267,5.7922926,1.1191286,7.421324,0.06810968,1.4226673,0.7036702,1.7218106,0.9101541,4.501586,3.1418204,5.03904,3.5427992,1.6686844,-1.7454567,2.1327772,-1.3598539,0.02950849,0.6727485,-1.1515641,-0.4336908,0.04306473,-0.48760417,6.8293223,5.294718,5.1906404,-1.4263709,4.4231653,0.018362934,1.655575,1.0617416,-4.0334105,7.7308283,-0.7325959,-1.7152442,-2.085181,2.1886322,-2.6657407,1.6073544,1.726542,-1.967326,1.4253113,1.9820338
transport_01fe2056-010a3ce8.jpg,33.653706,2.144546,2.2406445,-7.3507366,1.8000686,6.76889,2.4286938,51.36677,6.975635,6.7475824,15.158768,-2.3318732,18.591246,5.0735755,6.3174977,0.19853674,1.6840048,2.4631903,7.547773,4.8591213,10.875874,1.930882,2.5989618,3.1175058,8.549508,-2.207977,7.3701806,2.04889,-1.3844788,1.5839404,3.4370222,-2.2534604,1.3920666,1.4655186,7.367416,2.3332164,2.450281,-1.0894109,5.8580847,-6.0026226,4.6048446,4.0774064,4.7619405,-1.782617,5.0316257,1.0862765,8.975061,2.8492775,2.1652074,-0.22742814,7.243762,1.8639697,2.094464,-5.5740995,-1.7062321,13.901938,-2.0722497,-1.4201822,4.2708015,2.9738882,-1.4035833,2.216137,2.783404,-4.3189325,1.0538598,3.4707143
transport_021c2fd2-00000000.jpg,32.866974,2.9482577,7.721951,5.6670437,-0.013248157,7.979472,4.925819,58.767586,12.912538,2.661021,17.220182,-0.68121,11.375787,4.912121,7.4927115,0.6320341,5.0574436,2.7875972,4.889767,3.190422,-0.8757098,2.4398825,0.3535418,1.7600576,7.5296454,-3.7645333,5.793935,2.5249891,4.001586,5.0265713,6.1710176,1.2706618,6.6719875,0.68208563,1.1633337,4.024386,5.8622403,-0.39151666,4.196576,-2.621545,2.1113894,2.2644055,1.1833947,0.35212895,5.6548157,2.7884142,9.001165,1.7994248,4.8513427,2.1903067,6.3318186,1.8060511,3.4679399,-2.7052908,1.5303286,11.312803,1.4414223,-2.793299,2.6283622,-0.7807226,0.3141663,4.473648,5.7001405,0.39610335,3.2475247,2.1541622
transport_023d0f3c-564e6d31.jpg,22.995272,-1.7154526,4.964875,-1.2213588,4.808261,6.428605,-1.5633607,51.208187,8.309672,0.735213,11.554527,1.3668486,22.807035,9.89224,8.976652,5.5801177,-2.274532,3.2094777,9.965885,4.4995294,10.351774,6.103051,-2.3521717,3.798172,4.96719,-4.1676016,6.096607,-0.8736737,1.7634871,1.2571582,0.1370456,-1.0291065,-0.24695438,6.7151213,4.657832,1.3215233,-1.7060353,2.8473682,2.624184,-6.3897333,-0.5604236,1.3502685,4.716605,2.023321,2.6777859,-2.9854684,3.3111062,3.5723045,2.388186,-1.8377676,3.6351106,0.6339008,0.8452583,0.27993974,-0.5373728,4.9999723,1.9005305,-0.8592328,1.0276054,0.930904,-3.044688,12.65276,0.42728186,-0.7755485,-1.1406037,0.267459
transport_0252f2b5-741ac12c.jpg,31.024778,-0.77455163,-5.428849,1.81473,3.1983924,18.672472,9.008249,47.211845,4.059379,4.8944716,18.240177,2.5523596,22.936916,1.7493807,-1.3691062,2.3741837,-7.2437735,6.1167245,5.7620873,5.2182803,3.2619498,-4.6775713,-0.9146396,6.5377474,8.000955,-2.9255278,1.8643167,1.2850788,-1.3562229,1.0437086,1.3938334,-0.007243827,7.429564,2.5795217,2.2989345,2.7317305,4.0500045,2.2556674,9.803267,-5.427643,0.6768366,-1.4031969,-0.80028844,-0.286578,4.448788,4.4605722,15.205927,6.276336,9.4037,-1.6286215,3.6446583,7.5589113,-0.62496907,2.756092,-4.156578,8.905421,-0.59478176,2.3792908,1.5996761,-4.178303,-0.40873975,1.5880873,5.3157873,1.6600606,-2.7373369,-2.7431486
transport_027138c8-00000000.jpg,23.929708,3.8741899,6.215588,-3.2802331,0.81931204,7.5816846,2.7456186,50.260723,7.468082,3.582763,10.6383915,2.076853,20.14307,6.3961267,9.411857,4.5916557,1.0363258,3.9485626,5.604578,3.1677403,9.658915,3.7273262,4.98874,1.8378689,5.235673,-1.3088901,9.449437,4.732169,1.0500051,2.2605073,2.247456,-1.1224316,3.8886342,1.7995152,5.5004454,2.2239814,-0.7370483,-3.848146,6.767473,-6.010361,3.2430828,1.3607397,1.1120688,-4.0000625,2.4369617,0.63347274,6.820141,5.5949607,1.3178799,1.0526922,4.6581616,1.0213802,0.9860257,-1.6893572,-4.21245,9.494541,-2.47783,-1.7538015,0.4018677,5.4569,-2.4146934,3.4431486,2.5414762,-4.0524764,0.62152684,4.2380877
transport_029556a0-0ec9fa6f.jpg,27.91409,-4.3295274,-1.8280598,-0.58333206,0.42149532,12.657772,0.46146005,47.72043,6.7080526,0.49726814,11.392446,-0.6579046,19.735928,5.9454384,11.617695,7.0979714,-1.2784777,-0.5324875,6.0890837,4.248725,9.665505,1.6525995,-3.0170853,1.84719,8.415137,-2.1776705,4.5794053,-2.0788453,-1.790951,-2.5926695,3.522684,1.9468203,0.9624783,3.5863552,2.0299475,3.213905,-1.2894365,-0.04330282,1.6946714,-1.5585605,-1.6504159,2.1403885,3.179314,-1.2646737,4.148742,-5.326337,6.474477,2.6188712,4.757056,-3.8880632,1.7080426,3.236519,0.6440328,-0.82725465,-2.5602608,7.264357,-2.1591845,-2.5389547,2.2320392,1.392109,-1.2968911,5.943926,-1.9538598,-3.1943157,-3.08696,-0.25352496
transport_02a1b1d9-9c615eea.jpg,28.490934,1.6356517,4.0234523,0.94404334,4.881902,8.850627,-0.73619765,50.593887,6.7346015,3.6561058,12.739259,-3.4091825,11.5153055,10.301727,9.118445,-2.1886938,1.5708513,1.9980735,5.3896823,7.945341,7.9549894,5.306473,-1.97337,3.246896,5.033001,-4.122811,2.8266869,2.475914,-1.8223293,3.301163,1.8801779,-1.7319534,2.7101035,1.6555856,6.749727,4.218101,1.8331649,-3.590501,0.8286698,-1.7277634,0.8057361,2.4226055,2.8719337,0.49465656,2.4299412,0.2059313,5.883166,-1.5521561,4.916539,-0.27215248,6.0715003,0.41583115,0.7468445,-6.0574684,-1.180353,10.139539,-0.9931608,-5.015599,3.8173277,0.24673343,-2.1328173,-0.96834934,2.1547422,-3.4843404,-0.16926089,0.6701066
transport_02ab38da-1da76c04.jpg,27.98784,1.689158,-2.6598084,-0.87960315,-5.485492,17.1562,-3.0670214,40.453407,3.8358755,2.1622202,10.3109865,0.731355,15.5648365,5.033562,17.989223,3.953319,1.6778214,-4.069969,3.2133148,11.49003,10.768385,1.5597886,2.2889278,-0.7171005,6.3884006,-1.6749992,3.60723,-0.22693384,-0.14972658,3.886683,-0.10242537,-0.43809897,6.8366585,1.1614487,1.7726802,3.0402408,0.9118954,0.82935804,3.9192808,-4.3758125,-1.6895082,5.1028004,-1.2782524,-1.4744169,0.71206933,2.2037294,10.791182,4.664797,4.4016643,3.2790332,4.9454226,2.225703,1.7115762,-2.1522336,-1.2727718,10.4383,3.4441204,-0.7681323,-0.15582284,4.7355638,-0.743602,1.7434409,2.749538,-2.68776,-1.5512059,2.1508698
transport_02ba6c1f-2dde0360.jpg,32.285023,-0.29958105,2.6590378,0.39853567,-1.0062205,12.239704,-3.8742938,53.2633,7.0828342,-0.52125317,12.9123955,-1.2366498,17.008509,3.5018225,5.053062,2.5581377,1.5450052,3.5002332,5.727712,3.3540883,6.26035,3.1054835,1.9666184,0.38887492,5.89527,-0.2740431,6.844254,5.3413806,0.36042446,3.3736427,3.6109076,-0.087119356,3.3679578,0.44354573,1.8610487,3.9242058,2.3410704,-1.4513949,4.030071,-3.761512,1.0433707,-1.7130114,1.889909,-0.47810227,1.519961,-1.5129584,8.1788025,4.6070933,1.4778416,0.92790854,7.1535244,0.78307825,-0.033502422,-4.0706124,0.64975417,8.805546,1.8217074,-2.7657285,0.05328492,2.2828448,-0.92520463,5.308091,1.401411,-3.77989,1.9088918,3.0036423
transport_02c2a4d8-f8b327d0.jpg,18.85503,-2.5009727,0.12572202,2.2200277,3.9467316,10.044989,4.967707,59.526764,7.763909,3.6205914,14.104256,6.8335466,15.784203,5.8553934,12.263112,9.614547,0.15377812,-3.200211,5.9814744,2.6363685,2.1571045,2.508531,-0.30462864,4.959838,5.9955554,0.61121976,7.73295,-0.010006898,-0.05007177,0.7725721,1.1286548,1.5515265,2.5360458,3.6348999,1.4624406,2.267867,-2.158178,0.28076005,4.648046,-0.19040464,2.8224912,0.107433364,3.9189897,-2.9209843,4.9963756,1.0298709,5.450191,3.8815818,5.4704065,1.2691475,6.487103,-0.316423,0.4861528,1.5358391,-0.8293854,11.511297,-0.4271481,0.7514365,0.2558637,2.1414566,-3.991319,5.1005034,2.3383856,-0.9695952,-0.7706937,1.0233461
transport_02c2c31c-d030d8b6.jpg,21.28457,3.4674942,7.2597013,8.649652,3.1375628,7.6564283,7.517281,58.471416,13.686257,2.0414014,12.208857,3.878596,5.857046,7.6432757,11.760159,5.67296,-0.24067387,0.5542403,3.901609,3.5219357,4.4518137,2.7057734,1.3167757,2.6583412,1.9920537,-1.1777315,11.770597,-0.85875404,2.5900762,1.9902263,1.1470739,2.178612,6.538467,4.144629,0.2943798,3.1143916,-2.2279236,0.062199824,-0.7522015,-2.6772697,-2.2955172,1.1068585,2.495077,-0.932992,4.1564574,-1.6350173,3.3278778,0.67764986,5.742711,3.397782,6.9993963,-0.6754437,-0.07406746,5.8411026,0.20073466,6.105637,-0.041975684,-0.8106682,0.25399122,-1.0030628,-3.4551163,1.9628011,3.2602794,-0.69048816,-1.5684178,-0.40302715
transport_02e237f1-00000000.jpg,19.815435,-0.4696385,12.558115,-1.2577604,8.974535,10.619922,4.1895995,53.912586,4.6257877,6.970966,10.875775,1.7125103,19.964739,2.733563,8.277008,5.4653654,3.1844451,-1.4543356,4.3878393,3.1918685,3.8505626,1.991985,0.7209434,2.3491018,7.1280003,-0.75569206,5.4418163,2.0227132,1.2417879,1.3304743,5.2978253,2.635499,2.156849,1.6567469,2.8657658,0.014872476,-0.5008428,1.6204592,3.8546972,-1.3699723,3.5281858,1.5415198,5.570159,-4.516566,4.7859178,-2.4658506,7.6699123,6.423951,5.343208,3.3228781,6.73637,-2.773115,0.097389266,-2.6297786,1.4267055,10.366796,1.4927648,0.6419907,2.8373017,3.2193322,0.055100024,2.3831728,3.118638,-2.3952606,2.181032,4.731389
transport_02e755bd-b0dad55a.jpg,26.654724,-3.4838748,2.1297674,3.2033749,-1.8869036,5.5503697,2.502613,53.507023,7.7237844,-0.056154,9.770289,-0.7602871,10.489189,10.869986,8.362094,5.415523,-0.48698625,0.91221005,7.61608,4.0905867,8.429439,5.2152133,1.7794513,0.9419865,6.0003095,1.3192751,3.954629,-1.3651928,-1.9368201,0.061859284,1.3403413,0.4657561,0.21229945,3.963652,4.0621114,2.9293926,4.1411905,1.3601424,6.730751,-0.23250403,4.6596727,-1.1669089,0.5392893,-1.9791379,0.25242138,7.6145506,7.437218,1.7733395,4.115809,0.32289493,0.9570706,-1.133175,3.0731266,-5.26569,1.5402336,7.2982416,3.622124,0.633928,-2.1744385,-0.12373454,-1.5955186,0.49165058,3.0552843,0.73609316,-2.1684844,1.0017755
transport_02ea9e52-b4b02d19.jpg,27.304272,-1.0884044,9.181415,4.5413246,-0.72566724,7.9750667,2.4479945,65.03447,10.82895,-2.2251296,14.423527,-1.1474973,10.077473,9.020746,1.0435008,3.9707086,1.1897727,1.9897271,11.377216,1.8730508,1.243239,3.5264313,0.11390466,3.831555,5.0834236,0.71538824,7.096313,1.6544849,-1.8518412,2.7773123,1.6625654,3.3479176,3.6945806,2.5083034,3.4663491,3.9087324,2.5639024,2.5791454,7.506351,1.2495617,2.6611738,-0.42750126,3.8637538,0.2888741,3.607532,1.0039263,10.963598,3.0984178,5.1372366,1.2058889,2.7913318,-0.5722114,1.5545849,-2.2013912,0.07994771,9.808569,1.5083393,-0.67013365,1.2986166,-0.98454964,-0.39411107,5.18009,6.3137164,-2.1166131,-2.1830297,3.3010137
transport_02fc82b3-279906a9.jpg,21.361053,-2.6437318,1.3435969,4.69591,-0.9017633,9.804073,0.7131626,65.07606,10.977195,2.5836203,12.086952,3.4174786,9.2720995,8.074366,6.172893,3.2289996,-1.9943558,1.615061,8.001144,3.6533303,1.9133899,2.0538673,-0.040479705,2.0661175,2.348637,-1.9491858,4.6022253,1.2856811,0.82989204,3.6701999,1.34534,-0.9760173,1.6529826,3.2201524,3.3410094,1.6052477,-2.3518987,-0.7369632,-0.27756253,-1.7326868,-0.07084231,0.99457234,1.7277386,0.060271658,3.5817463,-1.0210297,2.484241,3.4367993,2.0443761,0.59236425,8.344656,-1.6772363,-1.0870489,1.5487754,-4.687555,7.7008476,-1.1665785,-2.8222513,1.7979386,-0.4986451,-3.469995,3.2579222,3.3588521,-1.2003782,-2.9776313,2.0459268
transport_0345825a-2339f1c2.jpg,23.425238,-3.684048,4.140903,-2.8018582,0.35842448,10.511169,2.960535,53.151787,7.8352375,-0.95540565,18.588184,2.6097813,14.59483,10.302047,8.385591,1.8139306,-3.866889,0.4391989,5.970421,4.332632,5.3239913,4.8035417,-0.27639073,2.4508827,6.331319,-5.3634286,3.8508415,1.3455145,-0.71622485,-0.2968174,3.6487439,2.5354023,7.5429173,5.717876,-0.2758172,1.8441048,0.58621,-0.5649332,7.0470424,0.14089784,11.090009,0.99315774,3.463494,-2.3266833,3.3175046,1.7892699,9.351583,1.2004316,7.7607102,1.9646804,4.6542225,1.6505235,1.9792374,-1.2125486,-3.377174,17.734879,0.44217837,0.61959887,1.8374752,3.936679,-1.1251025,2.3340867,4.2719736,-3.2218418,-0.5427589,4.7629876
transport_0370eddd-81051014.jpg,25.999578,-0.858614,0.40402216,1.8798008,0.130034,8.477565,4.8751106,61.55674,8.32149,-0.7569134,11.951102,2.4604132,12.725297,6.4592824,5.9961066,0.60736173,-0.027345866,1.7985724,6.260215,5.274383,9.694826,5.1522017,0.37281737,2.7244837,6.001487,-3.6155164,5.7251062,-1.7533395,-1.7289937,0.6715288,1.3106222,2.456191,2.7622142,5.2529597,7.921648,1.8128557,-0.25580126,1.7695166,-1.2346909,-2.5608995,0.096893914,2.4164703,3.4739103,1.178148,3.7788658,-2.7933128,7.1637497,3.9515495,4.9079275,-0.81048256,3.3741422,1.018163,2.3005319,-1.8736743,-2.1659284,6.7257023,1.3292584,-1.7630603,1.0560553,-0.80023724,-0.538196,12.423171,1.0342302,-1.9433187,-2.6844382,1.3726479
transport_0378d8dc-45d0c6c6.jpg,16.998276,-2.6672132,7.1425123,-2.9188209,-0.22772816,6.114981,3.2465305,49.86421,5.4746356,1.2676139,7.187801,3.1758182,11.853795,8.127133,8.520983,-3.1903498,-2.6203043,2.5450268,5.2585692,6.9828377,6.497578,4.0164933,-0.59196246,5.529261,6.047475,-6.384982,4.59055,-1.5398759,0.026042014,3.2395391,5.538037,-0.15856065,-0.64594793,2.2746975,0.8662517,2.5821204,-1.9011836,-1.0029849,4.5656757,2.0577667,1.9114677,0.9030426,4.5704775,-3.1001062,5.206339,2.3425634,5.2966623,0.048526935,5.034422,2.4032347,3.0867121,1.3122298,-1.1362509,-1.668492,-4.1460567,7.0009155,0.43039545,-3.6571212,4.9870024,3.4797935,-3.6911223,2.5171804,-1.4838332,-3.4572937,-0.41215596,0.08392082
transport_0391de8e-7954c0c8.jpg,32.996864,3.961348,0.82189095,-0.23177043,5.6536837,15.167083,-2.16362,36.628975,5.9070854,3.902034,10.908866,-1.4612176,24.390106,6.6369057,12.696145,-2.5758681,-0.90394247,1.7327836,0.5190161,1.7592087,6.311377,4.1293716,0.05645831,1.1207911,9.537352,-5.988493,5.7747703,3.9668088,2.3188546,-0.5820316,5.58074,-1.800539,1.858902,2.2269263,-0.32345256,6.543593,4.134729,0.85433924,6.621447,-8.097668,-1.8480695,4.8843894,2.7945454,2.9898953,3.724093,-1.5686526,10.159339,1.72713,2.6046693,0.8800066,4.934734,5.2136245,2.067625,-5.541189,-1.536917,9.630814,1.2520709,-4.2694263,3.0375578,3.0913274,1.8887513,3.5228736,3.1216204,-0.7443378,3.089306,2.454142
transport_03a567d7-8798aa0d.jpg,28.382536,-4.2910457,-1.5441339,0.89750636,-7.34768,11.845556,0.931115,61.82363,6.3956795,1.0858479,13.100958,-0.3607989,13.057373,11.247494,11.366166,6.2859087,2.7878907,-0.18929681,5.24576,3.6613324,5.013185,4.889294,2.0687368,2.8895519,7.9668703,0.6151948,5.624954,-0.6981381,0.09195637,1.5216794,2.3028173,-0.97146463,0.7092703,1.3472271,3.650495,4.4520106,2.0681071,0.036812946,2.1107957,-4.5513535,4.115413,0.031664874,0.48888415,-1.7394308,1.054918,0.7296984,6.246029,3.4994304,3.01762,0.9926028,1.7791864,-1.0872663,1.1036975,-1.7397916,-0.11388767,7.9844213,1.4214906,0.73830765,0.03543836,-0.074954,-1.5082604,3.6419072,5.468255,0.808341,-2.1160393,1.6733683
transport_03b5548e-d8721fa8.jpg,27.973211,2.6571312,16.23767,-3.745628,6.364551,11.557936,-1.2819467,40.441532,7.7386737,4.2809563,17.631832,-7.2948823,21.19942,8.880106,8.634691,5.771907,6.672588,5.0123467,8.610325,2.4474013,4.7124133,-0.8688057,-2.7274716,1.061572,4.4962597,-1.8070843,4.988202,4.7991686,0.7605941,2.9849398,2.3541903,1.9205991,5.963095,0.84984547,-1.9913825,2.1040087,0.68927854,-0.42770937,4.824958,3.284413,12.169836,-0.5029917,3.4973302,-1.3113964,2.019481,2.0662184,5.6972694,4.247313,5.5865726,-0.33949897,8.576007,0.63425726,-0.5185088,-2.710592,-1.6644518,16.146091,0.68754923,-0.21664654,1.4212254,6.315074,-1.2866828,2.6843832,2.9986818,-7.116964,2.125124,2.331019
transport_042005ab-c83ca504.jpg,24.440655,-4.545436,0.43236968,-0.98568547,0.44589722,13.900635,2.81657,51.493073,5.683602,5.4526916,11.526792,2.9088802,19.339373,6.307044,6.9735236,2.1868315,2.9871066,0.56419337,5.590915,4.105577,6.4373574,2.6871986,-2.7926054,1.6864814,9.407443,-2.0164003,1.8164204,3.9741404,0.2886639,0.6380193,6.3165784,-0.54780376,4.179136,2.3454819,0.95882845,2.382857,2.6265156,2.4512262,7.7979183,1.1686083,5.106775,1.6373959,1.7103691,-1.7113318,4.46281,-0.43132854,9.410068,4.226958,9.37539,0.32786283,4.510177,3.75094,1.7983477,-1.0427321,-2.5487082,9.895745,-2.0288997,0.23442493,2.5738244,0.8948078,-0.5662487,3.2275894,0.3857417,-1.7132282,-1.5739217,-0.1392249
transport_042b9641-00000000.jpg,30.566635,5.4175906,8.404745,7.714236,10.242508,9.833317,1.746067,44.41923,11.036731,6.707598,4.76462,0.72399837,21.975252,2.08957,6.7397594,5.307008,4.0943594,12.548046,15.210702,5.2370915,6.1473207,1.6240492,-3.3943381,-0.5904104,10.151807,0.86961704,8.675807,0.3587151,0.1718767,2.7496796,7.9228716,2.6353486,2.3835561,4.6270804,-2.031996,4.290151,5.6747823,1.0974239,12.193023,-1.3595698,5.1152086,-0.17192522,5.0295086,5.9046483,2.7619817,1.6627017,10.254934,7.143385,3.5510316,5.0380864,2.697225,2.299722,3.9562445,-1.2872977,5.461666,7.9111657,4.7982373,-0.64151555,0.5726699,2.9863358,2.6681755,14.228542,3.0005066,1.3135253,2.6309483,6.5246487
transport_0478d053-f5bb4831.jpg,21.155865,0.02615871,4.3462934,4.189348,0.61400735,8.523568,-0.47491896,61.09723,11.725734,2.2835813,13.758908,3.683306,7.217674,9.672194,8.433106,3.466563,-2.0400393,2.4878507,6.9336042,3.3919804,2.825743,5.888825,-0.5080203,3.50088,2.6431286,-4.063435,3.8159654,3.2663624,2.349676,1.4488091,1.2696524,-0.963239,1.0828482,2.3243952,1.4510429,1.7441611,-3.594276,1.1265407,-1.4361793,-3.1464863,0.9804964,2.1775987,1.9150823,-0.74455947,4.631331,-1.5124952,2.0886633,1.3259971,5.173836,2.5028117,6.444833,-2.2947772,-0.9970885,4.4582176,-3.7655375,7.518845,0.94872564,-2.0319004,1.0217671,0.022219261,-3.323576,2.5949461,2.0834503,1.3420482,-2.0138416,2.8609025
transport_0486dc6e-3732b415.jpg,22.64926,-3.4246585,4.8357854,-1.6549789,-4.343507,9.246855,-0.7395812,54.532707,14.110914,0.49452502,18.035936,2.4618154,8.189945,9.289178,9.731062,7.8080482,-0.56269205,-1.2979072,-0.0147629995,2.9128385,0.8165037,1.0116025,0.55978966,1.1496013,4.5612516,-1.3058397,3.6946971,-1.9231873,-2.504822,3.2395444,0.37284428,0.021767803,6.8501725,-1.9808147,1.1445729,0.79237914,-1.4414735,-1.5045354,-1.4811649,-1.3504347,3.5681896,-0.48757112,1.486163,-3.402692,3.6107678,-0.98494726,8.5191,4.119678,4.202227,2.5512528,4.9402637,-1.3077785,-2.4967368,-1.3488967,-5.1967683,11.559033,-2.0478275,-3.485249,-0.17170306,0.5717604,-3.7652478,-0.41596144,2.8020067,-5.085549,-1.399525,1.7821243
transport_04ffc939-00000000.jpg,32.680855,4.6689997,6.628932,-3.8645346,3.1454601,12.746371,0.19544902,45.531796,8.318062,3.0564141,9.79315,0.24474579,22.79832,5.622701,8.614757,5.617325,0.12082271,5.3028116,5.3521705,4.20384,8.328992,-0.6580856,-4.125049,2.5118058,8.757994,-4.7043047,2.4785407,4.6176558,-2.4431746,4.8040905,4.9685335,0.8628912,7.4199414,-0.5910012,3.8945615,3.7115645,2.4081688,0.45782924,5.3933873,-1.0874226,3.8470142,1.739832,2.2241955,-1.4983482,3.5442247,0.5037466,13.909602,7.062651,3.4131675,-2.4782863,2.9018364,4.6916075,-1.3455659,-3.8219166,-1.7817478,10.599303,2.885908,-2.468274,1.307815,1.4444869,0.20457041,2.0123987,5.227847,-3.2874026,0.2681339,1.1209741
transport_051d6f8d-ab219ac2.jpg,23.325834,0.90717494,7.620447,1.9349841,1.9778281,5.722143,5.7728047,34.801094,22.230232,-0.23469017,13.760194,1.6481221,12.638744,-0.14754105,12.919707,8.315383,3.243675,6.3216815,2.8392174,1.8929701,1.9728107,1.5370824,-5.69947,4.774138,11.438171,-0.52263045,5.3334713,-0.36796454,-1.2263948,1.5688473,4.4135003,0.3119514,1.8738164,0.48076776,-3.043911,-0.7074444,2.2532973,2.6637218,0.29917493,-2.956121,7.268747,0.0024767593,0.7747673,-0.6790654,0.12713559,6.4149275,10.452269,14.08546,4.6118526,5.2269707,6.730576,9.289038,-1.0845139,-1.5591695,-3.4154096,13.676795,-0.40495452,-4.102466,0.6118548,4.7017956,-4.620968,2.798338,0.5700308,-6.2228446,0.48165777,-0.38059717
transport_0573f031-e8244dd0.jpg,24.16787,-2.362227,5.332989,-0.978818,1.9461241,10.881202,2.9252715,65.60897,8.236168,2.3004818,14.505315,4.368094,6.1690807,3.9604015,4.3449893,2.112284,-1.3000208,-0.9535861,4.2896852,2.224337,7.014774,0.69620067,3.200088,1.206605,2.4392388,-0.98351145,9.8032255,0.7608341,2.7510028,3.110243,2.2242503,-0.98880696,3.551166,2.955161,5.568096,2.448687,-1.3816283,0.9080609,-0.51172876,3.7940123,1.4355038,-0.68128705,2.4536135,3.7987297,1.778195,-1.1464739,7.109989,3.099023,6.173186,5.317877,8.4351635,2.8446703,-0.28961188,3.9017975,-1.5923592,8.1371975,-2.2303162,-2.7033918,-0.019916683,1.8537933,-1.3289131,4.45277,0.6862261,-1.9204576,1.277013,1.008802
transport_057eea5e-7fe988ad.jpg,20.196291,4.2331176,-1.4816165,5.42488,4.9322767,13.661808,0.20697229,45.52352,7.2224693,1.7789592,9.497812,-2.2880802,25.401693,7.930615,8.124554,1.4802119,0.8578572,4.8255596,5.401406,6.400512,15.49788,15.2488785,-0.3066106,0.8614635,5.7192545,-1.3003765,2.8140035,2.8771164,4.987837,1.8009413,0.7836506,-1.9801415,2.4389951,10.5177145,9.927683,3.9185233,2.7276037,4.9114466,-0.13871622,-6.371306,1.963336,5.661665,3.9126456,7.4358096,1.9303385,0.6992362,4.008903,3.8059537,1.6254628,-1.0086701,10.322649,1.7777188,6.1523924,-2.7682247,0.93581396,6.002161,2.6390064,0.2229213,1.1503646,2.1233108,0.8655387,26.701944,1.8505186,5.6597767,2.415787,4.2157283
transport_05b10029-607864cb.jpg,22.696049,0.38515362,8.353259,4.836183,-2.3275797,6.872776,4.937626,51.10017,11.331991,1.689811,22.219913,6.8454227,3.3691742,11.621695,10.764822,3.662894,-0.01938697,0.02184055,1.8906627,4.56521,-2.7293892,1.842927,1.4333664,6.5446124,5.218749,-0.80472004,7.5422144,0.88925415,1.571032,2.4963157,3.8219948,2.174868,7.1985917,0.53615814,-3.3788626,5.125881,2.7888906,1.7995692,-2.5317008,-1.1865082,1.8103421,0.17591314,2.5669208,-2.2650194,4.5624704,1.950025,8.294134,3.5560112,5.3882947,5.993858,5.3521457,0.8112897,1.2819048,1.8551605,-2.819636,11.334598,0.5983062,-2.3432992,3.5021515,2.1312258,-1.0240124,0.80185515,3.9099085,-1.4172744,1.0446922,2.463711
transport_05c25835-db5ca5e3.jpg,34.869373,1.8516829,1.3274984,-1.8919855,3.145185,9.445956,2.6845362,66.44363,3.2072406,8.075206,10.399422,3.103957,13.981795,3.6479897,-1.3621131,6.078176,1.7386234,4.9244523,10.215846,3.5295882,5.847781,3.0786893,3.0818012,5.5387654,9.993959,6.380079,0.96594596,-1.2879717,1.718846,1.8634517,2.053773,0.11537029,-3.6420457,-1.0863352,13.864114,7.7220535,5.065843,2.5227082,11.23502,3.3116074,5.6261277,1.4739972,1.59078,0.83930427,6.459032,3.1197457,12.80307,-1.2061037,5.240234,-0.16233903,-2.0719912,4.1373687,1.0426939,2.7683496,2.3765485,4.8762364,-0.33892003,3.6710813,2.3523405,-2.3313973,1.142825,2.8690345,4.5996017,1.810969,-1.0838255,1.0185384
transport_0651d531-11d94ba8.jpg,33.5357,2.8931408,9.401194,-3.1253457,-5.139935,7.9053245,3.6875873,56.596355,12.851751,2.2408829,16.456976,-2.3041215,11.444523,15.347807,6.369456,0.8443531,-1.1198589,5.3629785,6.5685263,1.4346274,6.261717,3.3549204,-4.0086684,3.8937802,4.0039277,-1.3873528,7.257367,1.0862894,-3.6434643,5.3211555,3.5983026,1.5585668,3.0203395,0.4067215,4.6022463,3.9847028,-0.8516583,2.06805,-0.3837087,-5.3426332,-0.67970246,2.5544221,0.06309031,1.0004148,3.395042,-1.9795427,3.0085654,1.3274047,2.3505602,2.1207755,4.055657,2.2907083,-2.0069878,-2.9220002,2.2570484,7.618394,3.5443451,-0.72967094,2.6340582,-1.1680253,-2.1287827,-0.24226205,6.297955,0.91234314,0.5939119,1.7188311
transport_065e0b3e-9ab831d1.jpg,27.408022,3.5561259,5.816113,0.057363696,2.7646646,14.158346,6.650245,48.442394,10.510631,2.1291013,10.993508,3.4480262,19.24735,3.9166718,10.5660515,4.462019,0.21643294,2.8779705,6.691976,5.3835273,5.681221,-0.5006228,-0.71649903,3.5949056,8.452763,-1.7363597,3.2449644,2.1554685,-1.7090497,4.098048,2.7705023,2.07921,5.011665,3.146992,4.112757,5.60786,0.574666,-0.029124413,8.587434,-3.5749023,3.078396,0.72826326,0.2106003,-2.768737,2.5658927,-2.5696077,14.101365,9.397918,4.573725,-0.8973014,5.07658,6.648384,2.9833546,0.26394856,0.2916595,9.773868,2.0659645,-1.4298067,0.1487189,0.04649423,0.8998449,6.7452626,1.8813931,1.0365498,-1.4846021,0.40329546
transport_06a8f8ee-334ad39b.jpg,25.182877,-0.90598464,0.58431506,-1.8719705,-1.1697576,14.324389,4.600153,50.447758,9.098535,3.3378284,13.293071,2.943627,13.952457,15.516235,14.440593,4.7513714,-0.34369454,-0.0563154,2.3605864,1.9702554,6.6319175,2.704054,-2.2335064,4.552997,5.4802704,-0.86689013,2.376194,3.7637331,-1.0634941,1.8446058,0.46629632,1.1671746,5.5658126,3.5635552,0.96340877,0.36262813,-2.2098448,3.2249138,0.06736503,1.6777638,1.7289231,0.14020744,4.2366185,-0.5312399,3.6252432,0.82773894,4.294764,-0.5048334,6.0389585,1.0145471,2.938296,3.694167,1.6893134,2.2363815,0.8958247,7.896393,1.4405926,-1.4470863,1.7359737,4.7800484,-3.2210243,2.1905847,3.0540144,0.68934447,-1.115463,1.6845961
transport_06a9e960-0b4c4eab.jpg,33.859108,1.267894,6.3748612,3.3902736,-0.5442977,7.6632752,0.99049324,52.431595,10.080174,1.8500987,10.270384,-1.9159464,18.176208,9.099698,10.829867,13.111369,-0.12067538,3.9341133,10.15427,3.762226,7.6314754,3.1331263,6.0269566,0.19050315,8.947513,3.723187,4.2237687,0.3381461,-3.692607,0.91719854,1.5240937,2.5147877,0.7530265,0.55221283,6.174751,6.9145637,2.863057,0.59484845,8.081248,-0.10541584,7.808693,0.18061581,1.9821279,-2.4728413,1.2839687,3.2237344,9.918131,5.1449394,2.4461944,-1.6676579,-0.09843204,-0.9199202,1.3494008,-3.1178274,0.8517772,9.328533,3.5996351,1.1872425,-1.1761463,1.471545,-0.3446636,2.634259,7.1052866,-1.2919539,-3.3134565,4.4760303
transport_06ac374f-5c7f25cf.jpg,33.10455,-1.5199363,-4.97954,0.79490227,-2.7355518,18.329239,4.2253156,53.003456,3.88686,2.2553842,10.492884,1.8268028,19.81216,8.689548,14.378331,10.81118,-0.8819159,2.4828877,5.481777,7.297395,13.732654,-2.1351576,0.48449302,1.1413823,7.038703,-0.14299415,4.705044,0.491708,-3.8238633,-1.6781082,2.0407426,2.5616028,4.4663754,4.5043488,6.7358294,4.562442,0.8419451,6.004959,-1.0716164,2.205734,0.63933873,0.8248549,-1.1421928,0.9811193,1.0598812,-0.52702427,11.12941,5.895784,9.653677,-1.0581627,2.747795,6.3940444,2.511194,-0.4833175,0.23974255,8.787894,0.27421975,-0.8797215,0.1040583,0.62246007,2.6575952,6.260234,1.385972,0.2947596,-1.4246159,0.13425942
transport_06e583b2-39c5458a.jpg,25.48275,2.349964,8.234392,2.636855,5.1146126,8.494504,9.468715,53.149216,11.454163,2.299465,8.34627,0.08315556,18.88444,2.1338034,6.340962,2.1433003,4.3323374,1.8293625,11.0227785,6.204257,6.048259,6.2989526,2.8200018,1.7657031,7.480958,2.2301483,5.200782,-1.766612,0.82939136,2.2014537,3.9332504,0.6736508,5.6889253,0.064110056,3.763918,2.753453,0.8721941,-4.33246,11.464841,-1.350097,4.7701826,0.9229382,4.420121,-1.596689,4.5718837,2.2139332,9.932512,2.977938,2.720175,-0.771001,0.66229105,0.35773405,2.6332076,0.4048952,4.936543,9.309761,1.963485,1.5508058,1.6859015,-1.0247374,-0.085426845,3.0238342,4.605668,0.90609807,-2.3694746,2.955589
transport_06fb4e9c-fc5098a7.jpg,29.40493,0.06298553,3.2720633,0.46177986,2.0119689,11.987066,-5.357301,51.21669,7.145541,0.37744635,12.0802765,-0.7064558,16.331581,16.064533,10.112673,8.865286,1.2029376,-0.6742739,9.641025,4.184286,7.8536773,2.1603124,1.1173671,0.84472716,4.6981797,-0.25971538,4.5189223,5.173482,-3.0366125,1.6698215,1.4193302,-2.2336805,4.8588395,4.68636,3.20644,5.5231676,-1.4847388,4.6780953,0.5399124,1.0224543,2.041234,0.46303934,2.210366,1.4684354,2.3129132,-3.0378354,5.8642344,3.1551614,3.8991828,-1.8040836,2.8949666,0.60786265,0.7036431,-0.28502294,-1.9697169,11.043315,1.6387265,-3.2785695,0.9190848,1.9404415,-0.58346146,4.633707,3.0132442,-2.623493,-1.96995,3.576298
transport_076f3ed4-00000000.jpg,30.998829,7.8235855,4.086239,-4.8930697,8.073784,9.599135,0.25936198,44.13963,10.14852,8.337912,14.461836,-2.8668723,20.490685,7.6021767,4.298035,6.954543,-0.5343916,4.0345025,4.0345116,5.346267,6.21668,-0.391173,-3.5782285,1.7078813,6.2823033,-4.955969,3.3496757,2.0057878,-2.123729,2.7327085,3.7754548,0.82828754,1.3150042,2.856083,-1.3000802,5.44169,2.2265344,-0.91094875,2.5749893,-6.878063,1.1270632,1.8831484,1.2827886,-0.6553686,2.8032527,-0.0012468547,7.8713784,3.2414958,5.766083,-1.6298714,4.5084677,3.3322487,-1.3329339,-3.9674692,-4.2505746,13.54917,-1.9153606,-4.061223,3.3817291,-0.86694247,-1.0956739,2.7682343,2.6457295,-6.0785556,-0.07501934,0.5218192
transport_077d7bbc-2dc66d22.jpg,16.659895,-1.287524,2.9637985,-0.32262754,5.2391553,10.102757,-0.24394919,39.54896,3.9425004,3.8729622,5.7769938,4.263726,22.972298,12.750631,8.60099,5.3305273,0.49525183,0.3219617,7.37663,7.622964,9.007197,4.5710692,-0.908544,2.7318504,7.493507,-1.8029164,2.9306133,4.0757036,1.3365301,-3.1947985,4.9215055,-1.6268272,3.6861837,8.714004,3.9826865,1.3090456,3.053166,4.6569,1.1596256,-4.259064,1.910415,3.8117986,5.0613327,-2.6801777,4.1021113,-0.45168617,4.8231215,3.4427564,3.859759,-2.5607746,5.021272,1.0173261,3.0519838,0.2069857,-4.2509174,9.011133,-2.0763423,-1.4759694,3.915567,3.5446477,-1.7413337,8.4042225,-1.8445631,-1.1636914,1.0848062,3.2636323
transport_078fe907-c39a62fa.jpg,17.422237,2.1307328,3.4315438,2.0564582,0.94586426,7.115177,9.871117,56.356686,8.199993,1.4920022,9.574665,5.010458,11.38403,12.427802,6.0209312,0.9965253,1.7012898,5.7886314,12.215912,4.2440763,4.1907563,6.1742396,-2.1867433,3.1105974,5.5866575,-0.68668,7.620311,-0.3105952,2.081594,4.2421107,4.174674,5.1964045,1.1402478,3.6449165,-0.5503196,3.2238119,-1.5401537,1.6859994,7.1772947,2.113723,2.6673586,0.96916485,3.0950553,-1.3522346,2.7802982,-0.5092952,7.3166237,1.5888274,4.7013297,7.171157,5.4459558,0.40566838,0.9879859,0.5829948,-0.3433234,11.939216,1.017076,-1.2377454,1.1397015,2.016047,-0.15524505,3.8884833,1.6113964,0.6936921,0.23031998,3.0474403
transport_08008acf-4c0ddc8b.jpg,19.967358,4.2109127,9.366837,0.87583,2.3554657,3.8858752,9.689202,62.04814,11.766163,-1.1188632,22.64013,11.696782,4.5028014,12.781951,8.208041,4.3396864,1.5959021,2.2365837,4.6975465,4.0082273,1.1202899,3.1128554,2.3354995,4.4993505,3.5451941,-1.1957797,5.348482,0.56725687,2.2227206,0.85902494,3.4366202,3.5151649,5.269053,2.6618443,3.05627,5.5179696,-4.5739727,2.3312926,1.5171646,4.5507855,2.4494796,2.9466748,2.5122385,0.40685824,16.979357,1.8320385,4.2903643,3.9311244,5.4057446,2.8177414,5.8287277,1.214789,0.61194617,0.879704,-1.5071433,8.9292755,1.3777288,-1.5257213,4.0430603,-0.044570908,-2.6182737,2.5372083,5.174226,-0.2888263,-0.19061762,1.4898982
transport_08192d2e-46987583.jpg,28.88423,-4.73395,2.1314566,3.195399,3.4860308,12.526862,5.099322,63.28446,11.585915,1.5929177,19.720728,5.359347,9.163835,6.487064,7.119861,-1.2837446,0.72203976,-0.25026196,5.1754375,3.9632301,2.26526,0.4744342,-0.5306969,3.3415384,5.834064,1.2756438,8.037255,-2.0078514,4.5034657,3.7071724,5.093907,0.53141713,7.304313,6.432034,7.0348186,-0.25106844,1.186876,1.7362151,2.2673476,-0.47137067,0.063185535,1.3576732,2.1536,5.25148,1.5595745,-2.38055,8.849448,1.6591504,7.181275,3.9239037,7.146625,6.0220523,3.2780619,-0.399674,0.3593374,7.605991,-0.11656247,0.06701304,-0.9137063,-0.9577606,-2.456807,4.5693665,0.04106192,0.5421908,1.4784048,1.4744323
transport_08243e30-f438c630.jpg,26.72633,0.17751533,1.0203309,1.6476889,2.9020817,11.515032,1.604042,60.59398,6.933979,3.3572376,15.7035885,1.1744732,14.839071,7.199436,12.181468,4.353429,1.0862792,-0.5527348,4.599197,-0.0046652043,1.9016623,1.7722439,-1.6096066,2.3312163,4.1054053,-1.46972,8.718337,2.5373037,0.03336207,0.5847098,2.11811,0.03156243,2.3446412,2.2746973,0.13011573,0.2657744,-1.7108865,1.9656185,2.100194,-4.625027,-0.71314645,0.3027618,3.4563587,-2.904386,4.4716964,-3.4486353,4.5935187,3.9899569,4.906893,0.17680806,2.2102265,-0.4920317,0.7804129,0.31564626,-0.93572354,8.218045,-0.6170774,-2.7271404,0.8108849,1.3827447,-3.2244184,3.7306688,1.4764025,-1.3143132,0.13386975,1.6831292
transport_0832b2c1-21d84e13.jpg,24.830719,1.9973079,-0.48607,10.900098,2.4029334,20.588572,1.7967988,59.63032,10.274813,0.7380643,17.21591,2.0793788,15.214433,8.75965,10.401077,1.505572,2.5747893,0.8173643,5.638855,3.05325,5.1617746,8.892126,-1.1433531,3.1585681,4.167627,-3.0177832,4.9029756,5.210052,3.7034483,3.2387474,3.6883156,0.5444756,6.2930727,6.532837,5.6715145,2.2610753,0.09723595,6.5377192,1.3244953,-2.5449548,2.4605541,2.4669166,1.5596575,9.336612,2.5647476,-3.038368,6.8968906,4.2984257,7.591921,2.4622052,3.614005,1.0927188,2.1100569,-0.00987954,1.6806554,7.724138,1.9318455,-1.3077248,-0.14125228,2.6028023,0.37894934,12.720858,4.413259,0.59569526,0.7028716,4.295399
transport_084811da-94a1a430.jpg,28.060488,0.10370337,10.964308,13.189713,0.6339549,14.797519,6.1606627,64.52269,10.204132,3.307952,16.662468,4.5337563,5.123508,6.4453297,7.8772664,6.7281613,-2.982711,1.3303844,9.490417,3.8537047,4.7210784,8.232859,-0.7065276,2.3990512,3.127198,3.6115088,7.6907263,2.874998,7.2659245,-4.1135263,-0.17398861,1.6849915,5.603946,5.422062,-0.006232783,0.6302531,-2.6153595,3.2735612,-2.572742,0.8307293,-2.6233726,3.5217702,-0.0469862,0.011605537,0.15690011,-2.2964377,2.483144,-1.2913163,8.626777,-1.7315123,4.3324633,1.9553688,0.39119238,6.7829304,1.9742713,1.308715,2.2492578,2.2189434,-1.202254,-0.62287545,-4.7005644,3.8048534,2.7308517,2.136528,0.90589786,-1.1712736
transport_08605381-9748a08a.jpg,17.765059,-4.965867,1.3174846,4.3783875,0.031900175,12.320224,6.7682014,66.02315,12.42833,2.1776364,17.137173,3.897623,6.8432493,6.426577,5.901498,4.697671,-2.6911187,-1.8351889,4.949821,2.8233182,7.2210097,4.8079953,-3.7209854,2.4837346,3.9242425,1.037818,3.4167695,-1.31982,-0.29216826,0.8444937,0.9981288,2.5054784,2.9456418,5.2263565,0.5905084,-1.2566861,-3.3457096,4.9396358,0.30525836,2.2627766,5.6740723,0.44999644,2.560409,-1.2170535,2.9699178,-3.3067198,3.5324268,2.8170295,7.988784,2.7302847,6.0146556,1.0256429,-0.43968344,1.3373138,-1.0495521,8.53819,0.26809695,0.5290306,1.246553,-0.25037122,-3.1001062,2.6004717,-0.348657,-0.6553834,-2.5088642,0.93556184
transport_08989e1a-00000000.jpg,29.435604,0.808435,2.243877,-1.2040315,2.7211225,12.897229,-0.8396944,56.054844,5.248799,2.707924,10.694723,-3.3244145,18.374733,8.339232,8.50319,3.882532,1.497211,2.833071,8.097565,0.22507703,7.453301,3.096946,-0.60102224,-0.54570276,7.2968388,0.5519091,7.3659925,1.6856054,0.008315081,1.1482902,3.7608876,-0.7794709,0.42553443,1.8115952,0.4917968,4.2730856,3.882738,0.12935358,3.4551542,-1.3764791,1.6865814,-0.7566906,2.8392751,0.7627157,2.2595606,-3.9901755,7.2392664,2.0224907,4.9284015,0.1370456,5.2516603,1.8576884,0.94269216,-2.861803,3.206975,9.20818,0.23333551,-1.7494397,-0.995036,1.5264925,0.36464953,5.862576,2.141055,-3.235948,0.70542884,2.986659
transport_08ab784d-0dec33a1.jpg,23.530188,-2.9448018,-1.1793238,0.95213425,0.35152128,11.8306675,0.70282817,53.29408,9.688553,2.311623,10.346779,2.1360815,20.094492,9.698228,12.119705,9.841654,2.3339186,1.0157443,7.833681,2.4747393,11.750241,0.262383,-0.14471835,1.0104232,8.177898,-2.364421,4.6549096,-4.9171295,-0.7682666,0.7196074,1.5166308,1.5144058,2.3410368,2.3312087,5.9989324,1.1087623,-0.7699516,1.9245774,-0.56005186,0.14192751,0.39983103,1.8688977,1.0965314,4.607543,1.4403775,-2.554052,7.931851,2.8605409,5.1070237,1.656986,-1.1517797,3.2341084,-0.20945063,0.16717716,-1.2114992,6.4096293,-1.0533967,-0.29030672,0.33905688,-0.17099012,-2.511229,3.5524626,0.5537525,-2.9121099,-2.4375987,1.3423729
transport_08c7c58f-e0b71005.jpg,24.690208,-3.7786033,1.8431243,4.732303,-0.4530115,11.573265,2.2832499,63.373013,8.852283,-1.4157043,11.53364,-1.0737517,14.537671,6.101047,11.098348,3.1959946,-0.44468772,2.035734,5.1703706,0.66309667,6.563608,5.0107856,-2.3706975,-0.35013705,8.645859,1.9328657,8.198916,1.4405276,-2.1122367,0.8768557,1.0134282,1.332796,3.106941,3.0757542,6.058093,-0.033180274,0.018683169,2.190927,4.605427,-1.133302,3.4701276,-2.2355332,2.9079978,0.20326582,1.8108268,-0.30223334,6.164422,1.4137232,5.2719026,0.8551064,4.2578797,0.50658256,0.44832045,-1.7046508,1.4151357,11.6241255,2.057002,-1.0647064,-1.3444535,2.9210932,-2.641714,6.173196,3.040858,-0.11339814,0.30723795,0.81816465
transport_094647f9-8af4abe6.jpg,23.111074,0.083295114,3.6565356,0.045998536,5.4021964,10.256479,2.105103,53.003193,9.109065,8.710135,14.004855,2.3036716,20.380596,10.557532,8.323811,5.5427904,1.9992441,2.1448221,4.523731,2.1760092,3.8716211,1.6290756,0.8541996,3.6742165,3.637288,-1.5892096,5.6334915,4.7141185,0.9886253,4.244648,1.2053016,2.291372,3.1883154,4.166795,0.7018475,6.005872,-2.7284925,2.2899728,6.5159955,-5.5657625,4.2565846,-0.4524367,2.1091218,-1.705616,5.914852,3.1980124,5.192926,6.3343773,4.0091124,0.31615433,4.985231,-0.16377938,-0.21781503,0.01961207,-1.4856877,12.99787,3.2944102,-1.7436225,3.2205577,0.12468779,-4.9336123,6.152434,3.3439007,-0.9781846,1.1903884,3.0153475
transport_099601d0-1b317d33.jpg,26.430126,1.8125055,-0.42561573,-0.4985806,-0.47637868,15.953787,0.80179256,52.926456,7.2317896,3.4152277,12.167297,0.050212443,17.666441,8.166815,15.652823,4.4762263,0.08315146,0.17487755,5.037251,6.1105857,8.117968,5.176179,1.6106591,5.37483,4.4231243,-1.9304444,6.0647826,0.3547814,-1.5870101,2.833271,1.7508177,2.879201,3.1399071,2.733312,2.097567,3.2684824,-1.6301966,2.6060362,-1.3253233,-5.620681,-4.1765385,2.0400877,1.5901353,0.48616713,4.1284027,-2.7427106,6.33092,2.3044827,2.6835124,-2.38214,4.9087844,2.5221877,-0.5838901,0.35616642,-0.96880865,7.0963345,1.4917665,-2.081235,3.9814935,0.49477848,-2.4230552,4.715357,2.7202091,-0.09289887,-1.1863749,1.1930326
transport_09b41d3b-04e483ca.jpg,33.639683,-0.4233742,4.710503,1.55581,0.3019982,6.345307,4.4840465,56.22544,4.910184,5.4569144,8.489694,-1.1532254,18.106268,5.583655,3.2499142,4.4138064,1.79297,2.230505,10.286798,-0.8407263,5.257444,3.2768552,0.99376875,2.821154,8.204201,3.8735502,7.0102906,1.1545565,-0.8455841,0.39204192,3.7522216,3.1096253,0.52602196,0.66566133,3.4372706,3.220084,4.9428844,1.4741801,8.22076,-0.8649324,3.3339317,2.9343715,4.3936434,-1.9892882,5.424284,2.3370552,8.955961,1.9062035,4.1010776,0.23989892,0.26074308,0.3777633,2.7683747,-4.130354,4.327708,7.9421268,1.411885,0.54598325,3.2220573,0.44032565,1.7978029,2.7389665,2.755364,-2.7686608,-1.4093435,4.449434
transport_09b978e2-d23f214b.jpg,15.640662,-1.3833562,-0.7391693,9.362064,1.953236,12.068961,1.2793418,48.41181,11.335848,8.627384,10.8327,3.025975,11.459934,4.7616644,13.517487,2.7657156,3.7953331,-8.417851,3.6964633,2.8465896,3.670165,5.02517,4.4443383,2.1446319,3.2350545,-1.2966534,6.4983263,-1.4402797,4.403252,3.1928315,0.08449936,-2.0821235,7.621625,3.211793,2.2032309,3.0842454,0.27853158,-0.91095185,3.0858972,0.36279806,4.541008,4.7422185,3.8112607,-2.5707011,3.687125,-0.06791472,7.883519,8.074177,7.591711,5.993888,6.0901847,1.6767806,1.3243241,2.9042323,-2.5397851,8.544912,1.0247829,-1.3345504,-1.4170518,5.072484,-0.8534236,3.2662477,0.39083537,1.793329,-0.2797813,4.268436
transport_09bae00f-d54cdd19.jpg,20.139791,0.9586276,7.5036263,2.1787546,17.258963,13.671039,5.482158,28.832132,8.607553,5.88219,6.657309,4.700494,36.12301,6.5905757,14.120269,5.9019136,3.250775,2.466211,3.5388007,4.313833,7.298937,2.1130507,0.017771777,2.6157122,9.620535,-0.80325884,5.247393,0.9487803,2.7605069,1.7389867,4.550172,2.2711506,5.000943,4.294835,-3.6514878,8.811505,4.0012627,0.24548545,11.248987,-2.8946564,0.13217898,2.3475175,2.570476,-2.7223413,3.0054452,5.444034,10.789005,10.877422,2.311393,-0.1183674,1.9117965,8.92664,1.5949942,-0.49139103,-0.7159177,9.703756,2.1724262,1.0184026,3.3644967,1.8681595,2.0060005,5.900139,3.4914765,-2.4488537,1.1688448,2.160283
transport_09bee6ab-fc2f12ea.jpg,22.883308,-0.29605642,6.126907,9.589498,-0.1983523,5.0165267,1.0502785,53.335796,13.995801,-1.1265929,13.216381,1.9365376,12.0373745,10.558505,8.510795,0.47467873,0.079252385,4.0424185,4.4186053,3.0076537,6.4511724,5.8198733,3.5676725,2.6540885,6.835114,-3.3463225,5.218548,1.9311153,4.2663755,6.091623,4.6501493,1.5657116,3.6476426,4.747679,3.500165,4.1710577,4.316897,-1.5964042,4.3994656,-6.501471,-0.17765081,-0.105952844,-1.0522542,3.7788332,2.9251468,-3.1756103,7.0199785,0.8691321,4.4784455,3.0290074,5.27846,0.9348498,3.216802,-0.38405144,1.1300467,6.673083,1.8173804,-1.3593688,1.5005155,0.8166376,-2.60569,5.8403263,4.1380157,2.069184,1.2706687,3.108748
transport_09cad38c-d13a7ed0.jpg,23.498388,4.7033105,7.3337903,0.12752791,12.604329,7.869809,5.9081025,58.54486,9.754629,3.9189656,7.193612,-1.3192599,21.84779,6.803754,4.444728,4.197743,-1.1196513,4.5601783,5.040612,3.3364573,3.9202592,3.977435,-1.0113503,0.04072711,7.3185205,-0.544514,4.80003,0.7878138,-1.1705376,2.8719735,2.1669788,0.43709543,0.8343404,3.8385353,1.548648,3.0562513,-0.74637926,3.1451054,4.097913,-4.7074547,3.225773,-0.8789317,3.4628894,-5.177074,0.3052296,4.2142963,4.6752877,5.490093,4.143152,-0.6684469,2.5963743,0.48898575,-0.46865976,-1.7886573,-0.9260381,8.301836,0.31865305,-0.16796775,-0.9406476,0.33313054,-0.1844244,0.5750429,4.6210127,-1.5007349,-0.34544033,1.837378
transport_0a18ef8e-00000000.jpg,19.810879,-0.21221438,15.34405,5.6561723,2.7959268,7.4758797,2.228603,53.12839,13.837033,-2.3454785,11.639335,6.7861967,4.083728,13.593623,1.3786459,6.655865,2.8899827,-1.6957595,1.7779336,-0.39546335,0.2550818,9.877169,-0.7747678,3.8107288,1.6985164,0.6373125,2.6196446,0.58523786,6.9728875,5.2769995,4.263686,1.9919528,6.3087506,0.8941127,-1.5921276,6.050748,-1.5943606,-1.283994,2.0991151,10.546629,6.2971854,-0.98252594,2.0561545,-0.6608818,1.594601,0.7854806,7.437724,1.1541525,1.5842073,2.1185927,2.2555041,-1.2768236,1.1360649,6.966723,-2.1472223,5.1761923,-2.5447125,-1.0351281,-0.6425761,2.0669725,-1.0625936,3.052767,-0.7071218,0.122482635,0.0070602633,0.20590627
transport_0a1a0c5d-8098f13f.jpg,35.75576,3.4872825,4.538738,0.7807743,9.767244,15.787132,0.7103678,35.92263,10.110448,5.810875,10.228128,-0.24903026,24.095285,-0.67873096,7.9175897,0.82502747,2.9838252,3.2462523,3.7771602,2.1772993,7.828085,0.23570322,-0.9282523,-2.6133542,5.898796,-1.2177098,4.305045,3.6134408,-0.57362306,1.1342477,5.830936,-0.4254377,4.6316,1.8576317,0.9774102,4.918413,0.65366167,-0.07516835,5.425984,-6.5922217,-6.782981,2.138912,-0.9636021,0.13545299,3.6987283,-0.7275918,9.33958,5.82299,2.78014,-3.0232828,3.1053445,7.171775,1.9407384,-2.2491808,-0.34776208,4.84667,1.5872121,-2.9352005,-0.94895315,-2.1912408,1.1979854,7.193224,2.051143,-2.2745478,0.2096439,-0.8954636
transport_0a5922a3-a1b03c17.jpg,28.231243,0.90086013,1.1135556,-0.5368676,-4.1913195,10.0070915,-0.36099735,56.885277,6.9247766,6.3733907,7.0483775,-0.82892424,12.719867,4.5846105,8.531623,-0.63707465,4.0735984,-2.8965867,1.7911892,2.0214286,12.626889,-3.1830754,-2.9825904,0.60694444,5.73436,-1.6973953,1.4679319,0.64365876,-2.3998122,3.96874,2.510275,-1.3942353,5.822924,0.7746007,7.816721,1.6363721,1.0436841,0.8230228,-0.09168233,-3.6191351,-0.38989606,2.55161,-0.61839694,-1.1033524,2.3148117,-2.472797,11.157003,2.6335206,5.871624,1.8840628,5.474704,1.1193222,-0.12538873,-3.6397674,-0.31258994,5.3466535,0.5913454,-2.7462707,1.1111121,2.6435413,-3.844048,1.0067801,0.7280769,-2.2119431,-1.2417468,1.7366331
transport_0a5fbda4-39d0af4f.jpg,27.785822,-2.8788044,7.2915754,-1.5584098,3.1199582,8.450861,1.0950934,62.365456,6.8550267,5.238673,8.949725,-1.2328767,19.57002,1.4461366,2.5053124,5.5888257,0.8235951,-0.94200623,8.087456,0.93744844,7.465524,2.0409334,-2.772407,4.159766,8.013281,0.61265314,3.89462,-1.0687189,-4.1506596,1.9888632,2.0214846,1.6353707,-0.2495302,2.6466405,5.696495,3.015568,4.6485224,4.60625,5.9104085,-1.7562243,2.9373198,1.4125012,6.4275928,-1.6737458,4.134475,2.8280835,6.2824807,-0.20863642,5.99722,0.17426014,0.6790069,-0.13673794,2.2674038,-2.1176462,4.9224043,5.111425,2.3437667,2.256806,2.6264858,-1.4882843,1.6882476,2.8137207,4.835879,-1.4487435,-4.309727,1.2528791
transport_0a62fd27-00000000.jpg,29.877726,9.158514,6.647547,-3.0272496,4.812868,12.949793,-1.0826657,36.022842,8.516007,7.1092563,12.682028,-5.019039,17.732246,7.761571,6.32045,-1.6888198,3.065671,5.78202,8.455856,2.2139947,1.9860061,1.1866821,-3.5708387,0.052683335,7.2043924,-7.820524,6.7425714,4.7615967,0.66854453,1.2538782,3.721643,-3.5422087,5.274055,2.3017836,-1.4240383,3.562714,3.7065341,-0.49171168,5.920501,-10.016651,1.4581734,2.6280534,1.025014,0.0074407086,3.784266,2.0697372,7.6864653,2.2258382,1.9669794,-0.5446885,4.674751,2.3727183,-0.057743024,-5.7826614,-2.48292,12.291754,-1.2435017,-6.3297377,2.4063072,0.46347803,0.337906,2.1447701,0.82100874,-6.0501227,2.9053886,1.9362096
transport_0a6ecbf7-90ca8b85.jpg,31.400097,-2.4593759,5.22484,2.5480363,-0.9627683,4.0811596,1.7599236,59.71687,10.406969,-0.33319414,14.372772,0.5708674,5.9304495,3.4444191,7.1776285,0.80180264,0.34641063,0.3810884,6.1925488,2.9363844,3.609099,6.3122435,0.18001571,5.5573635,6.030972,-0.5446805,2.2824404,2.4241686,-0.6615723,-0.83108264,4.4607973,-0.36856887,4.4577928,3.577973,3.2693968,-1.106529,2.499855,-0.2627136,-0.118750796,-2.018619,-2.7567854,3.5705605,2.113905,0.44852105,4.0227203,-1.2795898,4.2920613,-0.06616372,5.592537,1.8686371,6.776734,2.5683527,2.8733108,-2.7008212,-2.303072,6.6745577,1.6104565,-1.7896652,1.1211823,1.2605138,-3.497326,1.2138616,1.0466328,-1.8430693,0.30789325,0.094275266
transport_0a723d61-98856fc4.jpg,29.399612,0.90222454,1.9710587,12.255647,2.3768156,8.543931,11.080953,42.00345,4.8170257,7.883232,11.119807,3.4809783,19.578943,2.8439906,11.899755,6.775661,5.5051775,3.9725451,9.535558,1.1593659,2.5370765,0.020670006,-4.7427263,0.21081576,10.267251,3.2038887,5.3756313,3.0642881,0.7024204,2.0421987,8.588817,5.569247,3.654413,-0.45590428,0.9374713,-0.25921372,6.437511,-1.270154,10.330374,-2.5642722,7.3142557,4.6126103,0.76220465,-3.038189,16.809597,5.123285,5.344574,6.2892065,3.538488,-0.82045066,4.4810667,1.6774483,0.3451927,-3.4064755,0.5712913,13.17052,-1.6453736,-1.6453315,3.9463327,4.34371,3.5061479,-0.052655768,-1.5324802,-2.1827264,2.1061962,1.6500655
transport_0a94788f-460bb359.jpg,25.287321,-0.23276517,-1.2872173,0.594169,3.4029856,10.668119,-1.2031212,48.105396,7.214655,2.4173272,12.949393,1.6009603,21.169851,8.938992,10.703745,10.710012,1.1341767,0.80988353,9.50851,4.2296896,4.024256,0.6576536,-2.0946236,1.6575117,4.6910143,0.46847254,4.9686117,4.57463,-1.242174,2.1465569,0.94042253,-3.039853,1.5336889,3.5737867,2.4493158,3.3502228,-2.0635235,3.753355,5.797341,-2.7116787,3.6543157,-0.40975893,0.9745555,-3.7637677,0.888288,-1.3049867,6.6582084,7.1759067,4.64404,-1.1572021,7.6640024,1.472435,1.5322245,0.6326602,-2.3896768,11.8721,0.96604097,-0.6135392,-2.0108144,3.0593097,-2.099837,5.73884,2.290502,-1.5674449,-3.6782365,0.42207497
transport_0aa751fe-30478931.jpg,20.877197,-3.6824856,2.0403118,-0.5045049,0.56511027,9.158942,1.892985,58.748173,8.832828,0.005600974,12.533811,-2.5098422,10.940385,4.196723,8.715696,5.732745,-3.3279593,1.0591567,5.706624,2.304112,6.4345026,2.2898417,0.8793915,3.6308718,1.4215066,1.7297484,6.7908854,-3.487985,-5.2123013,2.5314872,2.6926134,0.03644284,0.7273961,-0.9431667,3.7959397,3.1984572,2.1012304,2.7111092,4.8240414,-2.7115111,1.6274697,-1.665125,0.50050616,0.47245425,-0.32859305,0.88114244,9.08066,2.4415638,8.505027,3.8848772,2.5947173,0.9601735,-0.93017554,-3.7431579,-0.42041385,5.849771,3.5490687,2.2683668,0.25218698,-2.1922116,1.066225,1.1105729,8.482069,-2.3894856,-3.011127,-0.14251111
transport_0accdaac-8ac51d5c.jpg,30.503124,0.51279134,-1.6358362,3.537743,0.05482256,7.639593,3.430889,54.27656,5.0638485,8.335136,4.937456,1.6569796,12.922554,5.483173,9.663922,3.8483493,1.105098,6.3719764,6.4392405,4.8401623,18.961613,1.2331741,0.2498161,1.8109647,7.6499505,0.25652853,7.5047836,-0.052057113,-3.1649084,0.7132529,5.749673,-1.1437435,2.9221866,2.7686913,6.5866485,0.47256994,-4.4138055,-0.93383473,2.7206378,0.47936085,0.9867075,0.1872845,2.1282356,1.0956422,2.5158284,-1.7598239,10.410815,3.1594667,8.81679,2.4084716,1.1417854,7.746119,-0.07633501,-0.551672,0.5486541,4.3025904,-2.9458492,-1.3360443,-1.1110138,1.9046512,-1.0241271,4.580098,-1.8068088,-1.9535766,-1.4912647,-1.3170116
transport_0ad5691b-3bf82944.jpg,20.21557,-3.556837,11.756174,-1.001782,31.326899,11.368081,0.25084376,30.805939,7.965361,14.096342,9.66899,-2.8134592,37.872204,-1.4148169,6.5281997,1.0944765,0.50315547,-0.8023889,5.310676,6.8063726,8.381103,1.615455,-0.80583644,0.5219683,8.844032,-1.3116213,3.1159742,-0.3783765,-0.27942267,-2.2240813,1.9956403,1.4336493,3.5198529,4.9523535,4.748743,3.226522,4.5320077,1.5139179,7.258904,-3.0160134,2.8866296,-1.4546027,9.850985,-1.8305633,1.9421544,2.6655715,9.306338,5.611773,5.8160295,-3.7032166,0.23944396,2.8186436,0.1696311,0.310744,-3.1120467,7.196964,-0.72785634,0.93864745,0.80033505,1.506528,0.5673482,2.257655,2.4743016,-3.404743,-2.2573524,2.688171
transport_0ade56f2-a8acc98c.jpg,30.529305,-1.8849041,4.7748446,2.8057702,-2.3283951,11.595687,0.045212872,56.04606,10.015674,5.190486,13.849335,-2.1578026,8.618619,3.2603495,11.328683,1.097916,1.6598225,1.7492394,2.8834724,0.7992141,7.694324,4.117493,-4.9939322,-0.3353594,5.8962116,-1.1822413,3.399478,1.2640338,0.73162943,0.23269923,5.1492214,0.03963737,4.6357813,0.46142885,3.5026565,2.0137656,4.266954,2.2567298,-2.044729,-0.28025863,-1.6190131,3.453893,0.5062685,-0.026908424,3.705395,-0.29215646,3.619231,-1.400571,6.159012,1.1654813,6.446862,3.0679562,1.3537818,-1.9757204,-2.6367972,7.208081,0.51134294,-2.910592,1.5325593,1.3890207,-1.1444775,4.5569477,1.9243293,-0.30605152,1.2677621,-0.09354386
transport_0ae24ffb-69150487.jpg,34.845856,1.1544633,9.788882,-1.7096245,-2.229625,5.5055313,-3.239249,67.16854,6.584885,4.79735,17.435017,-0.049223844,2.2499847,2.0542,5.6417203,2.1204531,-0.9421738,7.0448413,9.600866,4.8379755,3.0926368,6.886502,1.2751051,5.595391,3.8141336,4.0947475,3.059548,3.0211172,-1.4949788,2.5183759,3.3913825,-0.8001866,-1.6892562,-4.1026287,6.8875523,1.307698,1.731306,3.4998317,2.3389802,2.631761,2.0667894,3.6267035,3.443753,1.7243465,4.9253793,4.035618,5.9841657,0.8244912,7.0684648,1.9624892,2.3205454,-1.0700905,-0.75121105,-0.40696254,5.586215,3.486941,2.7329664,0.28765807,2.6325665,-0.5078004,-2.0165427,0.9635924,2.4486039,0.07207775,0.48462665,0.8775767
transport_0afb7706-1fddf2a5.jpg,25.36225,1.378681,4.9580584,4.859592,-1.5622811,4.222461,3.8341892,56.847584,11.666731,-1.7991718,12.074173,4.9706383,10.602514,7.7268004,5.7225504,0.68432444,-1.7193165,3.666567,6.3420467,6.557494,7.3116345,3.9715354,3.5112064,3.1789734,2.1659384,-2.4050455,5.5203614,0.5705147,-0.6377217,3.4083035,0.44320658,0.028196583,4.7628455,1.9147271,4.3411546,0.6142145,-3.5284243,0.13459577,1.4416102,1.1933738,0.3712896,-0.29200158,1.1373923,1.1301775,2.6396134,4.2868857,8.346033,3.627421,4.488371,2.569022,1.8001418,-2.8236215,-1.1381023,-0.71720815,-1.1975096,6.1940765,3.1932087,-2.6658962,-0.13939077,-2.9011154,-4.4548607,2.6223052,3.7817338,-1.1118819,-2.0753505,2.2175736
transport_0b16507a-49b0ca26.jpg,36.41975,3.6500747,4.130378,1.6345732,0.52513385,7.8617954,6.7467875,49.25528,9.769997,5.6580276,8.797178,-1.5742809,21.476341,5.0193176,9.681264,6.7836127,1.2254794,4.8980103,9.625727,3.0017884,6.1304684,2.0059876,2.0534432,0.398768,8.556263,-1.952745,7.0038214,-1.7269704,-2.6398633,2.7847924,6.3547792,1.5286691,-1.262906,-1.9225012,3.8490572,5.3885403,3.4476235,-1.3227632,8.0389385,-1.008741,5.927237,3.216807,5.434133,-1.3817692,3.315854,4.0362396,8.118569,4.289177,3.2642193,-4.0154505,1.4133699,1.7269753,2.0993369,-2.5846844,2.2941716,9.593985,1.4517033,-0.8163936,3.1937613,-2.4095008,0.6069783,1.060952,4.8272705,0.43924093,0.53472525,2.5494926
transport_0b3cc618-5302d030.jpg,31.532578,2.6001158,8.71181,2.960682,1.5593785,9.991084,1.2122259,62.807667,7.5800033,4.5176616,5.3670278,-1.1845527,10.793154,2.8523688,3.0793788,9.49086,3.4528925,2.8059535,10.438749,3.038625,10.4397955,3.7509327,-1.5600256,2.4931126,3.7324264,6.1474195,4.6935277,-2.0583875,0.537647,2.4438071,0.9093364,-0.15191501,-3.6664584,-2.5862377,8.670671,3.1097467,0.684416,4.833592,5.6543145,1.3223909,4.719442,-1.0427747,1.4142132,-0.2260853,3.112939,2.5815763,7.790257,2.4277728,11.212,2.783129,-0.96720386,-2.39397,-3.0251577,2.4442372,3.9075787,2.1348329,3.2122173,2.8693118,-1.3189654,-1.0762012,0.107913956,3.7628808,2.4870753,0.39960346,-3.096575,-1.2250984
transport_0b498ab4-61a88e2e.jpg,21.145262,-4.5203834,1.331444,-1.7297106,3.9222312,9.692568,3.947112,60.18665,6.2633405,2.1973956,10.642731,1.9219782,13.799724,10.382785,7.944934,3.6224902,-0.7213242,-0.9824811,2.62046,1.0894384,2.8331332,5.551724,-1.6532109,1.4780375,5.1745443,1.2944117,4.9527206,-2.4416234,-0.32361132,2.9704356,2.4035218,0.28856984,-0.40347242,4.264826,0.049691927,2.901152,-0.62101835,1.4464313,4.497367,-0.31654948,1.3036994,0.31261602,3.2414126,-2.3399167,2.7160616,-4.0933213,5.026995,3.727971,3.5060172,1.0037675,4.751048,0.6883793,0.82154405,-0.5964111,-2.4095404,10.112904,-0.5504689,-1.5109532,1.122574,2.650172,-3.976082,5.9940124,1.2268167,-0.810552,-1.243145,0.14218241
transport_0b5c145d-8dc9eda0.jpg,29.643864,3.0747557,3.4507236,2.323699,-2.3337455,9.183349,1.6930485,52.642094,8.473391,4.3170667,15.275112,1.8394839,8.279298,11.946541,13.5376005,0.3665357,3.7251391,-1.1737379,3.8469036,3.7707627,0.26914188,-1.9092957,0.46215242,8.70553,6.093127,-5.587671,1.1385193,-0.61001915,-2.3612845,3.15262,1.071152,-1.4391087,9.209807,2.4858902,4.838082,5.5390077,5.6370606,-0.93839693,-2.1237898,-3.2190685,0.4228237,3.5043929,1.8137794,-1.8085515,1.7686416,1.0777714,9.236734,2.3738194,4.9672337,4.3070326,6.30861,2.2299848,2.1634538,-3.2930028,-2.3659012,10.551672,-0.76314676,-4.8403645,2.8415263,0.003596046,-1.9229529,2.5134416,3.008107,-2.5199733,0.16417755,1.5922679
transport_0b73aac9-f538cc1c.jpg,33.39307,-4.2874494,7.873644,4.40592,-2.9220834,6.7600765,2.1377056,58.26087,10.333046,5.281309,15.85426,-2.5386314,3.9810748,6.0552063,7.172688,-0.89313316,4.7238307,0.5107349,6.106388,-0.9632687,0.035118777,-0.13507465,-0.72736907,4.567973,7.0579367,0.67985106,6.2875166,0.5878356,-0.960524,1.4956168,2.2420123,-2.453774,0.9132899,1.4514257,7.5998993,3.0573008,2.6044497,1.5485961,0.68567246,-0.9056967,0.7547688,2.8632216,1.9667099,0.7480653,4.6442223,6.1188025,-0.37032253,0.74810964,5.938265,2.7477367,4.9006147,2.5900657,3.5869415,-0.03167414,-1.0730686,5.8430047,0.45168632,-1.4834857,1.4495647,1.4295187,-1.811973,2.1181357,4.5148463,0.73906076,1.3208772,-0.66353977
transport_0b75c7f8-b96eda13.jpg,26.072344,-5.59582,8.557957,0.83786446,-3.3932488,9.7845335,0.5221678,56.825912,14.260012,1.3584284,13.871956,-0.14006254,10.415554,-4.1901255,6.880866,1.713521,2.3589256,0.8366717,6.453929,5.6136794,2.50871,3.8125482,-3.6516185,3.1890483,10.475317,0.31063095,2.0521007,-0.59500474,-1.5041219,4.3637896,4.3537765,2.7853842,2.6877244,-3.226512,4.608806,-2.587955,1.8705238,2.521408,7.411459,2.7922301,3.371308,1.8867811,0.20611472,-1.5930116,3.2080996,1.5659729,6.432113,2.8814669,6.3779936,0.78241754,6.25173,3.5840907,-0.034436584,-1.4179143,-3.3364177,9.318751,2.5158892,-1.3658373,1.7385211,0.12945417,-1.3087091,2.8760173,4.8801045,-2.2237399,-0.2578722,-2.6055954
transport_0bd530d6-76c9b321.jpg,21.166506,4.2455487,3.0038166,2.8284523,-2.055026,8.932118,7.4884467,60.448067,11.702475,2.1596932,16.295353,1.9852182,9.808475,5.8589344,7.3105946,4.7396045,-1.2650837,3.7333503,4.784522,4.4638276,1.8922799,2.6934392,-3.9034166,1.2439482,4.4913282,4.043771,2.7942657,-0.45189667,-1.5197501,2.7260401,3.006972,1.2795187,1.3831863,-3.3145137,0.8240834,0.44142613,-0.21347347,4.2618127,13.637367,-1.9240586,3.5830572,-0.3317386,-0.62182367,0.1309757,5.354952,1.7609233,10.737371,1.5917083,7.9078913,3.669234,6.1508455,4.2333503,-1.3426358,-3.1750038,-1.0267843,10.908989,-0.22469875,-3.5392714,0.93758124,-0.72481036,-0.504924,2.7516897,0.40682462,-1.577796,-2.8201227,-1.806096
transport_0bef9055-606922d8.jpg,30.990822,0.44380882,4.037012,-1.7190924,-0.238638,11.977242,0.97683233,48.044792,6.227986,4.155073,7.325072,-2.5976355,13.885504,7.819463,5.271166,-0.26055074,1.2444917,0.7685018,0.4945879,2.5389085,8.87891,1.7141063,-0.45545292,2.0065408,3.8137064,-2.0971506,4.843242,1.0415449,-1.2388994,0.94294494,4.0048757,-0.8769977,6.3410683,1.8146824,1.5645481,4.351594,-0.68007624,1.2981626,0.83455855,-2.519041,-0.24611121,1.9412775,1.7187476,-0.13622,2.110647,-2.078901,7.950229,3.6148245,7.7878532,2.920943,5.5797095,3.2753143,0.004856847,-5.0183387,-3.9071531,8.112858,-2.8253734,-4.1738553,2.6032705,1.3133008,-0.17005771,1.2788435,-1.4255507,-4.4291553,0.5663013,1.4026862
transport_0bf7162a-00000000.jpg,36.87914,-1.7205695,5.2396717,-1.805198,-7.016317,12.832509,-3.7577786,47.56508,6.7213135,2.619435,8.720359,-6.120002,17.529032,7.122679,4.9452853,1.7837093,3.4994237,3.168971,4.2316275,1.0433786,8.365802,1.7673178,-4.717736,0.7492452,4.228268,-1.8119189,3.7614577,6.3276014,-2.4229522,2.7279503,0.5481868,-3.0218873,2.8616016,-0.72690415,4.7645016,1.6576066,1.738831,-2.1148162,0.6377702,-3.2462723,0.2800594,2.10542,2.291507,-0.65290403,4.288182,0.042499997,8.62414,2.1881,4.5945263,-0.23685643,5.9685683,1.6772797,0.0042864587,-5.8234596,0.87726897,10.001579,-1.121459,-2.9887128,1.0148975,0.6918291,-1.522133,1.74612,-0.94407684,-3.6155314,-0.5803519,0.676232
transport_0c5636b3-00000000.jpg,32.383778,-6.1325426,4.7439227,-3.5422456,1.7732041,13.618544,-3.786681,58.712143,5.255375,8.598564,11.143366,-2.1166694,13.451961,-0.9459885,4.272734,-1.1505942,0.055607874,-0.06938297,5.671481,3.433895,7.163912,1.7219424,0.8563944,4.617757,4.05775,-0.033785634,3.4241042,1.6876082,-1.4617195,0.15153694,1.9152611,-2.7724476,3.2393997,0.06965017,13.94611,0.32278556,1.7052928,4.7468505,-0.76875293,-1.9840851,-3.9949589,4.18876,2.5138552,6.078009,2.5492516,-0.64346004,7.171957,-2.9422073,6.625496,-0.025747322,6.2372713,3.69014,0.12722756,-3.8044226,-1.5975013,5.397605,-2.4337356,-2.7337937,3.6474957,0.62920356,-1.0392709,-0.18301085,-0.1207402,-2.6631203,3.3763685,-1.6071405
transport_0c7914cf-00000000.jpg,30.878792,0.84839314,3.4756427,0.48824242,1.846731,11.631908,2.8694265,44.511192,9.834483,3.8396635,6.9607706,0.1771056,20.08098,3.2551262,11.907652,1.0614829,1.5060036,1.5568421,9.019353,5.7012887,10.23831,1.426215,-1.8584311,0.823854,8.775743,-2.9817917,2.8838084,-0.77161026,-1.410757,1.9556996,2.0419865,-1.7427919,4.9470477,1.0373373,1.8071115,2.8735352,2.4764106,0.60071015,2.0875485,-6.185562,-4.2495923,3.6503189,-1.090515,1.0613189,3.1470225,-0.9743331,12.033536,2.803957,4.21749,-0.22978894,5.0085683,5.569296,1.0815104,-3.5784562,-1.0032643,6.631256,1.8105104,-2.2042172,1.5275971,-0.24837731,-2.101132,4.4681873,1.9186146,-0.1034176,-1.9437695,-0.9613135
transport_0c7d02a2-7380867b.jpg,28.87284,-2.2305486,12.520133,-0.027605612,-6.044365,1.6877291,5.452542,60.765594,11.316635,1.9396554,10.321488,1.1377759,11.216899,5.7214947,4.2984753,4.7689276,-0.6769171,1.3839661,9.343483,4.1697583,4.1666665,5.0734825,3.1664827,3.2561634,7.895683,0.8646315,5.7408633,0.018430501,-1.8681035,1.9938304,2.417675,2.3903713,1.4437896,-1.3626038,3.917044,3.3087454,1.8210745,0.51274395,6.603499,-0.5380382,0.8102084,3.613113,2.9288485,-2.3610353,5.416921,0.8380968,8.138835,0.2147764,3.1859353,-1.7251017,1.6010368,-1.7915329,1.3114812,-4.103825,1.4381973,8.087797,2.656187,-0.22692299,2.2768977,-1.3899367,-1.3741802,0.39143842,6.2328854,-2.288287,-1.6517731,1.9945492
transport_0c8b32af-2d9a2bad.jpg,25.934425,-4.2931995,5.8608923,0.78727335,1.3496585,8.16962,2.7098,62.548702,4.969395,3.7165933,12.669061,2.5103438,10.587125,3.765736,8.52395,1.9053271,-0.22770278,-1.8413213,3.9696395,4.448457,10.948256,2.4272418,-0.15811491,1.998131,7.068768,0.9681304,8.505817,-3.3936992,0.17773634,-0.13319013,3.4256504,2.0833287,2.3634233,5.0602427,3.9762518,-0.04120022,1.447571,4.1729097,0.99984425,1.4800917,-0.31086308,1.1558764,1.2933239,1.0097076,2.9632215,-3.7256737,6.0708313,3.789845,8.422377,0.75790167,5.854433,1.2321204,2.0702214,0.45284313,0.8798061,6.914727,1.5124443,-0.35113144,-0.07225205,1.0196317,-3.1683927,2.620138,0.533556,-0.23904452,2.3042772,0.5776713
transport_0c8c70f2-91d13ab7.jpg,26.293674,-2.9679737,7.38554,3.7259996,-3.014689,5.670667,3.188395,56.269733,12.075093,0.9211379,10.442686,2.986169,8.40304,9.722368,7.019788,-0.19887406,-0.19705668,1.329782,3.5007749,1.5378988,7.0544252,1.0683311,4.1888075,3.6837122,3.225212,-2.886076,6.7501636,1.0072536,0.68491715,4.4941597,-1.1417841,0.33818763,6.985335,1.7674704,4.8215847,4.351961,-0.46810144,-0.56658953,-1.6885834,1.4208884,-0.36044708,-0.2590837,1.3240888,2.5549102,1.8498652,0.33809984,8.62752,3.1326208,5.4700403,4.4204392,5.953032,-0.8446503,-0.052416883,-1.9068924,-3.2157824,7.2551675,1.2788657,-4.4218554,1.5692025,0.6688902,-3.1007662,1.1003118,2.3316133,-2.3877573,-0.29630297,2.1750643
transport_0ce5101a-319a76bd.jpg,23.401445,-2.8053179,5.4885025,2.4545124,1.9025657,7.5964556,4.9721894,53.70153,8.323346,3.6356404,9.424266,2.8942795,14.501084,8.200557,8.48641,6.891072,0.09841621,0.2477318,8.01081,4.754615,1.5072814,4.5833645,-0.5708375,4.59615,4.9343214,-1.5499998,5.38999,-0.39292043,-1.94509,-0.0946912,4.1084824,2.628419,2.9376528,4.8973207,2.5863132,2.3187532,0.6165152,2.8500316,4.390651,-0.16980623,1.1697385,2.720483,4.4641204,-4.028529,6.057819,-3.4970157,8.122233,2.5670629,7.0244813,0.88672656,3.206496,-0.79275566,2.435302,-2.5069802,-0.8572,9.610375,0.7987826,-0.8409069,4.3223825,1.2138596,-0.3523412,9.128933,1.0614197,-2.3385274,-2.268671,-0.07450199
transport_0ceb02a1-9d255d46.jpg,26.600903,1.5610652,6.032274,-4.32579,2.628856,9.990584,1.3332584,57.61033,6.7606106,0.30602655,13.000096,1.1110164,14.801852,9.199453,6.645932,6.048885,3.5903926,2.7396905,4.6152024,3.7597458,1.9615505,1.7508845,-1.0593331,10.065933,7.4203396,-2.604628,3.1282327,1.8763857,0.7338878,4.440604,4.15737,0.68749833,2.3237727,2.381527,4.0549808,5.328582,2.1182072,-0.89112335,7.009885,-1.7215099,4.6218047,-0.15541585,3.6322732,-5.3137507,2.6902828,1.4804204,6.0065002,4.7683635,1.2186011,2.4429686,6.5197954,0.4478521,2.5254295,-3.5771165,-1.7300321,12.765831,-0.2690834,-0.7329043,1.4680158,2.4926457,0.4975616,1.7392323,3.8919733,-3.835332,0.07136063,3.2648683
transport_0d13ae3d-e9464364.jpg,25.542963,5.8465695,-0.18957253,2.233633,3.8020287,12.414087,5.47152,49.297543,9.240438,7.5290494,8.957522,1.5284994,20.74165,11.106367,9.3967705,2.6433256,1.3212445,7.541708,4.822734,5.8644958,4.083251,2.3224463,3.090241,0.47144172,7.162967,-1.4142567,4.7672024,4.0309653,0.51965296,5.8355246,1.4097472,1.4913698,3.280135,4.3329773,-3.165037,8.310917,1.246657,-0.14732517,7.3987136,-4.8070965,3.250365,-1.8833214,-1.3016818,-3.2146976,0.7554268,-0.42510274,10.678802,8.189789,1.8684138,2.4734526,5.651536,3.8856912,1.7839987,-0.19591807,-1.5908307,11.900229,1.6078843,-1.9451616,0.20009442,2.3560097,0.31863815,10.677084,4.263095,0.25079393,0.49822786,4.5875926
transport_0d207cff-4d922795.jpg,25.895782,-1.109519,0.9992937,5.286175,-3.0379002,6.207504,3.8500555,61.069565,11.890422,3.2786682,13.929033,1.701139,7.329362,10.664502,4.2819524,3.4048035,-0.6017519,0.34874263,3.8879793,0.6967335,6.963812,1.4979645,-0.021657255,3.5589318,4.165485,-1.0541129,10.27979,2.0500648,1.51167,1.4419749,0.05010646,0.2492045,3.08607,2.4898124,4.4911666,1.9321468,-1.8161569,1.3905685,-0.70724106,-2.1415968,-0.60000485,-0.6101502,1.3328632,-1.704398,4.8901076,2.1072617,2.0435255,2.9190824,6.1138363,1.5762478,4.3842545,-0.397045,-0.71201015,0.74034756,-0.64464456,6.7400923,-0.14644265,-2.430315,-0.4912099,-3.0774882,-6.336138,2.285036,0.5666372,0.21991311,-0.43511224,-0.31609786
transport_0d7b89dd-a640ba96.jpg,22.400576,-0.7053817,6.192728,5.2160845,-0.26536906,7.2444773,7.3342085,55.669666,13.505176,2.6004014,14.166917,8.136766,10.872052,6.331425,7.3860126,0.44307703,-0.7895291,2.9291584,2.0246577,5.4517627,3.9444468,5.396554,7.6325746,7.3134346,5.3109307,-2.1567078,10.824288,3.0172646,4.4916415,3.445892,3.4627562,2.9798567,5.5865874,2.5407481,3.1656032,3.9716341,1.1732146,-1.3653463,1.9444003,1.2617657,4.304708,-0.2522789,3.5461106,-1.7751716,5.405829,6.11565,7.605909,2.8119366,4.970593,3.117756,3.268192,1.7729491,2.4816728,3.2733388,-2.3862133,11.341884,0.34556085,1.4103849,3.2646856,1.2212719,-2.3446853,4.8732357,3.784652,-0.9638571,1.6950587,2.6978319
transport_0d93653a-52e6eac5.jpg,30.975235,-2.01967,5.0228963,0.20444654,-2.5036213,4.851818,7.3794985,61.584644,10.316026,3.4943678,11.287316,2.6665862,11.507983,5.690452,8.512873,6.9786415,0.24861154,3.597714,11.089845,5.207602,3.699269,5.04668,2.1152587,3.510479,7.021823,0.3159995,5.5523663,-0.8280557,-1.8728409,2.1632626,2.7607508,2.6657453,2.2074027,-0.20419215,3.7991543,3.4745946,1.1671603,0.03668042,6.298199,-0.23314601,2.9064085,2.5229096,3.655372,-1.4155811,5.3644357,2.5577273,7.7905016,0.60041064,2.2269251,-0.59139675,2.1114378,-0.88802874,1.3872987,-2.9204445,2.1697905,9.089845,2.805182,0.6951276,2.816953,-0.5426627,-0.47926214,1.7739906,5.475207,-0.2329746,-0.81019115,1.5600462
transport_0db8d440-cdcf4d0d.jpg,25.150724,-2.3274415,4.8712163,2.313077,0.76899225,7.765779,4.3822174,59.77363,10.248121,-1.3352145,14.154752,0.36841238,12.984369,5.0314693,10.165076,0.82469267,-2.7854898,1.1962857,4.978833,1.037076,5.6710796,5.622275,2.3159518,-0.16508906,1.964514,2.8073173,4.3140626,-1.6879578,-0.3921126,2.4300056,1.7760243,2.440283,1.71954,0.3977066,1.6476105,0.7045923,1.3918836,-2.430197,4.9239874,-5.4557943,0.94720757,-1.0925419,-0.6837976,-4.2087536,0.6139785,1.5960667,7.226055,5.1986666,4.931449,1.4916319,4.542425,-0.29304945,-0.6033472,-1.1867294,-0.72838855,10.07334,2.3440363,0.40965882,-0.27276623,0.709154,-3.3610253,1.8757082,3.8091307,-0.33381405,-1.5385883,1.5114897
transport_0e05e1d7-51f68c07.jpg,22.548426,-6.0871906,10.394481,0.21073885,-1.5172726,7.0762625,5.9753547,60.137905,7.017471,-0.10398459,13.881348,4.4670815,7.552947,11.94483,3.886491,-0.08951295,1.0147808,2.8791707,3.6582198,5.2509565,8.058481,2.2803442,-2.3585436,4.919812,3.6995277,-0.96080667,4.5735836,-2.9730515,1.3942908,-0.0994388,4.526823,1.9546949,3.4522495,2.14478,4.9966726,4.3496413,-3.8790119,-0.053870447,0.7212868,3.8325586,3.1292937,0.064466804,3.0581188,1.498675,8.655306,-3.1339214,6.3976483,2.7590215,7.0196857,2.749306,4.5018106,3.6697123,-1.2321601,-1.2102544,-4.1837087,8.758538,0.11847271,-2.7735107,1.1017001,1.01012,-0.8196417,2.4774272,4.733221,-2.0640478,-0.19432175,0.42071763
transport_0e0ff624-53c9fb74.jpg,29.166323,3.8371747,2.6130586,6.8773465,3.8528352,9.22762,9.278701,47.968395,13.597409,2.6763997,16.772556,1.8616173,18.571915,6.470153,7.123461,4.27565,-0.7112218,5.3923235,4.785257,2.1423378,1.9692755,0.98128545,0.92049754,1.4422283,7.7278733,-0.2726497,6.4723673,3.7258785,-0.028336234,0.8708442,4.5201974,3.097448,4.5148835,2.3959665,-2.860549,3.6632934,3.1339004,0.46607545,5.4503727,-5.673199,1.110052,0.5896863,1.781458,-1.8232988,3.6936667,0.3197587,11.412653,4.9311666,6.9172034,1.4268512,6.7049108,4.2836657,3.118587,-2.1125154,0.77652794,12.26739,1.3716551,-1.1556841,1.79445,1.5911373,-1.6542547,3.5718045,3.8759975,-1.2577934,1.3744856,1.8935333
transport_0e40e862-f22aa57a.jpg,26.849201,2.367033,4.1853356,-0.21070027,-0.17564884,9.286652,4.1479125,38.276497,3.7390585,4.2916665,5.590215,0.05390439,23.571375,7.7950897,8.225844,4.1705976,0.6480584,7.335446,14.061906,7.1448984,12.814875,2.4290037,-6.43941,-0.098265246,4.8677435,-0.069948375,0.75917727,4.2521772,1.2885998,1.7563585,3.3750448,2.9957995,-1.8331823,2.3594465,5.9566956,-1.8346382,2.0505724,0.7531118,10.564941,2.9980888,3.1715858,2.272833,-1.7243013,-2.610913,0.87876385,0.06332798,9.647151,0.065567434,9.822867,-2.2371426,1.2539022,2.831081,4.9143753,-2.6840298,2.5840554,6.9278493,-1.030394,-2.7426834,0.7952122,-1.9075022,1.5065562,8.34488,-3.4409263,-0.9464954,-1.0858991,-0.44972178
transport_0e4ad39c-a888cc16.jpg,27.303764,-5.961752,3.6395051,-0.008845329,1.5609183,13.862408,0.78555113,63.41893,4.8642035,1.8352902,18.186735,0.23400821,12.503721,4.1721053,10.7956705,0.14416295,-0.26046875,-3.6434748,4.011877,0.07027932,4.498794,2.5626519,-2.2880707,3.325348,5.1225944,1.4737349,4.1111774,-0.8208661,0.27683303,-1.2464354,2.3077452,0.8477438,5.6196938,2.3502264,4.164756,0.1372351,0.47262284,1.8316392,-2.9227688,-5.0698886,-2.0071409,1.6477671,1.828704,-2.3605773,2.088622,0.07952671,5.770702,1.4066511,4.990799,1.3974363,4.87197,2.1054063,1.4582119,1.331945,-0.71687835,7.978712,0.4802092,-0.023910869,0.6559794,-0.488157,-1.5557433,-0.24616061,4.0524116,-1.5876286,-0.42437398,2.3534963
transport_0e6ba7c4-656258ff.jpg,31.49813,1.7553072,2.3229284,8.195872,4.9495125,15.370374,4.7979074,47.143646,4.8775306,5.88134,11.430141,-1.5682307,20.143862,8.527859,13.609431,11.00118,3.668277,4.39406,4.9209533,1.6037868,4.582618,4.1052074,0.4746424,3.913662,9.82753,3.9033089,8.222888,-0.2421284,1.6537935,1.6004242,5.021719,3.868112,2.1440332,3.1304069,1.2371196,6.653076,4.3819823,0.30569184,6.881364,-2.1291416,6.7001104,-0.5460456,5.1814265,-3.953923,4.206712,5.0463786,9.970673,1.9758929,3.1703486,-0.37730724,-0.776519,1.3328637,4.266353,0.26105118,3.5276852,6.0358768,-1.327331,3.6515923,2.9564803,4.013425,1.1979549,2.1538422,0.34542707,2.5116887,-1.7549675,5.200259
transport_0e9166d9-0e0ce6f2.jpg,24.84922,-4.5690513,-0.21429555,-1.032127,-2.423573,9.424544,3.9402678,58.392323,11.198043,1.6092105,12.066448,2.596306,11.158349,2.8119571,9.485434,1.5100211,-2.5560195,-0.94098246,3.824067,3.964685,6.6176033,6.1983852,0.43244353,1.679608,5.3477707,-3.6263254,2.1134722,0.9601711,0.16629957,0.9873074,2.2029216,-1.4951047,4.330948,0.8397594,5.811529,-1.5386393,-0.10136459,-0.9816897,0.22460921,-0.7161189,-0.15493035,0.3104777,1.4013637,0.41683382,3.0098677,-0.70331085,12.934754,-1.1875584,9.045839,0.1245507,4.31997,1.5048798,-1.7014943,-2.7810357,-4.7947006,7.1755967,-1.4853027,-1.7816577,1.262589,0.59913874,-4.455741,0.2153012,-0.6372553,-3.389496,-2.244314,-1.1232455
transport_0e9bf060-43193218.jpg,29.267344,1.2693487,1.628345,4.6705775,3.0751207,10.997728,5.1103973,61.785896,3.5601933,8.681228,7.5269556,2.42046,11.422999,-1.0153996,1.6959306,4.967153,-0.771992,6.490693,9.464499,7.514767,1.3970807,-0.5446799,3.0093799,8.501855,4.9794464,2.184199,3.398337,-0.9870081,0.30066007,0.46087438,1.2471725,0.062117957,-3.4294899,-1.1332706,6.8593273,3.997361,0.80792254,-2.358289,4.6650634,0.9050351,4.95649,-2.202157,4.094375,-3.68864,4.1728616,2.2683885,6.128481,-2.9731028,15.347925,4.551841,-1.3137611,-0.75859064,-0.048365586,0.33799163,2.7213466,1.7453274,0.8678595,1.8897146,1.7806731,0.2378258,2.9208677,0.41988698,-0.17529088,0.45705,-2.4230773,-1.6168925
transport_0ec4e1d8-36ec49d5.jpg,28.06629,-4.1347156,6.5712986,7.337377,8.962819,12.94513,-1.9542999,43.536034,8.625067,6.591356,14.829925,-0.81718695,28.950983,4.098288,9.220214,3.1713989,3.9803174,-0.20257616,4.50274,2.267747,5.8578916,3.5039268,-0.60717016,-0.012454018,9.215067,-1.6997222,2.1378894,6.1792383,-1.026839,-1.3636011,2.6127386,-1.3561213,3.1337042,4.3742394,7.0244207,2.7643638,2.3138378,3.2959752,-0.10414966,-3.1510808,1.243081,-1.9232978,2.6344252,-1.3809683,2.2609482,1.5259949,5.639598,2.8846278,2.0240848,-4.249392,2.4089124,2.0183284,0.85619473,0.0075004995,-0.1266472,4.583881,3.914354,-2.7292898,-0.37181476,-0.10646288,-4.9055104,5.219133,1.3094795,-0.40306872,0.622213,1.0843475
transport_0ec9c6cf-00000000.jpg,26.858896,0.8188721,6.2805166,1.3294505,-1.6985044,6.0609026,4.635076,64.86651,8.266989,-2.440358,17.84293,1.49384,5.8671637,8.356547,7.22043,0.76145595,-1.1227214,3.8528223,6.7454643,6.91687,2.8526719,10.369571,6.882053,3.1242733,5.396728,-0.04360657,10.268669,0.9148935,0.32054722,3.8923428,4.261473,2.8847878,3.1757376,1.0795119,3.056916,2.2315676,1.2315003,-0.7541204,2.5963404,0.90208185,2.8009088,0.1989197,2.6742477,-1.6472237,2.139838,0.89191943,5.7641892,2.7167861,1.9993387,3.395525,4.6471334,-0.28120172,1.010373,-3.0570207,0.4541455,9.471365,1.8277161,-1.704275,1.4968272,0.2853848,-1.0969108,3.349071,5.826987,-1.9960496,1.0922817,3.338616
transport_0ee642f9-22c00654.jpg,23.671816,-1.4913225,3.9571314,8.303935,-2.33776,7.307759,4.7659383,42.37827,19.166351,-2.1532137,17.869415,7.204572,10.9126835,2.0584528,8.070212,6.070997,-0.59628713,0.21842131,4.7339907,6.8787293,7.4549155,0.25210428,-2.3356874,1.1501116,8.937953,1.1680615,8.323835,0.46169645,0.8079824,1.4237504,4.6078963,-0.51182324,7.7375307,3.4723148,1.2493942,-1.6318355,-2.0463183,1.084539,-1.1200835,3.9083016,3.188687,-1.8341812,1.7394685,-3.0962496,3.6296573,4.525992,9.895406,12.523749,8.889155,-0.6157274,3.5137718,3.2172885,1.7242289,0.23034719,-2.3852875,7.7913837,-1.4166971,-1.0611088,0.112583555,3.7281573,-4.2104497,7.2326913,0.34949988,-6.3483605,1.6813195,-0.20068833
transport_0f00789b-d701206f.jpg,25.834612,-4.6874156,11.221457,3.2954621,0.46679825,10.207339,-0.3009388,62.30384,2.473814,2.1560717,8.114092,1.9191461,17.236647,4.2367797,4.414703,3.2930367,-3.1191454,-0.59370047,5.3420672,-2.153976,5.828426,6.0484166,-1.5283253,2.1938968,2.1539152,2.761451,10.070512,2.0389757,1.892678,-2.0292063,2.5187142,0.35851806,1.6516086,0.53646564,0.822714,1.7672354,0.620618,0.61364716,1.5618848,1.9437455,1.0555339,-0.5077312,1.812751,-2.6637235,3.806826,2.0645242,5.116871,-0.9984483,6.0435586,0.040821686,3.9016855,-0.8986138,-1.6001118,-2.577215,2.7496588,4.726041,0.63072526,0.8330822,0.04083207,2.4510782,-1.7380592,0.24446249,3.393425,-2.1769297,1.9761126,0.9823364
transport_0f1a2d28-bfa3b191.jpg,22.937765,1.4970053,6.0341783,1.477154,-1.9938756,10.649567,2.5096064,49.144165,14.437194,1.43334,11.224586,3.7905693,14.543716,10.109924,10.668075,6.1396813,0.37381864,0.7398585,3.1582317,6.7476287,3.674419,3.2392616,-0.22039376,10.683409,5.598606,-6.064043,0.84775203,-2.4175656,-0.98143506,2.7154524,2.649216,-1.3802539,7.2879806,1.1492242,2.3593347,1.2345631,-1.6011033,-0.8974472,2.36155,-7.223458,1.878309,4.254704,2.436155,-2.641795,3.203459,0.7696847,7.932907,5.9010983,6.5469823,1.3064829,4.832698,0.6102429,0.0688076,-3.1882937,-6.421134,10.921851,-0.27302825,-3.5682857,2.8277972,2.3339436,-1.979094,0.5605871,1.6420573,-0.79752874,-1.4682566,2.4985404
