image,0,1,2,3,4,5,6,7,8,9,10,11,12,13,14,15,16,17,18,19,20,21,22,23,24,25,26,27,28,29,30,31,32,33,34,35,36,37,38,39,40,41,42,43,44,45,46,47,48,49,50,51,52,53,54,55,56,57,58,59,60,61,62,63,64,65
0.jpg,32.757973,15.80396,4.70587,11.127263,7.002519,46.28889,8.717927,11.664708,9.697851,9.438925,21.020699,17.681036,2.0124729,1.3393207,12.192817,-0.61990047,-0.0772031,7.0853777,4.336173,12.662347,-0.93013996,9.640785,3.2261431,3.4808874,9.17816,-2.7902825,4.28059,22.016516,0.94666547,-2.4914033,-1.128888,1.386481,8.015958,5.28178,13.814881,3.8575723,-4.0470953,16.199068,0.23136213,-1.1657766,-1.018528,3.7867942,2.6203585,11.091096,8.311001,0.8443082,11.492585,0.21792622,12.8168125,2.7624433,-0.69886893,7.2553434,4.3216014,5.6082582,-2.2895596,0.06588632,4.251071,1.1827152,3.212648,3.9140873,6.497669,-0.11886358,6.9162498,1.7593764,1.0610353,-1.5313722
1.jpg,25.806349,51.149185,3.8327434,4.965115,12.684558,36.18294,7.3513613,3.7994843,1.274691,8.655369,8.20948,8.71281,-1.8278499,-1.7910712,8.355711,-4.999099,-0.44761997,13.87177,1.4268668,12.001896,0.53193986,4.517272,4.518738,-0.22544277,3.4706988,-1.1309351,22.017487,21.384613,0.3765246,-5.398228,-0.6802002,-1.6344537,1.1441205,2.4547172,5.6125274,2.1355374,-3.9024506,5.5385685,3.7968717,1.1808921,-1.2356635,0.6602627,2.8377473,6.454602,1.6768234,2.7812104,8.035531,-0.5580589,7.5116954,7.0617394,-1.5319282,7.733774,2.918769,-0.5767899,-2.1926363,-3.0529785,0.64895415,4.357092,1.032052,3.2073646,1.8399798,-0.36711526,0.058286496,-0.5126536,3.4240324,-0.42159283
2.jpg,41.745,20.753496,-3.1063843,16.002432,3.5838275,47.750412,5.8565893,11.027658,3.7822776,11.748036,11.917813,15.62559,-0.36525849,0.24767667,11.570024,-2.4971716,-1.8086871,9.188614,4.139804,14.186582,0.6982828,11.70444,5.787367,6.0829444,3.4586298,-2.877336,8.83389,25.889528,1.7553641,-2.515247,0.4195502,-2.4366431,7.9646893,3.727375,9.603461,3.5901792,0.35938156,15.002558,1.2583978,0.22710943,-2.8826306,4.598409,4.0957522,10.758697,4.943574,-3.945911,14.007002,-0.1083225,14.923793,3.8564167,-0.3983656,7.6936097,5.2078223,2.6490757,-0.48024496,-2.6312716,1.9306332,-0.37841964,4.2717447,1.8338845,7.8650074,-0.5810188,-1.2267796,1.0475003,-1.2407342,-0.46766344
3.jpg,23.465286,47.614132,5.847044,5.6429253,8.3124275,39.495583,5.988893,5.7773933,4.628373,7.018558,13.683224,4.4667215,-2.0401783,-2.3529968,6.9705358,-3.2987385,-1.357417,16.451504,3.4193928,7.466918,-1.3250742,18.715115,1.1837314,2.3876698,3.9488456,-2.7770507,4.2075014,25.97019,-0.49282396,-2.8199778,-0.99642575,-0.84655434,1.3208375,-0.16937405,4.9941473,1.4995776,-6.3371344,5.7901034,3.9926343,0.30405402,4.2149663,2.645747,1.1275988,10.263776,1.0333282,3.2247179,10.483194,-2.1867292,6.1443415,1.4594469,-2.1991231,8.271195,2.058523,1.5029438,-1.4323777,-0.03097523,0.09480342,4.3239727,0.78545076,2.897868,0.9423835,4.41162,2.2504516,-0.53815806,2.0834851,-1.2386904
4.jpg,29.26358,39.503906,3.1737819,5.477277,11.90364,39.50646,13.471809,7.3681607,4.979611,1.9537009,21.368204,14.050962,-1.7273595,0.5917728,5.5341706,-0.18908232,-3.0377095,16.271563,5.3286557,8.026087,-4.361571,11.192739,-2.0386431,3.8433414,3.6182616,-1.083447,-0.501407,27.983156,4.034183,-4.4587946,-1.7208658,2.4128659,4.550456,0.73101133,4.961263,0.23544393,-8.051216,6.3171773,4.3706307,1.2275815,8.888292,3.0248556,18.017963,10.333848,1.1667278,3.782081,11.412217,1.8535097,6.19726,4.8277197,-1.6543068,9.680882,0.81781,2.974365,-3.9872334,2.1737967,0.42350906,5.4291186,0.84981906,2.4260852,1.5771259,4.5732627,4.794433,-1.2499511,0.16778363,-2.7274387
5.jpg,41.62219,42.05338,4.224714,11.866289,10.436758,37.954422,7.5632224,8.5978,7.4973927,4.968347,10.749762,9.615839,-3.61989,-3.627469,3.3306017,-4.747651,5.306686,13.66062,4.5510135,7.816973,-2.278857,8.290712,0.1918113,3.7149935,1.8484019,-0.6767668,3.5532885,26.582691,3.6969683,-3.3233185,-2.9911385,-2.2659266,1.2736595,1.3821973,7.931304,6.123481,-3.8651216,4.417662,6.624873,2.3395758,1.8422649,2.4700313,3.0919778,9.492289,5.2994127,2.3485365,9.196699,1.9435458,6.986723,4.060104,-1.4505752,8.61677,2.9078434,1.7212346,2.3757725,-3.3628657,2.6795986,3.0810623,0.5321448,1.6639755,2.7446938,2.148657,-1.5812093,0.37316597,-2.5046253,-1.4408679
6.jpg,27.589407,51.40932,1.8389888,3.9587948,7.305427,43.84489,8.473537,9.628915,2.2495327,14.897209,10.3315115,2.6625297,-0.94488806,-4.2946315,7.057332,-1.4447495,0.112837225,16.16447,4.905586,9.067872,1.3085973,16.620192,2.8736422,2.8684254,2.719607,0.698167,0.26237118,24.636946,3.1836338,-2.3102455,-1.8043376,-1.0453042,-0.37805647,1.6007032,5.305752,3.170281,-6.46834,6.340877,3.4299195,2.5358262,5.7775383,10.228244,1.9213123,11.549895,4.036271,2.905141,9.545972,0.36014202,7.2252326,3.177325,-0.82510376,9.8582115,2.751644,0.69457084,0.37632698,0.48225027,1.7716829,5.418329,3.6277816,2.6173766,2.3741744,3.4663477,2.3572059,0.46669543,1.8038154,-0.08773361
7.jpg,34.367355,36.80883,-0.62940633,2.4777875,16.826445,38.71959,5.5440216,7.4269943,-1.397639,11.476058,15.956921,11.080866,-0.99117273,-0.3648367,7.6659403,-5.240176,4.513921,11.455445,3.6613946,12.145409,-5.0755296,22.58251,3.8836281,4.1866755,5.4017844,-2.0195446,-2.5343153,27.31068,2.1405208,-2.8787751,-2.3956318,0.13928907,5.491487,2.8533,7.6360435,4.4942403,-5.84778,5.5288496,5.4583006,2.5600169,2.7641997,5.249343,6.6091256,10.175951,4.6334863,3.5777583,12.679124,-1.1015525,8.165878,2.7364705,-1.2730609,6.8628845,3.16508,2.0247743,0.05654916,-0.59072065,3.9470644,2.6191418,2.6295595,3.079654,0.039226934,2.5016189,0.3380728,0.66129917,-1.6077665,-0.96141565
8.jpg,31.406202,45.448174,-0.12831432,4.8356094,6.4865513,42.43361,5.711556,9.4015875,1.5705973,7.911004,19.835571,14.832713,-3.7204757,-0.62564975,6.7320943,-0.16051503,2.28923,15.948937,4.1819286,9.099231,-5.288927,17.969503,3.1714902,12.286301,3.991,-1.8758694,0.018008541,27.901768,2.33713,-1.5733924,-2.383366,0.28450057,3.4866788,2.1880322,7.9107804,1.3480891,-5.6292925,6.1354723,3.7207239,0.6272596,3.1912253,3.6599379,2.22183,11.9487295,4.24867,6.465141,8.698319,1.1053199,6.503766,2.4203193,-3.0381258,8.020522,3.183075,2.0085614,-3.292118,-0.12521558,1.9698298,5.422525,10.574571,3.5031161,1.0149509,4.300353,1.9323707,-1.1560277,0.65446085,-0.6814815
9.jpg,18.511642,44.175083,3.0971856,6.5734954,11.132307,37.855453,11.926993,8.441358,6.402263,8.774174,9.674411,17.915197,-0.6538018,-5.672432,5.7332373,3.351609,-0.69703394,15.617675,2.7436655,10.70389,-5.88443,9.623375,1.2400266,6.3001513,4.4462323,-2.3794844,1.7408576,23.106213,0.8953124,-2.2785387,1.3470236,0.04437156,-0.2712432,1.4682071,9.220586,5.2929306,-5.7557173,11.903939,4.1274123,3.9077203,1.6168641,7.1820865,3.9198523,7.696455,27.375656,4.1201444,9.304301,2.934988,6.3697286,3.8379445,-3.761297,8.999315,3.159731,2.2296321,-1.8656999,-2.346193,2.5966046,4.781683,12.035084,-0.102800414,3.8075309,0.35925078,0.383598,-0.65493286,2.9456148,-2.1793618
10.jpg,25.857826,36.106865,1.9682984,8.023239,8.685001,41.133453,8.69681,5.4586616,7.377556,13.287984,10.000716,11.188787,-1.0751675,-2.762684,11.823141,-1.8583215,2.6006966,12.970884,0.52129257,8.34101,-2.2732012,12.172783,2.5393348,1.6872545,4.673256,-3.905819,17.595617,21.442526,0.9108866,-2.103205,0.4147373,0.010892097,1.035463,0.21156193,7.449664,6.2055306,-2.9535053,6.9577446,2.1118746,-3.200613,-1.3796625,3.863011,1.8096815,7.7449365,2.9358487,2.8176956,12.391932,-0.46460247,9.072006,8.276926,-1.1958042,11.237537,2.4434857,2.9868882,0.50291103,-3.1463087,3.400555,2.5735576,2.24474,2.899417,4.233711,-1.0147997,1.3838106,1.2215174,3.392793,-1.4293058
11.jpg,34.380604,36.05634,3.643181,6.1293325,7.3638296,43.02462,11.339829,7.1917114,2.903373,11.652346,14.607864,10.884602,-0.750227,-2.6925738,9.741743,-2.7358937,2.4872117,18.291792,5.495845,10.485289,-4.993704,21.888962,1.8940412,3.3453133,7.05732,-2.7192886,3.8926616,27.300655,2.717138,-4.4074407,-1.3892763,1.5725539,2.1179361,1.5376122,6.865409,2.2312934,-5.285856,7.6070743,5.527067,0.020466978,5.4959044,4.7030797,3.1358876,8.903414,5.3988485,3.994054,13.528529,-0.085944965,3.6622937,1.3687899,-2.6178997,7.9458647,4.0264955,0.7212689,-2.3048081,-0.8212742,2.04644,4.322857,2.274969,3.5896962,1.5287932,4.4615545,0.58390814,1.3391893,0.54453486,-0.8348534
12.jpg,26.273262,35.9879,4.381949,4.664837,5.934939,43.378532,15.349148,7.7363143,4.3342733,15.722818,13.638621,7.9438844,-0.92525333,-4.7586975,9.367598,1.8367983,0.18520299,13.315237,4.378319,12.34347,-1.8672692,16.94558,-0.2891316,0.40023822,7.0230646,-1.475415,4.0100665,23.164133,-0.42466298,-5.229154,-0.93213844,3.118304,2.8404078,1.1010871,6.4935536,-1.2757201,-7.3070946,8.946449,5.982802,1.6908288,4.149498,4.8470807,3.1525075,8.113511,-0.29539558,2.553351,13.118797,1.5291562,6.1335864,3.3286016,-2.259192,9.582811,3.7460446,4.059702,-2.9081104,0.102880225,1.2984959,4.8725424,-0.33528918,3.1396523,0.9577043,3.9973948,0.10825687,-1.956185,-0.16276398,-3.2107239
13.jpg,15.110423,35.909092,5.7248125,13.583553,9.429943,43.57585,18.512093,0.2895357,8.273756,7.0434175,0.70688564,12.313568,-0.45115846,-1.6475277,1.1428185,-7.881625,-0.19917907,10.3206,-3.7757542,5.9786863,-2.6740491,6.9062667,1.3969407,1.5836577,6.9327803,-3.5347526,24.286379,15.691346,5.8241224,-1.038953,1.7381415,0.8457283,0.7382305,4.3255105,3.5101533,5.559255,-4.464452,14.167965,1.1406078,-2.9362435,-2.6945963,2.0634367,4.056008,0.30988866,0.89182705,4.462278,10.090585,-0.63260835,3.6467104,6.2419257,-1.4642063,7.6238794,4.3810186,1.4904,1.5830531,-1.8373194,-1.7248219,5.4808455,2.4892786,5.102069,9.990064,-2.6152575,-1.6293705,2.1791668,5.5882635,-0.41759452
14.jpg,17.291422,15.7229185,5.885908,17.154238,10.334221,44.707493,14.432112,3.926672,8.029203,17.733992,7.5585656,15.871254,2.9444604,-3.2470868,5.3224397,-3.9585147,-0.5337114,6.177585,-0.40659323,7.2016387,-1.2794435,6.550352,4.0741715,16.560753,11.347445,-5.850401,10.818572,12.555592,7.2595067,1.689885,-0.00670515,4.3568997,3.5269685,4.614159,8.792719,8.463147,3.666414,19.784855,-0.5150779,-2.6542106,-2.8852687,8.288624,2.737312,-1.6716301,3.173986,2.4620943,12.890691,1.0859317,8.599994,6.132634,0.8062722,8.0843525,5.534061,3.6783247,-0.09835851,0.43752584,1.3425635,5.112339,11.951158,5.1850753,13.445069,-4.085533,2.052841,3.1183884,4.319121,2.0974448
15.jpg,17.327091,9.568332,0.97879225,19.500645,10.664433,46.156143,19.314772,8.630928,13.645436,15.380396,8.591162,16.542805,2.7407336,-1.9412212,2.2579002,-0.85427094,5.431836,8.908255,4.6984005,6.1477475,0.59108686,2.5540562,2.2915976,7.5332055,6.6256924,-3.4485936,19.279312,12.23962,9.916247,2.5851943,5.706948,6.6623764,-0.2811185,3.0204866,6.318569,9.364154,-2.374486,19.344633,1.1640098,-2.2120476,3.736723,2.699783,4.5944734,-1.2609,2.5635753,0.038700923,8.454158,4.774215,5.0671988,9.48863,-0.96544886,5.4092474,4.6376595,2.6412,-0.7515479,1.2243507,-2.1256168,2.3341794,4.626087,1.6882727,13.89549,-1.4045206,-1.9314573,2.34976,6.0209513,2.3687775
16.jpg,19.920189,9.551463,1.6275225,19.665102,6.689371,48.590492,16.72587,3.4112186,6.592197,12.014094,7.9547534,17.8059,1.4506832,-3.6871948,4.474903,-4.373186,-1.4894599,9.680661,3.3974404,14.051488,0.99482906,17.268267,5.122303,7.8330717,9.794045,-3.7432096,4.091497,15.755886,15.290422,0.8048297,0.91055286,2.6018643,1.6323268,5.625673,5.19197,7.3832417,-3.2156062,16.603786,0.19362104,-1.4942172,3.1449735,8.261654,0.7611587,-0.0894591,0.82252866,5.507392,10.640102,1.9492112,6.6753054,5.9142747,-2.7855165,6.1692605,6.02789,6.608747,-1.4541489,0.82576346,1.7450398,4.1003203,6.748789,3.105823,10.826995,-2.0782602,-1.0431001,5.9160337,3.2183685,1.3474305
17.jpg,16.581125,3.2171025,3.1779907,13.4262085,11.879366,48.003895,18.151346,5.3673124,9.428403,12.038617,5.3397098,22.74245,3.131487,-3.5964024,12.929179,0.5188366,-5.243085,7.25561,-1.9800551,13.433067,0.13205004,11.971397,0.36089393,8.013622,5.3851695,-2.1349182,10.487783,14.2519,6.4666176,0.1323299,0.34221077,2.1521144,-0.37786484,3.8972292,4.7648253,7.0178723,-0.21174057,17.341597,1.5715648,-0.15269606,-2.5472722,8.778435,23.863132,3.8122125,4.778589,0.026764441,5.684674,2.901817,8.212949,9.413859,-0.06910306,12.354522,5.4248905,6.7474494,-2.4023242,2.0337927,1.1325834,4.602543,6.3733563,3.013559,11.387854,1.146235,0.7542802,3.5037153,2.5789597,-0.7676583
18.jpg,15.9212265,1.565567,1.9421445,31.400372,7.693504,48.897545,13.161209,6.9485383,14.574118,10.186192,6.05857,19.329144,2.713047,-3.5102339,5.455237,2.1203396,-1.9539107,6.260106,5.9673886,7.733146,-4.36835,7.684984,-1.8769553,4.9175706,8.775023,-3.089163,5.546957,12.840323,6.0971236,0.27695772,1.6290041,5.203459,1.6605699,6.0834327,3.7977786,4.811999,-0.8722186,18.697721,2.9692369,-1.3156941,1.6571112,4.4097595,6.530558,1.3495086,-0.30504203,-2.299767,5.910821,4.9910355,6.984046,8.4191475,-0.7774579,6.903185,5.866021,3.5725548,0.725769,-1.0078642,4.782978,3.2855854,3.60663,6.5628276,11.601854,2.997354,-0.8733062,4.649514,2.9192793,-0.02249591
19.jpg,10.358998,1.1949881,1.6295772,15.365452,19.05518,45.8629,10.635432,7.8967967,7.6424556,15.265487,7.260266,29.3419,8.027705,-3.6948047,8.992919,3.7766018,0.43674734,4.742837,1.1502477,9.918423,-3.4380932,4.644886,0.49280566,6.5581985,8.105081,-2.6573315,3.557865,11.412827,3.1792126,-0.3495088,7.4735074,5.898741,3.283433,9.136759,5.686846,5.997565,0.30705965,20.18757,0.58806884,-1.1194097,2.98995,5.003723,27.460539,0.6677834,11.272345,-0.10787493,8.223917,4.928004,6.2891455,4.8890204,-2.9991162,5.3905196,6.879008,13.484562,-2.7204313,-0.82618225,0.1552293,4.3902717,7.6896324,2.2675893,13.125899,-0.5602454,-1.2212806,4.892565,0.6376642,2.3555095
20.jpg,15.465707,11.26845,9.796318,15.292309,22.346125,46.094803,14.107876,4.9890666,11.311605,10.262584,11.495929,24.093939,3.146294,-6.056327,14.47721,-0.945832,-1.000844,7.349863,2.7094448,12.607087,-4.0002217,7.5542383,3.0311875,3.2617211,6.733836,-2.2858522,4.791791,15.090683,5.416738,-0.4520013,1.3514758,0.032164343,-1.0552492,4.492981,4.8813844,5.4209723,-2.6801183,14.062092,4.598933,0.51683235,1.6100566,1.5722165,7.752564,1.1429055,0.9846217,0.59176105,9.184127,2.193982,11.276066,8.150166,-0.39265627,7.164772,5.772286,3.442993,-0.88017386,-0.03069616,2.3944616,0.7642772,3.9857924,2.5070987,6.9836564,2.0640423,0.18745624,3.055428,4.6994843,-0.6251474
21.jpg,17.282814,4.536218,9.899163,15.36786,14.911154,49.265793,12.894601,7.3213367,9.432975,18.260807,11.534077,13.311153,9.073272,-9.18079,15.385225,-0.7814681,3.8938463,6.933403,4.0925064,11.410131,-4.70462,13.827844,-0.020525372,4.2173915,7.677547,-4.230317,-1.1922758,16.776852,2.194316,-0.11464194,-0.102229044,1.6593046,0.29609442,3.7339146,9.005831,-0.90735835,-3.8963563,19.685177,5.0560513,0.9953186,4.023233,6.7045236,3.7507243,1.046855,3.9702814,6.339453,10.029119,0.10839887,12.345896,6.2789736,-0.3835059,3.9258435,6.1492934,5.280047,3.562656,4.7618914,4.928148,3.3599432,4.607646,1.7261297,9.485366,4.5556173,0.5599615,4.3176184,-0.14930013,-0.15220465
22.jpg,21.289297,6.0112624,1.4451442,19.283092,11.428491,47.457794,15.42262,11.81557,6.6816196,14.898954,11.79851,19.349121,3.6576576,-5.4670773,7.3290586,2.689432,0.45167962,9.665184,1.4932549,10.087359,-4.672942,7.6024785,-0.24502575,6.199689,9.273244,-4.9732814,1.070562,16.123644,6.4550095,-2.3093305,2.0427685,4.3582344,0.24952677,3.7223644,9.489242,3.305161,-0.9188121,17.657883,1.814717,-0.9509608,3.1903334,7.482414,20.708364,0.15790989,10.642096,-0.11070662,3.883138,3.4909406,6.446078,7.4679637,-0.68475294,7.231785,3.4149826,2.6400797,0.15780354,4.537127,4.151845,3.6150396,3.177685,3.704026,8.17674,0.04877709,-1.1688156,3.7529304,3.772554,1.2035679
23.jpg,16.98861,6.337999,1.3615556,26.124445,9.344299,47.295597,22.00977,7.578358,9.111614,15.636722,7.7115283,19.348106,7.1215787,-2.2875543,4.351761,-3.339453,0.7987006,7.055238,1.9778503,8.260007,-1.5530665,17.115372,0.568347,6.2079177,7.027278,-1.3866198,-5.582676,17.70684,13.451168,2.0535483,0.08755405,6.00674,2.9114494,5.3305054,6.779012,4.000404,-5.539855,22.511852,0.8171191,0.29375833,1.9605778,3.4797332,-1.0090975,0.24706283,-0.55429995,0.91370374,8.832262,2.7969532,7.0400357,3.1579022,-2.16953,4.265233,1.5558926,7.341861,4.4400396,2.6140487,3.4294333,5.141,-0.36709812,4.1170554,9.600072,0.118368305,1.5008446,6.2027273,-0.22090562,3.1223803
24.jpg,11.366458,6.774464,7.8058777,23.86358,7.97565,50.82258,17.58651,5.116997,11.858461,13.46302,6.3841367,28.725365,3.746213,-3.2131858,11.450407,1.1624454,1.1554579,7.3189588,1.523091,10.122406,-3.2944448,11.219342,4.29518,7.9381557,8.82704,-2.8340924,8.207415,11.53761,5.4473567,0.8282205,4.704222,2.5168304,3.0266654,4.78318,5.5822864,5.169023,-0.43348163,19.327196,2.2239347,-0.59044015,-1.5015825,2.7494214,4.3380656,1.0931665,9.413697,-1.8949273,10.399805,0.017902907,4.8215427,3.2081656,-2.9104092,6.0399833,3.1574874,5.6914563,-1.3950572,-0.025328202,-0.20444766,2.0905879,4.7034254,2.947644,10.943123,-0.12240861,-0.54751337,5.039395,2.5282702,2.1962466
25.jpg,18.139057,30.112854,4.792133,12.37805,10.507704,46.996445,18.070936,2.8444922,8.771403,12.838502,4.1846223,12.807889,2.582625,-3.6826982,3.7424347,-2.806414,2.7768838,9.558914,2.036623,8.9554,-3.7526636,8.378763,-1.0118433,0.20385823,9.14708,-3.5395398,7.576383,18.8104,3.4718533,0.20602453,1.2426454,1.3124592,3.0296087,4.7409444,5.582716,3.9030294,-4.4704385,16.829453,3.112097,-2.578293,-0.48325568,3.658969,3.2373078,0.76420873,1.7137598,3.4921641,15.3464,0.3067115,4.489266,2.9184604,-0.96575123,6.0908465,5.201575,3.1371057,3.9692833,-0.7451118,-0.4582149,4.0195546,1.5063716,2.9161222,10.448532,0.427779,-0.7169932,2.831571,2.213509,-0.4386958
26.jpg,24.784363,10.311871,1.1451834,24.397842,3.4552667,49.497932,17.79326,8.544279,11.392578,6.592597,10.55775,7.3227525,0.59210604,-2.152644,-0.6311672,0.86867297,-1.1773953,10.643209,3.0518637,8.33866,-0.07629823,19.553556,0.9201372,1.9929781,7.032322,-3.8760095,7.76366,14.886044,7.5785694,2.218441,0.8339418,5.185343,0.45804363,6.305129,4.5374193,5.970868,-3.6368544,22.3917,0.57311016,-1.4750786,2.3902426,4.5184255,1.021769,0.4789767,0.65974796,2.8573706,6.7886844,1.6784959,4.7835255,5.061683,-1.4638715,4.377737,5.689266,2.7690222,-0.5063072,1.5395286,1.1353211,3.3003232,0.8797702,3.8997536,12.592934,2.3565226,-0.50839806,5.759953,2.4000142,1.5971913
27.jpg,14.827236,15.274864,5.9973826,17.953718,15.398985,49.76034,18.380142,6.0150094,12.098138,15.715976,6.951299,15.835664,7.0963187,-2.6234827,12.867811,-3.2124736,1.9949412,7.5554185,0.46568075,9.061596,-6.99431,14.876684,0.51452816,0.772083,9.293536,-8.40189,0.7294191,16.864157,6.612762,2.2282643,-2.576345,0.8297142,3.6005206,6.951011,8.683031,3.603796,-4.1203227,19.73314,-0.55493957,-2.657352,3.0028863,6.253155,8.502144,2.9643006,2.346831,1.1314157,9.790006,0.45408493,6.77964,4.9934464,1.793768,3.281961,4.1649365,4.0333233,3.1496222,2.6021016,2.3816977,1.9215528,1.5477842,4.1119313,8.252801,1.9863684,0.94929963,5.1371346,1.0753673,-0.65365994
28.jpg,21.600554,2.170684,1.8526502,19.6781,2.0026398,53.704197,15.594016,11.403675,12.519839,9.032277,11.015404,16.064674,3.4947758,-5.1815033,9.191489,-1.6357147,2.3822315,6.956478,3.5223827,4.7865453,-5.15437,8.380737,-2.254358,3.1209323,9.867561,-1.6998248,8.677927,9.780393,4.8848596,0.8956821,1.7577477,5.594963,4.9345345,3.62259,5.078476,3.070512,-3.5654843,20.65069,5.35977,-3.4770808,4.3245053,0.761406,2.8796382,2.829329,-0.21317321,0.7616306,9.897651,3.1214693,3.433521,5.9969454,1.7115403,6.916233,2.9685793,2.6031055,-1.0933421,5.138967,5.833888,2.056038,1.4602318,6.6302958,12.903732,3.7376754,0.21112905,5.370272,7.032316,0.6193783
29.jpg,31.971598,7.324738,-0.093484856,12.608506,2.846841,52.215897,17.23042,8.095426,4.989152,7.046192,18.103376,7.8218966,3.0255783,-2.8419154,5.131763,-2.3913355,1.7800854,4.901508,3.1880848,6.1617184,0.18926547,6.5033264,-1.283919,-1.7120136,8.990306,-2.1767023,14.008535,14.676642,3.2706745,-2.78563,0.1999348,6.2828155,2.4651282,3.1761785,5.8616886,2.3185172,-0.31920364,17.726002,2.976084,2.393955,-2.0844727,0.8753616,-0.8137077,-0.2632728,0.1684349,4.1268415,11.9683485,1.041403,5.486765,2.1003351,-1.6286936,7.039021,3.724975,0.26742542,2.9709678,1.0894483,-1.593361,2.3123143,-1.1516072,1.5517384,7.7923956,-0.25792447,1.8150512,0.85564584,1.1018647,-0.29609153
30.jpg,26.005825,7.651301,-0.54087865,12.492245,3.7071638,48.20635,23.901884,3.5251672,3.7932818,14.543545,13.572182,16.20376,0.029743277,-3.1803653,13.430487,-2.2667527,2.6461854,11.601365,0.2667532,16.78791,0.4329607,7.670294,4.544411,1.1921774,13.647888,-2.3209116,13.332178,11.840049,3.5734627,-3.494603,0.4682597,4.701697,2.103709,4.32515,8.349315,-0.43535706,-0.6346936,14.77747,-1.6079866,-0.01650313,0.14169852,2.822046,0.4215262,-1.5886493,-0.56630754,2.460863,11.806343,-1.3640457,7.8625755,7.9946847,-3.0548942,9.105806,5.594662,4.0779734,-0.38036853,3.4068835,0.45025814,1.826834,0.90081406,3.3887517,6.080056,1.0643651,0.54107887,2.6853225,2.3433254,-0.6257778
31.jpg,17.741438,-0.72913456,2.6946533,30.199566,1.8637646,48.032127,12.714929,8.946787,12.747386,10.1373625,8.472512,17.793066,6.087641,-4.1345744,8.873468,1.9267353,-3.3559866,6.6814585,4.1192794,8.489037,-0.5627957,16.15327,0.59127814,4.7348866,9.138767,-3.4740694,4.0859966,13.588699,6.120993,0.103572525,2.5297058,3.705091,0.91129875,3.9410326,4.50911,3.2643332,-2.4405305,19.33786,0.6890687,0.6394053,3.4275954,1.8684943,2.9312053,1.0123472,-0.19592196,-0.36073053,5.555174,4.073208,8.418122,6.1095724,-1.9755323,6.004414,4.0340605,4.278241,-0.52302426,0.32889828,3.5598452,3.7048948,2.0232015,4.479175,9.740259,3.2623675,0.6760291,5.11377,2.5500886,0.38585636
32.jpg,22.014223,7.2931976,6.7822328,20.759466,9.932028,45.71305,2.794632,6.9918184,15.654366,11.476092,6.89117,11.818976,-1.7641747,1.6856217,8.483634,-1.265649,-3.33869,13.751314,15.37012,8.366258,0.8678599,29.800993,2.2031446,4.2441187,-0.16849367,-0.68644273,4.542171,18.813145,9.744441,8.578107,-1.5617774,-3.4179356,6.9824486,4.88584,9.190803,4.386415,-4.2817645,10.248158,2.1783428,2.1304672,-4.330902,6.145248,7.925314,38.90193,5.3407116,1.556489,5.030929,3.3793583,9.024316,10.153136,3.6914904,7.3832207,4.717131,1.8970616,1.362674,-0.22605695,10.1405525,3.636685,2.341548,1.7978307,3.49174,0.03293408,4.445746,5.575714,2.6266873,-1.5450889
33.jpg,25.358782,0.2962377,2.176254,18.196356,-2.8932889,46.117653,11.32545,3.6141768,4.6128197,17.7462,9.449164,34.604046,-1.6012397,-2.6719272,13.46253,0.9504583,-1.0479103,-0.43805417,-1.8853326,9.587161,1.8792048,15.487832,3.5089002,6.003234,4.839462,0.019076653,-2.0525973,13.765562,4.0338078,0.41063082,1.263898,4.0114136,5.7846622,3.5862494,3.8725712,2.5225081,-1.4775488,12.567158,0.727408,0.95047605,-0.017315336,6.0589747,0.7404082,7.392053,6.571094,-0.029445253,11.472138,-1.6083639,8.923909,5.0560493,-3.3237367,8.92437,4.585737,32.907787,-0.16147523,-1.5010389,2.361067,3.303688,4.7644405,2.7489648,5.5732594,1.9753386,-0.065732025,8.473983,-2.1848574,-2.0282903
34.jpg,27.081833,-0.5918888,5.960488,18.09212,1.3212777,45.404995,9.482975,4.6366878,16.041332,9.573929,18.896858,19.220024,0.639725,-6.1324606,22.189089,7.0687256,3.0836964,6.981138,6.299995,10.762198,-5.373232,14.624125,1.5900403,0.633847,10.896914,-0.34687257,5.9768515,14.486212,4.437565,2.2663076,0.92751616,6.2384915,-1.5640968,1.4906101,5.254841,4.5988364,0.52071935,16.09578,3.99875,-0.402187,0.7617348,0.24277353,3.5241165,4.559002,-0.3083542,-1.1990128,10.424598,4.124655,9.849268,7.1661086,0.9537571,5.464904,7.344201,4.163331,-0.7366661,-1.7092139,6.7600474,2.9236512,1.7071877,3.695618,10.072607,5.11845,-1.1206408,2.6839657,0.99773335,-0.54343015
35.jpg,19.706375,2.8770957,1.251587,23.340082,4.779103,52.699978,18.614746,7.462225,11.929078,18.39538,7.409656,13.17928,3.3277273,-0.20412691,10.784475,-5.322034,-3.5006113,5.068866,6.968654,8.029675,-0.29486036,28.102821,0.06711222,2.1099198,6.1344314,-1.3998231,-0.9662466,10.778807,9.90434,7.8871875,-1.2672149,0.29716027,3.4127328,8.686374,1.0894773,5.4681225,-1.891609,17.58689,1.0739074,1.0591673,4.028471,11.479691,0.1696947,10.469902,2.7749512,4.4713135,7.2314515,3.5454638,7.50485,2.253515,3.9804056,8.445558,5.843892,13.75408,3.8028765,2.4215603,10.262505,8.109817,6.3320704,4.9666734,9.452748,4.925843,2.2394197,10.189192,-0.7119136,1.1639701
36.jpg,24.318937,-0.64218545,3.00476,20.889757,3.8730898,49.245907,11.157543,7.878486,6.460738,17.99259,6.2210703,19.162178,-0.2727136,-7.2217813,2.4476373,-0.5321815,-0.69385266,7.63178,-1.7993383,11.111736,2.3631067,11.634696,0.14667082,4.0863657,4.0468397,3.063829,-1.5427383,19.041782,4.827205,1.4706327,-0.11422406,3.6199446,3.465176,2.8452663,6.2100387,3.6408253,-2.5149252,16.880123,-0.084644325,-0.4384133,-4.3416686,4.307412,7.9199567,4.868508,2.3331795,-2.447054,9.114972,3.1725123,12.4598055,7.5007806,-2.1282344,10.006708,1.5495741,27.4213,-1.8805593,-2.3180816,3.346882,1.4997586,1.4585463,0.19492415,6.4387093,0.03875643,0.020026648,2.935226,-3.47353,-0.2633416
37.jpg,30.146626,3.584847,1.7943289,12.235585,3.0889752,45.311077,13.182585,12.068821,10.680745,30.132706,21.085114,19.76853,5.254408,-0.536944,15.126659,6.13839,2.559768,8.902737,3.3741794,11.542484,-0.9034909,7.298822,-2.1544375,4.676827,12.772295,0.16440731,2.1946137,18.398819,2.747365,-0.08222132,1.5804093,6.915233,2.186328,1.246759,8.226493,2.6870615,-1.9950078,22.991545,1.1248758,0.14090538,2.253915,7.1009107,5.724622,1.0655652,1.7502308,-0.12626797,8.949025,8.2783785,10.619517,7.308995,-1.3951874,7.975091,3.9114435,5.556335,3.087067,0.49101943,5.352835,4.324638,2.821356,-1.5749689,5.305809,1.1980342,-0.5913463,2.9772353,2.0177586,-0.7436447
38.jpg,19.02209,4.231228,3.2604563,22.477522,11.304732,42.09436,13.491371,8.015391,20.361557,11.855072,4.631288,17.46933,2.168813,1.8032744,8.115514,0.40371838,-0.8895699,13.221796,16.666212,8.491352,2.5481155,9.368501,0.31676656,1.4584908,4.914154,-0.87699443,1.7847933,15.383905,12.529787,8.249069,4.5778103,2.532933,4.536301,4.570703,5.745349,-0.9171067,-4.806238,8.584084,0.34796184,1.9956224,-1.0036904,3.8507688,17.683317,36.953068,2.0947378,-1.3046207,4.763111,2.688377,9.828245,11.090036,5.1851144,6.027807,2.6976905,3.1825345,-2.382732,-0.907317,3.443623,2.9922256,1.5250666,2.653388,5.24959,-0.9566159,4.2882547,4.493046,4.077176,0.096701525
39.jpg,26.490965,3.1375124,1.3870372,17.250832,10.633312,47.15845,9.581984,6.8513484,-0.6483294,14.983888,6.269399,25.090336,2.0350344,-4.4518723,6.459722,-0.3257436,3.6227722,4.5052176,-1.7460812,10.8845215,0.5837977,13.022084,-1.5341548,6.8834953,3.470209,2.3092194,0.7984463,14.459909,3.2684155,-0.36982304,3.720387,3.6970232,10.576275,5.596243,6.037137,-0.44616628,0.06217812,18.659834,-0.6359082,0.607555,-2.5344827,3.8289354,21.71308,6.4048724,7.668246,-1.9269251,12.797657,1.4793925,12.472759,5.475037,1.1247733,7.2262554,2.779757,27.85224,-1.453866,-0.77394176,1.9859996,2.660731,7.9255195,1.3801866,7.6042266,-1.2811525,0.10799335,3.8572285,-2.9213965,0.58855236
40.jpg,34.100307,-1.0385839,5.0267076,19.044077,1.4175378,43.688538,13.0008745,6.2169476,14.970345,12.8913,18.345795,15.411821,2.744697,0.4134288,8.0137615,3.4615364,4.5514765,2.7071857,1.1563404,10.669207,0.49420354,11.765171,2.9093165,2.0196643,7.502817,0.46399707,6.13316,14.74726,8.188115,-1.1464604,1.261209,-0.057720624,1.9312972,0.21265133,5.919925,1.3533719,1.2129586,7.7469826,3.9948297,-1.840552,-2.0187786,4.5698557,1.6708244,13.186319,1.1543791,-3.911733,12.904598,7.134085,12.574371,12.123238,0.2916293,10.01293,2.5151112,14.153123,-0.6540282,3.2596726,1.8333849,3.7392151,2.3347828,1.6800929,3.3724983,1.5093359,1.8637714,1.4841508,-0.89668834,-0.37387618
41.jpg,16.831896,0.933565,-4.184156,15.835106,-2.5861921,40.059284,15.503846,5.429592,9.283535,11.098943,14.115956,24.749653,0.35871235,-6.044126,14.427688,-0.03876062,-3.5223575,3.9120014,3.2678888,12.183571,0.24312524,9.348482,3.0118818,25.687452,7.793804,0.24398434,-0.4177237,5.8092813,9.482897,4.0701647,-0.38086063,2.6303835,2.145937,5.3550735,8.73372,5.5542397,5.4285135,10.465551,-1.5549066,3.6073804,1.9493855,3.034835,1.8969141,3.5796978,0.04748851,8.663116,13.527152,1.1543117,8.914898,5.596278,1.977366,10.586339,8.336392,8.893434,-0.070335716,0.19234055,2.216912,5.8317604,5.2156253,2.3836322,9.754663,2.571195,1.135197,4.2349515,1.3757898,1.2624223
42.jpg,27.943886,-0.5078874,4.290322,18.477116,-0.24878499,46.909885,14.180043,8.498465,7.1502743,25.46639,9.073119,16.372004,0.6776475,-2.6243148,5.774026,-3.693714,-0.25088966,3.6272793,-1.0202928,6.750702,-0.18784028,24.166698,2.1806784,3.5446413,3.2087293,-0.8989329,-0.41359133,17.139292,3.4787037,-1.5157272,-0.44290555,2.4217954,-0.95157474,2.0512838,2.7630987,3.6192312,-2.5142457,9.343286,3.8296971,-1.6615875,-2.4730027,6.9208117,-1.4327881,9.1384325,1.9543045,-1.199369,7.699424,-2.1551764,8.505938,6.771787,-2.458718,10.358606,4.3909473,26.448732,1.2025326,-1.8978266,1.0877079,4.393596,2.8880215,-0.6932421,4.19381,4.1787205,-0.4392517,8.179545,-4.7013016,-0.65947515
43.jpg,26.704424,-3.436888,2.414097,9.309072,15.3883095,44.25054,18.02372,8.797245,9.543836,17.00002,17.445902,14.91168,3.567426,0.13947934,10.394282,-0.9588671,-2.4364572,4.9343276,4.866159,16.868519,1.6680751,2.9015062,4.9883122,-0.7194546,9.501925,-0.11887732,15.7778425,11.192133,3.2349195,-1.2715652,-0.34993044,5.740689,0.99446976,5.222638,6.2559986,4.2600937,1.1756512,15.076973,-0.158274,1.2740151,3.9204102,-2.131518,5.705146,2.440346,-4.53222,2.9947877,10.708382,3.745991,9.376532,4.832539,-2.6139715,8.066378,5.1741962,2.4821744,0.2663956,0.16175301,-0.7084916,1.9502629,1.3328058,2.7242656,8.23813,1.5585786,-1.4435136,1.6473129,4.825007,-0.011500763
44.jpg,17.470789,3.1576185,1.53689,26.627901,5.5475087,49.782883,15.071389,8.134698,12.421966,19.192009,10.505475,8.581428,1.3404603,1.9083716,5.884615,-7.077515,-3.6307552,6.1229205,6.5651207,7.9857492,0.79380006,24.159811,-0.10259263,1.7720838,7.189414,-0.769885,-0.36980808,11.192028,11.401356,6.191285,-1.7582126,-0.441185,3.7474685,8.673935,2.6944451,5.1444197,0.5562787,16.057909,-0.76797074,0.73635834,5.726283,12.970935,0.036854018,7.880011,2.0147674,5.303138,6.5490365,5.1234818,7.0307517,5.845068,2.728741,8.240216,6.20541,7.6096416,0.97423846,0.92860097,4.789257,7.2247295,6.6941404,7.1724877,9.946426,1.3854481,-0.641011,8.723254,2.1977193,2.6057122
45.jpg,15.793215,-2.1690364,-0.49825126,22.318998,-2.1131167,47.25789,13.112892,6.5914483,8.049126,16.753506,8.430817,30.240969,-1.6937828,-5.325157,12.121868,5.402135,-3.7390049,4.6821856,3.4363973,9.107638,-0.5492976,15.750811,0.7290098,5.5995045,6.7624626,-1.2773175,0.8638313,14.552275,4.2668104,1.4008162,0.5069827,5.4884686,0.6244257,5.0427866,5.4706616,2.6821673,1.2442925,17.079884,-0.37005553,2.028128,1.6685227,4.536246,3.9243352,3.7191253,1.2339545,-0.25933963,6.8997464,1.9906561,10.391974,9.552592,-1.0800943,9.154608,6.7197614,28.675217,0.60426944,-1.129172,4.8402762,3.8191867,4.537412,1.6661277,10.145013,5.4839635,-0.6803625,5.380883,-3.7079983,-0.59358805
46.jpg,16.685818,1.7160958,3.5661194,21.615522,-0.27060717,38.110744,21.24006,1.2396278,2.5725114,19.736021,8.433455,32.907467,-3.4192948,0.8151741,10.136786,2.9050794,-2.4209747,2.1027646,-3.8254175,7.6230593,0.50906634,4.5781565,5.717414,9.269108,5.0429564,0.8506487,1.034576,15.556562,2.1266067,-3.244374,-0.8965835,4.4630485,2.7183588,1.8488672,5.62677,6.2541895,-0.7546764,10.295723,-5.584102,2.5620286,-1.924175,4.227738,9.936809,3.6812165,1.1389328,5.2817826,8.489655,-0.77416265,6.7069106,8.917569,-1.3709335,8.272271,3.6611893,37.87259,3.1220205,0.43873346,-2.1000822,3.4373178,3.9645627,0.6656903,8.906581,0.5639739,0.7479975,7.1402035,-1.2209032,-0.7369497
47.jpg,38.28379,2.4050581,4.173272,27.241302,4.9990788,44.160618,14.02439,12.81147,10.779503,12.465867,18.523441,17.28621,3.0770347,3.1936746,8.281085,1.8253645,1.8419209,3.4754493,5.396285,16.248955,-0.6018035,14.182806,3.4593709,4.1841116,6.326833,-0.96316737,3.3525038,16.186926,6.6712236,-1.3428841,-0.66425,0.6453021,8.448065,2.551379,9.798113,1.0673348,-0.10564895,16.180218,2.932353,3.0490918,-1.3733344,4.400484,5.0771184,14.502576,2.8501642,-4.498626,15.9149885,9.301788,15.295161,8.617875,0.03089658,9.0277405,0.744065,4.441882,2.144198,2.747854,5.1975894,2.1996963,2.307155,1.6059524,5.900582,4.357187,1.588124,0.32363254,-1.5262339,-0.62262386
48.jpg,26.147726,1.8549058,-0.08850685,12.091162,-0.2946229,46.245186,14.655283,5.331171,3.7122917,19.065233,11.54871,32.37096,-0.519156,-6.385683,16.364006,2.7956145,0.7113347,2.1438909,-1.2556136,7.874065,2.6656892,6.838534,1.9965038,3.5936973,3.7758067,1.2277073,0.1795596,16.967144,-0.3085643,-1.1557939,-0.5824919,1.6608927,-0.7020114,-0.017870683,9.867653,3.569337,-0.7086928,12.98808,-0.2788417,1.2476935,0.48525798,5.964699,12.932837,6.612201,6.613559,1.1217892,13.503165,-1.204296,8.902244,6.765244,-3.1139653,8.225083,4.5449586,29.062977,-0.47287625,0.93800825,1.4435359,3.752074,4.561427,0.24651009,9.577878,1.9111094,-0.84497106,3.2790952,-3.6567223,-1.1505299
49.jpg,33.030983,3.6320314,7.396423,22.134045,3.503345,45.42293,9.159496,12.633809,18.36922,12.157846,14.321363,9.015759,3.5824227,-7.305114,6.7779927,-1.8748664,1.8526826,7.325816,-0.64864105,11.476682,-1.00191,9.84871,-1.8062681,3.9893878,9.400465,-2.732371,15.79566,14.339906,2.6127887,0.31963545,5.309479,0.3063741,-0.012303144,-2.0971668,5.1469455,2.0038764,-0.20656419,8.2305765,0.18136738,-3.5572596,-0.382515,3.4323986,2.437312,6.2006702,3.4403389,-3.0182383,12.759915,6.3974233,12.420281,9.324142,-1.2096436,10.299744,1.4928428,1.8352054,-2.1270115,1.878951,0.42818224,0.15377998,3.976233,0.946144,2.846706,1.7669743,0.61281335,-0.39988235,0.92868304,-1.4228766
50.jpg,26.515446,-2.2556465,2.9425368,15.363179,1.6385459,48.509274,13.330195,7.333598,13.065714,23.833126,14.814518,8.200579,4.4093003,-5.925082,23.129108,1.7312789,2.8624496,5.9283743,-0.47195274,8.38978,-5.147695,16.89029,-0.7078453,1.5450273,14.37473,-3.2611341,3.8325608,12.051313,1.9782782,3.9417725,1.7461945,4.458746,3.5440023,4.5461903,5.2798247,3.402115,0.967061,20.440304,-1.1071923,-1.3234351,1.8629264,7.518667,0.9516122,4.6054287,1.8830236,-1.7586808,11.124105,1.5009892,8.438967,5.454181,0.50222063,7.707365,8.514855,1.2025402,1.405545,-0.48200172,3.9117024,2.8143651,4.892177,3.8134358,10.074033,3.2977567,2.0228019,5.519092,0.9388959,-0.60445946
51.jpg,11.346728,-0.9569049,5.480683,13.17596,1.8301263,38.40921,11.490025,5.743793,5.2897415,22.940325,8.136551,34.36547,-1.1100354,-4.324084,15.833673,6.2859526,-0.7457243,-2.9270148,-8.725157,10.015738,3.8704066,12.418243,5.803636,4.3353887,2.9249473,1.0141516,-2.3916562,12.289113,2.6372194,1.0438471,1.8473282,4.3619833,5.570879,5.884042,7.374725,3.6021485,-2.463359,15.4969635,-2.889675,-0.74521697,-2.0244508,10.563165,3.609537,2.5077944,20.815416,0.18421085,8.802373,-1.5897123,9.746322,10.267918,0.34448057,4.094148,5.8666096,38.019897,0.30356008,-1.3296082,3.5372713,2.8526895,7.4323735,-0.084534846,5.1939683,-1.0309286,-1.4720423,7.167101,-0.8444311,-0.4594531
52.jpg,31.825977,0.9623632,-2.2279234,41.62612,5.865157,40.04762,17.593035,6.179952,15.022863,12.671111,10.184857,25.419855,2.3520463,-0.99645025,11.303692,-2.7438781,1.8228171,2.671436,4.5248804,20.336485,-0.29560223,8.328794,10.688446,3.1278946,6.8683558,1.257302,0.13513759,11.770728,11.171155,-2.9897685,-1.3954954,-2.256956,11.867649,5.2520905,7.895919,-0.5306295,0.62462056,6.303116,1.8040106,2.2829804,0.62138003,3.1828012,3.6055646,9.447214,3.5606346,-2.7572436,17.107048,5.9834943,16.637184,10.508648,-3.6228414,7.990252,2.1462731,8.82844,0.80849,2.2552025,0.79692805,1.5503151,2.391835,2.7369676,3.7175682,1.2019444,2.3443866,-0.17405422,-3.2042537,2.8651464
53.jpg,27.80928,2.1153371,2.0501301,14.061287,0.6166077,43.7433,14.164374,5.353897,14.596573,9.449668,33.5312,9.814615,-2.7520056,-1.96408,12.9987135,5.4104133,2.9229734,7.6536975,0.9053369,9.042853,-5.695544,7.955429,0.25904962,2.0156295,10.060546,0.30879146,10.788439,11.164252,1.912564,3.5462558,0.8229045,13.6841955,0.2548564,1.6161733,6.5864153,5.597523,2.7431686,13.315304,1.0515021,0.52672076,0.84872806,0.4708338,3.1716301,3.0215037,0.051518623,1.6411729,12.192664,2.7721882,6.105467,5.369794,0.52787244,6.876242,3.9699528,1.540942,-0.62379897,3.1929586,2.8836308,0.21920153,3.7538066,2.970145,10.140332,4.033234,-2.315036,3.4421697,3.6695719,0.24468973
54.jpg,29.583607,-0.1693774,-1.3473256,16.238174,5.7486706,42.63337,11.846633,7.8732433,8.340599,16.33405,22.503536,5.4980845,0.89529824,-1.848382,26.224354,1.3653749,2.9107304,6.1478853,2.8074102,8.823365,-2.0682552,5.5023394,2.5776844,2.73853,8.813338,-3.1314821,26.13554,9.547642,3.3204708,-2.6835952,2.5218594,3.9488626,3.7864075,3.6669226,6.7252135,6.3376417,4.2228804,18.347221,0.6498849,-0.9063363,-0.34899813,-2.0789983,3.8611145,0.8333637,0.5667577,2.7159069,10.083324,0.31963623,7.3129525,5.8273196,1.8383152,6.237099,4.922599,-1.2202816,2.7551758,2.597302,3.0572484,1.5859436,3.251026,4.2603507,10.360175,1.8136095,1.3191838,6.934705,5.157756,1.0906556
55.jpg,23.594265,1.173238,11.009647,27.340454,9.749663,46.608627,15.354908,8.175014,12.257038,24.455376,8.88841,10.536008,7.1984463,-4.2816057,7.25372,-1.4801248,-1.8901967,4.3892345,0.23687762,9.717793,-0.41251323,24.740086,0.86011064,6.0447545,5.4282055,-4.3394437,4.1112175,15.328473,6.8890257,-0.97980386,0.72163606,-1.94166,2.1702435,4.2492027,4.871464,6.5281034,-2.6138396,9.442774,4.093578,-0.9091612,-1.0457261,7.865152,2.7569778,12.715973,6.8714933,-0.6211319,9.010525,9.110354,10.747973,4.7800484,-0.92858064,11.663287,1.5292242,5.3003225,3.4023194,0.45133224,3.5619624,4.529557,5.210343,1.1305606,2.8778648,2.6309962,1.2251107,4.988767,-2.2344909,-0.89955366
56.jpg,26.505348,7.0198603,8.39784,23.893105,7.832481,42.35957,7.808844,7.7820835,17.234303,18.53871,10.073347,7.867734,2.0043507,2.3483377,5.700603,0.6953658,-1.1808487,11.1274605,16.202358,2.869889,2.5477593,18.679667,-0.1889774,2.2000606,4.182964,0.3390076,-0.20350851,18.266064,6.5337615,7.7859364,-0.6813411,-1.6207178,5.2508907,3.4678106,9.350328,3.145688,-1.2201838,14.761494,2.2944908,3.269842,-2.2413855,6.6135125,2.124986,40.58319,6.0977945,3.9704463,7.0378,0.8147374,11.606832,6.6973314,3.9958477,9.217762,2.342987,4.706983,4.1319866,2.0101614,7.4113445,3.4243307,2.1099427,1.540924,4.8671083,1.4283812,6.1604285,7.14188,2.4856832,-2.683055
57.jpg,12.263395,4.1476583,2.4914424,11.967351,2.4284914,44.96305,20.508362,-0.009495951,3.4885793,17.636663,6.8233356,31.926674,-1.5546755,-2.1700115,13.35211,-4.1065564,-5.8329,4.8327255,0.18942773,9.802624,1.9280618,10.379153,4.8298264,5.690162,6.1133676,0.06286744,-5.0747914,15.0748415,13.805977,1.1095419,-0.5993542,0.38265,3.532848,4.2233872,5.7127266,6.11025,-3.9956565,13.35566,-1.2620834,-0.78078204,1.0293188,8.501027,-0.14017713,5.324599,6.498616,1.1132113,11.700356,-1.7825351,4.0621524,6.009044,-1.0001601,8.864296,2.353419,28.062853,-2.3225546,-0.958506,2.0422165,5.8618336,4.8590307,4.9265037,9.050806,-0.14001894,0.21589084,7.7524796,-1.6717149,1.44525
58.jpg,29.044899,2.4049866,9.440471,22.045599,10.654159,46.485138,12.620078,15.539562,8.80263,14.293043,6.901665,11.125466,6.2034445,-0.24152845,4.7322183,-0.73555154,1.4512191,2.754737,0.45709106,4.8898034,-3.692409,6.666305,-0.97101593,3.4522958,0.09364775,-1.833315,14.502271,13.376504,5.2589192,-3.0745835,-5.0526686,-2.066511,2.9155295,2.7696784,4.8070564,8.2606535,3.3837621,7.8048153,5.7583137,-1.1175282,-4.3965364,3.717949,9.7203045,12.536672,3.2347207,-2.14325,10.45646,8.100807,8.501334,10.138584,4.3998075,12.136416,0.6398515,4.3935194,5.04348,4.8551626,0.27689886,0.71419954,1.3516864,3.3510513,4.695401,0.96680784,1.0920787,4.145625,-2.3838248,-0.94910425
59.jpg,32.765125,-0.8619405,1.3824784,12.915439,7.567139,40.85957,12.566026,7.2020955,9.152067,10.181291,18.636015,18.182888,-3.820033,-4.586398,26.353428,1.4870621,0.729941,11.658488,5.3487206,24.306768,-5.01207,21.654886,10.849195,5.6366806,9.763975,-2.242276,5.830705,15.302676,7.732831,0.19270322,-2.3426256,1.5631061,5.6521573,6.782679,7.7686014,3.0938947,3.4550838,13.189279,-0.71680963,-2.0448647,4.592348,3.4673367,6.891322,2.3628097,2.8047242,-4.503791,12.136876,2.6219335,13.965368,9.616308,2.3927999,6.9444838,9.347797,3.5601165,-2.146564,-0.2289148,8.689454,0.73721427,3.6665223,6.1057267,5.0745125,4.584324,0.519155,2.8762703,0.41564667,0.11129454
60.jpg,16.853195,7.903,7.7914596,21.907127,0.35561806,41.991016,12.740702,4.703208,11.917875,14.34892,9.350509,30.026001,1.1641828,-1.1369212,12.9684105,6.932658,-1.1109805,0.9448723,0.17826197,4.9238577,4.651428,2.2546813,1.2015363,3.9677818,3.4808252,0.92726254,8.054983,12.668416,-3.1752937,-3.266634,2.5696325,3.6648524,1.1719157,3.245057,7.2243996,4.405583,-4.1407948,13.295683,-1.5546013,0.015023258,-1.3069004,1.2847719,0.9934677,6.1892734,5.537792,-0.31611657,9.368077,-1.097239,7.9939456,6.207164,-0.7349044,7.964346,1.9561753,28.932217,-0.62394994,-0.638722,-0.9166942,1.2071236,4.7791815,1.9128382,9.129056,1.2942672,2.3479302,4.3268995,0.63193077,-1.3289697
61.jpg,16.519053,3.4537327,0.47266763,16.877167,-0.875422,41.964703,13.218281,2.557277,4.622544,12.759873,9.946024,40.391846,-2.3973238,-0.51999056,19.25113,11.683326,0.15132605,-4.897183,3.22119,12.885265,2.8534954,8.043744,7.9878354,10.7486105,7.154359,1.9221495,3.0003338,10.834513,3.5393283,-0.5814255,4.4198985,1.7711666,1.3369843,2.8155274,9.902679,3.0707042,2.446525,12.325527,-2.6013534,0.7747877,-4.4979877,7.0467153,8.504614,6.4782524,18.78775,0.69404,9.884039,-2.627947,9.036022,4.6271057,-1.1791435,7.7571855,3.2161844,30.355894,-0.98034835,-0.916983,0.5852377,4.628955,6.738974,0.52890253,10.135952,-0.23625232,2.758851,4.3272862,0.30642375,-0.5942299
62.jpg,22.337172,9.905029,4.862987,19.507057,6.864492,47.29929,4.259674,10.505372,17.989788,13.813787,8.991433,9.533731,-1.6417695,-0.5018208,6.5516415,-2.1289592,-2.2590187,15.615427,16.603823,3.4581873,0.21121176,21.357378,-1.531236,3.0703187,1.3856288,-1.2725825,2.9493659,17.926159,10.879818,11.966559,-0.85836667,-1.4414493,4.685744,4.066429,9.846518,1.0184504,-3.387861,15.002723,1.5677463,4.2959905,-1.751261,7.7965317,4.185454,41.59494,7.684444,1.9872586,4.191871,3.348653,9.990555,11.822314,5.0290017,7.605204,1.937407,2.2468026,0.33984897,1.8671327,10.653574,3.1743498,4.372491,1.7240539,5.2701807,1.9166894,5.800622,4.9859548,3.3202615,-2.0716846
63.jpg,19.216482,1.1772975,3.63034,23.947222,5.8649054,43.814663,9.946326,10.762064,6.836623,10.157182,10.118138,19.859276,1.1377689,-1.9256445,17.890627,6.557882,1.2301648,3.6333416,-1.435216,12.760873,-8.70992,4.683849,-1.6111814,9.500947,2.648599,-3.3541112,3.554443,14.399391,5.104602,-2.2089474,2.5330386,-4.2674108,1.2982577,0.9696028,7.407685,7.9547763,-0.0129515305,9.702245,2.119023,3.1290536,-2.8819463,3.348067,4.305826,10.557953,28.643433,-2.4253912,4.3225265,10.484977,20.230024,8.515266,0.7196377,11.393125,1.2535131,3.2296174,-2.3417523,-0.67531,1.0826232,1.094713,7.7751527,2.5749257,7.1310863,-0.15436727,-2.346919,-0.7721355,-1.4103292,-3.8859468
64.jpg,27.356724,0.91691893,5.2319055,36.6135,11.933411,41.805817,17.741938,10.322998,11.686022,13.198465,10.844051,14.696466,5.4451003,-2.011252,8.600794,2.801904,4.4145565,2.6869302,0.46504655,12.405302,-7.2795897,19.419968,8.454885,4.7742586,8.363743,-1.7127752,6.676811,12.048053,9.958879,-2.8519027,-1.6369339,-2.9535093,4.9540367,4.4465766,5.147845,5.6000447,3.7078745,9.440717,3.8837306,0.58050555,0.53082335,5.5239534,6.7158713,12.100466,6.403674,-2.540604,14.380627,14.121559,14.057909,10.119359,1.4814332,9.706755,1.9770898,2.5870736,1.0836802,5.391197,0.95363456,2.3709898,4.2964187,5.4180694,5.1522,0.33498648,2.4630287,1.5324304,1.1573656,1.2209593
65.jpg,19.868828,3.9727547,5.8054295,21.196022,5.5744395,42.838226,8.881769,9.597373,15.250768,23.809242,10.962144,7.366812,1.6713613,-3.3847318,9.79971,-0.5384403,-0.93518996,8.898085,14.868942,7.0722394,-0.42107832,16.140537,0.60916036,3.6037116,5.8523197,-2.5552719,-0.17636903,13.262481,9.000679,7.1786785,3.1317413,-0.6772277,3.6359682,4.802288,7.7876782,-0.7681499,-4.626229,10.504259,3.9204023,3.8462281,5.209083,11.0862665,2.194408,37.361206,9.175444,4.124363,7.3351784,2.355967,9.455344,9.350901,4.5334635,7.967595,2.5219154,3.0696795,-1.7284396,2.9148986,5.9909353,3.0153217,8.152545,5.637297,4.6008124,1.2131033,5.305228,4.919395,5.1621494,-3.1514208
66.jpg,27.347357,-3.0111976,1.6220775,19.824408,0.8978551,42.9371,5.5850506,7.354211,7.727628,14.221771,1.4647212,28.944168,7.1860538,4.2772098,7.5881586,15.709726,4.422321,1.1738406,-0.37201023,1.581502,-1.3073447,13.104743,0.7406668,7.5503097,9.597269,1.8440608,2.9760516,11.829582,3.1361308,-0.68660426,1.716435,6.563608,1.9739554,1.7751415,4.9008856,4.366311,13.470608,21.82578,2.7312982,-1.921515,0.37854314,4.2895904,11.114705,7.3881574,8.289108,-4.675733,18.069313,-1.4279635,5.725849,2.5585077,-3.5407727,6.0633755,2.5451853,29.932213,3.0218115,0.2668201,3.1982248,3.8111832,4.7529507,3.6021068,8.746066,-0.7291199,0.1450371,6.3729024,-1.2806014,2.8908155
67.jpg,41.632347,-0.6966382,4.5232425,17.652338,-0.06937729,51.465313,14.406608,12.268034,9.75926,15.406379,12.35728,8.172965,-2.5383272,-4.208694,10.204443,5.6251326,0.7195933,7.708898,3.8960211,13.278249,-6.7811823,2.6278777,-1.4538375,4.241871,2.556619,-2.776725,9.415965,9.88661,10.248824,5.4298987,1.9747379,-0.56862605,2.9909465,-1.3888624,2.7227097,1.5152584,3.177342,9.398901,2.0956483,0.90100795,6.1591463,3.9233127,2.463046,10.151351,0.45176134,-4.4186482,10.829662,8.491071,13.210858,9.983406,2.3285117,8.122706,1.0575374,-1.9100652,1.0017099,3.7074978,2.618515,3.2501802,4.571894,2.5917637,6.378676,3.9109635,0.9987187,-0.80946666,2.6610441,-0.5525109
68.jpg,20.342327,0.64537245,2.3011527,33.7787,2.9561338,49.414444,16.17093,6.7282825,15.505159,13.015646,10.009445,15.14699,-0.297172,0.3467914,9.351227,1.2968925,-2.393512,4.478053,5.7686234,6.5918946,-0.29157883,11.068795,-0.77063346,3.1943302,4.833279,0.6804244,21.14329,10.348206,7.634159,2.918931,-0.20694575,3.9000301,4.7320995,6.095636,5.6293974,2.9870048,3.9786227,16.82679,1.5961053,0.8720218,-0.45602167,5.4991274,0.78783816,8.599031,2.1386955,5.343212,7.037074,3.8842194,9.138815,6.5619545,2.1096652,7.58912,4.0343986,5.1080017,-1.1685076,1.2191596,5.068223,7.06326,6.2906666,4.9242435,13.212114,1.6628948,1.8305153,5.0621843,3.9236321,1.4843811
69.jpg,16.723398,-1.8255708,1.6082393,26.1916,-2.466448,46.705414,14.402835,3.4869928,17.568575,7.7375865,7.496733,26.764244,-1.3527571,-6.5700994,17.84304,4.627605,-4.4901023,3.3252113,5.3551564,9.762496,-0.41200277,11.994871,0.56170535,3.4766302,6.6327467,1.4223961,0.21570325,12.713475,10.114583,3.4103174,0.422451,3.435688,-1.0534852,3.166628,2.6521657,4.6377244,2.1739411,14.199641,2.2286115,1.4724066,1.6670641,3.2500544,2.2302773,2.4626064,-0.51109713,-0.50293136,9.717062,6.702154,10.893612,8.423651,2.6723275,7.6182656,6.181808,16.875237,2.543982,-2.173776,7.991636,5.844529,3.103118,4.2983913,9.597463,3.089535,-1.6874928,6.6196194,0.064783916,0.35838792
70.jpg,30.936813,2.530262,2.149356,19.671219,-1.7546717,43.741817,9.556523,11.09513,13.253757,10.873736,9.683535,19.845999,-1.4665459,0.42189026,8.701674,2.2946072,5.3350577,2.157473,5.272082,3.1588864,0.3223246,7.574892,1.1122493,5.4752307,7.3955426,-0.85538936,7.252735,12.573449,2.339936,2.0576384,3.2033126,2.7690067,0.7806836,1.4624854,8.673897,6.566812,3.7389436,15.15719,1.9165514,2.901735,-1.7310251,3.7546408,3.3337154,7.9986463,7.215839,-2.3720686,13.840426,4.2058053,9.599902,5.438489,0.6421117,8.311042,3.7992165,10.043778,-0.16837306,-3.25559,0.09206124,1.6060027,16.360151,-0.48246944,12.611511,-0.37957448,1.8743228,0.6939858,0.0720025,0.041338757
71.jpg,23.405462,3.8769479,2.2534873,31.464005,0.6175816,50.2051,16.377554,7.0803113,16.426794,13.640449,9.977499,20.073147,-2.0283244,-5.620506,14.933486,-1.7641406,2.5032792,1.0865972,2.8351734,11.175001,-6.668712,13.589473,2.8997295,2.1726015,5.462289,-2.6241221,1.66512,12.586704,13.497218,3.7947695,-0.9515386,-1.3915238,3.741727,3.2172017,2.2379067,3.523558,1.6022552,13.073376,3.2153692,1.3213509,-0.001492817,5.875057,3.0362186,8.223335,3.2927792,-2.457347,12.99025,9.235242,13.826677,9.21625,1.7246755,7.3411345,4.538212,8.488645,-0.16725278,0.7386138,5.075307,3.9859414,4.1796136,1.1805924,7.7584085,1.0667658,-0.16378248,4.2652783,-2.0095606,-0.006209314
72.jpg,19.85505,0.6066605,7.520755,23.211649,6.3663664,50.514263,19.053432,4.213777,16.280329,9.181657,6.9223275,16.703398,-2.0454504,-4.5686803,6.5228643,-4.5906277,-4.017923,6.404069,4.3104625,8.294802,-2.1694195,7.145831,2.4378355,-3.5135865,5.8692074,-2.2232394,12.439444,13.702853,8.621931,2.8561816,0.38704005,4.140443,1.2222587,4.335729,4.658464,5.755843,-2.558688,16.905611,1.3778259,2.0405414,2.1243072,2.1923401,3.2766223,6.071382,-1.9516811,2.9692895,9.776744,1.9605346,8.38041,5.4864793,1.039803,6.3128085,6.3791513,3.6019611,-0.49463353,0.851157,2.6070573,2.1351676,1.1417104,4.172067,12.089971,1.4965972,-0.026087323,3.3251095,4.596696,-0.050625205
73.jpg,26.623001,-0.897923,1.594406,8.594769,-1.4655771,41.309727,7.5352764,11.749582,9.073163,15.320858,28.381962,21.153994,1.6141627,6.387169,18.44787,15.651077,-0.2404617,-0.49614292,-0.09781568,7.61415,0.1313305,1.31947,0.4279442,1.953882,7.6499686,1.3789415,4.40769,7.0794744,-2.9651783,0.8369458,4.324536,8.806361,2.7820327,0.0769478,9.869985,1.1547644,-1.5718735,14.166409,1.7022157,0.9129653,-0.41042724,1.9971467,3.4912586,3.326871,11.396752,-0.6004283,11.424866,1.672139,10.295393,1.372787,-0.07533934,2.8919773,1.3465947,8.871663,-2.4712896,1.5192505,0.20275787,1.9677991,6.633413,0.94230074,6.951288,2.0037522,8.209121,0.10717921,2.700338,-0.01739692
74.jpg,19.133377,2.5143552,-2.3319123,34.079735,4.5319953,45.398487,19.748775,6.873882,12.858181,16.083174,12.996086,14.766968,2.1421504,-0.64828974,16.852547,-1.2669108,-0.19330582,6.1184688,-0.7425936,2.8273003,-0.40232545,8.529105,-0.42831427,6.7282662,8.616783,-1.9893703,3.349679,10.173297,8.008229,4.22558,1.7636226,5.4775963,3.1933804,2.9367135,1.9783348,5.164839,0.775235,17.88075,-2.380019,1.2648737,-1.7217728,7.5724773,3.4673042,2.8435833,-0.15175761,4.298506,4.542832,4.658994,11.214469,7.4206324,3.796267,5.057833,3.3136022,9.770742,-2.0681553,4.437171,5.466877,5.9658628,3.6589172,6.810567,14.163275,2.4839115,2.9463935,6.513813,2.8257093,2.761495
75.jpg,27.193079,-0.89871967,3.4727077,20.13386,3.6339574,49.38841,17.592188,7.927805,10.463598,27.70333,13.212962,7.5700955,-2.1546726,-4.5643134,8.86326,-6.9057055,0.754646,1.4351815,-2.4281402,7.843969,1.4623986,5.096036,1.5730728,1.9539293,3.452944,-1.0384698,6.2095084,10.056231,8.435798,3.729222,-0.23109558,3.2288,1.4304608,2.7381573,5.9490156,4.4017487,-0.7945016,10.743959,-0.24032217,-1.8761966,-3.3155112,6.421579,-2.266926,3.504057,-2.314972,1.6062694,5.8611684,4.094048,12.266702,8.714341,1.040163,8.128065,2.9136362,3.8056452,1.2195779,0.67046636,0.35698926,3.2841876,2.148611,0.13644472,7.5837917,-0.0069689006,0.2646461,0.91985035,0.7251253,0.44864666
76.jpg,19.191765,5.819915,4.8422356,24.607437,12.462621,48.311382,10.346599,3.845383,17.831451,5.7626204,3.8649366,13.511966,1.2825986,-10.023453,8.568197,-4.8460774,-0.85055083,3.340894,1.2245148,8.507895,-1.0872449,4.0079594,1.4125,0.12672913,5.2762375,0.030511431,17.73968,10.196674,6.3990927,2.9628716,1.9833244,1.0027108,3.131985,4.542861,2.1651392,5.995734,-2.7558823,11.864324,3.578755,0.72455883,-2.4998302,0.156204,2.3582597,4.578845,-0.40869644,0.61817634,10.299729,5.1518517,7.388749,8.177993,2.2226162,7.282795,6.2034163,4.7476997,-2.4823816,-0.7946597,2.9308994,2.171939,3.1863923,1.8478158,9.537543,-2.077283,-0.668346,0.7112574,3.5071712,-0.28549218
77.jpg,33.034164,1.853456,2.044762,27.227535,4.861534,44.98733,18.098,9.483595,15.1647005,14.767986,12.619284,13.977781,-2.8095376,-3.5544543,5.9677744,-4.4825697,-0.013714074,6.787737,3.3466668,13.261005,-2.2019,13.850582,2.851298,0.645856,5.1432185,-0.37113288,17.607368,10.619111,15.134263,2.8074112,1.5615325,-0.6806195,2.2394884,3.6132746,4.369336,-1.9835051,1.3101231,9.017496,3.1107247,5.183192,4.6574917,2.0489852,1.9150016,12.259908,-0.74436736,1.958649,9.8808,7.0531344,13.713203,12.1620455,-0.30471632,9.142642,3.8401353,1.3522936,-2.1830864,0.94946223,1.3713611,3.5467944,2.4688935,3.1936402,3.9298854,-1.7156262,0.85922295,-1.4978852,3.3008807,-0.76735455
78.jpg,29.35845,1.757135,2.0361373,40.561943,3.9085858,39.856106,18.011307,5.138263,20.264214,12.803944,11.008339,14.95542,-0.14779195,-2.311461,8.28894,1.2154964,-0.00056345016,3.6429007,2.3895137,15.065381,-1.823426,9.35961,6.8108244,-1.242207,3.0284266,0.23566261,17.627287,10.778267,8.796083,1.5005631,-0.7779644,0.5962494,5.1790767,3.0981705,4.8720775,1.2645847,-0.24454337,7.4900346,4.2319303,1.3436503,-1.6291926,2.6127992,0.9467451,9.643207,0.71725905,1.0528965,11.402357,8.374342,15.539402,10.482619,-0.4594585,7.177505,2.2627,0.8105157,-1.8776953,2.2923832,1.4931086,2.1797175,1.9414726,1.3512852,5.0058084,-0.76810074,3.115378,-1.0692794,3.7684858,0.4494125
79.jpg,29.204002,0.09867987,2.5793881,25.922823,3.3330865,54.473877,12.9374,6.7334466,10.586397,12.135789,11.507165,9.823516,-0.55818903,-3.944771,7.997224,-4.3225646,-3.4121757,6.395083,4.3350406,11.905914,-6.1494904,27.135109,-0.34086955,3.0671868,5.5605607,-2.2341614,3.6033869,13.2652645,10.020702,1.2110573,-0.62907815,-2.3763666,2.5416412,4.266504,2.123669,2.0302427,2.6618752,8.879704,1.495917,1.5969636,3.1963897,4.3387547,2.5105376,12.862699,0.40394878,-2.016125,9.668723,7.300108,10.038228,4.7245655,-0.7535771,8.796053,2.5641165,4.2611594,-2.3020074,2.8063838,3.7750337,4.588147,3.7363424,7.2621913,4.2618265,2.7752457,-1.3838457,2.1064665,-1.9643072,-0.5801436
80.jpg,13.558443,10.049346,3.9792304,31.517128,7.675679,47.40944,15.966275,3.422816,19.095028,17.51617,5.039199,20.65907,-0.07716119,-3.6309938,7.0526624,-3.030926,-2.6211417,6.596878,1.5529335,8.930417,-0.48110428,6.627348,1.5013844,3.8995285,7.633148,-3.3497534,4.935994,11.766224,8.563864,5.2189445,2.5353546,3.1099048,4.175495,3.9235878,4.0399528,8.775912,-0.70606506,16.565302,2.8370554,-3.04205,-0.74951786,8.00999,-0.26664162,4.1608124,6.082512,0.6321232,11.820097,3.6390438,5.337634,7.113008,4.03541,6.509158,3.7882094,5.1920676,-0.54760534,0.78456783,4.415714,4.054345,8.417736,3.9025314,12.693684,-2.1482825,2.665164,5.6154857,4.186932,-0.022622943
81.jpg,2.2692976,4.016271,5.503554,20.572449,4.340235,39.742638,17.035793,2.4441378,8.897278,28.339348,4.5434604,28.599384,0.2078856,-4.8931613,10.514456,4.1468554,-0.8602933,1.5680544,-3.773496,11.209253,-2.9593163,11.36442,0.92258084,8.456147,7.8741007,-0.55888337,-0.6221036,12.325799,4.7173104,3.371952,2.748949,2.241389,3.1136804,5.5484295,6.358479,3.8140383,-3.1433482,17.355808,-0.48918474,-0.6965932,-0.96788716,12.28507,6.1901884,3.2486162,21.635056,2.088046,7.627651,3.134615,8.954602,9.902741,-0.55430305,8.42385,2.8395138,33.31982,-0.14390373,1.2948165,3.2743857,3.3103023,9.737085,1.2930735,8.885093,-1.9094119,0.46082494,7.7199273,0.8916191,0.59385693
82.jpg,26.901562,-0.4534444,3.0975347,24.599148,6.341096,50.96035,20.832106,3.7855885,10.987106,16.874847,10.250285,15.295501,-2.3393662,-5.6379995,8.936588,-3.4682884,0.032456264,7.433347,2.9393086,11.603442,-3.7174911,6.519027,5.100723,9.3389845,3.4460187,-1.1967009,11.825304,11.483269,15.542451,5.146117,0.8749025,-1.8089404,3.7242622,2.2368937,2.7355154,4.5528145,1.3923328,8.192239,1.8072177,2.40713,1.9969158,4.331782,3.330021,13.643038,1.1752375,1.7144037,9.971453,9.508734,12.707135,10.712167,0.524357,9.479405,2.256841,4.491955,-4.066713,3.1177208,0.3664626,5.4382486,5.8465605,1.5023993,7.441964,-1.7361306,-0.65568316,-0.10376517,4.1382627,0.5033862
83.jpg,20.52768,3.9104886,7.8213015,24.253649,6.894117,40.885437,17.533947,1.2059156,10.1951275,19.728409,10.682408,19.695122,-0.701906,-3.0041606,4.40864,-4.2189436,-1.2220783,2.6089568,-0.7721379,10.896073,0.2702899,15.947752,1.8032557,3.59086,6.0053725,1.2241491,1.6564575,13.138041,7.7183948,2.7784843,1.052252,4.076537,5.8953576,4.5413437,2.7749212,3.2083366,-2.1472943,17.79643,0.8976536,0.67955375,2.1136668,5.163926,5.332223,5.3504906,2.637303,4.5315685,11.125996,-1.8886268,7.982046,3.3393157,-0.26624826,5.710782,1.5062777,30.493671,1.7169989,1.9888152,3.143721,2.8874521,5.3153424,1.3843781,6.115204,-1.1200664,1.4168842,7.450333,0.76831526,0.44966945
84.jpg,23.511196,-2.1601326,7.547716,20.100435,9.498679,47.82304,16.597515,8.443786,15.834119,15.242397,13.212397,10.744018,3.6039205,-5.3608394,18.770037,-2.936599,7.493822,4.30637,1.7081169,8.382359,-3.7290628,11.605585,0.07010936,-0.09202054,7.5774374,-1.3065275,-0.54120433,15.073406,5.0356846,3.8154058,1.0867646,3.9887145,3.331516,4.9667544,8.22037,1.0383103,2.7162445,16.92818,4.18688,-0.5115144,6.745003,4.0962653,6.1861954,2.5748932,0.6017929,-0.5095689,15.088526,0.29676053,12.985238,9.7063875,-2.0268369,5.9578867,9.101809,3.895257,4.88414,2.150031,6.213451,2.3312676,2.0331116,4.133773,11.741742,3.5444717,0.30870587,4.2827005,-0.79237634,-0.5400239
85.jpg,26.21726,1.7241342,1.151789,27.171425,0.7212357,44.188427,15.044739,9.757684,13.823904,6.3617206,8.562815,19.698055,-0.7713114,-1.32288,11.17367,5.438532,-1.2277373,14.436446,17.914112,9.055712,4.552663,6.980326,4.877656,7.273842,2.64023,1.8344568,7.505454,15.762212,8.856365,3.853818,-1.6581393,2.6150174,10.14774,5.4794254,8.445293,-0.9122324,-1.0797268,10.355079,2.6009018,5.846016,4.137054,-1.8122199,1.1422514,34.964466,-0.062322058,1.52727,7.981702,5.629175,10.161137,8.495368,1.5953418,6.3902435,1.9878922,3.0490327,0.23489985,-0.28859094,3.9027407,3.3097517,1.9966619,5.4422207,6.8425736,3.8718443,5.4129267,0.79007286,3.1723673,1.950149
86.jpg,21.582144,-1.0160406,11.356762,14.450831,12.736304,39.378475,21.408384,8.798194,15.975764,8.702271,19.157082,11.908594,2.0614073,-3.9184089,17.131079,2.7431731,2.474519,4.017632,-1.7864361,4.007165,-3.017491,1.7316769,1.6704112,-0.111899436,8.247786,0.9595108,14.354226,9.843154,10.678225,2.651559,2.014744,7.168988,-2.248802,2.0595863,3.270063,3.634321,0.44041765,19.52526,3.2148519,-1.321332,3.4790657,-1.4005932,14.976557,0.06890786,-2.2504134,4.073578,9.080217,5.0379024,8.9150305,7.838787,4.293258,7.549777,7.1193748,-0.17196159,4.102321,4.0508156,1.2433362,2.1986377,1.9435823,0.83179176,10.569475,1.5479558,-0.4919989,4.7057176,5.9054513,0.42259353
87.jpg,33.77985,10.242868,-1.3070716,22.642473,6.386262,43.52078,10.262893,14.09283,11.66305,14.456958,11.757226,17.627516,-0.8699288,-2.112505,12.674663,0.37209114,-1.5022506,13.6521635,9.938071,12.455058,-0.9139645,16.293766,1.7083081,1.9894786,3.0349493,-1.530335,0.51987594,18.507904,5.9900312,2.4751096,2.0966399,-1.5714873,4.0002,2.524617,10.726609,3.1567721,-3.745799,9.303122,2.3643706,6.0633216,0.6304756,9.826656,1.6647058,25.604694,24.145763,-2.4076025,7.177718,2.3282328,13.41606,8.167677,-1.4279836,8.87478,2.9596708,1.2526231,-2.2515166,-1.9337128,5.804108,2.5786245,5.2494564,2.9330816,2.9834151,1.5474356,1.1084967,3.0641177,0.82458144,-1.613672
88.jpg,31.471958,6.8670087,5.157348,19.411873,4.3247833,43.17523,10.383342,7.709817,17.476519,19.807266,12.466666,6.8093486,1.1411935,-2.6346347,7.9653196,-1.3692021,1.9156121,10.087529,11.696698,3.0254173,1.3660938,8.182606,0.8866691,-1.7882476,2.2746527,1.610585,-0.038148496,19.454355,4.689923,7.3541665,-2.4508255,-2.052598,1.8818395,2.2733383,8.055692,1.6438868,-3.9342952,11.391637,4.5924587,4.4264913,0.45895734,6.6712456,-0.06222902,33.821228,2.4118474,1.185943,11.562628,3.7040982,14.028144,8.640758,2.9238727,8.080666,3.1673512,4.6798816,0.057416502,0.36874378,6.9508657,2.6288521,2.0730753,1.084436,6.709707,0.43179673,4.49301,1.9188073,2.3847218,-2.8924284
89.jpg,20.664938,-1.8021283,4.7759476,15.443219,2.3321817,50.79239,19.919052,11.9145565,13.275846,9.473206,7.578391,22.598627,-1.9033383,-1.563767,11.654736,-0.029245997,-4.28692,9.629069,4.1059313,4.904682,-3.304514,6.970852,-2.8237057,5.8081574,2.6420698,-0.52739733,10.202059,13.253866,7.678424,3.384183,-1.0517821,2.3052533,-0.07110273,1.2759135,2.6386292,4.4918594,-1.7182105,14.353077,5.26546,-1.0721258,-2.3681757,3.479194,7.619732,7.8225,-0.50937605,-2.9606526,8.020553,4.9707437,9.771935,8.287191,1.9560621,10.942014,4.1703396,5.726798,-2.867845,-0.053253606,3.734666,3.8446684,3.4190893,3.4324121,10.308554,2.393517,-0.032302693,2.1211178,4.7407126,-2.099685
90.jpg,12.376466,1.099288,-1.8167661,22.01485,1.608949,39.52967,13.773452,3.815057,3.2041357,15.971377,16.056004,34.931236,6.959799,-3.1438746,29.157034,18.787567,3.4212053,-2.3853407,-3.251542,8.09218,4.973502,7.5922766,10.558635,5.165939,7.108988,0.43130267,6.319777,11.892574,1.8568542,-5.5799274,0.09747437,5.1819005,6.3419676,3.9449353,8.458881,2.789364,-2.6877768,13.809965,-4.338137,-1.5468466,1.3353922,5.489357,9.660632,1.9021462,9.087387,2.743451,6.546517,0.5292194,4.393764,7.982985,-3.5305746,5.655159,2.9312053,40.74459,4.223093,1.3648577,2.0349762,3.3015034,3.7710383,1.9861404,7.688838,3.229267,1.9296726,9.611592,-0.40736562,1.0256376
91.jpg,14.367549,8.998814,8.82223,40.20911,10.452588,30.696423,8.896823,12.513857,20.000616,5.2142696,10.3334,23.75801,4.834555,0.57539773,8.275709,11.445348,0.50470585,3.7438312,4.1525664,11.413232,-7.306853,6.6790285,1.9008275,3.771307,0.8141549,-2.5700662,6.0322714,12.148596,7.973568,1.7230947,1.2836895,-2.152852,2.2600262,3.5073752,9.508438,10.76288,1.7074122,7.460719,4.7881136,3.9997234,-1.83871,7.2535553,6.1827703,15.263523,34.42707,-0.44721276,9.203103,11.678417,12.836077,8.982708,3.8616364,5.7198553,0.47244123,4.6335187,2.9645221,0.8437954,3.8704205,1.945483,5.7646933,2.320256,6.51901,1.026102,2.0556471,4.098016,-0.17126003,0.12848778
92.jpg,20.210283,-0.3907086,0.86020577,32.505516,4.182513,51.126312,14.380637,6.270571,14.895383,10.826242,4.3775325,17.273823,0.4982343,-5.3584332,7.819655,-3.8877244,-4.1727557,4.311575,6.1603646,6.025177,-2.181665,14.742202,-0.90892893,1.1337018,7.2297583,0.60751456,-3.4786568,14.366731,6.506117,0.0041483436,-5.322517,0.70050496,7.04224,6.9874496,2.447996,2.8667614,-0.7269091,16.215027,1.8870745,2.5196624,1.8116342,3.5161111,0.3594513,6.367588,-1.1458025,1.6961198,10.83388,0.8306692,7.310169,4.5124865,1.1102451,8.008467,4.0025554,9.849305,3.6168609,-0.5811613,5.9649835,4.9917593,0.9685727,7.8814054,8.738498,2.0618393,0.699698,5.868713,-2.427844,0.69906414
93.jpg,24.85203,2.2744524,12.777174,27.731407,8.230342,42.319862,20.798933,6.10117,12.94624,13.587091,8.896449,15.835971,-0.9219946,1.2511615,6.7680635,-0.09297277,4.2803755,1.7423947,0.4501326,13.849383,-2.0970058,7.754407,10.090668,3.0076718,4.106661,0.5577998,7.004699,12.299874,12.466153,-0.6127153,-5.5108657,-1.3817767,9.191264,5.1451826,5.1131883,3.933208,2.2136018,8.2007475,4.626625,-0.7591786,2.266214,3.646421,3.3541553,6.912768,0.5005781,-3.2046676,17.33816,13.81365,14.901316,12.609035,1.8534424,8.754691,2.8558476,5.616308,2.4151504,4.1446824,1.5645617,0.7286569,1.7786254,3.646255,4.0353284,0.0155245885,0.6212758,1.0257196,-0.28479382,1.464901
94.jpg,22.666746,7.645861,2.6303446,27.786573,6.159899,48.313038,5.768937,8.114691,15.060021,14.721995,5.4759994,12.897452,-1.0702958,-1.9243982,5.207128,-0.32838964,5.5236483,15.544389,22.884539,1.1687621,-1.9477216,15.712195,-2.9314137,3.689787,2.6741695,-0.18992889,0.39919448,21.625114,8.961821,8.944654,1.1150737,-2.6454136,5.382389,5.4119625,7.9010873,2.1928914,-1.1876608,12.686044,6.2623167,4.451407,0.64142764,6.4615564,1.9450929,41.17788,7.6793804,2.6788273,5.10493,5.1749253,8.999107,12.378152,5.4640284,4.721143,2.7176578,3.2680266,4.24769,-0.74889797,8.889077,4.2753987,4.445195,2.9460723,8.641259,4.7550826,3.8557477,6.578831,1.8337358,-1.1731193
95.jpg,16.963299,7.5908704,3.0754817,15.944568,7.1859913,50.256104,15.63196,13.577,13.232666,27.020273,10.365693,20.871243,2.046942,-2.943752,12.83409,0.92832446,-1.042536,5.544187,8.987261,9.074094,-4.822398,12.269173,-2.540803,15.290187,1.7817531,-0.22078408,-5.1207256,14.364624,6.203765,4.9504995,-2.563994,1.8056657,3.884442,8.195044,5.8637114,6.437985,-3.3834283,15.279001,2.7571533,-0.043850064,0.28868133,10.456298,-0.022039097,13.758535,3.6201708,3.2553654,10.11855,1.2616658,10.755632,4.188057,4.338025,8.4677515,5.5920997,14.59207,1.2368302,-0.43834037,2.2074375,6.499611,5.519699,0.63819236,8.076914,5.1917243,1.7709228,6.4558496,-0.6482246,-0.79994845
96.jpg,31.108019,3.2263074,6.0537286,30.493229,8.594645,44.175743,18.240374,10.576983,12.187429,13.811559,6.986227,17.71724,4.821225,-0.89630663,-0.43057412,-0.27729535,0.19096518,2.2172873,1.9038603,13.516887,2.0917013,13.109684,7.95264,4.026322,3.7384481,0.9409613,6.80149,14.125529,8.365965,-4.937957,-4.0203,0.41771206,11.560909,6.3797646,10.385653,3.421545,3.4563162,10.575946,3.3390357,2.1134992,-0.96016556,2.1294403,7.6839714,13.026706,2.0993776,-1.8628554,16.228306,12.297159,7.42058,4.1413836,-2.6495697,10.484733,-0.10713316,3.514631,5.5412946,2.58504,2.192227,0.84527534,1.054936,1.3855723,3.7032115,-0.06003531,1.0842611,0.22143494,-1.1643126,2.6821294
97.jpg,28.57112,-0.14596204,2.3713543,17.60532,4.7105594,43.80137,17.188063,6.1363134,16.163622,13.657637,19.993708,15.371665,0.5979968,-6.364139,21.174656,5.1258326,1.622032,9.943405,4.070251,14.283792,-1.2992452,1.1486357,2.100814,0.24174093,11.619845,1.4044998,9.521895,12.490701,-0.707677,-0.32138106,3.4898863,10.4202795,4.7957067,1.918615,4.877733,4.6619596,-0.22221203,13.651334,2.1328988,-4.458466,-1.0684214,1.7902434,3.474234,1.2773544,-2.0140822,5.3786364,11.711287,2.4460747,8.608266,7.357579,0.67655474,7.51327,5.901579,4.843218,1.0752589,1.5720133,3.0277376,1.865626,2.7399244,3.0360982,9.420198,4.940852,2.632241,4.3639207,2.644767,-2.418404
98.jpg,31.867722,-2.5363991,5.4141827,28.191904,7.626725,43.990578,10.576239,12.587643,13.402117,11.008105,12.836449,11.49446,4.0698433,0.7751241,8.538517,0.42407697,3.1384685,1.2580574,0.16543958,11.382601,-1.9511399,19.545797,4.571235,1.0702931,7.1420164,-2.8096085,1.1061676,17.973457,8.292413,-4.824664,-4.7270985,-1.6672224,4.2834578,5.185197,8.011721,6.1400805,-0.02572732,8.511503,3.2237952,-0.85694474,-0.49869922,5.0403304,4.840138,10.758509,2.7066898,-3.949805,11.912698,7.4029737,12.423777,7.731055,0.031040143,10.939387,4.2011065,4.3504972,1.8464649,2.1718225,1.2243136,1.6769938,0.8525383,4.3559093,2.8936553,1.4622929,1.8725902,2.1838272,-2.5138266,1.0168546
99.jpg,20.924244,1.3218102,-1.6539931,18.730751,17.173267,42.26103,12.376782,12.179449,6.1001563,4.921473,6.048679,23.526978,5.7839284,0.5083281,9.740252,2.1988637,-1.6124632,12.381318,11.714707,8.620104,2.2606182,10.80226,0.3096467,7.4568443,2.5405855,1.0716028,0.28518867,17.091906,9.407646,1.2139585,2.602593,1.7784383,8.296778,5.646383,9.478461,2.7275257,-1.00413,8.1384735,2.3741283,5.615029,0.020148827,2.4504364,30.624222,35.253777,8.966717,0.765227,9.084121,3.007038,8.454706,9.732352,0.5674446,7.8457155,2.5847814,4.6784887,-2.1767395,1.7225634,1.1460239,3.3332393,4.313805,4.2998433,6.224633,-0.61243325,4.926169,4.3051453,0.94751763,1.3433999
