image,0,1,2,3,4,5,6,7,8,9,10,11,12,13,14,15,16,17,18,19,20,21,22,23,24,25,26,27,28,29,30,31,32,33,34,35,36,37,38,39,40,41,42,43,44,45,46,47,48,49,50,51,52,53,54,55,56,57,58,59,60,61,62,63,64,65
0.jpg,-2.7581847,4.259205,33.84211,7.5621276,10.906094,11.936111,21.944246,-1.1177623,20.04134,5.7685075,7.501467,30.0832,14.302221,4.2763844,19.693487,6.611721,-0.42646155,4.3658543,-1.3266232,6.3968234,-6.50019,0.4431992,5.8465414,3.1049953,8.284602,-5.099649,-5.780558,9.767966,4.4385724,2.5481024,2.484895,5.7491007,-0.69979745,-1.0409005,-0.32076138,1.6887807,-1.0949273,11.240639,-1.560927,-0.24871975,-1.3691597,3.6553762,7.33208,-1.8744591,3.2822356,4.636183,6.0429916,-0.20591067,5.926845,4.537771,3.731403,-1.6717155,-0.7045998,24.413364,6.6800184,7.2663026,1.5119044,5.018449,1.4729118,-0.3341686,4.4859376,-1.2012489,6.1975107,3.4117599,-3.3293333,0.78121275
1.jpg,2.0890162,10.937192,23.147785,18.626516,9.11252,0.9958785,10.811175,15.575782,30.322319,-1.454767,7.7533917,14.859928,6.257852,1.8842664,8.964981,14.223073,7.596948,10.886489,6.3565655,-1.2972419,1.4835702,-2.2843485,-2.497619,23.363163,5.4723063,7.0221515,9.905002,13.721198,1.183413,9.080566,8.266703,1.5037985,-8.413851,-1.0606945,6.148358,7.4534774,-0.57673275,2.7510335,9.1090765,11.612118,7.590455,-2.3594663,3.1854603,-0.43481106,6.40178,10.492391,2.2272997,12.48447,-1.3859993,7.5855374,4.375255,6.861872,-1.0089351,9.658655,0.39656347,7.81574,1.4959886,0.88471735,9.704166,2.709911,1.765977,3.479138,4.258546,-2.56316,2.683123,0.21847872
2.jpg,-1.7225273,9.622,26.756054,21.09158,7.9259343,1.6102431,14.057157,11.183563,35.725243,5.111843,4.824418,12.163811,18.592184,2.3026812,6.8409996,17.421888,5.7488084,0.651167,5.15922,-2.386471,-1.807048,7.179879,2.0773816,4.604739,12.973395,-6.96749,3.7821882,10.703163,5.6321015,4.3669977,5.195518,4.1370697,1.0529855,1.8302656,2.9841335,3.8235278,2.4605074,2.2931688,4.828229,-0.42158234,5.1817164,8.595042,7.280808,1.1989626,8.811693,3.529419,3.5173275,11.530458,7.8257093,5.492441,4.8999114,2.8920393,2.3829815,18.484795,3.3346257,8.259044,4.554111,4.1658945,4.702613,2.3289871,3.3997521,0.8431448,3.6232016,0.4122642,-0.35872012,6.46393
3.jpg,8.41486,15.485205,28.927883,6.9244003,6.3863144,0.42545554,11.216606,11.000061,19.749912,0.6953242,5.8393025,22.383144,17.834576,3.8723507,8.572467,15.075543,2.1386926,6.7244606,11.577553,1.0284636,0.07655835,3.5153065,5.785875,4.122708,8.999886,-5.415727,1.2230942,6.4336276,1.6222355,1.7796085,4.220051,3.2364254,-4.7520146,1.0313108,0.4786821,6.401543,1.5736889,3.5745516,10.632363,7.6087346,5.4431143,4.954885,5.9721913,3.5893784,9.983158,2.4506698,5.328823,-0.75810933,3.3223913,2.2253726,4.074641,2.3448331,3.1426153,17.396343,-0.9866588,4.660101,4.9061494,3.2453737,6.392143,0.35928452,3.3539155,3.1906698,1.5043125,1.4628295,-0.35934922,4.8876734
4.jpg,14.977222,10.113849,12.230935,7.2294364,-1.9171581,4.6560674,7.379817,0.7701763,22.913609,5.287436,8.412857,23.737226,14.405529,16.584026,14.666261,56.428886,2.1538177,4.3559294,-0.3319579,5.286938,-1.0358714,3.3538415,7.2312994,7.560467,5.596432,-1.1853622,1.425636,8.022281,0.37385732,8.929135,0.9892431,8.463769,7.5967402,1.6260214,0.31360984,16.636473,-3.1688764,5.6465797,3.9200897,-1.7164216,0.2320185,3.8593383,2.068169,1.5391183,6.669593,1.0474715,9.175139,5.825408,1.4475691,-0.61900926,5.9678893,2.3533554,-0.049352415,22.254665,1.1606351,3.922696,3.069089,4.520419,3.0996127,0.6750906,0.58945864,5.4063973,6.2528424,2.6597018,-0.2606623,-3.4611106
5.jpg,-5.213893,37.805046,26.97819,7.664883,38.823654,1.2383062,19.998705,0.86674774,30.681742,0.15093443,3.699832,18.112288,11.310331,-3.4018989,7.527579,6.00074,2.2703707,15.98669,4.7309237,4.1649337,-0.57349646,-1.9009259,11.103108,2.1275294,3.1915646,-1.0316011,-2.342738,7.456474,7.8049884,5.783527,0.17278753,2.369434,4.6314044,6.312006,1.4419482,9.133739,-2.9484994,1.5327039,7.170077,-1.1608554,-1.6920743,-1.529338,5.167824,-0.42595994,3.2041013,0.13751486,7.952454,0.680372,3.8973749,0.5199611,7.0057764,1.8463492,1.5751365,18.19362,8.439458,3.7792404,1.0882478,4.3630815,0.77036077,-2.8734128,-0.29189253,-1.676036,6.460575,-0.98221433,-2.5578325,-2.2829273
6.jpg,9.320762,10.181454,14.982885,20.194748,14.493914,11.030248,29.781666,5.741878,27.403408,7.511205,3.1277962,14.588306,2.83737,-3.6007257,2.2496083,-4.1865134,-0.9068156,7.494597,2.418181,-0.89873064,7.2217307,14.279133,2.1160915,4.394264,7.8653827,2.9001534,1.7471386,5.6091404,15.047354,12.263048,4.176029,3.0651371,-0.38330323,1.9460715,-2.0386224,-1.5491085,-2.9968154,12.190585,1.1067333,7.581164,3.7025414,2.9661427,4.306513,0.9028617,-1.5241195,1.4824473,-0.66094446,7.491864,0.9676462,4.979568,3.5723586,4.298446,-0.14828286,9.4881115,-2.4485795,3.540828,12.436906,2.9758065,3.1904504,1.7292835,3.2211885,6.2985754,-0.53043807,4.257208,4.309196,2.6284707
7.jpg,8.30673,-0.23923264,8.483913,19.92145,-0.71667844,1.5199939,32.427094,14.802699,32.288303,5.2756534,4.340048,18.24707,10.309584,3.7840679,12.409531,9.633823,3.907532,4.3146253,5.794721,5.0281057,4.3420815,5.6948576,5.9203534,0.45560816,17.123507,2.477519,12.563968,5.563413,6.773796,2.4585512,6.9062853,7.474392,4.2745285,4.6854963,-3.5311692,1.4260134,0.8409646,3.5499296,9.338123,0.5376874,4.662646,5.5208173,4.4293356,-1.1887705,3.448467,1.7060187,9.117279,12.375493,4.753996,7.8719893,5.617525,12.769705,4.256704,6.6573114,6.789867,8.111238,4.4996333,0.84683496,0.87348306,5.142669,-0.5172629,5.2144117,0.67249227,-0.49293172,2.241357,3.018595
8.jpg,12.027025,5.249409,-2.3972592,19.838799,5.6211343,16.262684,18.892006,7.7297373,15.280156,-0.3205167,1.20373,25.700443,9.7435255,4.918729,25.058147,1.1103725,3.8282092,13.380234,1.3265616,1.7296419,-0.06710133,10.91385,-4.2511916,7.5698266,12.169098,5.401355,7.808097,7.6364183,1.2589766,5.397078,14.727595,2.6516457,3.005393,0.49753067,-1.5462077,5.675689,0.13333988,1.2394884,9.500634,-2.2002425,4.992225,2.2995381,2.9998715,1.563238,10.3770275,-1.6639173,5.700787,0.58306205,2.1455984,5.7227697,2.0146315,18.02064,5.707292,-2.4217691,-0.9469794,1.941197,0.4280221,-2.4121897,3.6359348,5.23227,6.718412,2.3284786,4.193544,-5.5479026,0.5248139,-0.15074623
9.jpg,8.414903,12.590543,10.362544,25.749088,7.4095974,6.3580914,30.180914,10.776627,47.778862,6.8247447,2.9484558,10.458854,7.88841,5.5877037,3.1390011,11.777635,-3.3316302,7.595828,7.0757537,6.6258907,0.9313883,-0.9478528,-0.5239344,5.601589,10.989283,-2.5262384,0.71033406,9.402995,12.70383,12.675646,5.2393394,10.197202,1.8795062,2.448456,1.9169672,6.7007184,-5.287087,2.7212646,0.6284346,1.0897566,5.190055,10.911423,1.0399783,3.2858472,15.314993,4.0871725,5.3420877,12.336368,2.6640568,0.38646218,7.462193,12.167885,-2.6292384,3.547485,5.203215,4.8369718,2.5479987,0.45715305,7.039265,1.8010448,3.3157535,-3.1661012,3.6050518,1.1017265,-5.298156,2.6215236
10.jpg,8.948151,-0.45776564,7.3175907,12.329968,5.1849203,0.032177474,19.700466,20.979128,3.064213,14.400398,0.410622,9.036866,17.687698,14.991929,6.71141,5.2545166,1.9501041,5.0154433,37.283176,-5.6626277,6.5173454,3.3992703,-2.2300196,2.179148,11.747913,5.451328,7.965869,6.8110046,1.4547054,-1.7889606,1.9858241,7.8546777,1.6808734,2.8746576,-0.4133456,5.4007306,2.7242594,-0.08833487,14.448865,1.7239336,3.7088459,5.19407,2.9303231,-2.252742,2.788634,1.4454668,8.004456,1.0240481,9.76002,5.362647,4.680524,8.670059,6.058183,-1.1056358,12.346201,7.606126,1.441747,-0.48860833,3.3761284,6.238017,3.57753,3.7466667,2.2881708,1.211672,5.609589,2.1577659
11.jpg,15.77512,3.805699,9.766732,2.3429918,7.773047,25.787237,19.276535,12.153634,7.273898,36.90287,7.9716964,11.445221,13.276033,2.851085,10.401661,9.348613,1.938646,1.0193453,13.412905,18.34879,12.781702,7.09288,4.800842,2.6580212,4.431278,8.048356,6.71774,-0.8847639,2.9055889,0.2552116,8.550577,8.820825,7.990648,4.9520707,4.6626034,0.29053354,-0.0952445,5.5815005,4.8500257,-1.1349069,12.059234,5.2495937,1.8761568,3.006504,2.7046745,5.055394,15.828793,5.238631,10.0898485,2.0588183,-0.35197592,9.603318,1.0382268,6.5296216,3.8588092,8.514476,1.8607066,1.9538932,1.195498,1.5085567,0.78888375,1.6603873,0.09297524,-5.822486,0.9876298,-1.472036
12.jpg,8.668764,-0.16051336,47.99751,22.569399,6.189899,2.3965788,13.090025,11.448546,23.483862,2.6696336,2.511002,18.553375,3.1569571,-1.0965025,12.687828,9.817105,2.5468621,3.7574277,4.135661,-2.882459,4.354725,3.8127534,-6.0371037,5.07111,9.545086,8.278458,6.5758557,7.2126403,-3.7473392,6.492424,1.3448642,8.468609,9.354721,5.5334616,0.60853535,-2.5631182,0.036057364,7.6082306,28.436193,15.583854,6.0457754,-2.0291622,4.270859,-0.016688695,1.2888736,2.244527,6.496428,9.9609375,4.4824324,1.8139942,7.9120965,11.641594,4.392514,-0.85316646,6.9480577,4.413025,6.996532,0.4092927,-0.6956751,7.936144,1.4075065,7.6915445,1.7455231,1.4907582,-6.157304,1.0553201
13.jpg,5.5610614,1.1829823,27.153772,7.7204304,0.31843624,11.513847,20.361536,8.447217,38.190388,6.8612723,12.557961,8.559148,0.96672726,2.141735,20.947397,3.949617,2.875755,-2.2299619,1.6152117,-2.5935962,5.551148,2.3385236,-8.123779,12.481653,0.9847697,1.8496308,2.065105,5.7969,8.071292,13.182274,-0.6223876,10.29391,5.758921,4.819176,4.976243,4.146877,-6.017141,6.8121595,4.9012394,-1.360819,-0.58079094,3.8611703,1.2731718,2.3934252,-0.31622425,-0.014538271,0.6435574,-2.5326493,5.20178,0.8644716,12.524502,11.151845,0.10312628,3.363133,10.44897,6.9571123,3.28201,4.8361564,3.9053879,0.45713195,1.5791728,0.22001994,8.214706,3.1526453,5.42698,-2.7208068
14.jpg,17.436113,13.076715,13.532509,0.90260005,8.050791,9.8581915,29.068703,23.263733,10.531906,12.694573,-2.2045553,5.820596,23.682243,-1.1655065,17.051634,-0.4351508,2.6002822,3.3527434,12.870157,4.0532007,14.375342,10.207708,3.6632073,4.5913177,8.424364,7.573156,8.540615,3.7933867,-0.24671349,-1.2607436,0.73719275,-2.1488073,3.9213755,1.9075699,1.0809726,-2.7298794,-2.5845983,-0.39175087,14.192321,2.4770439,0.47083375,9.2145195,5.169632,1.4932781,4.509367,-4.2795906,16.20082,7.7178545,7.03567,4.5384126,5.027247,19.948982,3.8206637,3.8072135,12.891232,3.2745898,0.942743,0.65212643,2.3851435,1.505691,0.6597709,7.079208,2.6263845,-3.105719,-1.6259723,-1.7975576
15.jpg,18.948927,9.346946,13.530119,0.10364838,14.301135,4.7926884,17.690897,17.497854,7.120993,23.045856,-0.776428,4.7439723,28.788399,4.1865387,22.840452,2.873332,-1.9169304,3.7563157,3.5430856,5.529171,10.041458,3.237297,1.975552,2.172229,6.4122214,0.44886675,4.3609047,8.760918,-5.546477,-2.675205,3.004376,3.136837,5.1604795,4.8205824,0.5567428,-0.38050535,-0.9920168,-1.2321812,2.8187764,-2.7131114,-4.582176,9.787255,2.6454253,0.25779167,5.442896,-1.1681767,11.423211,5.2033095,7.3083596,1.9415051,7.3906617,15.602515,3.5801501,-0.41752857,18.646822,2.0431564,1.8942153,0.88493216,4.331666,2.0057087,0.9663107,5.451602,5.2648797,-3.1356254,-0.6956271,0.33463073
16.jpg,5.7147417,5.932878,12.764743,5.284401,25.659782,3.485691,14.643279,14.501113,3.4878983,19.705006,-2.0723784,6.987018,37.7677,7.496585,11.684202,10.118677,-0.69677055,6.1951184,18.464622,2.641661,9.223807,3.5980508,-6.9127164,3.1815567,14.995705,-2.0972548,6.6332684,5.129736,-2.416382,-2.5405943,2.278203,5.2117944,-2.5988455,6.8877735,0.33956608,-1.904792,-3.9625497,-2.227638,8.45136,1.1685718,1.9713339,4.103379,10.527276,2.9749806,7.310691,1.8975189,7.7306733,4.745959,4.668877,3.6057613,2.6439004,11.331759,2.5358102,-0.13463572,13.89159,4.8616977,-0.040160026,3.2774477,5.9402337,4.341524,0.3036291,9.036623,1.055436,-1.7024394,-1.3560028,2.983208
17.jpg,9.825078,6.31723,6.0404353,1.6141247,11.681014,-0.3983544,16.04911,16.484934,-2.5436654,5.787129,11.730629,32.20747,8.495967,28.241814,19.432875,2.7452374,-4.8444414,3.7901595,4.076217,7.268708,2.5110455,3.6462176,8.346096,5.490023,5.2720747,2.7611642,2.665144,-0.19202916,1.7063701,-2.2466154,11.679001,9.303333,8.313183,8.236996,6.1055613,7.0066743,4.790673,2.1986656,7.98007,1.7618399,7.531713,-2.2080183,4.5596237,3.2740786,1.5132434,-1.526975,9.312471,-4.8729653,5.437002,3.6594648,1.022479,6.782386,5.172816,-3.7996254,1.4163754,9.035034,1.5063633,-1.5359541,1.478534,6.2071843,4.35809,-1.9916723,5.101365,-2.2356243,1.2527844,4.1443567
18.jpg,16.083885,4.0839186,11.072686,9.660819,5.1766076,2.9128335,12.986496,21.096193,8.779779,9.474304,14.605702,26.269526,5.01257,6.6729794,17.39448,7.2793813,-0.34213504,4.117481,3.7506044,4.416447,6.1967254,7.2964864,2.255804,13.587795,5.340138,3.7416518,7.5798087,3.2786868,3.0604682,2.9099166,8.148232,9.25228,7.135231,5.458519,8.232178,5.907889,0.7452721,9.711747,7.9417787,-3.2740653,9.107981,-0.4478761,-1.4015785,0.9831846,3.784234,3.2517626,7.877228,2.6414537,9.488587,3.2339108,2.6730604,9.729631,4.0075536,-0.9039475,3.759984,6.3276334,2.3449621,0.55812067,7.3108716,8.175674,2.759539,3.5281525,1.2019464,-4.812715,4.822184,3.5293574
19.jpg,12.979822,1.1013161,4.587708,27.95388,2.2433612,-0.057500973,21.607141,11.8141,30.755096,-1.2956697,6.949189,29.90017,2.1062548,20.789669,10.23591,7.9572787,-2.7727008,9.793873,12.850668,0.51356524,1.2518419,2.6388233,-2.846625,6.8150997,8.818675,-2.5244994,6.954751,7.817434,10.228542,4.529627,5.338979,14.747271,13.37195,5.884504,1.1223032,0.5594622,-2.301152,2.7542593,16.193386,4.731651,8.971713,-3.1407735,-1.0845137,3.2253437,-0.6870646,-2.4420116,4.66606,12.7330065,3.6254234,2.872035,3.1231089,7.6069736,4.4739923,0.24643597,3.802418,2.3785744,0.85333896,1.2649364,-1.1235589,4.44078,2.415456,3.3866785,0.30998084,-3.6544123,-2.4170136,-1.0820416
20.jpg,-10.380735,19.06664,30.96848,9.432399,18.00198,-2.0862541,24.475483,6.073525,31.83359,4.326227,2.5742,9.459847,7.7430234,5.576588,7.0796223,0.9508638,-5.329424,5.926254,13.25096,-2.5738592,5.063907,1.2950692,-2.7890325,-0.805318,2.4296339,1.2001531,-3.1182294,8.848321,13.210861,12.422859,-1.1979367,5.982777,4.303417,4.7583833,2.6808853,0.3904381,-0.48545226,6.480939,6.097501,1.8359393,2.9016213,5.750781,1.9323789,4.420756,-0.7928915,-2.6125748,4.3096848,-0.6513218,4.0885196,0.048208192,7.1604195,9.127997,-1.7203478,5.2389674,10.2544,5.343975,2.0015233,1.4866384,-0.27296272,4.211178,2.109398,2.140132,2.646358,-4.936086,2.3154123,-1.7690277
21.jpg,-3.284768,5.622646,14.402946,13.82566,6.3953624,4.9098525,41.755478,14.4110155,26.174788,11.889082,11.897097,18.269419,14.388954,9.304946,16.214937,12.135343,1.2683839,3.5101776,3.457591,3.8167481,1.0260942,-3.227149,1.7909385,7.2044454,8.355954,7.2094865,0.12171101,8.094156,3.9543538,3.05052,4.7747545,8.931305,-1.4442239,-0.8286244,1.7121732,6.327308,-4.543946,9.780328,8.373941,-6.462781,3.4133155,2.6293178,1.3281088,-2.486331,3.4850764,5.1760263,8.222451,3.885917,6.244123,3.6902368,8.090262,13.796793,0.15762663,3.2954667,14.153028,9.581618,6.1386013,1.4796319,3.3779397,-2.2657008,2.8233993,4.1550694,7.5977182,1.9577734,4.0853095,1.1639601
22.jpg,14.604873,-0.908795,8.583128,1.7470725,15.005051,0.12356103,15.702198,20.850723,0.97047156,8.160091,2.085254,20.099962,23.053553,1.6547866,14.094058,3.5090837,-1.7176528,3.6717727,14.390773,7.030718,12.984866,8.056588,4.2028613,-1.475914,12.294533,0.36587453,-2.758178,3.6232033,-2.2923665,-5.344254,4.1143723,7.2408915,8.74921,7.447935,7.871236,0.83292294,-0.25010455,-3.0423288,5.720169,3.3931978,5.457507,2.5839026,3.235719,2.4719813,2.6324646,-5.716938,14.94929,2.9076786,13.196151,3.0571043,-2.7418835,9.2303,6.279455,1.3924706,8.091652,6.319151,-1.0652398,-1.7818913,2.034385,6.7389145,2.6538346,4.4294868,-0.22193389,-9.604532,-3.4205992,2.962897
23.jpg,12.314248,4.16478,1.4929792,9.469237,5.481531,5.85435,30.976164,16.910965,17.82932,16.006666,1.5193219,19.962523,3.107274,-4.62787,13.89837,9.738768,6.1294208,-5.021237,6.853704,14.660232,10.833275,-1.2230817,14.0344515,4.6078134,11.398372,21.177439,4.9403644,1.7344359,-4.402972,-0.65683496,2.3792021,7.2009892,6.507921,5.6853476,1.7855458,2.5899408,-4.1399546,1.735581,6.525816,3.5871148,0.185405,3.4487891,8.923886,-1.0353853,6.3190446,3.6171901,8.272737,8.54466,5.9503174,5.8964124,0.6641197,14.557123,6.044589,2.5794518,8.399913,1.5097147,-0.99529326,-0.14827968,6.1597457,0.29868293,0.95237225,2.4972012,1.1424279,-6.490933,-1.9268103,2.2577956
24.jpg,15.148473,9.258741,25.387531,13.521661,-2.8435197,3.9575896,37.965305,8.253166,37.256355,7.526432,8.276845,12.2724695,-4.3570075,13.239964,4.348391,1.146455,1.4909074,13.261848,8.587104,-0.9186279,-3.5592709,6.6604385,0.20635253,5.176252,4.013472,-3.2086656,7.792445,10.506558,9.409735,6.689114,-2.642648,8.024015,0.2718446,-2.356917,0.2809666,5.873073,-0.33553448,7.806194,-1.2535785,-0.92445016,2.466333,0.2514632,-1.3281571,4.048053,1.8488109,3.9475174,2.9235814,2.5614471,-1.2034026,1.1922834,5.2640543,11.284839,-2.9498982,2.041147,9.458482,3.183217,1.1038607,2.7736883,3.622655,-1.9420145,1.1584449,-2.196867,1.0928336,4.2910223,1.2322074,1.0550181
25.jpg,8.950225,10.090706,4.680081,12.777683,4.3940535,4.3600187,33.654045,12.879589,5.3386345,8.151479,3.1834111,32.332653,16.593792,12.186541,19.994919,5.7574415,-2.6705856,2.6329927,5.7772164,7.8080564,8.713248,7.4448376,5.144663,8.818465,8.843686,1.4942665,2.4316912,3.287271,2.0643988,-3.115341,4.598381,5.507397,6.453903,8.237171,0.566563,2.227592,-0.29802945,2.67495,8.751622,-3.2523751,6.2605424,8.759899,3.153231,-0.5412618,6.204798,1.1346334,14.65551,4.9303875,9.7980175,5.2354765,3.7920053,19.732445,6.931366,6.3366184,7.294721,6.0969872,-1.5159124,-1.5310504,7.593375,6.9782996,7.456523,5.375724,1.7708223,1.1332217,1.9266446,3.2416801
26.jpg,9.360864,4.4537005,13.44743,3.0406966,26.004583,6.3344703,18.353569,15.13345,2.588055,20.460629,-0.99611914,19.20014,28.824291,-0.5134445,15.976198,1.6214358,-4.3021393,-0.83741677,0.6641964,5.213586,10.859137,-1.9788148,8.441669,7.21317,8.922214,-0.25783813,0.17444508,1.4953774,1.1365936,-2.0802948,5.197429,5.975228,2.5553987,7.2339683,5.020284,2.5900369,0.14271182,0.032214493,0.46239254,-4.1648054,0.628854,6.4977183,5.307397,0.08246922,3.0603592,-5.1569586,11.516388,0.049512833,17.702324,3.6980488,0.89766645,9.393097,0.81259406,2.2824554,5.7720866,5.9750338,-2.1132066,0.41011348,8.499381,6.516088,2.496555,1.772478,3.4986637,-6.791723,0.6981631,3.5759878
27.jpg,16.656143,5.5276766,-0.27156317,4.3451877,-2.3394897,-1.0138911,34.8615,11.330232,5.560348,6.114225,2.0378487,31.29415,15.252163,20.095917,14.8379545,2.0072546,-1.6136839,4.8050876,3.2323234,5.145437,5.80204,3.625137,2.8091595,9.774233,11.706566,1.6554296,2.9108953,2.003672,3.4709222,-5.581341,5.554594,9.595708,1.5043725,3.9750164,-1.2906207,4.012944,-3.0851905,0.27750954,8.329718,0.39697742,6.1395707,5.7549186,-1.687894,1.2210546,4.32763,0.39137352,11.772295,1.3053257,4.934075,1.2503605,2.2936103,19.205524,4.855509,4.482641,4.717853,5.2094536,-2.6614542,-2.1800842,7.3045926,1.0893675,3.4431462,1.1945221,2.146575,0.27175498,-0.5304986,0.22676024
28.jpg,11.848648,3.4441028,20.05243,12.334205,7.105838,6.6015663,24.06952,4.9846478,32.293285,8.146078,1.8940492,26.463112,6.738141,3.7566462,12.421467,2.1080217,-2.1217864,3.5046122,-0.30919132,-1.0765626,0.92563534,-2.8468149,0.9583042,9.922169,7.778705,0.76348895,4.317888,11.723426,8.528778,4.0425167,0.39956087,6.43958,0.21678582,0.55406636,1.7669986,3.5968835,-4.053807,8.740372,2.3388503,-1.029788,5.6917496,-0.76397055,0.62119013,1.5772272,-1.483339,-4.3256483,6.2496586,-2.1994925,7.818492,1.081326,6.93988,12.9576845,-0.5512583,17.646309,6.361612,7.9660974,4.102856,-1.2141771,3.4026601,3.9550796,4.469299,2.4298427,1.1510705,-0.6730389,1.9977427,-0.99947166
29.jpg,22.059475,3.749385,-0.8908366,15.12356,8.621422,16.681238,24.988058,13.608209,4.4553146,12.092091,1.7793695,10.612632,24.256355,7.1136656,7.1168876,5.6548414,1.0556685,0.01505455,17.33102,3.1665604,7.298736,14.034678,7.847391,5.235591,5.4834576,2.0300825,6.3410015,13.779299,1.4905127,-8.112433,-4.6848545,4.0906744,2.1480887,8.0618725,4.375813,-1.607032,-1.6488528,1.5277665,6.4855947,3.123722,3.5295074,8.303574,5.177825,3.5521402,4.483791,-1.405379,12.387051,5.7118974,9.940091,5.028932,2.2955894,11.386127,3.371612,5.2228794,12.414483,0.95233935,1.1811461,4.5943456,3.8362253,6.8576374,5.6862907,26.251415,1.4191784,2.0641925,-5.465062,9.732459
30.jpg,0.5417857,26.835478,18.131006,6.370841,16.04282,7.3518844,32.559517,0.7477605,20.267784,4.40666,1.6836323,11.761007,4.5007935,3.6541688,14.054283,0.95759064,-3.2206635,25.352283,7.811336,-2.0374043,2.96196,7.342871,-3.8681111,-0.107416466,8.128861,1.5337168,7.326412,7.396263,3.9661336,1.5834734,0.9203569,5.5475755,5.003642,4.4217477,1.3823373,-4.8784666,-3.8482838,4.550407,4.9461637,3.8015485,-0.70445764,-4.9908066,-4.123047,0.43836236,-1.4919158,-2.161447,2.9933214,1.8590709,3.6295257,0.57517177,3.8253896,10.484441,-2.1376112,4.980633,1.4417475,-2.1567867,1.3873498,5.115475,-3.708695,6.036292,-4.006464,-4.578964,0.19186334,-0.98720354,2.7962697,-1.3606919
31.jpg,16.578625,12.486728,-7.824009,11.694633,1.0918696,5.1892543,30.38367,10.029565,4.2776556,13.304784,13.859531,20.06561,2.74719,-2.3982444,25.629372,19.080576,1.7524904,16.235416,1.8921431,18.704523,6.8571672,5.423384,21.490738,4.200957,8.348123,15.792005,5.372755,-0.06639529,5.0744014,-1.067954,10.89019,11.383454,2.844197,2.218823,6.5671296,-0.28550798,-0.16194266,0.8124372,2.899396,-1.6174536,6.2275314,-1.6493641,3.7100475,2.2360091,-1.3770124,7.9803915,5.910691,-0.864274,5.9930954,6.15008,3.3152661,4.2901154,3.5069487,0.649154,2.226026,6.0653734,3.3089387,1.3859445,0.5279476,-0.72344893,2.813046,1.6682141,8.705751,-0.2552886,18.26891,0.08136905
32.jpg,-0.1569883,-5.8575926,35.183273,8.903349,29.090988,5.626153,25.639307,8.137509,23.860756,14.569345,0.8747503,13.865187,29.545986,4.734829,5.35467,5.197073,-4.5779934,2.0272079,-1.2810019,-1.2616745,3.0428984,2.2588305,0.4947939,-0.06870338,10.656083,4.264924,4.8527493,6.3392015,13.356255,0.43228734,1.8571761,9.013842,3.3313909,3.1976163,-0.6670991,-0.76684785,-1.5021336,10.520287,5.964588,-0.278925,3.0268996,-2.6550136,9.957335,-1.1625524,-3.7846391,0.6560175,6.878902,1.4672835,9.135732,0.6052677,3.860556,6.2362933,-2.8385413,4.511213,5.965717,6.4804397,1.1181791,2.6328201,-1.1742061,3.2522223,1.1309267,3.8415432,2.9528341,-0.7900028,1.228502,3.385751
33.jpg,33.36631,6.42433,-1.8877918,15.692584,0.85117185,18.78614,28.835058,18.770918,1.1667373,13.969146,3.0784192,24.91216,6.7482176,14.211084,17.745409,3.111347,1.299315,8.021354,4.386438,1.5139382,1.0351454,1.60466,-2.6571302,15.537828,7.411374,2.5191574,2.4747276,14.184245,2.4057937,-2.7213278,2.6563292,3.9238236,7.724221,1.8998163,2.5099964,2.338093,-5.266161,8.38056,8.563367,8.008644,-0.7298581,3.3645933,-1.7480907,3.4119635,5.7528043,-1.9598567,9.065536,1.532488,17.48367,5.9135756,3.344073,18.043087,1.5041094,6.7308145,8.702668,-1.4102231,-0.5546148,4.2805376,4.7786765,4.083085,7.8224874,-0.16843945,2.5044923,-0.7828128,-4.1168942,-3.2197819
34.jpg,6.9338875,5.1213355,19.15334,6.25581,4.972709,6.1755404,16.857637,23.864534,6.153729,9.917244,-0.82952,10.524308,19.000055,5.543131,21.208426,6.72205,-1.9429972,10.658115,12.79405,4.49547,15.862205,0.7273639,6.1040254,-1.5510668,9.983161,6.485286,-7.051643,1.3968885,-0.4534141,5.343727,7.9603047,5.2148476,7.1434355,10.978454,5.179514,-8.421416,9.751199,5.3125944,2.8237689,7.358209,5.779296,7.889677,-1.707951,9.439874,7.37834,1.3578115,5.00209,7.061496,3.7011662,-2.3420448,0.4912002,1.803926,4.837163,0.08420874,7.835605,5.749862,0.49558616,5.070229,2.8778884,2.0948358,0.34128296,2.3167324,4.578529,-4.1906743,-1.3241053,8.34767
35.jpg,10.639371,-3.4800847,9.983869,12.083101,-1.7365685,14.861234,18.716946,12.957308,5.7726917,1.5068018,9.830551,21.789549,12.860133,14.711277,23.607912,6.754287,-0.8028042,11.304073,32.249016,2.1708674,7.9487524,9.244889,-2.6502583,2.0365424,7.740058,3.9950223,0.050632842,12.117057,-2.1179194,-1.6256448,0.7174778,5.778836,7.412816,0.7267012,-1.2146367,2.5288491,-5.278758,3.1582336,18.914938,5.623713,14.384466,-2.567265,2.1900587,2.523721,-0.823763,0.96166265,6.726221,4.1340637,6.0634246,0.34407404,0.10293298,4.157894,0.9242095,-0.42802924,2.492504,8.494158,3.639359,0.085839584,-0.6636827,6.5185122,1.3952087,8.884584,0.26122487,-2.5448174,-4.0075836,3.1404548
36.jpg,1.2179981,18.061157,17.485928,9.969277,6.9204435,15.452537,22.078493,12.50315,16.624168,11.791063,10.106185,20.374792,8.658405,0.6482845,21.274576,1.2027733,1.9877756,6.063255,9.982052,1.2524296,6.069578,12.535583,-5.300273,-1.8055251,8.16044,3.1777945,2.1019294,4.2559586,0.41441703,3.801422,3.4232855,6.6232777,6.708437,11.445647,3.7537165,-2.6110988,-1.4798158,2.6087444,10.836593,-0.26644635,9.474954,4.298979,-0.18144862,3.8012526,18.397068,4.7818565,4.278126,0.7603132,6.992201,3.164668,7.057292,4.321424,8.244695,-3.1254272,4.188101,6.859141,2.7380564,2.7455666,4.2970963,7.095308,0.87090063,5.413642,1.4642699,-1.1041782,-0.5678425,1.1784301
37.jpg,20.308598,10.7535515,6.794767,2.1877272,4.8950634,7.0073576,19.628805,30.30947,10.545318,6.6651955,-0.0792237,7.832617,17.071875,8.320764,9.667943,6.434457,-1.002515,0.6719701,0.18076739,10.106214,5.7024045,-1.6620219,10.543278,-0.72512144,6.098409,-2.9303396,1.5180223,3.8388956,0.32432806,2.8064764,1.980434,7.369765,9.172984,0.019120261,-2.136149,9.058566,-5.4860163,-0.24607041,5.0940995,-2.9142861,2.2837763,4.763048,0.22140294,-3.7832503,0.049703196,-3.5893593,11.343837,9.181876,6.541423,1.0954075,1.3054266,8.532233,0.064584896,-0.4905123,6.3975854,4.7499886,-0.31644776,-0.54561615,2.5522852,-1.8115776,1.8810858,2.207388,8.432224,-4.177599,-4.0376196,3.657924
38.jpg,20.19887,5.4137516,4.343234,-2.1429725,-2.4038525,6.017584,17.152157,23.360601,5.3889737,11.660406,2.8212678,9.622686,13.80886,3.0675762,9.918016,9.073852,4.531584,7.852537,46.571953,11.351898,7.0250235,4.437839,10.5194025,6.0808907,10.439645,3.5087376,3.7966342,1.7871429,-2.1639655,-3.899312,0.0011191703,8.764259,6.13947,3.3006437,3.5021093,1.3086691,-2.5666487,-4.8772244,15.384643,2.6110997,-2.1888952,1.1328113,-0.5842586,2.4565423,1.9268698,-0.5510316,14.379806,5.8709106,5.3924403,1.5107114,1.4828535,8.410436,3.9349637,2.8451047,6.3675947,3.7221537,2.6663117,-0.88701826,2.5124598,2.7614334,0.31849593,3.755839,1.4573245,-4.5696282,-1.3504137,2.369217
39.jpg,8.147977,14.624222,19.792568,1.8633726,18.100061,4.986968,20.839445,12.979605,23.046862,14.96449,-1.260412,5.126589,30.618366,2.6375334,11.882833,11.702938,-1.7381194,6.611561,6.6403465,0.5383568,6.7817264,1.3991469,5.1197953,1.4777113,8.01661,2.2478087,5.607128,7.7409477,1.2559017,-0.5597873,0.9572706,2.9768043,-0.5749896,1.5737727,-3.184147,3.5179436,-6.4567313,3.5246427,12.278857,-5.8092084,0.21519102,5.034237,4.760822,-0.41770032,0.27034274,-0.2420324,7.322351,6.8456836,6.232046,-1.0733998,3.4743152,10.928542,1.7753803,3.4653523,16.372608,4.0467367,2.158679,1.7716196,0.7077359,1.6745964,-0.8529335,3.1389434,-0.20912774,-3.905255,-0.07909788,3.1659856
40.jpg,13.915303,12.683694,11.163752,0.50985533,6.352705,0.6720541,27.521376,32.367443,15.349178,14.448368,0.17754751,7.736614,22.880344,2.760491,12.599807,9.597922,-0.4464763,6.2747045,8.451973,6.4085426,9.7724905,1.0521802,7.3760443,1.6265837,5.411128,4.340952,5.017812,8.897961,-2.0158787,-2.2081041,0.43156204,3.9050684,4.6399975,5.571904,-0.102560036,1.9142907,-3.04625,0.69205433,2.9244914,-2.233541,-3.8150642,6.0412397,-0.6745493,-2.4932973,2.5313134,1.8532915,11.858815,8.845051,8.306598,1.7578512,7.7624044,14.621052,2.9772167,5.7462015,16.633488,3.674453,1.7856076,2.591172,0.9806789,1.0160606,-0.1346814,3.6645908,7.912085,-1.3986973,0.99455136,1.8751624
41.jpg,22.282276,8.581314,12.04782,16.93621,-5.412036,-0.41823232,33.753742,13.116513,23.31286,6.8921075,5.567243,43.994667,2.5058053,17.607744,7.3679423,18.959846,-3.7271473,8.389736,7.4041033,15.523683,-2.5140383,4.4589767,9.559008,9.244117,7.5777316,6.5273204,2.9241478,12.421305,3.288801,5.874084,5.5142946,12.621197,6.405519,-2.7935731,1.3608673,9.630947,-2.621607,8.377922,8.156246,1.6928892,-2.128302,2.0586483,-1.681601,0.7218387,10.541541,-1.3167422,7.96819,11.603194,5.8736467,1.4408205,2.4045324,14.795912,1.3621854,15.672149,7.9948096,0.6207403,0.49959534,2.741537,0.75674486,-3.55363,1.7711513,2.4102829,-0.13207243,-2.3688736,-5.1180773,-2.8220766
42.jpg,16.492756,2.6977043,63.860558,4.730909,11.50003,2.8540714,8.777918,12.123786,3.49043,2.9193976,5.4195056,14.924422,8.573462,3.5114198,7.08982,10.990444,2.9299815,5.2943296,23.478182,10.3146925,1.1906579,8.886719,8.634258,1.07052,4.4369636,4.9622273,4.587648,6.4623394,3.928313,-4.4507666,1.2153013,8.368869,5.871161,4.188668,1.5599582,3.186429,1.4594603,3.6584542,19.3192,7.671424,3.1905818,-1.0402579,1.8189493,1.945932,1.1505517,-1.1014379,0.34273836,11.231149,-0.92344356,0.36232248,3.0316691,-0.6962573,0.7779482,1.9398583,3.7058644,4.4660263,3.2273915,1.2172644,0.9801913,1.5223577,0.99697465,12.625715,1.4280479,3.1246896,-5.7666707,5.6956577
43.jpg,-3.878731,37.984333,57.33845,3.8511407,14.925077,-1.3802739,4.7725716,1.7581012,2.8522668,-1.8172171,1.6745886,9.535546,1.6926177,1.6131518,4.0744715,6.32758,0.6980733,4.592431,6.3560276,0.41724724,4.7799926,16.99131,2.3775754,7.538709,4.488382,0.24872266,-1.2790827,7.0128098,2.729516,7.7602887,2.0099287,4.2467213,1.8292446,10.046314,0.6656801,3.662601,-1.5567592,2.1291952,14.097245,9.74706,3.205057,0.6277311,-0.38790196,0.28452453,3.7019334,1.8132018,0.9327508,3.5607312,2.899499,-0.4441575,5.957287,0.5706947,3.9203818,2.942059,9.857983,1.0406432,0.6280638,1.1390646,3.1887426,5.415966,-0.14639571,9.252885,1.2385142,4.1246824,0.27459762,1.2039337
44.jpg,15.941161,2.314557,57.48412,7.738819,-4.7497506,-1.1290667,12.145758,10.712949,9.123713,4.1990213,1.3810096,20.259111,2.4033985,2.384479,10.681512,6.523454,4.28333,6.124306,16.955143,9.609484,-0.098386124,6.081287,9.00761,0.61269957,8.8320265,2.12681,9.05309,3.5504236,-0.30507454,0.8453748,0.38622952,7.5014205,3.271604,4.8311405,1.2043124,0.8257729,0.20163386,5.696854,18.275726,10.088843,2.8724024,0.120354906,-2.87294,0.8422451,2.253269,-2.5930576,7.052064,10.423612,3.4023192,7.5138874,1.782759,4.788285,4.1759357,1.4936583,2.2839618,4.194228,1.6695267,0.66660017,-1.845747,4.038175,-1.4543518,11.140171,0.9940664,2.0659842,-3.9767306,2.439449
45.jpg,11.915483,11.523063,15.607441,1.2300048,21.543112,10.764421,30.17656,14.602679,16.083063,12.207731,3.341684,11.48393,32.35549,4.150315,2.9824944,3.5579906,-2.2643056,5.1274843,19.152359,4.297482,17.34765,3.907374,8.511056,2.5378318,6.6884594,5.6320543,2.0217857,8.180783,5.04758,1.7996639,-0.5905891,7.7540293,3.0777013,3.9439971,1.5356449,2.162118,-5.5120034,2.2144206,14.176963,4.3126616,3.1744554,2.1112056,4.174398,2.5846238,0.42208013,-2.9674473,9.158688,7.7337174,8.894302,-3.0037353,0.9659128,12.634476,0.077954024,6.205599,9.949407,4.2675357,2.8332586,1.7720699,4.9156494,-0.82281595,0.79606575,1.7851571,-0.4300881,-3.3945527,-1.6108096,4.7147818
46.jpg,11.2720785,-4.52167,10.552449,5.9320383,9.401891,12.417027,23.584188,12.89857,15.473063,1.4073683,-0.3597672,18.789726,31.537464,3.6265652,8.538022,7.1879244,-0.9587914,6.334447,18.048302,4.5224423,-0.29082963,-0.94190055,-0.48991555,4.6255603,14.440851,1.395542,1.1433297,4.2639623,3.0571754,-0.8611189,-0.11982974,10.581079,7.0885077,-3.9847322,4.071065,-3.4281,-6.304521,4.0682597,10.190832,-0.13903119,0.045068096,-2.8375058,5.327078,1.5395727,-1.6588053,-0.025640778,12.23762,-0.09455499,4.0206227,1.072592,-1.9494295,6.998165,-0.035748817,2.7213213,7.115066,5.1273866,-0.084536664,0.73924845,-1.5778522,-0.022161007,2.0462747,1.4750432,4.3546925,-4.76383,-0.31358096,1.4553053
47.jpg,21.405216,-4.211453,12.096561,2.279134,13.848744,7.576309,13.416388,7.5327797,3.0080054,17.41537,5.899637,14.650315,24.46276,5.355706,8.806678,-2.1279407,-0.8451946,5.512503,10.437885,12.100848,4.515015,-6.4412117,4.0936484,-1.5071293,17.149862,6.126989,-3.0632548,-4.084665,3.1650324,1.4315778,3.9721482,9.792794,17.17792,7.9654255,0.83015424,-2.5589387,0.64985085,1.7206095,8.543234,3.8475661,7.7266364,-0.5100743,2.1631467,1.0391365,-2.093808,8.622175,19.709787,3.321936,7.807824,3.149781,-3.0113225,8.54261,3.3306956,-2.7344537,5.736819,6.0268664,-2.639432,-0.7424686,3.6105366,4.7891645,-1.4737033,4.4753184,1.1069182,-4.1527333,0.099225625,7.791387
48.jpg,15.252143,6.254262,5.515232,16.877209,4.368873,17.126524,15.924497,13.178708,10.561491,5.9125094,5.140536,20.069511,9.098957,0.39240456,28.01547,-2.3537047,-6.7235694,5.8425245,1.2916578,14.43474,11.414677,15.016688,6.9377275,-1.0302054,6.4438505,0.39883348,3.479849,-2.6400757,0.5270418,-1.3911775,1.9562702,3.584771,11.48346,13.482963,2.4284225,-1.2119268,0.76799506,0.5493574,4.2819767,0.32668376,8.570262,4.715085,1.2385862,0.8995301,3.9613743,0.034792162,12.188916,1.6105063,7.8869476,1.9027017,-0.8756427,7.554733,8.240614,4.2820582,0.4698939,6.4182134,-0.6167334,-0.6956449,-0.24566004,9.843075,3.3804846,5.7745566,-0.5611925,2.6190395,0.2648714,6.15882
49.jpg,10.721668,31.830648,9.963448,11.301425,6.964352,2.9375396,15.794824,1.1195723,39.06621,4.6982574,10.174362,8.9298525,1.0998472,8.586579,28.640127,-0.8262899,1.7574711,7.4047217,0.93798786,2.274914,1.6331587,2.2467248,-0.5225446,1.9460642,-0.9863997,4.368105,8.157311,8.783999,9.425219,9.230217,2.8826222,6.625968,-1.6141217,0.24517477,3.9464667,1.9369781,-1.7356819,9.450523,1.3002666,-6.425032,-1.8721312,5.622594,1.5283853,4.1592984,2.1430683,4.9690905,-3.6464288,3.1484318,9.279307,5.1700697,13.30961,5.467502,-1.1410803,5.433663,4.427405,12.857514,7.029454,3.1678877,-2.255395,5.5673566,-0.37237808,-1.4029646,5.286573,5.693768,2.334605,0.06545666
50.jpg,20.821354,2.1996837,5.614348,18.612585,15.176993,8.922124,6.004313,16.275888,4.1918254,6.186825,10.325827,27.525803,28.489834,14.435561,3.2735527,3.418415,0.3051657,4.334389,5.2216115,7.64836,1.3241869,4.076637,3.2201774,12.763717,13.571074,2.261265,-3.0174012,8.493473,2.8844216,1.2899116,6.4573803,2.4757142,22.062275,16.151178,3.9940867,1.552105,14.958742,6.024606,13.473329,2.2720766,12.039841,-3.5383046,3.8626292,6.7447147,0.44511625,-2.42923,19.659306,0.2192331,7.133694,4.9928627,1.2497082,5.9410634,10.660244,8.91211,7.1454277,6.0613813,-1.6030911,1.6257828,4.6606917,6.519123,-1.4954855,10.625569,4.635148,2.7095926,-1.1696154,5.54346
51.jpg,4.828844,3.9343476,26.690414,7.7532597,36.654736,3.2098358,7.9804583,11.045784,11.574444,13.810146,6.766041,5.9585595,34.578426,6.613765,2.4461703,5.700575,3.5574517,-1.1280673,1.684228,2.10212,2.7883797,4.1650386,7.7450833,3.2173097,12.248446,3.3144057,-0.56674147,6.884065,4.3387537,1.0101869,0.5432797,1.999097,9.875174,10.045669,0.65944904,9.253935,4.15024,2.5049696,18.907158,0.50491464,13.347136,3.2470827,8.0467825,0.13797507,4.5685387,1.6771827,13.338383,3.638806,7.1471705,0.24655624,5.026128,6.7048097,4.171374,0.70718366,8.626657,8.558491,-0.16238007,1.8161359,3.788989,7.747001,0.5443393,1.3619106,3.2887247,-2.1445441,2.5120118,7.1963167
52.jpg,7.1698914,15.669234,0.13816157,8.457032,3.079031,3.7028723,38.022797,6.602332,18.271482,1.3225129,7.7779217,30.604004,6.261547,12.112232,11.049987,10.419812,0.6483071,12.750617,0.2527452,1.2584643,7.839869,4.2408676,-0.59844124,5.7900877,7.920979,-2.8420622,0.9895619,2.1569943,9.401998,6.89167,2.4226575,23.87387,2.8258328,1.905714,-0.92404354,3.6411722,-0.99090356,4.3429756,6.1328206,-2.186972,1.9127022,1.4815161,-0.6287361,-1.4166315,4.8896456,-3.0105102,5.4058595,4.01662,6.3951774,2.2071314,13.637054,10.715014,-2.5536873,3.5840306,3.188401,5.5128393,-0.3191741,4.2803936,-0.19562593,0.8941559,0.5611979,-2.232378,0.34061,-2.155124,4.3208175,-0.43391708
53.jpg,14.225422,2.9611506,9.263089,18.018772,28.839308,30.001741,3.067721,6.4704714,4.926868,14.536369,7.30592,4.2255816,19.334503,0.9643264,-0.983198,-1.8583572,0.8285403,2.5253046,-0.27048895,-0.49847358,3.6632094,2.5076156,-2.9579217,5.1896334,4.4095407,0.16268818,3.8665018,7.280448,2.9717143,2.8945334,-3.2517817,0.19769576,5.03972,14.116819,5.387224,0.82491285,-0.5452219,25.331932,-6.197554,-2.3338835,2.3946538,0.20830119,23.83163,3.954841,-0.19681035,-0.34264135,-1.704974,2.935475,7.1023836,0.13185275,2.6844468,1.9523684,4.5676365,0.880545,6.0569673,1.1781714,1.2454827,0.58257496,-0.28536627,2.782588,8.295006,3.6540813,-3.0481524,4.3615127,2.6351836,5.947398
54.jpg,16.192202,20.470991,6.7476296,9.950877,1.8301222,9.977505,31.718052,9.982799,8.333193,17.643684,6.763788,17.13002,4.4817114,10.699209,17.573633,9.367739,0.91364646,7.9320364,0.5211418,2.3580146,9.479795,-1.4190257,2.7748902,5.9695115,1.3082147,6.1383023,0.46156138,11.306771,1.7160928,7.778725,5.3319306,5.821607,6.7758403,5.3348384,1.6387606,8.102965,0.09291321,8.908745,7.932822,-6.9314003,-3.9659567,6.9755154,-5.3093123,1.8210335,2.5946887,-3.730642,1.8529018,1.5891593,11.913814,5.0675793,9.318856,13.938763,2.6932197,9.762848,5.0954537,4.598085,-0.47538653,3.2624245,2.7290506,-0.17392822,10.020915,0.249123,4.4105144,-1.4843777,1.7548482,-0.7694154
55.jpg,2.235936,-0.54566306,16.255741,0.84035003,-7.0165606,2.857982,20.758656,3.8958032,12.720418,4.6771173,10.937497,18.636616,-3.304986,2.6757293,12.718476,4.2653913,-3.7633977,1.2423804,-0.30825698,3.3541985,8.087615,-1.6181045,-6.519311,4.5018506,8.527384,-2.8670077,-1.5428259,2.309235,2.027083,5.9948273,0.3701547,10.489616,3.4018614,0.19050464,5.674571,4.594623,2.5360231,4.970057,3.6333804,-1.117929,3.7624185,-2.4998133,-3.9196153,-0.054340344,0.12251027,1.8936133,5.3646317,7.486815,4.210178,2.265809,4.4017673,9.535905,-4.147844,2.3757596,-0.044994242,6.760417,2.3897383,-4.3977304,2.5622733,6.0837917,1.7758929,-1.2866156,-1.442934,-7.658361,-0.003275741,-1.8343862
56.jpg,11.158182,4.6448064,12.709001,14.609775,3.026463,8.386174,22.731237,7.654015,12.547546,10.67022,6.9715858,16.564226,1.5681345,5.5004168,13.457441,1.1257157,0.35617426,5.94131,5.6327605,2.198865,4.6770105,5.0124564,-3.5761561,10.494432,6.1497374,-1.9743778,2.893701,3.4336143,1.7069429,3.046085,-0.29038545,8.008432,11.422364,7.599515,-3.7863464,5.5386915,2.1727984,2.8307073,8.29109,3.7904234,1.0203205,2.0822453,0.81471986,-2.2878582,4.0394335,-4.8369102,7.114442,3.7759478,10.26267,6.138438,9.45931,10.822351,1.4735844,-0.31702277,4.4863286,8.48367,5.5345206,-3.386073,5.7855535,7.0232077,4.266609,5.8858256,2.0509193,-3.8531973,-0.8321896,1.3970361
57.jpg,5.709001,12.04769,7.3584037,8.204952,14.691727,3.9353788,21.256777,3.606302,19.93527,7.4621396,2.6059554,10.85003,13.339971,-0.13275035,20.372532,5.8134937,1.5142328,0.45106992,4.949384,-0.8578784,11.556874,6.1643305,-9.432199,9.20946,8.686718,13.953617,6.941162,0.6376574,9.356551,12.464898,4.996151,4.903742,-5.521803,-0.8999667,1.2742963,-4.338032,-4.0199194,-1.1496962,6.905601,-4.3603053,-2.4081035,0.62683856,0.37914002,-1.8511826,2.5563896,-1.1755873,2.310468,0.33482257,4.554226,3.9256074,7.245815,7.138243,0.025155814,4.297959,2.206085,1.1113256,1.678941,1.0610324,4.4376307,5.7530437,-2.070602,0.6138245,1.066987,-4.47908,1.6352382,-2.4456003
58.jpg,8.97804,8.125391,18.69692,6.1033807,1.099868,5.215596,16.118855,7.578801,8.235243,7.3077626,7.992556,26.913067,14.001822,1.0752612,19.795382,9.480868,0.0030288473,1.834013,0.5854061,2.125296,8.700911,-0.6645512,-2.373218,0.30319738,6.36058,0.555386,-5.320136,3.178286,-2.0911815,0.08056913,4.5715594,4.122927,6.485686,5.9801664,6.0186896,-0.6924894,0.4437561,4.287252,10.7453375,-2.6888921,8.575126,1.4225938,2.6606479,2.8264673,10.661374,0.7807657,9.165584,1.7499424,10.05703,2.2907243,-0.31576726,7.2946444,7.277286,3.91247,5.1223874,5.356561,4.0726566,0.60816854,1.7680026,4.870452,3.9524322,4.2670727,3.5314395,-3.4589396,-0.74398434,2.8362374
59.jpg,11.176098,2.703992,15.667937,2.5906372,29.084826,2.3063827,17.47605,21.423403,0.59649396,11.623022,-2.8376184,9.502568,35.865147,6.987852,5.5181804,3.241145,-2.6304529,2.6143177,1.1469755,0.30479836,12.532727,-1.9615852,2.7195592,1.1585693,9.130464,0.42653605,2.144984,1.2607388,1.5766723,-2.2591863,2.5208821,5.2896066,3.3792279,8.894521,0.5420294,0.23217666,-0.0021734508,0.34069264,1.3949242,-4.5118895,1.6813127,-0.93002206,13.893932,-0.22215857,0.47797447,-2.028304,7.069002,6.970154,6.732946,-0.22563012,1.4992056,4.6614046,0.5686853,0.065576054,9.737015,3.64184,-4.4859366,0.68961346,0.034465782,1.8159324,-4.0808215,6.351576,-0.39114082,-1.0037241,0.41776663,5.236056
60.jpg,0.66567713,9.047852,18.316124,2.4462495,1.0035473,17.277863,26.847494,10.4426,27.169191,11.432578,5.548926,15.476436,5.3721466,-4.517339,15.575603,1.6854689,-2.018795,0.4548001,8.912703,2.6500905,9.175445,-1.2149315,0.63611835,4.8474965,3.4912758,9.556417,0.37314314,2.2946672,-2.0320408,14.423572,-1.3317949,0.49303454,1.8168075,-2.7277844,5.600917,0.4685259,-3.8185418,7.538659,7.431319,7.0523396,2.4075162,5.651882,-0.8726364,7.488627,2.4591944,-1.1047381,9.431237,0.95667726,6.2511163,0.97275525,9.487,18.8475,-3.7865613,2.3545403,4.554403,7.132725,1.5446492,0.302439,1.4936645,2.932608,3.4354172,4.1802654,1.3160672,-4.4803276,2.8085723,1.2721097
61.jpg,12.323923,7.063887,7.7134004,6.5216465,-1.0049059,1.5290767,25.26934,12.85457,22.434607,6.438823,6.6987457,16.48047,3.5735424,4.2625904,14.413831,1.6311947,0.30667874,-3.8634458,2.0622318,4.680594,14.013605,3.1691718,2.7586236,4.709992,2.8846636,30.614042,5.5044346,-0.8920418,-7.2846184,3.7230268,1.3202664,2.134003,4.994492,-0.96654093,-0.47543254,-1.5978667,-7.410301,5.513967,-1.4120704,2.8178596,-2.3018324,2.9214628,1.6669449,-2.4838102,3.4155772,11.9803705,4.7769566,2.5424664,5.2087374,-0.0028582988,1.8259565,9.372721,-0.32257944,0.53361124,9.226174,0.77967227,1.9938152,-4.9527993,3.606328,-4.2139454,-0.7622793,1.318874,1.0679754,-6.1176176,1.5785139,-4.290814
62.jpg,9.862397,2.5736797,7.114263,6.3350453,13.039005,7.9122977,29.126749,6.6959605,12.159147,18.896883,0.41839033,15.167483,10.5760355,3.1501322,12.135525,0.367281,1.4827139,-2.1741803,-2.68051,0.9577226,9.53011,0.8884822,-0.45062694,6.4412503,10.551198,13.830823,0.7381972,-1.6166327,-3.9720514,3.1029012,0.11887434,2.8505907,2.0720584,-0.096286274,4.378471,1.8087447,3.9155476,11.117397,-0.21520165,2.298044,-0.17741612,3.8663342,0.059316307,-1.245183,0.871888,-1.5294001,8.547826,1.9620206,8.185089,4.815351,3.0031703,17.670145,-0.103815086,3.5144224,6.911854,3.5089583,2.2419007,-1.73692,4.9245605,2.22887,3.8958974,0.91682327,1.4789788,-5.0062494,-0.98163515,-3.2856114
63.jpg,7.656912,6.76046,6.998294,-4.804414,21.858212,0.1538083,20.536343,11.205254,3.662173,12.752371,6.4130588,16.190645,17.395262,-5.38591,16.140278,-3.5078976,-0.11904463,6.8260603,7.2060714,6.3094645,12.067564,4.2995977,6.056807,-1.66528,6.347429,8.811915,-0.47709885,3.1785526,-0.95052654,2.0561666,8.686609,9.591934,3.7148385,6.1516867,5.6700606,-1.7693471,-7.6077247,-2.2288725,6.441058,-1.8119991,4.474771,0.25175527,1.774009,-0.57912713,-3.879486,-3.8156033,9.730592,-1.2540928,7.8687563,-1.101283,0.82653713,7.134108,4.3536706,1.1394886,-0.10117619,6.446462,-0.38737747,-2.1737735,0.42762002,3.6197689,-0.055412576,2.5527124,1.2088146,-10.007911,2.118731,2.3276372
64.jpg,17.527102,-0.41070077,24.406895,-2.6267986,2.1856427,7.0599384,32.765457,9.394737,26.006586,14.658241,14.634435,6.4423313,5.6920753,3.3611395,9.314202,6.5731106,4.6509385,1.8472334,3.9661183,-3.9601922,2.7487023,-4.7096534,0.35711452,5.0962634,12.921522,6.950667,4.8801,7.0264616,7.1285896,7.342568,-2.0824637,14.018637,-1.9769218,-1.1406571,9.333002,4.2028437,3.235866,17.102821,3.3488472,-1.0506008,2.7703564,4.7491684,1.2389445,2.20456,3.3466258,0.1768115,1.1655972,2.548431,10.325028,1.709656,4.4815702,18.23705,-0.76360524,5.9353724,3.7906237,4.547229,2.9776752,2.9694073,1.979097,3.694151,1.6270125,0.3092453,2.98382,-0.9293417,-1.7374684,-3.5701976
65.jpg,6.9607267,7.3263144,8.322655,18.922623,2.5553691,4.099736,36.585587,5.694502,27.490776,14.656955,-0.1659912,4.9503245,8.53651,6.028614,2.6522295,11.723939,8.430725,-2.3881261,3.7909718,2.2711654,8.765607,0.021226145,5.6355777,7.0423455,13.021644,23.217546,0.9462621,2.8964148,1.2375151,2.9521627,0.3135085,4.554367,2.318843,2.7655091,2.6962183,5.575193,3.3594005,7.2401276,1.9653082,-0.6591714,2.3519375,10.421913,-1.1949496,2.356431,5.9357924,0.55355257,11.280235,7.6550975,10.223019,7.6431146,11.813397,19.29373,2.4666197,5.145317,9.521104,4.307027,2.90366,3.3447933,5.329106,3.8709931,5.138163,1.4479785,5.877951,1.8274109,2.2780452,1.8761922
66.jpg,1.4363344,3.5709455,24.217382,9.340863,14.933999,11.115105,29.164124,6.869737,28.718046,5.529793,8.697511,4.9792976,0.39932504,4.3026824,4.387611,3.0119922,-0.15399456,2.310566,13.551561,-5.8842163,7.973043,-1.6179923,-5.7664948,8.153799,4.6303244,8.876459,-2.9032686,2.8821874,14.901103,11.102287,-2.0755746,12.6928215,2.7448013,5.753356,3.9155424,5.685981,4.0497794,8.264785,9.04532,3.8511255,2.7770004,6.154678,0.6217168,4.060523,2.3352191,0.7541353,1.5243279,-1.3600777,7.73319,-2.4692497,20.525759,14.605776,-2.191129,7.5443754,2.8955336,8.795543,3.9722636,6.50508,3.8543403,5.875019,7.7069006,3.537455,4.980031,3.7931342,4.940109,-1.0042726
67.jpg,1.636894,12.015624,9.51707,12.95948,0.9230299,6.913828,39.13812,0.19328226,19.086515,15.8159895,2.169752,18.192493,7.419134,7.9727182,9.401155,7.307721,20.141682,-0.40353435,-0.7730943,6.486568,7.2162256,-0.59645045,4.2780824,12.13408,15.681295,5.8794727,0.7183235,2.7411587,6.246546,7.9370303,4.7515182,8.926753,3.6602855,6.6339693,3.6793027,8.256267,-5.9473286,14.521156,3.972384,-0.5482514,2.4144325,8.935157,0.45095217,3.466944,8.033614,6.267561,8.071094,1.6420739,3.98907,11.765117,16.866562,14.600422,8.905634,4.143792,9.499137,4.848736,8.73764,4.3537908,7.2863646,2.8379939,6.5725684,-0.15194705,5.04311,8.31972,3.909107,2.9548166
68.jpg,6.4907684,13.100372,17.74582,6.5091133,0.87979573,9.271355,40.833862,-0.2778075,18.089848,17.118607,10.8914795,9.85904,2.442733,4.3984385,23.522936,0.9691071,10.01108,-4.151888,1.5232178,-1.2343618,3.8330848,-2.8735473,-0.34307334,9.264084,7.518974,9.442284,4.923662,3.6348991,1.9547333,3.8228483,-0.5809892,8.941046,1.4608691,0.99499893,2.9473205,0.69689465,-0.35699272,3.9516275,4.6322174,-1.4460245,4.18074,10.700262,4.0690317,-5.9957533,8.504703,0.3971892,5.4452724,3.7960217,8.960965,1.8606567,9.104167,17.072266,1.4149895,6.4589286,8.981659,5.377711,3.995201,-0.5078085,7.762955,4.039352,4.5745325,-0.5666051,2.5455232,3.381832,4.84223,-0.5527472
69.jpg,21.12692,-1.7846617,3.3956363,-0.7209847,-3.9418192,21.185349,43.924747,7.264213,5.3257284,20.728388,6.558171,15.534605,2.6863112,-1.3625922,26.715178,6.1585603,1.0694458,-1.6954057,2.5318282,18.336674,-0.72796273,-4.738838,13.977422,4.0103803,8.377072,3.4806728,3.086864,3.7303205,-3.4351463,-1.7183647,-3.175801,9.634827,3.4038842,-2.840276,2.9959183,-1.9046572,-1.880357,8.235402,-0.6064099,8.528677,0.62623364,3.874321,-3.0756705,-0.81675935,5.7426906,0.2681829,13.111154,-0.8460787,16.168623,1.8352902,0.31365323,21.34802,-0.10507637,5.562759,4.807166,2.0454879,1.7011864,-2.414628,2.766855,-0.69158626,2.8774772,0.98666716,0.9022981,-3.5288818,-1.5407538,0.8078747
70.jpg,13.960907,6.8822036,14.530127,3.880947,-3.9318898,13.353726,33.580692,8.0342455,17.636925,18.31636,5.8708935,8.386135,6.3557873,1.8663499,8.795676,6.726962,4.707247,2.792785,2.5049944,6.443505,5.420887,-5.545051,-0.22410843,8.897456,9.40933,4.905606,0.002714619,8.00529,-0.19558072,10.059577,-0.61080873,5.3462396,0.3898304,-0.49155802,7.736089,1.676466,0.573602,14.968493,0.08536419,-0.22050953,-3.5333238,5.790381,-0.0430848,7.7947454,3.3322875,4.3307276,9.132308,11.637219,8.268345,5.1118374,3.736763,15.843784,3.5541844,2.630114,11.726793,1.9581612,2.9997633,-0.08255802,3.8423219,0.69048405,3.6494899,-0.15351987,2.93139,-1.3890128,-1.1867032,-1.793495
71.jpg,17.719425,-1.2952436,10.257594,17.972221,7.806995,7.2154255,15.988747,11.96502,16.076233,7.87511,-2.6157012,9.84855,28.048971,4.4056716,18.04084,0.86602795,2.758479,6.157135,5.2312865,0.14891149,13.775571,6.970215,-4.742275,3.9511282,16.23033,-1.6477518,5.9792852,6.9067583,0.30080023,-2.6904993,5.7901134,3.32731,8.941402,0.7062801,1.6628217,-1.0509816,-5.8378396,3.008738,-1.2059848,-0.9328837,5.66029,2.3569129,9.527697,1.84325,8.350991,-0.013321266,6.6475406,23.226194,3.905589,0.48464993,1.8630892,12.324236,-3.2212644,-3.2229986,-0.60461116,6.347023,0.81684834,-0.9637719,0.86979795,6.8783245,-1.2563031,7.589788,2.4158227,-2.6587517,-1.296027,4.033197
72.jpg,13.148376,5.1171694,-2.71573,8.926882,4.3937697,12.598352,11.38895,13.730133,3.510458,7.9062147,21.815786,24.50152,4.666128,15.247546,44.03126,5.2447567,1.8352089,4.906541,3.1222825,5.037307,0.2271939,7.4465513,1.5105906,19.172285,5.3832917,0.45502204,3.5629277,4.630747,4.732691,2.1480017,2.2105105,10.928671,11.786579,2.6570363,3.8412094,3.3786395,-1.2712388,6.4039907,8.554782,-1.3970088,4.0385065,0.95465046,-0.010036491,2.0813966,1.7777599,1.4620069,9.611856,1.0106647,7.503994,6.6271977,4.905434,5.071244,1.3755463,-1.0815743,4.274568,4.810615,2.1306179,1.8401172,2.662571,10.593055,1.8844299,-0.3681013,7.0336566,0.9331788,1.8358791,4.0294776
73.jpg,29.286444,6.6954556,9.930569,7.7790685,-1.2530159,3.9987657,12.245221,8.761312,22.109047,11.328028,13.628158,13.521492,4.4867935,6.6851044,18.514923,14.196274,9.71934,6.699244,-0.17697662,7.4337683,-1.4130569,1.9176085,2.7724836,12.539232,15.670355,5.091663,7.3178144,-0.45151758,-0.5144386,6.1902566,7.9617596,24.788773,6.218573,3.5879173,5.302821,2.3992312,7.328897,10.7060175,-0.7046041,-3.6297705,3.771305,1.7595977,-4.8499475,-0.15376079,2.6502657,-2.2119086,12.580019,3.170467,4.428163,5.7585516,6.4581194,14.224945,1.384692,3.379137,3.3125918,7.185796,4.7376795,0.5585753,3.3061247,7.4641623,1.7793175,3.5172603,8.076222,-4.0016584,-1.693975,3.0347207
74.jpg,26.995512,1.1812698,-1.0846559,-4.3138514,2.0453525,9.957411,6.9776545,13.755861,-3.5594218,8.501451,14.526015,13.306181,13.186562,25.48906,19.038845,0.90235287,0.11959383,7.548306,5.293914,2.8417273,6.356919,6.933537,6.7888484,2.8571773,12.169251,2.7538753,8.569261,3.0695944,4.477869,-3.501084,10.563846,2.0807922,11.313828,2.8620253,2.1029956,4.7154026,4.5160184,1.7938524,10.618083,-1.6054484,9.676835,-1.1176881,-2.7127213,3.7403674,-4.7789254,-1.5972015,12.06124,-3.1832001,5.669533,5.274923,0.37242603,9.561601,5.432382,-4.231247,1.3077406,7.6218395,3.0492778,-3.4713416,0.9904481,8.051796,3.6498337,-0.07822495,9.05048,-1.5967276,7.171085,3.1416318
75.jpg,3.4752126,4.3551607,16.139334,9.573569,25.211658,3.707838,23.569689,12.75958,23.504246,10.656317,4.364897,17.824152,29.646841,4.129201,9.469682,1.7044954,0.45512253,4.8022785,13.12219,-4.2494206,8.166279,-1.345961,-0.12600286,7.917563,10.814257,3.755333,3.5992677,5.7668977,10.653061,2.7882009,2.8976512,10.627125,-1.621749,-2.0711803,-0.007835124,3.1857426,-3.711599,-0.9285788,8.651224,-5.0218096,2.4278867,0.8551528,6.300672,1.858255,-1.6299927,-2.6779592,7.2878213,5.557566,11.667643,4.7313976,7.4711018,9.629103,-3.6900084,5.307616,6.8967967,11.295651,3.5769913,4.50625,3.1102529,2.8271809,1.4997387,3.815329,2.2551177,-9.198534,-0.6295274,1.6394798
76.jpg,13.172889,7.432,12.127028,8.76498,11.166189,-8.851608,18.141115,13.774617,20.44369,7.9815083,0.673915,10.993067,17.397215,4.5619173,9.0277815,4.4192033,1.4870929,3.4295216,-0.57805926,8.40429,10.7117605,-1.4648962,1.9924697,21.006416,12.671322,-0.36968085,8.669357,7.8971386,1.4698362,1.7854284,-0.12604399,2.130538,0.321427,4.8403015,9.119626,3.4879162,-2.538784,6.8304367,-0.9529286,-1.4884316,-3.2342718,2.5952485,2.2332242,-1.3791986,2.533879,2.4866009,4.9188347,3.9449923,7.2291584,3.3711195,5.394464,14.825376,3.2583084,-0.96916693,14.843358,3.8233821,0.23121375,-0.73173803,6.3337607,2.108147,-1.2498369,0.91891855,6.514639,-6.5437922,-0.8579004,-0.25974837
77.jpg,13.109628,50.469296,5.1484504,4.9068003,20.49909,5.8030167,17.835579,0.4547881,-1.6456224,8.685923,1.6381525,16.014456,5.007017,9.725248,7.5721555,-0.26233783,-3.7307773,23.347115,2.4334357,-1.5200788,6.8928585,0.019796565,7.3057523,3.2415495,0.4067801,2.7176256,4.9617515,21.917347,0.68098444,-1.3442144,-1.2252101,3.265932,-5.5555024,-4.792183,0.37655607,14.304834,-1.2273165,0.19156563,-2.9392593,-5.8620443,-2.0550404,2.0144072,5.066721,-1.8851317,3.9133732,-3.6803622,4.373276,-4.4627056,8.644624,4.2258744,-1.2383057,8.732182,-5.3508267,5.130593,4.6403694,-1.908343,3.0438719,6.19307,0.97836715,0.8235122,2.9412718,-2.6441944,2.6674066,-2.7885137,-0.7235233,-0.17220946
78.jpg,18.632868,-5.129106,16.361279,19.244797,-2.5808175,7.808153,28.978825,5.3605747,39.92633,12.323955,1.8358313,10.220315,4.5681653,4.4240866,6.4327536,11.694065,5.239541,10.119324,2.7943678,4.079524,1.2567213,-5.1951575,-0.622774,0.6352243,14.034594,9.25548,8.240524,8.106795,5.7086706,4.677437,13.229502,19.944834,4.033498,-1.3443706,5.6372943,4.2328506,2.5579355,8.684257,0.16995054,-0.9764216,-1.7522111,4.399716,0.36688867,1.081459,-2.1832387,2.4362152,5.4587746,-0.04177005,5.651419,4.3769264,3.6963239,10.214303,0.8766295,1.3163394,5.694402,3.1183026,4.0172153,-0.7173668,0.8123762,0.54764724,8.944281,-1.1503044,4.799764,-0.7382477,14.103687,1.6719034
79.jpg,0.59178245,19.772718,18.660707,11.546561,28.869312,10.594635,28.094969,-2.8744771,29.568502,8.580277,3.8182192,16.429472,8.499483,-1.4470786,16.112864,4.0382943,2.813342,15.778822,0.45957342,2.2269943,0.14146611,-1.1258324,-5.9103928,4.158653,9.447031,5.5927873,3.2928274,9.9523115,9.929145,6.9935484,3.8821735,9.058416,-3.3567443,1.7809957,3.8442683,2.0335183,-1.7760227,9.17519,4.809493,-4.9858484,1.6342828,-0.2586797,9.319711,0.38423064,1.9405084,-3.1658049,3.8206062,1.5292715,7.494508,9.024544,8.766408,10.769255,-0.20430945,3.4338415,5.854988,7.92467,3.5793703,3.629466,0.586896,4.2821555,3.4581394,0.88343185,0.89322495,-5.620084,5.4105835,-2.915771
80.jpg,12.6046,10.155879,12.010958,14.649195,8.4402485,3.7774773,21.165432,10.500522,20.736908,-1.0059065,8.264458,28.259295,-1.731049,7.402294,9.781791,7.050539,2.15245,8.089063,7.4045153,6.117693,2.5483637,0.96303684,2.1278517,13.754175,6.3603907,7.344617,0.493416,1.3783685,4.758794,8.988144,8.274756,9.639204,7.5388894,5.395161,-5.2406645,1.1081097,-1.7416825,3.0944567,8.288008,6.260338,12.264198,-5.009074,-0.8499902,-0.42784762,-0.480982,6.421219,7.0665455,4.9208264,3.9814808,3.4889216,9.232965,12.826122,-1.2852411,-1.1837574,-4.01977,9.6338005,3.9048352,-2.1219304,3.0237317,4.438092,-0.021174876,3.2041578,-2.7854295,-4.466646,-3.2367554,-0.5703355
81.jpg,-1.306468,14.156386,25.719398,19.531752,11.995893,1.0959436,28.403515,8.216511,32.73944,3.6047394,8.247026,15.827909,4.133437,7.5087466,8.943676,-4.236672,-2.055412,4.1117053,6.7122436,-2.932591,2.6357868,7.4181304,-7.1539497,8.003966,-0.08192381,3.9023757,10.334766,5.6262207,7.0460157,6.5106688,-0.20796992,5.4384007,1.9176804,3.8210855,0.8633496,-0.63163686,-2.200923,1.8126173,4.9129663,-1.5027083,0.5904524,2.976011,7.5843496,-2.7477026,2.2188158,0.36985716,0.15043783,4.4426007,7.8659935,1.8207028,15.478743,10.008669,-1.6812941,0.42009294,7.934071,7.5307817,2.1713533,-1.4207472,2.5022943,3.3350494,4.2064795,8.133862,2.1835685,-0.00097521115,9.578299,-0.4317701
82.jpg,2.0217764,6.3351355,47.029305,4.17349,2.164056,-1.7702056,33.181335,7.427694,19.377733,1.4447556,5.060539,10.583758,1.1532832,0.6894874,4.1110573,2.375397,-4.753219,5.296916,6.514412,-2.3310688,11.486188,1.327523,-4.2793417,-3.4202304,3.4518268,7.4098783,0.2776742,3.1734445,5.617269,10.263024,0.5333977,6.693199,2.4483302,4.162363,0.42911646,-1.3966202,-3.1019626,4.410997,6.2239623,6.923845,7.3631754,4.6686835,-1.5941253,1.9631519,-0.94170797,-1.018985,7.01593,4.929787,3.4398432,0.16719313,5.280651,14.3270645,1.1026176,4.346294,5.9123583,3.3046246,1.8325925,-0.63982713,-2.7279727,1.7306964,2.8159406,3.8205662,1.9934065,-0.9508948,-2.1504261,0.48401934
83.jpg,13.562262,1.7813084,46.454308,12.804462,1.6896454,-2.4069164,32.517727,13.680283,24.19462,5.0519915,0.31208017,7.610461,2.7919414,2.2420259,3.3748121,6.2036777,2.5729368,6.5645256,8.461342,-3.0961432,2.0421958,11.81196,2.3161447,0.51324695,16.921093,2.9654193,10.003267,8.280377,13.503271,4.0723176,5.6837626,11.118821,1.2887138,-1.2935989,-0.12119766,1.5668359,4.5905857,8.401246,5.845193,5.135332,5.0956335,5.1203856,-1.3239548,1.9577675,2.0734894,2.2609532,6.263705,6.557678,3.1092322,4.940579,1.6315153,10.543063,-0.035014004,2.8539207,10.294531,0.9845108,0.15946743,0.0857328,2.047476,7.385657,-1.5121552,0.10042135,-0.02421476,-0.122297555,1.3362623,0.76031405
84.jpg,2.6946983,9.274054,8.923025,38.932335,5.6302447,1.1952243,34.632404,7.677187,35.648476,3.5422873,2.4976428,18.226692,2.2811182,5.4418883,1.635512,2.5211494,-1.3289429,10.249574,1.5116944,-1.3514491,2.3881726,5.9857817,-0.5731271,13.867632,13.231913,-1.3784475,18.763239,4.5088234,21.900543,5.266954,3.5929258,7.371338,3.0433993,7.7060795,-0.14172795,-2.0480793,1.1846765,5.7767076,5.3028293,4.917249,1.7959995,0.414667,1.5572938,-2.8358302,1.1006184,2.1096065,4.295732,13.584478,0.3048276,3.7218199,3.9540668,12.170083,2.1157804,0.2558657,2.422257,0.5019167,-4.596033,0.9598149,1.3535322,3.942881,-0.4543271,0.3207907,2.5063825,-2.4099786,2.8970578,0.11574663
85.jpg,-8.5860195,14.418872,18.380625,23.2016,4.1843967,2.7005813,38.339306,8.6781225,33.80449,-2.5019464,9.528372,21.015844,-6.350056,7.3765388,5.265089,7.6605186,-0.94910145,7.6723814,13.908285,-1.2060767,0.5283881,8.848882,1.4960568,6.3284063,3.4692879,3.5802271,4.2396407,8.310558,18.272709,14.001891,1.4657832,11.040041,6.2871113,4.480401,-2.08013,3.4330003,-3.3010342,8.315784,8.199186,7.929157,5.380094,-2.2879398,-3.1831312,2.3076117,-0.35946482,0.27852732,2.4561691,11.190433,5.5683603,2.1955543,7.3738575,9.263503,-0.9175057,3.6933308,2.8330696,3.7460048,1.2124549,6.3846736,0.8474863,3.8197675,2.7163398,2.5437682,2.8742537,-3.0560968,-0.2801499,-2.8803797
86.jpg,12.672906,16.179724,11.3814945,15.570863,5.6275997,4.5470624,29.290592,6.7107706,26.067347,-2.1928432,7.8554974,16.015984,-2.7863152,5.286672,12.862918,9.707501,1.8540193,7.4108005,9.896791,-2.6683323,7.4717417,2.658709,1.130444,18.169611,5.2423234,7.7792587,6.912306,9.898032,14.085266,13.780561,1.3883568,15.180453,2.5518696,1.1614132,4.182445,2.4212263,1.3734511,3.348463,-0.43260232,1.3097174,4.4698544,-4.5392838,-5.9875946,-2.120561,0.56649333,9.448993,1.1546772,3.4088924,3.7415824,-3.3806508,4.939463,4.60247,-1.5305154,6.135176,-1.6153151,3.7770872,4.54072,3.412274,3.4136274,1.1699964,-0.24812399,2.975381,-1.6748849,-1.0564091,0.051123463,2.717908
87.jpg,1.7775776,10.7198515,25.08414,23.614298,24.745693,10.461454,29.93522,3.6626325,16.847795,3.7363436,6.7469597,20.766996,9.005203,6.776505,13.479382,2.0904417,-2.5501788,6.552733,14.529726,2.6110618,5.067575,10.4451065,4.6588,-0.6436666,3.4622273,3.8255296,13.231024,7.010232,10.366095,11.450024,8.967239,9.621156,2.1182337,9.717903,-2.0873752,2.9387681,1.746067,7.228258,13.185997,8.744725,4.4835067,-1.3167942,0.62570673,-1.4428452,8.797606,1.6771069,2.661344,1.6153866,7.781004,0.6593765,7.7128873,1.4714243,0.10200222,5.012832,-2.2958827,6.429842,1.7925273,4.269642,1.39859,6.2417703,1.660838,3.8348198,1.6906672,0.16286685,-0.6599713,4.0189643
88.jpg,13.94297,4.9761467,11.419004,28.984379,-0.6122147,2.871424,42.25444,11.600984,32.969864,-2.9553518,4.3900084,18.35397,1.380411,9.815452,8.971309,2.358992,-1.8793483,8.80811,2.5272791,7.0222363,-1.9993771,8.208,7.5839767,10.842899,7.4601398,1.2783237,14.727077,4.8575544,20.333836,1.7218825,1.8811789,8.44312,5.637092,6.7789974,0.19135986,1.6370578,-3.5930414,3.9751024,6.272456,2.7475324,4.941911,-0.8597023,-1.4063076,0.9182198,3.0826364,3.4681902,5.846021,7.7890425,1.5171432,1.7369652,5.1757846,11.534479,3.5404153,-1.5500246,1.7560104,4.66479,-5.3915677,-1.2735497,6.677707,3.9376504,-1.034601,1.7804967,0.7052118,-0.47354987,3.7483857,-0.8077968
89.jpg,5.2500777,9.031491,26.132778,21.342953,0.41794145,-3.79191,27.570135,18.11633,44.343006,5.132729,4.078237,12.950747,9.549709,7.0337386,0.16093217,8.85231,-1.1158714,19.191576,12.610404,8.95229,4.0614796,2.9883702,0.41485718,7.548858,6.9170804,-0.019791722,5.4295254,12.436428,16.512197,6.9601774,0.124847144,6.80875,4.421327,-0.63382506,14.419415,0.42642355,0.24069072,6.2232428,0.78949577,0.09002518,-0.45963684,3.2574973,-2.6982043,6.5784106,4.9145737,4.962253,2.9087412,10.150219,4.893367,2.4693894,3.8053355,10.346406,-3.3323646,2.7094178,15.469517,3.447226,1.9680728,3.22743,0.04735524,-0.4837407,-2.1715662,-1.1635413,6.3300767,0.0435682,6.73804,0.8461727
90.jpg,24.142403,0.7174599,10.129846,7.426551,-0.2556907,10.200636,21.053976,11.866717,9.58454,5.511134,11.25712,19.315145,3.8955412,-0.5025912,19.831245,1.6279111,8.880793,9.459251,5.416476,6.66015,3.8339262,9.785405,-0.9011621,1.4514273,14.683968,4.176527,-1.1424452,8.510219,5.070471,2.728805,7.3440843,5.631208,6.953241,4.6051493,7.625711,-1.5526066,5.4225516,7.5194464,5.9650755,4.3359323,7.142027,0.036916554,-1.2993262,3.3634026,1.2416545,-6.810923,11.833003,3.6785676,5.685797,4.1063776,-1.8783454,8.534057,8.1917305,5.616776,0.16566135,2.875362,0.079189986,0.046150014,-2.3302152,3.4635215,2.8421638,-1.0124065,2.2800965,-3.2383158,-1.9289806,-0.21629804
91.jpg,2.7640784,10.578704,14.219475,11.925858,37.141834,12.922382,21.59663,12.142389,10.646465,9.289368,1.3454894,27.045042,32.418247,1.2648531,12.466788,0.8882134,-4.227043,7.8017397,-0.33082208,4.79352,6.240492,2.0982084,6.1118445,15.101223,5.0724754,-1.702239,3.9675996,8.378349,9.118344,3.05815,2.658962,4.0266356,2.7317975,12.363852,0.84460175,2.007765,-3.1643662,2.261994,8.886404,3.7289069,0.20055808,-8.682373,4.795782,-3.14591,-2.419475,3.8560233,6.762594,5.2964544,6.7430363,0.062398717,-2.284534,5.162154,1.3558686,6.0752316,7.3209753,1.6134384,-2.1425395,3.084136,2.1168687,1.0769058,1.397562,6.069542,2.9331439,-1.8241104,-0.9014845,4.9896836
92.jpg,6.054696,5.315499,17.801147,9.243117,33.990498,5.9962697,22.87578,14.777512,6.314584,15.541228,6.2743297,20.067165,33.780945,3.1644475,9.256239,8.449736,-7.26216,10.759291,9.706782,4.024675,10.42261,2.44302,-1.0005362,3.9077303,7.1758785,9.580853,5.7467146,5.388351,-2.336007,0.6060261,4.8066707,8.496128,0.6748725,10.8873825,0.07123156,-1.6864612,1.1865234,9.053997,17.14274,3.114825,5.7600355,-5.9434457,4.05501,-1.4279966,-4.514694,5.68519,6.6292496,6.5452046,6.9909596,1.2400244,1.6367015,8.665572,2.167521,1.3853405,5.7780123,6.084126,0.605428,5.562286,2.41562,4.7350774,0.120927855,7.031375,1.1448023,-4.653656,-0.68511564,1.3113177
93.jpg,2.1574714,15.158825,20.01091,12.2969675,41.658443,-0.6397116,22.249344,12.141165,8.761828,15.370626,5.6573367,5.4822774,31.075468,2.464443,6.0951962,2.9892266,-5.942033,7.7022657,4.4318604,3.51677,10.305057,-1.3307765,5.03365,1.7941605,6.9626384,1.6332716,5.7786226,2.7502923,3.8886096,3.837918,4.796659,9.507569,-0.6119332,7.5834036,1.5252422,1.1312972,-3.641598,3.4554112,11.955571,-1.9601927,1.9604597,0.83439183,7.6997213,-1.8811594,3.4130313,1.9351745,0.62062263,4.9904685,5.8751054,-3.2828581,-0.3569646,-0.39058825,-1.6815748,-2.9559116,8.705147,5.700404,-1.8592086,2.4042828,4.7172947,2.795769,-2.9069226,4.418276,2.032553,-3.8719292,2.3265648,6.9438896
94.jpg,13.094264,3.3222508,18.679564,9.8579645,36.036064,8.404345,19.9687,4.7319365,9.718725,17.899647,4.1845036,9.196256,31.907797,2.5217373,11.633353,-0.8637493,0.88074225,9.745892,9.491129,7.276807,9.49507,-0.5030492,2.0780926,0.26685262,13.493145,2.1519537,5.364482,3.0884461,4.3122,6.4474254,1.3424225,8.191463,3.2086399,11.408348,-1.403318,1.2135869,1.4551144,4.1233897,7.222645,2.80356,7.2239623,-7.548265,2.5371594,-2.7741828,-6.743365,3.5727806,6.406756,7.002829,4.8377204,-1.48222,0.60721576,5.311821,1.1357487,-0.98673475,-0.12837946,7.422924,-1.1502967,2.584537,-2.2215865,5.973404,-2.249942,11.932391,1.9890327,0.5296598,-0.28292182,6.2834673
95.jpg,3.6232598,11.833546,16.349476,8.624503,32.18537,4.93079,29.098753,15.237151,0.40972987,8.407566,5.6250734,17.493048,32.17854,3.7334225,14.213035,1.5012985,-7.781748,13.735544,9.842137,2.9505973,5.0356135,4.678855,0.2864601,-1.2572589,8.056967,1.7695742,6.289918,4.1271152,1.5346183,-2.5664287,4.5376635,11.087723,-0.50578207,8.141169,0.8595526,-0.6480306,2.1446483,6.8516483,19.836365,-0.9543622,1.6653519,-0.59586114,2.4099839,-3.60372,6.1295676,1.7984618,6.6809683,7.2228923,7.1938477,-0.2001252,-0.8843876,5.5086064,1.8330287,0.22810408,6.8590446,8.316404,-0.67384017,4.5064816,2.1103094,4.544169,-1.3701487,4.9506745,3.204079,-3.4223993,-0.018837815,2.4615078
96.jpg,12.791255,5.4450006,17.000687,22.97537,1.8148174,-3.0456264,34.45983,2.7969115,29.632803,6.069832,6.218773,15.160678,-5.225187,-0.22612116,11.365034,8.924864,4.916057,4.4489202,3.9796624,-1.0256433,-0.72449374,0.075611286,-1.3205962,2.587227,6.7107105,8.119265,2.020989,10.569157,12.612435,15.099807,2.3804958,8.14507,4.499284,3.2562752,2.151427,2.1589525,3.3026521,9.528912,2.7178843,7.736823,0.6812306,5.938774,3.910064,0.68416315,2.1119473,0.3748725,3.6752582,5.18676,4.409975,2.889261,8.655273,9.87214,4.725862,13.446872,10.702155,4.6201873,3.4080758,4.5692434,-1.7511576,1.629893,-1.045759,1.833114,5.271434,5.6142244,2.8185282,-3.8452632
97.jpg,5.1733384,58.90553,-0.7245668,4.072194,31.880611,1.3258089,10.848679,-0.23433016,2.2104018,8.21595,4.3045864,19.41041,-3.1177747,8.399992,6.9723105,2.831566,-1.0710988,6.762287,-2.4347148,6.607645,2.581423,-2.01441,12.83471,15.32202,1.1988994,2.423218,1.3535452,10.320677,0.22685982,-4.728257,-3.5204973,0.06407975,-2.7235327,0.55587095,-0.3393703,19.911137,-1.5050457,1.1443439,-1.5013044,-1.7875407,0.35275817,-3.3353057,4.8078003,-2.674437,1.8480848,-3.575211,0.12572958,-0.02983408,7.1879225,1.6297717,-0.08911563,6.6654286,-4.9179983,3.2645707,6.942022,-2.9552505,3.5798187,5.3621836,-3.0100355,3.7955852,-0.44379607,2.027978,2.0501363,-1.0739031,-3.5756695,-3.2794027
98.jpg,6.9538364,12.969887,16.07592,10.396864,32.046463,-1.4830004,19.693584,2.5951111,7.348593,13.675451,0.27519348,13.911055,33.15885,5.69272,5.7302933,0.93600786,-0.99494636,6.5514708,-0.9028413,-2.468308,5.598879,2.7201757,0.5654472,3.890984,10.22719,3.040211,7.233976,2.7945864,3.3690677,2.0292075,0.41524443,4.7799153,-2.8048863,4.847748,-4.870012,5.10497,-1.684206,0.91500354,15.11364,-5.9841485,7.708057,1.8918935,7.9465127,-4.4933867,0.18609387,5.962793,7.844406,5.3789463,5.1856613,1.3844298,3.3281832,8.874957,0.69924086,-0.59501857,5.941355,6.3619113,0.79605806,3.9986043,3.3239226,4.3471303,-1.3487592,6.5569544,1.263793,0.34025776,0.09640087,6.049971
99.jpg,16.590788,5.688329,6.306991,11.37403,-1.3426237,10.46871,32.469704,16.512857,27.80685,13.701342,10.12303,13.790436,3.6192243,4.232174,16.30709,-3.2551541,-2.1912675,3.9688408,6.6296926,8.708013,6.4597144,3.8219993,2.517599,6.6219525,1.5251127,2.2170916,4.5587792,17.06682,-0.66930866,4.7875175,-2.1951244,0.783864,1.1913257,-0.21191221,6.112659,3.1142435,-6.098275,4.0492144,-3.9047186,-3.4586127,-2.7333782,2.664541,1.5135965,-0.91361225,0.47182193,-0.060682558,6.212481,4.4732203,6.320218,1.0828872,11.2733965,13.421644,-2.4489763,11.016411,15.153376,4.757259,6.1739097,0.52392083,0.7601354,0.65200126,-1.2506087,2.4594438,9.43053,2.6221642,0.2811954,-2.5783365
100.jpg,10.626261,4.5888886,17.506609,3.256662,8.783169,4.619853,27.237034,13.176678,27.703438,14.628252,7.1604037,2.2735171,13.356151,-2.134904,6.811092,6.792862,6.694073,1.7891685,2.7928512,2.014244,4.099795,-1.4279832,1.6878439,-0.55951244,7.177083,2.079885,7.096043,10.3820715,3.52572,9.3111105,0.28827712,5.8405304,-2.782599,-0.68088657,4.2370963,0.82039684,-2.3012855,7.947921,-0.79141605,-1.2756792,-2.2090847,6.851129,0.6310788,3.0985441,2.3357253,-3.5433109,3.9218278,8.19048,7.9491115,5.7600985,14.197286,11.256152,1.645018,10.526536,15.32332,7.5077114,13.9046755,4.488815,2.6240218,-0.24606892,0.29952726,2.0487566,8.514529,0.5983724,4.748676,2.2928965
101.jpg,9.847814,15.58205,14.690128,9.893181,43.946697,6.9652095,33.09393,-0.5840012,3.4119327,8.661397,1.8888361,16.233412,11.020611,6.646021,5.8769946,-0.068872884,-4.633742,10.630551,1.6853396,8.420398,0.4936499,13.046095,10.079348,5.436653,6.483139,0.3004145,2.803836,10.009993,19.325165,-3.064781,-0.67819107,8.558592,1.8061668,6.211059,4.5473347,5.8464518,-2.676777,3.8271422,2.1540542,1.358531,2.015286,2.120529,4.605545,2.3871713,2.1096995,-3.1310043,1.9381158,-1.4145201,4.8126764,3.5764835,8.491288,7.1872005,-0.8364676,-0.27035046,0.06011082,2.7764487,1.3298855,3.1610637,-0.571938,5.123447,-2.3853648,0.358087,0.2656781,6.721029,4.568491,-0.5682771
102.jpg,14.363946,0.4143825,25.758335,6.281335,16.555233,-1.9216381,24.649937,27.815746,25.142178,17.875113,-0.7906665,6.4146333,26.001253,3.1171098,8.851036,10.32726,0.47251406,2.6293452,6.7558036,-0.79334134,7.835582,-2.0556417,2.2110705,3.8331342,6.2067184,5.393649,4.780278,8.977337,2.0137358,2.3981452,-2.5958965,6.080514,3.3463743,1.8490152,3.91197,1.3763615,-0.40427837,3.3671849,0.44686395,-0.065068714,-0.69628656,0.7090773,4.019468,1.1389344,-0.5420859,0.42862305,5.584652,15.283343,9.703124,-0.5674785,4.560373,11.025084,-1.7539926,3.943187,15.303924,4.7005663,2.9422603,4.266154,-0.30599892,1.6557202,-3.8281128,-0.41039,8.387478,-0.06195917,0.9726223,1.7954607
103.jpg,8.723821,21.293524,23.003544,14.257921,1.8092211,5.3657475,24.475142,6.907943,33.410793,9.039507,6.729616,16.561403,0.2614486,6.400159,1.0102139,-1.7804414,0.9853972,7.74263,6.8560934,3.9206166,3.3821843,4.5458755,0.044814218,4.721349,0.12335889,4.498889,5.3079057,20.614103,2.6615863,6.747761,-1.7872876,2.4458091,3.8071036,3.4411435,7.7609835,5.0360203,-3.590397,9.203477,-0.37724525,-3.381218,-0.7022148,4.875736,-1.67626,5.6337924,3.8534987,2.271995,7.620646,0.11720438,3.257733,0.34465003,11.188777,12.312132,0.07611513,19.918936,12.817536,3.501116,7.8914924,5.3516173,3.977838,1.8572873,4.282946,2.8280392,6.193717,4.2388577,-0.9533355,-1.0664918
104.jpg,10.823115,56.002266,6.4844675,1.4379644,28.027206,1.0066234,23.733353,2.355775,-1.1429852,8.288889,-0.41227844,17.862017,2.3892238,7.114401,10.229663,2.5066528,5.531825,3.9483204,16.352684,8.358819,5.7457376,-1.3359922,18.386065,5.9997144,3.6665604,2.3143978,4.781233,7.1860237,3.8613498,-2.8569915,0.77709967,4.7212834,1.0780226,-0.03300067,0.7136449,13.211428,-3.384808,-1.9828357,2.9981427,10.56972,2.5634148,-1.5896795,7.8653336,-3.5282624,3.9871552,-1.7977368,2.9068372,-0.45809263,7.6652064,1.9593047,1.7657667,5.9877076,-0.89546853,-2.2317529,7.9255037,2.5409646,1.6677923,3.3990428,2.6983507,-0.3239631,0.14253156,-0.6398639,2.379765,-1.6601808,0.8992094,-3.0389972
105.jpg,16.286024,15.289118,3.2955408,12.244474,33.31556,11.814252,45.20591,7.350675,7.297553,5.634935,5.7570524,28.719875,6.976615,1.5106646,8.208343,1.732667,2.4273798,11.565251,4.0906677,7.803853,0.7558678,10.449426,10.950622,9.712943,4.2057714,4.970405,0.020244345,17.58039,17.725838,0.013212394,0.06760256,4.801081,1.2200893,4.672182,5.7219806,4.4612703,-6.2931376,-0.93047863,7.913168,2.6392684,8.127891,-3.392452,2.1994705,4.2801604,6.357038,-0.9288014,4.990558,0.5503488,9.022319,3.7207565,4.0188956,8.710803,0.6038619,2.8018713,5.5799456,0.8550329,-0.4880888,3.853886,-0.17760563,3.2420607,-0.4588646,2.9438996,-0.009441376,3.8263693,1.5282903,0.5346855
106.jpg,3.3216789,7.5765095,23.347603,5.983292,23.921724,3.0796492,25.677422,14.032409,28.267189,12.070904,-2.6326466,5.133294,32.26487,-2.7770915,4.2231135,6.5399275,-5.550496,4.134555,5.686606,-4.9215794,11.827306,-0.13568532,3.2019258,-1.921203,4.257198,6.1815166,4.180096,4.6997013,7.2488127,2.8851132,-1.9052787,4.8375087,4.248109,1.2936066,3.5926812,1.446381,-2.3561604,3.5370927,8.532147,-2.183127,2.0240283,1.9112911,4.162047,3.4367867,-3.26446,-0.9207269,8.492793,9.079588,5.2809954,-2.3081317,6.124748,9.995216,-1.8561817,5.1507006,11.04816,6.3769445,0.85647774,4.734969,-2.0187476,-2.063483,-2.509707,0.14447197,5.595524,-1.1043236,-0.39189747,2.5685437
107.jpg,27.827457,4.5714693,-4.2760825,6.3345656,7.2256694,-1.507615,18.940247,12.705345,0.06852709,1.0933739,11.729191,25.663567,7.715078,17.871948,11.824663,-1.6430162,-2.2452383,5.530495,-0.63508546,8.758589,1.6846724,7.8634253,9.5735,6.4894395,6.5622993,1.6919218,7.402099,4.9103403,0.45947674,-4.3546524,12.4491205,9.951504,8.170759,5.844977,5.523395,3.553784,-1.466724,-2.7565107,6.8835607,-3.737504,-1.4451898,-2.671826,1.30549,2.6648479,6.2141223,-5.503501,10.266915,-2.4490812,3.9247525,4.2621264,-0.80658215,6.4026074,6.0197387,-0.08845578,2.3497074,2.2364764,-2.9073563,0.09468971,3.294478,1.9008703,4.406165,-3.8039997,5.890233,-6.7562246,-0.9193445,-0.4787283
108.jpg,40.333233,1.7554797,-3.3466625,2.3799858,9.004046,3.3001378,16.798239,14.35318,3.1792867,12.314568,17.277723,12.60976,9.640613,22.258572,12.636384,-4.3477364,0.44078118,6.3967957,3.28449,4.6771035,4.3042316,5.814957,7.7383146,0.49137416,10.56293,5.6164575,7.326594,8.086842,2.2663875,-3.988728,11.097701,7.7409825,8.879228,4.480627,4.668383,1.4361717,0.08125417,2.137282,6.5915675,-1.9429618,3.3261867,1.5845362,1.8484845,5.827356,2.7485545,-1.5464002,9.850378,-2.4515922,6.6966324,1.8076639,0.3198858,9.017768,3.5258718,-2.35446,6.3643546,6.2969327,-0.5765956,-1.857235,2.0913086,3.508455,1.8466032,-2.3064117,9.708195,-5.498088,3.6215856,2.1927054
109.jpg,9.467415,12.256344,13.935166,10.643625,7.693508,10.1343155,19.394873,5.963124,28.757128,9.720959,3.7119784,20.619581,5.0547323,8.778465,15.832909,2.430718,-3.8729203,5.45004,1.2027332,0.24695052,5.8681974,0.48435304,-2.3084784,5.23874,3.6911585,1.6443908,-0.92564,11.688894,5.131548,10.905815,1.3462495,4.2370524,-0.368312,0.9852249,0.3212695,6.9298425,-5.0953264,-0.04974464,6.7170777,3.8734868,3.1556294,3.9570603,-0.9073857,0.39126608,4.747464,-1.7341319,6.334065,-1.2713928,9.820946,6.3907833,8.977558,14.654146,-0.62439454,25.678179,4.1510367,6.299256,0.22580302,1.1548674,0.47915328,3.1421077,3.1558714,2.072427,1.6336223,1.4572197,-2.6882815,2.1224205
110.jpg,0.90756965,6.4971247,20.14285,3.805058,19.281345,3.401475,20.352968,2.394039,22.182556,8.003081,2.8811831,17.684607,4.64973,7.0302086,9.550203,1.3296688,-2.6259444,3.721602,-1.5503207,-1.8577129,8.86312,-2.2427049,-5.14084,0.5563262,4.0424633,-2.0649598,-0.63305146,8.788444,10.551955,7.3820896,-1.1694106,6.916992,0.48796582,5.0059977,1.5743343,5.254593,-4.731572,-1.3551159,3.8520732,1.2557924,3.9893374,0.68958837,6.795331,-1.0868555,6.9043255,-4.937021,2.4158585,0.6598648,4.9860754,3.0215998,12.409561,11.249892,-3.306087,16.507664,-0.17056377,7.217165,-1.822781,-1.3354642,-1.6540155,3.5728023,-0.57414186,1.0918247,-2.6839404,-0.7890612,1.1117699,2.3806686
111.jpg,4.875163,6.0494943,24.37026,17.027939,6.214134,11.510872,21.134558,6.2282996,39.400333,13.620186,0.5890356,10.612211,5.5585184,0.13539949,12.979185,6.988964,-4.100213,1.9986091,2.3552697,-0.95342064,2.446641,0.10372065,-0.98145044,4.5374713,3.5079746,3.8991225,5.574548,7.8156404,8.378279,7.272458,0.66579723,5.93057,0.69250774,-0.74476665,6.7655525,3.3415952,0.17939545,13.348147,5.840128,-7.777418,-2.2048738,6.685183,-0.4973231,2.524335,3.242861,-4.129463,5.9496937,2.4722009,9.498758,4.7005744,8.203836,12.256992,-0.8065859,9.249326,6.2834544,6.9644055,2.5877914,2.6914296,5.3487105,1.9876168,8.264935,-1.142034,5.3095727,-3.261454,2.4029236,-0.61210126
112.jpg,7.07229,6.9224553,23.899305,11.73058,2.6162853,7.145479,12.07427,4.178771,29.89556,3.673606,3.9978068,12.900877,1.4558871,3.5560024,13.944801,3.6864057,-0.13785976,2.3632739,4.113221,-3.3892457,12.371333,-0.9107288,-8.568638,5.5488358,-0.43123496,6.1826544,5.675664,5.5358872,3.6987514,21.001415,2.996989,6.153034,3.7662978,3.3309293,5.0070887,3.2813067,-0.71338236,12.380728,-2.515491,4.364028,0.03719274,2.0086076,-0.20945299,3.9624054,0.17947033,0.6784301,-2.7271051,13.033971,8.540959,1.4061601,13.543099,11.002809,-3.9235868,8.575959,-0.97225595,8.884624,3.728462,-1.3673432,0.7734037,4.783105,6.40998,2.286393,-0.25265574,-2.9847243,2.6943493,-2.768609
113.jpg,11.562404,3.321798,7.982269,13.226221,-2.8847861,12.383702,28.839746,6.4488096,38.520615,3.5520554,10.059784,5.626873,1.5967531,2.438412,13.787993,5.136986,-0.06865366,4.784488,2.8886187,0.58234525,3.3730898,7.0255175,0.5480682,2.2885294,4.3738127,6.977194,10.178895,0.92029285,-0.25154287,6.563832,2.958456,6.3811617,-1.7853165,-2.5851383,0.6728365,0.6224733,-2.6226091,7.9124613,3.8305984,-3.8688295,0.488506,-0.94165874,3.1478665,-3.0931165,2.227225,-3.1339037,2.4053638,4.2102857,2.8205447,1.3648288,8.98962,12.874741,-3.7957647,2.8666718,1.8745286,5.1512394,1.2206292,-2.0424645,3.29203,2.044294,1.0915473,3.1958334,2.5054178,-3.6500595,4.074689,-3.1521142
114.jpg,24.020948,8.624884,-1.910514,8.372829,1.0358229,16.525114,33.346413,1.3393725,23.534817,5.9564786,3.3671327,14.226831,0.8330084,37.122528,21.09855,8.485004,3.8665428,8.140555,5.964647,5.762282,1.206496,7.1535454,7.4233694,-0.3202753,4.6342874,-1.197145,14.716821,20.258215,18.149576,7.512059,1.0563464,7.1162915,6.7696958,-2.2253,-4.8802505,14.702174,0.44863266,1.2208307,3.909776,-1.1706375,8.447798,2.5596287,-2.4617682,0.54634714,3.3113093,-4.222168,-0.40618047,3.4629612,6.2511272,6.287872,16.492813,11.818099,-1.5596745,11.648281,2.587967,11.278591,5.229704,1.2576433,-1.2364683,3.5147297,7.0120363,4.7275834,3.5811908,3.950623,3.215786,3.3642552
115.jpg,15.846724,4.1899033,14.40399,-1.4299744,12.144319,18.908772,16.97884,2.2481937,25.857681,2.8614721,8.960906,10.399788,6.439472,23.821316,16.608173,0.17307447,-3.357766,4.321489,4.914562,5.6687875,3.338433,4.4851174,3.8036652,2.5544713,0.5296361,3.1962302,9.646715,12.157805,15.399563,15.536684,-2.5726705,3.663702,17.225275,0.039224558,-0.4074726,8.9324255,1.7679983,2.1732848,3.486742,4.668021,9.121115,-1.9572102,0.6009834,2.1783824,1.6874511,-4.20978,8.409205,2.055388,6.2133036,2.0616198,17.30586,8.678226,-5.4704914,8.778016,1.5895364,19.504562,6.8449593,1.0609794,0.09059794,2.490566,2.1194615,2.5173464,3.2486844,-3.4999497,0.7398696,4.564802
116.jpg,8.062718,3.0976963,8.424594,4.4387493,3.1232846,11.98738,28.26426,2.650258,26.2016,5.378908,11.888764,18.523184,-5.5473337,29.321934,27.982887,2.9971728,-1.845127,1.8389583,1.1781158,7.041963,2.127449,2.6652794,10.467594,-0.20361547,0.20036623,4.942263,8.938336,11.967023,14.9339485,9.288719,3.1163702,5.6032114,16.48186,2.4554298,0.7483956,12.1086235,-2.4475098,-0.521275,1.7182685,3.9391189,8.4170265,4.241441,-0.42525387,-2.2603352,14.974691,-1.9327441,4.8890266,0.45592296,2.8524868,4.8521104,17.119223,10.64686,-0.9333791,7.8244977,-3.2370665,12.038428,2.2730002,-3.2169354,1.4971318,6.887555,4.0519557,-1.8305832,5.4489603,-3.946699,3.4100764,8.508738
117.jpg,5.5060377,23.717232,-0.66774714,16.381657,-0.49170628,21.961704,12.101473,6.3271103,6.406629,19.539886,2.272749,21.08321,2.4006786,6.1922064,19.232355,0.031101331,-1.7417203,2.0794857,-1.2901703,12.01128,10.5908985,-1.7738018,4.812929,10.390313,2.5240555,-0.40978754,-0.046293065,2.5256536,2.5579677,6.156091,7.905282,6.239684,19.752024,10.921784,2.8282795,-4.1092,2.8705084,3.0892284,-0.11956422,-1.3190848,-0.719117,6.5970497,-4.371913,0.6941361,8.644351,4.234393,10.34127,1.3150914,9.124891,5.59874,5.883626,10.112519,2.2618053,-2.799285,1.7417703,2.427193,2.7926672,4.2743397,10.231666,5.8992624,5.4205384,-0.12385659,-1.5773898,-2.6372757,-1.4812037,7.3786235
118.jpg,18.590307,15.277703,-2.1686544,8.813575,-1.9823393,9.164608,15.947583,1.8785596,5.8638473,7.0398626,0.1502715,19.067465,1.4968367,-2.3353581,21.255375,3.66905,-2.4345124,30.05037,12.549726,16.74444,10.162347,8.509772,15.45544,1.4724102,3.7433193,5.294656,10.045619,5.9856234,6.8788996,3.1898096,5.5454235,5.8006835,3.0865989,-2.2114732,-0.46353993,6.0840564,0.01476435,-0.030316785,0.58334374,-1.7075601,7.217059,0.45761517,-2.687831,0.70959467,-1.864777,-3.7738965,9.105113,3.339533,11.9078045,16.312344,2.298508,13.461789,0.92366207,4.261552,1.5629026,2.623802,6.1987715,-3.2060518,-0.46509537,6.9813356,6.999734,1.8956426,2.5953765,-7.3688216,1.6053627,4.826097
119.jpg,0.5573955,4.162367,12.450129,20.033989,-0.2450685,17.539484,10.289576,4.861702,14.941764,8.703939,4.63862,22.106821,6.382487,4.006566,25.888693,4.8438025,-4.6742754,5.897223,11.071961,13.827348,4.8255825,5.114858,6.314362,12.673953,3.1556294,5.9651237,2.4941392,6.043731,1.3242851,7.171488,3.9829607,2.515485,20.930618,8.8676195,0.65456533,-2.7788024,-0.5791663,0.88355505,6.664115,0.007396564,-3.1105263,0.3088839,-4.687937,2.1436143,-2.6262193,-0.66125464,9.484607,1.6441948,10.243625,2.1474237,7.847476,9.109551,3.1276095,-1.1519886,2.052615,2.251004,3.2740343,1.4260589,2.5697594,7.5126395,0.3315211,2.6361947,2.097114,-3.0225675,-0.54514116,6.6185927
120.jpg,11.392585,3.561841,15.631448,7.1515307,27.690775,-1.3449113,17.225378,11.346078,2.0990822,19.223381,-3.513693,8.309695,34.476658,3.7839975,1.436029,1.6929272,0.2424363,3.0181394,10.708143,1.0236546,6.8918586,1.6459323,3.5760925,2.5510538,13.652088,2.2453456,6.1637945,-2.5049255,2.3379815,-3.507197,6.100039,7.9156103,6.324265,7.2461805,1.4535557,-0.62909126,-0.44237104,1.5923808,5.38807,-1.5215,3.1447012,-0.6237808,6.5464163,-0.074129194,4.650587,7.2919154,9.098928,6.3893557,6.679483,-1.9362502,-2.8742156,6.0492244,0.22824499,-1.0214314,4.00766,0.8856947,-2.192009,-0.6614006,7.094752,2.6270418,-1.3263057,1.8224856,1.5806268,-0.2715287,2.3737547,6.581745
121.jpg,16.200785,2.9052913,23.918175,17.604063,3.139056,6.772285,24.416271,5.5854874,42.818794,2.8945446,-0.09887796,3.320098,3.7049394,6.080206,15.105684,7.512115,5.095346,5.484485,3.1733897,-1.0596277,-4.679513,3.793104,-1.3655112,14.127586,2.7055054,13.3939295,6.6325893,5.9033957,7.0075803,1.0997702,1.3596779,1.0736679,0.20833007,-2.173481,-5.3624616,-0.15145577,-6.106754,-0.6426085,3.4895844,-7.012023,-4.314596,2.6615758,1.9998597,-2.69165,1.0133026,-6.721617,1.3074924,4.3898697,3.767423,3.1049469,10.788512,9.594412,-0.5049343,8.47475,5.8335023,3.3798623,-0.5516513,-2.2124858,4.1361465,0.5419421,-0.28387365,2.9190347,0.14162734,0.86433643,4.6930356,1.5893253
122.jpg,8.086297,3.6457274,18.334179,12.265201,3.2917254,7.1007504,44.464233,9.9675665,34.606968,3.3250637,8.287991,15.071699,1.6199529,12.806779,6.6273518,-2.5488806,-4.0064,11.502946,1.8902074,1.5878638,6.181821,15.802564,0.58191127,3.7848206,5.517213,4.0817847,6.6502905,13.6476145,24.31048,6.5575347,-0.30957824,11.497724,1.4344811,0.77998877,0.19245048,-0.9637525,-7.354302,4.864172,4.2133865,-2.8907645,0.32552823,1.7252373,2.3767278,1.610641,1.2651347,0.83927643,4.9339995,5.618236,2.007564,2.1095397,7.4312596,10.868476,-1.234534,4.480583,7.2923145,4.1268263,-0.20117909,-1.2717602,0.4913471,2.7744372,-4.6598277,0.8240877,3.8786895,2.4251924,3.9172888,-0.3224506
123.jpg,8.954684,0.6917684,29.523743,12.9664135,15.709173,4.9420586,35.6447,12.146515,31.302532,1.0020839,4.0156083,11.5232525,9.003003,8.466902,2.5471587,-2.6608634,-7.159428,10.529455,3.9404302,2.7898786,3.8498516,15.580656,2.7615747,-0.31461963,1.983634,0.6581038,7.4550323,12.678437,22.85194,2.5716848,2.2100546,5.83105,-0.21086927,-0.40154192,-2.1330407,-0.52320015,-9.234257,4.931214,6.78951,-1.1292212,-0.26107958,-3.8822348,5.939338,1.7666936,-1.5432032,-0.3256331,-0.109330006,3.879641,1.2294852,1.0147104,2.1768613,4.9323034,-4.3900914,3.578737,7.973369,3.1796238,-0.25801313,-0.4981705,-1.1495724,0.96223354,-3.4353805,-1.4194474,2.6123877,-0.91364264,0.65180546,-0.67207634
124.jpg,11.363507,2.107501,28.671312,1.9238319,5.5890436,5.7920475,25.265104,4.392426,32.607094,-1.795186,2.0972378,5.8081555,-2.4313478,14.079079,4.0281944,0.19262433,-3.3392136,9.905722,3.8864634,-5.7856894,-6.0518994,5.6662693,-0.4830992,4.1548386,-3.0400753,-0.010032766,18.320745,10.857775,13.5864,0.71704453,-3.2935176,3.3346324,-0.38754103,-1.7446945,-4.595288,4.3221664,-2.6682317,2.6318297,2.772599,-4.7597156,-1.1009452,-3.4648254,3.733164,1.5619668,-0.26678717,-5.580282,-0.04173685,3.49726,-1.020854,6.931957,17.564505,9.328683,-3.6192987,17.710794,6.087505,6.2255316,-0.57914174,1.5109755,-0.9503396,3.409966,0.69244576,3.3420668,2.7167723,3.4573057,-1.1975865,-1.509409
125.jpg,13.437329,1.5691171,18.34222,16.612892,8.852497,5.817366,31.248075,10.202643,30.861956,0.718499,7.440706,4.971727,4.96156,14.571995,0.6349502,-2.464534,-5.6608152,8.295484,4.7128277,0.5819626,3.1757622,21.383068,4.8076553,4.287375,2.1625147,6.1388726,3.901873,14.785778,15.813314,1.3687927,-0.93980134,3.0226107,3.2489862,1.7138461,0.60123557,-0.5419717,-7.218142,1.4944617,2.8896854,-1.6265194,1.417828,0.4645461,3.2557964,2.8995216,0.010033115,-1.0413045,2.0938702,7.5462093,-0.45181644,0.9611782,2.69724,8.26647,-1.6214579,1.9294372,7.263346,2.9477115,-1.480791,-2.7466874,0.77289504,2.8042052,-3.7628517,1.262038,4.3973103,-4.4828835,-2.0603106,2.112461
126.jpg,18.332153,5.1653104,23.70141,12.382378,5.6920886,0.9037427,27.072922,4.3307705,41.80266,-6.44007,5.309099,3.9392262,-0.160335,11.942964,1.5737576,-4.5617795,1.522818,8.6462555,3.1879983,-5.461179,2.2083254,6.338831,-1.0835714,-0.6096517,0.9645908,4.6480403,21.992071,10.179649,15.463977,5.897807,1.8719107,5.390277,1.9744221,-0.87355393,-0.2776743,-0.6526954,-3.2601395,0.12820652,1.9851202,-3.0042458,-1.5341395,-4.7026606,5.3240714,-1.0414684,-2.0306175,0.4735117,1.6243815,4.307533,-0.8897955,5.241292,7.244575,6.1701894,-1.1960834,4.3897185,9.687686,4.3972774,-0.77735305,-0.1748547,-0.76465917,1.1315776,-3.5805366,-1.1156943,4.223184,0.16376194,-1.3682793,-2.911563
127.jpg,11.066399,6.1369395,17.262863,21.671534,8.073468,2.1002798,36.720478,13.63998,35.9384,-3.3377924,8.79167,13.220742,0.50380033,9.773488,1.6226318,-0.4004838,-3.6806896,7.6449604,3.3540335,-0.6778943,-0.3160175,7.500679,-0.4844226,25.473574,0.3327585,2.2631664,7.3433747,9.519419,19.652225,5.034096,-0.9689767,5.073204,-1.5723169,0.73464113,1.2480062,1.8378476,-3.5801578,4.928833,2.4133499,-0.11400883,2.4280646,-5.4339113,4.1902504,0.34678558,-2.9857895,0.9084117,-0.24147369,6.9991946,0.2916608,1.3462073,5.3913093,8.260694,-4.806447,2.6148324,8.159575,3.418239,-1.0754949,-1.0666611,1.0999808,2.622036,-2.1297421,-1.6172327,5.3374267,-0.9430329,-3.438812,-2.9008925
128.jpg,12.691201,8.728942,22.386919,11.679997,11.231801,3.3362336,35.430595,7.624625,28.942411,5.367617,2.3198185,12.720105,7.681269,14.14476,-1.7588208,4.337873,-4.1869903,12.528637,8.047702,2.343899,-0.6272132,10.377117,7.199128,3.3678048,4.261072,0.69299567,6.6744556,17.022297,12.235244,-2.508705,-4.654817,5.2799506,-1.1096432,0.82353354,0.57755804,2.2701976,-6.657047,3.1777318,-1.07304,-4.055656,1.0553828,-2.7236116,3.279462,1.0311403,-0.34174305,-2.329706,3.6262968,3.5493293,-0.9403132,3.967677,8.350059,8.111285,-4.0755453,20.186903,10.718478,6.3980765,-1.3279073,0.24981284,-1.2328767,4.4073915,-1.7365518,1.8303735,1.9458702,2.300841,-3.3175051,0.72426546
129.jpg,7.922606,4.1886373,17.03773,12.045284,3.1099987,11.601718,29.304644,9.252204,30.909407,4.542602,4.523383,6.608739,5.233963,6.3015623,-1.6164918,1.3186735,-3.6679804,3.684875,7.000301,-0.2256684,2.9748666,3.603825,4.191058,2.8329566,5.6624255,5.9135885,3.4850478,14.52423,7.700794,0.66088057,-2.1912634,3.8147323,-3.685493,1.7910497,0.07507373,0.60255474,-6.634426,7.164672,1.0752356,-4.851772,-0.29712346,-4.2719474,0.67026925,0.26509464,-3.8954697,-3.1571236,4.3967257,7.0120707,-0.04878845,0.67667174,4.7867193,7.871882,-0.883387,11.278596,9.41463,1.6440518,0.16335976,-2.8533664,-3.734594,1.133376,-1.6822888,1.7732419,-0.5228627,-0.98050684,-4.001191,1.3753086
130.jpg,6.9837275,9.2319355,24.224222,7.4546256,14.9604,7.3703804,28.719912,8.257634,33.060646,-0.15232323,8.821106,16.723967,5.294389,0.210205,1.8308666,0.31199512,-1.669885,6.8919077,4.0644016,-3.775076,-2.2996204,8.637364,1.9747989,8.195778,1.0883074,0.3799878,2.4420114,11.705053,16.121275,6.989772,-3.5747032,7.480335,2.1309483,1.6938356,-0.23888871,-1.8621967,-9.367431,3.9715674,8.703629,-4.7055507,-0.64878696,-1.7511036,-0.17049852,-0.077472955,-1.782317,-0.81850886,3.1634736,1.7687542,2.3791769,4.1993413,12.464266,7.4853272,-3.3409183,26.1421,6.631382,7.6610007,1.7374318,4.0646358,0.001659058,4.3865743,-2.6857576,2.8286018,5.248207,4.4285407,-1.9707873,-0.03601443
131.jpg,-4.9356966,15.952198,21.698784,2.173389,15.199356,2.0905378,15.171989,11.907805,13.75784,12.91714,1.6048915,11.162833,21.20296,1.256091,9.435744,1.6734765,-5.116166,5.0334783,8.525274,4.756198,11.531048,8.586789,4.4087343,14.565073,9.638866,7.774545,5.4859104,4.373867,4.187361,7.252089,6.481477,4.901963,-0.8172573,4.985523,-3.010124,6.6517577,-1.2612194,2.898703,21.528015,-2.379416,7.495407,5.222689,3.842599,2.498449,4.8110847,14.119957,8.9310255,3.7009168,1.8243939,2.1101036,9.36539,12.666638,2.5003307,-2.483068,7.584247,8.639617,7.417883,2.4639833,11.599488,4.4866934,2.4702783,7.596477,3.3960075,0.74921066,6.753797,6.3903666
132.jpg,9.951574,9.3681965,21.98967,3.1295888,10.503902,17.117338,21.926523,10.814655,13.759202,14.240869,-1.0017842,8.461486,26.384657,7.4957504,5.676215,13.445963,-1.4952793,10.699461,17.31337,6.861545,9.200981,6.856216,0.10999702,1.7856833,10.165047,6.9009647,3.0653183,8.8644285,3.3887331,4.11687,4.2273245,6.740828,1.4841602,3.4328601,0.5135685,0.100941025,-0.26630127,10.301467,4.8939,-0.069144085,2.1043386,10.290915,0.8614977,19.02075,4.6335416,2.618826,13.94679,3.1775575,5.51483,4.724131,4.9898553,15.249962,0.5324579,3.4524827,13.924937,3.8746412,4.059374,3.7371836,2.5735724,3.65567,3.5506837,3.522726,2.5460536,-2.709281,0.9181268,3.746324
133.jpg,9.5408325,14.908904,15.046141,5.463131,0.90782905,13.943415,35.877785,15.162085,27.679977,5.012737,13.451756,12.705937,2.166643,6.6214943,7.828869,-1.1975026,0.33645937,5.660182,6.626826,-4.1079516,-0.119258,-1.5090119,-3.208199,2.9534972,4.8803988,5.9694643,6.487786,5.5839424,5.9208465,3.036509,-1.0292852,8.397174,-2.2705278,-0.026276568,4.032338,3.8294618,2.4918978,5.8123255,4.1915703,-6.019423,2.6659734,1.660692,-0.5932959,5.5171247,5.703941,0.059821714,5.89693,-0.90707105,1.7664771,1.9553111,7.604619,17.710115,-1.5576935,16.029566,6.512314,7.420202,-1.0980555,-0.7466512,1.6470562,1.1087388,3.3166845,3.0747283,1.107139,-0.1879767,-3.1812282,-2.067546
134.jpg,14.837621,13.134787,22.29024,-1.6907818,8.365904,3.0428634,40.499195,9.207873,24.875793,7.2245336,7.600344,9.007933,11.192909,5.6323895,3.6549919,7.2023263,0.92773485,6.421126,10.763235,-0.019788695,5.8195286,-0.9680869,-2.230785,-0.2260367,11.842454,8.364588,4.4308076,10.7249365,1.4499022,0.86112535,-3.6237333,11.19794,-4.647685,-0.8851619,5.6207366,1.0464481,-2.644456,5.453589,-0.6532518,4.470168,2.602075,3.2947447,1.0102272,3.499737,7.3235197,1.4804031,2.015356,1.6571112,-1.6651177,-6.834069,5.2259817,18.86061,-1.2294999,16.152153,5.813923,5.6525626,2.6072216,0.8935385,0.38609257,-0.28215462,-1.5979756,2.8968835,2.9739752,-1.6209437,-4.86062,-3.8538322
135.jpg,-6.633356,11.144173,20.089468,20.983751,6.496697,7.8939676,20.817703,2.695738,42.532047,6.105289,3.0558095,4.191928,6.239303,7.0442038,6.74299,5.405692,-3.3112566,4.3825984,10.468977,-6.549388,2.6181178,3.2459743,-5.525203,8.462625,4.2769475,3.6279154,6.8453565,9.354742,16.388453,9.760943,0.02067131,7.4905977,1.56185,6.004451,0.30903155,2.977782,1.8089731,4.4560637,4.7564263,-6.3189125,1.2875612,8.454038,2.413679,4.1730986,0.10412764,-2.4354084,5.6612005,2.3784788,9.68226,7.9996185,23.468925,12.140569,0.004004501,9.993036,9.134825,8.136163,2.1906047,3.480184,3.861763,6.783619,5.2780943,2.2226305,4.9708257,1.4369437,5.2760587,2.49982
136.jpg,-0.8188619,5.154366,17.958754,3.0822024,28.732475,6.853506,19.98138,14.831725,19.766512,15.98173,1.9723521,7.8752255,36.363953,2.300671,9.36741,13.759926,0.8691106,2.800903,11.611785,1.27769,4.9785113,-0.07346459,2.24143,2.8030553,12.208239,3.3881626,3.6569686,4.1360626,-0.46318266,-0.7989079,-0.795899,8.153679,1.5020002,6.4102387,-2.59057,0.26314798,-5.1877184,5.2638063,11.07882,-4.7065187,-0.67935467,2.9096777,12.171047,-1.3671081,0.022784527,-4.141536,6.7472563,6.387864,8.9660015,2.8069,3.7142615,13.181229,3.609752,5.86366,12.66309,5.1006155,2.2262566,3.08957,0.6937502,3.2488246,1.5510595,4.718371,2.5207627,-2.4819574,-1.1010269,4.544731
137.jpg,5.827043,5.9140024,34.301613,7.4276476,11.857004,-2.1764767,24.222496,28.047466,12.43519,16.284883,-4.2183175,7.80919,27.353113,5.752275,6.1925163,9.066114,-2.9539955,5.737929,7.551322,-2.200471,12.292906,2.524922,4.3233447,-3.8473606,5.3416657,4.542712,2.8688786,5.617532,0.24193102,-1.1340003,0.3844819,3.758359,-1.514251,1.8794911,-0.06589033,3.0942085,1.6915298,0.31352338,8.488465,-7.512531,1.2955915,4.1382155,0.5543267,4.2113514,-1.8013003,-0.036688242,10.789819,5.994188,9.760633,2.471984,3.2497387,8.313409,1.2075067,2.8933105,25.430208,0.8861436,2.8690414,3.1441112,1.1205527,2.0749154,-0.6007923,2.0984378,4.6466184,2.8160784,3.2161455,4.357923
138.jpg,14.800802,39.965378,-1.3867193,4.7335873,7.208498,4.3897595,20.81403,2.3548098,3.260604,6.694808,3.921222,11.087173,-3.4432194,4.269313,9.958106,1.2518386,9.892826,21.19266,9.930691,9.997211,10.995186,11.107324,16.826185,2.5612578,6.520343,7.8908386,4.876057,10.251111,3.1795282,2.9891226,11.238468,4.4599614,-3.7807353,-4.0262823,-1.4453683,18.02407,3.903656,-4.2073846,-3.6362796,3.1724534,10.9710455,4.7983217,-2.6869211,1.2195073,5.341085,4.0039687,5.127367,2.5439227,4.238936,11.2362385,0.40433592,13.043197,3.4063122,10.5437355,8.016631,-0.7047303,2.1742945,4.3490076,7.0769854,0.041673705,8.378892,1.8599014,-0.39688164,-0.914949,4.670905,2.6402678
139.jpg,22.341053,-0.6857462,11.344223,12.960728,1.7804267,11.750699,14.485283,13.800865,31.842714,0.45192084,9.387821,3.0721707,12.645147,-4.5621233,16.469337,-0.6926165,-1.5939325,-5.1343346,5.10762,13.774796,7.9886327,-3.306149,7.484215,2.237613,8.091123,11.842193,10.984706,-3.7659988,2.7430146,6.616676,4.006976,0.49480832,0.24386752,-2.738153,6.9790945,3.1432846,2.354785,3.584509,1.4407156,2.160012,3.4309988,-2.1358874,5.9473763,8.408957,0.5820524,-0.28272527,14.438603,7.526022,7.0844045,3.2327614,7.91257,24.966694,-2.2369492,0.29096892,7.1250706,8.313079,3.497392,-2.1096058,-0.28376496,7.2869315,1.7080348,9.666359,7.2114162,-5.712493,0.60849553,1.7655703
140.jpg,32.032433,3.375019,11.914473,2.6265895,-2.7208626,23.337864,15.159838,20.11035,33.05636,8.595584,17.267477,4.4882646,7.890581,-3.8575742,14.687699,3.6438718,4.3615766,-5.9026847,4.773126,13.874954,6.0459895,13.581747,3.2366436,4.4598384,10.706863,3.7433133,2.3979917,7.2470264,2.402389,5.7754307,4.1729016,2.684587,3.2130017,-2.6335661,-0.06514802,2.3348489,-1.1445645,6.6881084,4.574731,0.12808868,6.3989973,2.9231758,0.5913791,6.4051533,1.4619663,-3.6009018,11.945154,7.2538385,9.202645,2.0594249,5.8725724,23.18743,-0.29194462,10.866882,1.9349594,10.071452,3.1212614,0.62783045,1.0611969,5.36277,-1.2056919,5.490854,3.1201992,-3.8242319,-2.6757557,-2.5472214
141.jpg,25.876501,6.437023,21.127539,17.5074,-1.3504541,6.1462655,10.953237,3.5878143,39.92473,-2.2081525,3.1758533,-1.2889186,14.636085,-0.3546629,6.209352,-3.4605813,0.3193872,-2.0910687,3.0693843,8.478117,14.774845,20.876625,-0.21864092,3.5285316,9.139845,23.557476,5.247626,1.8999305,-1.170175,11.927486,-0.16125673,-4.100543,9.609122,3.3033223,5.272024,0.9619484,11.456096,-1.512747,4.8255615,-3.1347554,5.110573,2.2119806,-1.0713258,4.2858377,-0.69208467,0.5552838,13.523539,0.31982297,0.8026368,-0.7500127,10.383578,19.074968,3.9679499,6.288519,6.970953,7.5033917,6.023408,3.4104831,0.8212475,5.687164,-3.7734256,7.4234343,3.508389,-1.9325465,-2.490508,-0.81748
142.jpg,11.794848,8.068761,18.072973,28.983444,-0.8823347,11.406617,8.886363,12.239233,43.622173,4.444527,2.6259828,9.652292,11.924117,-7.069749,8.6217985,8.106701,0.7010473,-2.6844182,8.773034,14.752322,8.788249,23.00531,2.9124222,6.9048696,10.744078,10.9644785,7.703903,3.0778668,1.7130117,15.891472,8.238133,1.0820442,3.5187786,5.933176,2.0336766,-1.1077994,5.1182146,8.0257845,2.604045,5.8519998,11.5184355,3.9320498,-0.757833,-0.58284813,3.9804935,0.35865232,7.01039,7.5340047,7.201077,8.039191,9.160358,17.703983,1.2691845,8.877984,3.280066,6.2605696,8.122279,6.6562595,0.64359736,14.692861,2.914608,9.113351,-2.1634998,-1.3518238,-0.1723364,2.066027
143.jpg,8.148596,4.502026,34.314327,11.992811,15.211543,16.672703,10.884746,11.542637,38.599033,8.582211,2.1067598,5.4358993,23.164127,-7.4741306,8.448134,4.3037143,0.68767184,-1.1065248,6.8409624,9.082776,6.724018,19.108654,-0.64554214,3.3019748,9.384045,9.513765,8.329226,4.327422,12.582694,16.00324,5.35692,1.4717717,-0.4654096,4.5354953,0.13550985,-0.22549094,0.9045558,14.9320965,7.431186,4.2116094,7.494691,1.6826944,2.88473,1.0940807,3.6987252,0.7912834,6.9698715,7.3534436,5.848541,1.0669264,11.051068,16.282671,1.6219769,8.3339615,7.211998,6.404641,4.839428,4.766803,0.2188108,5.9006343,1.408465,10.052277,-1.6278508,-2.7729576,1.8925216,0.29394364
144.jpg,12.926313,40.107635,10.038068,-4.021406,23.091782,0.97760063,22.810343,-2.5058281,-4.7002487,12.524708,1.3816687,8.248883,5.1547823,12.320161,7.838962,-4.0010157,1.172607,14.646289,1.5997115,-0.44525963,6.453325,8.252094,7.920108,3.491829,3.6370306,0.9634884,1.6913377,10.911433,2.5439327,2.779756,5.325413,6.923037,1.2724872,0.7298827,-1.0190583,9.543023,-2.9395163,-0.77782655,0.45282245,-1.2258545,3.302205,3.7212749,7.3723974,2.590686,0.9742616,-4.2314343,7.3946886,-4.636608,6.0890274,5.883158,0.082684204,6.5238724,2.8980389,-1.9507846,3.930364,0.10093241,-1.966928,2.9921796,3.942638,3.8174062,5.6592073,-0.9389538,3.8527298,-9.023274,-2.6117406,-0.8057492
145.jpg,11.787953,9.504243,28.604937,15.936234,6.7577214,4.818537,33.98698,8.273853,36.6225,5.80065,5.5086794,6.4557495,0.94493693,4.6825905,3.1606786,-4.835892,-4.374126,10.238777,4.2901683,-4.140446,3.5038836,9.99159,-3.0671813,3.6584635,-3.5663848,3.743564,6.2976904,10.997488,14.777243,8.480226,-4.36186,5.771638,1.005127,5.130537,0.5908713,-0.99187744,-2.6204176,2.1593728,7.170373,-3.3037417,1.1518962,0.53402025,7.3682656,1.1024942,-1.5618062,-1.3970494,1.4736345,0.38600737,1.9125246,2.1506324,7.380087,11.455393,-0.578378,2.2963712,12.156608,4.1813664,0.55364454,0.54638284,-0.6198177,1.7573677,-1.8006837,0.66690177,2.5521417,2.4296064,-0.3703692,1.2900257
146.jpg,8.740562,-3.3617535,23.117441,2.3197186,25.345871,5.2799015,12.004124,9.973384,5.1013327,24.450968,-2.3972683,12.109451,33.914192,1.5932064,5.148112,4.668332,-1.2227585,0.5975743,-2.4371154,3.26149,7.2850375,-5.8434067,2.7306857,2.6418648,11.430107,5.218689,0.5512059,-1.7705336,0.38419142,1.1921136,2.008673,2.6769905,2.7562351,4.8009853,-3.0169063,3.7738013,1.5990536,4.708727,5.4678397,-3.8365126,1.7960852,1.6018338,4.5362687,-2.8850088,-1.2074351,4.6240907,6.890869,6.035179,4.2976437,1.2432669,-0.51849115,8.943717,-0.22972105,-0.2461649,1.3802669,4.630674,-2.6337407,-1.290194,2.221299,0.8292397,0.4064994,3.2614875,3.0092628,-2.1958888,0.709862,1.3011279
147.jpg,10.032897,2.096025,34.959034,9.118869,-2.449376,11.683326,19.534159,4.1461563,28.161222,11.998841,6.9448805,5.405766,3.906774,-3.0190918,4.730038,4.26231,1.6644742,1.9005867,0.3745319,-3.2986157,6.2290883,0.2144169,-7.10496,1.3907667,9.478851,1.5573602,5.4207525,8.334671,5.253532,7.1443067,-3.0498238,8.018067,1.0891609,-3.4415066,7.0819607,2.5791657,-2.1362717,6.141119,-0.09453166,-6.117883,1.6245726,4.276976,0.37354365,6.430875,0.99358803,-1.3462296,3.833063,2.1229315,6.2484555,7.6674604,5.5349765,8.653445,-3.2894711,3.5533507,11.378352,6.513498,1.7926356,0.26140207,1.6696893,4.9115515,-2.2599638,-0.5876415,3.5189633,-3.0773811,-0.05167052,-0.73554677
148.jpg,5.892751,5.0693116,22.865273,23.274618,0.7733671,8.4392185,26.104052,6.413866,45.708946,5.289155,-0.38374242,10.107616,-0.6195288,-1.2195091,9.427077,3.5158157,1.7251621,3.9991927,-1.2304165,-1.6493284,-1.8169343,2.6489913,-2.7110293,5.0292687,3.8240392,1.6766984,16.187622,8.193137,14.406681,9.906944,3.5065327,7.6052933,-1.0919535,-0.672519,3.2510717,-1.4964805,0.08895788,9.811336,0.68624884,-5.811575,1.6815319,2.3356621,7.811774,1.4300467,3.1940267,-3.681143,-1.8717535,1.5877707,4.530351,5.2454853,10.926642,8.539681,-3.4565086,4.4779005,4.50013,6.47798,1.7551348,1.773377,3.385708,1.3927443,2.9700387,2.2331796,3.559227,-1.0372785,2.5282028,-1.1524547
149.jpg,8.859147,51.491196,8.4972,-4.626675,29.878473,-2.0419269,15.70443,0.5150911,-2.650977,18.10835,0.104739375,10.461506,10.561123,7.7598124,2.3693767,2.9179707,-4.2532816,2.3286479,2.7297995,10.325193,15.401734,-3.573338,23.324976,8.368821,0.60356885,4.318752,-0.034618005,5.6882396,-1.1972036,-0.3305426,-3.558265,3.3498394,-0.20580883,2.7148182,1.7647465,20.569817,-0.5096071,-1.0315527,2.2378733,1.2314379,-2.2021976,4.6784716,0.3924778,-3.0466735,-1.5605022,-1.6611633,5.926779,1.168181,6.959182,-1.4398702,-0.24837418,7.439694,-0.47729015,-1.345767,15.394764,-0.48758203,1.1212112,5.1369452,2.3721862,-0.10988056,0.77213997,3.91296,1.2414303,-1.9113418,-1.1733761,0.4383493
