image,0,1,2,3,4,5,6,7,8,9,10,11,12,13,14,15,16,17,18,19,20,21,22,23,24,25,26,27,28,29,30,31,32,33,34,35,36,37,38,39,40,41,42,43,44,45,46,47,48,49,50,51,52,53,54,55,56,57,58,59,60,61,62,63,64,65
0.jpg,9.825078,6.31723,6.0404353,1.6141247,11.681014,-0.3983544,16.04911,16.484934,-2.5436654,5.787129,11.730629,32.20747,8.495967,28.241814,19.432875,2.7452374,-4.8444414,3.7901595,4.076217,7.268708,2.5110455,3.6462176,8.346096,5.490023,5.2720747,2.7611642,2.665144,-0.19202916,1.7063701,-2.2466154,11.679001,9.303333,8.313183,8.236996,6.1055613,7.0066743,4.790673,2.1986656,7.98007,1.7618399,7.531713,-2.2080183,4.5596237,3.2740786,1.5132434,-1.526975,9.312471,-4.8729653,5.437002,3.6594648,1.022479,6.782386,5.172816,-3.7996254,1.4163754,9.035034,1.5063633,-1.5359541,1.478534,6.2071843,4.35809,-1.9916723,5.101365,-2.2356243,1.2527844,4.1443567
1.jpg,15.696539,0.55142295,-1.4306524,1.8724296,7.479115,6.808114,14.187567,13.8814535,-5.6790924,5.3730683,11.8678665,31.501118,8.993199,4.0097837,21.516636,0.0795193,-2.1716628,3.5262372,1.2256957,8.122861,4.1308985,2.1714673,4.680819,10.028282,9.212091,1.5991069,9.236116,0.08612368,0.69393975,-5.4141226,9.900436,8.193581,8.656214,6.1804028,4.2509685,-0.38259888,-4.0590878,0.83285403,7.8493543,-2.709344,8.261775,-2.7740982,6.996393,0.90553194,2.509601,-0.072384536,10.479478,1.4873905,10.947467,6.81606,0.9583887,9.558523,7.3327065,-1.6044987,2.522145,5.3613005,-0.4280158,-2.467168,6.686992,7.3147116,3.396176,1.1355169,1.6317859,-5.5220723,2.999633,2.8563201
2.jpg,16.083885,4.0839186,11.072686,9.660819,5.1766076,2.9128335,12.986496,21.096193,8.779779,9.474304,14.605702,26.269526,5.01257,6.6729794,17.39448,7.2793813,-0.34213504,4.117481,3.7506044,4.416447,6.1967254,7.2964864,2.255804,13.587795,5.340138,3.7416518,7.5798087,3.2786868,3.0604682,2.9099166,8.148232,9.25228,7.135231,5.458519,8.232178,5.907889,0.7452721,9.711747,7.9417787,-3.2740653,9.107981,-0.4478761,-1.4015785,0.9831846,3.784234,3.2517626,7.877228,2.6414537,9.488587,3.2339108,2.6730604,9.729631,4.0075536,-0.9039475,3.759984,6.3276334,2.3449621,0.55812067,7.3108716,8.175674,2.759539,3.5281525,1.2019464,-4.812715,4.822184,3.5293574
3.jpg,6.712964,0.801084,13.671729,4.3477683,6.867137,-2.148419,13.296194,15.530022,1.589042,4.0796304,11.779547,27.336714,5.8388767,3.603912,19.576683,-0.29848608,-0.4037645,6.1167536,7.4873776,6.3523917,5.7652893,4.980548,4.8678236,6.9663577,8.082197,3.566783,10.466995,-3.1450949,0.28027153,-3.0476515,9.782138,9.2347555,8.473577,9.323194,3.25724,0.85218775,-1.7750405,0.63257104,8.85212,-3.8332305,10.182484,-3.7545388,0.392116,-0.28364965,0.31878966,-1.6503506,7.5288982,-0.6953857,8.061671,5.8266172,2.2709832,7.5121017,6.2291236,-1.9479562,1.4969362,7.733158,0.24859312,-1.9524429,2.0412376,10.69905,2.0955546,4.693115,1.1550499,-6.1040606,3.9455526,6.5130143
4.jpg,22.212925,0.31836528,-4.431387,2.3138006,0.0021678396,6.151529,8.94168,12.7454195,6.5247784,4.0208454,19.670275,24.163328,6.5398507,12.980586,25.111637,4.776412,1.0842426,1.7738355,0.7744262,3.0770283,1.7616594,6.261228,7.522872,19.271914,8.214397,8.036562,5.4578934,4.3574247,4.2254167,-2.9440439,4.2258487,4.729437,10.508391,4.2177596,4.6503806,4.624953,-2.8377523,1.0201743,10.174806,-1.7347494,4.201747,-1.2776271,-0.14669988,-0.9456116,-0.049831532,0.9300338,13.638613,-6.2317367,3.5947301,2.2652977,-0.5008848,11.421661,7.02606,0.6677906,3.841117,3.8986816,2.4071214,-3.8869658,3.7299595,5.6731663,1.1157036,-0.7085459,6.028537,-0.24351133,5.2806153,4.245886
5.jpg,19.135508,-2.778576,-4.4020543,8.072418,-0.14518979,14.523062,2.3159797,9.204607,-2.2114792,5.6412687,20.472637,11.241869,1.7935835,12.653117,37.20202,8.077046,3.1002264,9.063051,-2.3888133,6.758059,-2.7923517,3.8385491,-3.7300847,22.492445,4.612331,-1.0896,3.191167,5.4831266,-1.2323767,-0.5165886,3.6446474,8.437538,6.760687,-0.5033525,0.99512553,3.8385735,-1.0144367,7.4382434,0.621624,-0.45557207,-0.34183803,-1.5562953,0.22308287,4.2789555,0.2353333,1.5742517,4.6508474,1.1275494,16.30215,9.718633,3.4596376,7.1544037,0.084796734,0.8123679,4.1345625,3.9318953,2.9570208,0.5422472,1.2940158,8.528861,3.4513903,1.0782249,21.076422,-0.11589266,2.4740798,-0.03157081
6.jpg,13.148376,5.1171694,-2.71573,8.926882,4.3937697,12.598352,11.38895,13.730133,3.510458,7.9062147,21.815786,24.50152,4.666128,15.247546,44.03126,5.2447567,1.8352089,4.906541,3.1222825,5.037307,0.2271939,7.4465513,1.5105906,19.172285,5.3832917,0.45502204,3.5629277,4.630747,4.732691,2.1480017,2.2105105,10.928671,11.786579,2.6570363,3.8412094,3.3786395,-1.2712388,6.4039907,8.554782,-1.3970088,4.0385065,0.95465046,-0.010036491,2.0813966,1.7777599,1.4620069,9.611856,1.0106647,7.503994,6.6271977,4.905434,5.071244,1.3755463,-1.0815743,4.274568,4.810615,2.1306179,1.8401172,2.662571,10.593055,1.8844299,-0.3681013,7.0336566,0.9331788,1.8358791,4.0294776
7.jpg,13.662389,6.5294356,-3.0188532,6.8627706,9.6154785,13.236335,4.4343157,20.550234,2.5037882,9.245621,15.220769,20.403831,8.514202,10.444335,33.979427,2.8069024,5.4181294,6.2398868,3.537398,2.0549576,2.682466,7.0769877,6.265378,25.706163,4.352577,-1.1687876,12.389529,0.4502958,2.9867172,2.2798214,3.7089639,4.640459,10.693387,2.6296368,4.9622087,7.3373065,-1.7934438,3.3785577,5.338529,-1.1768376,7.4073696,1.8527442,1.7046462,0.68985075,2.2176175,5.975241,9.009634,-0.38352507,8.468627,10.861151,2.6076615,8.030353,1.4733043,-3.0384088,1.6283959,7.1616545,2.6722512,0.7091794,1.8422686,11.266955,4.3142214,-0.47364134,9.939417,1.3256146,3.2573614,5.4588423
8.jpg,26.943672,5.3151402,3.872192,-1.9578152,10.283298,16.817968,-4.9282465,6.123832,3.6220748,14.087402,6.432353,4.4397316,7.5539904,6.1422815,30.032671,-0.4865252,22.785578,2.446509,9.187301,5.8596997,5.0418196,7.046358,4.7156615,1.1947799,16.909761,1.912621,3.829445,4.9598846,5.8443832,7.68286,14.94857,4.7931986,14.166734,6.7351894,-2.3407254,7.407412,1.7520089,1.7558264,8.2202425,6.617672,12.254155,1.311685,3.0597117,4.1875176,3.1901042,2.7361758,14.147761,2.406105,7.3501883,11.571383,7.5206475,7.15709,9.928105,-0.124367885,1.5475894,5.297522,2.3004997,-1.5906019,1.1923186,12.212374,3.0787938,0.07088245,6.3251076,0.0034544617,5.955446,6.9533215
9.jpg,40.963905,1.0097255,0.8398622,-2.6519086,-4.33617,11.955597,2.2350051,16.465273,8.013282,1.3131382,25.313261,8.929997,6.1722507,1.086597,26.080572,-0.04616771,10.023544,1.1546742,4.6282563,2.502056,-0.022580039,2.5616436,3.8135006,13.964519,4.9620247,5.7385306,3.6196933,4.1073575,3.7039433,0.4233716,4.7499323,4.8541656,13.994466,-0.7318725,7.247652,0.1679292,-1.049725,3.092171,4.5945787,0.83955026,6.232547,-1.1856307,-0.35510027,7.2707133,1.1130422,3.7251375,15.964206,-0.94603634,5.9622345,2.0128186,3.8279095,11.931524,3.87277,0.59952664,5.9607744,3.4816754,6.5068297,-1.6827126,1.1227998,2.1488678,0.4433343,2.2911427,6.8168445,-0.53161013,3.0403183,1.778047
10.jpg,23.427885,1.5570632,-7.2682595,-2.3131967,5.0202475,1.1133088,13.559142,22.732504,-3.3261895,8.969166,11.699529,25.70743,8.17955,30.736223,19.307716,6.618705,-0.42272723,3.5448089,3.0984542,8.314945,0.2545437,-0.8395506,3.5489693,17.759968,12.393141,2.9835498,5.788406,3.4724839,3.5954595,-4.2343082,13.3475065,11.730385,6.2510095,6.202782,1.1369752,5.646243,1.6879389,1.6482381,12.970235,-0.47857156,4.194826,-1.2769647,-1.3848976,-0.7732902,1.3207237,-2.6029088,10.105361,-2.3692937,5.400317,5.7105474,1.0262877,9.008241,7.437052,-5.7148957,4.118719,5.975907,-1.7448316,-1.3493233,4.9688587,7.0725293,4.2596774,-4.5531707,3.0044284,-4.852382,4.070218,2.1182177
11.jpg,14.666261,-0.94713384,-0.03905613,11.311589,7.551376,13.482187,9.799938,17.19425,3.316284,6.6314034,18.619686,17.918549,2.892996,9.605991,33.58611,3.9926336,6.8648853,5.297061,7.2335453,1.86519,3.2729366,12.014465,-2.6748831,21.172684,8.837085,-0.024644006,4.276701,3.1287193,8.830523,2.535606,6.6470804,11.783664,13.403843,6.19001,0.660494,2.2649844,-3.0312152,4.515725,6.6062956,2.2980847,8.4369335,0.99234366,2.4019778,1.4891231,3.4285653,1.9920045,7.5796537,5.0282016,8.071223,7.844665,6.0578704,4.616629,6.090266,-4.078203,0.92530763,3.852549,3.3020186,3.5757716,2.7045932,10.762632,3.549219,2.37125,3.6456227,0.27284893,1.9289699,5.741113
12.jpg,18.930325,2.741176,-3.7212849,-5.084681,14.256067,5.4961176,10.501747,24.106407,0.15102169,7.910727,13.9018135,22.409016,12.464666,5.280129,16.205374,-3.5991204,-1.7781363,7.158968,5.110928,7.247294,1.7990936,1.2440788,7.7725353,3.9500327,12.209574,1.4174315,-0.3056115,-0.92329013,4.6952863,-3.9345343,11.191596,5.0133057,7.6705127,6.021645,6.89795,1.4739224,2.0888476,3.1946342,13.159798,3.7156105,7.1691327,-3.3273737,-0.617532,0.96510845,-3.6443267,-2.872951,13.562597,-2.7600725,8.749816,2.9192665,-2.2809532,9.448762,5.994369,-1.2239069,-1.6015295,4.992877,-1.4436013,-0.5632478,-1.1862277,5.754584,1.3045261,-1.8988278,1.7554998,-4.9708877,1.8343426,2.8100548
13.jpg,18.432865,3.1853378,24.588755,16.464931,8.182892,3.2027085,20.606173,2.2935698,21.882408,7.7787304,3.3630588,10.830374,10.507561,13.600637,14.578308,10.9897175,11.610785,8.881114,12.684674,-0.8880142,12.079244,3.1037185,2.3680654,-0.06048577,10.294695,11.769004,11.914957,9.442377,-1.3866627,0.39529252,7.5754085,4.247234,7.63895,2.3714986,2.8469522,4.195664,-4.8503356,5.4807096,12.32089,3.726242,0.67353064,7.008995,1.633019,5.785774,6.6046147,2.0829418,3.2077205,4.158576,3.1795442,7.5222073,10.359023,19.433031,1.639197,6.457406,4.328073,3.5597503,4.6579347,-0.44352263,2.507223,2.5946484,4.36785,4.056499,4.747927,-0.6373932,-1.0083039,1.6279819
14.jpg,12.870834,-0.1678694,-2.9858978,38.12822,6.513919,19.503479,12.457931,12.08465,8.408674,14.244962,-1.9803483,20.243038,11.179936,9.990075,22.813465,2.529856,8.414116,5.111726,5.7373505,1.2583373,4.518435,3.0599952,1.0770041,17.019955,10.404475,7.204225,-1.9558609,2.2105892,2.9031563,1.097919,7.3752656,4.1339684,12.909269,5.835522,2.3061852,2.045611,8.6489525,5.606921,9.434616,2.1651247,3.815635,7.490585,0.67590404,-3.1398344,1.9363075,-4.308675,8.916352,4.6313057,5.068922,5.597882,2.6834493,9.91075,5.862707,-0.71725065,2.987379,2.3412075,-0.18412782,-0.1493853,6.525119,10.48941,8.038359,-2.1996193,4.430082,2.4524956,-0.14000812,7.716699
15.jpg,24.338606,1.5416374,-5.2574434,1.222061,3.2637126,7.8895698,10.396574,20.6,-0.16583726,6.648089,14.062819,27.298796,10.814957,4.9955606,26.885357,-1.08808,0.09382376,2.1672747,0.19243526,8.78124,3.8674138,7.64668,12.409946,4.283221,5.6124306,3.0769825,12.817317,3.9309387,1.1865815,-3.493518,8.86691,6.7167654,9.681291,2.6282475,8.074004,-0.114555284,-3.1704106,4.546209,10.454607,-1.0584557,6.0710444,0.91738176,0.15308754,0.8379489,8.918417,-1.8156245,11.985523,-0.28117755,7.1516147,2.6879034,-3.073806,9.207915,4.5924025,-1.8158501,2.0853028,4.4650965,0.46311864,-0.9051133,0.71893525,6.176406,-1.2862129,-1.5968488,1.5144908,-4.110895,0.17991388,4.493895
16.jpg,19.930912,-2.269601,9.321356,11.552806,6.588962,1.9812458,15.422121,11.460998,33.15078,2.417604,7.67799,14.957203,19.594515,1.8431097,9.964189,1.4442964,-1.9184825,9.487821,-2.561817,7.913461,-1.628628,6.0784845,-2.2673652,7.161543,19.612453,10.89599,7.604753,5.9767976,1.3110069,4.575976,9.020498,1.7575748,-0.5626861,1.153841,2.9522994,1.4443523,-2.5881267,-1.9730327,9.789495,-1.7442353,0.87832993,2.742498,2.4600499,0.44515002,14.097905,-3.0512795,6.5036454,7.789621,3.506507,2.9224334,7.3673854,20.433702,1.926826,3.687872,0.04190761,9.360851,-0.55113035,-2.817012,4.1139383,5.9517436,-2.5156438,2.1695707,2.8339667,-6.787222,1.6900835,-0.7214443
17.jpg,13.605222,9.27324,7.3550076,3.9918973,3.3035889,7.7008734,1.7275091,4.143263,12.474187,5.8907943,9.080059,10.86036,10.218444,46.883972,18.895435,4.0869703,-0.901369,7.6777325,4.857967,1.5486151,11.891705,18.03337,8.823473,4.779512,4.78721,2.7785585,22.706387,8.600224,6.4817147,5.2646995,3.5506184,1.3807774,6.0627184,1.8702364,1.4127737,20.816332,-2.16893,1.1592752,9.826679,-3.8298361,11.039225,1.7802798,-0.055903103,5.1040125,4.054882,9.703588,4.673316,0.8498076,-3.6072173,3.4283519,2.254663,9.774871,0.69239014,-6.0778728,1.36479,6.776467,3.7630358,-3.4711394,3.4192357,6.243115,5.3582487,1.9970317,6.9702787,3.1603298,4.420387,6.5514693
18.jpg,21.223392,-1.2870345,3.3710837,8.176229,3.2854,18.43055,8.820253,2.5783699,10.375261,11.335049,4.6600084,8.378211,6.862006,5.2429786,23.11103,-1.6081607,3.5785656,3.1605146,0.9034705,4.8751073,5.152169,17.269764,7.4738116,4.95444,6.6698813,7.5280204,18.904472,1.9771032,1.3307008,4.5896945,4.469099,-0.053375494,10.588988,0.5493436,-0.09672129,0.053279243,-4.410889,0.6420793,5.5398574,-0.8624522,0.8575999,2.7658672,3.1120057,1.4624355,2.8679907,2.8336947,7.9058027,1.4826542,4.9377604,5.3253675,2.5770311,10.638521,4.283972,-4.9081554,0.7157266,4.3986373,14.216598,-3.9625335,1.1051921,9.0040045,-2.7412274,-1.0592731,3.3026247,-0.87245035,2.6589644,9.283158
19.jpg,13.212165,0.8898575,6.24112,9.708661,3.8722568,23.512606,-2.2975132,3.6570697,5.8253765,10.965415,14.1645775,4.9083557,7.490093,12.108605,31.771114,-1.038842,0.6026599,4.8522243,4.9670424,-0.08371799,11.450778,15.148258,4.1537433,-0.36823577,5.076219,-1.5987918,17.393888,7.171926,2.2188232,2.4496083,-1.5175488,-2.3801706,15.225416,4.3634186,-2.4392653,1.2070937,-7.4893184,-2.7890954,6.8516984,-1.9557394,13.078393,1.9801759,-0.029753987,3.3027694,0.9991115,5.523178,9.300452,-0.895813,6.6761637,6.535262,2.7812924,6.2693806,1.2663426,-4.9217515,1.1771804,6.0871744,1.2774603,-4.6589346,1.39762,13.303876,-1.5299084,3.2161965,1.5481513,0.11540958,1.0381516,11.515915
20.jpg,24.924887,5.408635,0.8425839,13.061653,-1.19541,24.666393,1.6916533,1.9740674,10.759224,9.053876,13.02269,5.3852735,4.787944,10.596134,28.333246,1.8872995,4.8903017,0.7441943,3.2096453,-0.12558894,6.8897576,13.497313,-2.2243114,-3.501947,8.790895,-1.5236912,10.415055,2.7073452,-0.24014655,10.026111,12.294705,-3.1141958,10.059743,-0.3447232,3.5777342,4.9672456,6.6250896,-1.3626884,-0.07414548,-1.1486057,1.4703897,6.337308,-2.2174218,14.049554,6.9557877,8.960305,7.0262804,0.49951392,9.38913,9.377577,3.718929,9.485017,-0.078606695,6.5604506,-0.111313306,7.916938,0.8588405,2.7568932,3.033747,9.508772,10.876558,-0.52031624,3.751733,2.991786,-1.6876048,1.965774
21.jpg,13.230334,7.7635603,1.1975362,2.7060277,14.239661,12.966755,3.411552,11.209423,-1.8806471,7.4890943,15.476394,16.516886,11.42346,10.869859,32.283695,-1.2786916,3.4261265,7.3610744,3.2140455,6.336098,3.9055548,14.4087105,10.008892,23.258457,5.28525,1.9314129,16.894327,6.2929006,5.1345205,0.27646944,2.6866074,1.9732296,8.190651,1.6622921,4.8406243,6.069118,-6.329437,2.0652215,7.1133876,-1.9579155,4.027897,0.43268186,2.772549,1.8827906,-2.2394643,3.9980001,4.735275,-1.4344614,9.358686,7.232505,-1.1830097,10.525157,1.7321037,-3.148724,0.6509509,5.6131864,2.4160836,-2.4822392,1.2971063,11.408017,2.0163531,0.6259481,5.864114,-0.85860723,6.69238,5.443766
22.jpg,16.559113,6.7034125,17.967077,23.694363,16.250547,-4.2283626,7.991101,12.529805,37.840363,-5.0030527,5.900332,18.836666,13.975428,7.2189,3.6058168,5.6594267,-5.8523903,5.7979474,-0.54464173,1.4428788,2.6075873,7.7030053,-1.3829086,12.265272,7.035924,-0.8044673,6.781316,5.015182,-3.348518,4.822577,5.5923343,1.2193017,1.4940634,1.73533,3.5997503,7.1237655,-5.5676136,0.30022377,4.326457,-1.1599147,3.1997225,-5.2317605,4.84642,-1.4266669,-1.1472511,-4.265255,1.0102961,22.13445,6.9754705,0.8879835,4.6041074,11.713441,-2.2047772,8.523599,-1.7746114,4.4144177,3.5326443,-2.027221,2.0667517,2.0502882,1.0210607,3.7171192,4.73254,-3.3807623,-1.6405493,-1.6197131
23.jpg,-3.7591748,3.9773254,4.0638266,24.20417,2.9750597,18.621912,10.173491,8.579784,6.174737,11.340759,2.474627,24.55498,11.414274,8.438069,34.350147,4.055823,-2.7099972,3.388936,3.1135087,8.396907,8.673377,7.179035,-1.8781285,2.9476433,5.5502763,-0.5668726,5.242998,5.658177,3.90805,0.060310215,5.509743,5.6393065,13.527749,9.131746,5.668708,-1.4699316,1.6156867,2.4955955,5.640358,-4.6036887,0.21166246,5.8880134,3.2676804,0.3098621,3.8528967,-1.4197273,5.711598,1.1017934,7.6379547,4.067212,4.484033,7.371871,3.1126876,-1.7669374,1.1909375,2.146678,4.733795,-0.9242397,-1.6811616,11.59314,2.2545114,0.6944184,1.5347316,5.143591,1.855526,6.9612556
24.jpg,-0.7526165,6.5778985,4.5618258,11.946915,-0.20909594,20.181496,6.1779704,15.211567,1.5125495,10.738066,3.8668118,25.860802,11.364248,12.642252,34.0292,3.3542693,-0.12821881,3.716069,6.463055,10.468994,8.733771,7.838623,-4.8025475,3.6930985,8.134589,2.5114903,8.905671,4.849596,1.6764596,0.93334985,9.905214,7.961619,11.766011,5.423777,4.862578,-3.7980783,2.7021687,6.8272495,8.042927,-4.87545,0.41715637,5.0910544,6.435527,3.730521,5.7484207,-2.1044188,7.577819,2.6928072,8.162687,7.4816213,6.013769,8.548543,1.1379974,-3.310585,2.519638,5.1810412,4.705342,1.544722,0.6770195,12.889105,3.0847316,-0.5681578,2.1029325,-0.60390544,1.2637821,6.205517
25.jpg,12.068997,0.090173915,-0.6141121,5.073828,4.723897,6.845624,7.590501,9.398006,-1.7205849,12.63933,7.429467,15.736037,11.004491,23.29398,35.139534,11.168245,4.4516215,-2.6811714,9.599357,2.9725313,4.7507315,5.881267,7.526824,6.7510324,8.402111,9.509926,3.9425325,2.1939828,-1.1262503,-3.3465254,3.6714203,2.241522,16.52648,8.573537,-2.753028,5.04992,-0.4373697,-2.0417657,15.010855,0.60838723,2.9509454,5.574614,3.2999773,-2.0285542,5.126754,1.1893632,8.014506,-2.6388066,4.7752066,9.667585,2.4714227,6.736145,10.642021,1.3747193,10.734677,4.1996226,5.382058,1.4050388,3.8419957,6.3301697,1.4458627,0.127945,8.773871,0.94166183,3.9535873,5.9097376
26.jpg,7.806571,0.33831903,15.3168545,17.461246,7.2993755,4.792796,12.377061,8.381655,34.478153,4.402937,0.9777219,21.866251,14.457886,2.8922768,9.41215,-1.9438885,-2.081776,6.9002447,3.144284,-0.6733732,-0.026801694,0.29497352,-3.1887968,15.796888,10.516846,2.159174,15.003128,5.508238,6.2624826,5.2397866,6.2157526,4.828903,-1.4722707,-1.1466234,3.4617395,1.8172758,-3.5112038,4.7074113,11.368692,-4.0406666,3.762465,-5.2806387,1.1733272,-0.3829408,-3.6977093,-3.8946025,0.7226264,2.7343135,5.5824575,5.0198903,9.4480715,15.109041,-1.2631321,-0.30818778,1.3660941,10.210407,2.8094623,-2.540277,2.1941252,3.8283825,1.9883636,3.8669295,2.1957393,-7.952029,1.1953189,0.16108514
27.jpg,15.749171,3.957492,5.6278005,10.147477,-2.5205004,22.985523,4.1693697,0.1694003,11.824766,11.544577,6.832087,13.0898,2.850457,7.064026,30.720627,1.7089974,2.1838677,1.4808359,1.7531648,6.865999,8.581969,17.984802,13.39101,-1.5333042,5.5707183,6.545581,20.67134,6.7659826,2.5106816,4.39527,5.270297,0.042135153,17.169308,-0.2569465,3.0224378,2.285404,-8.134111,-0.05783532,3.608395,-1.9600053,0.12068598,3.0741985,-0.7379948,2.984778,0.9910686,6.4322276,10.110867,5.9746704,2.2107189,5.314718,3.7257557,11.67054,1.4967175,-0.3003705,-0.24404836,4.1078453,1.7175344,-1.803478,-2.3425608,10.021006,0.15932214,0.8282395,2.7952228,-2.503366,-1.2118047,11.042163
28.jpg,13.070263,5.801016,14.945416,18.751898,10.336347,0.8133115,11.429543,12.186916,28.245153,3.14483,12.563096,20.682468,7.6211424,6.458893,13.726267,-1.6886568,3.1634822,9.427386,2.733155,-1.5277909,4.5091496,3.900243,-4.433652,11.763528,8.660629,0.8580597,11.487084,7.9375834,6.540647,6.783124,7.3373227,5.2918673,4.5247474,1.480752,4.540324,2.9490075,-5.682128,9.333272,10.772645,5.108618,3.194907,0.4756434,-3.208208,1.4646319,4.6352963,1.3936318,2.1635332,9.856166,6.114191,6.445717,5.7239223,15.765706,-0.98837984,0.6966396,-1.4602816,4.7206097,2.9618025,-2.6427746,0.8303013,5.512709,3.0836782,4.4406853,4.761448,-3.748215,5.5024877,2.2958677
29.jpg,11.274422,15.373072,16.082214,20.97245,8.284638,0.6993085,20.12492,5.906736,41.028576,-1.1225094,7.5765805,21.660215,11.698851,8.319725,6.4234853,2.0588458,-4.0413404,5.3528585,2.7015657,3.373833,6.5381794,4.063575,-4.6200714,11.496957,7.745824,5.145718,7.4302406,11.090921,6.4625754,3.1063318,6.2148085,5.404909,2.5436573,4.5017285,5.973396,3.81921,-4.407658,0.8478155,4.22345,1.2252638,0.4667298,-1.2631061,4.3801465,-3.387846,4.5038147,-3.2554157,2.361767,7.2327724,7.8160577,-2.3023415,4.287682,16.898653,0.10584132,10.758953,6.7900076,6.414444,3.4736843,-2.0936482,5.520895,-0.70315546,0.10458571,2.7430453,5.4570994,-7.312886,3.7239103,-2.916736
30.jpg,15.002376,3.4731307,14.141162,16.708256,13.837483,0.8150046,21.933086,12.230124,43.086704,3.8199008,5.0497293,19.84979,9.326733,0.78510845,8.24704,0.96146363,7.8364944,4.1495476,-0.08203751,3.514078,1.0571423,2.1011736,-3.436944,20.248241,10.8325615,5.5352,8.280373,11.054065,9.69754,3.6531634,8.65034,3.745842,-0.44996476,-3.4848464,7.176039,2.1825576,-4.055196,3.0332043,7.2820516,0.2087086,3.4095094,-5.255967,14.300613,-0.6706741,3.9924924,-4.2956176,1.1881083,5.7969766,6.6957703,1.7777631,5.1966414,15.31988,-1.321049,5.4412374,7.6916256,7.795183,4.0844626,-1.0343162,3.5835583,1.2645413,-0.853724,4.4572597,3.1831696,-6.0894694,3.5305843,-1.0873368
31.jpg,10.727516,20.86359,15.028803,12.866566,8.598367,-2.2317286,12.910626,7.205359,41.31328,-4.987298,8.411415,17.334593,8.285708,8.1609,5.005966,-3.695406,-4.7697744,9.613736,4.862807,2.3527524,1.6451267,3.5597079,0.7092319,6.2554507,6.6627116,0.9211242,9.641014,11.076728,1.5846094,4.832449,1.6570727,5.906873,-0.45685816,1.8977103,5.9519835,5.7530265,-7.162616,2.01048,2.6878564,-2.8647697,-2.3635612,-3.9831831,-0.79818535,-1.7518636,-4.3333983,-4.731125,2.6756685,9.028978,5.9423223,0.022142986,5.568962,16.054306,-0.6088726,5.795426,3.3276315,5.265864,4.142149,-3.511752,-0.8956652,-0.111998476,-1.0602732,3.895989,6.0222893,-6.9948306,-2.7182467,-4.3330245
32.jpg,27.962566,10.15931,20.879307,10.602316,26.271688,-7.8061805,13.658417,8.846651,30.762459,1.6454753,2.1057954,10.146465,24.878468,0.5454706,1.8398473,4.893693,8.2303705,10.392528,5.400812,3.2127726,8.679504,5.7798223,5.2071066,6.251572,12.231788,9.703957,6.007639,10.799016,-1.9677898,-3.5542264,3.2163084,4.069598,-3.0693939,-1.016991,17.332644,1.4873912,-4.3585443,1.356055,2.065171,-0.19621141,-1.1779646,-2.209988,4.7403817,1.4200822,-2.0878217,-5.9370112,2.3852158,5.563125,6.859689,-2.8160412,-1.0008221,13.03325,0.43959284,3.7462208,6.8240323,0.030308217,2.2237916,-3.5196896,1.2963818,2.4713836,-1.7775006,6.036932,2.7300875,-6.4897723,2.6748683,0.36488855
33.jpg,2.1329908,0.982695,25.901693,3.0325923,11.789875,3.3512287,20.638521,7.8409934,27.722937,-0.35681558,3.2677255,26.189777,6.2940702,13.170592,16.882713,1.5886705,0.43733177,7.2490134,1.5336635,4.508431,-3.3270552,2.7789156,5.539645,11.654288,4.7567105,0.30707178,6.6722274,6.979458,6.2764463,9.378224,4.252231,4.7382855,0.11211121,7.1936474,-0.18006018,5.3153925,1.4531847,3.437431,11.855653,0.06054663,3.2911942,-0.7614526,9.923981,1.567521,4.3653393,-4.409752,2.8470466,0.36977902,7.1988463,8.414273,20.787828,15.873392,3.0660596,8.025971,-0.40083137,12.586678,-0.38208985,-1.6344365,0.63504225,7.6080775,6.158448,4.3130426,1.6894113,-5.2527685,5.5979004,2.5578718
34.jpg,17.847963,4.4563284,1.9349105,6.2519975,8.075908,-2.790851,21.636803,16.2575,19.152897,3.4500766,4.185928,20.34907,13.118343,8.429556,12.509699,5.1756043,-0.46676213,6.9254546,-2.4726212,6.882408,5.3888335,4.5323277,3.7712824,18.393305,8.752814,4.070637,1.2914008,7.9538455,3.8392696,-0.5670873,3.6448765,5.8272896,-0.58092165,3.6960726,5.5558968,6.31947,-7.09837,-4.0188293,6.8076005,-3.8280838,0.022143684,-0.5556003,1.1337498,-0.36196288,1.135252,-6.474552,1.8492192,5.6558223,7.505731,4.4911017,17.360674,16.103603,1.3574775,5.0486107,4.11766,9.796097,-0.34675208,-2.0329053,4.8497667,6.0296097,0.7467958,3.5855472,3.088216,-5.5943737,2.311728,-0.5347587
35.jpg,5.5529175,3.3011668,18.103298,14.346213,2.4524055,5.817627,16.31997,0.7831226,42.242126,-0.8996709,8.595472,5.6379538,4.076924,6.07781,15.364747,1.094396,5.207868,4.63267,-2.9483047,2.3988316,-1.3256109,7.548597,-0.9531892,4.3505406,9.184824,2.6173813,7.6391315,6.3296056,4.814721,19.601862,0.49616975,3.7252865,-0.52765375,5.401735,-1.2822775,0.31493622,-1.936689,0.8770019,5.9166856,-5.5668364,0.8389311,-2.3068352,1.196004,-0.10438727,-2.0670407,-3.1700225,1.4413329,8.807306,5.253722,6.836687,31.211367,10.869116,1.9381285,1.9782199,-0.7025032,15.991502,2.912904,-0.71851647,-1.418803,6.194869,-0.040058933,6.4570217,3.6693566,-1.1765903,5.5923395,2.2630744
36.jpg,10.893768,2.9432998,10.102063,16.39079,11.52583,0.75369906,24.286283,5.0317936,32.209103,1.6283244,6.977132,22.433453,10.390638,8.725441,15.618274,0.7827424,1.4551208,3.2910864,-2.5374806,-0.535422,0.56042385,4.8140283,2.901249,7.775908,6.90677,4.097189,5.215744,3.7309124,6.3452153,3.7519536,3.8448308,6.516793,0.9484467,2.9703152,2.5337107,5.499265,-5.0285683,-2.817295,5.7954946,-4.416434,8.524312,1.655259,5.6326585,-0.19916123,2.2853465,-4.8506045,0.9518456,3.4627934,7.6663823,4.658209,18.467495,14.722053,1.4603618,7.0073786,1.7258433,12.633536,1.0828806,-2.560756,2.212105,6.0134864,2.4042315,3.0551562,1.8594961,-3.2520034,5.134866,2.497667
37.jpg,20.939247,8.610086,1.4995161,9.699524,6.500334,13.729718,10.946182,16.567398,1.7864459,4.5406046,2.1825445,18.372364,23.533457,7.1850367,22.073915,-0.05144123,-1.5173713,10.212343,7.337664,4.6756573,1.9154899,7.7267804,0.92668223,7.709538,9.985508,-0.32567215,9.059965,8.272097,-0.93236935,-2.3463552,8.638005,3.64512,1.7951384,4.3717036,1.4969846,2.4462438,-3.2992907,-3.3575497,11.886095,-3.9221518,3.23789,3.8423364,1.0074469,2.4958797,3.9350207,1.0301298,11.850494,2.008501,8.991523,4.8072677,0.29947078,11.880075,4.5422845,1.9565148,10.662656,7.4449854,-1.2378985,0.65194696,8.127529,6.137706,2.3092654,1.0779884,5.0957417,-5.175255,-0.28298697,2.3892689
38.jpg,13.827269,-2.5522404,8.362491,9.692104,5.2546535,9.504004,18.940613,14.084746,8.204717,11.02601,-5.066009,20.060406,29.424513,7.365431,12.032868,2.2472534,-3.4882028,5.227492,19.986124,1.2145951,5.2605934,2.0359743,1.4934729,2.3162637,9.480511,0.37704286,7.2748,9.551993,-4.1745915,-0.9001949,3.925917,4.657866,5.097726,4.0029306,4.3289986,-1.494796,-4.5622544,-1.5609868,8.849766,0.9742604,-0.16089226,3.3470616,3.6125655,3.6318145,3.2710438,-2.4771192,15.353499,1.836088,12.452214,2.4661195,-1.5837219,12.557848,4.9461412,3.384989,8.316531,3.8425663,0.06549889,-2.3270967,1.5062139,2.0827544,2.9110665,4.510034,1.9735515,-2.5948894,-1.3405385,2.9810884
39.jpg,22.541494,4.900181,21.03717,18.0876,14.343494,-5.7222753,18.560017,5.6726985,39.368343,3.124035,9.043172,15.074507,11.8981495,0.6478379,8.945536,7.21305,10.487525,0.35528666,3.3137507,1.1532193,2.5656793,1.7526338,-0.820605,9.677281,10.414773,14.510664,6.3955793,10.012398,-1.4026797,4.3187184,5.5320606,9.990224,4.1366615,-0.47150356,17.013645,-2.6594813,-4.254511,0.58248246,4.7424355,-2.1687052,-0.9057818,-1.9093354,2.7046874,1.7104208,2.3230414,-0.7789998,1.412793,6.958562,6.447321,-1.7023139,5.066165,11.227327,0.3060135,6.157596,10.111992,5.6202745,2.9938936,-2.3357131,3.7571323,1.4062638,-3.4404044,2.008735,3.0139596,-8.74215,4.394529,-2.8111806
40.jpg,26.42703,-3.9895837,10.745326,19.347385,4.799384,0.043366034,15.389219,7.530567,36.2827,-1.29908,9.538339,17.277863,10.08587,0.8985186,9.991142,4.76833,1.07626,4.784612,-4.305633,6.770172,0.5328327,6.4172773,2.353121,11.1265955,14.333846,10.40088,8.584162,2.6530871,-2.6641304,-1.4560187,7.511299,5.794386,3.1023967,3.9488614,2.623089,-1.1979753,-4.116524,-3.2056053,6.1768537,-2.8095365,2.3084385,-3.1954129,3.7604496,-4.417703,-3.254797,-6.4839244,4.3800097,8.217563,8.018604,1.9454529,5.588166,21.008366,3.4142056,7.633176,-1.8103616,5.880862,1.1682751,-3.3096802,0.08140623,8.236723,2.0272813,6.6741285,2.286749,-6.260343,5.122522,0.56875384
41.jpg,13.587211,13.358517,7.1718984,26.682516,6.831739,-2.1776702,14.765237,7.550756,36.168243,0.09414982,8.972847,6.492644,10.639195,3.333779,8.41122,-2.2194777,1.9829127,3.0901065,0.31325054,-0.08765422,1.204857,9.43755,-2.697606,9.198061,11.233334,10.071375,13.652873,8.210756,-3.1839647,4.9185886,12.508604,4.753071,2.1525762,-1.0808585,6.2639446,-1.59476,-3.025483,-0.24301796,13.279085,-7.025166,-0.13340646,0.4443806,3.0672326,2.7158968,-0.00072624534,-0.46917385,5.8610907,7.1440153,7.0803223,6.705089,12.990377,15.978771,2.1743054,-2.906339,8.897211,9.817785,4.385257,-2.1064382,6.2634454,6.5103292,3.9335012,2.2019475,4.952414,-7.7836623,4.026402,1.5473471
42.jpg,10.261677,2.2299457,5.08997,15.916678,3.8055387,3.715437,16.865044,8.453931,25.46473,11.164948,-2.5876637,23.00914,11.775931,3.1654313,14.768462,7.57547,1.3805455,5.811634,2.5650382,6.908112,0.35711724,-0.37024543,0.8786097,3.1871102,17.501394,3.4656599,10.073412,5.122641,-1.2446768,3.2025247,5.5410547,5.441965,1.9999549,1.5879475,3.3731124,0.40640217,0.6585274,5.2562637,8.4423485,-5.445904,1.6077687,3.7651203,1.2672324,4.0804915,3.9199955,-1.007337,10.110861,11.067093,7.184229,8.819342,7.93888,18.426754,4.177405,3.7814305,2.1502678,7.4309363,0.9219784,-1.7992396,0.7481436,7.5728884,4.7603264,4.0602574,4.2057266,-7.2613997,0.58257186,-0.72905517
43.jpg,12.365342,10.718426,13.854861,5.2822986,8.735815,1.0483494,15.565125,6.19122,22.300308,-4.645354,9.359514,25.170088,8.46825,10.085722,10.906978,4.495455,-4.9189496,10.972962,-3.1861153,9.434376,-3.9388287,3.694874,-0.21822557,4.7793884,11.920849,-2.4421172,7.7735076,5.9441247,5.527887,3.7710655,6.4816656,5.2403927,-1.8025674,0.21115634,-2.8650436,4.679076,-7.467749,1.991259,8.326786,0.29037744,8.160783,-5.7216997,-0.8798611,-0.016566645,1.0707422,0.75467676,3.661748,3.8767104,2.455945,2.2075863,8.048868,12.804554,-1.1810826,1.5947481,0.94269377,14.28716,0.4295442,-4.7293253,0.87032413,4.7317047,-0.47980234,5.98588,3.9931557,-8.534126,1.1395023,-3.0125465
44.jpg,3.2631152,3.9682393,11.250722,7.556095,9.85581,10.891411,2.647363,6.5647526,11.545166,2.829595,11.4033,19.729612,9.691202,19.97412,27.780216,3.4438145,-0.11967979,9.43306,11.882311,0.654519,5.770507,13.439192,5.6314445,3.09583,6.6116147,-1.8476692,18.508583,7.012864,5.601095,1.671496,3.5962577,2.4004815,6.755915,-0.077121794,0.55143964,8.969579,-6.7445745,0.074496865,8.920742,-4.03695,9.381886,-4.0189285,-1.7671604,2.5789552,-0.36314306,2.3692102,5.059653,-2.4860206,5.0399833,5.621493,2.0843384,8.577331,-0.27726763,-3.1115723,1.2085892,5.245498,3.5651479,-5.635131,-1.8386297,9.425517,2.366867,6.1807666,2.8575768,-0.069295704,4.1819763,5.9745793
45.jpg,4.4433284,2.6967936,10.743664,10.93459,14.727087,4.4923754,16.868767,22.52624,2.7874622,6.768323,2.1951766,25.494495,17.89461,9.552426,14.514807,2.1301188,-4.325515,5.9813304,5.322743,3.5333798,5.1765747,0.38567948,0.59237134,8.5631895,7.188459,0.56884336,2.7443557,5.0336084,1.0283552,-4.573455,5.6591287,4.1851993,2.6939678,6.454845,-0.8073277,-0.95407313,-9.762991,1.5019432,13.453172,-2.5811074,4.1204405,-3.0448065,4.165398,-2.0757723,-4.866137,-2.567539,4.7119646,2.6487155,5.524801,0.5533708,-2.1786578,0.17975411,2.9439523,0.31931773,11.023894,4.188894,1.3031718,-2.4916875,-1.0261915,4.5640016,-2.6672184,5.094294,-1.1864349,-3.304696,-0.51630497,4.340574
46.jpg,1.6834637,4.5596375,4.1703644,12.544468,4.9855695,14.830671,12.209363,8.53425,5.781086,16.150185,0.3932016,23.612055,23.070782,14.394569,19.541553,1.271538,-3.3734806,5.2168903,11.224949,1.0125984,9.261273,-0.3826008,-3.481447,18.661858,6.908545,0.23304327,5.176494,9.35709,0.034660846,2.8807092,6.9281774,2.4582129,6.0688443,6.202048,3.4120374,3.0867393,-2.3569672,0.93407595,9.033885,-0.5209638,-0.95149773,4.0193896,1.2549158,3.3524048,-0.93773353,-1.8527849,7.912282,2.0959048,20.29686,8.169807,4.237059,14.886573,3.763029,0.6833282,5.416939,2.7797778,1.1944349,-0.17958638,2.24621,4.5556245,5.9832087,7.372944,2.8855443,1.3102978,3.564465,3.6767528
47.jpg,4.9265394,9.354085,5.1818237,1.4554094,8.869799,13.337686,4.3972826,11.031961,5.145255,6.286959,13.29777,14.673461,7.267401,15.358446,28.412628,4.105414,-3.568361,5.949502,3.7525244,4.9698844,2.8970528,5.430649,6.176028,34.486576,2.2233567,1.9723657,-0.052506477,3.1070223,6.231464,0.47555733,-3.2754805,2.4831402,11.62553,4.295774,6.5992517,4.7619853,-6.925662,-1.9189603,3.54486,-4.1611485,5.7619967,-0.9167257,-0.34145173,2.0891554,-6.3674254,4.4389853,7.6461897,-3.2605977,8.389037,5.4869347,1.6888621,8.8844185,1.4790366,-3.4421847,0.56344557,7.6079288,2.687876,-2.3179803,1.2229934,10.435854,0.7350546,-1.5423274,5.3339863,0.95465,2.992048,6.369581
48.jpg,16.950804,0.88630223,4.8619256,12.220776,4.2613826,16.514925,-0.3156675,5.584215,17.18502,13.618671,6.2985477,-1.3493147,10.6684475,4.855524,29.715038,5.133732,9.82873,4.4630713,-0.76291835,4.1903505,12.976663,10.204351,-0.21927133,-4.000151,18.488409,1.3336873,15.898843,2.5305305,0.8826172,9.006442,9.934182,3.8288546,12.315761,7.4305954,-3.7243552,0.6331758,2.311962,2.5930014,3.1256027,1.0741062,7.3264966,5.123959,-3.114315,-1.4108807,2.7639968,10.137476,10.064635,6.88522,5.0193934,6.1606894,8.769579,15.839715,6.5911727,-2.5593162,1.8612067,4.8051653,3.5092,-0.1839281,2.3608437,12.924581,3.9994729,5.2488556,5.234904,0.27032858,-1.2098782,11.026647
49.jpg,20.412794,4.13751,8.350241,22.509026,3.2670584,1.7683849,14.918415,9.891676,35.953312,2.112006,5.2523055,31.249125,7.127943,1.5003551,12.112222,6.143941,1.375042,5.2639937,1.218843,11.655897,-2.2314441,-4.0179214,4.085206,9.078815,8.960428,3.8590922,8.861129,3.5748322,-2.3347147,6.3903027,6.175148,3.904254,-0.42428318,0.30831134,2.769152,-0.118607,-0.7623994,4.549313,3.4190118,-2.0994828,0.4718167,-1.9949026,1.1645502,-2.162244,1.6979393,-4.179986,3.401795,14.585815,3.3899448,3.3474758,5.223761,14.765901,2.987603,1.5240407,-0.23009227,5.3353057,2.198185,-5.7184024,1.142266,0.029988261,1.3650069,4.0540466,1.4419905,-7.3197613,0.8182089,0.44877565
50.jpg,18.257914,6.83263,7.6770263,14.419052,-0.7855149,18.919996,0.678738,4.9092693,14.924118,7.5331516,14.692519,12.747299,9.4370365,13.864742,32.078716,5.972979,7.7855506,2.864424,0.42205667,1.2565958,10.778954,7.641113,-4.0964713,1.9576781,2.6463497,4.069028,9.790654,3.4678545,0.60656613,5.111703,5.20257,2.796428,7.800141,-0.17974693,0.032610074,-1.8295635,-0.9116929,1.9832306,5.071563,-3.2713625,3.580087,2.7853138,-2.7993639,-1.9956943,5.6591907,4.6034336,3.669919,1.3246555,8.981336,6.892538,3.7016246,8.17577,3.1721034,3.6269321,0.57535243,4.8727508,2.6684473,1.0505644,1.7507576,5.3247285,2.5746877,-0.7475369,3.2373168,-0.11586426,0.16645305,4.7713633
51.jpg,32.47047,3.1427627,0.96983665,1.9019567,0.48208907,13.863709,9.200654,13.654357,7.989879,11.1049385,14.130976,8.743811,6.957368,11.830864,26.663118,-3.6317315,5.5620503,6.03998,4.2506857,0.5227288,12.817827,4.6965733,4.4380827,-2.2565267,0.96734864,2.326669,12.755339,6.960609,3.1071677,4.5229096,1.4001589,6.957151,13.575559,4.777543,3.9049048,4.7683306,-2.3564348,5.074393,6.698349,2.4615364,7.166804,3.530382,-3.0278387,1.4353179,-0.9524309,5.5767,10.473384,0.97853893,8.404864,6.1521335,3.8084664,9.882478,4.5375514,-1.3125453,6.7673197,3.7951767,2.828515,-0.0056925695,-0.017194485,5.5786405,3.984513,3.0109708,6.050852,-2.0554748,2.7382982,7.3464622
52.jpg,13.042349,5.7702756,5.5521293,22.700106,2.5181606,23.627913,-3.1180553,-2.5527353,11.328604,9.890726,6.0446377,13.318475,5.722734,8.645498,37.38049,2.8487515,6.4572463,1.8400474,1.4332025,7.354882,12.968996,23.417437,18.782898,0.95185566,5.6664076,1.9566593,16.373777,7.216933,0.9811739,2.7559395,2.7297993,-2.042516,20.144579,6.1682334,0.24356851,2.9925265,-4.318424,0.27854252,2.6882372,-3.5654306,7.089547,5.978412,-1.4451178,3.0177236,1.8787884,8.151455,10.052416,6.9842114,4.3017716,4.792011,1.6270329,6.435261,3.618139,1.3704438,-0.3574011,2.0913606,3.4965649,2.3411698,0.0611905,11.072912,5.5343513,7.41181,7.4992046,2.8470147,-2.7048972,16.639944
53.jpg,19.201418,7.520527,8.22282,4.8766127,3.2167203,13.879002,1.3578517,8.515785,7.6793447,15.5427065,10.694091,18.97457,12.2009115,3.6468346,31.035324,3.5163634,7.0103965,1.9508001,6.4963365,9.623945,15.266922,9.148123,18.516663,-1.8053198,-2.8926308,1.2630326,9.895713,2.2788506,1.2527919,6.4339423,-2.8874707,5.6401963,13.172799,6.7986465,5.0652633,3.6301725,-1.4972565,3.3545926,2.6595252,-1.50189,11.022678,5.323308,-2.174976,1.0113177,1.0255607,6.4228587,12.815733,0.30678496,8.275165,4.138484,1.4720781,1.9926028,7.7753725,3.2181575,5.532702,4.8734345,5.417493,2.4748166,-1.7440683,4.5729647,2.602728,2.6877365,12.367378,1.9642453,-0.18937075,11.703062
54.jpg,19.40688,-2.3045092,-6.534627,-6.7486935,8.683892,7.4855394,9.417266,19.647114,-5.4914556,11.138457,13.537051,23.926956,16.023994,5.315121,25.529697,-1.0783503,-2.3150551,2.2663522,2.6716373,8.179746,6.8658986,4.6979423,10.378159,4.9511395,8.941958,1.9740865,9.017332,0.7453722,1.681348,-7.6024303,7.6764493,8.590271,11.149109,1.8952502,8.271542,-0.38115066,-2.8885942,1.6990575,7.008003,-1.8029045,6.240604,-2.097302,6.426075,0.32108143,-0.39984632,-1.1739801,14.469448,-2.5445752,9.38197,4.0216765,-5.091512,9.084253,3.2227464,-1.6055253,1.0837013,3.6433048,0.028792582,-2.080642,3.575161,7.0458336,0.29260182,-1.7968942,2.4397259,-3.9385192,2.3565762,6.0098352
55.jpg,12.933781,4.5119085,2.554957,11.532788,6.9171786,15.24596,11.935428,9.088586,9.703132,14.898374,6.4133024,8.933181,12.532118,3.3176255,27.666933,3.323063,1.6010724,6.7237506,0.21032919,1.8842168,6.4416437,7.1009254,-1.0175997,0.70415133,7.130012,-0.19245315,-1.0341905,2.9303188,5.745373,4.2037854,0.6822137,1.9282343,12.427566,7.81886,1.8780651,2.6297028,-9.803751,1.6350812,8.397895,-3.7179492,12.979804,12.805739,-0.29324394,3.935557,26.684958,3.6921933,6.535202,3.266634,3.4103448,3.117868,0.4581401,8.46134,6.8271966,-4.3387957,-0.69017875,4.2804174,0.52084655,-1.1440151,10.80226,13.791958,4.83004,2.551585,0.1511171,1.6327477,-1.0054648,5.548358
56.jpg,38.78853,-2.302728,-8.369205,0.52074325,4.5084968,14.093715,2.071284,14.081483,-4.625417,11.7324,15.529993,9.579725,7.884306,7.878281,27.981823,-6.6289144,7.828499,5.4885845,2.0713315,2.08708,5.114694,4.793001,2.004975,2.7492976,5.600974,2.4629183,8.2067995,6.615412,2.6400537,-2.0329528,5.7164197,3.0274105,12.950333,2.267572,2.3028557,-0.66423553,-1.620789,2.7077448,7.0901723,-2.0679874,8.385735,2.740687,0.6384127,2.952633,-1.5654471,0.8470921,12.095388,-1.4662919,7.5848565,6.8469243,0.34460986,8.681235,5.1500316,-2.6241913,3.4711838,3.300858,2.3330352,-3.4108877,1.4881485,4.4601483,1.7518123,-0.54433644,4.6206555,0.06813826,4.3153057,4.441619
57.jpg,23.983341,3.6970298,-4.4519897,0.028558262,10.554047,4.427405,13.43703,13.313919,-1.3619242,5.1612654,11.549471,14.347807,11.34656,13.86441,15.166587,-4.1584363,3.2379336,8.405616,4.6538787,3.9170303,5.605729,6.160315,4.580346,5.307996,11.603244,3.6111724,7.0298657,3.0006058,5.901826,-6.613922,11.69383,2.6634724,4.271241,3.647032,2.9311354,2.8215024,-3.2165282,-1.13808,10.969925,1.2646725,8.924373,-2.3183947,4.2022614,3.0290496,-1.8855,-3.1146154,6.38548,-3.114556,6.73579,9.186617,2.6943376,12.14988,6.47911,-2.712312,1.8360218,6.6379967,2.845854,-1.3976628,-0.8408757,5.9350944,1.685185,-1.6071905,4.5173383,-2.4326422,6.9410176,2.6382496
58.jpg,12.138401,5.9415827,-4.7751913,-2.8877778,12.4196005,1.225283,14.126398,17.76501,-0.54101634,6.959305,12.92061,36.65382,8.53143,4.077827,23.573576,0.8734498,1.5327804,5.568801,2.4346535,6.3882017,2.2413917,2.7729917,8.73385,7.0890517,7.864461,4.655968,3.0898666,3.507934,1.8161055,-3.2569923,8.595393,9.180973,7.1295023,4.2669444,8.3160305,1.5833768,-2.9176798,1.0910352,11.730626,-3.4826956,6.7592077,-0.7509594,3.8941677,1.3709968,7.9368024,-4.221765,12.143549,-1.6006877,5.5027604,6.8181953,-0.60342616,11.636025,4.5184374,2.4098248,-3.06251,4.238948,-0.9209821,-1.8507097,2.2729073,8.701791,-0.115257874,-3.0697286,-0.5433275,-5.7871523,1.5445154,3.061695
59.jpg,16.071985,6.0099697,-6.340277,1.134337,13.486778,7.1936107,8.548058,16.395864,-3.680104,11.694321,10.704288,26.104794,11.210807,1.0393647,22.804237,-1.2477312,-1.693869,7.1614256,1.417907,12.172976,2.1307218,2.3933697,6.2443147,10.653043,10.1778755,3.0817509,10.003465,2.523775,2.2822196,-6.5243406,7.6259246,5.570085,9.203074,6.838314,8.468586,-0.36504155,-3.6170251,1.0730857,7.285606,-1.4207904,3.918443,-3.2719254,1.5473894,0.9325655,1.5770296,-0.1971297,10.023424,-1.5257702,9.170048,4.5967484,-0.8066129,9.862373,5.562441,-2.1784678,-0.21388996,4.059807,0.22947073,-0.431819,3.3470862,8.653152,-0.3864809,-2.6493447,3.6489289,-1.9849609,5.493853,3.6620133
60.jpg,21.886206,3.881448,-0.36102888,-6.811145,15.242033,9.950061,6.758713,14.864558,-5.0311985,9.09364,9.942669,21.554869,15.003051,4.64864,24.550606,-3.7570105,1.7694135,4.2022095,1.9134328,11.511602,3.9636645,3.4202154,7.910466,0.9136576,11.362705,1.7872036,14.598696,2.7487993,1.5917401,-4.658654,13.578245,5.8896637,6.014781,2.556032,6.1023073,1.010462,-1.6629103,3.6237977,11.04279,0.026166951,5.1844134,-2.640819,7.3978043,-0.38513473,1.0398374,-0.19869404,8.699654,-3.322074,8.084508,2.5813632,-3.1936173,8.56084,7.0813127,-5.0128026,-1.6662498,6.561277,-0.67114997,-4.5041776,-0.6672452,6.8234367,1.189066,-4.027206,1.2638962,-2.9278018,4.404973,3.7172608
61.jpg,23.035246,3.3659964,-0.032644533,-2.3618805,8.844677,4.2642865,11.8918705,14.422974,-1.409315,10.078187,11.45934,25.245714,13.12303,14.429339,21.184746,-1.7394719,0.34861788,3.5254245,-0.7011002,3.6572874,3.2373722,3.7260916,10.456026,16.153904,7.5809293,2.9648595,8.8396435,3.7657626,1.7011892,-5.150487,3.7676785,3.9316812,7.055193,1.0742558,8.286143,4.9878826,-1.9907281,0.98677015,8.685895,-2.9626434,3.2112076,-3.3053443,-1.3543841,0.111802995,-2.5831113,-0.8621762,12.999199,-4.242644,6.46681,6.430001,-3.0588298,12.039452,2.7428184,0.86052996,1.4337277,2.2122009,-0.7678732,-3.7979007,1.9264228,7.4565477,1.1500368,-2.094477,4.9844956,-1.2781184,1.716692,2.844925
62.jpg,16.42311,3.298837,0.082675554,-9.487275,9.48004,8.207606,7.8147955,16.332073,-3.708352,7.8907185,12.703757,19.74753,14.060336,9.921096,24.833471,-0.0073193572,-1.3832729,7.618811,6.4668922,5.1765404,1.8127242,4.4640026,8.35595,3.4562294,7.2755485,0.15736474,10.192032,2.650488,2.017094,-4.034178,3.615843,5.922422,6.051541,1.6338508,5.2260904,3.9536753,-2.5716052,2.1190372,11.902739,-3.946709,7.496845,-1.9410295,1.1854144,2.483892,0.355222,-3.0443468,11.409921,-1.6733799,9.285816,5.138808,-1.4252985,10.829406,4.6468887,0.80338454,-0.5091531,6.508639,0.8550243,-2.4839382,0.13779756,8.205403,1.8848939,-0.742725,3.394492,-2.8277707,2.2437553,2.7333894
63.jpg,22.917164,0.33219206,-4.699049,-3.1788998,5.6189117,10.958411,8.593704,21.613522,-5.6207175,9.143215,17.020113,21.803844,15.607807,4.6473255,25.665537,-2.7467475,-0.16954313,1.6248769,4.9182897,8.441658,4.3094563,4.794456,10.315565,4.4258285,10.758444,2.1866746,10.317456,2.2526708,2.3352687,-6.709565,6.2919183,6.840678,9.827915,2.1765678,6.199912,-0.7625058,-2.3588536,1.7194197,11.256823,-3.6122627,5.265505,0.47009742,0.16163675,0.43207946,1.9537297,-1.4984496,13.43721,-2.6735113,8.493174,3.9113092,-4.2912817,9.931518,4.675216,-1.0397961,1.1245492,4.096912,0.74586004,-2.584751,1.9372625,6.0711327,0.5913837,-1.8558075,3.646477,-3.838718,1.9200119,5.0344496
64.jpg,22.26287,1.471271,5.646125,1.3365386,9.054636,10.610611,10.091873,7.397085,-0.3217117,8.468567,11.069913,19.69344,11.593618,13.60195,29.138697,-8.524278,0.8633951,8.434059,2.6972375,5.3088217,12.00377,3.831542,8.944109,0.52612805,2.1674442,-0.16093096,13.311267,3.8142848,1.4682659,1.5810206,-1.3594081,6.072151,13.200227,5.054194,6.1730533,3.6997788,-3.8006473,3.0960636,2.0813613,-0.8232328,7.7713413,-1.3381822,-2.8924518,2.0892377,8.306313,2.4510405,9.416748,-4.151357,5.4945493,3.0919018,-4.231779,6.64085,3.571181,-0.43301407,-0.35066065,5.842118,-0.5672632,-3.2794185,2.0728986,5.120399,-0.46210656,-0.9522536,4.717605,-1.7602123,-0.12257774,8.224175
65.jpg,21.630352,2.7279031,-1.942372,-3.1646821,14.17378,8.518053,7.63914,17.801813,-4.314065,10.71854,12.361852,24.091635,14.8975,1.2696271,25.352308,-4.254998,1.0852238,3.884009,-1.6728101,9.838761,5.80518,1.365045,4.1740446,17.41095,8.73013,4.989737,7.543104,-1.1929464,2.5416496,-4.7742095,9.583838,3.3727012,9.758887,6.703887,9.03875,-1.8985461,-0.9320234,0.5744421,10.167055,1.2473141,5.7241907,-6.187243,1.5893575,1.8672351,-2.2750216,-0.3398288,12.043206,-2.4646635,7.4195914,3.9774485,-3.8879826,10.880049,4.7087936,-0.85736465,0.063605696,5.572389,-0.9710404,-0.73389655,0.6875331,8.3701315,-1.1793933,-2.5198798,4.00415,-4.985536,2.4817395,4.740463
66.jpg,14.052364,3.4562297,-3.1899943,-5.6141768,8.391623,4.0436263,11.186561,16.404009,-1.1935164,9.075584,14.6689205,27.481127,5.702787,3.6741025,25.871563,1.5386006,-3.070103,1.7038194,1.597624,11.7446165,4.4468274,3.5720422,12.139492,0.5267886,7.851167,3.3392549,11.084504,-2.3561077,4.770708,-4.017872,10.451319,7.0628524,9.868737,6.519918,8.848591,1.5048947,-1.4210293,-0.9517896,11.273398,0.7594428,7.5469007,-1.9485705,-0.98966575,-0.25802782,6.114222,-1.2075529,12.858601,-2.506107,8.245252,5.5273347,-1.350589,9.780968,5.210925,0.39648676,-3.0344157,6.528266,-1.2543477,-0.5047063,0.6543463,7.842075,0.0043533742,-3.4661531,2.0153422,-5.523551,3.274694,4.33416
67.jpg,20.06484,-1.3221705,2.175364,-8.948989,7.3707633,-0.39181873,12.892602,25.770733,-2.462364,1.0168535,16.242535,25.890278,14.85409,14.250999,21.3153,2.0676227,-1.5459139,3.7664015,5.1498547,4.6796374,3.295416,2.1112244,10.5684185,5.603788,9.956611,4.8822894,6.1641693,-0.5203129,1.8055419,-5.1145415,4.198083,9.373456,4.524358,2.8375325,7.2811475,3.926766,-1.1281381,4.11821,16.245403,1.5283538,5.7423058,-5.6201334,0.47435647,2.0463877,-1.2671564,-2.694874,13.507345,-0.5279938,5.7681227,5.148709,-4.7559557,9.404214,4.670267,3.1129136,0.43396467,5.612994,-1.9168757,-2.0561097,-0.5213201,5.944992,0.77716196,-1.7720921,2.1291032,-5.3215995,-0.073906966,3.1241643
68.jpg,17.011482,3.227275,3.658453,-5.649443,10.105482,1.3302375,12.297253,14.513838,1.4290446,9.026948,16.544003,20.163923,11.10243,13.936906,17.238432,-4.9727,-0.27038696,7.7653646,5.0734057,1.6521554,4.366918,6.1381035,0.06786817,3.7501402,8.021676,1.504679,6.89981,3.1156242,3.5162165,-1.9398023,4.866677,7.470122,4.2032423,3.6773286,6.818611,2.8708224,-4.532989,3.831484,12.773448,-2.5937681,9.380769,-1.6381347,0.080656074,1.4239511,-1.5341319,-0.5981991,10.394322,-3.405775,6.628409,8.548911,-1.8876303,12.908748,5.6546407,1.8973966,-0.8019249,6.5738096,0.20334841,-3.3341348,-1.3771698,8.624271,2.3504817,-0.74883676,0.35626897,-3.7847786,2.4870794,2.406248
69.jpg,20.729729,-0.28200853,-3.646583,-3.7875402,11.393682,5.020319,12.450025,16.335064,-0.20103082,10.051569,10.9524355,25.512451,12.199349,2.9435172,21.589487,-2.7765303,-0.108408645,5.794635,0.9284718,8.360044,3.1922824,0.4639742,6.2386127,5.173307,12.086991,4.3800297,9.262169,-0.29276156,1.622742,-5.0591154,9.554653,7.4830046,8.51772,3.105481,7.498014,0.7440832,-1.8652334,0.172209,10.264058,0.66631055,5.2506795,-4.205391,4.5602055,0.6485419,-2.0760279,-4.006839,13.882406,-1.7720867,7.850467,5.2337756,-3.2594368,14.362753,4.5982027,-0.15138341,-1.7746732,4.037927,-1.2799511,-1.6487899,0.038555637,8.345259,0.885823,-3.6984277,2.1470459,-3.3851624,2.6973045,2.3712645
70.jpg,22.210455,3.5766284,-5.281411,-6.1866684,9.100517,5.639943,12.267305,18.420687,-5.893379,6.929746,13.795299,19.363329,12.160865,14.323479,16.538351,-1.4463874,-1.4475638,7.585082,4.8169203,3.0035558,1.7171277,1.4498482,6.231595,4.8706684,12.994371,3.2110243,3.1933866,1.6099654,3.8211696,-7.6435,9.8599415,6.532252,5.4943886,4.132358,4.973804,3.8529541,1.887654,1.0724459,13.134728,-0.050453026,4.4482155,-5.9714904,-0.89072025,-0.106839925,-5.169705,-3.4845796,14.635284,-3.9016976,5.59896,6.214386,-2.2030644,9.819039,7.1771197,1.6380476,0.1993318,3.6994014,-1.9310408,-2.7385306,0.67646515,7.2999506,3.919173,-3.1424646,1.0318485,-3.4291234,2.9731102,3.3497765
71.jpg,17.86464,1.2214017,-3.4161806,2.2482705,5.1471906,3.874207,16.184278,9.866185,6.352999,12.417417,6.5173736,14.233063,9.924877,19.859884,24.394787,0.45247376,4.504188,1.7220434,-0.10582004,3.9038692,2.07467,4.432507,3.548342,19.282904,12.460536,7.143338,11.579651,2.1570091,2.4567294,-0.29260972,10.146437,3.51887,2.9209337,0.41718882,3.5604649,9.41712,2.2297897,2.2081478,6.5162754,-1.7400267,1.2875781,-0.016919628,-0.51944274,0.66447544,-0.5243563,-0.29645273,9.028469,-0.30031055,6.1387963,7.3236904,2.3654554,18.281485,4.9751854,-1.0902786,2.2961533,4.298647,1.4064974,-0.8063253,5.1314974,6.423611,3.9450352,-3.069655,8.3865,-0.5566178,5.2978144,0.3794589
72.jpg,16.466455,6.442997,-1.3608906,0.23842844,9.3364935,4.865952,17.41507,17.751005,5.252542,13.528366,13.279764,18.486351,8.902439,22.22395,21.856325,1.7261312,3.4966812,6.330469,1.5789468,3.102535,-0.6052249,0.9037683,1.9357446,27.002705,10.146236,7.6859818,6.491825,6.0173416,3.3545032,1.1636132,6.451587,3.2351618,3.4651146,-0.20038262,4.632214,10.282341,-0.7964937,2.931094,9.78343,1.0421977,0.7269594,-5.020432,-5.1131086,0.14307517,-4.354105,1.6262534,10.2967,1.4101813,6.1497555,9.855577,3.081556,15.225406,2.821996,-0.85533595,3.8166852,5.5510325,2.8357966,-0.5432387,4.2303705,6.794934,0.9186344,-0.7367058,8.180266,-2.0094607,2.4020178,-0.4464658
73.jpg,9.021944,5.270405,0.6363474,5.9915195,7.431102,14.519138,10.125686,10.036706,3.4337142,12.521074,7.123004,19.198313,10.071146,13.614516,25.817001,3.5915542,0.2633661,6.3424377,-0.47926348,7.856311,2.2863755,7.6812687,2.9408176,25.022802,7.7966995,1.9491781,14.277607,0.39815316,0.9695977,-0.18158211,10.019585,5.6193,8.726902,-0.901508,4.633825,4.291294,-2.6910422,-0.5121288,8.517163,0.21097586,1.41787,-2.18197,0.13444535,3.9941792,-2.322963,-2.0118947,8.696714,-3.5727243,7.75726,7.665826,-0.7314584,15.556972,-1.678349,-4.494404,0.75074434,6.442345,1.1606308,-2.2365186,4.510102,7.8936634,3.0695632,-3.42049,5.9905033,-3.10283,1.8327183,4.7699986
74.jpg,13.547906,6.710139,-2.9160757,1.3961225,7.91513,10.527696,0.62718195,17.361067,2.4822333,11.292772,7.8925653,31.706,8.089405,3.370577,20.047293,3.9996278,8.292928,7.2628884,4.506595,9.453629,0.35537305,0.6736029,-4.715262,11.0875,17.31034,3.32463,-1.2011999,1.9100521,2.7586381,2.2649107,14.942958,7.177597,10.9680605,6.414896,7.6465273,-0.3184369,4.1059723,6.639715,12.289806,-0.1315806,6.079143,2.5180478,1.9468497,1.5367352,18.607525,1.737939,13.7606735,5.775917,6.680971,8.470376,0.7539758,9.1962805,9.073951,1.7127938,-2.0324643,3.485944,1.3699391,-1.1488212,7.55642,8.527009,0.5338449,-1.5421141,0.8971924,-3.6821737,3.1830869,4.6865945
75.jpg,19.89461,5.597427,1.6111974,-4.909116,8.468916,8.689187,10.05005,15.451683,-5.0957804,7.633561,12.311575,26.645416,13.439319,18.05777,27.393663,-0.24634008,-1.4311616,11.399984,4.599308,6.9460683,2.0773942,8.249071,10.819185,5.09589,5.3102074,-1.0157276,12.914373,10.262735,1.5474974,-1.5577842,3.1600778,5.3160768,5.233436,-0.16866338,7.4814296,6.607932,-1.516874,4.29354,8.8539095,-0.9494308,6.0285597,0.07551948,1.5634142,3.8477197,5.6402225,-0.46118572,8.866957,-5.1347904,8.286427,6.713535,-2.2424393,8.74121,3.1428084,0.87716335,1.3192797,7.9237757,2.6765692,-1.817403,0.8956841,8.530282,3.3178535,-0.100108586,4.996995,-0.44104698,2.0442443,3.2182183
76.jpg,22.857609,8.813128,0.8033171,4.6558514,7.1520796,14.812472,-0.25529638,9.70529,-1.3797301,11.216877,10.3750925,26.407274,10.231684,14.157211,28.983683,-1.7068038,5.4550343,9.806908,7.4677587,7.396984,4.0496764,4.562496,7.858282,9.85019,3.8720317,-1.6634113,14.545539,10.184561,2.3954601,-0.8380782,4.4075193,1.4310213,6.383443,-3.1842198,5.253398,5.2229495,0.99334943,6.751402,7.008963,-4.4689603,6.5014744,4.574969,2.3039663,3.131552,6.071552,-1.0342194,6.989502,-3.9162927,9.386365,9.161564,1.0936501,7.34014,2.3314667,1.2606716,1.0819741,2.9783473,4.000295,-5.085144,5.186131,7.7949977,5.9717555,-3.1761765,4.524167,0.7384563,4.060579,4.2501316
77.jpg,18.018745,6.0788674,-0.103364326,1.0053372,5.6218476,6.4098654,8.954848,21.129848,7.0428157,8.743229,14.072472,15.94799,10.4091425,7.9570613,23.913774,5.011236,2.2884686,4.927597,2.1256123,5.001995,2.3572605,2.0816445,4.2844315,31.94988,5.4007354,4.0598583,4.887122,2.990558,6.078665,2.4891763,8.901723,2.6846535,5.189858,1.9923438,4.752158,5.1000757,-3.7397175,2.039586,12.815547,0.2723341,3.8168051,-2.4512005,0.46376678,-0.12126749,-4.2435946,-1.2982854,6.367654,-2.1737907,9.4949665,4.45569,0.9266873,11.924421,2.7990096,-2.8972104,3.5370924,4.070128,0.40416393,-2.2671766,3.6160145,4.0614343,1.3217463,-4.1379085,6.942176,-2.713359,6.475192,2.8906384
78.jpg,19.878088,4.8449874,6.0408826,8.687205,7.4226923,11.837312,5.416951,10.669167,5.5056725,4.8780956,15.830338,17.733757,11.646083,15.622107,25.535011,0.031682476,1.2534225,8.860154,7.1973248,-0.6782512,5.500259,7.3111086,9.166822,0.5505925,3.718265,3.245573,17.240372,4.6103935,1.5758058,0.22645515,4.9237814,2.7151883,10.183166,0.4779289,4.3463173,4.920945,-4.140737,0.48433244,9.144499,-1.8162459,6.610401,-0.12911977,-1.1025474,5.2025805,-0.9088392,5.591734,6.0133705,-3.984522,10.19847,6.848542,-2.8347428,8.483398,3.4260676,-3.397144,0.96728057,6.531407,3.0023332,-3.986203,-1.2573957,7.5013084,5.413749,0.91045487,7.2180786,-0.35426748,3.177905,7.502708
79.jpg,23.50838,-1.7779132,-3.183392,5.091767,3.414207,11.692407,10.053868,16.404274,5.585847,11.765892,15.739271,15.20439,5.715492,3.4775753,25.61051,4.5362806,2.7385325,5.3252077,1.0923498,7.505222,4.7925143,1.7610056,2.7259498,30.587366,6.682881,1.6955366,5.52512,5.7829,5.8164096,1.9565895,3.8770604,8.277822,10.595827,3.4459274,5.776868,2.8511662,-3.7848864,3.7897377,6.0606046,-1.7373095,4.768288,-2.9890656,-1.3368468,-0.019753702,-5.457294,-1.7494638,9.597493,1.4655439,10.631651,6.0054207,-0.62195146,11.777921,3.8738222,-2.340677,3.0925581,3.3338957,2.0718205,-2.1660528,0.7223845,9.136913,1.5569178,-0.032512914,4.912379,-3.967107,3.2624018,3.708862
80.jpg,5.843525,7.0130796,7.1705527,4.545177,5.8391104,12.39406,13.888338,12.84437,6.6502733,12.608788,9.659925,28.560167,7.495855,4.4976482,28.836472,-2.5436492,3.153174,7.607098,-0.24547549,7.2804594,0.10905168,0.25493336,1.3184689,20.35199,4.5947194,-0.55547047,0.30908567,0.686465,6.4420357,4.1730375,5.3856244,7.792639,7.911669,4.99921,4.806407,-0.3130925,-3.5384233,1.9581519,6.002324,-3.4036193,4.597772,3.0502613,-2.1133776,1.2045698,0.90076363,-0.13517588,8.503776,0.27809405,8.288349,6.8888674,7.162637,8.335756,1.6248431,0.44678465,0.7174065,4.3393483,1.3803931,-2.4242082,2.6403022,5.8348746,2.2708688,-1.5644587,3.3117645,-2.155711,5.001642,4.381658
81.jpg,14.980672,2.0140867,-6.104482,-3.4978054,8.261568,12.790529,12.643631,18.990532,-8.586917,15.220322,11.715445,28.881222,12.524353,11.586006,29.941563,6.8558493,2.0858724,3.9463916,1.5900452,8.633516,1.9926057,1.3318609,11.850788,13.089312,8.996423,0.89159256,9.800414,4.086294,0.8291597,-3.9311013,9.041111,10.024369,7.9814434,0.83092684,6.3589454,7.3195615,-0.6525121,6.0774484,8.671524,-1.4880394,0.87958306,0.8531481,5.365596,1.2705264,2.327713,-3.6168954,9.744445,0.28919187,8.389322,5.7777653,-2.7117777,10.490181,3.4574978,2.3429701,2.0025704,5.9106045,0.03486187,-0.6313683,5.602312,4.5593843,2.6681087,-4.727705,5.473327,-2.7191677,3.6288738,4.055841
82.jpg,24.385538,-1.9158,-1.1412082,-6.13275,8.867115,4.062563,12.6962,27.590305,-4.510738,10.811186,14.959229,20.769812,13.37512,5.3226857,16.8269,4.2555356,1.7029991,6.738279,1.1248268,3.4241698,1.2905235,2.002012,7.9143343,9.054129,13.808534,3.1269982,8.9136305,2.977029,1.7566651,-8.637399,6.429353,8.442182,7.56504,3.2983382,9.486911,0.9136318,0.5955948,5.584945,16.047234,1.5373993,2.925192,-3.7271063,-0.20042038,1.3007034,-2.2025852,-4.5533495,16.409111,-0.47772732,7.8967495,5.0994,-5.2063456,11.97012,6.5511713,2.4793127,2.9539502,5.408637,-1.8572029,-0.36445782,2.0495887,6.5440917,-0.74397063,-1.2420441,5.366551,-4.0751295,3.2913644,4.557683
83.jpg,20.573437,1.0515907,-7.3797965,-3.811399,13.396762,11.407555,11.700533,15.215338,-6.5789013,11.49738,11.52473,21.151695,15.975836,13.701591,23.76548,-0.038304552,-1.3417366,5.4197526,9.675949,8.857414,5.3232446,3.6629791,9.372587,3.8192081,11.40691,2.7649202,4.782327,1.6881361,3.966935,-7.1380963,11.758506,9.017667,6.814748,1.507977,6.954524,6.694713,0.08398895,3.7268975,8.014447,0.31917366,4.911037,3.0464425,4.743756,3.8258524,-0.4867169,-5.49949,12.57863,-5.111908,8.669524,4.8369837,-1.9273176,11.418903,4.1457334,1.0127171,0.9343,6.5115767,1.0571554,0.6793247,2.118952,5.509244,5.679964,-3.5793092,4.8597465,-3.168781,3.5404232,2.6043575
84.jpg,23.02684,1.9070069,-2.015156,-5.8954606,10.431979,7.3436856,3.9635143,19.78677,-3.0310721,6.6526623,11.456494,32.645313,11.475932,0.6998887,21.802109,-0.41610608,4.39505,4.361627,-0.86870956,10.107298,1.5818231,-1.0068973,3.6456048,5.374446,11.832298,2.922156,4.6755943,1.2075492,4.402279,-1.129191,17.07715,4.519741,5.0983715,2.2418957,6.3827457,-2.582452,3.0777352,5.076542,13.418792,3.2861023,5.4938636,-3.855725,3.601234,0.323099,0.2060121,-3.143701,11.794939,-2.4087162,5.840426,6.1329837,-3.8317482,8.943691,5.4474926,0.0826674,-0.33651856,4.388931,1.0482194,-0.68294483,0.028126128,6.3277283,0.24190955,-4.223417,-0.1411633,-5.235804,4.7405896,2.892148
85.jpg,11.208349,2.0810387,9.269105,29.291239,-0.40804628,0.84317195,14.278833,15.759398,38.34243,1.1286225,9.81733,30.84453,5.5488167,12.348166,16.120321,18.454586,-2.6872468,3.0106874,3.4044049,3.3485599,-0.6261984,0.25497377,-1.1569967,9.007052,5.2440557,8.673579,6.4446754,3.3552997,-3.3504934,6.1586356,2.4880795,2.248446,5.670453,-1.1278752,3.7216277,3.9852567,-3.5269532,2.1602955,5.508943,3.175629,1.1099315,1.34655,-1.0760156,-0.26045138,5.837382,-4.0687275,5.467479,12.681013,7.0327578,3.464879,1.7965264,17.719744,-2.563677,6.0417595,0.064964265,2.503301,1.1396325,-2.0412352,-0.02669096,1.2333344,0.28404793,6.6424346,5.7193236,-4.3408866,-0.3241844,-0.35373867
86.jpg,8.519829,8.20306,0.31350517,22.3192,8.733154,4.3063154,17.82892,2.4313455,22.8216,2.8871558,4.406954,29.571098,6.397599,12.724087,11.437259,0.10863216,-0.2666446,8.624712,0.3236683,2.3123047,0.02101101,7.9119625,-0.74983597,9.51467,9.93918,1.7782297,4.674181,3.5663903,8.923398,5.3911247,6.3549323,7.867168,4.525508,5.846743,-0.5384842,6.120878,-1.9191148,0.7334805,7.1001453,-4.8264613,7.614189,3.3690848,-1.363123,3.507461,5.0783095,-2.2938993,5.282222,-0.22818707,5.6349406,6.746565,10.231142,13.595141,3.2507784,1.2691425,0.80138516,6.017974,1.2860944,-2.1806543,2.1982486,4.4166484,3.4885879,4.575426,1.1616415,-3.5164862,-0.11604931,-0.07408834
87.jpg,12.098158,4.5160694,2.8264167,20.800423,8.811789,11.122838,12.92075,8.945847,28.733366,2.6911516,6.8152575,18.063726,7.3603063,2.4694755,15.430647,1.82302,2.1038387,9.18957,3.2429032,1.203313,-1.7349571,9.992386,-1.3251969,10.114119,9.675344,1.7216196,10.514302,5.509614,7.241984,11.037453,9.500727,4.275213,0.4370247,0.45257318,0.74537694,1.159373,-3.7380521,5.9275103,6.519193,2.0770316,6.340975,-2.962596,4.004763,4.037262,-1.6971406,-4.3172636,1.2171751,5.087439,5.9817195,6.6668453,7.8399053,10.992272,1.7133664,0.3633999,-0.46241862,6.7830167,2.2665288,-1.4256338,0.8411089,7.097733,4.420703,5.211148,1.8764837,-6.596663,4.8451343,2.5247748
88.jpg,18.113646,-0.30814856,-3.296835,5.422965,1.2066387,8.469106,8.774053,14.999313,1.2050718,9.465038,12.338901,22.418255,1.6010079,14.72755,33.21517,-1.082474,2.238375,3.4000237,0.74327534,3.1308298,0.7097094,0.7756872,5.4707737,16.686314,3.6329622,1.3410228,9.326781,-1.4120835,5.4832907,-0.4751279,4.051877,5.2996817,9.486943,0.90501904,2.2844324,5.219309,-2.3045082,1.8266745,1.3013506,-1.1194015,4.059445,1.1726245,-2.337785,-0.3018199,1.3004092,1.8801044,7.218423,-4.1892023,3.1559036,5.2276216,-1.5520858,11.473831,2.2545357,-2.776397,2.242259,3.7393112,2.5560908,-4.7560344,2.079268,0.2238173,2.5070574,-3.882239,8.941361,-0.6836779,3.274374,2.961298
89.jpg,7.973287,-2.4203382,13.371489,4.895383,22.978577,-2.4843192,13.815151,9.422606,9.643894,11.876142,-1.0108548,13.933164,31.348354,5.2681007,4.835063,4.8818064,-2.6217184,0.67569005,-2.2053955,-0.68446517,4.387412,9.054843,0.7822689,6.6571875,13.427827,-1.415829,7.058986,2.5553036,-2.536767,-1.9619979,6.5385394,6.4048095,-4.792163,4.45356,0.039893318,5.8243666,-3.4638093,-2.0522437,6.2618604,-4.7891736,-0.15498531,-4.9937534,1.5631703,0.9400103,-2.0584128,-4.675864,5.6658225,6.265206,6.6519,2.11056,-2.1930263,8.655281,1.5039704,2.4489882,3.1094165,2.2103734,-1.6707354,1.7817553,3.6197453,2.0295918,1.089066,13.380348,4.9069843,-5.1616607,-2.6590164,-0.7862177
90.jpg,23.684341,-2.346126,-4.350999,1.0375626,-1.2033734,4.617246,13.492282,27.121613,2.64294,6.494485,15.913679,20.06569,8.235041,22.143717,26.296711,8.884413,3.28006,0.50752926,-0.8625115,8.990659,1.1677539,3.3158503,7.1798534,5.6599402,11.1252165,3.6453016,7.4504933,1.187633,1.9931157,-1.8197348,11.469901,8.521612,17.032522,9.259985,3.3730989,4.0029526,7.2769976,-0.29785383,10.96989,-1.9353213,2.8992748,-1.7326944,-1.8353101,1.5364536,-2.4338715,-3.3923016,17.464529,-0.8140072,5.5880547,6.9421835,-1.4078798,6.8414154,9.090738,-1.349451,4.9151177,6.223202,-3.3627574,0.69055855,-0.7763599,7.9653106,1.3379674,-4.169377,6.437312,-2.0633407,-1.6402767,5.653341
91.jpg,17.525433,8.299401,0.607916,3.247659,8.677479,-0.7601261,16.47266,14.1598835,0.041098148,11.6715765,15.709284,24.307728,7.790841,29.508669,18.605415,3.3548572,-8.463627,6.231811,1.2638963,-0.6563435,4.1809216,1.8828995,5.2283874,7.067827,8.187531,-0.7042991,4.930143,0.08383849,5.1699758,-0.2856198,9.580888,8.192052,7.9628096,9.147049,4.948653,9.791478,7.8041735,0.3223058,5.496334,-0.60687864,9.668097,2.047034,1.6234839,3.1534567,4.0095387,3.3596847,9.335883,-4.7457004,3.4749367,2.2047672,-0.053941786,6.7144527,4.276801,-2.5385349,1.0506428,9.25176,0.21352383,1.4053292,6.643705,8.428081,4.191746,-1.158047,1.9155744,2.4255023,2.6317234,5.195482
92.jpg,10.482688,6.4441957,-7.827216,-3.706867,10.982969,5.6428485,20.18988,16.431404,-5.8975434,9.723731,13.199122,28.286144,10.3922205,20.274788,14.572869,3.1041126,-5.9569798,5.3680563,10.105391,5.863538,4.1971827,-0.7803833,8.1163645,3.912937,11.61989,1.7064925,-1.0200324,-0.12725335,1.2602533,-5.919642,8.59782,8.671365,8.853571,8.222235,3.7034883,4.8037863,1.4067173,4.2778044,9.563969,1.2631874,4.353838,0.8552107,-1.732463,0.39791223,-2.0564566,-3.2445452,10.361137,-2.6368434,6.153688,2.778146,-1.1101167,8.341812,6.836875,1.0107683,-0.030859886,5.6795125,0.70579344,0.9774172,0.7106309,6.182266,3.9740388,-1.3784871,2.674424,-4.0480995,2.436902,2.8523922
93.jpg,14.7198515,2.995783,-2.9643834,-0.83251476,11.282517,2.1853454,18.477894,14.254496,-0.26264936,14.409789,12.1010275,25.294188,6.2997894,26.741198,13.476933,4.419882,-4.9154897,3.535496,-1.7105199,3.7429512,2.1992788,0.40729827,8.268089,13.473593,8.134939,2.1211054,3.4510446,-0.71015686,4.892581,-3.8277347,8.863724,7.8042507,11.585398,10.612904,4.221471,5.1344714,3.7227142,-0.0005777925,3.373395,-0.7206926,5.0410013,-2.1381345,1.5100913,1.2291776,-6.246109,-1.5071554,11.189151,-4.9817095,6.018215,4.8221974,-1.2075367,6.6602325,7.073354,-1.4513453,1.8985931,7.461337,-1.4359407,-1.3398712,2.3215392,6.259158,2.0691376,-3.3979833,1.8783102,-1.5658753,2.4161675,4.3780456
94.jpg,25.554455,-0.07360214,-1.0497227,2.3698113,-3.516453,12.553408,11.842898,24.450373,2.8327842,16.940027,12.769326,26.88392,6.5859823,11.780646,25.730251,9.791921,5.868449,1.7157581,-0.92861354,13.504916,4.0385604,-0.52828175,2.1751719,15.068592,13.110152,0.43882793,-2.1685696,-0.07428732,1.1978825,2.0345125,5.249304,8.469538,21.156355,11.846782,7.998215,0.36183977,7.0666065,5.914781,6.8452864,1.3106408,10.626257,0.7991465,-0.9056459,-0.9364466,-2.965514,0.56079626,18.73315,3.4357886,10.14769,7.0310407,-3.4712098,10.647956,9.040857,0.7836438,2.1471107,5.756273,0.48866236,-1.9366215,-0.6308774,8.794926,-0.9437453,-0.75310737,5.352664,-0.23320201,-1.8895699,6.007078
95.jpg,11.761238,-2.1225355,3.0535192,-1.1256557,3.859177,3.1915336,13.397598,18.36236,2.2658944,9.981001,9.752029,24.09103,6.737831,2.3420765,22.53651,6.107337,0.06604772,3.9634883,0.03701914,10.19138,4.8778715,0.49588633,4.0516834,22.125343,6.8834043,3.1769342,7.1255274,1.9022253,3.5841875,-1.8756177,6.297836,9.797623,10.723703,8.455242,6.031596,-0.51488376,-5.5896883,2.8812325,7.254121,-2.024192,5.0685835,-2.6285725,0.7705187,0.49375778,-4.754027,-1.7884576,10.315086,1.2118936,8.225466,6.5533476,4.302589,10.1621275,5.854599,1.6255045,2.703979,5.2485046,-0.02900227,-0.71127445,2.4162877,8.772341,1.0541404,-0.29664811,2.973276,-6.3712063,4.520951,4.7211447
96.jpg,14.295345,2.6842957,-3.7738807,4.0256033,12.394119,4.6809573,9.338464,18.275496,-0.1542382,10.099728,8.917102,22.711323,10.354932,6.99634,23.355946,0.5649457,-4.8900514,4.479637,4.7257586,7.635805,6.2021904,1.6284041,8.901337,1.830939,6.0431967,0.5740239,8.243688,1.2208182,2.1983283,-5.577259,6.5594225,5.514952,9.552097,7.8258333,8.911644,1.9911988,-2.552972,0.74200904,8.056098,-5.001476,8.910378,-2.7685575,2.3407757,0.02597943,-4.154664,-1.7299775,9.951171,-3.1120358,11.358238,5.858852,-0.6410123,8.298201,5.7657375,0.20078681,-0.41338024,6.0216484,-1.5029285,-4.3322964,-2.8479826,7.77601,1.305357,1.841292,-0.6647342,-3.6510925,1.1915267,4.2944145
97.jpg,4.5316124,7.382235,5.1371903,1.9518135,14.623037,14.20487,9.389825,11.982564,2.0982413,12.28882,8.446846,25.02014,12.469698,7.8264484,22.975666,-2.0983615,-1.0301137,6.988907,-0.07746029,6.5595894,0.3019526,-2.0942483,1.4694414,24.764961,8.497833,-2.1805735,1.9170552,3.364278,5.330748,3.1680875,6.383015,4.25829,9.607749,4.5472283,7.8032722,3.573982,-1.7607682,1.4841647,5.0697217,-2.6093225,1.641042,2.9693198,0.3209306,3.009005,12.895377,7.3421535,9.797316,-2.6361728,6.6024117,6.4690037,0.8822406,12.465758,0.87582606,-4.8722706,-0.95055264,8.476814,-0.6010605,-3.2670844,12.053839,5.4024587,2.3020766,-5.7000213,3.8756554,-3.6030476,4.226082,6.3727508
98.jpg,9.623675,8.339601,-4.6342835,10.401155,16.656652,7.9187264,16.642254,11.005346,0.93723273,8.558738,7.18295,43.282234,7.077743,7.077504,25.209602,1.2057259,-3.4327567,6.7885118,1.623709,11.480206,3.6162462,1.0085748,7.7759013,6.746201,4.273868,-0.06850716,1.1406728,2.803389,4.918193,-4.8826747,6.238276,8.948868,10.123072,9.754883,7.530651,0.8190572,-5.2446084,1.4651068,4.2386637,-3.7460175,7.0647316,-1.1614087,3.7686727,1.3505697,6.144381,0.33785588,8.295064,-4.1558347,6.565538,4.610639,1.3898435,5.2794695,6.9371953,-0.3888795,-0.74767303,3.4887307,1.9065382,-2.9038184,1.8873986,6.8254905,1.2125102,0.521317,1.4035327,-2.2110033,2.2747457,4.3441453
99.jpg,14.027898,9.552283,2.2651215,2.6473727,15.012638,2.161674,14.080177,13.601019,4.398017,3.4181535,17.826513,25.535923,8.989458,10.940186,13.559453,-4.4529037,-3.0875127,7.9854517,3.1315935,2.9295278,5.551754,5.816188,5.045515,10.608881,4.528857,1.3194774,1.9748899,3.128406,4.2972555,-0.7327975,7.89787,10.919224,8.587661,6.6257267,6.3223915,1.7904736,-3.7371051,-2.2246845,5.362824,-4.855824,4.276705,-2.6657183,0.7892642,1.7190373,-5.5422554,-2.3971903,10.308639,-2.1294146,5.5979915,4.437052,-0.0154569745,9.902697,4.0502963,1.6515566,-0.5439494,4.087424,1.4731392,-1.7080588,2.197931,4.292739,0.0006538816,-0.9653277,4.8805304,-6.5250955,1.0837086,3.7325327
