image,0,1,2,3,4,5,6,7,8,9,10,11,12,13,14,15,16,17,18,19,20,21,22,23,24,25,26,27,28,29,30,31,32,33,34,35,36,37,38,39,40,41,42,43,44,45,46,47,48,49,50,51,52,53,54,55,56,57,58,59,60,61,62,63,64,65
0.jpg,19.148426,-1.9710906,17.98679,0.06544385,-1.1980671,14.692915,32.188927,15.657904,14.266798,16.970608,-3.2328658,7.253886,19.585957,9.486877,14.8273945,22.815569,5.8351073,-0.70975286,2.947374,6.3545465,7.3628163,2.7848315,3.9338522,4.1201854,11.043733,12.247345,6.142912,2.9680808,2.796222,1.6336124,1.2031684,9.795436,5.7755327,-0.09255987,-3.3967652,1.0726532,2.5085478,10.74866,7.034045,9.689696,-0.06437786,8.1022415,3.082121,2.3209224,4.035113,5.304534,17.030182,4.962197,7.661258,5.348351,-4.192485,13.12734,1.674666,3.4710736,16.215021,3.4379785,2.0656717,3.2616127,2.7607293,3.0249002,3.0674062,6.7307496,1.3313845,-1.1879233,1.4787971,2.8803506
1.jpg,5.35108,15.856923,23.41601,6.240806,14.65794,7.2353854,9.751762,12.888469,15.243379,9.275554,6.7862997,8.899154,26.309708,-1.1891487,2.2942147,8.9598465,-2.7267523,15.194626,34.14053,5.5384245,24.67869,3.7342696,4.0054474,4.1332173,1.6600136,5.9449716,-2.2555811,0.55040085,1.9943615,3.3825994,0.41605458,3.0443635,4.3508363,5.0930715,2.1457727,1.3548832,0.22317883,1.0117121,7.9368634,-0.09706726,8.060809,12.452468,2.8084788,9.002847,1.4608871,6.547883,9.056256,6.5490627,4.106292,-4.4304924,2.0736349,6.137298,-1.843112,0.7716645,5.8087907,4.43397,4.7120624,7.4312153,3.5723355,-0.5161448,0.16255769,5.6144824,4.0735326,-7.8290486,-0.521365,3.7262018
2.jpg,17.380375,7.8993177,7.72198,3.9932442,12.930756,10.912622,22.432175,19.997726,15.827878,3.6458306,9.649838,10.914212,24.57793,5.387523,12.050312,5.790068,4.155843,6.218635,4.06633,11.171341,2.0753167,1.6234789,4.6290846,2.4474096,4.8832135,1.239486,2.638684,-0.30822122,0.8021066,4.8139367,4.7291074,7.7732964,4.8894906,-3.541414,-1.4732322,4.796071,1.7232012,1.350788,5.2411923,-3.8078322,-3.6814473,3.9527476,4.207653,-0.24554162,3.4236708,-0.6434873,15.997823,10.78113,11.5244,7.376422,2.8331456,11.353436,-2.8532023,5.208279,4.524465,3.3557062,-2.1850672,-0.24161302,1.8313484,-2.533876,5.648813,3.5297778,2.473847,-4.096561,-2.5328932,-4.740169
3.jpg,35.00615,5.849978,7.671143,3.533037,1.6411312,12.172292,-4.98469,69.35334,8.287055,2.714625,15.194178,0.67941576,8.668906,4.57738,8.34423,10.131035,1.273687,7.7696166,8.220744,2.1914418,2.7293,2.576732,-4.6052866,7.0864983,-0.7629092,4.620352,2.481931,3.454725,0.95647174,2.3029068,4.1699195,3.5079007,-5.6799216,-5.1238403,14.136463,0.0007536262,-1.649631,10.24419,8.433426,1.5436472,1.5886784,-0.094468474,-1.6011201,2.1741,1.6195606,1.9853326,2.2727032,3.2890089,14.616889,4.611143,3.3714771,-0.44867536,-2.4142227,1.9540386,4.9951024,0.93935823,0.6727803,1.2026169,0.35624075,-2.7147715,5.533959,6.0371876,1.8082697,0.98020715,1.1100255,-2.7052772
4.jpg,14.562276,4.7229147,2.457549,12.697045,-3.5880501,18.355352,16.50053,19.759266,13.004884,8.04169,21.569391,28.836546,6.53269,10.69469,18.28888,45.845135,-4.788534,-1.8586026,8.238902,18.05027,-1.6721282,-0.2886544,17.6719,5.523,4.8776813,2.6487951,1.657287,-2.193269,0.81274223,1.6803416,2.8869858,11.264853,4.6769457,2.1698723,3.3548155,5.3034105,0.26806363,6.5108767,6.4721227,1.7751151,-0.9373759,-2.7157485,0.8625019,2.4523869,2.4094772,-1.2913337,12.208956,9.556897,8.530119,0.71675956,0.14208099,4.0668216,2.64257,10.416446,0.7152647,5.7576017,0.6414756,2.650143,-2.2293034,-2.1818657,1.8306177,2.7688982,0.525497,-1.8696659,0.62009543,-0.12247474
5.jpg,12.266538,8.968624,20.74627,2.3740113,37.481174,8.921273,7.2008142,24.888088,15.961205,6.964967,4.507822,2.318087,36.09014,2.77406,7.9181747,3.9273436,0.8979738,2.9116554,7.5908,8.928681,5.978992,5.9027777,2.7339659,1.6536698,6.351105,-1.5545796,3.412434,-0.64372766,1.8617905,1.5467725,4.9583206,1.7756246,4.4210653,6.7122884,1.1343166,3.310018,-1.4984896,-1.4548899,4.055868,-3.4972138,-2.174801,-0.49262038,11.172548,-0.34689748,-0.48603722,-0.19028948,6.884224,13.524988,1.2875742,-2.2990642,2.4147627,6.9724417,-1.4477714,1.0873744,0.4646903,2.0507867,-1.2181729,-1.2761165,2.2330475,-1.7386956,-2.6435695,1.036538,2.2744536,-4.249861,-0.45349517,0.3001174
6.jpg,28.232681,4.298412,14.088887,2.1727254,16.353611,7.886051,6.7934284,18.089598,10.871654,6.422023,5.0092306,3.260503,32.57631,14.706977,7.626079,6.977605,6.862217,10.85833,37.892376,6.0606456,11.8412075,6.9632955,1.716356,-0.24810815,11.685683,2.7115827,13.244902,5.289627,0.75157976,-0.2263288,5.504645,4.473629,2.8243704,4.0789237,-0.7332173,-1.3000306,0.30733112,7.6623945,9.602021,7.4787908,10.282819,-2.0461836,4.1000223,8.913989,1.2204388,4.22525,8.326918,3.9259658,4.2065253,-2.8111582,2.8267608,6.6138253,1.9880157,0.4419133,9.178722,9.917313,-1.2638183,-1.1025597,1.7022603,0.3037267,-0.67104924,2.5284767,0.9929971,-5.3504424,-0.2638542,8.685121
7.jpg,15.996305,5.396408,10.1731615,9.878835,18.467327,36.447,22.789507,20.784273,2.8213995,16.782442,5.319365,10.987713,27.285177,-3.5978093,3.1410184,3.817249,-0.38145807,0.052526407,4.116241,9.69726,8.418089,3.0278413,4.085548,13.435245,5.0087476,2.4550362,1.568347,8.041298,6.0207186,-2.8319268,1.2491071,3.6819592,3.873989,8.331437,7.3229127,-0.48139358,3.8309298,5.0219674,9.4144125,8.738928,-3.4046483,6.6674414,5.8343844,3.1435258,6.1189876,3.821959,16.414934,-1.5139564,10.358593,0.01763685,1.2301064,15.486776,4.0926805,3.2449398,15.424445,-0.22701043,-0.4744131,3.5916567,8.417645,1.6184771,10.986156,2.4289575,2.7846906,3.5864882,2.5099642,2.715219
8.jpg,20.326002,9.619826,15.595087,0.30439937,16.656086,21.078323,9.357692,18.273083,13.764127,11.682233,1.3788414,0.6278073,36.235813,-6.9798603,11.531353,0.14209594,3.8693364,3.7832062,13.028828,5.6826234,13.724077,4.9773135,10.308649,2.310069,6.3395276,-1.8750324,4.301136,5.263818,-1.0124103,2.8435302,5.6574507,-2.7177095,2.4253774,4.9805207,1.6062526,5.0145736,-1.1268104,-0.29467857,11.356141,-3.1113126,2.1764011,6.288722,3.6956556,2.3550804,2.2781725,-3.67698,11.236444,4.260007,7.1458488,-2.2904265,3.456737,15.334744,2.7476032,1.9053109,2.5635364,2.9559917,-0.43499982,-2.3731334,3.8003232,1.2008027,2.5856369,8.170398,1.6027219,-2.4471912,3.0342634,4.2024593
9.jpg,22.48551,2.0967777,22.891062,4.3229737,28.405533,26.438269,7.3686213,14.594483,1.4389257,17.984972,4.3366942,-3.4019442,42.172325,-4.523003,8.231136,-0.1218915,-0.29947078,1.8140084,3.916288,2.109402,5.834107,2.067463,1.9474964,7.0492826,4.78968,2.1491983,7.9835267,6.101182,-0.9999971,-5.97688,1.9627469,0.18338016,-0.8684453,6.408587,1.0785577,1.9314501,3.48877,6.0758276,8.122078,-0.97766036,1.2759566,0.9582246,8.502633,7.451202,2.322025,3.0828059,13.601309,-2.0515776,9.525536,-2.3230681,0.8595006,13.868138,4.000121,0.232644,20.499216,-2.9664783,-1.2068069,-0.35023952,6.9401236,1.3720131,4.717455,2.896628,2.873465,1.8971106,1.7902914,2.0079687
10.jpg,33.12309,4.2330866,2.9633875,34.13944,8.561243,22.921389,2.3036528,16.559217,9.870461,6.3892493,27.926285,12.054165,13.4315405,12.85436,0.5420965,5.243431,1.6129192,6.238865,15.500605,8.090876,10.340884,2.1214285,4.8684177,9.027965,0.837956,1.3732917,-3.4897718,20.554321,8.992382,0.012767734,2.129358,5.1029525,6.344609,-0.73938733,12.7533655,8.73646,-4.7779684,5.810028,5.7581353,0.10841572,3.401342,-0.57834095,1.9917372,22.125378,-1.3878441,1.6077228,7.5790367,1.2506429,10.883689,2.1619358,-3.9324806,5.305167,-4.6568537,7.012738,6.0697684,1.3846757,-1.7092619,-2.7666483,-1.7949655,-2.6841884,4.007867,1.0886046,6.5754495,2.797218,-0.42129523,3.866983
11.jpg,6.619819,-1.9328432,29.343304,3.4142628,34.58271,2.5549974,6.3946657,13.063969,11.090862,22.220495,-2.530539,1.1077764,45.75203,5.159311,4.086216,8.9857,0.9821292,3.0534034,23.6139,5.147698,13.037065,3.1726203,1.1498371,0.49489224,9.959814,2.5028496,1.1129824,-3.7040143,1.9987726,-0.6127652,3.962646,1.9002337,0.88074523,10.007593,2.36953,-0.5934951,5.8978143,1.6192175,2.4122097,1.5008184,3.5890448,-0.35112035,9.24293,3.3300064,-0.7243198,7.0754104,4.595468,17.345264,2.5665755,-2.2685225,-0.91806424,2.6426377,1.5369332,-1.912977,0.94379985,2.7195187,1.220866,2.5563805,-0.8671876,-0.82648927,-2.5974865,2.162795,0.5060605,0.8739764,1.1134423,4.062689
12.jpg,2.8641942,12.978477,45.335308,2.9307876,8.759544,1.9810971,14.354923,8.740982,30.750635,8.398935,-0.5302386,10.395109,10.304136,-3.837135,2.0081954,11.61182,2.5332065,-0.849917,2.1238246,8.591678,-0.35877872,-0.80670387,7.3076367,0.60450596,3.960983,1.9687437,3.108427,3.0353365,5.2709007,5.8840156,2.0361693,4.563879,-4.183188,-1.5401276,1.4078368,2.7419124,-3.0738869,4.7067537,-0.5699363,-5.6914864,1.7397681,0.6861038,0.5010847,-0.56614304,2.671631,1.8126318,6.145829,4.2446184,0.76439416,2.6421633,9.964533,1.9242641,-0.3698296,21.846958,17.34912,4.019522,2.9710343,0.14012289,1.404346,0.077144615,-0.5984398,4.8242126,1.2216549,0.90536654,0.41005668,-0.62489045
13.jpg,1.3126459,56.847233,32.251236,10.275055,0.55067194,4.3456235,12.350181,6.3703494,19.835882,3.1783886,3.4416616,9.242194,4.4186215,0.1806601,8.730374,5.2238235,8.741609,-0.13747649,2.4646308,11.585805,13.397704,0.5665271,8.619689,0.8866895,3.0262153,8.818327,4.814408,-0.2102315,-1.5455964,15.520536,4.038078,6.5525784,-2.770386,2.4717762,9.32999,-0.9971624,0.6254796,7.299684,-4.345203,2.7979171,0.98664993,1.846597,0.8348362,0.007991027,0.9111772,4.9382434,2.731303,2.4952185,3.9922166,0.77005833,1.017161,0.8904524,-0.034918264,1.2378325,10.843017,2.1691191,4.5136204,1.3772309,-0.20338139,5.348117,0.17256495,7.2198734,1.69772,0.0844223,0.19497098,1.3499379
14.jpg,27.206844,4.751036,2.8604817,0.73828644,4.384261,11.160908,14.183,24.184551,5.1550574,0.45396033,16.329184,3.6084433,20.163279,10.190341,6.992159,-2.5601003,-2.7174542,4.0618367,12.236288,10.659729,2.0066898,7.919425,-0.16103098,2.6686459,6.3119044,0.98011017,17.331646,2.1755767,2.5749512,-0.23673993,2.5393293,4.689659,5.262315,2.80564,-0.32593235,0.66737777,-2.4547608,-2.3506544,9.55558,1.171036,6.1381598,-2.1124015,-0.8543735,0.55912805,1.7502345,6.376497,13.85773,4.387016,2.490653,-1.9114634,0.09791437,10.01228,3.606055,0.738151,7.1042643,8.718483,-3.3531208,-3.0636208,3.151536,3.534817,-0.02328693,7.348352,0.81188965,-3.8128767,-0.23839407,3.0876048
15.jpg,21.510862,-4.553063,19.567472,10.176841,2.210299,6.924825,24.976557,15.944828,32.4929,-1.5564845,4.183402,3.2037582,19.121584,4.0683556,3.7519329,4.982662,5.360548,-1.8121061,5.3862734,1.8101107,8.680948,3.4299402,-2.877464,0.8515259,4.826624,8.129676,7.021676,-2.5476656,-4.5445266,7.4477153,2.6538334,5.783689,5.314932,0.97561467,0.05262606,7.6533318,5.4034615,5.8550363,6.6759787,1.4046615,5.226857,1.9231782,6.468705,4.2857227,6.691457,-0.8053079,12.140583,10.242861,7.3528967,4.544894,3.6732707,24.991644,2.0670137,10.338545,6.571824,4.8751655,4.780624,0.54959667,2.4335463,4.3078065,6.0642934,4.7133155,3.1925495,-1.3452313,-5.4250755,1.204457
16.jpg,4.4272623,32.551975,9.452918,6.472338,2.7567937,14.393399,11.907256,9.322948,32.224266,3.3484268,5.7446175,10.957343,21.103584,2.940633,0.34394693,8.582525,5.1818476,15.185354,2.9497564,10.708128,1.4289169,2.4467423,1.107724,3.5756543,12.06594,1.1735575,4.900976,-2.8885138,2.7338731,10.099496,6.2418623,11.562791,6.6292152,1.7057958,5.5860944,3.0882123,2.341081,12.982946,3.7304158,-1.2554328,3.2465112,5.45262,4.9015355,1.7578542,1.5926765,6.7866964,10.138115,4.063794,2.9510279,4.445485,7.321587,5.643665,0.41364852,4.5278974,-3.0267093,9.789966,0.3437154,7.5633483,1.4072944,-1.9439992,11.096009,9.415329,6.0512347,0.43212265,7.142374,-0.9359128
17.jpg,20.956371,10.15149,11.848867,7.536044,16.308783,6.7340584,14.382532,29.560684,22.727957,5.651744,2.9265609,5.8231707,37.317856,1.5477426,2.4558306,18.39645,5.418601,5.7288327,26.107603,7.0116425,7.136555,2.6221519,2.5036674,2.7409992,13.903639,0.79327047,3.4037194,2.8579657,2.1325455,5.599882,5.2426043,2.0151186,7.148764,7.2611494,0.8926334,3.4541976,1.4806036,5.7118073,11.127075,1.5971322,-0.34295538,1.3025863,1.1708149,1.6952918,1.1119487,4.507561,18.63608,22.890137,4.300396,0.574623,6.116675,7.4587717,4.668212,2.1043446,4.5137415,6.5465302,0.41347203,3.7656167,-0.1013902,-4.3468,2.9467764,6.0378675,3.35866,-2.3300335,-1.1641244,2.0323596
18.jpg,17.414682,-0.29803845,16.667328,15.623227,4.53001,1.908933,10.129873,14.119181,30.776777,-2.9249601,27.973219,9.930815,0.7500609,-9.823834,13.29585,18.634867,5.0882497,-0.68620616,10.639715,9.671703,-4.1662717,12.230788,4.3267922,4.8510613,13.287942,3.6149077,17.554028,-0.38361904,0.24080789,5.703645,12.993918,39.180527,6.8113184,-3.9772305,2.216345,-3.9816413,1.4923787,6.319552,7.502638,-1.9834694,0.5583207,-2.8758419,5.688226,2.0688736,5.271924,3.2067485,1.8960993,6.6159368,3.0068564,-1.4974269,7.596117,3.0852714,-1.053514,-0.19454812,-2.149263,3.3007438,0.28401566,0.10528834,4.2733674,0.0144477,-5.073737,2.6838617,-3.0377781,-5.664288,1.2545044,0.022504572
19.jpg,10.883878,6.7567496,29.201027,2.930182,30.930468,7.8089275,5.4050207,16.237974,15.428898,6.4989276,-2.4513783,-6.0646644,43.483643,0.022373581,-4.176663,8.001094,4.3965507,13.885161,37.725513,8.34535,16.609596,3.9820716,0.3738137,2.13209,14.458527,7.1694493,3.5638728,-5.703742,-1.6374359,2.653775,9.580647,2.8140073,4.7044353,7.9564753,-0.29447627,0.7769717,4.1275535,-2.103373,8.12701,4.2308893,4.656711,1.5418885,16.673521,6.813249,0.82130337,-0.58827233,9.96066,8.41695,4.156916,-2.3893423,1.4240516,4.6748686,2.0957975,-2.0833075,1.9479189,5.845791,-0.11727744,-0.39448068,1.4164907,1.9046906,-0.0003871508,0.16868767,4.3566227,-5.148592,-0.8663008,6.433745
20.jpg,18.570656,2.8450842,8.49832,3.624118,27.75124,12.576093,21.451103,12.992093,6.1712294,18.48513,0.25723594,3.1030793,33.21326,5.806861,4.7481036,0.2684171,-1.5892274,-1.4055017,6.000193,7.974908,10.107563,1.9969169,0.9822904,2.8466594,7.1899266,1.4085114,4.845069,1.5346987,0.37435874,-0.37032622,0.6675787,3.5229478,3.7766364,6.207785,-0.2318317,-1.4084773,-1.8540353,-1.9637897,8.809512,-1.5553448,1.2281677,0.0028704293,10.985138,0.950757,-2.8899806,-3.1649508,15.9354315,8.792968,6.2311263,3.2807827,3.2886033,14.665156,-0.8119164,2.507996,6.351283,2.383602,-5.394826,-2.2432187,-1.6924504,2.6526504,5.5233483,1.5954182,-2.6341093,-7.1034937,-6.3774304,0.8832815
21.jpg,10.507456,44.864147,10.869369,0.91676253,-0.33896318,20.11043,16.34726,9.400431,17.913557,8.258842,9.562941,7.891205,4.1393466,6.538763,1.6210239,9.003017,2.3921435,28.128004,-1.5890856,9.992179,-1.3446527,2.8055608,-0.9655721,4.4500775,8.5557995,-0.43322444,7.5228214,0.21032187,2.5383773,4.908343,3.394236,9.414502,2.9147143,3.5322473,-1.9541509,0.30621105,-1.3652881,13.245876,0.5842748,-3.592272,-2.3148525,2.7041976,2.972116,4.5279236,1.9052423,1.1619482,12.387675,2.9620614,2.1754277,5.1027164,3.5906856,9.244679,2.6760688,1.3065349,-2.343411,3.6469526,-0.39186105,4.3298745,4.0554447,-1.3444169,3.6557124,5.7017837,1.7554572,-3.348463,5.288683,-2.3837483
22.jpg,24.27769,4.3369827,2.3951383,4.96775,7.403636,22.51072,7.3432207,22.54117,7.758044,6.2642455,20.212545,10.361472,18.033556,-8.168146,27.94973,3.1590536,0.6113693,-4.063985,0.6520604,11.27955,8.372658,1.8537167,0.3978068,6.2023354,1.5771443,2.881333,3.7303667,2.95095,-2.573518,-1.6315804,5.486413,5.0958705,2.86271,2.0604484,9.970223,-2.110198,0.42660168,7.113756,3.1454432,-0.62802935,0.7636848,-3.9968622,1.8921901,-0.308243,0.31697592,0.6203143,7.1792526,-0.5190961,6.4332576,-6.6842556,3.36684,13.730286,4.036574,4.904323,2.777742,6.119636,7.3024826,0.991695,-3.2755933,0.5184902,-1.557737,-1.2765421,9.7314,-0.99882686,0.47766548,-2.6049335
23.jpg,19.236435,0.57932127,28.50496,-2.5240872,16.585646,6.092205,22.94556,10.079191,6.932108,11.78572,-2.3132985,-1.5239929,27.058489,2.2061777,2.733348,-2.300566,1.940426,1.3890435,9.271555,4.4648247,12.115444,7.2877994,0.338587,0.1716177,7.255186,6.568326,8.955665,-0.46289888,1.6652051,-4.4624662,-0.185824,2.929793,-1.7131763,2.5868614,6.029269,3.3443258,-0.3323892,-0.07952028,9.846409,1.8905524,7.1523585,2.0707633,6.2298036,4.145088,2.417659,1.0168554,9.815992,5.021534,0.6105453,-4.028902,-1.4865257,14.45255,2.7070749,0.64155686,4.012258,1.3788998,-3.6948829,-3.8386066,1.064123,-1.5584304,2.1513867,3.2289684,-0.7429918,-1.5294021,-2.6772401,1.8082843
24.jpg,22.668304,13.560526,-4.957508,7.167012,3.714671,23.567562,30.035316,19.47849,9.0633135,10.387832,1.4824636,7.921274,21.528667,7.329504,6.198976,6.649437,5.850952,5.7600765,9.582955,10.469462,8.245494,7.7593355,5.845107,6.059851,13.97179,-0.5607047,8.547452,-0.3986889,3.4742348,1.9889438,6.9887238,11.057279,6.9636607,3.0271933,1.8201251,5.0054555,0.5927353,1.7157817,7.831539,1.0704182,2.1685634,8.649051,0.6327449,3.1515677,7.0623174,-4.1684403,19.955944,1.842964,4.710327,2.944185,-0.5214577,18.734129,2.381828,3.8477607,-1.5367376,1.1302354,-5.0121365,0.6413146,1.1188672,1.411219,8.818272,6.1159663,2.9375849,-2.8539133,-4.370454,3.2997358
25.jpg,42.834232,3.3914943,3.2914958,12.050911,3.9608762,20.97373,6.616941,18.179802,16.838781,6.192683,23.11965,7.4740753,4.895896,11.770264,2.1426597,29.21046,3.4112363,1.0802698,7.549111,13.469228,3.018727,-1.9747661,7.1106515,2.4005203,9.996011,7.227696,8.276828,-0.38671708,1.0888454,7.6698484,0.17706823,13.795357,8.773823,4.8066936,10.368394,0.49241298,7.0923314,15.657854,-0.60756075,3.334197,2.6958878,-1.2511367,5.78919,7.3589697,2.1882586,0.2241286,15.484488,15.792693,0.14666761,-2.3192077,-0.1156636,0.9297825,2.5396411,-2.4187934,5.5089183,4.5628695,10.678037,4.747729,-1.0207405,0.21282202,4.270735,8.733745,5.2803526,-3.0492563,4.8344507,2.54068
26.jpg,31.542662,6.8715086,4.5914483,7.733187,5.091399,16.878492,17.585426,51.062042,8.854924,13.476721,8.10713,3.8713634,16.824533,-1.2209984,1.706367,8.287657,-2.6277547,4.82646,6.7633195,3.7068028,6.5339403,-0.5849792,-0.08956552,12.507704,4.287195,5.5629115,14.65088,3.2149665,2.255991,5.227377,4.935523,7.3145976,1.6141305,0.48487204,1.4984252,2.481562,-0.16571748,9.485202,5.5498824,-4.3747244,6.7597322,3.1181307,2.380229,2.5915127,2.2874563,6.495089,10.574268,2.8599234,11.051148,4.1017494,5.768094,7.788936,-1.8341148,2.1453276,11.847663,2.151959,4.830995,2.8053782,7.224875,1.996789,3.9544828,1.0482358,4.8268404,-0.5381864,2.276106,1.3598531
27.jpg,12.714288,4.4643326,12.585446,12.763953,-0.5391502,14.939208,19.177319,8.610305,31.02488,0.6625831,13.740742,14.957084,4.8667526,-4.222406,25.706486,12.630342,3.7801492,3.445732,5.4712987,12.208345,-2.3680835,6.4879947,7.4424624,-2.6015337,7.21786,0.43005198,4.909407,0.2164965,2.8089855,0.16694236,2.9178665,10.259657,-1.4885187,-2.8861108,-2.5702448,1.5805672,-1.5219848,6.854378,2.4673662,-1.3565491,-0.62745756,-1.1804689,1.4315773,1.9539714,1.541811,1.5618522,9.027286,0.15406534,2.6445231,6.3629284,2.8956354,2.6134837,2.9348888,9.773722,2.313029,1.7016971,4.6986814,-0.72592854,-1.6407944,-5.103681,3.878433,9.839505,10.467619,-0.00972983,-6.716299,-2.1174326
28.jpg,17.645054,7.760183,5.109334,8.047609,27.218754,23.215506,14.727979,20.196426,18.493147,11.812092,19.1246,3.7323718,19.984373,7.7240953,5.9887314,12.414626,4.8951178,-7.107994,14.222243,10.930424,-1.3443259,0.76241165,8.883718,-3.40732,5.616591,3.3633902,1.2438376,4.354732,1.716621,4.1215224,3.1170995,4.205536,9.260093,6.6101117,0.99287415,3.7424226,1.4021155,8.348917,12.842995,-1.0478474,3.1994653,0.8796104,6.839402,2.6706774,-1.986257,-3.9060957,22.32658,5.544631,10.285971,-2.2698636,1.5963498,8.587648,3.8913279,2.7123384,0.413993,6.217017,0.74283224,3.4641345,-2.456652,5.642097,4.2739596,2.8288631,6.01548,-3.8629704,-6.3306136,3.6634266
29.jpg,39.641933,6.279103,1.6532726,0.3662875,0.9765066,5.011188,14.40213,27.117401,11.280167,2.0527692,14.593905,3.4786508,13.848813,6.552458,10.233442,8.338681,5.9132514,5.9413304,18.02844,12.540833,1.5291857,5.8082223,3.0565403,1.4440135,12.677341,3.3190315,0.88389814,2.3244553,1.1373874,-3.3883924,7.98085,-0.6064148,2.2198741,-1.2523218,8.729669,-0.7005766,-1.9065987,-7.0304484,12.433622,3.6131308,11.667677,2.6339614,-1.2994257,-1.8438969,-2.4315293,1.3501253,16.29477,6.44342,3.1280842,4.306347,-1.9286209,10.663708,6.3142724,1.1064578,1.5698307,4.3364234,-4.051746,-2.290957,-0.5441656,1.6961623,2.9139915,5.102986,3.6929116,-5.579852,-4.5256844,-0.8123588
30.jpg,33.781677,3.791532,6.403926,7.8560605,3.0819416,15.066452,20.400131,11.05618,7.096216,10.090524,1.3766444,-0.85597473,20.726051,11.902001,3.1904347,-4.6597247,-2.485517,6.1958256,9.448201,8.717613,9.741836,8.610815,5.287107,6.6618347,8.01108,4.555143,11.768763,4.2647643,-3.699831,-4.3002467,-0.5871132,2.748711,12.759302,4.2864733,-0.28718674,2.195577,0.047184296,-2.5838633,18.14985,2.951032,1.6908616,5.667975,2.9511683,3.025496,4.1225443,-4.4763007,24.528404,2.430962,5.570204,0.2815188,3.9670234,26.799494,6.264963,2.0675824,5.1711783,3.4735606,-3.2196984,-2.6104481,3.12362,3.0703354,8.390171,5.818457,1.8061718,-3.682065,-4.731276,2.388841
31.jpg,22.988214,2.0939033,5.0795465,8.339758,8.130559,27.412819,11.162756,10.374712,23.06618,13.275557,6.6005707,4.476153,10.400345,7.524839,6.2026815,0.4903256,-4.928342,2.6467752,7.2663956,0.79499745,12.817276,0.66559196,2.8635316,5.4008512,2.6631758,4.4157557,6.165483,4.9695024,6.0872564,9.375217,5.231772,4.510136,15.966479,8.33953,2.7986386,0.51611215,1.6695645,10.893462,8.035918,3.2888699,0.42552137,-3.2876763,3.5032697,6.689979,5.0054407,0.1662964,15.038999,5.56631,4.259602,-2.7652354,1.949456,9.120356,-2.4769273,1.7677999,-2.7089086,7.7149696,2.6463935,1.7014203,1.8904539,-1.7316884,1.2402605,-0.5790397,1.784691,-1.5851449,0.014297664,4.798743
32.jpg,3.868771,6.2485785,27.44798,4.1469307,51.503025,14.216139,10.506706,14.203665,8.637817,12.591401,2.1921203,8.682245,49.04003,-1.639983,4.618005,7.0405865,2.1896195,4.2558923,6.290587,4.776396,8.740842,2.2751517,2.2716172,1.6770672,9.17546,0.15234035,1.3307966,3.7222106,2.1275778,1.2404405,0.024939142,1.7094456,5.3119974,11.79549,3.2062006,2.090608,0.16664955,5.74213,8.15903,3.111653,5.3396835,-2.1458418,18.266953,3.2302513,-2.0806875,5.405625,9.824499,9.732668,5.229827,1.3775243,0.17896183,3.4711654,1.9022686,2.0739856,7.538336,3.5367773,1.3177352,3.8539793,-0.13428456,3.6536176,2.0793972,4.2656794,4.468061,0.09547947,0.16072077,5.849461
33.jpg,19.038218,7.5146146,7.1495237,7.144104,2.9850752,21.85418,18.660736,18.69167,31.809992,6.839045,11.287719,4.564888,22.66775,-4.7402525,5.472788,1.9010375,4.0416555,7.886271,3.1068892,4.0299916,1.7342514,5.1296444,2.7848632,3.4344244,5.52275,8.125789,9.284971,1.7282143,8.303106,8.07261,7.2068586,7.9821043,4.1812153,1.2204756,1.5247682,0.0829671,1.7175846,11.216536,8.732216,0.16112141,0.746199,2.042695,-3.2489407,3.1714067,1.8062586,7.4556136,8.105656,10.157783,5.069734,4.4905186,7.733023,15.075657,2.281351,1.2006485,-1.308063,8.158961,-0.35232776,5.4454765,-0.087394476,3.3551161,4.3958745,7.5849643,5.631837,-1.8800159,4.670076,-0.22517852
34.jpg,10.045645,13.306315,7.458729,47.25904,2.445797,10.725701,21.322899,-0.29911032,38.215427,8.608388,9.116676,24.344301,1.545205,4.5323687,18.612803,5.387373,4.127816,3.9768674,10.918662,13.786297,-2.6345208,7.2877226,10.334381,5.4599977,2.405932,2.8360877,5.533863,2.6871006,17.063559,9.566593,-1.7104573,0.12505879,6.566101,4.0212817,-1.6776558,2.9378567,4.6532173,-0.0063885003,4.2804074,2.0046093,0.7119199,4.8502407,4.519231,-0.64124584,8.465552,0.37686107,10.0822525,6.2219605,11.095731,5.533093,9.678117,2.9349294,4.0230045,3.9493752,0.31293184,5.3709946,-0.71520954,3.0616648,3.4908288,2.626917,0.065204315,1.3372356,5.711125,-0.04925169,-4.29619,0.46829352
35.jpg,20.31518,19.345797,1.3028643,6.8244257,11.473023,15.347897,34.9239,-1.9388614,1.9897114,6.440727,7.297162,38.774002,0.3263317,9.457068,18.151052,0.25485596,5.223144,29.246798,10.449736,21.588995,-0.7573912,3.9772384,10.993719,5.717528,5.0748134,4.2504964,-0.84738845,18.056253,11.959866,1.5186706,2.535242,4.125414,2.071904,2.9380486,1.4063448,5.4852924,4.095503,-1.7173469,8.184251,8.280029,17.294231,-0.5732005,5.5801654,5.0076118,11.333291,2.0889254,7.4903955,4.635256,6.8603516,10.52753,3.9600785,8.594064,6.414777,6.5987835,0.3862957,3.0407894,1.0849048,1.9355174,0.7005829,1.2803328,2.4965835,5.099551,1.0571729,-1.7070787,0.31310907,-0.40729424
36.jpg,17.640327,9.388171,-0.21748455,5.2103,0.16537872,33.477722,19.94703,7.032565,6.6964836,9.715368,22.745129,9.852508,0.11133123,1.2922764,20.597435,4.7881627,-1.9523585,10.898125,2.3646455,17.086622,-7.33305,2.138089,10.110307,1.0114629,5.47286,1.3831148,5.296687,-1.1686212,7.4132876,3.8978343,-2.6152537,6.6656494,4.3361483,2.1006103,0.4875563,3.222623,-4.0884376,14.764892,13.954587,-3.2613,6.6920886,6.029448,0.7293897,2.682247,2.6501842,4.1801815,16.477875,3.3622875,4.711438,8.177765,3.4470875,8.317002,4.5310555,-2.9130924,-2.4567413,6.9911695,7.8521433,1.0551072,2.2119644,5.007868,8.527351,3.4636476,5.1970763,2.3616889,4.871595,0.22765703
37.jpg,29.805943,11.514094,0.5130652,7.70367,2.2310228,2.4242733,24.365082,22.302727,18.244692,2.880028,6.781104,17.726171,12.011157,8.524025,9.8572235,10.914486,5.22795,4.5016313,13.62935,17.691826,4.3387012,-6.6470475,14.120427,6.9214225,5.237581,6.7223125,0.8486228,2.682737,1.2157714,0.3729826,-4.214509,1.6309221,6.952687,5.2861485,2.7655363,7.2781734,2.6994944,2.6637366,1.775663,1.015827,-0.23754704,4.6357965,-0.42270842,-5.3220315,1.5890135,-0.2642395,12.371373,13.960359,8.621247,6.5113254,5.5148773,7.4821105,5.907182,5.424583,0.36230907,4.8033013,0.23222044,-0.023455009,2.910868,-4.042358,3.4503438,4.9597263,6.1058965,-2.2401605,-3.0031116,-1.9398627
38.jpg,20.04809,8.525206,1.3478518,9.591135,12.354914,4.711901,12.800497,62.516457,10.826624,-3.3104262,15.4377575,19.97007,11.434206,4.7240005,5.6354513,10.078296,-4.9558163,6.9869576,9.628495,12.787779,-7.239735,5.2371144,6.7548246,13.032466,1.146361,4.1923895,7.7942123,1.4657993,7.7168636,2.47285,0.8527504,2.0982113,-2.1345336,2.2884758,3.415966,5.4180202,1.6023457,5.954725,2.4561536,6.087082,0.97848725,0.8392514,5.926091,2.2406056,15.919091,2.174177,3.550066,5.044701,3.4138188,1.8214782,3.09821,1.6206,-1.0158039,2.5812893,6.182385,1.923922,1.4736327,4.106516,0.41590136,0.8715014,-1.5628285,5.098888,1.0619776,-2.4252791,1.399759,4.261967
39.jpg,18.046232,9.410441,8.707164,7.7829046,12.242117,18.589005,12.305856,10.905975,5.6596065,11.959797,9.677969,12.293841,30.26469,14.988586,10.493276,3.2059674,1.4080098,1.576009,12.269676,12.504954,23.780537,22.749008,11.055144,5.05525,2.893525,5.711096,7.5197124,4.500834,2.1729984,-3.70241,4.798565,0.82349813,7.0593596,9.347731,12.449814,5.461586,-0.05038036,7.8199544,1.4099984,-1.2935207,7.583379,7.6795316,3.2198026,6.3910494,0.77756983,4.4414473,7.6858745,-1.7079697,6.441927,0.08845837,-2.708856,6.1262236,4.8004737,8.396015,1.7710117,3.8926878,3.8255744,2.514934,3.4630888,0.68062574,7.533802,29.079786,0.9273557,5.546508,1.9472167,5.9284954
40.jpg,9.304965,10.904683,12.979666,12.690247,8.675957,8.088093,15.916838,16.330494,25.965652,-1.7686795,12.913574,17.278381,11.941285,0.22830126,16.53117,10.962668,7.395873,3.1582766,3.7209132,10.50171,3.6728642,3.6242354,5.158584,0.07400857,2.818108,8.179187,1.7361485,0.5728818,1.6921928,8.497138,8.239699,5.3392053,0.83303434,1.6456409,4.9607744,2.1998417,-1.2755265,8.152544,7.309865,4.0566487,1.9060025,-0.8367452,-2.7962017,-1.5116348,0.44321352,3.6566179,7.3022327,8.1671,10.864485,10.571784,4.1601086,9.628399,3.9289062,7.126213,3.7127514,4.2283983,18.343914,0.5033551,-1.8845049,2.4057393,4.6913886,2.776122,9.065163,-2.073977,2.3280199,-1.1434059
41.jpg,10.458193,2.6077583,11.136474,12.799946,-1.3822131,10.1735,18.213833,18.082914,21.278349,5.6908827,13.015671,19.243454,16.070765,4.979992,15.716979,4.521095,5.0512238,3.7990808,-1.51463,7.3728867,0.14460422,2.0756888,-3.1453784,1.5124066,0.4186974,-1.0110066,4.821453,3.657056,13.473397,10.709361,1.5839912,-0.36178473,-0.971687,-2.038682,8.094221,-2.5650353,3.1013699,4.0824046,2.0881562,-1.148508,7.222993,-0.06937925,2.5180228,5.7321515,4.6110706,0.14847237,4.466901,2.698884,4.077493,11.043278,16.200054,6.7796774,-0.355312,3.8766286,0.20293333,5.5226274,0.8128531,0.5434088,-2.2231455,3.7301726,-0.9239299,0.72057945,3.1367512,6.87509,7.363249,-1.9132276
42.jpg,13.154298,-1.6951541,2.9752266,31.454533,0.18234384,26.528126,12.548855,-5.2521358,16.71532,19.482721,8.553246,27.96365,0.6220271,-7.395299,11.744772,7.784818,-3.99367,-0.5853524,-1.3749746,18.473248,9.978861,4.48744,16.683807,6.1783185,1.349725,3.4872108,0.60928434,9.318126,-2.262224,-0.06782957,-0.6354508,4.129441,5.493749,8.927007,12.023059,-1.1416277,2.922583,4.4015403,-3.9926238,0.12630075,-6.8710833,2.9918547,2.6690283,10.009792,4.26472,0.023963861,8.814584,-3.2409184,17.658527,6.600806,1.654211,3.8579013,2.2717812,26.4064,-1.7666665,1.0477784,1.0066407,2.5513244,4.229063,4.5204043,5.0262647,2.153268,-1.5746071,0.6266486,-1.2588612,2.7565365
43.jpg,10.299369,11.551617,54.71253,-4.9931774,7.111426,9.97915,15.6163,18.235458,21.181995,7.8034415,5.0557537,3.775102,3.0485878,6.105373,1.1458113,10.1102915,6.7763634,1.3313023,3.601129,1.5214688,-3.4798303,1.1534249,2.4619653,-0.6513198,5.7335124,3.018292,7.1814895,8.289402,1.3592863,1.4919,0.012723543,7.0696497,1.9685395,-2.7721968,5.111619,5.4570737,-0.40213326,0.54752815,3.761626,-0.9045998,0.59633654,2.1249466,2.3014908,1.8944389,3.0902467,-1.1367023,11.901513,0.020796526,3.818635,3.7135699,5.617039,6.49433,0.4492444,4.2559805,18.060299,5.0724235,-1.8322855,1.0976176,-0.6864312,2.522583,0.03271862,3.356758,0.2650056,-0.12087445,1.9887064,1.6972377
44.jpg,15.815544,3.39374,9.502307,16.130648,-1.6701863,9.392268,9.434977,54.98706,7.9489903,0.52164125,13.595798,16.326166,-0.033358857,4.8679633,6.611151,18.232819,-3.4951653,1.2025311,7.855319,9.91022,0.71038973,3.1442351,0.95794594,4.051976,0.58142966,9.099462,5.2876053,2.564199,5.202815,2.4511921,3.1093013,5.529725,6.3507624,3.1043758,12.430746,1.405913,2.6372492,4.5798345,1.2860483,11.530438,2.6679027,5.855878,1.7775506,3.787405,27.922491,4.8535566,-1.2312186,1.091545,5.2657957,-0.827384,2.6022496,-0.86937535,2.000586,4.5242167,2.5171049,-1.5837352,4.086914,4.508832,2.3794875,0.97677875,3.651988,0.78708464,1.7212405,3.098187,6.9577274,1.7608583
45.jpg,2.8436453,4.6673994,70.366974,0.85310674,9.994558,13.001972,2.3047009,2.1468215,8.084868,12.613058,-0.3341438,2.4990196,16.058489,3.3455365,-1.7531087,7.2499537,3.7291157,5.957271,11.812271,4.048953,5.8820148,0.8359935,4.0301523,-1.1741449,2.4579775,4.8217664,2.1632419,7.2276273,-0.88166946,0.8264025,8.316045,2.6656249,2.5781608,0.31998,-0.038675174,0.89590836,3.4712455,2.978358,3.5583901,3.567593,0.17136651,8.950249,-0.19070771,8.474078,0.10495093,1.0135767,4.8281097,3.6899111,3.5029783,1.5845275,0.8762474,0.32584053,-0.16859882,4.041767,7.8782277,1.4581703,-1.3290178,2.70552,-0.34426972,-0.04287623,2.2180693,4.0453887,0.30838203,-0.027338322,2.3571312,3.8040712
46.jpg,2.8574471,20.442802,7.251972,5.132276,13.515395,0.95098513,-2.0071008,28.915258,5.4367323,1.4520135,18.268303,5.5938654,21.973108,12.998262,6.5938196,6.9372864,0.19651884,8.979749,21.323345,3.4908626,10.514537,21.133884,5.4991355,11.509694,10.484639,4.604389,2.01424,3.0449345,4.174594,-2.992185,11.495646,-0.5411434,-0.39362982,5.595908,-1.3818794,10.076873,0.28614858,0.6448534,30.296438,-0.1775764,13.784088,3.8850353,2.9247875,4.103876,1.7824525,8.584907,8.501439,-0.4439983,2.39221,0.53857195,3.2891617,6.3890657,1.9693066,-3.1106782,2.0089056,5.63514,4.367079,3.4161878,2.1642323,12.804873,3.5121777,12.948397,6.009365,0.493557,1.4634086,6.25342
47.jpg,27.852478,9.1888075,2.2041035,-2.119928,1.7216,33.34013,15.132761,16.016064,9.589168,16.831837,19.392763,8.355196,8.652164,-3.7469296,8.896131,5.4789476,-3.126473,3.7221127,-2.0302873,10.244646,3.1757739,-1.6494708,-5.6034513,16.728056,-3.5385098,1.7129096,-0.5400734,2.7312982,0.66181636,5.000663,5.175502,4.667597,-4.756741,-6.62337,1.9675158,3.328,-3.5430188,4.545395,0.8594089,-1.1569914,-2.6517715,-1.459207,-0.028180819,2.1982036,-0.44711387,-1.898567,5.049381,3.0758393,19.093409,0.6811062,2.3395033,16.635387,-5.797268,3.6651845,6.423394,0.19206306,4.174904,1.2957327,-1.8162324,-5.5916953,2.1876495,1.2008414,9.45651,-4.275796,-0.8519654,-7.3040543
48.jpg,18.888086,-1.5388982,18.29007,1.1110826,6.028799,12.160255,31.027508,11.892282,4.6165576,13.369079,6.7674294,10.671459,20.12495,7.6319685,3.735023,6.234953,-0.80039215,6.3598075,15.211132,12.733162,14.099715,7.553873,15.183003,3.4477775,7.0874295,11.523558,6.495461,4.339192,0.6560384,-9.4936285,5.3969254,5.073494,1.4134243,5.8620396,7.038041,3.1813338,1.1626098,3.969421,6.2518425,6.233371,6.5727406,8.216123,4.084225,3.381908,1.5159261,2.2057743,15.371384,0.053573817,-2.147762,0.52095455,-5.832493,19.744286,2.6949751,3.9960525,8.056616,4.2309384,4.540398,-0.057088375,7.2115755,1.4833887,3.5104644,8.632747,0.5816401,-6.184102,0.9355955,3.422765
49.jpg,44.155773,13.17734,4.797281,4.9080534,4.701288,11.374254,25.277979,14.274801,1.9937962,19.75869,5.3580084,19.077358,5.7720532,19.235886,7.221814,5.3522305,8.8976,8.476479,9.016965,17.688005,8.885449,-2.8171966,6.0130286,8.380961,6.283633,7.5520096,-1.178658,11.327757,-1.4330614,1.4656107,-3.8609364,4.3770933,10.9642725,6.4924555,3.27677,7.4081063,7.2718515,7.635419,5.65475,2.29421,-0.3569223,6.642845,-0.412275,3.9340749,4.344691,4.4398437,15.187449,8.543255,6.745271,5.03922,4.2852254,11.566628,5.5565305,1.1641974,11.586467,-0.13298932,-2.7776158,-0.010523293,4.581379,1.7005192,5.7823195,1.5444634,2.4334016,0.17693909,-5.3912115,-1.6310394
50.jpg,1.1101074,6.6862845,29.954561,3.268659,13.563603,14.748472,18.03386,7.3553777,9.824244,13.580781,-2.3416345,6.185405,23.119205,7.680037,-2.7256489,9.6739,-1.1138877,3.185936,32.690525,2.85716,25.563404,4.1297593,5.214282,3.3889778,1.3232566,6.8873277,2.7305126,0.23243274,2.0057206,9.25813,1.427381,5.2138934,7.5283246,9.406703,0.30792066,-0.011018431,3.517704,2.4068327,6.3085804,5.768767,12.214592,5.920368,6.697068,8.271683,-0.894399,1.7177571,12.911344,4.5641174,8.617303,0.25620976,3.2940528,3.6605802,0.48158914,2.401584,1.5137718,8.446866,1.6344941,3.3441975,3.537988,1.5794668,1.043282,7.046219,-2.3636997,-4.7325807,-2.475651,5.9308176
51.jpg,14.470585,3.72894,7.024921,7.4033775,42.82303,23.630566,0.558323,12.645086,8.456829,12.071494,-0.55121976,4.041637,43.7734,3.8470194,13.78648,7.0113354,5.670957,0.21334435,5.643027,9.93867,9.280099,-0.6019987,7.829446,5.1701384,8.328354,-0.99616265,0.8740773,-0.95046175,-2.3599024,0.05105026,-0.2038213,-0.07863198,7.449592,11.607129,10.964592,-2.0354736,-1.883975,3.835955,7.741743,0.048896067,4.781349,5.9260774,20.311016,6.282184,9.136701,3.3088617,8.615169,0.44575036,4.131634,1.0555898,1.3194028,4.097898,3.7037334,-0.0692348,10.029716,0.24843684,-0.06057266,0.3460259,7.106208,8.930321,3.1981912,2.7748802,0.6432242,-2.3380227,-1.1098547,7.8782387
52.jpg,27.280298,-1.2291282,4.8427796,4.466379,8.89411,8.610261,4.3090706,36.70819,10.268104,10.419473,26.324627,-1.6938485,-1.944964,4.772884,4.61307,6.4875493,-4.9525266,4.5627337,12.36044,6.7325697,-2.587438,3.483852,9.711109,2.3297417,-3.3309193,23.831333,3.6539738,1.837451,4.0826454,7.060173,-1.7108716,6.224281,-0.32766536,-0.8009969,3.338667,-4.7046914,4.6473584,14.635981,30.448082,2.5833254,-0.052494556,-1.1606272,2.0427036,6.9170055,1.4864082,3.461031,7.6460853,2.0455043,1.1009922,4.4981246,5.801513,1.6132243,-0.67161065,2.6048768,8.520115,2.5764232,4.300549,-1.7780199,2.8003707,3.1481397,-0.9514712,3.6529024,2.8325193,-3.4072242,6.130025,3.356332
53.jpg,41.954605,-0.25991762,-1.4652331,1.423092,2.688834,18.336435,6.032471,22.27507,5.4696803,8.330827,12.245455,5.6753955,24.945917,5.508982,8.123317,0.30472997,0.08741319,12.713477,10.624722,9.486565,3.898013,6.1383657,1.6595446,3.4674053,16.74168,-0.8634888,-0.051196292,3.2266107,-2.5852818,-2.4590816,10.270626,3.4457848,7.5304327,0.041067693,9.301536,-2.2551877,1.6371074,0.061869763,14.535353,2.6764104,8.220692,0.47929633,1.2869531,9.175106,-0.2935404,0.7752498,21.531519,1.1583585,5.143507,0.16121268,-5.7516866,20.41202,1.3202446,-0.13981685,-3.0797248,2.9791276,-2.5379705,-4.8144474,-0.10624286,6.593087,1.6575313,3.979904,5.872203,-4.6805305,-1.1327953,1.8082229
54.jpg,-3.8545828,48.470776,13.000557,5.537805,2.8264213,15.340528,8.420455,7.809681,22.655218,3.5927837,8.71548,24.871136,0.98184246,4.240696,17.595123,5.4790606,4.7480793,5.022647,1.1141695,8.906724,-0.9486667,2.9734037,2.203904,3.1161158,0.66439843,1.5868022,-2.2710533,6.6981063,7.266131,7.5491257,-3.3001802,-3.38271,1.1270185,0.76997524,3.5814972,5.15159,-2.7417076,2.342581,3.0775037,0.40425938,0.59740424,5.6801763,3.2566042,6.546536,9.513959,1.1541395,8.0564575,-0.7014531,10.534906,5.773526,6.620995,4.7461777,-1.6106672,8.92193,7.1627245,1.7753631,4.693364,18.77238,0.46188426,2.3595247,1.0081304,5.8985734,5.7239146,1.1343524,-1.8580762,-4.7074513
55.jpg,12.62433,-0.3820084,23.232334,8.371337,6.4164343,17.25857,31.006685,8.725281,5.5389028,20.98518,1.5757775,20.166168,16.894163,-0.9776635,18.91616,21.306404,2.2732606,-4.3765407,1.2707785,6.4376264,3.5824556,1.009032,14.477764,3.7039106,1.28837,5.1997633,3.4526136,9.436551,3.8112006,-0.5216726,-0.9141321,1.7706256,1.0902731,1.3659241,2.5663278,3.1097484,3.4084089,5.7326274,-0.2694336,1.6764905,8.625618,4.252331,9.200697,3.3176315,0.30247578,3.935323,10.854891,1.2345115,19.694008,7.206127,0.6397387,4.931927,2.2407098,30.350695,22.87485,1.906955,4.1944814,3.24387,1.9194251,-0.28308135,1.5400677,6.612767,0.7984002,4.063532,3.005578,-0.9249667
56.jpg,21.627102,2.8077717,1.4253865,5.6009464,5.8530903,12.507852,5.093798,69.045815,6.2275796,-0.6139501,18.345518,5.6214046,9.160635,10.718014,7.757701,1.1031648,-3.3257394,6.9768763,10.207932,4.6682153,6.285706,13.922508,0.99424815,3.7905607,-0.3450591,4.8775935,8.809812,7.306637,10.213625,-2.4587512,4.0783634,-0.620309,3.37408,1.2537732,5.3201275,3.5157986,-3.475562,3.8739457,2.8804662,1.2446538,1.9834725,0.8743664,0.660146,7.515453,3.183688,-1.1366506,6.2412105,1.6491536,5.6933575,3.1845384,4.4635477,5.253319,-2.418414,1.0666486,3.9188902,4.438428,2.0325296,-0.988217,-0.8532276,-1.740958,-0.94949186,2.288358,7.6678886,1.0719888,5.853125,0.98638266
57.jpg,17.965706,1.6467233,23.674055,0.5289876,3.7873044,6.6739545,2.7892725,22.949072,6.1059957,0.047949888,7.356192,-1.0289165,29.549706,-0.22538733,5.48705,8.883335,0.96985453,5.690617,41.549255,1.6696515,20.461182,17.616024,6.6918383,2.3026342,-0.020132028,2.9218543,5.5009375,4.4209757,1.7578294,-3.9796379,-1.8351008,-3.0236073,-0.5288276,4.7761974,3.0603805,-0.3591229,0.8070158,-0.8143196,11.8135605,-1.5816078,11.973079,-0.625124,1.2663912,2.1239257,-1.0265149,4.422001,2.9473977,5.046941,2.4666662,-9.838261,1.7145565,2.577932,2.7207046,-0.055272784,0.6830164,6.7636952,-0.14870557,5.883955,2.4708548,2.2966537,-1.8944621,24.755629,0.95495415,-2.762521,-2.620166,6.027832
58.jpg,7.7355623,6.3860774,31.723776,10.916875,6.053825,1.5079268,3.2382092,14.350438,39.127617,4.3918495,1.9009885,1.5616475,10.479948,-0.96227545,3.7237976,29.70481,-1.6240379,5.370318,5.114289,0.31974137,3.8460062,5.3657546,-1.8400822,2.3254175,6.008904,4.574623,8.627113,0.9199621,9.143209,11.361627,5.3329573,4.9829803,-0.9629031,0.9287203,-0.34698835,-3.5345085,-0.84875154,1.2280585,3.3054101,10.607602,-0.2862652,0.2764111,1.3895956,2.685389,8.272276,1.9332889,-0.07886992,15.890558,-1.4105157,-3.8607996,-1.0314867,2.2489078,1.1112658,-1.8433024,0.31067565,-4.471444,3.3313386,1.6429892,0.7868008,-4.335961,-4.0968614,5.7324452,4.8422947,-4.6441402,6.6497884,-2.7431917
59.jpg,31.677994,6.905879,0.4757652,2.229152,-1.022809,13.179766,8.890665,38.03367,4.6826205,6.122023,7.499871,-2.4395373,25.173828,5.8151793,7.537226,6.445671,4.2782807,2.169708,12.277465,11.450208,12.241405,3.5325084,9.530691,-0.032117218,9.233768,3.0680795,3.441694,5.8531375,0.44739497,0.7584779,5.4299116,0.2531823,6.618917,1.3986828,6.549798,5.9932323,3.0645251,0.97119737,10.975001,-1.0710931,4.235436,1.8503633,-3.2422152,1.4580024,0.41367877,7.9960914,18.245438,5.7810025,1.5042288,3.0211067,1.6212158,9.694437,3.7861257,-0.9852604,9.867244,7.0338326,0.2241054,-1.9551105,1.91207,1.7975426,3.251348,5.7268915,1.8460982,-3.6141753,-0.24649659,4.061086
60.jpg,-4.501347,5.153687,32.621437,10.384999,49.922493,6.0787416,2.3896396,7.43081,8.08881,8.22123,1.7832879,-2.3153524,47.01252,0.65843004,4.9376698,14.409657,-0.76727647,3.165986,7.6731615,3.6967669,12.257125,2.804968,2.4081924,0.7859011,10.065759,-0.88802195,0.5913701,3.6073678,1.7973102,-3.3806853,2.4425411,1.9292057,2.9184704,14.318029,4.3340244,0.971315,1.2514094,4.5647593,6.0349216,1.0669999,5.528671,3.850297,22.281303,2.3395667,0.7207367,2.4324465,2.2152355,7.7887783,2.4075844,-3.3936691,2.018722,0.8546645,3.099339,0.5120504,14.928143,3.2823687,5.196565,3.347969,3.249073,3.035223,0.6259407,6.7078977,5.011914,0.36238515,4.5924907,9.088132
61.jpg,38.18768,4.2546725,-4.0385394,9.285866,0.06374959,20.102098,9.887287,57.87853,7.4080043,7.5413384,19.403893,4.8676443,1.0840576,12.628155,7.569288,1.8851836,0.20697415,1.2205356,-0.08333744,-1.2115496,2.2373426,-2.8309178,-1.4773157,-1.6873349,0.61520904,2.160313,11.2907505,5.436577,0.8125866,-2.2276542,0.91990733,4.5263715,1.1224988,1.0733285,7.2949767,3.6445749,2.520402,10.561809,-5.4944444,-1.68356,0.74379456,0.79864377,8.182606,4.9598346,-0.037112273,1.0189434,3.8992298,1.545762,6.0132375,6.489466,2.2194345,1.5180981,0.8827527,0.97621906,8.773845,3.1718988,3.0470388,-1.8248743,-0.99657756,0.7338457,4.7207956,3.8369114,0.20327252,-0.8397748,-3.9919815,0.7877172
62.jpg,1.7464556,5.3488636,28.869326,1.7395198,46.164642,9.566139,2.6421661,5.8806157,5.597184,27.357414,1.3470757,5.1566067,36.14347,7.6546235,6.844008,7.108257,6.042547,-1.6754565,4.981381,16.737047,9.859564,1.0015728,-2.042087,-1.0342563,15.528406,7.2685094,3.776841,-1.9459714,1.5537021,1.0289791,12.854301,4.652311,7.63907,13.622687,-2.5522504,3.3269465,2.79487,5.724535,4.4312305,3.5200443,0.100077875,1.0302405,18.877441,4.3301334,-1.1099316,4.116082,9.877738,8.946804,5.7135625,3.2479022,2.257088,2.0016482,2.822251,-3.3598359,5.30399,6.0124364,2.6848116,2.4827712,0.3735803,1.0899487,-1.3952183,0.27391836,0.7054642,1.022138,4.743572,4.3167725
63.jpg,27.530333,0.12798104,3.720662,12.4349575,0.96837825,10.271872,6.921845,40.739216,19.300419,8.919816,9.050315,2.7811608,15.848604,0.85189193,7.97929,25.767124,4.734606,7.8780503,50.582165,4.9436226,-5.137489,14.59479,2.823142,3.2786076,11.662142,3.9934256,2.7896533,2.2705302,-2.122814,0.5967246,4.3051724,4.9968667,1.8821101,0.46876025,0.02170736,5.7872868,-0.9260198,2.2423239,15.562458,-1.102257,-0.76761174,-0.10271319,1.1362168,3.346063,0.8615474,-0.45258972,10.2033615,7.138018,8.499011,-2.3683622,1.6650878,3.3372355,5.6008873,-0.30124936,5.0070877,3.0990732,2.8057535,1.5097591,-1.8709298,3.0904367,3.2054186,6.433141,4.2763786,0.74170727,-0.8276671,-1.7192204
64.jpg,18.055298,17.233606,4.795855,13.34127,-0.9617074,7.2430997,24.1492,4.7235403,28.6239,2.8730407,9.986968,26.467896,-2.494144,8.952488,30.970514,8.5235195,3.322522,7.190627,2.1431017,16.23423,-5.6288905,1.0302961,5.2565174,1.382283,3.4190032,-0.9083698,5.34562,7.343813,10.462906,5.86373,-1.770357,2.3477178,-1.1815126,1.4561765,4.698671,3.0774474,-0.96580136,4.930166,-1.835781,-2.4332955,0.10401392,-1.3150487,1.3948079,0.20013842,3.6304407,2.2999802,0.21270327,5.246339,9.881623,8.549033,6.478564,2.8921819,5.05851,12.43816,7.4081764,4.9835315,1.9776688,2.8742287,-1.3804178,3.1345465,1.3621538,5.3961644,-2.01097,4.5615106,0.76159173,-5.4462457
65.jpg,32.52867,15.726799,8.120772,-3.3975623,12.452236,20.98909,19.986929,13.897803,8.44002,16.687714,5.029822,-3.053136,27.342882,2.4502673,-3.5679226,-0.9876516,-6.178448,3.4441419,9.531874,8.794408,18.280087,2.407985,9.20059,1.9803629,4.4602304,15.142023,1.9446174,0.82504153,0.5367587,5.49319,-2.2792943,5.951714,12.857191,5.363705,0.6474616,4.0724244,-1.7136382,2.9894137,11.760128,0.33647335,0.73982793,13.744152,1.6478546,7.909706,3.2414577,0.5342518,24.984846,1.5038604,3.6930404,1.3622876,1.5142064,22.526165,0.086541705,1.6565312,13.8061075,4.224887,0.40203324,-0.6063338,5.1770654,-1.4356014,4.642018,7.0407867,1.1761787,-2.3241792,-2.6168313,2.5750515
66.jpg,23.65331,0.11105095,4.1075835,25.500917,2.5866494,23.03693,27.782122,14.692005,16.902308,22.117823,1.3147179,4.34975,10.229611,-9.791655,-0.044940878,7.7513466,4.3209467,-4.795935,2.8717368,6.645269,0.24464847,-4.5860515,0.45050913,3.7519946,16.84201,10.77494,6.585047,-3.2907035,0.39789844,4.1074796,4.2517757,3.635344,3.1212206,3.846271,3.0316472,-0.8992213,7.2248206,6.0333095,6.101465,7.4507804,1.6778998,5.527089,3.2831657,5.640785,15.785082,3.3275254,21.901546,3.091569,1.8273245,0.02051359,-2.1889734,16.775063,1.8271059,-0.37379488,10.612869,1.0838375,-0.5731422,-0.15651968,8.747467,2.4700134,2.195438,5.207841,0.37550554,-0.99282277,-1.5502434,-0.8541367
67.jpg,4.216367,24.976658,19.020214,9.243505,52.408993,3.746413,10.583947,16.014576,5.1131983,11.709175,-1.7451795,3.4939282,39.591057,-4.7990465,4.2680306,3.7593174,6.719114,14.303692,9.831101,8.824744,8.046959,3.7224705,7.7636776,5.3041525,8.476422,1.6027508,0.1545799,-2.2692957,1.3914572,-0.28361875,5.141242,-0.8332681,6.8815904,8.013015,5.268766,2.4765403,6.5217934,4.456649,10.848711,2.5062182,3.5105906,-0.5498565,10.418624,2.8512218,0.8807282,0.3120953,11.725883,1.4772782,8.487066,-1.0351021,-1.5279056,4.096524,0.27113062,2.1292853,11.204043,5.237994,-1.1116674,3.4060287,3.5285249,4.176526,-0.023662997,5.4799676,5.481226,-1.3255564,-0.63895833,3.6818438
68.jpg,14.379959,2.4940407,33.4591,17.2846,16.311922,-5.367382,7.506654,22.739817,38.825726,2.9377506,4.0870795,1.081126,24.552275,2.007668,0.51657885,16.067097,5.68897,1.3471929,12.521024,-1.3154466,10.260361,5.903434,2.7663248,4.458123,12.558476,7.5248504,5.1466637,1.9982481,3.498796,5.278869,-1.3420167,1.559842,-1.8099172,5.581835,2.2067575,2.629881,4.330174,5.7787457,5.692854,1.0390334,4.9949756,4.2905235,8.747137,-2.4416647,1.8510374,4.9817348,0.71414846,32.448563,3.9048486,-0.5715019,3.440929,3.0037246,3.181733,0.75961703,3.208253,4.995025,7.546413,5.020069,1.7296729,0.045723096,0.33979407,6.265074,5.0225887,-3.4112267,3.2006152,1.8006083
69.jpg,9.50496,13.549275,29.079319,3.172899,7.355427,5.140761,8.122797,25.805994,18.779024,14.776552,4.9846077,5.5154715,22.69141,-2.9587204,1.4991847,20.038141,16.067835,6.7455335,52.93096,1.134468,7.4731865,5.55263,2.2490096,2.5241776,9.625295,5.436343,2.9081535,3.559416,3.1081893,2.2977748,4.665906,10.676855,0.3296771,0.814713,6.443703,4.0268703,-2.2771807,8.074757,13.003324,6.543763,4.364738,6.7349052,2.4750483,3.2948315,4.324753,-0.46263817,3.492695,6.4865427,0.7486476,-1.7286509,1.339156,-1.0760111,1.2427466,3.8827782,0.13910784,5.0849924,5.120881,-1.7943449,3.6328151,-1.6111367,0.25870213,5.9965606,4.677479,-3.3844364,7.1086435,1.4275956
70.jpg,31.988985,14.470717,-0.5338761,12.48652,4.956868,22.467194,35.605984,9.728883,2.3897307,19.805717,16.795252,24.01639,-2.108258,3.0486896,14.464855,-6.425362,4.734115,13.1261635,6.006943,21.458979,5.4833655,1.5303397,16.571457,2.0681016,1.4456458,4.9386754,-3.5044112,15.213498,3.628342,-0.56781936,-2.7061238,2.4347863,3.1233475,4.052285,9.632592,4.271884,0.22450276,3.2215283,0.20213388,6.45207,0.90484285,3.4365542,3.183423,5.4295382,3.3054214,3.5670545,11.641588,-1.0909941,13.54216,3.370654,0.86361355,7.002926,4.2251024,9.477446,5.629209,-0.303999,-0.94800544,-0.5525302,0.55482966,-3.785618,1.2887335,0.5784926,1.9310309,2.765933,0.07644585,-2.777473
71.jpg,12.930411,9.653046,14.816204,3.2873142,6.147052,16.927385,12.86584,8.636769,3.3259816,20.788979,16.036755,33.040447,5.1534705,5.7178226,46.186478,19.893234,7.087317,-3.8834922,1.970524,16.702915,0.6951289,3.8400636,12.7331915,12.953377,5.596521,-0.31958464,5.7593017,6.032264,0.43324116,3.9648767,4.108376,2.1278028,1.2960385,-0.74921966,2.909877,9.32188,1.429732,5.1876135,2.9995353,-4.7273636,3.7861474,5.6994123,2.881856,-1.1661868,5.1390176,-0.14828277,3.252875,1.5319887,18.216211,13.15524,1.3822634,1.0649357,5.062534,17.485565,1.703105,8.109413,4.384096,-2.1730995,5.0791903,3.747961,2.8713894,0.40309596,13.0872965,0.5589897,2.909622,-1.4564475
72.jpg,-3.8371105,15.547213,25.678858,17.11169,59.24882,10.140656,13.38768,-3.2817955,12.074084,7.059125,1.5733674,16.373232,24.98241,0.75737655,5.3058863,2.0835564,-3.43711,5.8649793,6.764869,5.9692245,-0.07276603,5.899451,5.4726496,7.4113846,1.4760053,-1.6425388,-0.45876634,0.92406046,23.226084,3.0233738,-0.703576,0.81383234,0.7075336,10.953518,-2.6611085,6.8680263,-0.29940167,0.114229605,7.0090413,3.6486077,4.5756483,0.56125104,9.580594,3.4899526,-0.72586983,0.32208472,3.138201,1.4812138,2.1126437,2.916242,6.373228,2.626048,-0.40831733,2.1585903,-0.7859161,2.6577177,3.5943255,3.0024912,0.9752527,1.9805279,-0.9286411,0.20508058,2.6010044,5.745073,3.2590587,2.9885998
73.jpg,18.407179,-1.2295768,3.9282944,15.018107,-3.2843072,7.255693,7.7701926,40.62475,16.23898,2.4865878,7.7573595,8.785733,18.519848,2.1608405,7.921218,12.535829,0.47948352,7.300764,2.8711536,4.7137904,2.9012222,3.6377385,1.9189253,6.9918795,-0.15030512,1.6966907,6.1460104,5.645208,7.704601,8.850617,7.0248947,-1.3341585,0.13663061,-5.554705,-0.672544,-0.35955954,0.6378826,6.813404,5.8189917,-0.9073766,2.5901794,0.696044,-3.109584,0.82720995,3.892004,-0.46720392,14.870479,27.148571,12.856576,2.8169203,5.6577067,1.6961325,-2.170555,5.4802217,-0.19337581,4.1237793,-0.7080836,3.1369064,7.0848665,-2.6597657,3.0086226,7.424875,5.3491607,-1.0355518,-0.6416179,-0.6641441
74.jpg,6.6061974,37.884174,20.419422,1.5687187,62.51209,-4.386031,5.0917983,5.799328,8.078121,4.8761396,3.7147686,5.9860086,26.851633,5.9341974,-3.6696002,6.162619,5.2271647,10.548924,9.127597,0.27949163,4.2086573,-1.1468897,2.918393,10.154925,5.342927,2.7164605,-0.36738142,5.4581747,5.1139727,-2.6042004,-1.9914081,-1.0668324,-4.0313354,1.713217,3.146743,15.650977,2.414236,1.6662511,13.961558,0.4658494,4.1909547,-2.8976727,5.667341,1.1189562,1.5964637,1.6417549,4.4249606,2.1082509,2.436986,0.2922561,4.2042885,5.1996055,-4.058166,2.210825,13.051886,1.7736756,3.5038195,6.182554,-0.07740772,-0.45890826,-2.2940533,5.6916146,3.895988,-2.8508847,-2.402727,0.112129934
75.jpg,26.270563,1.16142,5.3406076,3.6292229,8.997103,15.9678545,-2.140154,37.59918,13.230118,3.610075,9.617546,-0.68905157,27.167065,4.9176607,10.453049,10.481833,-7.1254277,2.640556,0.94060653,8.232777,7.757719,2.1483989,4.1946554,0.6322123,8.653946,3.974647,3.8701932,4.6789827,-0.490617,3.5047553,4.439774,-0.40760025,0.67923135,1.0529656,3.4758813,6.845456,7.0652275,2.9112458,0.83954316,-1.2097454,-1.1291219,-2.6203032,-0.64878064,-1.5605239,-1.5060346,0.34319013,10.284317,12.524262,2.3158002,-3.1943426,2.8568892,11.493858,-0.24685022,2.7362049,1.1706121,7.112798,1.8042723,-3.888586,-0.5329133,1.2126296,3.9937224,9.548717,4.0119224,-1.692354,1.335045,0.016456097
76.jpg,10.866093,-0.98141694,9.706694,9.587343,16.716509,10.50259,8.110324,14.904542,25.917786,12.582495,3.819586,-1.8756886,29.959127,-3.870535,11.995816,6.830169,-0.68576753,-0.8770209,9.022231,-0.17591184,16.520018,3.1230664,6.5745816,4.2620835,5.9376836,8.396221,8.218099,1.4167082,5.404248,8.43381,9.407186,7.1569815,4.6764393,5.9155116,1.8048395,0.022741128,-0.6994292,11.174302,6.1786966,1.8444464,3.0624535,8.634274,1.8471586,0.9538151,0.48357308,4.575626,6.3467026,10.347482,7.494769,1.2149894,13.87389,7.6444864,1.4815674,4.2482147,8.304473,6.9079494,4.222801,5.261182,5.661212,0.55250406,1.1391573,6.058122,1.3919594,0.039529942,5.303117,6.4910903
77.jpg,20.491674,5.9797196,8.270385,7.315343,18.254179,6.8298593,20.503971,18.663923,7.4871926,7.652843,4.7811007,6.7762046,32.49852,8.954245,7.177809,2.9506862,7.6739607,2.2676446,9.178642,7.5399027,0.64255995,3.7259479,-1.6160078,3.5610478,8.449668,8.747548,11.018259,1.8567066,0.13557123,4.071188,5.8391438,4.7928348,2.8673887,0.29257718,-2.378247,5.5467987,-2.9282916,-0.9226764,28.811377,-4.5102973,4.66724,-4.7793584,-1.5185498,-0.9528802,-0.73316556,4.149772,15.486818,6.2641234,8.810282,4.959145,1.0660142,16.365458,3.8176353,1.8267076,2.7998843,5.5856304,-1.8081155,-0.072310306,-0.4449164,0.55450714,6.0106506,5.0665483,-1.3779563,-4.6344676,-2.0861545,3.465337
78.jpg,18.63996,2.490088,4.5995417,10.097759,-3.4299164,25.845486,31.681862,27.078915,17.0631,11.353928,8.180715,10.315919,6.6401186,6.6961927,10.590266,5.896746,0.011533126,1.5380509,13.369038,15.580413,2.7702026,0.7421798,-0.6734878,2.1507854,9.539689,5.548821,3.996367,0.82320553,3.7861896,3.6025558,8.033859,7.246673,7.194744,6.6502647,3.4408822,-0.2347269,4.9782524,2.5033429,6.931097,-1.5171658,5.3031793,4.457397,1.2666581,6.3673606,3.0778809,-0.7529543,21.08321,7.819519,8.762167,0.31997272,4.592038,16.291428,0.8716856,1.207879,1.281509,8.773172,-1.4383202,1.64697,-0.082989596,4.4896836,5.1441355,4.08673,3.2230816,-6.2361336,-2.0350888,1.9619454
79.jpg,17.54838,12.505216,15.34421,-2.956025,29.622068,26.129051,21.09978,10.988749,2.8589144,22.46193,2.1340742,11.762821,41.27552,13.388768,5.016422,4.698163,6.4413376,2.3641267,2.4713926,8.466856,11.707593,0.30270398,6.111266,11.7468405,3.0801609,4.420291,0.0631256,-0.72245777,6.0264,2.9642758,-0.73458004,3.0494819,8.261672,6.853746,9.337066,0.27703354,6.030497,14.63974,4.993213,1.4581996,8.979404,4.7988257,5.1126647,0.61115915,-3.4154282,8.4790945,15.847482,2.896305,4.7797365,0.45355716,0.2986664,5.339497,1.4711763,-1.2546234,8.705443,5.917118,1.6266243,1.9052635,6.230631,0.7382284,6.378422,2.5048394,2.826359,-2.4626687,-0.6302841,4.908519
80.jpg,-0.60308576,4.2899246,20.119492,-0.048781745,45.609715,14.401814,12.716693,10.008941,10.892133,15.331107,-0.6357204,1.1299953,43.026604,1.526873,1.7188218,6.5933375,-3.7029781,0.28842226,2.3382707,3.9270587,15.882522,0.30468857,4.386753,-4.2322807,6.170783,-2.0083249,1.5474141,-4.0131836,5.267644,1.7330959,4.2660656,1.8351473,5.675686,11.429434,1.8366752,1.6645908,1.8648002,12.376572,3.7423573,4.5985,3.936543,-2.2968042,25.051579,4.5466833,-3.1638973,1.9138998,11.919321,15.047471,2.228056,-2.5487144,-2.7906213,5.7398453,-1.5706048,-0.9249107,1.9301523,2.6751742,0.8760186,2.3356807,-2.5181978,-1.1405967,4.0047746,-1.5024025,2.950483,-2.3970165,1.6962035,7.305968
81.jpg,31.281128,-3.9520125,4.62936,6.71139,2.33431,8.632034,8.486701,51.00659,3.221051,6.4145646,10.797476,10.639009,16.94268,4.3772707,7.39287,2.9555926,5.4132123,5.0945463,50.63186,9.030804,6.806589,3.6457636,0.45610425,15.549247,6.9049587,7.1579337,3.420996,1.7172569,0.6812294,-1.7764386,1.8242813,3.9656103,2.7765832,1.9692078,10.671788,-1.1916921,1.5904553,-1.7051412,9.256091,0.43682867,2.4693496,-0.18675537,3.6995835,1.5895114,2.3371394,5.539865,9.880404,1.0254728,9.920994,3.6890655,-0.75576025,4.3286614,-0.67798656,2.5095289,5.4824805,-0.45607495,1.1845628,-3.1232505,2.9905584,1.1559675,3.0291183,4.1286283,2.0482297,0.15784854,-0.6128382,0.58288115
82.jpg,34.717163,9.874134,1.664265,25.788286,0.4524952,24.933647,-1.5986505,46.068226,11.233499,9.268805,15.970856,-11.467815,6.734268,5.5868516,6.671406,4.193075,4.9207096,-0.39048535,5.7459264,3.5289664,3.6097162,3.0253832,0.99553055,3.13918,5.8777194,3.5179038,13.568035,2.8531048,4.8445168,3.7296963,1.5900669,1.0745114,-2.800605,1.1424996,3.5235386,5.584851,5.438172,19.697598,-2.7109518,-4.1471305,1.2951759,0.95104325,0.31355172,1.5244135,2.0006835,3.0914526,-1.1779882,1.2192689,2.635442,2.561641,2.9246912,0.2849284,-0.17765331,-0.97980404,1.7179202,3.701834,3.216692,-3.3317587,1.8794013,1.9179708,11.122934,-0.33592302,0.17280997,0.026050676,2.0392168,5.8708286
83.jpg,24.52821,-2.1675932,3.992813,8.805528,13.832492,24.38172,3.030218,15.676986,4.603607,4.9457335,7.6710644,2.7297287,34.9412,2.742731,4.6371336,5.585305,-2.7281156,5.807021,11.9431925,4.0658774,14.607562,18.915848,2.9228227,3.3809695,4.504118,-1.4838012,3.3190732,9.817703,0.16565266,-4.570121,-0.5123956,-2.2177048,-0.47292453,3.5735023,2.3737662,4.0683928,-3.163819,1.7299821,3.0377462,2.889482,2.4712772,-1.2889125,3.361585,12.516194,2.2980669,3.1070719,7.9688854,2.3286285,11.450984,-1.4727935,3.1144574,6.921661,2.5096724,2.5100515,2.9045541,-0.6838757,2.531232,3.1958237,-0.7287951,2.128831,2.9935956,33.327778,5.4866233,4.8411226,-4.300487,2.9400222
84.jpg,18.10064,17.610878,1.4586502,14.032166,3.2971222,12.542725,7.874705,12.96169,33.514587,6.5645723,10.450403,13.169872,7.402278,3.9423692,11.67677,46.164307,5.9994035,2.147893,5.570021,9.230756,4.9680157,4.793528,-2.0036788,1.5638312,12.872967,1.478765,-0.42662945,4.7357783,-0.19804277,10.858772,1.7133548,8.476048,14.725444,5.8396287,0.62091786,11.013904,-0.1364585,0.96653175,6.5170417,-1.6904522,-4.1193714,6.444838,1.840416,1.3222958,4.0713415,4.201002,17.70211,12.187108,2.9236739,-0.96540254,2.7019744,12.046392,7.7369905,8.943541,2.6896465,0.79355836,0.6701865,-0.14962824,4.7772517,-0.15424196,-1.3809819,8.170681,0.68748724,3.2977467,-4.966218,-3.9794292
85.jpg,2.330562,9.0027485,70.386444,7.832567,1.324321,0.19903079,2.536051,10.795219,15.032471,-0.63261276,5.014635,0.0616611,5.2394004,3.0902874,6.5934906,2.717423,1.9823711,1.51782,1.0053805,1.6029062,5.1111345,1.2864505,-1.5828658,-2.8070266,2.103399,6.4974895,19.921415,2.9413946,7.9646206,4.688712,-1.732276,0.86873454,-0.07754424,1.9573007,2.9346368,2.0434408,3.4983833,6.38899,2.89273,0.52315456,-0.27594572,0.48720822,2.852608,0.8363204,-2.185921,4.479907,5.303184,3.6204224,2.3669586,3.7827551,2.9164653,0.765844,2.5656738,1.1405885,23.938507,-0.33746752,5.908069,-0.53472763,-3.45715,0.22882107,1.3932055,4.1361513,4.5270467,2.7882574,2.4056134,3.8003995
86.jpg,0.7844213,7.3162766,30.827314,9.692418,10.157633,4.125133,13.339381,3.2268815,36.825962,0.7514824,4.4890156,28.613583,1.7965976,13.85507,5.036368,7.1910486,1.2129407,-0.038898133,4.865414,15.179668,7.07045,-1.0053779,13.443091,16.542036,6.714005,1.7710961,0.82476735,6.9095006,14.465136,16.7274,2.921426,6.0320706,16.59751,11.578993,4.200002,7.898622,10.449858,5.493994,2.463365,5.915834,5.716962,-1.1892352,4.528372,1.7498431,4.017736,5.5799375,8.353537,4.771935,6.1881948,5.254802,10.581868,0.8124014,2.087243,7.723759,3.7138488,7.2220907,5.149007,4.158196,4.7128077,3.1508288,1.3229419,-0.69970316,5.7446117,1.7631601,-1.5594562,4.7480965
87.jpg,-7.483102,7.691247,21.513935,3.6852047,23.884497,5.2195826,7.709176,19.864475,6.6177354,16.585537,-1.2656678,4.186302,28.814608,3.7639954,8.255571,2.2981791,-0.28207442,0.98924005,18.585258,6.097946,27.030966,8.14795,13.15074,6.7671075,2.0774019,9.770393,5.1020184,-1.0168189,0.653363,3.6442723,3.0269911,1.2891312,3.6706288,9.011077,-0.6724126,6.274515,-3.567026,5.110687,11.5815935,1.9337546,6.5007234,14.99135,9.263439,3.4211383,4.8340173,3.2727256,6.252734,7.498242,2.7693908,2.9260468,0.44970453,3.1511407,2.1765058,1.7332878,8.098502,5.5019126,3.1385489,1.471235,6.4277606,0.5366599,1.518948,8.754364,0.5264107,-5.345979,1.9937049,7.452876
88.jpg,44.103878,50.883728,-0.53142065,3.388714,2.7483037,39.837395,9.098146,10.180904,2.4251108,12.479272,17.181793,7.0143394,-2.820756,5.208092,1.0373573,-0.33563069,6.3835373,12.949663,3.3972218,6.7474036,-1.7079264,5.097927,-0.03220723,4.3668904,2.9333937,1.1105123,1.3900912,23.170372,-1.2647916,0.20685536,-1.7297704,0.89643466,2.4676797,-0.37304842,8.175967,5.2750416,2.0037234,6.3659616,5.162027,-0.20981394,1.3870662,5.089278,1.1006705,7.78147,6.518918,2.821311,9.400852,1.3978562,5.464661,0.9657197,-0.8177804,8.1051855,0.11040666,-0.94321084,0.92531294,1.1474283,1.1980906,4.7373147,2.5526521,-0.53069305,4.472793,5.2690454,0.028008502,-1.495618,-5.191123,-1.5546951
89.jpg,19.363148,7.668789,8.438328,2.5371854,6.4085045,14.205192,13.272028,18.392323,7.0531425,8.838893,11.621223,8.031348,28.241217,7.851334,7.8950844,9.154219,1.2026012,9.244733,44.240124,8.947415,14.578788,9.493975,3.6426291,3.213056,11.071958,1.033082,-0.19933152,0.5063989,-0.16478185,-1.4753008,-0.50747836,3.9823043,5.87184,4.2522917,-0.75541025,5.541958,2.9687066,4.6801796,15.662019,0.06732028,10.089614,9.199613,4.095173,4.2048955,1.7726833,6.2857747,10.28848,5.2999887,4.151278,-4.654552,-3.025015,1.3958143,1.0632703,0.30211812,1.2544762,9.112715,3.0739884,3.5796723,3.4821332,0.19050553,1.7574409,4.399953,2.8079386,-3.605946,-2.6920617,4.819963
90.jpg,43.81437,1.9290364,-5.075213,-3.1418762,4.967969,10.027416,6.0254545,35.020443,-6.119568,6.280045,32.093983,7.626234,4.9655304,6.489191,7.300976,4.197197,-1.01591,4.153239,10.30852,15.257163,7.134953,4.612723,10.417266,3.0248957,6.143484,4.0322456,-4.185826,-3.9340355,-1.8961539,3.485818,4.240009,7.309882,13.15208,2.6623497,16.483624,2.4886484,7.510934,2.3365052,-0.112014174,-0.89003724,-1.4811263,3.399967,-1.9631009,5.5032434,16.162151,7.994354,15.276454,-3.1336267,5.2308087,-2.6284807,-0.10259729,5.9304605,-1.5172534,-0.45070451,2.7349975,2.311633,3.7575014,-0.13447292,1.6803982,-1.4730519,0.8734403,3.0283787,5.3308706,1.5574362,-2.1989672,0.41424158
91.jpg,6.1196523,16.044718,14.151263,9.709808,12.757558,11.577694,5.465788,11.77132,5.1296535,1.4548793,9.990803,3.2161922,19.569345,10.377446,5.665707,5.5352955,-5.1429143,5.030931,18.596542,1.9791894,15.734768,11.130686,3.289336,0.33487672,2.267098,0.4996453,0.5882411,1.037179,4.361242,-0.09340104,4.033421,2.6428277,1.0266982,3.012517,-2.1666853,5.756903,-3.1321633,-0.2794324,32.487427,0.1007196,13.463548,1.2614204,1.2784972,3.229993,-3.3627243,1.9223968,7.5146728,1.5355918,-0.43416741,-5.6926727,1.3436562,1.345885,0.28959337,0.08206624,-1.465969,8.694187,0.5735198,1.4184717,4.2910604,2.0452259,4.903326,10.164231,-0.3137287,4.6964808,2.1795957,6.470585
92.jpg,45.473625,2.1184938,4.010593,4.764114,2.6660376,-0.41428962,5.734347,22.03511,11.224053,8.396327,6.989034,18.141994,3.798882,41.263657,4.734042,22.791847,9.265481,0.36663812,6.8299913,16.355827,6.2820644,3.4673083,14.261275,0.88388157,10.778731,7.5566874,2.9314153,-0.83472824,4.584241,6.8005586,10.418939,6.727741,8.454446,5.6792097,7.3927746,8.41662,19.597107,12.590992,2.6031325,8.444575,4.653223,3.6782424,-1.1280488,6.341935,3.0665598,-0.20932956,13.7437105,4.6435227,3.5084155,6.2388453,-0.8534458,0.8744886,2.1499336,2.9165878,7.792237,3.4070153,0.94714,1.2447376,0.6348503,5.4716206,10.859729,1.7523589,2.9445484,2.8831646,1.8836381,6.8018494
93.jpg,22.778753,3.285753,13.578637,4.0714064,12.434387,-2.8000786,7.114719,26.973284,7.858422,3.75972,11.96468,10.598219,5.0835295,0.39551324,4.0782733,7.1298504,-4.1358833,5.1077127,12.825489,17.453194,4.710994,2.9047906,14.040264,-2.5727708,6.027783,32.20793,-0.31750762,-3.1449862,2.2164822,-1.274824,7.397932,4.1420116,7.314577,3.2937036,0.68547404,1.9954569,5.1902533,-3.0938938,31.974834,5.7705956,1.6101243,1.1356062,5.1998053,1.4192367,-3.9583228,9.495635,13.050606,3.1244853,-6.242177,-3.604398,1.0397187,2.150327,1.547471,-0.7110152,-4.1880584,4.195422,2.104414,1.8867913,-2.5526419,-2.4965904,-2.1056955,3.7959852,0.8459254,-2.4608514,1.0193312,4.3179235
94.jpg,23.732609,4.3635526,10.5206,8.480267,-3.887578,32.430477,21.032766,14.769668,6.66479,19.189657,12.9681,3.9844446,11.312751,2.2987778,17.240929,9.8089285,0.51574904,2.6108189,1.1281922,9.687378,13.895626,0.67020005,4.0931377,2.7129986,3.0760944,2.8867698,10.3649645,2.7282994,-1.1121787,3.685128,2.4315822,7.232498,1.3222919,-0.9080564,8.79058,-2.618773,-1.9146134,7.595841,-0.28879905,-0.033247843,-0.9685019,4.0138044,-2.001332,3.126052,4.2767086,-0.29857898,8.055972,10.242041,6.659054,-5.0183144,4.3826346,11.253809,-3.6945357,0.45028952,1.6077142,0.32151592,3.620217,-1.0643291,9.611591,-0.7478221,2.5690567,-0.088231355,5.183182,1.4859302,-0.08853255,-0.5732531
95.jpg,6.632753,39.83422,19.75762,7.6007442,13.749215,17.931961,17.816668,12.128616,35.616833,11.071749,7.2832556,9.760682,22.643108,5.126227,-0.30554724,6.6027174,6.0421176,14.509953,6.278083,-0.031215092,3.758803,4.391802,2.795147,6.834009,3.2777934,1.9043217,4.583075,12.5272665,0.93088466,9.417706,3.7863438,5.269325,3.0388608,0.63875264,11.62146,3.1626356,-2.2164624,11.272579,6.183974,-2.3481045,2.5203946,6.0019817,4.1159096,2.0780504,5.0463133,5.093494,9.387593,8.170832,2.8001633,6.8042345,4.547557,1.0713661,-3.2058027,14.27273,7.092631,10.168424,3.062107,5.3977275,6.2209463,-0.19338319,5.2367916,2.6187334,1.9961989,0.67217,3.296362,0.9940575
96.jpg,18.53444,15.66497,12.296491,1.2303541,11.247356,22.671396,29.732155,17.468391,5.6444283,25.286472,4.438144,-0.18978867,19.485622,0.5977833,0.27669877,-2.5579948,7.1453586,3.5322845,9.659424,10.986053,8.04387,0.3697248,6.2286696,-1.5249182,6.5263286,6.3462176,2.2183847,6.21948,-0.6819339,2.6790097,2.529367,6.44833,7.3299446,6.155766,3.598607,-0.37445152,-0.017916877,8.132419,6.325633,0.56423676,-1.2144424,6.0851345,-1.2005996,0.7934782,-1.2854617,1.5805936,19.28436,3.974841,6.988986,3.5564196,2.5914009,14.428379,-0.6425197,1.2801205,15.55381,-1.763077,-1.770658,-2.884374,2.2368362,0.3166793,4.049399,4.137384,1.2791376,-3.6176488,1.0869937,1.6411852
97.jpg,17.79609,1.6340077,10.037533,1.8998961,6.605231,21.401915,26.753244,22.786499,25.619534,10.050096,12.519482,9.727761,10.215141,12.246148,0.10088247,15.337472,-3.8026524,2.4058483,9.105516,9.017139,-1.4982694,-0.04578866,9.530733,11.486236,2.017429,2.3551962,-0.26035058,1.4629867,3.9993894,4.9191465,0.16199955,12.4823,5.7517476,3.5758271,5.750599,5.2988462,4.682635,14.846849,7.256636,3.438098,2.6380627,0.26218998,-0.0047019683,5.454016,0.24265237,0.013794773,17.706963,3.09775,11.491092,-0.10582274,1.7781545,12.464772,2.0711157,3.8858323,-0.6467783,5.6174097,3.0527437,1.2877938,1.9713774,2.4356802,3.6635578,5.5030766,2.076821,-3.5374153,-1.4610574,1.8903329
98.jpg,30.987701,11.640423,-2.096497,8.381369,5.3482866,9.105031,20.885008,17.050512,5.593892,15.097722,6.014966,1.0856857,20.761494,4.626517,5.2493277,-2.618229,-1.895041,17.198118,10.186031,13.271085,13.178943,-3.384284,1.4470965,-0.6512561,11.733309,6.8478236,3.0123067,3.5913818,-3.7381356,1.868502,16.828062,7.084146,3.2702625,-4.4767013,7.239829,-1.6808543,-1.3209271,-4.8859024,15.202912,-0.96630305,2.7863517,1.7175777,-0.16984977,6.9663353,2.12501,6.4801106,17.539198,4.4366026,5.534449,3.5587885,-0.4978828,26.366446,-1.1410848,-0.35331473,6.609064,3.3019412,-1.5442107,0.8171611,0.84937716,2.2104766,6.8732557,3.227614,4.893398,-2.3465142,3.9664307,0.16514845
99.jpg,23.796766,3.593474,9.046498,5.7840905,4.586392,17.883127,3.2373295,15.788691,3.6751468,11.622995,8.218126,19.117407,31.63396,1.865213,8.446832,36.27337,5.2178845,1.0888153,4.491052,4.0026226,8.316898,5.1777325,6.5273232,3.925617,6.306158,1.7901801,2.5669515,2.4791868,0.9152096,6.6755424,8.465451,9.427329,5.891366,0.053243153,4.820836,4.1451945,2.785046,16.669386,5.1457686,-2.4938612,1.1673623,5.945545,2.2499073,10.061941,12.059407,0.20848638,13.692051,5.942732,1.65109,3.3799715,0.47443342,3.068194,0.061946176,24.433275,6.811595,1.4115292,1.9466116,2.371399,2.1945934,-2.8186505,4.7407174,22.193064,5.9095454,2.7990737,-1.5516726,4.611618
100.jpg,25.440962,7.0401764,12.980281,1.358214,18.36127,20.309738,26.5802,18.572777,17.497196,8.802429,-0.12935148,-0.2973348,29.799837,5.1511827,5.4986043,4.0668864,-2.3480144,5.678291,4.88313,1.2912681,16.599525,6.105428,2.229217,-0.041435055,1.687428,9.21177,5.5288486,0.77661026,1.8295321,3.7265856,1.1286855,2.55727,-3.3723876,-1.3787385,-1.7058094,2.2211328,-0.5270786,4.235199,5.055459,-1.2025971,0.73632824,0.59465915,4.6686997,6.912185,-3.0640185,-2.4088998,6.586462,5.8407083,10.67755,-3.185204,0.6927651,27.659834,-0.8294625,3.8221822,5.7609744,0.9069561,2.1522431,-2.6967769,-1.3031588,-4.3022723,1.8859539,3.9632163,0.61728793,-1.0078524,-5.6438,-0.59971756
101.jpg,19.098696,5.595396,9.109802,6.1568575,-1.7391324,14.376277,15.559764,21.592339,25.895775,2.4318972,8.804836,18.418823,11.478119,8.145287,9.72085,38.83357,0.19945818,3.0042002,10.045591,14.871992,3.5375726,12.211887,9.544028,6.504603,6.6889024,2.5258918,4.8635178,0.7537093,0.8594377,2.2061865,-0.2566949,10.225897,5.1041203,2.2498543,3.3008988,3.7173054,1.0892473,8.138355,4.462965,-0.25728756,5.7854614,0.31147626,1.9048959,4.621102,5.513444,0.42620078,14.36885,12.149503,4.2507396,-1.5185499,1.6037811,3.986278,-0.06853505,5.5060053,5.499323,5.7233615,4.078321,6.5679035,1.4873965,3.5622582,1.6102154,23.538687,1.8716481,1.7878525,-3.0402675,2.3229828
102.jpg,31.18462,15.938757,1.339362,0.34408692,3.8348205,9.691357,11.185315,10.825384,-0.38887504,8.128356,20.6139,13.387453,6.6538424,4.3102818,15.525139,-2.157215,6.3969707,38.22272,9.967173,19.724724,14.813699,3.153197,11.948069,3.935777,8.553837,9.275354,4.199353,8.795026,3.7953176,4.2197137,12.234519,4.837086,-4.6525636,-0.020271586,10.803398,-0.12691244,3.2856486,3.19997,1.4288011,5.145403,9.209431,1.3967282,-0.971427,8.854767,3.4754052,8.908604,7.35416,-5.6829185,9.822367,13.947023,0.99967456,8.811103,1.169058,0.09991452,0.95588666,3.233772,12.323043,-2.4661179,0.2520398,4.9561944,-0.48532188,0.34703583,12.146401,-0.6262484,8.8513565,3.4961827
103.jpg,34.076015,7.142443,-0.58256227,-8.389957,-3.2086666,7.0869102,6.3205347,36.99639,1.017648,2.0410764,8.244148,18.379328,17.777458,-0.8870136,3.235225,8.737783,-1.591245,12.980167,13.234523,6.962085,9.894935,1.1542045,8.032575,4.8888597,4.8106923,3.3623748,-4.1751466,7.51396,-4.1461864,0.6588876,4.1853437,0.7749288,4.4634485,5.123811,7.1230164,-3.268107,2.1216693,1.9437339,10.175124,7.121609,-1.0512348,0.19809599,-0.47875586,6.454117,1.0429232,13.694466,13.968205,3.1849875,-0.04769578,-2.6452518,4.2982235,10.918585,5.0083423,11.508425,4.2940297,0.7832771,-1.8976822,1.793975,-0.005599577,-4.2374077,-1.649546,6.4387097,-0.23893067,-1.8071718,3.750807,2.1297421
104.jpg,44.269466,6.7220054,3.2869928,-0.8608844,-3.4303718,2.0836134,2.290297,49.73545,18.854319,5.288186,24.530865,4.8969026,-4.6118336,12.31163,-2.8044636,3.7523494,10.821612,7.5827966,6.361605,8.347214,-0.050958317,0.6403546,2.588563,15.405811,1.0599682,1.1674905,2.7865481,-0.9574389,0.40708745,12.61363,2.0933237,0.8157149,5.7171044,0.1842659,22.157124,0.8819106,3.4253345,0.6308443,-1.1353133,-0.18689437,2.084823,3.716722,0.81111246,4.359152,2.7703834,4.570173,4.3131795,-2.435694,2.8557956,3.3771732,4.793448,0.14915115,2.2857916,0.33421266,2.9306273,5.334636,1.7797291,1.3685392,1.6453638,1.8121712,-0.5401481,3.4811635,5.59827,-1.8008544,2.1538756,0.87385756
105.jpg,15.089083,8.509689,10.006157,25.624073,1.7563902,47.115993,20.621061,2.9366162,8.278918,18.793497,8.406017,25.372293,2.5867233,0.5583924,11.09022,-0.325711,1.9132124,0.69015324,-0.8788347,5.104343,3.549831,11.147961,4.593484,6.843289,5.030039,-0.15332168,0.8693615,12.435165,10.323635,7.597518,4.3845773,0.68937933,4.1054583,4.160501,7.124861,7.6853795,0.3634981,14.910075,2.1157782,3.8348563,1.1718218,13.434694,1.9772956,7.244158,9.3002205,9.44275,8.38487,4.722664,3.639547,6.249513,5.231012,8.236365,4.2882757,13.664988,3.2435372,3.908692,3.1387038,6.106391,11.728593,-0.49577108,14.833609,2.7281551,3.0105782,8.6135435,4.944844,4.8249035
106.jpg,16.806515,5.8932357,3.1064925,27.259285,6.6387544,18.431454,22.18526,-0.4872304,6.0880117,14.97669,1.3799537,33.50143,9.909859,-4.755479,43.837288,-0.8834206,5.5969963,5.684308,6.297505,17.374731,1.2448525,4.0949655,9.008007,4.148133,7.0097537,4.592312,0.6459037,0.102838874,1.808827,-6.2236795,2.3299801,1.3069224,8.128292,-2.1872036,2.042556,-4.142827,-1.7950367,0.88921815,4.373383,1.2642244,1.3297094,2.501934,4.3284655,2.761684,5.9602447,0.57450217,6.8857813,3.404082,6.8771853,8.993443,-0.35289693,9.205404,1.1991737,2.512886,2.787837,-0.040956818,-3.9481447,0.6571684,3.5501041,7.3311553,3.0528862,1.6076009,0.78301674,-0.45186073,-2.4003444,0.4010617
107.jpg,14.107736,19.258816,8.638029,-3.210235,6.9942446,24.931295,17.32257,23.721245,4.749476,23.869406,3.4949553,1.2734061,34.582893,-3.6939292,-0.49039906,5.689764,6.608081,4.824014,6.406085,6.802841,3.9414735,1.1622185,7.138921,0.52593875,5.893833,2.2725887,-0.7957833,3.5229115,2.2134545,0.93683505,4.883752,1.7967621,2.5621784,6.9498754,6.5222883,0.8348707,1.1249045,1.4132818,9.090976,2.1737998,3.8062832,4.494981,1.1741465,1.042646,-0.88730294,0.113777354,19.324482,2.8184462,1.3584815,-4.924878,-0.03087148,10.533502,3.8732796,3.38488,10.534093,1.4665073,-4.0717673,3.2796602,0.32160607,-0.064567015,5.0085497,10.022843,3.92338,-0.36922312,2.8725908,2.5177674
108.jpg,28.828495,-2.852673,21.58824,-1.4739637,14.41607,9.953195,4.5887218,51.119186,20.547462,12.615007,5.225932,5.6701307,25.826975,-6.40593,5.7818947,14.70432,3.7360523,-2.0049534,5.2069693,3.8730972,3.664345,0.6073161,4.076267,2.194456,6.0015254,9.564159,3.8839936,2.4742055,-3.2428808,3.3069582,9.001046,2.829116,1.3836675,-0.42436063,6.442958,2.358199,3.5834808,8.734838,7.800653,-2.7427719,2.1790628,0.97950584,5.275192,0.12178682,6.1632223,4.408721,12.659084,7.1270556,12.517362,0.35094485,1.6785333,2.6991296,0.18406156,11.676064,12.051432,3.8752358,2.595656,1.8391792,0.6184834,-0.3960449,-1.929773,2.1002543,-0.663532,-0.70827484,2.858027,1.4022274
109.jpg,27.443535,8.523642,8.17821,10.54186,4.6508884,38.63906,15.513552,4.1375422,14.406577,17.267126,42.641914,3.4767122,-0.70209473,-1.9933145,29.861181,9.3207245,9.519759,6.417166,4.462534,10.123344,-3.6496274,2.7424161,-0.4986613,0.08433713,9.207252,2.4524832,8.379911,17.541021,0.5828748,3.9738667,4.405044,10.651161,-3.2442079,-0.7575819,7.6252007,1.9831591,3.6966887,10.816471,0.6212431,0.08684229,4.3139563,0.5959969,2.624357,2.0662937,-0.56078154,1.1453393,8.452966,2.5237749,11.412828,1.8719215,0.8753054,4.8751936,2.0760748,0.9080203,5.9139543,5.6112013,3.1322937,1.7090045,3.0038135,2.0966117,7.72191,6.1927996,4.665776,-0.07712552,2.9289489,-1.6481776
110.jpg,33.480354,4.803432,8.311444,-2.1225836,1.7520558,20.254765,12.0489235,21.890905,8.227274,6.48195,16.248432,2.1259267,10.22134,12.69127,3.0236907,-4.128275,4.517778,3.1726544,8.941593,10.091763,8.537158,4.154712,4.912554,-0.94972336,7.2826467,7.204771,17.538721,2.5364375,-0.060610846,2.9254045,10.051471,3.5723426,15.478778,8.855774,2.8079655,1.4935385,1.5479263,7.269004,12.688735,2.9936585,7.3278666,-2.0292926,-3.3221762,2.4432983,-1.8374156,1.5682343,24.792273,0.4783599,7.7938294,-0.25590166,2.3185296,13.663122,4.061199,-1.656441,-1.4166211,10.1741295,-1.1867299,1.923517,0.3844645,4.248688,3.3588219,-2.4133606,6.237444,-8.25537,0.030931132,5.529322
111.jpg,24.078466,0.8809626,-1.0917017,6.733252,6.642913,25.349247,1.9572437,59.488018,12.739889,6.965146,8.0556,2.1149955,22.905529,-0.8104826,3.8892362,-0.7238699,-2.3184602,0.5360784,3.1285644,1.3902678,7.922179,2.2916708,-4.8237596,11.618726,-2.3825247,1.8057277,0.48254105,9.239376,0.19589835,0.6426906,3.0618577,-2.8141398,0.084665276,1.9279457,13.607729,-1.1946062,-0.58184284,5.9637623,0.37255952,-2.8309493,-1.1922913,3.0018163,3.725668,3.6107204,1.9019891,1.630728,8.018717,-0.22073574,10.317792,-1.537794,2.9914567,3.5740666,-0.66240346,1.027408,10.861622,-1.570948,2.0876021,-0.20945165,2.7746325,-3.4599717,2.7479396,-1.1197805,2.79985,-1.0602534,-1.1656487,-2.4649227
112.jpg,16.992853,4.1187944,11.995177,0.5182284,1.3198996,12.697175,6.1130805,15.270508,1.6523993,0.31397772,7.8246913,6.2860875,20.754856,5.614674,10.662646,10.025193,4.039637,10.958118,33.736988,8.362481,11.745827,19.31101,-3.5198557,8.621711,4.182185,5.528632,6.5428815,4.8438487,2.3547463,-1.8448582,0.07129899,4.883766,-0.027137017,3.8044136,-2.7225552,0.011890009,-4.1650996,2.0368993,12.592212,-8.321808,16.49992,2.2861123,13.037227,4.204685,1.3205068,3.537223,2.6981647,7.82853,3.6986842,-1.857083,-0.7879856,3.8424134,5.3326516,-1.731338,0.37052625,7.461128,4.383343,3.536404,5.005624,6.283044,0.973575,29.583818,2.9842572,1.1434948,-3.5288737,2.8858933
113.jpg,17.568048,2.6875155,13.886995,3.6162534,5.8779387,17.682156,16.829405,27.670055,23.82889,-4.0266676,23.139462,5.0337744,15.465265,-7.9270678,20.64635,9.0166025,3.4401948,-1.2604687,2.8344586,11.587615,2.2261453,0.5881502,4.0321064,3.0599666,4.828715,5.414454,1.6864378,1.4678724,4.320338,1.7226912,0.63084376,3.8299594,5.6996093,1.842308,-3.6769643,-1.3023723,-2.8349571,8.538799,10.215064,1.3569901,-3.6787722,-0.4430794,3.639386,4.9526587,-0.4426597,-0.57958484,16.116066,6.827809,16.892344,5.9715657,7.7912426,14.035132,1.1164043,4.283325,3.8170166,8.063354,1.9478102,0.14301464,-3.116937,-1.338958,-0.2694022,8.442423,11.60538,-6.156704,-1.1410687,-1.8043017
114.jpg,14.749579,1.4906468,17.454441,2.231696,21.857124,6.466733,3.570123,24.857697,8.349318,11.996849,1.8282857,-4.576357,36.230316,-8.312282,3.9322224,7.7325673,1.6957674,9.203669,33.466843,3.3226087,27.780182,7.004326,8.109717,2.4914944,4.8546443,9.917268,1.6221824,-1.4473914,1.6024321,-5.508676,4.5644355,-2.5940762,2.5366971,7.3106527,6.9817357,-4.2619076,3.4574914,2.580402,3.4029365,4.13548,2.7299511,0.030974764,7.9021797,5.334851,-2.2268999,0.045091704,11.727135,6.052546,4.5708795,-6.2468843,0.14375085,4.406449,-0.54789364,1.2722578,7.476363,-1.0945151,2.2702942,3.0960727,-0.12028217,-0.5121442,-1.5270562,7.309572,2.6567543,-6.838516,-0.6214652,2.715213
115.jpg,8.159123,43.594074,8.264519,14.371162,5.239726,11.775728,4.906012,14.589855,30.263514,-3.385769,11.58098,19.01478,-4.9346647,-3.7996671,10.165989,1.2696227,0.5717292,9.58202,2.9920437,16.194794,-5.086954,3.1132169,11.786696,6.683319,0.718493,1.6434859,1.8990802,7.4267044,6.660342,7.3933306,2.0350106,-3.0663972,7.2104073,0.53717434,6.7544093,-1.0529268,3.5818145,-2.0943208,-1.4549071,-1.4678909,-0.49689874,0.14013341,3.3729718,-0.5980597,1.0053337,2.0000715,11.635666,6.116496,8.887534,8.570661,8.328698,2.378251,-2.6455467,4.5810275,3.2771409,1.2680362,2.764016,3.005473,0.98038304,3.852152,0.84058017,2.1313384,5.624432,-3.6187677,-1.0146203,-2.6253808
116.jpg,35.32572,45.85203,-1.063413,0.76195,5.4131308,40.93598,9.682896,10.224651,0.33601123,8.994711,12.427804,6.869705,-2.2770221,-0.81130517,0.2124942,-4.3964634,7.858327,15.923158,2.166018,9.2750635,-5.655441,14.275065,1.5758308,4.2515593,10.454353,-1.5501287,4.952075,24.369484,-0.71123016,-5.5156713,0.7993714,1.9399824,3.4636655,2.3436456,6.0283036,1.5136693,-4.8685923,6.8004413,5.802547,-1.2921566,5.2608294,1.3718547,2.8055236,5.2665734,1.5894048,1.1401825,14.984949,1.0374053,3.9037108,2.4099667,-0.7974155,7.129835,4.111197,-0.3780155,-0.598454,-1.9941651,-0.9583284,2.9491057,3.0456219,4.6370163,1.5437335,2.7316022,-1.4647658,-2.2214696,-0.71309954,-1.5302513
117.jpg,9.176067,11.64528,20.753275,9.473063,-1.1622716,17.906591,26.458609,19.27227,32.282806,13.754298,9.974206,15.008551,2.958358,-1.4390612,18.042204,8.213557,6.8557596,5.0348153,7.17322,13.001879,1.6792934,0.43473476,5.773099,1.3225336,3.0560372,3.1086862,2.611632,3.472542,2.314441,8.097904,2.0000684,6.0021105,4.4592338,-1.87725,1.2171798,1.1929376,-3.234439,2.180852,6.580252,0.31737956,-2.561807,6.1282253,0.2690735,0.6736733,4.2564535,1.2478514,11.71998,10.038187,10.492156,1.2504046,4.0048404,3.0894458,0.3044745,8.968546,10.079654,5.258044,-3.1871133,1.854356,2.7448657,-4.0905886,1.2155002,5.1590104,5.4267945,-1.5506866,1.8638108,-1.7178258
118.jpg,29.007032,2.355857,8.680588,3.46453,18.12515,32.127823,-5.9071126,24.965483,6.96989,5.1151376,12.90263,-2.006653,37.38513,-6.297648,-2.5872905,7.877134,-0.13456559,4.567926,12.984133,5.5675616,9.764762,4.786373,0.025228038,5.1388845,6.344129,0.54804945,1.0567186,8.24233,1.7464604,-3.130867,4.729681,-1.0858495,1.0613565,5.3487473,6.6198835,1.5293561,-1.8331034,12.169545,4.6807666,5.3985877,0.577717,-1.2328731,6.4330688,16.61028,3.287663,5.7967834,12.293405,3.156032,15.845164,2.6609745,-0.44803423,11.51113,2.2691116,2.7036548,15.24584,-2.2510839,8.276936,-0.5976363,3.573729,-0.8197492,3.5132864,3.2899704,6.077634,-1.9880503,3.4259088,-1.6458051
119.jpg,14.649812,2.433869,10.3875885,29.863539,7.479024,18.604858,9.072272,9.66668,18.866837,11.085047,4.2455564,9.510417,9.207228,-2.936608,12.548751,27.97451,0.9105035,0.9160066,4.4242053,16.433794,1.0037566,15.536855,10.6103115,0.27837175,11.043116,5.869428,-0.7784846,2.4924922,6.39028,-1.1605355,5.748322,3.2126672,-0.14442047,1.9732896,0.35712552,2.4816048,-3.8493135,8.124389,1.6673133,1.6869713,1.758934,1.8936615,-0.19518352,8.844908,0.31820112,0.01894352,10.217369,1.8003393,8.034699,0.5147708,0.66998863,2.553354,0.7398032,-0.63073474,-0.76138675,-1.519445,4.4616,0.17975987,1.09847,-1.5340573,-2.6020136,3.499653,6.1898417,0.8383369,-0.5301008,1.4206486
120.jpg,-2.8155782,20.155045,42.19467,4.7648997,18.278555,0.46476763,6.728914,3.520212,3.0717049,8.165879,0.40804866,0.8699559,2.4195743,9.706489,0.7799711,-0.5502229,-1.2104216,1.0440575,44.8738,5.0157475,12.888877,-0.65971166,9.472492,1.1189063,-0.33019438,2.5690641,1.4093068,-2.6800604,0.61271125,2.8685691,7.116918,3.2459602,7.1621394,6.2610006,-3.4962795,11.177245,0.44556445,2.340485,-0.285136,15.017965,4.917885,13.0260105,9.554687,3.2056127,8.714722,-1.9951735,2.3709507,3.545761,-3.30843,-0.8444937,4.7526793,0.037727877,-0.28153408,-1.1833018,-4.5503745,5.46458,1.6629457,-0.107440814,3.9486115,-5.1651707,7.1026707,2.2866416,0.3556421,4.1682763,-2.4053879,0.8492207
121.jpg,15.327586,37.3683,9.5113735,7.6778665,1.6347442,16.898561,16.993618,17.277428,29.566294,7.8131876,5.085362,2.2709167,6.764432,6.8763533,8.291783,8.917955,0.30766603,30.648596,9.063153,8.678829,-2.0663772,1.4092442,0.70029783,3.9793472,4.3062954,4.932279,4.217551,4.105335,-0.53260654,6.2723756,3.353098,5.385014,-3.1571877,-0.1732911,6.625207,-2.64761,-0.29173493,10.440018,2.084244,1.42683,-2.6939027,0.51184326,0.80494714,6.9191136,1.2052393,1.9547172,7.055598,4.1519265,-1.3895531,2.2765312,6.1134086,9.692208,-1.438983,2.687403,3.398674,2.137015,1.2050673,3.989484,2.360056,-4.12753,3.4631855,7.3612747,-0.12369009,-0.059395842,9.029454,-0.33881637
122.jpg,37.53024,2.5987484,15.846406,-2.0688934,0.12900713,10.072644,9.6598,44.358177,7.604324,9.814417,18.914875,1.708694,9.216079,7.6688848,2.977674,12.864192,-0.81163615,6.3378735,10.037557,4.8746266,5.9701705,0.043510832,1.6699582,1.9224186,2.459742,24.615547,3.0016358,-0.17501587,2.134642,5.457177,7.67262,5.985049,-2.3868914,-3.4466412,0.8284254,2.326308,6.6938996,8.246888,27.89084,5.0674176,4.168683,-0.10586276,-2.39018,5.658083,2.175191,1.9333735,14.143867,3.545599,0.009881565,0.33625615,0.8531046,8.889778,0.32349387,2.7593024,6.7808957,4.9444184,1.293608,2.393791,0.2301094,-3.136658,2.6226847,3.1499782,2.2521086,-2.9606698,-1.9568881,3.6326158
123.jpg,9.826965,7.753037,11.613664,5.0691943,9.062354,5.482962,26.69817,19.741983,14.617473,6.119052,-0.10682221,7.951159,29.339087,-2.4714704,4.3325944,9.766221,3.1812973,7.2021155,31.339737,4.101297,13.310912,11.036616,7.7760057,5.531128,9.321131,6.1453114,9.636099,-2.5789137,1.0234658,0.516016,5.153148,1.9291408,0.43054026,2.4116118,-2.3912823,0.78881997,0.2700695,0.55013263,12.41721,3.0507426,7.599901,4.2521434,3.798829,12.607434,3.7633934,1.5430282,9.944287,3.425345,4.830108,3.8528378,-1.0452775,22.92964,3.717051,11.065662,5.1950955,0.45174378,0.14579143,2.0894294,3.2715626,1.5964851,4.6353617,8.302388,1.5611212,-4.7607145,-3.8758087,2.516685
124.jpg,22.959295,10.844183,11.656762,15.24868,0.75034463,5.7666836,8.146864,3.1564195,28.587448,3.5226285,24.42084,10.004573,0.8238172,2.1036253,12.376764,3.9081037,7.4163857,17.067255,3.0077856,6.999857,5.415461,11.052412,-2.3817708,2.834003,8.400336,9.941602,0.8985318,1.3923323,-0.43271157,13.344407,8.468854,3.5896063,4.8888736,3.2558017,9.654943,-2.2071311,6.366968,1.3669174,-1.4136289,5.432627,11.767001,1.7369324,1.1497673,2.3816288,1.4674293,15.221749,8.511643,-0.8480989,1.7812308,13.653699,0.7184019,0.6366948,6.151069,1.9574456,-1.9208673,6.2531734,23.312557,0.70929426,4.472631,3.0249593,2.5732512,5.989052,8.241437,-1.2828083,6.087947,2.6716888
125.jpg,37.36455,-1.5995632,10.798713,4.9764667,1.4237189,5.6667128,16.449013,39.64401,27.738554,7.4026413,26.92321,0.49114096,5.175312,13.4473715,2.283473,5.9710684,1.0121715,6.2726684,19.066494,2.6998618,5.4698405,1.0545886,0.5084397,5.2277846,0.1503305,20.954636,1.0720664,6.1828113,-2.5464866,5.371136,3.308469,8.4391365,-1.1280546,-3.474707,9.785884,4.982041,5.4248257,4.731345,21.291945,8.392577,4.406793,0.07723379,-1.2947187,4.5513945,2.7550216,8.721201,5.8527365,1.4721639,3.9160502,-0.24679704,8.329256,11.96871,-2.1063805,3.5323017,4.1140223,8.013499,5.410564,0.780427,2.2036374,0.07330508,1.9583546,1.5028498,2.399241,-1.1819092,0.7106746,-2.1468968
126.jpg,26.423943,20.701622,11.689947,-2.1969817,2.538111,5.0663667,8.482311,17.427145,14.959153,2.4410956,21.057295,25.649109,2.1193926,5.4065285,7.1084766,32.8574,-0.32347435,2.1835818,2.536722,21.097704,1.9796308,1.6009827,13.129687,9.217973,7.0240073,8.775018,-2.7096808,1.3585736,-0.72316474,2.876933,2.832948,7.320327,10.083175,7.7470465,5.2155538,5.2493086,-6.1361217,2.4708872,1.1196613,-0.8637351,-1.612407,-1.6875755,6.856827,0.6339253,3.8768272,-2.4473474,17.005552,-0.121214524,6.186401,2.035832,3.3196673,3.5508628,4.878574,8.505336,4.047418,2.4275475,4.0470304,-0.6977257,3.4362977,-2.9626713,-5.0584974,2.4843693,10.376115,0.7880426,-2.2923064,-0.6558886
127.jpg,18.336864,10.060462,15.115045,4.8722305,21.996414,24.724657,13.993971,22.584356,4.894636,3.5145109,4.1122403,2.398114,30.770931,-8.003989,-0.6815397,-3.1503878,6.1657643,2.2485895,8.513166,9.394498,-2.4609547,5.2093616,-1.9433724,2.958923,5.8065596,0.5562968,4.892617,-0.10250947,-0.79213464,0.32686245,4.066049,-0.30667618,-4.2453218,2.083122,-1.303356,-4.018797,0.25010902,3.4018297,9.214593,0.63566583,-1.981975,3.0340223,2.8381672,1.7792262,1.1477166,-0.8086268,8.14566,3.1069512,5.061968,0.4903795,-2.0980525,9.094331,3.197834,0.494802,5.0882444,0.74710304,-4.133765,-0.3419169,1.8334833,-2.493351,3.6320515,5.088788,1.831609,-5.8833723,-1.1726176,-2.0356083
128.jpg,26.28259,6.363003,5.9896345,17.93825,4.559502,11.507849,2.5225928,8.612356,28.48163,3.600522,7.48944,7.7105703,2.8066776,3.1973898,11.706371,25.471958,6.0435476,-1.671217,2.558322,10.785883,-2.909655,7.0558696,3.2413502,6.172871,4.200815,11.017216,8.097354,-2.8464668,4.055956,11.75335,7.709984,4.8517594,-1.5706996,-1.4050242,4.2148128,4.2036014,3.2572236,-1.168352,3.5915084,-3.8282185,-1.4105748,4.524516,1.6618146,-1.58535,1.5684657,2.4219344,2.7875948,6.354035,2.953653,1.2217058,3.714785,0.55446523,2.09871,-2.1336696,-2.7719498,5.2222667,12.9021225,1.9555523,0.61230075,4.196945,2.5898867,-0.1841514,4.9525557,-0.52537453,8.2975235,0.6089393
129.jpg,11.523875,71.892075,4.189206,2.4062178,5.409786,19.156017,10.041984,3.773281,0.85243833,7.0690074,10.346233,12.411571,-2.5710104,2.6995149,9.802212,0.30167982,4.012889,2.8000062,4.412402,12.044386,5.733908,2.3229506,9.714477,3.144623,3.4097307,4.007626,-0.5101239,7.1798825,-0.7645806,0.043695513,0.9184872,1.2462864,7.353799,4.8115,0.9760458,-0.28820932,0.44950983,3.0279624,0.56582487,7.103245,-0.21583438,5.7081094,2.5208888,2.2241056,3.5916102,2.5155897,11.155925,1.5796157,9.78655,0.5656358,-1.0223093,7.008889,1.5837761,4.7912292,2.2803586,-1.3361886,-1.0361192,5.8098664,2.882779,2.7848232,2.5032,4.583298,4.1800556,-1.8429492,0.82038593,-1.7947979
130.jpg,7.5403705,20.304256,19.451368,24.41759,4.3728356,41.43048,18.121037,9.372869,20.279211,10.211816,8.337237,7.35635,2.0242019,-5.178634,6.5558887,-0.73451114,1.8294625,7.635792,9.57921,9.089158,0.13908148,12.242074,-2.1062713,-1.2754585,3.0100846,2.612163,3.8703885,2.2734199,5.5035157,9.894838,-0.9604306,1.7408367,2.0466077,2.5930495,-2.8996015,0.29457334,-2.020046,18.50221,0.43548197,3.043573,-3.7889452,6.2184043,-1.5508572,14.82052,0.54635274,4.7082405,4.1066422,2.801239,4.0467477,-0.94835347,2.7748961,6.079704,-0.8900595,3.0840204,2.389402,-0.25905427,3.0839715,4.1723742,-0.091927685,-0.67416245,10.221465,4.744011,1.7015647,4.5334206,3.617274,-3.4502518
131.jpg,0.46118647,5.402993,22.544582,6.9302907,0.75414443,8.388344,0.08864878,8.073607,26.826534,12.068894,0.5556645,14.065586,14.503485,9.0808325,2.408776,24.591724,7.1639376,12.920773,40.32715,6.561984,3.5387032,7.065687,-2.0812924,5.105567,11.625158,-0.2539949,3.436736,0.8277611,2.9512408,9.684878,9.036363,5.619205,1.1201041,-0.85010827,3.6289892,4.071816,1.1560485,6.3215733,13.789907,2.0693462,1.5533301,5.2024207,5.3730254,11.830659,6.635943,6.6560926,2.0112712,3.0400765,-0.8161878,-1.0956435,1.5739169,5.1961727,1.7694451,5.6947308,0.96004456,0.43095654,-1.432843,0.39071003,3.181953,4.6381845,2.116937,5.2536654,-2.9172115,-5.4204535,4.57093,0.6427311
132.jpg,7.9777536,60.60914,23.135994,5.5131154,6.8227954,-1.186645,14.407831,2.2733119,24.867493,10.756527,4.1316047,7.161253,0.67002743,6.1796994,5.541646,-1.4044063,6.3362346,0.85599905,4.6178527,13.926765,7.20642,0.6223429,11.709861,2.306735,4.495777,4.8463182,-1.3647857,2.8472376,1.409462,8.132876,7.567978,3.2950516,6.1142607,5.833822,11.063768,1.7072588,6.882789,4.1905837,-0.5018218,3.4659407,0.64846116,5.3028703,-0.25370532,4.9494853,2.607656,3.066424,4.255869,3.9536278,6.921379,4.5693827,3.5592682,3.6406436,-1.2515522,3.5890455,6.8997054,0.5252865,2.2302117,6.2126694,3.0731785,4.820199,4.0051775,3.7441463,2.5509577,-0.47283313,6.5088897,0.07827133
133.jpg,21.191984,-3.5358257,-1.7126541,6.1362033,-0.40116495,21.45333,13.454409,28.276657,4.932678,-2.2319272,10.563505,15.519547,23.733227,5.07723,8.178454,16.644218,3.5899136,2.6925888,21.041082,2.1664612,7.900249,-5.5586796,6.9419804,5.268087,7.133889,-2.0210161,4.1080813,0.58505034,2.0244906,-1.8278311,3.0662222,1.163289,3.8375854,0.27383187,-0.65234435,2.357336,5.1921806,3.166947,9.150733,3.7568133,-2.0036895,-2.3708065,-1.2492888,5.1756587,0.42964107,0.0727295,19.49136,5.3492656,11.216135,3.658404,4.3899198,15.754944,2.9525602,7.474056,2.9483297,2.1921256,-0.5715542,0.6154385,2.0672026,-0.47604084,5.2768793,5.0078697,5.1636453,-5.108124,-2.5115485,-2.0774863
134.jpg,-2.1141927,7.54294,16.3869,20.520082,-0.5341733,6.757625,18.982922,3.834467,26.498573,1.3368468,8.229079,35.703953,-5.709945,7.654476,23.762434,12.137175,-4.0436707,-2.4402964,-2.153715,5.960127,-2.531173,2.023371,3.1614504,4.929521,0.73493516,-0.23095384,4.469036,5.2150393,7.341006,5.2602196,-0.8993313,6.32454,2.9542587,0.5849689,0.7665187,-0.5801761,6.347467,4.3605833,-5.930563,-2.1929145,0.31402278,-0.75577295,0.9762035,0.2967665,4.210517,2.1478555,1.8086808,4.657568,6.2203107,1.215845,6.4841046,-0.6105171,-0.42954254,28.277365,2.470522,4.6504507,-2.7566988,2.5732875,1.0773113,3.4006157,1.696467,0.2048038,5.063958,1.8641468,-3.5998716,-1.4612311
135.jpg,29.238781,5.2476687,-0.10489337,4.558181,-1.548076,7.3590703,16.952116,24.810621,16.768356,3.4714665,7.991572,7.795799,18.311638,4.1024456,11.859997,5.6954465,-0.40107867,3.3160274,4.7101574,8.2554455,5.9921355,1.2714592,-0.6695116,4.072815,9.009645,7.569141,3.4205098,5.700249,1.9176702,3.285965,2.0909262,-1.8119037,1.9967906,3.4629655,8.260452,2.6269138,1.2614294,0.31259012,2.2920334,-3.8570955,1.8855658,4.710691,-1.0123497,3.3853748,2.8182416,2.7620077,9.844335,9.816616,4.7066236,2.0398874,4.5269275,14.606449,5.900079,-0.35144398,0.9248417,4.827667,1.0946089,-1.3842305,-0.10322854,2.9991078,-1.9004513,3.9338365,1.4482701,-1.8560708,0.63236356,-3.1327426
136.jpg,20.173082,22.61435,21.74493,7.9295487,25.560888,5.5964494,9.218442,28.37624,12.351682,6.7602577,11.053552,1.6140461,35.576828,11.578882,3.1217835,5.6593614,2.9676456,8.163953,12.027791,0.31515843,10.043226,7.223255,1.3798585,2.0979373,6.187415,5.4990277,4.451259,8.529617,0.043405406,2.557013,5.490729,7.3258796,11.213041,3.732703,8.392459,4.1228175,-3.4985828,2.2527242,26.82962,-5.82117,2.2827036,3.183994,4.5818224,9.439373,2.9006631,-2.1409106,13.720335,6.1992836,3.8975863,0.36871457,4.1077504,9.44401,-1.7043806,2.9707625,20.715652,7.234348,1.5099051,6.041736,3.801804,4.1594276,2.1502287,5.181992,7.916261,0.6667003,0.23466899,4.5712657
137.jpg,21.786182,1.3961293,26.66944,15.618403,2.5905478,9.326936,24.361172,10.932597,42.173916,6.0546966,6.5790863,-0.16061747,18.874409,-1.0263088,3.4020345,5.040161,10.401093,1.3150595,13.721628,8.678796,14.125745,8.74197,7.4326963,3.485049,5.5000052,20.739214,9.825851,1.5229301,0.22429712,5.534038,5.995049,2.3713305,3.4164314,0.1116422,2.1209037,2.983366,-0.20165192,-2.5871935,10.17871,1.550838,3.5325065,3.6496906,2.4514234,6.0479736,3.0812745,0.32871372,9.653884,5.233304,3.3895037,-1.9616501,6.668742,21.05904,1.6927888,13.007501,5.3393607,4.9997,2.8024216,-0.43587685,2.3354776,-1.0678265,2.4464083,6.1912403,1.0324627,-1.8974012,2.4835715,1.1000898
138.jpg,20.40352,14.038643,11.172735,6.789548,7.4070907,14.347705,13.896055,21.935389,8.937669,11.868503,-4.7558517,-0.29215068,29.198498,-1.5980195,14.661106,13.511104,6.325797,0.99581826,1.2380811,8.799019,17.434387,-0.27862272,9.66813,0.5741057,8.791132,2.8422778,8.10308,-2.1720772,-1.0863224,-1.2249413,0.8920858,-0.38390902,6.440401,3.869366,-3.8397079,6.66301,3.3152773,3.9794014,0.02666302,-6.842226,3.8358483,4.4553475,-0.28561768,-1.79346,1.1539022,0.25178772,11.232937,13.062118,2.616061,2.9681082,0.7425615,12.851998,-0.16692579,5.306712,6.8874903,4.038841,-3.254994,-0.094118625,1.4291358,1.8134911,3.703744,0.6291729,3.9916263,-0.598609,-1.2872936,3.719388
139.jpg,24.588144,6.2308073,12.11269,8.157014,24.210627,37.98011,12.038749,16.272928,3.0625005,15.106986,1.7431892,5.403409,33.797245,-4.922853,9.105663,6.2395525,-1.5659839,0.27557433,7.5720005,10.442728,6.948933,8.039311,5.1499496,0.4237529,3.0912828,-2.5310042,4.3683434,13.911713,2.3778975,-0.36607832,5.845006,3.2285533,2.756511,0.57205474,4.8859944,0.16009411,-4.084653,4.2175164,7.2188773,7.0249977,-0.64054435,3.2289672,9.2032585,1.2952492,2.1826174,4.3656883,13.864195,1.9124044,9.980915,-0.7536125,2.5316277,6.297133,-0.8703866,1.9228644,3.2031984,2.8111315,2.5865917,-1.2115258,2.1870515,-1.2499218,3.062103,3.6448307,1.1547158,0.6848108,0.7411477,4.082871
140.jpg,29.88728,-0.28530854,3.3393767,11.766459,4.265743,15.158692,6.383118,49.759567,6.885526,8.748479,9.101572,1.3295277,14.624512,-1.4768616,3.4965138,9.938799,1.0312011,4.859855,52.810226,2.3633692,3.4748476,9.908633,-4.7805905,0.11086408,4.2792416,3.6848729,4.042869,4.100288,1.3360533,0.07862672,-0.0076482072,-1.9714766,2.8555408,-0.43241447,5.578766,4.16892,1.176277,6.2377543,9.428463,8.359027,-0.49564093,4.3031635,6.0614095,2.8211114,1.5996042,1.0834401,6.73144,5.201475,9.897496,-3.3060377,0.11985726,3.8523927,4.233016,-2.0847712,1.6851176,0.11304919,1.6385684,0.4187339,0.28511858,-2.4508233,3.894284,5.4358253,1.6133292,1.0371588,0.14480282,-1.4861606
141.jpg,19.296127,5.9712687,10.35884,19.208744,3.1677735,39.089443,34.244698,10.915755,17.724424,25.968504,8.509835,11.57618,-0.7722683,-3.3666744,7.6186204,3.229798,2.369944,3.621135,13.056385,9.098539,-6.6653357,10.170298,5.6248655,5.934424,5.0766892,6.1079507,4.723909,3.4964085,8.882621,5.397015,-0.9689013,2.9990342,2.6320484,4.421673,3.3294613,1.5271488,-3.7946794,13.707502,6.050109,-0.9472848,0.046472088,11.664822,-0.64915776,11.040136,3.7593973,4.0141797,10.348322,4.501844,6.2693844,3.0576744,0.85509646,9.618088,2.8139675,2.1945522,4.1615024,1.9503407,-0.36022723,5.0403485,7.5208607,2.3217413,7.1370683,-2.5383668,1.8309683,1.557157,2.5550752,-1.6009802
142.jpg,29.85738,-6.846854,15.716724,-0.47525948,6.564979,12.882669,17.138933,14.147162,6.4847484,8.081854,2.814487,-2.5952265,33.50456,3.931678,6.4862037,8.790989,5.83794,-0.65383315,7.99533,7.079261,10.754045,4.0554867,9.095284,6.6715317,12.257173,8.690507,7.3533735,1.9273771,-0.110603586,-1.9622952,2.7188392,3.754303,5.158294,-0.0057125,0.7627825,1.107346,1.7783053,2.3706365,6.8751974,0.60976267,-0.47542042,0.4135839,5.294181,6.618035,2.376052,0.17594588,18.330158,7.2919955,4.6220074,-2.8973467,3.0033197,19.128796,2.7436955,-0.6557768,11.389654,0.75190157,0.9445127,-2.6731608,7.7881155,3.210615,2.9951406,4.5826406,2.0540285,-6.5245585,-1.7364929,2.6196773
143.jpg,15.601279,16.652618,11.754603,-0.31706932,40.466644,25.05766,14.521262,11.454903,0.58041763,11.961308,-0.99489486,11.424245,42.221184,9.663836,7.3588185,2.300007,5.0617256,1.6487883,-1.4081408,1.8477294,11.564513,4.0403533,1.5235215,1.0487043,4.1895313,1.7739084,-1.5316914,6.3625364,5.968088,-0.3579749,1.8688176,3.3338149,6.510149,6.6182165,7.1925836,1.8749985,3.6080837,7.6984086,4.80954,5.0550947,1.2573895,-0.48923287,5.7519836,3.0167782,0.91037107,2.0414,15.984035,1.6111318,7.0834217,0.8495722,1.101506,7.6197624,2.8649304,2.499027,10.64589,1.9145135,-0.045090448,2.060746,1.5801609,-0.5979652,1.4968215,2.2870684,0.51407635,1.0862429,-3.110723,2.429003
144.jpg,20.184093,9.324537,17.979078,9.644553,10.179382,20.400782,7.650069,21.940083,10.57323,16.190372,1.5041435,-1.1005336,36.48328,0.5964605,9.915794,8.487556,0.891628,4.4950337,6.7878594,10.066463,13.57384,0.89363277,6.1277637,8.749625,6.0155687,-1.9779973,4.5026546,8.0270195,-3.3549986,3.2210014,-2.8661325,-1.1075989,2.0934358,3.073866,7.948868,1.8637817,3.9796486,1.7910806,4.9694395,-0.51630586,1.1791978,5.3131943,2.464137,3.5632093,5.240826,-8.471216,21.203474,1.1121234,13.844016,-2.834982,2.4273407,14.230389,1.7723652,1.2642908,32.13834,-0.5664062,6.8496733,2.0811002,4.679469,4.907776,3.618218,7.6902704,3.310116,-3.925323,3.3574874,2.884264
145.jpg,18.163742,2.429284,30.530655,4.1771245,22.376953,1.1352763,-3.239903,20.578247,30.68729,2.800815,-0.29589412,-6.708785,31.423655,-1.9015994,-6.8967857,6.7363896,5.7770314,12.267454,23.244123,0.38679904,21.83926,0.929147,3.817571,-0.37061897,9.774183,12.09359,4.3242087,0.49869892,0.86309665,4.2334003,10.639416,-1.2467915,4.7847857,2.111721,12.66604,-2.2435296,5.4519672,-0.017846748,1.9850351,2.7059784,1.9499497,-1.3827913,4.044877,11.234823,-0.2086522,10.785028,8.246825,14.783211,1.204677,-4.190301,1.4323752,8.793924,-0.5756405,0.85492784,11.016695,4.0868487,4.5283704,3.0668843,-0.09830035,-4.9632297,-4.541393,2.4676127,6.7512407,-8.807969,5.7338963,2.7856755
146.jpg,10.777518,21.326654,19.026188,-0.276281,5.3174496,2.7055783,11.989518,30.331846,28.439545,6.038766,-2.692674,7.83469,16.092945,1.1333616,8.81545,32.132538,2.0969663,2.9308617,0.19222927,4.061865,12.29949,-1.3197871,-0.62159526,0.995608,10.611068,5.8410535,3.3857808,0.32879958,-5.075407,1.4922534,3.980789,2.3486488,2.962185,5.388587,0.18589026,3.7284036,3.1191087,10.408754,3.6240096,1.5220844,2.5358179,1.8687222,-0.46082097,-3.39031,1.9711416,1.2325671,7.8805594,16.278101,4.0413933,1.0604017,1.9849447,10.299866,0.2636071,5.2451205,1.9497292,0.9819178,0.84535795,2.3073955,0.50855947,2.3692195,2.980564,4.669669,2.0978396,-3.2834382,0.5956701,-1.0299671
147.jpg,-3.2851067,74.49009,8.044708,0.99895465,16.092297,2.9212365,11.322029,1.7815521,4.687863,6.435968,0.6163778,10.842822,4.94169,20.509195,5.117192,6.259924,5.1106625,-1.9008106,1.7948396,1.6421083,5.391401,2.2440012,7.3680086,4.894786,6.6289315,3.3838577,3.26138,-0.24330495,1.6823059,-1.1049929,2.669001,4.3135138,3.8013008,10.0524235,2.7633474,0.4787922,0.24267933,-0.33559176,0.28074002,2.8438277,2.1528487,3.1883135,9.060038,0.029185135,1.1690758,3.2365575,2.0995193,-3.2128465,-0.54397994,2.3101752,-1.007963,3.6066248,3.1674206,5.821476,-1.8480397,1.331986,-0.7253185,1.5662283,-1.3695235,5.0482326,1.5253268,2.7311444,2.2903984,-0.10888067,2.5969915,5.640801
148.jpg,4.0903373,5.319965,15.230289,13.729986,24.052866,11.455337,1.957283,17.945408,9.953249,11.46802,0.9695487,-2.336373,33.544064,15.683169,13.23389,13.644735,2.888885,1.1731559,2.4130187,5.418334,38.749474,8.714749,15.655306,0.37183216,7.4085603,9.080225,3.816909,-1.0063602,4.962064,4.913043,0.27447304,0.21121241,15.700351,19.006876,7.850732,2.8424106,4.9029016,10.518273,2.3455057,2.9880257,6.259876,15.125429,6.9559193,1.1900291,2.67637,2.309292,6.1207285,6.370665,1.8520724,-1.9870132,-2.4367218,1.3546652,2.0374262,2.9049401,14.857021,0.046013016,0.2837183,4.7339754,4.1528544,6.5212183,-1.8128604,5.622349,4.05138,6.841832,2.092404,16.588919
149.jpg,42.220154,-1.295746,8.340933,1.8347713,6.3514934,1.1604986,12.579344,52.046974,-4.239473,6.61988,19.3162,10.348795,11.238557,13.715731,-3.4584749,5.2352166,1.2858077,1.6590903,9.798745,-0.4028553,2.3526466,-0.30023605,0.615537,4.205129,1.664513,24.928152,5.8497167,1.1095619,4.599497,-0.75940096,10.3633795,7.268326,1.0222859,-1.4750865,1.7962731,3.3778026,8.079206,7.729514,34.71466,8.7375965,-0.12563215,-1.2909036,0.015141768,1.5877584,0.64042217,11.101476,8.552863,2.3411987,-0.95213056,4.040609,-2.0356479,8.105472,1.9970138,0.6287267,12.188637,2.368255,1.4737557,0.7175414,-0.85026586,-2.5974524,0.10176189,2.0674574,0.2259881,-1.6269069,3.220335,1.9228607
