image,0,1,2,3,4,5,6,7,8,9,10,11,12,13,14,15,16,17,18,19,20,21,22,23,24,25,26,27,28,29,30,31,32,33,34,35,36,37,38,39,40,41,42,43,44,45,46,47,48,49,50,51,52,53,54,55,56,57,58,59,60,61,62,63,64,65
0.jpg,15.031238,3.0565724,27.357733,-0.6718018,13.954719,3.9090793,5.5344753,15.454325,3.4822185,5.6233225,4.615888,11.301106,6.934183,-1.8631734,3.988968,6.351691,-2.6030016,5.8291564,25.29505,0.07726271,15.566823,-2.9163647,2.6874146,5.0865836,-1.1489968,5.9129477,-1.7819349,5.1419735,-4.288788,4.384188,-0.79635066,3.5185165,0.085360646,9.451664,8.235787,2.3602116,7.004453,-2.1241028,-0.48945695,33.182682,-0.038062923,-1.7373979,3.3530521,3.226798,1.9452949,-2.2765994,4.683245,-0.79373235,5.3950424,5.4847107,3.1026156,8.248553,5.0183125,4.9684105,-0.07215531,2.714195,4.541508,3.961852,-1.869666,0.15594782,0.20134962,4.1978693,0.65646374,5.0967455,-2.9187076,-2.4751275
1.jpg,20.22969,36.216347,4.3964415,5.5786586,4.4947543,2.7881637,11.990234,8.43763,4.999402,-5.77316,7.2249665,10.260774,6.2311015,6.712228,11.986611,16.915169,-2.4506075,30.502235,3.828144,12.064869,1.0063071,-1.917978,0.4789839,0.79670364,1.8454201,6.746756,5.264272,-0.08880659,-0.202078,-3.4383802,2.8925698,11.397552,2.5839305,-1.4308261,6.421338,2.7057438,0.5874102,-2.2984903,1.7116776,5.2729516,4.1612864,-0.53670454,17.451235,-1.0331736,10.818234,1.0076027,4.6296835,4.7684736,4.90368,6.483886,1.7743856,1.9511077,0.83062863,0.5065774,-1.7407961,4.2533574,5.413337,2.7674723,3.2650537,4.5386786,3.921312,5.026263,2.9651387,-5.457662,4.914081,-2.9370492
2.jpg,18.952734,7.368975,0.477124,16.780748,5.9894457,7.4524074,4.5370383,11.965636,14.795597,-0.56849986,6.2250876,10.806497,1.9840028,11.33474,10.816426,-0.59266025,11.324278,16.05098,7.889267,1.5098081,-0.12877017,9.960433,2.2792265,3.5765793,1.8451678,1.1199664,2.2324932,1.8544611,14.483842,15.49848,0.3999153,-2.8079617,-0.42073095,4.231001,3.2270238,5.0252547,2.8133771,1.6754502,-2.521334,1.1637518,10.43392,2.4267614,4.662862,18.974632,-1.0196491,2.726066,3.49966,4.3771253,10.444337,23.314302,11.783793,4.2758183,3.915251,2.4413624,1.763915,3.855917,15.699445,2.990788,-1.3668796,15.63285,7.4432483,0.7357452,3.822811,6.669541,6.1520195,7.330192
3.jpg,8.124825,7.4101963,6.487734,15.233856,12.008789,1.1599658,9.017705,7.038538,31.717644,2.660615,11.681046,9.760491,3.9583292,8.018742,12.915381,3.1651595,8.696372,3.910731,7.0912123,2.4817972,-3.4153576,10.845748,5.778093,7.0766015,5.8470497,4.032868,6.4734197,-1.249822,18.445158,15.498577,0.58682597,-0.12287526,3.699626,7.864343,0.54704,1.554595,1.7118385,2.9412298,-0.28165624,-4.247671,3.147257,4.3318043,3.1344981,10.465631,4.4166164,10.339293,5.836384,4.8410845,6.2509594,18.75755,19.794708,7.3475523,4.5114,2.7454116,-1.0495722,6.538889,12.494534,6.147556,2.4784915,16.337782,3.1173668,3.3745077,10.334473,2.497608,10.206969,2.2397053
4.jpg,32.30977,-1.5973237,7.716813,25.393604,2.2270777,2.087126,1.8998818,16.83636,19.363918,1.5287716,17.89045,1.0971054,8.420786,11.829483,7.3098497,26.124489,2.0893195,2.347419,4.089301,5.917013,0.18184648,20.360146,3.9740517,-0.9865721,3.800831,5.2895293,8.489089,2.9577572,6.7921386,11.6297865,5.0194535,2.4202862,1.4519707,0.5627925,1.8372211,3.5269651,-0.3530942,3.7229524,4.2436957,5.659666,3.3262658,-1.5630662,0.039474946,0.39874837,-0.51357013,-1.1483063,1.7321169,37.05803,3.9535954,-5.6235824,5.9387746,-2.970444,2.2877946,-6.4068427,0.78140825,-0.42543626,6.0850086,4.9728265,-2.1094005,1.4421659,6.9553533,6.11426,8.167316,0.20665605,0.6064086,0.46623442
5.jpg,30.664507,6.020341,5.34923,29.841274,8.57364,3.6605976,10.10823,15.397169,15.750349,1.2881494,12.310549,6.80765,5.812466,6.1484933,8.628083,23.950523,8.519195,1.7387476,2.492414,8.478985,-3.0541425,5.541191,3.2914135,-4.1371293,1.7515018,3.5657003,7.55269,-0.49279314,8.308845,5.188595,4.5507584,3.8575444,2.3058467,0.46037036,2.6936696,2.6960933,1.7127886,6.841013,3.368289,5.402128,-0.54570556,-3.4670374,6.7869864,-2.0879912,-0.23626466,-4.708032,2.3051767,36.837543,5.531202,1.4679303,5.2861505,1.4079392,-0.21094382,-3.9238925,4.4701385,-0.73552996,4.4370155,-1.3658289,-2.0695972,-1.4821067,5.988647,6.769668,7.0918293,1.5796552,1.6948379,3.6654162
6.jpg,17.523228,3.4550176,13.669862,18.762552,-3.051335,0.566685,1.4751368,9.479634,40.876312,6.1272087,0.40052143,18.979296,12.586965,1.4769909,8.68623,34.615257,6.7128725,2.3050933,3.4351754,3.7860878,-0.68853664,-0.2897337,0.088134035,-0.55949205,11.037675,3.4384806,2.555372,3.7293117,2.5013564,14.49842,5.537084,8.187583,0.87107766,-1.73717,3.8677375,3.799653,7.2079988,3.3933043,5.6042566,5.979991,3.0687559,-0.73537976,3.120981,-1.8240889,4.332155,-2.565627,13.055836,23.020218,2.1363108,-0.36662024,2.580046,-0.9111398,1.7048194,16.060953,-1.4338648,1.5618149,3.6996357,2.298087,-1.5480618,2.241477,2.7416098,3.3926964,5.813997,-2.6969075,-1.4145404,-1.2259845
7.jpg,17.493206,2.9732175,10.061054,15.712497,7.6798277,-5.9981256,-1.0132471,19.558636,9.743481,2.8913493,13.34116,13.773392,8.484887,12.956831,0.06771572,40.257286,9.125484,5.206886,-1.4516394,5.2112985,8.375517,-6.0992317,-1.0258839,21.035872,3.4063983,14.034512,3.5734959,4.1521235,3.6634638,5.362837,10.955289,5.9942856,-1.2891313,1.6998198,10.834256,14.083497,-1.8230121,-3.642277,7.5742507,5.898959,3.6676455,-2.7483974,0.7248637,-3.2546864,3.7931123,10.627004,1.2080487,27.041975,2.745861,1.1203065,5.5974383,1.0270967,2.14256,0.027704937,4.823185,-0.32261127,2.2847981,4.2460165,6.1479716,-0.048548892,7.883525,1.3920364,9.927016,-0.80273217,2.2821302,0.31565848
8.jpg,27.90813,-0.19127858,5.071513,4.836216,3.6336467,5.509064,7.3253646,63.399273,12.084627,1.7718881,22.817589,3.372881,7.647343,13.627219,11.762906,9.172144,-7.4338393,6.2841973,11.5353565,4.6274695,-0.74745065,11.399288,6.5336437,2.9687486,1.840399,0.7454329,6.6931157,1.4518552,3.4156063,0.9567036,2.139642,2.8536477,0.32179895,3.4885988,3.7233143,4.440806,-4.479568,4.7601943,3.786505,-3.6346474,-0.00032740645,-0.70240444,0.35674885,4.873713,1.0301275,-6.656505,-0.21801302,3.3723896,2.482493,-3.439714,0.12516905,-1.5416839,-2.6291199,1.1881324,0.2730199,4.7262564,-0.42160925,1.7060392,-1.5506134,0.28844228,1.4325287,14.383099,8.919298,0.87412035,1.4781026,3.4722672
9.jpg,13.614112,4.1894116,22.782166,21.515125,3.773003,2.524557,0.7193364,21.680511,44.54614,-6.6725626,2.5919807,9.082375,18.710814,2.0648506,1.0983815,29.22136,-1.365363,3.313983,3.9473138,-1.7832409,6.597244,5.290349,-1.2827731,0.8452005,2.1481884,3.316091,7.670112,0.85050845,8.300402,13.219695,5.308168,7.499798,1.8936306,1.4430367,3.185172,1.5333098,3.1181324,3.5445545,11.90299,1.7915447,-1.832926,-3.4364223,3.483649,1.9900975,3.407773,-0.10405919,3.0779998,22.62359,2.312525,-6.142583,3.3552675,-2.8776252,-0.7546396,2.703378,0.2014525,1.655468,2.2493215,6.0771594,-1.451802,-2.2904162,1.5885584,2.9436772,1.8679641,-3.960811,-0.0946953,3.1697392
10.jpg,19.244232,3.882011,5.3173666,22.941942,4.2273617,3.152715,10.012525,11.541233,15.537441,1.6619948,5.7489114,13.947651,12.202111,7.8938394,13.46869,45.4285,6.502794,6.930114,9.072564,5.3843646,2.4371765,-0.39068198,2.8431222,2.5279057,6.7965126,8.252205,8.445452,6.5411644,1.0815585,3.7567244,3.1175015,3.3714528,2.8221705,5.9646525,-1.8490639,8.900954,-0.832838,3.8187807,11.395692,1.8845959,-1.8045168,-3.0029352,6.9574995,-1.0514657,4.8762746,-2.5625513,2.031355,25.839626,5.3455706,-0.95078,8.039458,3.4097302,3.3243868,4.05318,0.7703404,-3.1087663,0.62111115,3.0824726,1.3808814,3.0998821,7.200862,5.0119348,0.29875538,-0.9827713,-3.7750926,-0.5388445
11.jpg,24.086786,6.3880844,2.2800157,12.265793,7.062041,-0.058803707,13.388956,35.8197,12.726071,0.1617021,16.879988,14.058219,0.57945603,3.0910606,9.6368,15.532297,-1.1944524,7.040812,1.3574705,4.434554,-6.5621204,4.9035354,6.2926016,27.301657,1.1677724,14.549812,7.772965,4.622797,3.893394,-4.1159215,4.4614844,10.848338,-1.2646142,3.3284385,6.1412935,4.7863903,-1.1065874,-5.5627236,0.119286776,1.6437687,2.2907603,1.9582391,6.023253,0.257809,5.061362,-2.981809,4.9520426,1.0935141,3.6220045,7.7357955,8.042445,7.1424484,0.9117838,6.795038,2.9901695,0.6449102,0.4308222,4.3103676,3.0255597,2.226183,-0.5469993,2.84461,1.6598486,-2.67828,5.9877687,1.2116932
12.jpg,21.101904,1.3289715,26.761904,9.127386,4.9986153,1.2791424,8.084061,41.50506,8.6256485,0.60397935,11.365656,12.763095,5.5311475,3.8109076,15.581133,11.832636,-0.23888126,0.48519894,16.313099,1.8129938,0.879555,0.7611851,10.43844,0.5364628,1.3735102,9.02692,6.896832,2.7678456,0.92923474,2.1450977,1.9515862,3.217111,-3.6993823,1.7580608,2.0272255,4.1537027,0.7200042,1.5582068,11.371202,8.271414,1.0089297,-3.5477538,0.81491804,-2.5092418,1.6000105,-0.9267259,8.247504,1.6276469,1.5238683,0.3325671,-2.4450154,-2.3875942,1.7855581,7.740061,2.9822876,1.6793143,-0.13326424,0.66276574,-1.2242973,4.9590044,0.57806426,3.627538,4.116098,-2.1880407,-0.19698562,2.103002
13.jpg,-2.988699,33.968185,5.2057395,14.003545,12.318327,2.9236772,-0.3487512,5.2591724,8.6294565,-2.245019,4.35928,19.97691,-3.0569267,17.912384,7.6271133,3.6386638,5.151986,10.506674,0.313796,-3.2918015,1.2206688,8.641331,-0.9698336,8.879881,-6.6384106,-0.81674063,-4.5554833,10.839716,5.500505,8.990857,3.965595,1.1688069,3.865105,0.38972297,-1.3652781,16.600899,-4.882817,1.2182816,4.2957435,2.9511125,3.0085995,5.9642406,-0.40107343,12.832491,21.102488,5.919031,0.79350424,5.366762,2.215789,17.978699,10.394484,2.5196404,-0.5829972,3.7947469,4.832027,-1.6219763,9.114321,9.295894,20.882984,6.9250474,8.726554,4.076509,-1.2195505,5.38208,-0.07190504,-0.03238018
14.jpg,12.746723,2.9612687,48.369225,14.577315,-4.2330337,3.7490063,16.58213,2.1408927,30.729902,-3.8672633,10.1494875,12.439624,6.4131856,2.4281864,5.4846373,10.989525,-0.4472797,3.1325936,1.8688887,1.3354862,3.2548552,4.3988914,6.9569864,1.193326,0.95554006,0.2997102,5.3188195,9.124147,16.276625,9.126488,0.34552178,4.33803,-0.019086245,-0.557202,-0.067555994,1.0833476,5.832518,-2.0273588,1.3118627,-1.6137531,4.3434653,-0.08638212,-0.24927044,1.7268989,5.601406,-0.9096049,4.515117,4.6082325,4.2529244,4.6180034,7.0303926,-0.107256696,0.33068386,12.270874,1.5477511,3.160806,0.25731596,1.8277878,3.1796672,5.7012663,-1.2850112,1.941822,2.5446897,5.127493,4.7895975,5.656687
15.jpg,10.454707,28.888924,9.964845,7.377711,13.194436,7.997616,19.357733,8.471359,13.442932,10.582603,9.807028,7.931509,5.56928,1.3460584,16.611284,7.023419,2.865888,35.114914,2.1786573,10.136445,0.720341,8.870059,10.261818,-1.5108112,3.5170143,5.836387,7.0773153,2.7287793,3.2878592,8.309934,3.5170858,8.565782,-1.4363626,2.1274383,7.8660107,2.1338627,-0.59673005,-3.5781293,1.5386429,3.2112877,8.282509,3.4742804,-1.3384209,6.00264,-0.5036505,-3.7714427,3.2533393,3.487648,1.6689274,11.964316,1.9803904,10.313918,-2.0786307,0.9052964,0.1645388,1.4784377,3.1407123,7.720783,0.6604898,2.7965806,4.1962276,6.073292,4.160081,-3.0920982,4.4402914,2.872663
16.jpg,8.244427,36.578835,5.0244927,7.838738,10.930069,-1.7301027,11.289029,12.101308,8.427002,-6.5051227,11.907035,22.748053,6.2311683,25.546158,11.768286,17.333828,1.6289845,11.692645,7.8056655,8.642004,2.2491813,8.563989,13.021331,1.3950361,-0.6813544,-0.99757034,21.729479,3.6196384,4.9976444,-3.4022598,3.906093,4.3995743,-2.2398162,-1.0809656,3.1671658,9.159727,2.6303418,3.2653,6.7344704,-0.8528052,2.6929758,-1.9964292,2.0859084,2.2498085,4.3134637,-1.4299302,0.9718934,4.9174705,3.7153351,9.496352,2.1733212,3.4527183,-6.707129,5.6455097,1.4302428,5.293401,7.2227917,18.645454,-1.4634761,0.86465794,7.0762157,0.10221847,9.784434,3.168391,-1.0020415,4.00007
17.jpg,0.35372916,40.26001,4.120678,16.926823,4.121656,1.7555667,4.8135505,10.707309,8.324557,-0.079778954,9.045234,20.66438,-0.23710224,17.547514,11.969434,18.51259,-0.7614929,14.673914,24.914019,8.476386,-2.7336109,4.9357877,5.766501,-0.8177077,-1.2416116,1.8312078,11.484019,5.7191634,3.0357704,-3.0216448,7.2023563,5.3021426,-3.1378121,-0.4879565,4.3157988,5.951928,1.2057219,3.555462,0.40194792,-3.1981404,-0.70720404,2.935726,-2.3695855,4.7843256,8.541642,-1.8086199,-6.578447,10.3224,1.8334115,6.330147,6.573063,-0.53349304,-5.789715,5.6705246,2.8057363,6.492127,7.405241,22.259615,0.13878806,1.8899899,6.350075,7.0216885,-1.886328,0.485995,5.830108,-0.79918504
18.jpg,26.914978,0.2652952,15.744803,11.197277,3.7309225,11.506665,1.1921469,13.661398,29.201952,-4.098854,38.73113,16.073006,0.3922036,6.7694297,11.398579,13.005127,8.274894,4.8724265,8.041431,9.2045355,-6.819321,7.0586376,4.646616,5.139618,5.1014013,2.8239555,2.9249463,7.4795904,0.79379433,7.4956245,8.444912,2.1563666,3.821767,-3.2156296,9.894288,5.1035495,1.2321554,2.221126,6.03358,3.58755,3.577321,-1.6785741,10.737504,4.2631793,4.6181345,3.6911635,6.757393,10.621511,7.194217,6.8755445,2.2740653,6.2384896,-3.357754,16.151693,-5.599826,6.0080624,5.7731586,3.011577,2.41438,5.3712926,3.7515533,10.657833,6.737916,1.2932384,1.4047109,-0.016774423
19.jpg,-3.1288366,78.721886,12.797311,3.5100925,6.945859,2.2647882,2.340399,5.431791,6.383779,2.4817958,3.9442916,7.6448927,-1.1329521,4.179697,9.306971,3.650073,1.7036554,3.8631613,0.12758729,1.4499726,3.651778,1.3084643,3.1462028,3.505747,1.0768069,1.1697958,0.1856083,4.834857,3.2821565,3.9623103,1.0636247,2.09378,2.7604678,0.1279939,2.927715,3.5269709,0.8840028,0.39739934,1.3630029,3.4627519,0.5711015,5.4804883,2.1201048,0.31793135,3.7989953,2.7807627,2.5569055,3.7359133,4.108091,2.3604813,2.8663979,-1.2364887,-2.7060177,4.7704253,0.86125547,5.504295,2.263285,4.787923,-1.4334357,2.6145003,2.4102478,0.29871663,4.3090754,-1.1055735,1.9457351,0.7015747
20.jpg,-6.7230253,51.504005,5.2221403,0.9303235,4.8615828,8.966314,11.368439,5.1414695,5.1358776,7.1050353,7.309951,10.485682,3.8388476,13.94612,15.85477,16.686089,-0.10820553,-3.8822408,-1.7069237,8.440815,2.3582528,2.302024,8.717725,10.810566,2.4401534,3.4325666,-3.01333,4.439789,-3.9766989,1.3736026,4.4570384,4.8458347,-2.1011589,0.56958944,2.3515203,0.0385209,-1.6899171,1.5005842,0.14665379,2.5967295,0.76792324,-0.03459263,3.8438253,1.3697687,-0.5789096,-3.322494,3.654964,2.1677196,6.221173,-0.5624614,-0.63713837,0.5743444,-3.0146651,6.9400744,0.925107,2.5806653,-0.7845316,1.5917244,0.27790126,4.06736,3.0423074,1.7899532,10.737143,-3.6762602,3.540624,0.36763713
21.jpg,26.29696,29.658417,-7.140325,7.426687,-6.187344,18.126549,7.993534,18.63805,0.84581304,-0.8669639,10.462718,14.826038,-0.11538151,3.468417,12.4189415,12.427349,9.18281,13.515467,7.1448183,7.146157,1.5320609,2.0629084,3.167683,-2.367702,3.394731,-0.2823454,-1.367659,4.664615,-3.31603,1.8838121,8.377361,9.120601,-0.2140632,-4.561691,1.2497376,1.298919,-5.4436264,4.954628,3.48223,-0.29178837,0.98970056,4.299352,-1.9633886,5.4745426,2.92887,-1.8366497,4.3841963,4.831427,11.901483,8.929093,3.5199814,6.916368,-2.5360491,2.770018,3.0431197,1.4991237,9.634292,16.884256,-2.388604,4.3644347,11.606346,14.810254,2.684937,-1.4291588,-0.007023581,1.4282618
22.jpg,-2.7539625,71.692924,8.842993,13.112667,2.3332102,7.3311844,5.4009056,5.6558957,8.545509,3.4416695,8.566479,6.6683292,-2.0353656,13.778705,16.346909,11.11228,2.3873906,2.6635177,0.7014916,-2.751964,5.618095,3.8390267,11.347904,-1.7579026,-0.48281607,-1.09147,1.0270629,12.755656,1.6695783,1.2125331,-1.6446011,1.912608,-2.4963086,1.079519,4.016557,1.6168978,0.21607769,4.382188,1.293377,-1.8419638,5.34549,8.030652,-3.4988549,3.119127,1.8491216,1.268122,-2.7036886,5.2470613,5.0617776,4.587688,1.5883822,-3.9494085,-3.475868,5.699002,4.1161203,2.419805,5.3275986,15.813227,-0.15814719,7.1041746,4.873287,4.197653,5.964277,3.0515535,3.6591337,5.326571
23.jpg,7.947232,12.811577,14.562079,7.8429027,-2.4354548,-1.7938807,10.823555,3.8725338,29.228893,-4.3881454,4.585964,20.011982,3.5435975,-0.2850866,8.722476,12.753783,7.293239,36.337044,15.491146,10.582065,-0.9951351,8.955755,3.3238523,9.394914,9.616068,1.8645084,4.1173577,5.805231,14.479513,12.817094,7.978058,9.222048,-0.31762448,4.9641743,6.505366,-0.2700704,4.895625,1.1839803,2.1867256,3.2920332,3.0903897,-6.359667,3.552919,7.589008,-3.816051,3.1922169,5.0456743,3.039005,1.5018469,10.905067,8.753027,6.145765,3.6187153,0.8768377,0.24975365,2.301669,4.668957,4.3444595,1.3363546,5.969089,-2.2182286,3.7963371,0.8174461,-1.9309763,13.974862,0.7324893
24.jpg,7.8539267,20.111502,0.024689361,3.8064837,1.8322024,1.1876539,4.9432626,15.852073,4.4537106,0.904226,10.47811,37.015373,3.108266,2.0806193,9.895797,21.392965,10.528814,24.648832,1.1204329,6.1697273,-0.30895406,1.4420056,3.4173687,13.5863695,9.368648,9.4953165,11.080414,-0.2527575,-0.41886634,1.5388405,14.118749,8.970332,-3.5192847,5.1877227,4.1479344,5.437731,-4.005897,-0.040761568,4.9528656,2.238487,0.9137553,-7.137631,1.1526307,1.687478,3.6095574,2.876341,5.2159834,6.926509,3.9394624,15.71903,2.3927062,4.707694,3.4684799,-2.659389,1.3070122,-1.5642917,0.71207786,3.6595683,0.8581267,3.7110202,2.834608,3.3351068,-1.5723107,-6.201845,5.424005,0.7662191
25.jpg,20.05869,18.395042,-5.480068,13.17821,0.54796356,5.0201664,7.3732085,5.831815,10.188432,0.6263208,1.4620632,31.364477,3.8350563,7.6975837,19.526949,14.762756,3.5676262,24.581926,6.3915305,11.040841,-3.471236,6.767935,1.5982352,11.250583,3.7549934,-0.7666361,5.4233775,0.6747208,-2.49744,3.7123628,9.004684,0.3159633,-1.6969588,2.8970969,3.9249313,2.8536763,6.0180054,-0.3175851,3.656719,4.5150876,5.3098955,-2.854216,5.2584743,2.0894716,5.396843,-1.0493753,4.5242224,1.2072499,6.0707526,11.033448,3.5468354,8.761833,3.4708147,1.0059595,5.810265,-2.9466991,3.9240234,3.494968,2.8450434,7.477216,5.519176,3.960383,-8.778641,0.4017013,-0.40596378,-0.33554974
26.jpg,28.883362,18.257635,-2.3657277,-4.8009133,-4.9007044,-0.47710043,31.944555,11.524549,7.08787,0.89776367,7.44811,20.741158,1.8887181,9.880313,14.821611,17.585737,0.85677785,28.419521,5.064233,11.42193,-2.009245,7.8605666,10.108622,9.318442,8.163912,1.7103648,7.454342,7.4804187,2.6788168,2.5158195,1.7610328,6.835964,-3.8406882,2.841485,3.7044666,5.199565,7.641904,-0.534148,-0.76339257,3.9755754,7.0309877,-3.1521418,2.3623362,1.5183848,0.8942925,1.8927472,8.235931,4.134176,4.1684175,0.87225455,2.5071049,14.55587,3.1692147,2.5548112,3.8994172,-1.9157499,3.0812848,3.5991423,-0.70737064,6.2794805,-0.42644143,6.9142265,-1.9478472,-0.39396346,3.4263875,-1.6979747
27.jpg,18.805532,49.80115,23.058817,2.7031085,19.191576,7.6171174,4.0307593,1.9015027,1.9703581,6.4624915,2.5159893,7.608579,2.2715724,2.206824,8.479654,-1.324594,15.94095,1.050694,3.709648,8.247544,9.224091,5.212026,2.8957958,0.9849711,7.536874,12.826096,-2.5523186,13.2930975,-0.9074791,3.8847332,7.432433,6.464757,8.813431,1.3679383,7.1911545,4.0177083,3.8774238,0.581362,-2.5614452,0.05854537,-2.4042287,-0.0074836425,3.7375357,1.0997463,1.6099509,-3.9812236,5.904925,4.1171575,2.613325,0.5281748,1.5952275,0.9904577,2.9479856,4.921754,6.8016367,-2.6243415,5.1572757,5.69242,7.39021,7.885765,1.0100498,5.083366,0.6652362,-0.11805128,-4.0903735,1.8393179
28.jpg,20.457952,39.810116,-2.4336488,10.136291,10.921177,2.44596,17.943487,12.386092,10.071122,1.7268217,10.347003,4.040007,7.5931973,3.2016642,9.32472,3.5461318,0.6802953,42.947792,12.908022,7.440358,-0.21731924,5.5234966,3.880126,1.7005132,7.4569435,1.1153508,7.6100006,7.443032,9.472316,0.11872405,6.39121,1.1927001,-1.3623971,0.8395268,4.677956,4.832856,1.72024,-0.19458997,2.2840357,0.39929938,12.427226,-2.7110128,12.112931,11.176269,1.6027507,3.2213573,3.9435573,4.0814667,5.0172243,9.648728,5.8737144,6.6653423,-1.0927047,-0.69270396,1.2425017,3.1534386,0.60015947,2.645144,-2.647938,7.003805,2.3107328,4.0679545,-0.789837,-5.395826,2.5387912,1.9197892
29.jpg,0.10402389,0.62809336,41.32594,7.140048,-6.175629,3.2684526,13.762116,6.2668233,22.592222,2.2758918,2.5460384,7.0937266,4.675006,-3.9616394,-1.0087302,4.3148184,-3.8690119,-0.53402776,2.5807478,1.1829085,7.967745,6.8649917,-0.60556203,3.1043105,2.217104,4.3006344,4.908114,3.8361094,14.022141,4.2125916,-0.6833016,13.216506,3.5107222,-2.2729948,6.052493,-8.567995,0.66702914,1.9243349,6.447747,8.033298,0.5434018,-0.9271304,-0.8334321,2.032519,-0.27263138,3.7734997,3.9277043,3.711052,1.3413882,-1.0533842,-0.45510736,0.084913105,-0.37673983,8.11349,4.0043483,0.078931734,-2.054374,-0.78828263,2.5926082,2.6631136,-1.9324858,2.0610452,-0.81674296,3.3932548,4.935986,1.6253355
30.jpg,7.477264,3.544863,41.218285,14.994587,1.9687961,1.2873385,10.6629505,10.784234,29.550737,3.5993233,5.7850504,9.082603,5.258128,-1.7562367,12.096466,9.651962,-1.4554267,0.68692213,5.054536,9.926225,1.1207323,4.4057064,9.2456875,-5.9854827,3.5610683,5.8473,10.612139,8.378849,4.435114,12.452721,0.3117578,5.8193154,-4.096964,-1.2700117,8.377209,-5.7188087,8.612497,5.0305524,5.0430565,4.325439,0.90225565,1.3075576,1.2245747,1.5379394,2.0969033,2.6918154,0.7233019,10.222994,2.9370053,-1.5662425,4.173135,0.6460094,2.9829025,5.2550707,2.219602,4.2794356,3.9460495,1.4574846,-4.0399365,3.76326,0.40673605,4.630646,3.9091148,0.98606133,4.3849373,2.3352075
31.jpg,17.730812,4.990363,3.911033,26.32155,1.5465066,3.7945852,19.57137,11.406441,32.813274,2.488651,1.1769841,23.16194,8.735887,8.673922,12.254992,12.727544,1.2850835,2.3601594,3.422121,9.083984,3.2090054,-0.19658637,6.473716,1.5529727,8.076918,-0.8343877,7.482664,1.8986828,16.799824,4.29013,8.378031,9.433763,0.49428287,-1.4975176,5.8114204,3.4468212,-0.2846268,1.0000029,2.4024398,2.9953642,5.916045,-2.5478005,2.287281,-1.1026794,4.6108203,-6.5830526,9.619548,10.9902935,5.3276825,1.1283629,1.3414193,4.1029053,1.4968125,1.2952847,-1.714874,2.8679066,-1.082162,-0.83393866,-1.7638836,3.8057075,-0.08721137,-0.15762225,0.8871195,-4.8298283,5.5242906,3.0724607
32.jpg,8.643692,23.073515,3.8427339,13.764809,8.967418,4.016405,24.893232,6.9607077,19.349491,-0.072254196,10.295444,17.46301,2.7914314,5.013681,13.401047,7.228881,3.3388429,32.694798,5.4507437,3.774462,-0.34703648,1.0128517,2.9978466,2.9906235,5.5242305,7.353326,8.509105,1.5429995,13.092428,3.1822004,-3.424069,12.133836,3.4687824,4.1831307,6.9557242,-3.6055186,8.8465805,2.6246972,2.330451,2.156683,9.165611,3.515131,5.533795,-0.08059759,3.2362487,3.6602042,4.767664,2.2334628,0.93188274,8.291991,8.700526,4.882583,2.7331517,1.0174434,0.5537888,5.975689,0.3992117,5.5457172,3.6427085,4.6250367,5.2201114,2.3553143,1.6417136,-3.9167933,9.186177,2.6463888
33.jpg,5.519054,67.17321,-2.0186875,13.2265835,5.8420544,9.546466,15.604866,6.7433567,8.587432,-4.165152,7.801031,17.575617,0.3523593,1.5705805,9.4165,9.82429,2.601942,5.657433,-1.0531774,10.197179,-3.2194467,5.79226,13.724197,6.119936,2.6343923,-0.55782217,5.828043,4.8502736,-1.1250725,-0.70551103,4.920842,6.86932,1.6798682,7.4485035,3.5919595,-3.216486,0.033899955,1.6590989,-0.8988982,-0.22657001,-0.4426586,3.265386,4.165851,0.53419006,4.9106255,4.849023,0.19243118,2.5110543,9.052721,6.490285,3.7327073,-2.6372948,4.057294,6.9149003,1.467403,2.7127132,-0.7321437,6.736477,1.7896585,9.363568,6.23163,7.9488487,1.3810881,-0.34251797,3.1911054,0.14177743
34.jpg,18.557274,3.578918,20.265596,33.213234,-1.45902,2.925041,18.896708,12.43414,41.580914,2.752583,3.2910795,8.240893,5.4481244,3.7376504,5.8403177,14.976909,3.816671,2.5654173,4.162057,1.6329404,-0.5227104,1.2115433,1.9155182,1.6836272,6.930594,10.11209,18.181211,-1.5813105,7.6907196,2.1685588,0.46381894,9.106459,4.192639,1.3014696,4.593967,1.7935317,6.6364512,3.9293077,0.10088906,1.0459815,-0.966856,-2.388357,2.1877017,-0.43414143,3.35524,0.53368986,5.588799,5.922546,5.5858517,-0.8277855,3.2440643,6.62034,0.26902902,2.3555796,0.8241069,2.8318377,-1.5166749,1.3695571,-2.5630436,4.2956734,1.2201782,7.5304165,0.9573744,1.9124296,4.487269,0.87696576
35.jpg,3.2592733,5.9149866,18.548645,25.266996,0.095641285,9.692112,18.684774,5.6404777,42.12982,-1.1811488,2.6391892,13.57934,1.0167005,-4.440211,18.32194,11.709279,3.7571504,16.952843,12.228751,5.077989,-1.240286,6.6596775,-0.3452892,-0.04989449,-1.810514,4.563475,3.0995092,7.834024,23.716454,9.153756,-4.184898,1.1799694,2.2398593,2.8645902,1.4367751,-2.771883,-0.034135394,0.237583,0.5225357,-1.5544571,4.3999767,0.22733939,-0.891577,5.573426,-1.9507316,3.141931,-0.96795523,3.277028,9.764365,8.917914,9.26275,-0.9088546,2.9425786,4.3276534,0.7072337,2.429257,3.1019678,3.0422282,-1.7588,4.344714,-2.7274413,6.055717,0.08331686,-0.025028735,8.467142,0.64491534
36.jpg,16.832006,6.8334537,12.756616,37.972473,-2.1097324,8.187943,23.117655,10.495504,48.580418,4.247657,7.3884354,14.412694,2.5515246,6.9148483,7.7411838,9.473465,2.457643,8.377611,8.525955,2.041908,-5.1460648,2.713741,3.0108747,1.98681,8.267557,3.811149,10.70954,5.126726,13.63163,8.822715,-0.2975391,8.546127,4.8609185,0.5646314,6.009851,-2.4616177,3.8268685,4.083929,1.5720583,3.1376033,-1.0796158,1.99705,3.0754733,0.8984167,1.8428017,1.5867451,5.9503784,8.518379,3.957896,0.5930851,1.1869416,4.785082,3.7691135,2.4283366,1.5971379,2.5292845,-1.5515707,0.04266903,-2.4490964,4.739269,-0.44595903,1.8759217,2.3657005,-2.1996796,8.260391,2.8530865
37.jpg,2.9037006,17.997074,28.189064,15.632859,0.82581604,-0.21018349,-3.8593755,17.48883,25.919935,-0.6400113,6.607753,7.8248525,7.2127767,-3.418235,6.105257,39.45226,-1.831701,7.171831,10.698144,1.2117115,-4.322832,4.882614,1.6741691,10.92932,6.57168,3.0130565,0.23518722,0.7782584,-2.808612,6.34541,8.622142,2.09025,2.5985014,6.4230127,6.3164077,1.2903907,2.0289254,4.830079,28.841232,8.233996,-3.600929,-2.4861872,-1.0765234,-0.96714926,4.5240097,1.037884,8.028778,4.244346,2.3903615,-5.472973,7.0654244,-0.605376,4.1966805,0.26996154,1.1055881,2.2362194,3.2190177,5.5171356,-0.19146237,3.739173,0.64894927,5.077866,6.4360275,-2.856361,5.0025373,1.0319177
38.jpg,23.352392,7.1729856,11.766473,24.189213,4.52925,-0.507819,-5.199833,13.59623,12.4936495,-4.982751,6.818488,8.632917,3.6391945,-1.8170128,8.80734,20.459137,5.240671,16.317217,6.3229046,1.9390867,-2.462827,0.62273824,-3.4941106,31.508064,1.1490993,10.033957,9.621897,1.8188772,2.4917848,2.946251,8.077359,9.232402,-7.2373257,7.868082,11.038695,2.4409776,12.822986,4.711041,10.816043,9.812364,-1.4762431,-4.6414957,3.2349389,-1.957129,2.826778,3.7372954,-0.4425325,9.63122,2.0578055,4.0922036,14.991877,2.331989,6.2747774,0.30709058,5.8692045,9.54527,14.430748,4.8982735,3.366767,8.225585,4.7403975,8.90337,-1.6906053,-0.6009117,4.161817,2.376306
39.jpg,11.569995,18.261879,14.175701,8.458836,9.083464,1.6563615,10.814877,17.154058,3.908924,-2.5136306,3.3931434,18.478191,9.622243,2.4705167,13.59067,18.597351,6.2913685,22.389626,2.1001916,2.7376466,0.86378074,2.5198627,2.9506953,21.36299,6.325387,4.6269083,0.8006882,-5.93569,3.081683,4.006014,12.565414,10.148285,-1.0583112,6.9676476,0.45990163,1.1322598,4.431196,5.783759,28.30807,11.116659,-0.47072223,-2.693221,1.7961075,-0.03899748,4.617152,1.9801083,9.138856,1.900192,4.798371,6.402499,3.2187965,5.3933716,4.0881696,-0.82251376,-0.41457555,3.962359,2.6553679,3.2927618,5.1560974,7.264635,4.090418,10.003136,-0.52253973,-1.7387586,5.429307,2.8506908
40.jpg,-0.20112413,18.64659,10.568259,19.133959,4.638941,7.2807603,22.87533,11.592648,21.436127,9.06516,7.608308,16.429897,6.550492,6.8988028,3.7713592,11.870769,-0.69369626,14.044079,21.249836,1.3918878,-0.73271155,-1.8601533,-1.4015191,4.44743,5.305984,1.359626,-0.16105026,5.0558505,9.013668,4.0824924,0.72649646,8.85738,4.9457035,-1.1245893,5.240417,-1.7725561,-6.7796907,8.162708,10.816232,0.004102383,5.5504246,5.82863,-1.0839478,2.477568,5.8391514,2.154519,0.83668435,11.231141,-0.29451177,-0.91162485,4.647811,2.5942574,-5.418946,3.5286899,0.14864615,6.4537964,0.7650185,6.461122,2.3601959,-0.019468576,2.7485652,2.5428395,4.391784,-7.7729435,2.3469543,4.0452843
41.jpg,10.911234,3.0318189,15.526904,9.099661,2.180705,3.1400807,11.235787,13.478088,32.447075,3.9642544,9.824088,19.712908,-2.4832952,2.8022618,12.304152,8.2660265,4.131124,9.645714,5.4606957,5.8572307,-5.8971686,8.549116,3.4804485,13.281432,4.2429795,-3.8193617,7.559686,4.078709,20.394234,12.734117,3.4909825,2.8390434,-1.7348423,0.38470784,2.6681223,5.351333,-3.7198246,0.038912334,-0.20492198,3.418592,-2.1889627,0.9567715,1.0549718,7.352861,1.9528613,1.2401391,4.0408006,0.49265596,2.6451166,16.939545,11.65959,8.27717,0.95863414,1.7738953,-5.9346905,1.9655417,3.491161,3.1217976,-0.705318,6.150034,-1.0691189,-0.4545222,-1.4868994,0.8767538,8.727392,-1.42379
42.jpg,9.30821,8.541586,9.005105,13.886124,-5.667557,4.7810564,9.202812,8.446184,31.326977,11.09742,7.618062,13.150925,0.9642131,7.2087393,15.410735,6.046814,12.068035,20.326878,4.302573,11.636026,2.1393125,16.202183,3.31248,6.0250273,7.236984,-2.4729943,8.866239,4.5665717,25.452372,13.821246,5.7635655,1.2363023,-2.151506,1.9815074,2.5672524,-0.59624296,-6.7800217,1.6004434,-1.0605242,-2.073905,3.8014505,12.392842,0.6224923,10.293376,6.080254,6.1617618,6.787754,3.2236972,6.3019767,23.235643,12.323732,5.6952357,6.207086,1.9378388,-3.3128355,0.4155284,3.0935907,5.1613317,3.9997265,9.291961,3.2599356,-1.6332613,3.276764,-1.5216324,10.152597,4.395762
43.jpg,9.979491,30.534658,11.331625,2.4954386,4.3124366,6.835972,5.294687,5.77183,24.058708,3.7115839,6.9304385,10.992852,-4.2774544,3.366057,10.844604,0.38223764,8.049194,12.169539,4.827054,3.3917098,5.5379024,4.5793514,7.409382,16.791481,3.4581237,-0.5921425,11.04057,1.7631978,25.600576,18.28026,9.651492,2.1182458,3.1170607,-2.2939172,-0.7798777,6.6389604,-1.4916363,-2.4857745,2.8680902,2.2146535,1.3440351,4.504644,-2.2968125,4.4764466,3.6903784,-0.1976978,8.622348,3.69284,3.038653,18.237999,14.491487,8.0576105,-2.3316038,-0.5518592,-2.2750695,2.159632,7.2539687,6.2089586,1.3561903,9.627925,4.070593,0.78402555,1.4984236,-2.0705168,12.893041,1.8557943
44.jpg,18.954632,17.926481,3.380705,6.6606374,7.445635,4.969763,7.2212143,16.963476,6.134448,6.5681496,4.118363,4.97068,4.8786983,4.472248,10.224195,10.8333,13.885891,22.70952,-0.4627442,2.3041635,-5.3009605,7.9075685,5.110911,5.9143863,2.5340834,-3.2025962,7.016569,7.515543,12.822363,14.726416,9.186276,0.49944726,0.75903964,2.1319163,1.0535783,3.7542436,3.1060743,1.64272,1.3526554,2.170449,3.8351464,11.693784,1.4111466,17.383636,18.591516,-0.6552612,4.329098,7.0175185,4.4447684,27.511723,9.418249,3.8180985,3.1772354,1.4453777,1.5839914,2.4940002,6.155491,3.991656,7.6027794,7.4535346,7.0977926,1.7308828,6.0705023,5.835099,9.15474,6.8148603
45.jpg,27.53399,9.111265,18.918194,14.152974,5.698379,15.361216,5.7099333,15.998219,26.165628,0.7300577,21.15645,2.9982612,-2.0556092,5.582158,0.4798552,-1.7228745,2.1914752,6.8167663,12.36695,3.3646212,-7.7526608,8.614487,-3.2507293,19.127666,-2.0903277,-1.3315171,6.432382,18.53732,8.500247,15.425312,5.1249366,4.982964,3.372081,4.9590063,11.440282,3.345301,-1.9169073,11.599641,9.106818,-3.5880983,-3.9643705,1.3633406,7.024524,22.166758,4.2430396,3.7987323,2.401709,7.3975472,0.8876501,3.0558949,11.672841,2.9214435,-0.25173974,5.1818223,12.585998,-1.1464916,6.872078,3.3775265,7.5836053,0.16825075,1.3513539,-0.93678766,2.6342714,0.92404056,-0.32845473,-0.13396968
46.jpg,26.589546,2.088401,3.1181111,8.830151,7.3178754,1.5674316,8.961253,7.762897,10.580754,3.265739,9.6968155,15.256725,-2.9543757,7.2755046,4.8363605,7.4560537,15.929669,4.241979,-2.75472,1.7482696,6.2389336,1.5371944,7.4298368,25.648043,2.565003,28.918842,10.533297,4.729025,21.14732,3.8367224,16.686903,3.8543913,-3.27456,0.8914067,0.86681426,5.901257,-1.989457,-5.5449047,1.3608466,2.336225,1.8679755,3.216692,-0.0030797906,3.9112682,4.750358,4.082868,-1.588461,3.4043498,2.7385333,19.819092,7.1284084,3.850497,5.582153,3.9875786,3.2081583,1.2010962,7.50765,2.8773637,0.43497002,3.0795918,4.231105,0.028549694,-1.8310808,2.9043703,13.553034,1.1855798
47.jpg,23.332651,9.212949,2.506429,4.1059604,-2.3564565,0.58962077,16.25951,7.4050546,20.983454,1.5691575,17.205555,19.449085,0.08559404,9.411743,18.03886,3.5534923,15.7810955,6.4366093,4.5666733,12.781623,-3.7696664,-0.08784684,13.38591,0.07885769,10.854112,3.9203258,13.28775,2.1840522,28.873154,12.801334,5.166796,4.8325667,-0.05914895,-0.19309436,-0.30516627,1.7233131,0.69396335,2.4812381,4.4891567,1.3807548,7.7146826,1.7325889,-2.0467932,5.7906246,-1.3639499,7.2408967,10.462828,6.016344,3.781211,21.191893,10.566022,0.6898261,7.7236905,-2.251095,-2.0215123,15.520369,1.5560974,3.975251,-1.9579176,5.7365193,0.83041054,0.13735285,3.399845,-0.48740116,15.093021,3.762393
48.jpg,9.833454,5.530251,4.923004,19.107925,3.6426272,-4.651246,15.985046,7.527117,29.375494,-4.367085,0.8710119,27.626472,1.4554585,6.7329063,3.3615994,6.411548,6.5535583,17.119852,6.5720463,14.252284,-1.4737493,5.7509093,14.802731,2.1617134,0.21964079,2.017993,4.4916677,-0.5643617,19.259779,12.987007,1.6972337,-1.5429738,-0.76721233,-0.31668833,4.912146,1.955031,4.3837643,3.9278214,-2.348806,2.7352061,6.664599,0.7539395,1.7008487,7.9430604,2.656164,-0.38750848,3.978189,7.4192114,5.231642,24.02678,12.171079,-0.6305401,1.5256914,6.9526167,2.6193972,4.059658,6.454686,5.8756804,-2.5261924,4.614897,5.031069,4.2136297,3.008085,5.1282973,8.01817,1.1063426
49.jpg,8.878864,11.713881,13.255297,13.797037,3.2824333,-0.71277094,17.18766,2.4388342,31.001553,9.742872,8.382373,6.5082083,1.3254082,6.607571,7.7023373,2.067612,8.139016,14.612532,9.969586,7.2263308,5.054146,10.866305,0.91083634,1.015532,7.3423467,-1.6132834,4.588313,3.7913892,26.692686,19.804625,9.670095,3.5686903,-5.1235204,2.6223724,2.6344788,-1.3630841,1.193723,5.148089,0.7186681,3.9386477,13.249421,15.054701,1.1804733,9.22914,4.0866456,7.505358,4.5328856,3.773368,3.4891362,21.95982,14.439302,2.08015,5.7447853,2.4360046,-2.1473186,7.1112857,6.9744153,7.0486126,1.911059,8.192875,6.319622,0.8592798,5.1720705,2.6981351,12.247179,5.6934905
50.jpg,24.497118,3.5004165,11.297476,11.887233,2.2093325,3.8706374,12.989635,51.759987,24.570322,1.3922008,17.105146,2.1175876,3.0954938,9.198854,3.7580185,9.021322,1.533022,5.363068,7.4429526,5.0422354,3.7079978,17.374043,3.014311,5.05001,5.2266803,9.02227,16.15889,6.1568937,14.159048,6.20982,4.117943,4.4381304,-0.34137544,1.808747,4.645408,4.0175323,-0.98883843,1.934441,1.725544,-0.02233372,3.2326698,-1.1626766,1.7429484,0.3488778,-0.34979358,-7.151126,7.023856,2.1811342,1.2307522,2.727755,4.4290223,4.307504,2.5065732,3.3866172,4.0256743,0.21334961,-1.4078012,-1.2311125,0.40534878,3.9713845,0.525229,3.9404933,4.422592,-4.4917173,6.342324,-1.1314036
51.jpg,23.328289,1.5383035,10.390644,27.42141,4.767112,5.3417487,2.5895395,14.955515,16.301956,6.153893,3.0256991,3.174591,6.037182,5.6542354,7.4917974,21.063795,3.2311223,5.0913386,9.223061,16.752178,2.6541188,35.34492,7.615206,2.4588578,7.88804,1.3143772,9.678707,3.205506,12.405654,5.242494,9.534961,5.1087003,9.60332,8.521723,-1.9075621,2.5830805,4.282264,1.553278,6.9868402,3.1273928,-0.6266369,2.3376691,2.8081214,1.6975718,-0.8129718,0.20935667,2.2818255,32.0108,5.721568,-0.9516215,6.3304768,0.8366965,7.7704473,-1.6974443,-2.3391209,-0.8731815,5.236679,2.36476,2.3646164,3.926419,1.9493871,4.5075307,-0.87196165,2.6848414,3.594615,2.7172499
52.jpg,16.804792,11.053434,32.53849,10.029457,5.2360997,-0.77238715,2.7015612,14.649364,16.526445,3.8895884,13.965408,9.320534,4.0258756,12.618349,1.8709866,8.256145,1.0788833,5.4629555,6.7522883,2.7035928,1.3351433,8.283594,3.4103703,-2.3387978,0.43865946,6.925437,4.3497553,12.1380005,5.067174,10.043912,0.26705974,4.5526767,3.3395488,2.7237496,0.68125015,14.267034,1.6810119,-1.6614861,9.579747,7.1453037,9.230412,2.357293,-3.7533026,1.3493308,3.4337227,-2.2354448,9.008263,4.9380307,2.385178,2.1187727,-1.2454443,-0.10643266,1.1941711,7.6473384,7.2810555,5.947824,1.2506047,3.3181992,-1.2924012,5.7240224,3.6994617,7.266466,2.3059032,14.920672,2.9021375,1.4844252
53.jpg,13.273583,-3.3717227,36.078007,8.431612,11.198443,-1.0003754,28.451385,8.993977,31.04174,2.1580477,4.6221294,15.347826,7.3225565,4.8139906,1.2140566,1.9209242,4.754182,3.4764056,2.8148718,-2.652533,-0.5282235,7.202296,11.179697,4.597223,-0.7230946,5.354304,6.5783167,6.1336613,21.322388,10.2009325,-0.31400108,7.449836,1.6087668,2.8484147,0.22961469,-0.64882946,7.5834103,-1.5503644,13.437554,9.688971,9.335365,-2.2202308,5.2375264,1.1946452,4.3666153,1.0135934,8.556669,-0.95979375,8.838938,7.1341605,5.8855643,4.297055,3.2353725,2.702132,3.0493848,7.0547357,-3.9542832,2.9406037,0.05826376,4.143508,-2.376144,0.40579197,0.3923291,-5.0218964,3.9868367,1.5966468
54.jpg,34.02647,4.862345,8.024101,18.911999,2.2284555,6.366063,5.060459,7.0773044,12.451307,-0.7344347,36.585915,5.31656,0.08149534,22.385715,11.271944,14.260519,4.1805754,3.0717561,1.309578,5.2868214,-2.717584,3.8519464,10.427041,1.7014987,1.9513763,2.5876145,10.324709,1.256708,7.2373815,3.7210512,0.61951673,25.855362,-5.7218122,4.366988,1.8227024,2.972799,17.217606,4.182424,3.6343348,-0.36293483,3.4372401,2.7510867,0.44235176,-0.6354982,3.5454183,2.6243765,4.0124545,9.565459,-2.8812652,1.0271327,19.579407,-0.7329278,1.5001581,0.33508596,5.324613,8.784589,6.1965575,-1.0032086,5.5328093,3.75467,9.4768915,4.962946,4.063573,0.455965,2.4583356,7.383381
55.jpg,23.086388,4.5457783,9.218426,13.070959,4.3170505,7.7477193,10.254725,13.447231,16.16618,-2.655682,38.333885,7.6031713,4.2004414,11.608943,13.4903145,15.114239,3.3027253,2.9447207,10.498808,-1.3307718,-3.6382556,0.92520016,2.0869155,-0.08446574,1.6406972,6.5461187,12.251274,6.9017277,5.056106,7.895042,-2.6045158,8.967434,3.1171944,4.96689,2.9528112,4.509196,5.566883,1.7202374,3.2145154,8.662005,11.384251,-0.8945796,1.3223637,0.71233416,1.1951526,4.32439,6.3123727,-0.4937412,1.4173095,-0.7940602,2.7451258,-0.532212,-0.7495217,4.413631,2.6410005,23.245945,2.4816542,4.2936316,0.8203263,4.5136313,-0.020278571,5.9849524,13.379021,-3.5247936,2.3820536,2.3331552
56.jpg,7.221708,6.337963,17.538008,16.608707,0.98499525,6.2652187,13.910185,4.3258386,43.310047,1.7404814,6.326107,10.059911,5.6020284,-5.6239,14.117688,9.390857,7.9287977,10.4030485,8.498057,9.207921,1.7246895,4.5953245,8.868849,-2.7011018,3.756516,2.944034,5.0131884,-0.23477516,19.515436,12.714596,4.575183,4.2889276,2.188014,-1.6410908,5.185685,-5.066944,-0.22172146,-5.4904137,-0.06697224,1.2129778,5.588381,2.5108476,-2.3429618,7.3640594,-2.4855132,5.610056,2.2253947,2.3495977,7.8775434,11.518958,6.0659904,2.1789062,3.3204734,7.8509116,-1.4929262,6.4657884,0.49014422,5.946234,-3.3958569,3.18519,1.6357375,1.1940082,-0.012570806,2.112137,14.378641,4.27974
57.jpg,19.898064,1.5015672,3.7746117,24.545414,2.8949153,8.323718,13.906382,5.191464,14.965246,1.5506109,26.634321,33.585064,6.480653,18.19519,17.748909,15.042895,6.983132,5.6021175,5.876156,11.808649,-6.4996405,18.732994,5.366254,21.961237,15.347457,-1.0596052,6.874295,3.324108,16.881775,7.278564,10.957443,6.7660413,-2.6577396,3.6422684,0.9404726,4.9277544,13.504674,7.1468062,8.862246,1.9285258,5.2700596,2.8175623,5.09803,5.0514364,8.048899,5.2554626,1.5137814,11.15883,-1.3629923,4.0731187,7.7722735,9.587207,3.577188,3.7473202,-0.91865045,11.913186,9.133666,6.4592643,0.69399047,9.964216,3.4807663,8.351059,10.45411,0.1585308,1.2590649,0.15351163
58.jpg,29.651093,4.50736,-0.9544229,9.888375,3.6929238,9.0354395,9.414346,1.806118,8.722389,-0.35088643,14.556755,22.133564,-0.61508405,-7.499083,18.513105,7.195613,18.027695,4.695067,-1.6988909,22.372675,-0.8424943,5.482092,10.126417,33.21386,8.118488,-2.2236936,0.66030765,2.6094782,28.676739,6.709663,15.435592,1.6555213,1.0078529,1.081986,-3.63344,5.6430345,0.620269,-3.1038644,1.2514458,2.0076778,5.7069683,-1.3333353,0.28736344,-2.3545058,3.2058396,9.171598,0.16351548,6.9809675,7.077184,20.11173,7.516858,4.787455,7.80084,3.27387,0.90941286,2.697363,7.1342177,4.390517,4.399444,4.2886066,0.87289745,0.086116605,2.1731713,0.582203,9.762721,2.3307543
59.jpg,10.559724,63.788475,8.3739195,1.446593,7.3023186,0.6092371,7.3691874,9.456134,3.0815709,-1.5564649,10.347268,11.353389,1.5399587,15.255657,4.6276317,7.9462557,4.231254,7.9332695,3.1199389,-0.43354732,6.5811253,-0.6570288,-0.03965623,12.251183,1.5746418,3.2602885,0.28176397,0.52502966,4.509022,5.6036925,6.531337,6.156744,0.08599414,1.9723123,4.401556,5.0321283,0.45007825,1.4916233,-5.5814457,5.5476985,1.2865467,0.5136458,5.2329206,3.2198057,4.295198,12.403978,-0.71526754,3.8363516,0.097761765,0.7935754,1.1624959,1.6364049,-1.1443664,4.644741,2.812153,0.08790481,4.32827,3.5299518,2.390626,2.1914067,4.5896707,-1.0109204,-0.70909554,0.25538903,4.703812,-1.1676581
60.jpg,29.633087,0.11379458,6.522935,6.2708693,0.56961364,3.6454186,6.610515,60.922527,9.021706,-3.7180588,23.466719,7.159285,2.2148128,10.757322,9.871196,15.392234,3.19555,4.5463758,7.239596,1.1125231,-1.6540458,4.066223,-0.03492823,15.573281,5.8600187,5.3455343,8.218149,2.000625,3.5659258,0.9909032,7.6529016,5.157117,-2.5421028,-1.4696801,2.7108946,3.6546044,2.0908885,3.0878549,2.312238,-0.08551029,1.7393459,-3.0068462,2.193194,1.8830655,1.856495,-2.2680295,0.88008416,2.3034887,3.5737998,3.298651,4.5369277,1.6306905,-2.0359688,2.2599223,2.9678702,6.7439394,-1.9225863,5.699601,6.6056585,10.220041,1.8389132,4.6651998,6.026634,-4.193043,-0.4924327,3.9625592
61.jpg,35.678642,-2.146485,2.715664,9.638228,-3.9645479,6.832747,9.664352,44.626842,9.291596,2.8763676,26.209005,0.45582336,5.619298,4.5529103,8.300884,8.072457,4.0806837,1.4660546,6.6924357,1.0916587,5.898211,0.7711238,-3.3945956,9.8059435,6.8686867,6.7488537,9.226104,1.154465,5.621872,-3.5996528,4.5861545,3.0123563,4.6281095,-1.9278523,2.5407038,0.0514118,2.0063982,3.6728308,4.988043,3.8551912,5.566608,3.9652646,2.568529,1.1032972,0.8809177,2.860636,11.197961,5.261534,3.5693944,6.57292,5.27292,8.3982525,-0.84584635,4.060864,4.0606303,3.816998,1.1036919,3.010248,1.3986862,9.138611,5.3141193,2.2759378,10.126832,-2.7909887,6.2172832,1.5955803
62.jpg,5.4314027,41.56737,6.8417406,10.382927,32.158833,7.449709,17.764277,6.0761104,12.452153,-0.42202216,8.282619,15.720837,2.5855794,6.861101,14.785602,1.1041197,7.1353726,14.098762,8.833397,6.932382,-1.7991729,7.032691,2.96808,2.6527069,1.1177337,-5.5563903,2.8722727,4.0230846,7.3810563,11.16172,-0.9805913,5.4655895,0.40523788,3.445454,-3.6859007,6.3634267,1.3309935,0.040787272,-2.0222023,2.1641684,3.282658,2.708415,23.823648,4.718887,5.627682,0.41450214,-0.00310326,5.6228952,8.356119,10.794086,5.9471245,4.3299665,-0.073559955,-1.7745297,-3.5522096,-0.21102858,0.20011532,11.780781,1.6986657,6.751007,6.408372,-0.52263916,3.3878222,0.9006717,-2.6493034,-1.8981974
63.jpg,15.365601,39.678364,8.098485,6.4333296,-1.5910909,6.9018116,9.989722,15.829688,7.3209405,9.895907,6.9655204,0.5616335,10.737412,7.15394,11.903479,7.954966,2.6606479,22.884975,4.913396,9.066413,1.2104931,2.868674,2.30234,3.6716335,5.321064,-1.4631293,1.4413191,13.265043,-3.6859915,3.5313368,10.172504,0.8028762,-1.0756552,-4.1889634,6.0307293,-4.8250647,-5.589559,-0.9919168,7.8541303,0.24813321,-2.5144641,-0.057484627,-3.858038,4.2506022,0.157859,1.3916664,6.538053,3.904064,2.8021169,1.804957,0.24409829,1.7074432,-3.877532,0.44160748,0.11522882,1.9586,0.4354326,5.398499,-2.0947695,5.045711,1.4241322,2.8827841,2.3969736,-4.0867596,4.0747666,1.9473897
64.jpg,-1.558676,13.554047,16.38389,21.42859,7.3877974,25.930208,12.895942,12.143354,34.827103,14.206436,1.4501365,3.2129564,23.560925,-0.44056064,1.3527446,6.912355,-0.21187411,6.698856,28.92873,2.8451188,-1.7028954,11.162507,-4.7360635,2.004547,3.4631171,0.029134378,1.4996091,-0.08471962,10.682119,16.103172,-0.7213328,1.831371,3.969499,-2.6064417,-0.1471553,0.7234174,0.60103387,19.390066,8.828545,-3.4186103,-1.1239215,7.4315014,-4.0912333,9.726296,-0.7177638,3.7895854,9.350555,6.7026415,6.3797927,1.9233863,7.1232915,2.0637465,-5.731674,2.8459024,0.8288768,3.3560693,1.3602254,5.0121994,3.4698236,-1.4999034,7.554503,3.351126,4.3591337,-2.6137562,2.1706479,-3.0802505
65.jpg,22.387472,3.1917713,9.98799,-1.7684873,-0.15245578,7.8873186,15.47633,42.6638,13.843166,-2.2724304,21.640564,5.945712,-0.34676287,4.3130746,13.997804,7.4941187,7.1944056,6.7103148,3.12846,3.3992167,-3.638478,1.3735924,-0.78984034,5.2570066,0.18935904,0.8139117,14.043945,-0.1625902,5.95623,1.4626971,1.9375999,5.3511715,-0.029323738,-0.34567472,3.7665598,3.1045895,-5.371573,4.528337,-0.43794456,-0.22809066,1.0477606,1.0296518,3.9828193,-0.6732843,9.785123,-3.751287,6.9129763,3.9833035,3.8902283,5.959721,4.4777417,6.8659277,-2.0768008,3.2698798,-0.028897543,3.2870765,0.93068796,-1.868052,4.3490586,4.110542,2.276437,0.34787637,6.230875,-2.1473844,4.2306156,-1.1231499
66.jpg,8.362134,25.287512,0.11356785,3.6045008,3.8636122,6.248881,4.5159144,7.055076,2.9441288,-10.0925255,6.7873507,30.309486,1.1575726,0.06504245,17.946936,14.009784,8.69335,14.429148,15.811121,5.1960545,2.4565768,9.161531,7.654809,12.416102,5.8925314,2.0379398,2.7300625,11.660877,4.149455,3.6208827,12.995222,6.176979,-1.3321137,3.3691704,4.108941,1.544155,1.5468433,4.579794,-0.51007473,1.2124628,3.8346608,-2.4933376,16.342926,20.584301,7.958383,1.1273348,6.02876,2.790845,2.7431586,7.658104,4.380686,6.9328218,2.9092436,5.9152117,2.5890763,-2.8833807,6.195223,9.424217,0.7834522,9.26627,2.361385,3.1673145,-0.07540053,-1.8504362,1.732409,0.31870738
67.jpg,13.833851,13.616067,8.834235,22.044321,2.4366336,4.2824574,21.996037,15.757311,29.067337,0.945958,4.415909,3.499251,3.9052706,6.9160132,7.726766,8.899548,6.3262215,7.483615,7.2499833,0.8167619,-7.052964,4.2981076,2.283532,8.107602,5.1215534,2.462061,10.091027,-1.6755209,7.6301255,9.622255,3.8583138,8.271466,0.3917002,-2.9755006,2.1384559,-0.03959788,1.0972346,-0.49393886,1.8284969,0.94081515,-4.1235003,-0.9159663,-2.0056653,3.1606534,2.8456945,-3.8172402,8.369975,3.6715393,1.2668253,1.8921849,9.22941,3.020293,-0.7356609,2.5568533,-1.2671988,5.583451,-3.688389,4.891529,2.2276208,6.7746663,0.6928224,3.7282538,0.03500008,1.6007549,3.6556103,1.1775317
68.jpg,17.7987,0.8519629,16.03285,17.190828,2.6442606,-2.1182377,2.867599,19.570332,32.637394,3.2727718,14.8478565,6.9975295,9.65342,-1.9021922,5.1754684,36.10732,3.7550693,-0.6074519,-1.1142588,1.2437495,-4.4762697,3.503908,2.0008354,3.9230301,10.946119,3.2677412,11.602887,3.6358044,0.14185578,10.387163,11.086087,19.190975,-3.4040728,-0.67600715,8.626112,0.36562067,3.74283,3.2734618,7.52113,-3.2469192,-5.887583,-1.6455733,3.224679,3.899563,3.3096,1.2642627,0.9169928,20.123299,0.8116834,-4.3654437,5.012891,2.4463925,-1.6225284,1.9942207,3.70221,1.9260727,0.9159451,3.8673072,-0.72241277,0.98305744,0.7207652,4.0660353,2.5929327,-2.3154373,1.7706587,-0.404774
69.jpg,15.232381,24.300552,9.767981,3.777368,4.894899,4.4097657,23.636597,9.6152935,21.973951,-5.6132293,9.534458,9.399413,1.8634262,6.1384206,8.887686,5.389047,3.6346192,40.71161,6.618911,2.7654686,-4.1098223,1.9271328,1.9427061,-1.7609764,5.376958,6.795121,4.8917627,6.7157702,11.789133,2.6959534,-0.034770183,7.73912,3.685455,0.6672912,1.2082243,-1.0724174,4.7895346,5.686875,4.308863,-2.0288453,7.6890454,0.41723981,2.7924964,1.1686454,-4.2550673,-1.5548368,9.8737955,0.88371617,-0.81073993,8.643357,7.3200426,11.687608,1.8110663,-2.5534818,-4.937018,6.1018453,0.5069295,1.7098901,-4.0265307,6.8027453,2.9846044,5.14154,5.3458157,-5.700116,6.5784006,3.1504414
70.jpg,6.477978,59.65736,2.9971097,7.8157434,4.1710267,8.804227,-0.524088,5.1366935,10.26022,4.402357,4.096752,20.107773,-0.38622487,-0.091759674,15.954396,13.707906,3.106087,6.384081,-0.7869936,12.107754,-3.0978837,4.6403236,15.769726,5.2757254,4.393489,2.0694082,3.869383,7.6890616,0.055546187,4.3038754,4.9186215,0.32952046,-2.569174,-0.18936694,5.499188,2.8805268,-0.67781013,0.23018979,-0.763651,-2.891207,-0.18909459,7.041249,4.6415033,0.45875305,15.806344,0.973023,1.6006384,3.9162133,6.879793,5.832868,2.159477,4.367032,2.2694542,3.6133811,1.2419388,-0.84188056,7.54729,8.656137,3.2807686,10.29816,4.6420956,1.728135,-3.0910113,-5.195852,3.480586,1.7313143
71.jpg,13.255156,59.2704,11.451876,-5.295521,16.727512,1.2322448,-1.9754549,2.4135697,4.687952,6.536843,2.9897726,10.473753,3.2780893,3.426367,10.971098,8.220575,12.827112,2.084546,3.0083227,4.5719223,3.6183968,-3.5372376,7.2000513,12.7759905,8.305612,-0.2128275,-1.5035291,11.920288,-1.2737769,8.75802,3.0949697,4.9963384,5.3184977,1.1168299,11.618308,5.231078,4.2091327,4.517188,-1.0106684,1.8931696,3.3449419,4.4472423,8.765298,0.35638636,3.5349574,2.0970669,4.6609364,9.235165,1.6412218,1.3117793,1.8381675,-0.84708035,0.5813686,0.35379067,5.752949,3.9082878,14.036735,-0.2475178,0.40623572,7.0720396,-1.4040909,3.1910245,4.7233334,0.17092302,4.422093,1.8164247
72.jpg,3.3027709,18.55607,22.64936,8.542386,10.472269,-0.30642423,7.470175,3.461914,44.030518,4.7488227,-2.9348228,8.21943,6.1692452,-2.2166305,9.672012,9.232062,1.9135641,0.37995178,6.842842,-1.0105827,3.7889466,1.872156,-4.373519,-0.4234651,5.1399617,14.653426,-2.7786465,7.7867866,4.0092025,16.428576,6.5031633,3.5398152,2.1704779,-1.160644,2.5162842,2.4121075,2.9456458,4.1175604,6.2878175,-2.6248238,0.16004802,6.479099,0.94449127,-1.9138509,3.1497114,-2.1042538,3.7702463,9.362689,-0.06773472,3.9806917,4.628535,8.706292,1.6464641,16.208824,0.81994784,2.0162227,6.6897163,0.31403244,0.88677967,2.1553538,2.9495804,4.127444,1.6118232,-0.16563644,4.8596115,-2.2663736
73.jpg,8.858604,54.261677,3.2714753,4.95882,17.986723,3.92044,6.447302,10.3271265,7.2729974,-2.8969712,6.8365254,8.565472,2.8409016,4.4511237,5.254442,-1.1166408,4.5635867,4.742608,2.114549,6.9359527,3.8041263,3.1244855,-1.2382066,4.9961624,2.3752038,2.6910348,2.7330623,16.013329,2.1098514,4.339735,0.8884806,0.14956352,-0.1669582,1.1527276,5.605855,3.662318,2.0401578,0.45173317,0.44435543,0.968215,2.6476555,2.1859696,10.002022,3.5453963,4.975785,-1.7552081,3.1795225,6.142922,6.3077064,4.2428536,2.3538823,3.7860916,-1.0715773,-1.928053,6.499351,2.2100165,5.3166113,1.1857873,-1.3720906,3.8824563,0.33573738,6.2096224,1.575305,-5.4206977,0.17188564,-1.4565598
74.jpg,10.499148,20.794628,10.971518,20.391815,5.2986655,-3.235009,32.08101,13.254498,25.031534,-1.1084483,7.04871,16.058033,-3.2405596,5.763943,8.444594,2.8101175,1.84604,32.478218,16.816086,0.24275643,3.0883713,-0.74448556,-0.13459958,22.207361,2.6349075,4.492088,14.176814,1.9224808,14.63999,2.9466853,-0.6389381,7.7380195,-1.3877165,5.052971,2.7913234,0.6429963,5.922174,-2.140406,9.620328,4.6944237,7.916831,-2.7232769,-1.6006982,-2.1067212,-2.159922,0.5234479,5.3031416,1.8774444,4.245441,12.0938425,6.7246413,10.142448,1.2298698,-1.4660616,-2.5759413,5.4221363,-2.709219,0.33442745,0.7485461,7.150128,0.2012386,0.68506694,1.5836582,-3.3489797,3.7406318,0.8532433
75.png,21.66555,0.4652193,15.711919,4.225754,2.9110146,5.6122694,3.5280895,50.353645,16.428099,-0.7165473,31.30375,4.8513107,0.13266681,13.695637,10.13951,3.840708,-0.29505035,0.33899742,0.80567497,-1.2831365,-4.08222,5.8120804,-3.7729204,1.0460663,2.4605,4.072289,7.8308554,3.4125435,5.168907,1.3992133,4.2697473,2.126482,3.3647795,0.7564526,3.4925992,3.4302592,-4.3884935,9.155221,-1.1723738,-0.58080655,0.6985127,-2.4076414,-0.075465254,0.79864395,0.3493433,-0.006507151,2.0585759,8.391426,2.5474105,0.5545608,7.4515676,2.8596542,-1.9110719,1.1469368,-0.52947646,1.8713766,-3.4325309,0.70992976,-1.236247,4.4929786,-1.1438195,0.0899747,4.631309,-1.1758981,6.1702223,-1.1452526
76.png,15.536497,51.725758,8.918844,8.884894,6.4393907,7.1366153,4.8406262,19.047606,6.8632393,-0.41839644,18.394976,6.573886,6.926041,6.1440125,2.866016,6.064045,3.955827,1.665977,3.0725398,10.3475275,2.7030518,2.619048,0.90873593,3.3187535,3.3019032,-0.07287152,6.445388,4.2198224,2.6024117,2.4253619,13.284582,5.6814685,-3.3818557,-3.614953,3.775629,-1.6342338,2.2850525,-2.2801812,-0.43244922,-2.9231126,-1.454,1.4594233,11.9460535,6.4433174,7.8168416,0.61532557,10.106541,12.771884,7.7220244,3.0740082,1.6230034,1.3483597,-4.2502313,-0.8260541,5.2753067,4.078393,0.97894037,4.8634386,0.87673384,0.34055915,4.1024976,4.1243563,6.679979,-6.894204,-2.8770645,-2.1258116
77.png,16.676865,14.336012,10.8473625,29.125061,4.219521,5.864939,21.32177,20.763536,42.265305,-3.225728,8.875422,9.824666,4.487888,5.013621,15.228231,6.6039057,0.70241463,3.4310606,8.647819,7.669266,2.997768,11.623053,9.6749525,3.9415584,-2.344465,4.710309,5.8166637,9.672406,2.1874576,11.54292,3.3759027,5.7986455,2.8726702,-0.3306575,7.8019085,3.822397,-0.81237686,-1.6742527,4.0399766,2.395629,3.2626896,-1.4337797,-0.21755305,0.9890695,2.9819262,-2.6271808,4.586377,4.4109607,2.6461103,-1.0479609,8.824918,7.2099977,-3.2192295,6.3603153,4.2734823,3.2613564,-3.13448,0.88056755,-0.24661231,6.7252545,4.0570693,5.2188234,0.9649489,-3.964537,2.893588,9.038744
78.png,-7.385996,65.608826,8.836519,9.271691,6.980088,7.8482046,3.675491,3.6466904,9.883232,4.2687373,4.703118,5.303303,4.067742,5.745179,11.504854,9.267891,0.7360928,11.95167,3.4890368,3.1437418,-4.1030226,9.219334,11.533606,2.8648748,0.8266101,-2.4097652,4.222923,7.640468,-2.5534472,4.4846616,2.4238448,2.9304652,4.6144223,4.4941645,5.210441,-1.9817665,3.4855533,2.1875546,1.9957533,-0.7348577,-0.83481145,6.9675355,0.58659387,3.3815012,6.1107774,2.6738946,2.630277,4.098105,3.9507256,7.7033415,4.4527826,-1.3015553,0.22098115,3.456202,-0.42918408,3.1064694,1.3629208,12.476417,5.770009,7.5059624,6.5990276,11.421101,6.2652493,1.9245466,3.724489,4.3932996
79.jpg,-1.2110732,59.409286,13.313969,9.547902,13.925945,4.229858,21.208569,6.242059,5.5634065,12.578615,3.7302978,6.863063,7.8869185,19.960495,1.1753674,6.75186,1.9606352,3.7081733,1.2137887,6.4195857,3.3391752,2.6367173,2.3699296,7.1735916,2.2530985,3.3446975,1.0953314,-0.5613087,2.888226,4.3962684,2.421423,6.212436,8.537097,12.884701,3.545009,2.988378,3.7760608,3.1335316,2.4479754,8.120538,1.2899659,4.6151257,1.4614285,1.2296457,2.9476926,5.3107786,7.0679483,4.9733663,3.513327,4.730648,4.3267117,4.55554,3.6799827,2.478696,5.433499,-0.9281626,-2.9070094,7.856261,4.149555,0.3775296,5.4034934,-0.50629646,0.041263178,1.0580971,5.232037,1.4703293
80.png,9.791784,46.15618,-3.3296301,9.262308,6.9733567,8.508309,32.597057,3.184931,7.4772215,6.769684,9.547689,12.090979,2.720149,7.4616423,14.456431,6.0398626,-10.623548,8.2747345,2.2215285,10.758441,6.2276373,5.0475254,23.915062,1.0646347,1.612756,0.5207853,1.1064528,4.719701,7.0095406,0.30134618,-0.6467332,3.1359065,8.250932,3.2861404,0.92089015,2.727967,-4.129638,3.2339544,-2.3087468,3.7094243,8.601467,7.0811987,0.55083036,1.9434931,7.767336,4.1050434,6.2521973,4.271444,8.681593,0.5799693,3.138804,1.986438,0.50572556,4.329585,2.0889385,2.01888,3.2225528,21.63114,5.0855093,9.364197,8.758694,5.350778,5.6204796,2.752147,2.10009,3.921097
81.png,7.227634,7.314959,21.800814,7.772276,8.025455,0.67610943,25.958294,6.6219306,29.683327,5.133194,9.116048,12.874338,0.8601117,4.9628606,6.172215,-0.92931324,3.926246,12.474923,4.2303996,2.8185952,1.2383616,8.492768,6.9228096,1.2053058,3.9579968,-0.20633154,10.569674,1.3214252,30.252424,10.168933,4.734605,6.845616,-0.99886006,0.4749923,-2.2438567,-1.7873766,-9.5139675,-2.8263197,-1.5327598,1.8564062,3.2951295,-0.9344555,1.6969582,4.3004932,0.1523763,1.8684824,3.7480347,-1.5773233,4.821194,17.572567,5.5871744,-0.35175765,4.2139163,-0.28324905,-4.0181894,3.1949098,-1.1909391,4.8551483,-1.1208383,4.4977503,-4.665621,-3.9080129,1.3496269,-0.19778866,13.692172,-2.6121109
82.png,-2.9133248,14.064616,14.6193285,14.988494,-3.7045195,5.638701,9.368143,6.4235926,36.35788,4.2436337,9.496185,8.057757,0.7401591,2.8411622,12.735252,6.6851673,7.541114,11.026154,8.894974,6.4582376,-2.85456,5.491553,4.7767982,3.09791,4.734269,0.12795255,6.8583107,1.9094847,13.937176,21.246254,3.257621,1.1116232,0.64566433,-2.5580935,1.8902907,-0.3695911,1.0882416,2.0050335,-1.9361026,-2.6429207,5.971308,8.241236,0.052410085,15.56584,6.7525396,4.438236,8.637768,5.929522,3.4512155,20.342325,14.833741,3.0681605,-2.6025267,2.532086,-3.5947073,2.3471165,6.962518,1.9398799,6.10964,11.183541,3.231036,1.2328138,9.308533,0.11144667,8.143482,2.948162
83.png,7.2390995,4.7013493,13.812362,3.4721189,6.2783823,5.520285,21.00567,4.5617437,32.081905,12.539661,10.660617,9.350805,-0.7533218,3.6468358,8.48585,2.040854,6.064845,8.747534,4.128463,10.242801,0.46880785,5.3181744,9.298455,3.087876,6.616353,0.8199053,4.5888634,-0.67845196,23.528517,18.684086,5.4584384,6.1119165,2.6697814,4.693497,1.8015434,2.3399394,-2.480611,0.2562793,2.806204,-0.26761234,9.248315,7.6923943,1.6832176,4.950076,2.154396,7.978238,2.9816215,3.0482762,1.0176585,20.402367,14.859861,3.6924334,6.3781075,2.7794914,1.5216597,4.045813,3.2455816,7.495021,5.578046,8.228103,5.7193017,-1.8034723,1.3788353,5.6812,9.708125,3.3055897
84.png,15.304622,6.295588,7.925598,12.197682,6.4272733,-0.5887731,9.486832,10.139725,19.101166,2.0490644,13.594608,12.836315,8.063068,4.0129395,21.761198,32.7353,-0.47587577,12.530369,2.4418316,8.961611,-1.7318295,5.421364,6.3044944,5.691955,10.300582,-3.965301,6.8561845,3.288632,-0.6461424,6.287714,3.8431504,2.0779703,0.21622206,0.2768677,8.163534,4.312732,-0.626717,-1.7351562,7.140112,-1.5673499,2.8605392,-0.5927879,3.9401536,-0.76344323,2.4939163,-0.62000483,-1.1491761,11.6331625,-0.74104124,-0.3695513,6.5705843,1.150624,1.9651793,2.3966036,0.386843,3.7505767,0.8612242,3.2376077,0.45950738,5.550542,2.7138867,8.632398,9.627845,2.4070761,5.2096477,-6.1017394
85.png,7.9133964,14.301184,13.6764,7.5009465,6.243243,-1.161687,17.306808,0.8314589,35.899094,-1.6394697,7.392992,17.34538,-0.4401816,3.3926747,6.7859993,2.821419,5.726398,9.295018,6.5704226,5.045723,1.6130842,6.6617384,7.888709,9.610311,7.8841352,-1.0239062,6.242875,1.7874669,26.961905,11.860289,15.216721,10.354612,-5.173655,2.6369042,3.2541354,3.45474,-4.696442,-0.996984,-4.5554595,-2.453453,2.560834,4.143039,2.1723216,3.2717545,3.2036827,6.26104,-1.9639403,-0.09654425,0.27295104,14.31123,8.594174,-1.3178484,7.637416,1.0557618,-7.197829,0.73988897,3.3435621,4.8051147,4.9580894,0.064947456,-0.7336053,-5.549851,-2.1125844,2.9264345,15.197405,-0.18874826
86.png,36.45553,2.661094,-1.209479,2.973648,-0.016252557,13.004039,7.937519,47.21573,6.7055554,1.9594632,23.454153,4.8765535,8.464744,8.884904,20.116344,13.399705,2.994793,1.3573542,2.33921,5.5946093,-1.7296708,1.7826624,4.311617,6.6669292,2.0145314,1.703064,7.4466558,1.4813575,2.1244042,0.33080232,3.6558847,6.5571146,2.4017034,-0.061956327,9.716413,2.9256754,0.53357196,7.775046,3.8704135,-3.2632582,0.17013234,1.9892104,-2.036453,1.3166815,4.2076187,2.7717357,9.022768,0.481762,3.7623558,2.6552222,2.3697007,0.72602946,-0.47398052,1.951709,1.6336504,5.139804,1.0432569,1.6860471,2.254143,0.5903339,4.857515,7.1109004,13.674328,-2.4273038,0.6570065,1.7200619
87.png,-9.43766,72.999855,12.17646,2.7337503,8.832652,6.4991446,6.7339053,5.189655,10.452354,-1.6094251,9.548683,16.326586,-0.26013324,4.4466233,11.610694,7.015369,3.7440152,0.73620313,4.7959437,10.373775,-4.4105515,1.3183886,7.896312,4.7180514,0.636126,1.557719,-0.4495032,-0.9627235,0.6376328,4.139252,4.682622,3.3898268,-0.20513478,3.2204185,0.29969665,-0.05160412,-2.1154754,1.4233825,-0.24906826,2.2387755,-5.458216,0.70927215,4.381532,2.7483664,4.7149467,1.2068759,4.915807,3.3271146,4.359095,3.1511438,1.3391088,0.38746205,-1.2134033,7.2447114,-1.0197841,0.2552785,1.6644673,3.307367,1.272321,0.77268744,4.6463327,-0.418009,3.1896334,-1.6869936,1.5668463,-0.79517376
88.png,5.5881457,13.747032,24.897018,8.500789,4.787197,2.7853358,-1.4796294,5.220826,37.474735,1.1927587,9.205234,-2.4218657,3.2360635,6.9467316,-1.7349283,19.761307,1.6188562,5.060893,27.774508,1.9372287,2.3083932,-3.6722512,-7.3185816,1.0460093,1.2666312,6.389377,2.0332575,-0.21401243,2.8993392,15.06744,9.481168,6.884689,-5.2646184,-3.4507148,6.570481,6.0002184,0.872867,1.5263197,1.4079554,6.109472,-0.026104936,-0.33211732,-0.8346131,10.940856,1.3531108,0.89958656,-2.2794518,5.460252,-2.514608,-3.8224328,15.046898,-0.5309953,-1.4566121,1.8206825,-2.550303,8.89843,5.742081,1.144109,1.4444519,-4.114236,4.362337,2.6970034,11.212804,-5.8656125,10.069455,-4.0643225
89.png,1.265266,11.118872,12.083989,6.6805787,1.889011,1.2021931,17.208221,2.7603736,25.526709,2.9572904,4.3628397,15.878272,1.6464431,-1.9541479,20.494423,3.6624908,2.3087912,7.05503,-0.5322528,2.7981546,1.2509544,3.4121723,12.371964,0.32732934,-0.22490686,-0.028654374,3.7081866,7.4884906,22.249443,4.611454,-2.1621113,0.83784646,2.2263494,-0.26388493,1.8384218,-3.7833567,-3.83295,-2.9134812,4.5633802,-4.6709647,8.144434,1.3383082,-0.0988846,5.4205785,1.2080978,7.1352973,3.0112154,-0.23185113,6.6203637,10.055827,5.1937747,5.341611,-0.10103395,5.914418,3.297568,3.8883607,4.0742846,3.6834755,-0.91337526,7.448909,1.8880585,1.4636087,1.3026588,-1.4908214,10.732218,4.403381
90.png,7.796395,3.9214199,52.004726,6.181424,0.5336333,6.5924363,8.021634,11.486433,21.784233,7.5093575,7.513465,4.915539,0.25189203,-7.3468766,17.486126,4.084363,-1.0616765,0.8522875,5.031098,7.1980824,-0.1813177,0.8093804,-3.2425,4.116331,1.6182982,0.08440548,-3.104803,4.1865163,-4.2330236,13.101588,8.511464,2.1819148,-0.72632205,-1.1251992,7.9934506,0.9808436,-1.2280016,2.4674854,3.215321,0.17164384,0.41319188,4.636253,-0.89576924,-0.6726634,2.1944804,-6.2192516,2.8699913,5.5310326,7.8056006,3.364176,1.8042352,4.560011,-1.6673241,10.157403,3.4925227,0.16537705,8.19566,0.20826665,0.5398634,3.9948895,4.3368573,1.0214579,6.195607,3.8287203,-0.52319354,-2.3233337
91.png,12.344123,50.0427,3.158519,13.439229,7.450207,3.8480866,-2.3416796,6.2448545,4.7698455,-5.662062,7.660431,5.8480678,-1.2195512,3.612709,6.948906,9.722883,9.054762,17.737316,5.550974,0.9296818,-6.371167,1.6991864,-6.7774773,24.380566,1.1297464,-3.7449691,3.0462108,10.212017,-3.3946261,10.180151,3.1142,2.057184,-2.0938418,-0.51152664,2.8212879,2.6680307,2.7353504,-1.7249454,-1.175506,2.1351461,4.939924,-0.85576165,9.433271,7.2535,1.176739,4.9702935,4.1202164,1.7695822,2.1746545,12.75088,6.161801,0.5937119,-1.365773,6.082167,3.280978,2.8372295,3.6696105,-0.9607505,2.3606076,7.0678816,4.165596,4.4531713,0.74633014,1.8229008,-3.0809743,0.48057082
92.png,1.2258831,70.56942,6.4628615,5.863586,4.464661,7.549934,10.841084,8.802782,6.726408,3.6586127,8.599402,9.571875,4.4471345,9.958213,9.653692,2.8440874,5.7993803,3.4945369,4.6566324,1.8259995,3.5549023,3.8789558,3.911429,-0.7666491,1.8120259,4.8997607,2.1173239,9.417345,-2.7836215,1.5887644,1.6000181,5.305039,-2.7740974,-0.09497793,4.3931537,2.06086,2.6013267,5.434297,1.2353692,-3.462547,-2.0046484,5.625043,2.5861,1.9948645,2.8365998,2.0922992,-1.1994288,1.0067601,5.783185,2.5240705,2.0535624,0.796838,-1.8699113,8.331911,2.5414574,4.007989,0.8986493,7.086416,0.9735323,2.290165,3.2556515,3.0305398,5.227485,2.4406896,-2.5056522,3.0122223
93.png,21.212587,4.2781096,9.35085,14.577681,0.61674136,12.285202,9.203798,16.717226,31.465197,8.762634,11.22624,10.227301,3.8812437,-8.800403,6.4575205,10.274959,1.373454,2.26216,0.5472327,9.804998,3.743653,5.2930756,-1.8855993,6.334149,4.8881955,7.893757,6.065109,7.832962,-6.0631084,17.60986,5.964304,5.8462696,0.40919277,-1.4052672,11.042782,-4.5813556,0.7157263,14.893114,0.1950087,1.2992167,7.262411,2.1320217,3.8147166,5.709226,5.860039,3.8596656,4.7965364,5.7195415,7.758525,3.2102613,3.8538914,10.081385,-4.027061,23.642338,0.5861783,4.6758256,13.669537,3.1924465,-0.51039827,8.648097,2.5286381,4.926898,2.620527,-1.3569862,0.63813436,-0.59515274
94.png,6.0673146,42.823963,15.524614,5.408932,-3.5113885,2.0732741,2.3331587,9.013815,15.961782,-0.7793258,10.662571,10.756672,2.2360513,5.5627737,14.576604,9.804193,1.1446755,9.881204,3.8538687,7.4752555,3.39626,0.7080224,7.855071,-1.7693082,-2.6810791,1.7126706,2.515052,6.6005826,-2.1766126,9.256907,-0.5429112,2.6164997,-1.2671444,-2.9579453,4.8280764,1.2148817,2.9403539,2.8545113,3.9246705,-1.99996,-0.7254129,2.0384505,-3.6376677,3.9638553,0.105978034,0.002547924,3.9509482,3.8724892,4.7806745,6.536526,10.194794,3.55639,-4.0528936,7.8609934,12.705687,6.156891,5.1940675,16.827288,-1.041545,5.7672834,6.0816393,8.280398,7.5146117,-2.4451294,2.6971917,4.424596
95.png,10.441935,-3.111822,16.194448,28.421751,2.7056928,3.0348651,5.544102,3.5723846,42.136246,8.201179,-0.06854739,8.369995,11.940883,4.312123,1.71295,20.243034,9.312613,1.3937515,5.0556636,3.2027273,5.6371956,8.519906,9.937119,-2.3438535,16.028204,4.8441186,2.9398813,3.1158137,5.0957065,10.082662,8.098852,5.732063,8.153192,2.9292724,6.1231756,0.37970445,8.37424,5.507877,14.805752,10.856377,0.023287348,1.9722059,4.1117854,-1.6930535,-1.5405957,-0.76631504,10.369115,16.836306,6.448207,-0.13603666,2.0784774,6.940154,4.5604663,1.7631435,3.2913976,-1.4510119,0.34121805,1.5181167,-1.0322639,5.51552,4.5326037,1.0895746,2.094629,-3.4940646,7.764187,4.111877
96.png,-3.6403701,31.94252,26.369835,20.764172,27.390799,0.18213671,15.015094,5.8543024,29.619747,1.1901364,3.6958919,8.395776,4.647138,-8.5740595,0.32021087,-2.2339475,-9.363527,1.9160556,5.221181,3.1317651,2.8445961,0.7902122,0.46519068,4.139804,-1.2727711,0.7512324,4.7619705,4.6613684,13.172147,5.840841,1.539004,6.1434317,-0.68684304,6.928824,5.099717,-4.6054187,0.7836524,2.1515157,1.2798334,5.911513,-0.14562085,-1.9935962,10.578343,-1.308145,1.536894,1.052301,-0.26583922,6.8565345,1.0688258,-0.1562518,-1.6686221,3.3342297,1.5986245,2.0797522,6.9176054,-0.20194668,-3.9672203,0.7660407,0.1327869,2.0118153,-2.9512353,1.238549,-1.2067037,-4.8440733,0.60928476,-0.56039363
97.png,14.947154,0.8195506,16.012161,22.691378,8.169343,4.996802,26.295626,5.5219455,39.54497,3.8343806,0.02777148,15.270864,11.636225,-4.137581,10.100731,12.569748,6.778016,5.724259,7.518354,10.979744,3.9670753,1.0175301,10.754238,0.1627872,7.5551867,2.1591644,8.151688,0.29344857,14.351707,5.2841244,4.6519284,8.471888,2.4812675,-0.26188254,-1.2734711,-1.0478375,-0.65858674,5.7817645,0.13164605,2.579064,2.2101736,0.7290932,11.406412,-1.9335873,1.3803515,-2.4559944,5.042064,6.678714,6.415514,3.0928893,0.5875395,8.405683,0.70816326,2.2662323,0.23736714,3.0426388,-2.3693297,0.50452244,-0.60418874,1.1015928,-0.83191,2.2281697,0.34874088,-2.2293952,3.9820845,2.5401082
98.png,3.591017,2.3148704,10.815273,35.691757,1.242406,7.2570367,12.322772,10.931306,38.373657,-3.2449763,9.799318,24.360456,11.591842,3.4082885,12.047422,16.529194,7.8447886,3.2980435,10.802729,1.054575,3.4804602,2.3872917,9.919651,-2.0309627,4.6886916,2.1813226,0.5950111,5.250796,3.3159063,4.8096266,3.1464744,9.040567,8.041316,4.578678,6.3174343,-0.23080277,4.5582495,6.9143915,13.354635,4.2782145,1.9613945,-6.2063184,-1.014367,-0.8672489,1.0644433,3.4066434,3.0865111,14.943899,7.0573425,-1.5540602,2.2429607,-0.9985753,1.1646856,11.548133,0.80253047,5.401839,-1.6255572,3.5040915,-2.5346048,4.4204893,8.231871,15.525686,4.389689,-2.7796538,-2.7359428,6.240382
99.png,-0.7493897,65.20466,12.628676,7.238709,3.0214596,3.6987793,8.2806,7.966431,8.124193,0.041653123,9.517221,4.8465943,1.8910692,8.0548725,9.303925,2.5669348,3.2211185,2.0037808,-0.8392288,5.9935727,2.0040739,0.30026114,-0.77290696,8.7688875,3.4878962,2.4517038,0.30679777,2.9562836,2.1132112,5.4173737,12.195773,6.39249,-2.592942,-3.4397144,4.1482396,0.91728026,1.1186734,-4.636783,1.1524875,-2.9429235,2.1858218,8.186136,2.3272066,2.252856,4.8103266,-0.8482185,3.407193,4.733975,2.282074,2.947238,7.0325346,2.3398302,-3.534561,3.6336741,3.4081883,3.8162563,0.7366227,3.447132,2.4161806,3.9712622,6.890676,0.4555925,1.600451,0.5099545,3.918371,-0.81098145
100.png,10.3194685,35.71098,-1.3427706,6.110783,3.8344507,10.411118,15.680114,8.909033,-3.4705348,8.402392,10.592434,16.577991,-0.15753648,1.2025183,22.428507,17.14539,-0.5147182,19.551424,2.8592355,9.0704155,2.6169596,2.4464395,12.891386,4.433016,4.4091516,4.8911376,1.1353092,6.9697924,-4.800804,0.8583883,7.3723407,6.0970373,-1.87664,-3.1745744,6.334535,2.6923747,-1.7105602,3.5644379,-5.5149016,0.27435032,-2.7521474,3.8725839,-7.454185,4.9769115,7.222946,-1.6961342,2.8268955,2.2195606,9.962976,11.131141,1.6877904,7.8877926,-0.59949845,10.112537,3.4836953,0.025737565,9.157895,11.493735,8.110945,5.1059155,1.7201923,7.641226,6.8353267,1.6056131,-0.7291864,-3.5317857
101.png,19.130512,44.060757,11.442905,1.714511,3.93963,2.321877,10.701716,12.471102,5.751045,0.27803528,11.344669,9.687288,3.2728753,11.353807,24.38992,7.0611253,2.7118032,3.706956,4.6437993,2.5161338,2.3493025,3.5793648,4.7929716,13.59858,4.3440595,0.244404,4.9528675,16.893734,3.0748255,8.853767,2.9627109,4.234516,-0.056160614,-0.99407935,8.391356,1.4793701,5.3310447,3.108472,0.16126451,-8.937218,1.7081645,2.3031046,1.0701913,-1.1425601,2.7881005,7.136705,0.19702986,4.561705,3.5160072,-7.4416,8.123636,-4.2264414,2.8433516,0.78552794,7.805081,6.79632,13.065785,3.612578,2.36728,5.940337,-2.2486682,2.2936049,6.5078917,-0.5494197,0.8497958,5.7328753
102.png,6.647028,8.398679,41.7876,9.301779,-0.7964499,5.0312624,7.0102615,8.32147,35.464016,-4.28807,10.636683,3.8377714,0.253252,-0.8494418,6.6754246,-0.18661264,5.7954087,8.736312,5.783784,-4.293251,6.6712966,4.7035966,1.252087,-0.9776486,-1.3386192,3.9404795,3.5864592,11.570428,17.833664,21.2843,2.3658566,-0.29844287,-0.5111992,-0.44226673,4.853715,3.3105488,-3.3316507,-1.4918292,1.6991572,4.557691,7.248925,0.2839866,-0.56569844,18.081497,-0.026487606,7.3411,1.9525766,4.416923,4.030407,18.73438,12.991248,-0.21651182,-2.1755998,9.066462,4.584442,1.0902379,9.974866,4.631011,-1.9627074,11.164047,2.2179217,6.8808227,4.3680353,7.55373,9.648043,1.7660717
103.png,15.34133,9.637715,9.771843,13.414682,1.6814742,4.9658117,19.693256,13.254491,23.302616,-0.47725016,18.254646,8.116195,2.995534,5.916975,19.110447,2.7243068,7.478066,-0.6021907,0.6997065,7.31745,-0.23083957,7.352067,4.3599563,3.2773967,8.800802,2.5267258,10.733225,4.4250345,1.4780136,6.1611633,7.748139,2.93781,0.39746156,2.6398401,3.091305,0.4843427,2.3272095,0.7935671,4.48734,-3.0483258,7.7675195,3.95872,7.260333,1.8553138,6.3430796,1.9314554,-0.14369418,0.5917261,7.1168513,5.965923,13.880454,11.388605,4.5532904,2.036628,-0.09159669,7.138028,3.258758,1.4220865,1.8101318,4.8421845,7.1965113,5.465465,11.235961,-1.2428409,3.560472,-1.7051686
104.png,18.764532,-0.3833962,6.8503304,33.72858,-3.1144326,1.0988669,20.377636,13.419543,42.39698,2.4499388,3.2056794,26.861233,5.2107105,4.7548156,5.884634,8.72604,2.6759982,9.619334,1.3330758,8.150305,-1.564125,4.349565,8.519689,8.561874,7.545084,0.77964437,7.263813,6.6216984,21.034422,11.189421,3.9925668,3.5329797,5.263444,0.39817187,1.4174862,2.2294848,4.2250175,-0.67842096,3.4422882,3.8226082,6.6807113,-0.7358124,6.058481,0.6010453,10.671511,-2.5489833,7.2915397,8.408024,6.004122,6.956485,3.8413742,5.090206,1.7167903,2.1094859,-2.1095388,2.829316,-3.707863,0.5595429,0.5012085,-0.70403856,0.5797078,-0.47188923,-1.5738988,-3.3334165,-0.5751396,4.5278454
105.png,2.668119,58.780216,8.378072,9.6212845,29.718363,3.6325927,5.4437184,16.784504,9.466547,-0.9917488,7.9850183,10.338317,1.0050741,13.378332,2.6011224,13.932048,6.6004677,3.941528,2.6987147,4.176539,-1.9679149,-2.810644,1.736117,21.484426,-2.0202317,1.6671695,1.8366458,9.72714,1.1404692,4.5961156,5.5755434,4.7769156,-1.2437757,0.88509005,3.9527316,14.554283,-1.1934016,0.7605765,0.15600799,-0.33918238,0.22636634,-1.4730421,7.8778663,-1.3876703,1.8745208,-2.6419806,0.2596101,5.3677893,9.13659,4.504092,3.4124725,5.1325254,-1.7190838,2.8044899,5.44075,-1.128581,0.43941578,-1.5927795,2.3795488,1.1436645,4.2420006,3.3171701,1.4333915,-6.3689666,0.29018497,-1.7605107
106.jpg,39.27195,1.6580645,2.7190845,19.402761,0.5812262,5.789754,6.0306897,23.879232,16.30277,2.6934237,10.497308,2.9818914,10.977125,2.272694,8.175283,44.127007,12.107625,3.1125402,6.4440923,6.7424617,3.2292664,3.134819,1.672414,-3.1007066,16.661953,9.474091,8.356236,0.045184255,1.5634553,3.9387584,7.5372972,11.922286,1.1893588,-0.8603129,6.623791,9.315707,3.6468143,7.0723376,6.0955105,9.098573,-0.6345517,3.0010316,3.204518,3.0324962,8.27392,0.47854838,7.0964003,6.418869,3.7559915,0.541258,4.7418804,2.1160524,2.9366102,2.5835693,2.5497918,2.4912763,-1.3872565,2.4881501,-0.6596742,6.868732,9.3052435,8.499918,4.958929,0.95794415,-1.0137657,0.91909415
107.jpg,2.164775,48.28482,13.513647,4.8851395,3.8791113,3.8131225,6.6132026,10.680903,10.615657,0.021356624,10.975766,11.04232,4.073944,9.17407,3.0481625,8.575292,-3.463159,0.7555187,0.33425233,-1.3270146,5.9244885,5.6136317,1.4263785,7.647661,-1.0421654,6.2725224,7.350061,-0.91100204,-4.144894,5.3226542,1.9140508,3.4510593,-5.0389366,1.1076437,7.33189,4.654637,2.735506,-1.0768695,-4.2114334,7.2073536,0.005532615,-0.5869935,2.6917026,4.227222,1.949262,3.121455,-0.9680677,1.8202562,2.301525,-0.37044016,5.971675,5.3277407,-5.3680515,4.201199,3.9523225,4.782736,4.31423,4.9957027,3.1804993,2.281759,2.1013732,3.5396345,2.6732645,-0.2290354,-0.6688507,-4.70371
108.jpg,16.281345,14.752859,13.735763,2.5232072,1.1476395,-0.6147797,5.8169484,24.393978,21.500332,1.1369226,10.813982,9.901702,6.400339,-6.5908246,7.844802,10.007579,-6.1335998,1.3241204,13.556027,6.3708158,-0.1459904,6.5630198,7.4587636,3.563973,5.0518465,8.597147,0.5453116,2.7371807,3.8684845,5.6274734,3.4241006,0.20821805,9.096928,4.743511,7.930726,-1.1238618,5.9537725,7.5994253,21.289455,3.4459186,0.58923906,1.0966228,-1.2953897,-1.0274029,2.8767526,-1.8096308,9.995792,2.4517262,9.444973,-1.4075706,0.9516008,2.7935803,0.51580614,9.119354,-0.5840426,1.9059626,6.1861415,13.093483,3.3756397,8.2805,-1.4591577,1.0275009,-2.0938146,-4.225176,5.293009,-0.76942086
109.jpg,4.445495,6.1065683,16.35618,23.371408,-3.6511745,4.7823863,10.640691,7.606142,47.207882,-1.9341999,2.28616,7.443167,2.5400763,2.071842,4.168705,11.691412,1.4212886,5.7404733,10.28622,2.1302161,8.484975,6.090574,-1.1157905,-1.7569029,0.4561483,3.7732027,11.688625,6.6100836,19.368765,18.217716,0.90685374,6.5496936,2.581455,-1.2134516,1.4087895,0.5845963,2.467549,-1.4970511,-4.0486474,0.66790783,-0.38199145,0.99263406,-2.1793497,9.055701,-0.82593745,4.7507024,2.7106287,3.9143353,-0.89350146,4.2569985,6.0758886,1.0034461,-1.9052761,4.6566854,0.63404214,1.524769,1.6649244,1.7754655,-2.0982533,2.7978797,-2.4220352,1.5927236,-0.20313478,-1.9246056,9.806425,-0.9817209
110.jpg,7.1323953,47.38456,1.0435735,17.675875,8.927696,1.7156115,0.44495156,5.168601,8.191927,-6.140398,6.1498013,28.050964,1.8021222,2.3201265,10.808183,22.936127,4.9635735,28.427092,15.873477,3.9496775,-1.2308774,6.829847,6.7337365,16.067236,5.067187,-0.7142603,0.38144326,11.231502,5.206192,1.011323,0.5858963,-3.9110527,-0.64853615,2.4120688,4.3363614,8.01264,6.0671835,4.2436414,-6.479947,0.82447696,8.267227,-0.39205328,-0.10493779,4.4832525,1.4358824,3.774467,-0.34932643,1.7721289,8.024212,4.7604847,2.3245788,-0.7624335,2.5138988,10.105857,-1.4038132,1.1040269,7.657074,13.621688,-1.0342396,4.332664,1.7309186,14.214693,0.99124825,-1.6406424,0.9004573,-2.0587497
111.jpg,3.4306533,11.466643,16.685318,9.424165,0.30755797,4.606372,28.48663,5.772515,36.198597,2.2569788,3.3620744,6.695509,2.8477483,0.8524578,8.422257,2.1746619,1.6759534,18.489471,7.655973,3.7418041,0.24902269,4.123646,4.794457,-5.137815,4.7527046,1.376277,15.834525,4.262302,24.195862,13.003863,2.888924,5.092831,-1.715279,1.8113732,2.0478864,0.5943546,-6.4141846,0.542099,-1.18523,0.33450285,6.7420907,1.8363645,-4.3478923,5.2905226,-1.9822592,5.976181,3.1017513,1.5253305,4.185734,15.365012,7.2548637,3.4337695,3.487893,2.683083,-1.6819907,6.0195017,-1.0758907,4.8181133,-2.9853628,3.5167303,-0.74706674,-1.5723864,2.7638059,-1.4505833,10.662296,0.83158594
112.jpg,-0.064083934,8.8776245,20.415184,27.664438,4.67799,8.039973,18.796663,0.82091224,41.077633,4.4793463,4.374121,9.675674,5.4725146,10.274271,6.9152975,3.2469585,1.5431782,8.300202,13.749282,6.198417,-2.0989854,10.086412,5.8558407,-1.7977211,-1.256346,-1.906484,4.1496673,4.963994,27.521238,11.751618,2.1210227,1.4664851,5.812406,-3.819553,-0.08729063,3.3618515,-0.09703352,1.5694002,-0.28981632,-1.4656875,6.0547104,4.1772313,-3.7849321,6.010334,1.0535276,3.7515678,2.6700242,4.4771953,9.718611,4.523518,10.0524025,2.2904477,-3.161199,1.3217221,-2.3967612,1.7455194,-2.1535578,-0.31882805,-1.7442687,1.3805904,2.630814,-3.6013908,1.3092057,-2.4520385,9.607326,0.5299154
113.jpg,6.4991593,4.950153,13.492857,22.068556,-0.42390558,10.642874,20.557178,6.2883153,35.720505,0.13305429,8.065724,9.152598,-0.054089166,-1.344021,13.978521,2.802888,9.600108,11.1663685,7.8310294,3.6343222,-1.8638039,6.6731586,4.3300486,-0.6278748,8.386739,2.0197654,9.718473,8.367499,28.101004,7.073082,8.600277,4.6441517,4.4381523,-0.26794922,-1.3156624,0.67379075,-2.7814786,-1.6220622,-0.97026944,-3.1593573,11.698874,-0.68204457,0.90194774,1.5510997,-0.54206485,5.789374,4.9227247,1.8969642,5.075327,11.408541,7.858385,-0.20208341,4.011657,-1.7510593,-1.2684813,4.287132,0.16971472,2.0347445,-0.9645437,4.4892235,1.9964383,2.4688957,-0.8024815,-0.4165508,11.566899,6.5706954
114.jpg,17.26477,0.32179728,12.05665,36.464264,-1.967991,6.1742725,15.026626,4.985813,51.862938,1.971177,7.582286,11.500152,2.4258764,-2.3512359,7.9895043,5.641375,2.180938,6.6617184,3.7157543,5.766604,0.71726674,8.585451,6.400387,-4.7563314,12.268204,1.6556528,10.64079,5.719051,21.647364,12.388655,6.259604,5.1746063,5.895545,1.7635031,-0.4390942,0.9538866,2.571223,1.5669737,1.2614465,-0.0902703,6.790556,1.1720561,-3.0811732,1.7181484,-1.0298401,-1.3250054,8.715812,4.69916,4.9155965,3.3414907,4.235067,4.4508157,4.475974,5.9034753,-1.1063492,4.369562,0.9934712,0.6531612,-2.1236842,3.7417252,-1.7779396,2.7535622,2.4659111,0.2373943,1.5631255,4.3546767
115.jpg,14.430828,56.814713,0.5197061,5.914855,25.766903,2.7137,4.9999127,12.877575,4.554543,1.4687527,3.6535807,10.217465,-0.431127,4.015474,6.6545978,4.653015,-1.022876,29.472183,1.4329096,2.4428885,-2.8252745,-4.1008277,1.5334636,21.078917,0.25506467,-1.9778103,0.07446855,8.441438,-0.12371428,2.1222045,3.3465133,0.17706214,-3.5146778,-0.15627426,3.4803107,7.17646,3.0177374,6.033333,-3.710436,-0.4083929,1.21621,0.7794286,3.1904042,6.0748653,0.9545954,-0.8917961,6.396642,-2.0383554,10.062505,13.328587,0.3555989,2.96207,-3.6974998,-0.91417956,2.8800614,2.4582827,4.8429594,5.861823,-0.12058858,5.251158,0.6729003,1.7459892,1.2902248,-3.6133568,0.6625225,0.91177523
116.jpg,4.412106,10.343075,7.2735653,20.521923,4.506667,-1.1201907,22.828613,6.922535,33.798225,0.1623808,10.6047125,19.674585,-1.021784,9.092459,3.9673984,10.74458,7.8720036,12.595251,3.509626,1.1329571,-2.5099347,6.6540637,2.3020153,31.860157,2.3439538,-1.5371565,1.8453572,5.204668,27.950283,10.852209,1.0390085,5.0381994,-1.1356308,3.270924,0.18038861,7.6218925,-2.147603,-0.36927378,1.563141,0.854088,8.56191,5.028167,2.9489715,4.0573525,4.504477,2.8643477,3.5184748,2.7111561,4.018236,20.44784,10.073488,8.842487,3.6761444,5.7706447,0.8400267,3.5806882,4.959821,4.604683,4.8356967,8.536917,0.48598424,0.676228,5.5116043,3.5924208,8.937181,-0.032048766
117.jpg,-0.9283171,5.952779,9.046008,12.573838,1.2229191,8.491255,20.906704,8.9440365,32.44787,9.141817,4.332548,12.563711,5.198704,2.4225116,10.565205,10.925638,2.3669553,18.575073,2.5084186,1.771106,4.3378143,4.1371493,1.9413886,4.8749366,3.7452743,-1.3709637,3.0854995,3.1212418,22.389656,13.555105,-1.1563076,2.2225657,-1.7449822,-0.0014058023,-1.8587719,2.2733212,-1.6633577,0.81159526,-1.467468,3.4118085,9.535811,4.896756,-1.9080471,6.7608356,-0.766177,6.5008583,2.889816,-1.7616808,10.442354,19.682697,5.488611,3.9671845,1.1789249,6.139201,-1.7905738,3.9366663,0.7795346,5.5493865,0.3267591,7.1374865,2.427301,-2.0681477,4.0044823,2.2675383,10.828472,4.3147435
118.jpg,10.612023,20.525629,0.87785965,4.651457,7.467869,1.7674606,10.007609,13.954888,14.941271,-0.77926666,7.4992085,20.761784,12.5778675,0.618528,14.352322,8.909339,1.2746696,4.1685715,6.005791,4.135251,-3.1942859,2.6375484,1.3608342,2.7345467,7.4771347,2.3686635,1.523659,3.6735966,5.163796,1.7163578,1.4653924,8.865201,-3.1489942,0.52367467,-0.10502906,-1.6893251,-6.646634,4.0921235,6.4486885,-0.08714804,0.4581809,2.8321407,0.95072633,3.1540127,1.369382,-5.7822866,11.053785,1.8346813,6.597626,3.9287276,3.1874661,10.383746,0.04405435,7.089383,3.173235,-1.8429086,3.2633219,14.987795,1.1730263,4.9988103,5.1181397,4.72453,-3.0691583,1.4116472,7.320317,-1.5314071
119.jpg,19.456806,15.7584305,3.9486244,2.5984914,0.81829745,4.6245427,6.9304333,9.556486,16.894003,-4.3274736,7.9693,18.24763,-1.5055004,14.939094,19.580946,9.325939,4.8058305,11.530445,-2.8790684,4.789154,1.3047123,5.1072636,8.049389,0.48955473,0.1312349,-1.6970087,2.3326776,2.3112695,5.2203918,23.642605,1.9386498,4.7574854,1.6592436,-0.622682,5.6481915,4.503039,5.290156,9.59737,-4.2661557,3.2536085,9.293073,9.039632,1.1361746,7.165511,3.4767435,6.895182,7.808914,7.358743,7.047241,24.066652,8.498282,-0.9853177,5.898989,5.462416,4.9297295,11.596791,30.544216,4.5145907,-0.2824509,13.251904,9.194991,5.519723,8.402079,1.7655519,3.7404697,5.094163
120.jpg,27.794262,6.965562,1.3493773,13.188977,-9.323244,2.6392832,11.392871,7.4473276,5.5695424,12.572294,3.8883805,10.589836,5.226926,10.144674,8.385496,11.787869,4.9655275,11.350701,0.64356047,6.396969,3.398231,0.7718388,0.8981362,1.9911041,4.8821745,-6.4021444,10.449581,6.721148,-1.119268,9.789919,7.607741,8.034596,1.4050022,-0.95687723,-0.9850435,3.8213358,5.5946074,3.8764563,-1.6067866,3.5116303,-4.185658,0.049878284,0.37542972,-0.53122735,4.0199094,-1.2402111,9.465768,26.029747,9.58772,4.8613625,2.5005202,1.1766146,0.1211334,0.83183295,-1.7248217,-2.0851455,-1.5146613,2.663639,2.4552357,-1.3069477,5.371408,6.001057,3.373023,-2.0189762,-6.3627625,2.496947
121.jpg,23.51999,23.113815,13.551222,6.8963633,5.117092,3.132169,7.083945,11.575245,13.51188,-0.1352034,10.4117565,1.252642,9.287615,2.450878,2.7066627,8.323846,1.8849697,37.122623,9.443567,8.5563545,6.608232,5.074075,0.07132222,1.0064071,7.9194255,6.0020285,4.7626004,0.8336179,-1.6192805,5.3499007,9.350832,10.547923,-1.4835815,-0.9495683,12.315917,-0.7296344,-1.4852386,-0.19191863,5.636626,3.2621882,8.710712,-3.1601634,0.059424806,7.6969733,2.1381333,13.17961,3.0788894,0.8612896,0.72614384,3.9055898,6.661222,3.9423976,-5.696675,-3.467185,2.169292,5.6085634,9.966391,-0.014115963,-0.65994316,6.923748,2.5785978,14.572796,3.1864166,-1.8517118,11.819935,-0.9437826
122.jpg,19.456982,27.0426,10.394186,14.619501,5.0186815,1.896655,0.66626805,7.325053,16.22341,1.5101622,6.1838784,9.485629,9.387472,5.9630775,15.283515,9.218979,2.917882,31.886095,13.753925,11.547432,0.78466994,7.8754544,-1.7274109,3.4473584,9.2600765,0.46809736,0.74907666,-3.2254896,-3.5079904,4.1116676,4.772239,-0.5245406,-4.3657227,0.72195286,5.6237555,-0.775646,3.3401604,0.10533585,-1.1675246,2.406386,2.1601982,-1.5693483,-0.14615953,2.7732978,-0.68375456,5.8242207,-1.0485744,5.2645435,-0.15856354,2.635257,1.5788078,3.4181423,0.38687584,-0.061757535,-2.4005527,2.301289,8.114169,0.80377024,1.4501069,4.924244,1.4003556,13.498208,2.5647328,1.184893,0.7523805,-3.0337193
123.jpg,17.945757,3.2494252,4.7275543,9.349478,-2.680665,3.2924078,20.408733,7.517481,24.018684,4.8729987,16.711163,13.41309,4.314693,10.694352,18.079731,0.6182851,8.812377,2.652689,-0.05177767,1.5833869,3.862169,1.9927107,3.496972,4.278209,5.00022,-2.5726428,8.602464,3.3069372,22.136927,13.257434,5.7945895,7.7566214,2.5575984,2.3394492,4.4730253,-0.8007851,5.5996594,-2.8599792,-1.2332412,-0.8951864,1.586695,4.8633223,2.7451422,6.7147875,2.9034753,5.8115015,4.04141,0.7679529,3.4538877,15.056935,15.325779,6.7161875,3.646275,2.0674558,-0.23516807,4.702611,0.06597731,2.0024252,3.2744646,3.3543959,1.5521381,1.6695552,6.1674175,-0.5171711,7.956384,4.3708878
124.jpg,12.5856285,4.5050898,8.399335,11.870805,-2.9910185,3.4570966,15.987942,7.429483,29.993279,10.304384,7.230638,20.453028,1.7760003,10.34546,16.43817,6.9571214,20.860697,4.6607585,0.64896655,9.736995,-5.123572,3.5807247,11.502732,9.097366,14.786964,-0.66437757,4.176599,4.4974027,26.850578,18.343084,7.5244346,7.573159,12.480973,8.683438,5.29585,-1.8757526,10.0959015,4.5962744,0.9648486,2.5675309,-0.26081735,7.1298895,4.914265,5.7058587,6.8448753,7.667303,13.356895,4.7938323,7.991363,23.31543,18.93427,3.026876,9.28935,5.3646817,0.018259697,9.314127,4.953063,3.3743918,8.094378,9.705778,1.9868717,3.510388,4.849619,4.166437,10.6723995,11.118811
125.jpg,13.350164,8.419649,0.28736362,8.92126,-3.8774252,2.5618505,14.887452,4.5492826,21.831276,6.463761,16.599066,22.6569,-3.1789355,19.310772,17.333693,10.470084,0.8056616,3.3418596,-0.5393007,2.7653382,-3.6010516,5.254907,3.9802995,8.673323,1.7413911,-2.3227918,5.8381753,4.174042,14.656441,7.5408278,1.0922971,18.702751,5.147799,2.512216,0.678731,1.7451038,2.5748096,-2.2417507,-2.4884584,-3.5881097,-0.42477363,4.669001,4.61466,0.41832057,3.7513282,0.73547196,4.4423676,0.6223971,1.339534,7.76651,10.127606,1.5481077,0.95339304,-1.2268443,-1.3953302,-0.092439815,2.136168,-2.3725836,3.7261062,4.1458073,-3.9131875,1.2242701,-1.3101101,-3.2732666,2.5803156,3.125571
126.jpg,12.264979,10.85413,8.110517,12.428742,2.407625,7.9709105,13.414006,5.6739902,26.102549,6.2839656,7.759872,18.880783,7.0752068,7.9388013,28.416275,17.847307,18.07533,4.1097245,4.316702,8.068087,-1.1445844,7.7669554,4.691571,4.475786,13.935148,1.3649092,4.870784,4.1454186,19.30893,14.505078,11.85138,3.2977543,6.102444,1.1088328,1.386947,4.8036804,6.396033,1.5397823,3.1728566,0.36302862,-0.27266434,9.21392,3.3471034,4.901532,9.998374,0.95098245,10.018824,4.552502,5.9230585,17.531416,10.836869,2.6245208,7.138212,3.5296328,-1.0407934,3.4042735,5.342412,2.925377,5.243622,8.059342,7.2358074,5.3744693,5.2258463,3.3642888,8.123332,3.872784
127.jpg,1.0071273,14.100756,9.405618,9.887368,-1.450776,6.4994125,11.540358,5.0514812,28.808094,4.1162195,12.269933,17.364202,3.1607106,2.4626987,13.728171,7.6414795,6.3712626,6.319776,6.4834714,5.358208,-0.8512376,7.981482,6.3805475,4.147492,5.982958,-3.5108786,7.1784678,1.6261878,20.6136,11.871406,7.0271864,6.870939,1.6502731,0.0753019,3.7385192,0.95228136,1.4508114,0.43542022,0.3499536,-3.393146,2.2458005,4.5610228,1.2537888,4.213051,8.251307,11.999796,6.710593,0.66728777,3.660045,13.485849,15.909422,6.2020926,0.576408,6.345116,-3.989566,7.727134,4.7797613,2.9354694,4.803815,6.136691,2.5363228,-2.843774,0.027914252,-1.1253357,7.7163205,2.0779405
128.jpg,1.261791,13.513189,17.92089,11.251608,1.3162346,4.8773613,18.686413,4.1827173,36.839603,4.409341,3.6409423,14.290365,0.39616787,1.9802167,13.303053,4.9319525,7.9443054,9.408869,7.8027225,4.013914,-0.8248288,8.333388,2.501827,4.364459,2.4304895,-0.35153294,6.324707,1.4149907,22.45353,14.415368,0.71309423,4.2097745,4.4331417,6.5038576,-0.8789579,-4.634381,-2.603614,2.1344855,1.1122378,-3.5667386,4.10669,7.611136,1.7669909,9.612241,4.737322,5.170312,2.4607508,1.9329313,2.84468,15.4457655,12.765093,3.127316,2.521366,10.614993,-0.6234027,4.7176104,2.1458397,5.9918957,3.5146759,8.675571,1.4389191,4.3868785,-1.2283872,2.351062,4.5436425,4.381728
129.jpg,33.026203,4.8578553,-2.0391264,15.652484,3.461637,6.4903593,7.167986,15.166802,11.321188,-0.5100648,18.396437,7.788229,8.67802,13.356712,8.522506,41.029995,19.849545,4.8793488,7.4165664,8.250826,4.782422,2.2150147,1.6652701,2.1697237,15.207359,10.995203,8.454497,2.8785217,1.2863635,-0.044771656,8.741185,9.763065,18.03916,8.26325,4.7155304,9.638955,5.5407224,0.9041395,4.36879,8.8609495,-1.60316,-1.523869,1.3653656,-1.0221914,2.9455166,1.5702202,12.168238,4.371552,0.27464288,-3.2360644,5.197926,2.8002508,11.335898,3.8394423,0.16010776,3.7779398,2.1979485,2.7343593,1.6726965,7.126513,8.35108,3.0186696,9.845354,3.758223,1.8353246,1.6373717
130.jpg,10.174098,1.6684096,13.345914,7.9206524,-1.0212803,10.860516,-1.6054671,33.19109,12.9654255,3.0692925,16.187794,4.306697,6.991646,3.116712,20.728935,17.219643,4.7005167,8.138414,13.838549,-1.9608219,-7.232581,1.9592732,-2.270015,7.05053,2.7245831,2.0919685,-0.08924073,3.027341,-1.1226183,7.632495,5.904895,3.9992013,3.7034233,-7.685618,6.799694,0.34898952,-3.3424206,4.808329,35.42145,3.5787435,5.4630985,-2.8950891,-0.5015088,5.7926016,-0.7531654,4.2142024,5.9196243,4.587021,-2.4735942,3.0332255,7.2438464,2.7463348,-5.2983704,-1.5861841,1.0608495,5.6641583,2.6884418,0.43200356,1.4755217,2.6629755,3.0029895,1.1032577,4.4209223,-1.6409215,2.5442383,2.8431027
131.jpg,4.7792625,7.3907795,16.614365,21.672424,5.491485,1.5738084,30.552149,3.1624787,26.85132,6.659414,2.175192,10.714136,1.4693764,-1.0626308,5.1351013,1.0331024,-0.58778405,14.342599,8.513516,-1.0568751,2.0431347,-1.9452797,0.32353726,-1.4793279,1.2378241,2.4211957,3.2405858,3.7891667,18.743893,8.691161,1.3315207,8.409321,0.9794129,2.8357353,5.9635105,-2.8513274,-4.0895963,-0.7034525,-2.2165413,5.836697,6.8944573,9.6784,-3.1032276,8.322744,21.106848,6.8948665,-0.47112122,2.3925505,2.485821,9.269725,3.6961138,1.5220803,1.430727,-1.0000129,-1.0984294,0.08444735,-0.12649517,5.6459208,5.4581037,7.0537896,2.7881925,0.5547965,-0.0608786,-0.6417745,3.588222,1.7272798
132.jpg,10.033235,4.7306023,12.468494,11.142459,2.3770716,-2.2740343,15.402839,14.535681,43.690334,1.6894642,16.51404,9.600476,1.4647868,4.039061,11.987813,18.709558,2.2678914,3.9372985,1.3748248,10.15511,-0.7665605,1.0747904,6.1305137,8.583003,1.958793,0.7740637,3.196251,1.7345693,0.6986449,14.560146,8.783783,16.894863,3.58876,4.260877,3.0978231,0.25882292,-3.4614422,-1.7522922,1.365832,0.77496755,0.5622903,-1.2923424,1.472764,3.2290246,2.2270513,-0.49732536,1.3228422,11.921347,6.336998,5.289679,14.15973,5.7268662,0.07218339,9.498378,2.1785233,2.0916533,4.5999107,7.004754,-0.19157915,7.3725514,-0.48540476,4.660121,5.2844996,-2.581987,6.2431254,1.0244635
133.jpg,8.020316,9.428017,8.196192,2.50761,13.240294,6.582647,1.608224,20.116695,9.869592,3.6025238,8.229044,7.010278,9.211068,1.2948982,14.747193,16.147223,3.1458213,8.99152,51.255005,3.6095982,11.492952,-0.7210096,-1.7688817,2.867748,3.3720546,5.162405,2.1063638,9.899389,0.49272302,4.16353,-1.999859,5.67154,3.4740329,3.2612197,8.0048065,2.7862513,-5.508863,2.3442428,6.1126304,4.0634418,8.367651,-0.96098447,5.018059,4.1729026,4.530835,-4.064021,7.9552283,4.6880717,7.5165973,-2.202409,7.4628906,0.019592512,-0.67687553,3.6052454,1.6716129,5.9885254,8.188662,1.6156292,1.301628,2.250063,-2.349343,4.853751,3.8253293,-3.4517944,-2.0008202,1.7070692
134.jpg,22.023891,-2.9317997,11.532959,18.78106,-1.3137704,-0.4923802,21.653307,12.514279,37.01418,1.5646878,9.915985,12.367563,5.1785254,2.547372,4.0865,10.852591,1.8006526,4.9496374,0.88896227,7.6693096,0.976787,3.884761,12.15846,1.4000375,6.283151,6.9566593,13.304358,3.8704543,20.42939,6.9804177,2.689792,9.777561,3.7851784,3.5952933,2.7115254,0.90924025,2.9423685,-3.073529,1.1294806,0.74129796,5.5760527,-0.5851894,-0.08666497,1.541908,3.600628,-1.23289,7.719791,7.463017,4.362122,3.7709572,3.669788,2.1711817,6.3083596,0.89740735,-2.1410341,5.137191,-2.3751307,1.3379022,-2.7545083,3.6384919,0.29704225,4.119733,4.755637,-2.0528116,8.468482,1.1567075
135.jpg,17.750652,-0.770853,9.36644,22.268276,-4.314955,-2.2914329,19.745537,7.7869773,37.332733,2.664442,11.303362,16.617805,5.16262,6.975689,11.161948,8.835583,-0.95173085,-2.4193115,-0.7050807,4.94071,3.9643955,-1.3799269,2.5946858,-3.4197454,0.10602921,19.133776,5.4441366,3.4284494,2.670226,2.7013454,1.92836,7.69463,4.405065,-0.11143875,2.9753025,-2.6220737,-1.4755849,5.278206,-0.4458462,5.239644,3.0898104,2.70443,2.0410326,-0.4558055,9.226414,0.12474424,4.893644,8.54971,3.3594706,3.6718774,1.8249028,2.3183699,0.65972155,4.516102,4.708064,1.7009597,-1.4180094,-0.049690623,-3.3796332,-2.2387867,-3.018189,1.071628,-0.23574312,-2.0191658,1.4967694,1.4710721
136.jpg,12.623024,38.816555,2.4852164,8.155787,3.2764442,12.053515,10.635231,8.367996,14.139135,6.706389,29.280302,12.456102,-0.9818421,13.223058,17.763638,27.983948,1.8679328,-1.7301178,3.6294558,1.8917825,-2.73073,4.249899,8.897643,5.3460307,1.8437591,8.413105,-1.2812601,8.281907,-0.7950698,4.03947,1.5356818,11.049725,-2.6734934,5.0655017,1.0156276,-2.5633416,7.3010235,5.0694885,-0.09933776,2.3312385,8.364318,-0.33025062,-1.7700274,1.0138595,-2.982737,-0.6208945,2.6907816,6.873192,21.420633,5.563591,7.223438,3.6533766,-0.39093104,6.4805284,-2.9813275,9.71947,3.6744847,4.3924713,0.8561207,13.092581,4.751681,2.6027095,0.6549238,-5.544307,-2.1106806,-0.11235
137.jpg,-1.5301216,76.60518,10.235584,2.83408,6.5266333,6.0839205,5.6490517,7.2016435,4.531393,2.6963959,8.684894,8.424017,-0.07661758,11.311379,9.391964,2.6549275,1.9794811,10.289899,-2.5965488,3.3324811,-4.4614034,2.870575,5.042589,5.1822944,-0.22358769,-1.6860951,3.4203901,8.049058,0.7943357,5.485694,2.7676256,2.9200957,-1.7940117,0.25128052,2.4080346,1.877741,0.62450683,2.6745768,0.8149354,-1.7574939,-1.7530606,2.8299894,0.3471476,1.7560527,2.1618004,1.6420759,3.748104,3.786458,5.0717735,5.415134,4.133772,0.95411015,-1.7723871,0.945602,2.630721,0.85072386,2.5968103,5.65526,5.843647,3.7896276,4.0164585,2.8085923,2.5025747,-2.6310563,5.5699944,-0.036987245
138.jpg,6.5622807,25.305727,12.816771,5.2263494,8.765018,10.591451,7.8513646,4.08561,8.62367,5.605957,9.0508375,5.946255,3.7350302,9.787186,12.348768,4.0417175,-3.2163675,27.105722,-2.169745,6.1546144,3.4520903,12.184053,0.62193114,5.371863,6.0341964,-3.125704,5.766285,16.622566,-0.50097126,11.3876295,7.434391,7.955187,-0.46917546,0.6151,8.148546,4.0039144,-2.6238716,0.046857633,2.0439432,-4.8002806,-4.2303214,-0.1299072,-1.3669301,7.3486557,2.9110687,6.6352973,-3.0254796,2.4657278,6.4752297,7.337876,9.46287,4.4350057,-2.3644316,1.2133173,-1.6130888,5.7352476,5.294249,5.937417,11.151055,7.6394095,3.3794627,6.0090175,3.191074,0.33444455,6.0233407,0.7008643
139.jpg,-0.2514584,40.654163,23.198751,5.1442003,29.01882,0.46613082,8.352386,27.975664,1.1651009,9.321178,3.934343,13.688232,-0.3242328,7.5305758,11.137522,9.902231,2.1279461,2.1588755,-1.0301898,7.649471,4.1703544,2.8342648,6.725587,8.551817,-1.9057475,2.0390246,1.0155139,10.254425,-0.6134666,-0.3536461,6.6985326,8.5342245,-2.1254513,3.0271654,6.8808646,13.249013,-4.768238,5.7742414,-2.3005445,-2.1621103,-0.96692723,1.1146377,4.268487,-0.7680663,3.3398397,-2.0865376,-3.7422628,3.0117521,5.6440897,-0.7382383,-0.7925216,0.921466,-1.8507462,6.1650887,7.5911207,-0.19987011,2.284142,5.693879,15.999581,0.18668391,1.1782176,-0.35836595,-0.7373896,3.5793571,0.8471111,-0.77376187
140.jpg,10.984841,1.6764652,14.357593,36.33545,5.1179233,1.6254865,13.348911,10.254661,35.187225,8.927064,6.15985,12.553537,16.344128,2.634248,16.001984,3.7299647,6.626798,-0.52009386,9.47778,6.981487,0.13655648,5.520105,1.1549045,0.023298897,12.0662565,4.183849,3.5604033,-2.5024285,7.4231887,9.6981325,2.8958035,9.176998,4.3081684,-0.20473161,9.177956,0.72888905,5.653274,-5.8470426,12.620272,8.368353,0.12229988,0.8305656,2.3636467,1.7943726,2.3712997,0.27704313,7.6558156,9.042428,0.58485603,2.8079998,7.594537,4.4811954,0.6086615,2.1193166,5.451935,2.6866975,-2.4686077,2.9440534,-1.3375415,8.617831,2.1647964,6.349507,3.3402796,0.09901696,-0.032649934,2.9151614
141.jpg,8.573043,5.8202186,60.561012,2.9493606,-0.8429782,12.521023,12.958334,3.883036,20.969435,-1.7793701,14.297006,4.737063,3.6636527,6.273618,11.741754,4.1351633,-2.661581,4.3984323,3.785171,4.2297482,0.2716832,1.3930055,-4.326479,-2.846127,3.040667,-2.5502195,0.110814534,14.286344,2.5672524,10.587018,-0.8604685,2.91686,-2.2363718,1.6795675,4.307936,4.2749095,-0.49350297,1.2310022,1.1420754,3.7595794,5.639947,-0.84090483,1.9418757,1.231425,0.2917486,0.99469435,0.34310555,1.5181787,3.7467237,-0.11563976,5.9705114,2.9077451,-3.0277085,6.9818406,1.8617477,13.262045,3.3126295,1.6117014,-0.85684973,6.4240227,0.22741947,6.585451,3.3918114,0.7803658,-3.2132823,0.18423703
142.jpg,23.520601,-2.5961666,10.286741,26.711693,-0.34487212,6.866639,13.772975,12.163394,45.827232,-1.0626086,4.757899,4.893765,6.7622876,-1.5968969,10.942435,1.547367,5.0357614,6.023321,1.861627,0.74034953,-0.9834732,4.3199563,4.025449,0.12678243,11.130391,-1.4959918,16.76702,2.073421,16.01903,8.904415,2.9922333,3.361475,2.1278052,1.6148416,2.4052017,-1.4484811,0.6771722,0.07517785,2.0162544,-1.979355,5.741541,0.055756327,3.1523147,3.0609808,0.7853334,-1.2323188,3.0304484,12.562634,1.1137922,5.095435,3.2202964,4.832969,5.355477,0.6487742,2.8365703,7.4230337,1.584473,-0.59599537,-3.994788,8.20331,1.5446243,6.617075,1.16562,-3.5392485,1.6926851,2.3521333
143.jpg,7.231456,25.790756,8.730362,8.215551,5.260673,4.633724,4.1156945,9.741921,14.410761,-1.7374095,5.454249,12.003199,8.214708,11.626118,11.466601,15.807228,-4.0128036,41.303833,26.808659,8.86142,-0.5218466,7.236686,4.034382,6.3916087,1.621404,-2.6113522,7.5627217,14.134283,5.286754,6.5659127,1.842152,2.7270975,0.30135795,3.2335634,8.073467,2.2375345,2.7785518,3.6686816,4.7676163,-2.371271,11.8778925,-0.16184337,6.5839014,16.107395,1.0329574,2.3422759,-1.9592669,7.2392116,-0.96779186,3.2606862,7.729945,1.24822,0.87294525,-1.919556,-2.6313763,11.992506,7.188343,3.4100666,-0.24440102,1.3650393,1.0203838,9.748719,6.977065,-4.5557566,6.9724636,2.262463
144.jpg,41.008057,-1.1997195,-0.9385202,16.188967,-4.8623753,6.0986824,11.004226,5.9701166,10.625834,-1.3073549,23.20495,4.5736084,4.3142056,8.643918,6.4386497,27.464735,-0.1618925,2.8197925,2.655379,2.173077,-2.0821636,1.0644295,6.6772184,9.989341,6.736779,4.3457866,10.917923,-0.18508193,4.969813,-1.1621878,-1.4967624,12.2970915,-5.0109744,0.4072364,-1.7433777,3.1861572,17.04264,1.5540109,3.935501,3.4364827,2.4919908,2.7061317,2.0553749,-1.7846451,2.5579526,-1.6461941,5.902579,5.13008,5.68268,0.9257063,7.10507,7.184305,4.349818,-1.3654755,1.7592225,6.0364337,0.54668504,0.05945014,7.122583,3.1474907,6.587161,6.9590464,-0.098344564,0.9883996,1.3561445,0.7287373
145.jpg,1.6486933,7.826814,13.147165,5.174816,9.224914,-1.3615615,11.487255,9.084443,22.258091,8.423864,7.8134613,14.497993,1.3293008,3.0581315,11.641354,2.71275,-1.1936827,15.809647,0.33840808,11.159414,3.9358442,11.345369,11.475642,11.837123,-2.4216492,-4.1996217,1.6574571,1.8727757,26.129982,16.82109,5.8095536,-3.761781,-8.34018,0.26352602,4.5436583,-0.48964098,-4.4690356,0.026991824,0.35808924,3.5607643,8.306128,8.666481,2.9087727,8.255331,2.5839143,5.036185,0.80004054,-0.6646726,6.944973,22.053368,8.990378,0.592436,3.73874,-0.6312903,-1.1822125,5.1083765,4.7442827,2.7840335,-1.5355577,7.5373573,-2.2569745,-0.27698848,8.156249,1.587417,9.78811,7.184291
146.jpg,-5.2422686,18.87855,17.445683,9.57245,2.437491,3.9506443,20.022663,10.913551,41.281517,0.23679323,3.0926366,9.369746,-0.2804801,-2.701473,11.392813,6.0173283,0.85309136,17.347057,4.9383655,5.700758,-0.22033574,3.8198636,4.12146,0.13245511,0.24886629,-0.7588219,4.852073,0.685999,15.940282,15.937686,2.919079,3.0029523,0.7536375,-0.42863962,3.6309726,-4.747536,-6.722237,0.48247027,-0.98447603,-4.580465,-0.24879667,3.9722652,-0.6979388,6.2547283,6.7636013,4.8953705,1.7923573,4.4244576,4.960091,9.242388,8.615306,2.5051286,-1.2760233,5.6143346,-0.38551593,7.2404675,-1.4042735,3.2784417,1.5159295,2.6876829,-0.28795934,-0.8486282,4.2526765,-1.3419585,4.325578,2.4472613
147.jpg,9.220232,8.304212,6.5120926,14.182395,4.111136,7.1838098,26.784199,2.1407323,26.77995,10.749888,8.66309,11.00232,0.12507877,1.9764442,17.480785,4.6146336,0.5772046,21.549128,4.982697,6.0252604,0.62200063,7.335516,0.4025001,1.341531,3.4971113,-0.94555134,3.625887,5.720659,24.071165,13.929108,2.0408278,5.954786,-0.30059636,-1.4340744,1.2859055,-3.472982,-8.783477,3.341276,-2.8469644,2.5984354,10.61,12.4451685,2.4529963,7.524253,8.519303,5.778031,1.7344699,2.1533415,5.0158844,21.920538,8.873529,5.730209,2.6790812,-2.7608025,-3.0372117,1.2416587,3.7098303,3.6809638,2.7699876,7.0262594,1.1221945,-1.0862234,3.892861,0.59455967,10.914542,-0.5792467
148.jpg,14.189827,35.048683,-4.0752463,5.423351,5.48157,8.571399,6.064104,14.769435,1.6978221,-1.2003247,9.5204115,13.568637,4.053854,6.749709,14.652549,13.204689,5.449812,40.78407,6.2904196,11.163966,-0.34958813,-5.145511,7.7128572,11.436777,7.5386395,-0.00803154,2.6847868,-0.8637713,3.8604817,-2.4006817,2.6659913,-2.9379613,-2.420133,0.4498789,0.81256276,11.934539,6.6642404,3.8869114,-2.3404884,3.4010873,7.1711063,2.1915257,-2.5905328,2.3253908,7.8780017,6.6570907,5.8955693,-0.24292423,8.56598,9.512399,3.2686841,7.825045,-1.2268765,9.584611,2.482684,0.24752025,0.40326044,4.300258,16.927858,6.50397,6.327487,3.4996521,5.819698,8.49037,3.6126971,4.1904464
149.jpg,19.67378,27.787191,5.8803406,14.198001,18.087425,7.190986,13.13369,10.918845,2.277449,-4.244267,12.169273,15.555659,10.630411,3.882536,16.588448,2.3517208,6.637201,1.9667734,-1.9905862,6.073474,-4.675046,2.5882702,3.1578507,5.958048,5.167796,-2.8662343,-1.1798636,12.27784,0.612804,0.9350288,0.72686076,7.2280006,3.0042617,1.1573019,8.459202,1.1027296,4.1374683,1.8942304,3.1880352,6.405156,-2.8535311,0.60970473,1.9188762,-0.88289344,3.2410703,5.6854677,10.64459,6.185386,6.083442,5.0855618,7.854987,9.762217,2.5440495,3.8231432,17.300127,2.9276953,2.9284408,7.653043,8.376037,9.355646,2.0707994,1.9885573,3.6665068,1.8362298,-6.090204,1.4330555
